function [y1] = myFF_Function_(x1)
%MYFF_FUNCTION_ neural network simulation function.
%
% Generated by Neural Network Toolbox function genFunction, 16-Dec-2017 18:12:56.
% 
% [y1] = myFF_Function_(x1) takes these arguments:
%   x = 12xQ matrix, input #1
% and returns:
%   y = 1xQ matrix, output #1
% where Q is the number of samples.

%#ok<*RPMT0>

% ===== NEURAL NETWORK CONSTANTS =====

% Input 1
x1_step1.xoffset = [-0.114988529753714;-0.0905149956904574;0.871203434817158;2.14019153787773e-07;0.00108782622916156;0.00110796127172547;-0.0563165944149112;-0.0282407879759934;0.920444536354435;-0.471284624289299;-0.180349771677152;0.122374832724882];
x1_step1.gain = [9.71448881253221;6.47486932930602;13.802841521281;9.1528340075781;15.8730419196471;11.9705981601438;3.19489729429084;6.4809098827093;8.15434842774334;3.9316118618341;5.185144566933;2.3159987109437];
x1_step1.ymin = -1;

% Layer 1
b1 = [-2.1803927564223806;-2.1049882873764614;1.8632933290468019;-2.1405557745644344;2.0938000478348848;2.0594080952630609;1.8461186705304611;-2.0850861768838223;-1.8970944860073353;-2.2808988220329596;2.1614000699312266;-2.1631465960622793;-1.905524312671997;1.8051842980155204;1.8243681071920703;1.7026752355131891;-2.0694026945248765;-2.0006211519787036;1.8513616449474033;1.7411245371299233;-1.8719637596805074;1.9117018240302137;-1.3163355818446987;1.801972619944934;-1.6897724154262113;1.6111216149008332;-1.5359977164505245;-1.8315896196903572;1.5663642428010569;1.4280332171225927;1.6966801044126396;-1.40822929222515;-1.6613414399676334;1.3004226387016458;1.4742239948098577;1.4219189337641545;1.3741865651508662;-1.6101241245954858;1.2163465824014934;-1.5772897761351081;1.3101960250242481;-1.3631952262702667;-1.2070317360738538;1.1142318529819253;-1.1823274013600491;0.98163586676021897;-1.2320741698323823;1.2115395917257716;1.204649517452826;-1.07643832794503;1.2360786464231528;-1.4387811710320941;-1.1142936881447301;1.2665097447356504;1.2127763788867045;-0.76338409659793927;1.0713261306976827;-1.0021612305207874;-0.54986264892516179;1.1263285813300283;1.1011944212762712;1.0473092910936448;-1.0954992674878175;0.75896898753555486;-0.48061098553649728;0.8278468160333734;-0.65666045857194177;-0.6260723681244319;-0.61551346524613693;0.55346067183967573;-0.47310322531491122;-0.4089237934914684;0.35859832113083667;-0.30041514946309211;0.23976179364202918;0.59944985897241621;-0.50680586039306563;-0.2546792564841493;-0.64897896851520565;-0.35864878529732536;-0.61097562910622472;-0.43429337652403488;0.40165366795721802;-0.30192619046748154;0.38796178785184493;0.40769144540823465;0.14152497645422973;-0.019202765577075842;0.30912020804208773;0.56762487685421925;0.11068708698155073;-0.25618365344615557;0.16916717845070392;0.47133320096541237;-0.0097101003188404117;0.19719989543111738;-0.17423520013295932;-0.13409555977467724;-0.048445415168742401;0.18852362307887222;-0.28666597434122287;0.074124288716424902;0.084377102288154454;-0.26226253927639004;0.21725018831325385;-0.033680547807475994;0.081548857019328555;0.27323614708847038;0.11091608051027185;0.69946633858255036;0.61991860581299829;0.05571905109012177;0.040216000078387826;0.42591289338949423;-0.20692483510009127;-0.70069227292306713;0.16151009455431661;0.43056646881137906;0.19417306442183699;-0.59184280190850769;0.20083395655675518;-0.16453969602292517;-0.62519702463248072;-0.5133977359442492;-1.0403048004427216;0.56665359339389743;0.4558884398891449;0.72762585653544565;0.31313248310951713;-0.98500887416276961;-0.54159732872406918;-0.73175191089263292;-0.63580837875576957;0.78145655662770386;-0.90787808094117306;-0.59548840062918551;-0.82730609004365263;0.77949266319962729;0.90425539326749149;-0.77685005253151773;0.88485870754180751;-0.87305195683421688;-0.74723976019990468;-1.069760941872737;1.0064190918479778;0.51535236492323766;-1.1673511556682363;0.99961382749153727;1.0848977905736934;1.1121988915926653;-1.0611185687446283;1.1370211082430983;-1.1209684523732737;-1.4350320605527171;-1.0006119008215839;-1.1718867286516399;-1.2381241641987293;-1.2791886384579574;-1.4380215425986449;1.4830239936604164;-1.3522240701622945;1.2527486217262449;-1.4077207014649529;1.657392882955617;-1.2146809142575736;1.4255323723352562;1.3710257699291195;1.4778322789243539;1.3759593789590232;1.4581457246039242;-1.3202914414209532;1.6507751738088861;1.70686612582251;1.6818690884438203;-1.8837953712395548;1.6097437827095675;1.7859374124949534;1.6876555525433332;1.8942686591937445;1.7147289657611511;-1.7752183881010404;1.7375079371791797;-1.8128851827991679;1.8116620105379653;-1.8106712235264175;-1.6691871567401222;1.8028307473919465;-1.8976444980056957;2.0076904854634585;2.3329667483730177;-1.9644294617238827;2.0724336827018517;1.6278239139144548;-2.1825803578412533;-2.1073945967403396;-2.3904102404790124;-1.9124596628374841;2.120429076931075;2.2215629261355661;-2.137494695111644];
IW1_1 = [0.8656130804930523 0.2015549287099607 -0.32837642291460467 0.40240865983821 -0.43042688964859488 -0.28084882077034917 -0.17635245772348082 -0.32704424303437651 -0.15048698228151369 1.2586814613206685 -0.0072467550080296131 1.1774428038253841;1.0582569496057281 0.33681072122651184 -0.61860359542694054 0.28364131355683925 0.28944130311583105 0.30656134199413754 0.51436058287740227 1.1439738073937804 -0.78878719262448715 -0.034386002868192211 0.27206737996669095 0.31236239850146674;-0.87563315753042348 0.20723972918627501 -0.61762245219143685 0.4768909607285054 -0.39520672815627822 0.020018046041207015 -0.022363516075515427 -1.0746937564560135 -0.35562791592887499 0.54574805382548275 -0.13701778036406956 -0.82621827634776623;0.796983508842391 -0.67930554304360391 -0.76588391713877302 -0.68568508256872274 -0.30989962202482541 -0.25958249565646668 -0.10434293249864937 -0.82947760249043345 0.62579486893258773 0.27931825526528131 0.77371436010487382 0.65622739822616172;-0.80291131838249308 -0.70864812649515996 -1.0866232890877403 0.94872521849192337 -0.039447596612026486 -0.033376960711310383 -0.25866918211945317 -0.61831705331668096 -0.55483310986786272 -0.78936446315028164 -0.63066122003709968 0.35004080895938011;-0.88027521527932795 0.18832422800306992 -0.54435936977518795 0.78673001058957714 -0.32800796949509481 -0.34537387976486839 0.47076465423992098 0.47865130446663784 -1.1007836184217199 0.43954396967275289 -0.36317417974800886 -0.44726783000506898;-0.67881134811814836 0.089738458938027302 -0.15895515422717821 0.32781617885607867 1.0538096463762376 0.48507993294298146 -0.58134207743248834 0.93911327185500981 -0.34347131310719886 0.93291317104226446 0.78368478218826221 0.027932071706093971;0.4800361469415711 -0.13301496488431835 1.3448724413828566 0.16824981832302763 -0.34470052646795335 -0.74700630913612698 0.61068568863064243 0.59810191820373315 0.33713525959333457 0.35442614572665254 -0.85479849496780169 -0.32698731501141703;0.62674789459002078 0.6568333100441055 0.80308006898411155 -1.2238776509999876 -0.8690838494613895 0.11816588883068498 -0.37552304020624422 0.024812129260937871 -0.73827776925376187 -0.74192903071941485 0.070636460787625477 0.18292893461664481;0.39738943383453218 -0.2608740256044017 0.18031985295278558 0.99231971333203206 0.16982717190124183 0.7838589784336405 0.7441039460541885 0.5048442143835784 0.62472903415048675 0.20076828481612158 0.72213855504885338 0.67096408984256606;-0.66717760649218205 -0.05279198697998487 -0.28652667258939946 -0.81928175772102829 -0.57791989744235095 0.39531380086911444 0.2108517137285254 1.1810621721624035 -0.55578105910052977 1.1249215765325609 0.64197040299414976 -0.081856753473011079;0.88633605265036675 0.37085431712265471 0.31962212656675221 -0.39577690615401367 -1.1130258514740727 -0.33076566669453489 -0.58035088868867724 -0.58822585644106495 0.36059791619301351 0.58929880310343563 -0.53319283018296493 0.10602383610364548;0.85459182884511753 -0.62768124949526838 -0.59064116577910619 1.344192992178781 -0.2540883678784438 0.68970508839074407 -0.49580128813795615 -1.0003863158606612 -0.82272547595827084 0.43603072757426076 -0.084485929437462512 0.38215096833561413;-1.4917486319008613 0.062603344474537886 -0.78946365650632311 -0.068291820361467942 0.97935284011059454 0.24205394627675395 0.50465099893733278 -0.41998127761670573 -0.83170071173061988 -0.29841166190563795 -0.86210823513486878 -0.32031108344668574;-0.78535464997160875 0.92401434193044674 -0.77156462865701148 -0.82923118229485837 0.31049937340894407 -0.16737772936373335 -1.050301095895811 -0.16370619136324727 -0.42244646270334807 -0.66829849618785475 0.57973663179755375 0.5292300528644337;-0.48686363916511355 -0.91418227156324305 -1.0284089320007479 0.2792553635439643 -0.97095186795358168 -0.56827212969790419 0.078291545087976921 0.60948017518758113 -0.60925389094418725 0.040467708656742984 -0.2366086146972341 0.59549909949269531;0.89534315792707253 0.11610041587478194 -0.63943204855336999 -0.13333157860785816 -0.34085480733161622 0.52234637057905975 -0.68983024565412343 -0.37367198229041593 0.62405286088924328 -0.24884770764557809 -0.79383941385085 -0.99373817164903422;0.62172047805241748 1.2081992092039799 -0.40096745609893603 0.51185334614381683 -0.56275829167363312 1.002785386269343 0.25155806766093208 0.085615729492084167 0.061494082213225873 -0.74030856688410018 -0.012572583465314466 -0.14933351654548033;-0.63610366766966853 -0.086506132183083367 0.50486429125477161 -0.51361789419554427 0.011747546450046529 -1.0002082585641134 0.25367423901465941 -0.87186491446230097 0.75869814361070198 0.94650817831731882 0.10388567599357665 0.04276740767304902;-0.51145650958810518 0.018735191460843591 -0.25050615443823676 -0.80732493253531612 0.4056849969699925 1.0162620707281669 -0.67218824838520563 -0.39105191063083605 0.078462252688829712 0.77011591412070635 -0.37407059780585539 -0.88285709799694834;0.74731591795102281 0.97096258297884697 0.79854090016872892 0.52756449084776447 -0.24440100689869027 -0.92434093049569099 -0.24089064108160768 -0.85420361849271176 0.63626095958234896 0.47703032699645864 -0.30649353686465081 -0.90193306891667757;-0.36684413304577956 0.56571159074728683 -0.90704586281795962 0.026880467938014366 0.76871468436735035 0.75356954384546149 -0.79829668069270576 0.60880529264789141 -0.13956582263316236 -0.69666807533120589 -0.79862465468038946 -0.97995186911015952;0.7078446529024407 -0.99187306463029246 0.36457959766397358 0.96738870108243025 0.24537374657532726 0.96019598572950537 0.80328321293456739 0.19870099689410359 -1.144499808181842 -0.034179661795184266 0.86226727953443405 0.21696827424667353;-0.12197332836545267 -0.27138176461725605 0.99349274886500039 -0.50189907629160524 0.86335292317909051 0.78912467627529315 0.53485637469295166 -0.037437501253200223 0.1515680188755367 -0.16228467299712745 -0.065696823749740188 0.48684442469533667;0.92519818160544276 0.30190906899090453 0.17163863723921302 0.31884636903077473 0.32075588284464551 0.95237407467996438 1.0726678350401724 -0.67999488502668137 0.062122844644625905 -0.37191565714608527 0.3046975828225259 0.86352702790421687;-0.41389872376811332 -0.56305121998883279 0.77831211433419767 0.062041275566353499 0.016667146631456985 -0.59743895145239612 -0.88969406370037185 0.081688641766281891 0.42311562671796676 -1.0881416041645051 -0.75644210651374222 0.82254121745181585;0.33260125133589402 -0.047295426453826547 0.7865375804287118 0.77801043387495716 0.67479263005736689 0.62141786692349976 -0.76670947595587735 -0.93663037609665512 -0.71437135157114873 0.67780370340691698 0.49932040429365454 0.1919684353732361;0.6649696548120585 -0.92471028253926491 0.93751687297507136 0.043592475846816151 -0.22257990055765836 0.79682994792062911 0.12198573442239988 0.82309802775874141 -0.097338791199270663 0.072016004235239517 0.28429722991562317 0.69606743573424412;0.048479315413763782 1.0380731420571714 0.09281803054479576 0.29113279540455056 0.58524349061652614 1.0951893853738566 -1.0026274052554949 -1.0885648945587132 0.055765106265455333 -0.53513260151257103 0.79862162628928335 0.046761550827325561;-0.83545673876035909 0.64730906461060755 0.63603745019821756 0.48357543795271102 -0.39855113071265369 1.1132510550738577 0.022521441185315086 0.44398159588351854 0.83385417990467681 0.42605727589511599 0.79623151792896685 0.60557076136134347;-0.31512295278495583 0.71805284487409304 0.82321569945399264 -0.2055744845800585 0.50569974991285271 0.59632555288591171 0.090588387916634081 1.0443737323420752 0.8519591379157524 -0.014656825341737983 0.53498884768398114 0.61228362405118231;0.93578207386931911 -1.0045699152763492 -0.079025250687449117 -0.3214862860573634 0.28908932659606007 -0.96713894303990233 0.40604731995703036 0.38953155741768264 -0.92641929486655528 0.80076224601768409 0.47025673235337029 -0.70486754746911007;0.54384508577800006 0.43304277449693629 0.090751526879445918 -0.82454389531047334 0.44763195483852641 -0.071276122333855371 0.1760682190634833 -0.36014318019805891 0.83951013254477802 -0.82742946348525293 0.83235791790651015 -0.68588129048494995;-0.018121335569242249 0.77266920937215444 -0.030466306316719059 0.49350078479125464 0.11500634297995138 1.3267384340021064 0.23960842373676428 0.59492729425800606 0.89810037929946829 -0.44513084179843521 0.075574645763835602 1.1453158554228142;-0.24750385197209751 0.78681089380100877 1.0374133953952378 -0.46050039506072904 -0.17092231136756586 -0.26774988652028109 0.76886724978322107 0.14777725651482998 -0.58558788616848001 -0.16646376256428966 0.92823239721144812 -0.63247611134407911;-0.043987676105955852 -0.27772880994054489 -0.34484970046601604 0.40394356755434274 -0.29858613202017459 -0.58266261785482787 0.75992816380198747 0.75340805374300712 -1.0424546637659027 0.81933365173386652 0.53260829516822616 0.75477911411456333;0.021113347379359215 0.09444466154281618 0.63846058845413278 -1.2195406603399515 -0.81740162118179582 -0.35203772901900765 -0.61094732512536498 0.22585066937962703 0.62281698007493036 -0.083855466138625101 0.39288419983001283 -0.40944755733921101;0.12684883883370052 1.1329527815016092 0.2948581762850318 1.001139759384418 -0.43484441375424154 0.66915747074989096 -0.20280916155629916 -0.36062609491336495 0.50316585729156371 -0.73297621526244849 0.068499531085150694 -0.38742494963453677;-0.88437341605822639 -0.42031558795242552 -0.27604989762162607 -1.1752334059555933 0.42300139012768384 -0.40988545736721843 0.45395890332808042 -0.70306891909427827 0.87422939457460525 -0.23871812550064062 1.0146762589367926 0.46311934542178945;0.20017986124200149 0.70953608820461 -0.87331263127143843 0.70459850899004217 -0.74664428191329935 0.36446195509517604 0.34852846340164961 -0.64803742895916117 -0.83656808825289919 -0.86868141713941016 -1.0066335216485878 0.63490196925358777;-1.1266420662717165 -0.47583934313571968 -0.68776273422426282 -0.0296130345210011 0.077681513290228252 -0.16382930851174521 -0.95325806871342744 0.70057349883595199 -0.24290408362154814 -0.89673516014220434 -0.54068654387852766 -1.0345784881838225;-0.027155432541624412 -0.84614012351417955 0.78424158926481402 -0.41868876525823623 -0.70346637395727174 0.96199812655056305 0.8652949023773725 0.61628822925957327 0.70699049090623456 -0.56308874778433693 0.31703631801052701 -0.057837308439080005;0.80011970149673139 -0.66961814443181289 0.56719793156743914 -0.86858360416850589 0.46339939071111835 0.25549448622945159 0.32199521862778691 0.39298357196337619 0.57096225557590152 0.83191421333920423 0.4443296541433594 -0.59760388822164934;-0.1379393484031522 -0.40730661053323647 1.0251020409087597 -0.54598075069438445 0.58177693673754916 -0.72367216519329547 -0.24996688160790231 -0.75899773531415471 1.122982316262221 -0.79808665918568578 0.20735612599917386 -0.55664230482414367;0.64840181993412482 -0.98997695021686649 -0.13613165727840698 0.50260565508858701 0.43368472990465246 0.83253174501014071 -0.15864727666293196 -0.38192791640726853 -0.1597272274700435 0.71181527945764889 1.0115856456982868 -0.21286333559540033;-0.16083909519176318 -0.84834887390540159 -0.63094140982457969 -0.87942277009871772 -1.281772369080983 0.78819209730716777 0.65432612052805927 0.15924690671212302 -0.59722992755057835 0.15367977724110146 0.69895896750127129 0.97971779810664728;0.051067183571935709 -1.2585266090886014 0.81943489179858453 0.52691437770383498 0.74770020731111886 0.45743460842654332 -0.43359808489531398 -0.57250612888558883 0.81893731891343557 0.75885142173465991 -0.25201935231541472 0.029083240203749736;-1.0290199510880893 0.96526440606748998 0.31465784489459409 0.73063126955081137 -0.2181378835841952 0.16234730316810891 -0.45952992123432929 -0.25135683364772354 1.0608348867466701 -0.39433967288965316 0.64902671368391152 -0.033467719716388851;0.17594115579648023 0.8866218629699365 -1.2223332664031983 -0.46831070773665706 0.33587982845176145 0.22307420276379633 -0.88948752149010557 0.71596520189653812 0.8688838941448439 0.50428413791616744 -0.11579976815519491 -0.75039564030830086;0.096247345516656715 -0.1255447543061024 -0.21341662290909297 0.88520738715864877 0.87889547904368115 -0.95148771589351244 -0.18841112034852461 -0.87883718513319831 0.5269087530314831 -0.79777000843287238 -0.17069885509928809 -0.77369251490945412;-0.80416071159126279 1.0535061034445556 0.59276586333813919 -0.37990330999176958 0.13691790726808714 0.56101653483464808 -0.55581443039562017 -0.57269386533421573 0.051301947425791083 0.62969705427813216 -0.67052163170904611 0.94263291691214535;0.34374027331356394 -0.65189745170232716 0.37007736465739427 0.4465962731361427 0.34380715778545834 1.0550375889998316 0.098966590729386142 0.5577346158737545 0.51003599936540489 -0.36909947303641472 -0.92381686759746329 0.74752736854762669;0.52739482251971526 0.65413552323032209 0.26362107933384188 0.038139913954873761 -1.1302812171295695 -0.86463187127218677 -0.75521846569505091 0.54979979217238206 -0.86200672321382232 0.89621562386220066 -0.095378027904149787 -0.3684753081917882;-0.65475363614008242 -0.50313056569545889 0.76574466199979774 0.45086869186242262 1.1282707976934674 -0.6441825866246178 -1.0564924729327192 0.48671537547258215 -0.8483448307662832 -0.41659726778435668 -0.74203796492976148 -0.33979812993736247;-0.046548526143815765 -0.71734730605181207 -0.68367753969998446 0.0079657274119527329 -0.18280470916314698 0.30445791687264151 -0.87324194674654276 -0.76203626750722653 -0.54711565999824274 -0.46958765095086841 0.65956138448272239 1.0130406812814545;0.16530647658526232 0.37735578095772682 0.31478793537170302 -0.37161862712162047 0.53209639708552603 0.009482569024653234 0.057019348209664138 -0.60087084394087764 0.76053607269380719 1.5158424927049001 0.7093765175780582 0.65503481818290088;-1.0544942905574055 0.40878425493284254 0.40624011622270578 1.059453698410334 -1.0875913931337506 0.29007291228782034 0.32080327310476059 -0.98268884596703843 0.22449753596175898 -1.0471171808747315 -0.054761978220173035 -0.46743506801124612;0.3414040400041104 0.35407562129315789 -0.025180987652899264 0.53243034890697893 -0.70816340608561767 -1.0229519573056698 0.59886264996933847 0.25427288061644804 0.71841513048326755 -0.67938319722080132 -0.31912545334840658 0.79131017680233628;0.6392464930446542 0.92646801762933062 -0.56251257664450272 -0.61224994067199923 0.081479994790650614 1.3203693908313006 0.5146708200352671 -0.54187526685878629 -0.5866398351755413 -0.84583103992066655 -0.45056892673348836 -0.0089532032604822745;-0.58585444769895023 -0.89405985591717729 -0.72910159263615082 0.26021625188592157 -0.70089537049891071 -0.06896963737658944 0.8283378342222395 -0.19743801033847491 -0.13060529338483912 -0.74210369746353044 1.4533374886381361 -0.039966265765989051;-0.43555197846428123 0.45341018512583708 0.8314746615120524 0.061608183085958453 -0.23608606468187568 -0.83593982528771305 0.71376290846770452 1.0472333329673391 -0.28970538804311669 -0.043090423532558569 0.72481722579839669 0.13064343801159897;-0.18396752589502552 0.76368294957716054 0.21375256109843671 0.4340497663414925 -0.61396997114362706 1.499781489618303 -0.48425322823223504 -0.016202686092649611 0.11884692296763466 -1.135529173496838 -0.66313918945224337 0.12604484690341322;0.34312141313083039 0.83521983180601189 0.21372158457496682 0.733803760228118 0.11622159842562013 0.20930031896036638 -0.42206577575319887 -1.0233543011348594 0.82145017710780166 -0.76722977176049301 0.35439842660016835 -0.32008176627876811;-0.99363462162466398 -0.68026062791930841 -0.55260986614147956 0.27134362702260217 -0.33303965323897045 -0.051284393665714037 -0.29662066091762068 -1.0003774250635693 1.0063133610374944 -0.11591999779398229 -0.0046324336943660907 0.75357622518127998;0.1413570278654408 -1.0273623823120328 0.53322751724615602 -0.095075924523673083 -0.60376756258686048 -0.84627374721743365 -0.49277068634324744 -0.41273104710775055 -0.71844594250219296 -0.51676162052056551 0.52730879585043589 -0.72326262490141779;-0.57609281853764072 -0.77137863574839372 0.43329372424260215 0.046463743251924011 -0.35863057325489489 0.3813699347353447 -0.61513342249805869 -0.92247242086036441 0.82910517912190018 0.46324308326375463 0.78732783160307129 1.0269253662440887;0.9332407693118292 -0.1783358501911293 0.060221484790689041 0.84401552801579283 -0.50898484183378934 0.70131891873369512 -0.7379903437332872 0.79108365417835602 0.08251250356227452 0.73472777412748458 -0.33394724159830247 -0.70259619826167863;0.073107960084612802 -0.58933893045397956 0.64622048120318554 -0.5932334636471247 -0.084381657281342171 0.44497518996762347 -0.49002355491360128 -0.26635596412153134 0.75292014827311704 -0.7082316059403686 -0.44349291298361371 -0.48924646735909794;0.39062961977346916 -0.54553928231475568 0.70905951449713467 0.77554191843488141 0.53095339157153232 0.73573157907164133 -0.91825277469302269 -0.6125275820699505 0.21941937073049875 0.89909822568538 0.67169618225617944 -0.25018928825233488;-0.69616280036450029 0.854136962196403 -0.54989353497002158 -0.23849302098317551 -0.303692002796625 1.0214839146071135 0.85522074028939632 0.18315451620653908 1.0043806238224786 -0.51593823421571194 -0.27326449916215217 0.097144503093004722;0.033504354111098214 -1.0602565353551889 -0.30938607023451481 -0.99857203623801694 -0.00036665919908729361 -0.22430756166738136 -0.7492914112936202 0.74484076988695413 -1.0429806702850513 -1.2578041790460608 0.24793941757509144 -0.098866835116772939;0.88407639330114673 0.92179166767766607 0.97607957944011414 0.67903946538118476 -1.0305750800597275 0.09189202433343821 -0.11989600812695055 -0.16147507250753187 -0.64375606012661313 -0.59393255171185477 0.00272959908333225 -0.10359067688352579;-0.64551415170830129 0.2422745545048057 1.0245198850591133 -0.66892398088526328 -0.99329067201505383 0.59704373672449362 0.50107630857269758 0.1385038403621657 0.47259019447574258 0.15583653142377191 0.20644509585214174 -1.0790371577527351;0.15673929194089437 -0.47863651429856729 -0.6746413826411628 0.38007738732447632 0.63577073406744344 -0.52227497491940755 0.15668865986801489 -0.92111059659345362 -0.65680610807587281 -0.37679883071541292 0.037813271304599952 0.5245813561647632;-0.37238163758762349 0.73907263702149628 0.22047586618509529 -0.78151599217868706 -0.74388747950593537 0.19714466370902275 -0.29716401391898756 -0.23797864626732393 -0.67048298348903768 0.77714285627467394 -0.16270046769997251 0.34978612022358252;-0.37232467680671744 -0.5048321158915493 -0.71116199042937556 -0.84398087809627342 -1.4849489056343694 0.096393391820245755 0.88396770979767458 -0.68914211161642613 0.77273103284752565 0.053597096133673021 0.2955924026730265 0.48009600342688663;0.97480949922493876 -0.94835393744002017 0.072762824687196387 -0.049377116832009904 0.039551023126506858 1.0586937805306094 0.91021168082249371 -0.086210652731158174 -0.94181193288614451 0.1283608929223593 -1.1194165047725988 0.017000764138835889;0.021468697172360579 0.71831819766944927 -0.25837064385141789 0.65032528337260365 0.063540848185897197 -1.0333713210513114 -1.1371683299910522 1.4947755850096134 -0.63626412921503528 0.63533454933878553 -0.30765311909083864 -0.56838772930412051;1.0773266063599882 0.38846589530927794 0.2183135729113608 -0.26939697998438455 -0.13555208565923335 0.84420316822009867 -0.92448933324786176 0.15191314703654069 -0.35081845572138015 -0.68707797527666425 0.36707719415463458 0.1781464708272002;0.22927409527547429 0.55828611396767902 0.4218241897512503 0.88421348788760168 0.46082207952406018 0.30176248330411293 -0.4340922558283169 0.36219387019352733 -0.68254482492842583 0.096372189695911825 -1.1554771790279326 -0.88916488026592078;0.96573751826651344 -0.98641464756354424 -0.19225990089309342 0.14728428768586707 -1.290504244546544 -0.61911839549564096 -0.53370066466621235 -0.071123173432003001 -0.61219008798014385 0.070047826987866046 0.021053101525522935 -0.4428579777623185;1.0730951814823315 -0.71233000144851411 -0.56332567777798415 -0.24005727177598932 -0.57156538470735041 0.95326847511509194 0.28106879559966208 0.78640390561156481 0.44621343527086788 1.2853656480723736 0.18753299465788528 0.33194374657162845;-0.46958290616408715 0.57895161917940774 -0.67436749016573816 -1.2634169373909412 0.81182040513985587 0.3251349401997925 -1.1342260383318308 -0.10768716587323532 0.014093920501942692 0.95201884025951466 -0.076299936075124933 -0.4183322099132713;0.99087155148224304 0.49786608544886979 -0.67651535236747795 0.77740165526499039 0.16050354389972402 -0.50902871659948612 -0.46057296705060502 -1.0294375228733743 -0.55532800583365494 -0.77647016769419974 -0.056452960661226931 0.90498494052427458;-0.22734755079212002 0.14371496665038569 0.40945779091954015 0.21793397985611745 -0.32372329460643706 0.999226454250431 0.14053582234582046 -0.61128071526064709 0.0052766872600398772 0.45175923861241407 0.99469236108442205 0.48737274527548569;-0.71726775304724888 0.62696015402371363 -0.09192609889424963 0.96608792325298354 -0.84108929322679093 0.53881508299294001 0.20431760546619127 0.57565447751000798 -0.65674868010545662 -0.88476592230410434 0.9123869245313968 -0.19408004326250086;0.10794822906348221 0.55603705464839381 -0.74452875397671225 -0.72931549083588121 0.048167933766133569 0.57509721422411186 -1.0149660053028511 0.60534334472091211 -1.0829430888062661 -0.48540091821898618 1.0552338337435765 -0.51950826780439407;-0.8446246928376423 0.25141256236166987 -1.1314619864635074 -0.57221642074737877 0.40502847143473975 0.59799793656461653 0.42744182128811603 0.92719342069609789 -0.98038546242198743 -0.44235508138709756 0.22739289261526591 -1.0279760690365047;-0.3086451517927038 -0.92536133413672639 -0.53482366671435733 -0.24800763811378068 -1.0247636952914734 -0.058539434698147264 0.20076638383232706 -0.97150274659153313 -0.51624194139613955 0.33718383078046738 -0.13222157307951249 0.63124111071148714;-0.91035588707087989 0.3030111990794897 0.3908376677110228 1.2865607082432404 0.74300535765219577 0.32076693454484795 -1.3199550524109662 0.48343779275995213 0.053269166337665749 -0.70846136097927559 -0.68497235344171392 0.82513975750153512;-0.20519322898606857 1.1064028101762255 0.064973905717187669 -0.37473107649182325 0.37483928084723339 -0.38671928578290765 -0.53482326690635451 -0.54878231016801382 -0.4185849224887499 0.86099572036209293 -0.78192891264016939 -1.024766644509411;0.95888275623988573 -0.63521109588232449 -1.1466072928138753 0.92341136048314088 -0.20094654780193541 0.25165905206951078 1.0305429921778058 -0.20347118557807381 0.33359714016711772 0.55660994741460756 0.59729464497745499 -0.25146711393954091;-0.021410630071145888 1.08025919000787 0.44032846039840728 1.0838352672474187 -0.27926506789791683 -0.27412354074866246 -0.98204165783057351 0.35737105477539866 -0.084885017389860568 1.0234911166358591 -0.058774493005561174 -1.1839195217178329;-0.9891050004358154 -0.47604316840661948 1.1899092581244806 -0.97632575322353388 -0.014400950692717074 0.4072351689306799 0.87659721358035725 -0.51367034276524859 -0.82841407467712747 -0.041844009392486871 -0.11028530040904375 0.016651007684849541;0.97757081377084587 0.76587181580558761 0.46201903278924961 0.68245464287721225 0.50516243566079133 -0.38371541983058333 0.42146802403847672 -0.051594576521927324 0.79713437462948911 -0.93873396269513965 0.14996819134623884 0.4303714426765009;0.054263860797703012 1.1315069830571951 0.1493755375569929 0.30247802257428907 -0.55667172021929845 -0.49873904699704408 0.73545637999383384 -0.65086535887303987 0.86544738066808402 -0.51051801564001043 0.042537602757174747 0.77443529076100914;1.4557962343392366 0.063689786280886299 -1.3174460057144355 0.68213435732550898 0.34159407118419061 -0.20001937451804885 -0.50009455636670408 0.70797019827392227 -0.98244018159267343 -0.81826826766957894 -0.57090892518205227 0.51273407635431034;1.000649608431202 0.21976090225945888 0.91414314369892191 1.0342322798560355 -0.014104213125798896 -0.39651951942384678 0.34638294315342039 0.60999732110696914 -0.38677064803365047 0.52462158076607979 -0.36734982138143069 0.32521809994443607;-0.15352818630869056 -0.70920203750663702 -0.78918283804853806 -0.69817874501900667 0.79459862688530025 -0.12543571079426258 -0.018400353722035925 -0.025437298684329018 -1.0891141201161598 0.55788483528144861 0.43528773469907434 0.96301830753163498;-0.78598385117355729 -1.7049061551720197 1.6038650663830787 -0.7878870438433434 0.68957698610612916 -0.38356031943106894 -0.26777825858223436 0.33277292147211734 -0.10359997280902669 -0.41279309989171559 0.59853474317762212 -0.78392417227792344;0.25040275645343602 0.36656949194104066 0.46136481763248238 0.92403277662681227 -0.30283775351271658 0.14280387863971536 -0.99384110779947132 -0.18776493402695749 1.0517090365344801 -1.0737515880407218 0.24617260698648927 -0.24571243143634353;-0.98591803207566919 0.10590039456682333 0.24734288544436328 0.5433609296370705 -0.85113263773054404 1.1112832134169506 -0.16606607526085679 -0.69987016648117795 -0.3097092120807341 -1.2662045740199255 -0.41053277713391856 -0.79977278740746915;-1.1906587513657685 -0.82330603490349974 -0.43133766924434186 -0.33335599597419996 0.92279449259425395 -0.58508855397037407 -0.33308527124954701 0.86173457096597139 1.0018272638631005 -0.71426068033040668 -0.027492641092678481 0.8888529868404581;-0.21916004039990133 -0.92983898735803994 -0.38564523497408226 0.42378418264509893 0.6530287708558612 -0.98301329039288332 -0.10724570321044187 -0.40441130283300686 -0.38710585026258337 0.48105734016731511 -0.15868385548968744 0.8374892396212964;0.11894472584940843 0.74854995366559995 -0.046219545280850462 -0.91807978030600601 1.0835250851032496 -0.4247730258434671 -0.55088344595452998 -0.39970363671516157 -0.66529909723854963 0.14304290636676656 -0.59207083165223251 -0.099690471052510027;-0.60880138591779698 -0.53120436279909711 0.98129718228464624 0.70000175827537492 -0.65878909140046349 -0.39477051444149958 -0.085772684265101623 0.84774821764142738 -0.10946351034630443 0.58760913731107622 0.4632203689727345 -0.80852156377477169;0.57578598580357376 -0.30985384424573115 -0.41092476003562683 0.69215789312012288 0.98053749917551947 -0.095742856014870342 0.4256048946411749 -0.3708868432906815 -0.58187293775235915 -0.24527756271596934 1.1088547839344769 0.75143600898839302;0.35039186673954936 -0.048332765787597404 0.38701095606709124 0.40739205524904915 -1.2236529638411384 -0.083037843520511648 0.71964998274036973 0.18991608739760429 -0.84970905869771229 -1.1803455615532386 0.64589821835487859 -0.47108378632122233;-0.35688819807657501 1.3895281694596586 0.28814059857776969 -0.28702855863428034 -1.3894867049235713 0.66604290570447322 0.18581743962980615 -0.057983409418304335 -0.29851566187895906 0.87372142555116317 0.69677060155297954 0.48883004363076865;0.35062382065706327 -0.65745751179626499 -0.51233366340926478 0.071657808764248973 0.080354148833257755 -0.087863290139065978 -0.34339798827726487 0.32804599650194138 1.0808444696766464 -0.02616339659668528 -0.9671526975018454 0.82784948870591801;-0.051323616613851417 -1.1348543019114035 0.054520329622066738 0.78693913121404635 0.54765400195041225 -0.34445574044332972 -0.95437500646211604 -0.21299369753943062 0.17846703548805576 -0.59674832509829256 -1.2652063446379525 0.66225231551899;-0.4620072509395432 -0.39777390883792502 -0.93016221142661137 -0.79240085519451076 0.45607864426107925 0.72013441765520114 0.51900161762779395 -0.18898301923980076 0.69396768097745953 1.3123805153697712 0.12335288260827174 0.9710829266164116;1.0851871166040412 0.12679708830789016 0.3647341399569779 0.37417501360113881 0.12910128948893215 0.7051005598676009 -0.11113343327567224 0.64775705912461801 -0.62220341470779572 -0.36894768801044903 1.151132334377692 1.0163176207194557;0.64019672763478397 0.86723526124524331 0.7016276570117348 -0.15966058275874823 0.9909104513061433 -0.47040135531170302 0.11504310247302148 0.80131018436668511 -0.29254368845849998 0.89859624906349456 -0.23963438278641414 0.45247195020628361;0.18235174600865009 -0.81956494124553503 0.28385971343593086 0.043822101355294671 -0.91372234294512977 -0.99706822281208773 0.14909918802839461 -0.32258829304535303 -0.45329208824645678 1.0484193436704452 1.181709285148145 0.45368696712047718;-0.015119703734825189 -0.31507884524587881 0.64036332261701567 -0.050131138331591857 -0.10272551127328207 0.17968050815914652 1.3795277519546876 0.29202943427958283 -0.044244931686765993 0.31710587957015479 -1.2701448059594707 -0.15688394057660821;0.081292668481594166 -0.91739659046325717 1.0443243476035946 -1.2673731845167249 -0.1589492785158283 0.58520939059215238 0.039254241743586771 0.25246859713239644 0.17476131530270919 0.26235240022228384 0.23903559571649091 0.52217981453755058;0.026497340070037675 0.95888414578277803 1.0178483334429027 -0.029198851058301181 0.938605042056744 -0.36662041504184284 -0.069814993481401577 -0.028153890387756515 0.3318419732499035 -0.89037969700640185 -0.54091206026336303 0.84932142806389332;0.75072165166599736 0.44098357091579093 0.36555114354771395 -0.75526324704414727 -0.030603027115127614 0.95907138333488851 -0.16824417558479574 0.48694942592229473 -0.64851598668655264 0.77912057084915365 -0.35677918442770412 -0.20320527655650231;-0.19226957671835854 -0.39112359772723854 0.28252670872424973 -0.41424724462618101 -0.74314130069622331 -0.57464070948545509 0.089548942537755333 -0.76056755182736224 0.80933499935625053 -0.18170756421915543 0.49230607027300394 -0.71999291428899503;0.43150868625662564 -1.1354208073979732 0.17794276445072649 0.32639875727211032 0.17914885191774885 -0.42983722411927028 0.79750861945367268 0.81255129572644869 0.15047534319172837 0.7709887513399093 -0.28168032658052311 0.93173531419472755;-0.39761806079376105 0.11555315209794784 -0.3847681812630126 -0.71904880989161024 0.20453994013146404 0.48237890978249787 -0.82872498322836252 -0.27432761430794528 0.22284685620922906 -0.070212314788949431 -1.1181323743953859 -0.076922549971108353;-0.57276407763428927 -1.2612288498238171 0.23335234567214103 0.38814680754708847 0.68112048949649029 0.034314525519372113 -0.83697336609367123 0.18807035424268631 0.56645298743567951 0.13065075794881265 -1.2333444434332019 -0.96733293218231664;-0.54062871960283332 0.89312482839353924 0.036829985203464338 0.93928897491706786 -0.10966210724898934 -0.47435722482802689 -0.64800312580750485 -0.80460200779249047 -0.89694186753929495 0.37637649346801788 -0.22552905449939881 -0.40628198413539612;-0.56721446004678455 -1.5870704996473008 -0.51580466820902993 0.2644235748114786 0.70387431808259582 -0.42803070991303838 -0.13447837179891028 0.031705260412553393 0.59339767506359031 0.92804261121897902 -0.49969045240795018 -0.12519577142480787;0.023953157480675002 -0.27130107931254871 1.045125604584662 -0.19840074292452176 0.27582325900489868 -0.44931423988024372 0.025946763290200781 0.63771112568277566 -0.40816210226075322 -0.66219065893282714 -0.75990319134039275 0.58050953384938853;0.82615231524800381 0.12906614062314728 0.84905609099038559 -0.82364516874748384 -0.13718078318941163 0.35474811254152844 -0.20706564065586974 -0.30747449535540922 -0.0014757892504109471 0.79319320547383143 0.51122087333198807 -1.1682946429648475;0.65993957217036192 0.0075531919716562285 -0.63758265295961403 -0.087411995611667889 -0.70689507157524312 -0.12042237534419745 0.74161677818546756 -0.50865224140080889 -1.2454594018374523 1.0155710483338498 1.1699820895230257 -0.17451211002028982;1.0990235857661816 0.72301052412488154 -0.80235626844217067 0.072000605415364294 -0.51935305877981486 0.063412046503873054 -0.58369777384302546 -0.45560310198486348 -0.28965600759293736 -0.56033296789379605 -0.49602102581169105 -0.3005846698016072;-0.78983229300438185 0.29350410967885471 0.31811785255001762 0.90768869442018196 0.72572109018816378 0.40374882748045826 0.4754065679576332 -0.63459199099980279 -0.17347526026135557 -0.54517857403082748 0.65914760600786881 -0.44635605403651624;-0.37879150413160251 -0.89222287491139118 0.5328071476496048 -0.66748785512555464 -0.71908658339176257 0.51912955845953324 0.10540110174372302 0.23753705072348566 -0.42597247767466961 0.7277462205888876 -0.8495644749214476 0.99636336695606009;-0.86924418154263783 0.04815596051574611 0.62720494354234591 0.81605492014207726 -0.39237535664055789 0.34497397093743654 0.40545704615845218 -0.56082559358676376 0.53343713155550021 0.8221531161596628 -1.0066461044192776 -0.61778735983020772;-0.7629299259858513 1.0058388878298106 -0.093898560505481246 -0.78822157107280766 -0.014202016224314901 -0.49514192339765445 0.23456099838507696 -0.95547541194861829 -0.85525453070021951 0.26662760794323703 0.7315714245364997 -0.2273651950836289;0.34128539519430856 -0.38624430779085484 0.56579175362335399 0.52007856411072395 1.0737227208735882 0.67828141867128044 -1.0185579665015327 -0.46237301733256675 0.54750146298679059 1.545436067012212 0.70228772448806209 -0.59903786313572505;-1.012283859149004 0.62394721212621196 0.067142870134466626 -0.82262709845591686 -0.66852899899582707 -0.26217176599830416 -0.52918217195432593 0.83396961790993496 0.559687208738887 0.56761618273879477 -0.23053099300628721 0.50465863632331198;-0.46858735625756265 -0.57953844630975937 0.11735271227996388 1.0579857761000186 0.43783366122242906 -0.12308266650803165 -0.089680948559007462 -0.17724802805839163 0.050328282801860511 -0.37059960000372399 -0.19823929882992841 1.0079665204622663;-0.18408486660235876 0.78001515515111042 -0.25178941551389961 -0.29994839592538697 -0.20532305954449587 -0.87547784977916143 0.56639671008275394 0.10119577960041815 0.85778166529345989 -0.80776642064709325 -0.71624820396449929 -0.93893107144984611;0.65575838283167664 0.50938068517998569 0.872061391154205 0.24178574688571913 0.42143835908233779 0.53303159721286486 -0.86032167824585692 -0.73038170671447955 -0.91921618179391718 -0.16351471513487187 0.21146897643986712 0.72315440476407755;-0.33348611811587392 0.24277467024710195 0.20367307553264374 -0.45785254061452324 1.2857250989597695 0.13383383276251548 -0.29258210862964734 -1.0934548808188906 -0.20635064806166781 0.44053186460681909 -0.28731549454738309 -0.50688288488183919;-0.5636476125072144 0.040542965110834231 -1.0246205042183063 -0.14167834002208002 1.1396860016727026 0.73931388979684631 -0.41908414104552982 0.12661071926603876 -0.27018650616716949 -0.62567293375237887 -0.47189336476353383 0.76379555588520187;0.34731261863455515 -0.83054974638733303 -0.40673409962212531 0.93621371621800709 -0.40463752928631419 -0.29712300987942986 0.28876951570352916 0.63060724598795037 1.1455692740686816 0.29988070389800681 0.093668659955747108 1.0161272316822614;-1.3912861652096153 0.60270890684893186 -0.6626338180252922 -1.2989492948524364 -0.048897104037472619 0.35632240996485726 -0.0099948379094666751 0.23281357952086798 -0.58730566810270424 -0.41011369527483238 0.56717043852751658 0.18950538995516314;-1.4305600209517815 -0.10008729988091652 0.47181271760542187 -0.17225969607521172 0.25957399199921638 0.33175437015243237 -0.92406566914273414 0.5383223802761492 -0.19490319152593558 0.34848704370807837 -0.12868261920146648 -1.1342325548700107;-0.044985944299660297 0.59335060425932018 0.50134640921559892 1.1337672861648087 0.45123863199017661 0.60964540824394098 -0.19327911572854531 -0.43646501906764668 1.2195867880024405 0.63966488431276891 -0.50824577957860484 0.11589547825922605;0.85188864180375246 -0.50553586456571753 -0.79065515864339753 -0.328784998882451 -0.43279384058867476 -0.58827056894382324 0.71966824792092587 0.91434554732349438 0.4707262920813845 -0.26118066525595002 -0.9388604406310157 -0.034227409368933294;0.24107362777471147 -0.93133710948159898 -0.50303491799640465 0.58982838717121444 -1.009046397930158 0.42323783457661041 -0.4596189648874679 0.729477354380899 -0.442363533481888 0.087148965469415085 -0.85935791683360818 -0.83153050998181155;-0.83010551208324834 -1.066399835491902 0.03360843187893469 -0.27357268948202862 0.51312986518753656 -0.15522432878302653 0.60112832869197919 -0.46788094912112133 1.05320829714178 0.51349749456774363 0.28988708573199967 -0.10661318036015603;0.50242978791325521 -0.13790591792333987 -0.87891553905498121 0.18269473927466318 0.030746664037076488 1.1487755990859743 0.44897784461712315 -0.48000177343565964 -0.62521663991121113 0.098007514413254879 1.1591019678877299 0.010437612914067003;0.97411802329385122 1.1577701884863443 0.43702813974137655 -0.95714051172827552 0.31674456008110413 -0.27272985928364202 -0.48169479582743702 -0.49843811036214886 -0.74043621198629794 0.076827051284011086 -0.35808156189984758 0.078183055650423813;0.53857940571652985 -0.17335157477872845 -0.99126969551149569 -0.3887371030668994 -0.9537291690581603 -0.59106906162282191 -0.25629208405565435 0.47800196620246327 -0.057046242754985946 0.11515405918283617 0.99157206413730259 0.85073119015930587;-0.46171495761397319 0.90360898075553209 -0.52354594710034252 0.47059044981442871 0.53942663180831196 0.19852456717714898 0.95851155516283093 0.81880391387998985 0.2160489885681032 -0.515585112258375 -0.76594133209101767 -0.63380229807395905;0.87138171254419161 -0.26385888957433967 -1.1246300460091134 0.83972323282694772 -0.12337646063812348 -0.10831094683755266 0.60416174225313823 1.1216340938377349 0.76874611355080824 0.0018300892526052631 0.44774275291014348 0.69802477475503677;-1.123755287074645 -0.35069758344552132 0.33603947655040256 -1.2340162870261082 0.21435698840822429 -0.81867593298499231 -0.19890201694580503 -0.093623652337356533 0.39461528170683585 0.0078458864140166246 0.58143850667711727 -0.70348051443098658;-0.64291770702108486 -0.84619561430836676 0.60400302796645466 0.05461472543622533 0.71350576155627377 -0.67661417276563685 1.0030921813892997 -0.7562017948911568 0.81680765395170363 0.1957145459753466 -0.038063569731206517 -0.49134282953476099;-0.62106862942066643 0.74574215731197624 -0.98693913656773224 0.58992728666396088 0.93465913489772645 0.040330689193843819 -0.44352534885293565 -0.83866195861552406 0.28037706000287926 -0.1312400724603266 -0.41233931696728054 -0.81558800776278806;-0.78667498098192234 0.30528653455108212 -1.0600862004620923 0.8091880066919358 -0.21595093479570665 -0.065898743166046894 -1.1474689505143592 0.23148319247803573 0.10945170171245885 -0.20549134891220425 0.17197119700929714 -1.0291621516001854;-0.99384818291135324 0.45082820945888391 -1.0411402578616313 0.86222888544960918 0.17793379570441026 0.37026847944022007 0.65415825833402819 0.17783634026105627 -0.59415345436904854 0.47133557107476304 -0.71127293697156446 -0.45359250228432724;-0.22439453269300488 -0.5202046054817081 0.20074381772778416 -0.25450950006761275 -1.3258616980270905 0.44517375683750315 -1.3883896209594333 -0.26536575967131487 -0.69844217587187973 0.27560028925150787 0.19036315126574557 0.66374998361050264;-1.1697648124063718 0.36663608668371511 -0.22103966343799109 1.0576698066314423 0.55450691056319756 -1.0457775760102175 0.65194404524555316 -0.41502296337385902 0.15228030018606725 -0.8540793523793897 -0.69187092081096524 -0.33872799034958345;0.73457106268456274 0.11542797500241164 0.30594675692053391 -0.10641708326640616 -0.93768823260814949 0.40064976848055156 -0.23878494007684409 -0.69032765947836683 -1.0230302460791088 0.62881120105660315 0.93117775101498823 -0.040649065272256736;-0.5981936070786642 -0.089103247833716814 -0.29938714289536184 -0.6236018352503121 -1.104367106059235 -0.17015854272542527 0.029601773360957807 0.031833181388426696 -0.87023553101138051 -0.062993781940871144 0.047205821927052527 0.80939904242709737;0.51549713337379388 -0.91804260923872261 0.22813691437065373 0.30746822482605368 0.58259348070696937 -1.2484974866199321 -0.1862120934532133 0.61471983827967747 0.37317415010908828 0.69073764358018042 0.38067859514646069 -0.75645713118536329;-0.92192672448544843 -0.5463147342774537 0.41204733631742368 0.11027735818652915 -0.15115459524210745 -0.67848195625088781 -0.6204448938340531 0.44091456129850126 0.92569285583662364 -0.28559077634440366 1.1133585250344047 0.10034730738933578;-0.17282549894723354 -0.89985557322610976 -0.72897712776928691 -0.41473073412503131 0.3646505368651724 -0.84220076336689109 0.32860257461964554 0.34245698609678737 0.019014698175149725 -0.46801325778648634 -0.46947725875621715 0.23596347775803392;-0.15572418428428508 -1.2840775645390103 0.52854715822310927 -0.51891430165498753 -1.0445315710027538 0.34853484271297652 0.4891161630505399 0.80702153058225123 -0.85804220981417223 0.049231548394212926 0.25676849713562455 0.90715577157308269;0.42638349645487228 -0.59645343690240404 -0.47903580896217124 0.70104587156737896 -0.45326311244720091 0.32321273218231455 -0.60430615762291373 0.23520876771061619 -0.74114972351874442 -0.67420482271838511 1.1125709874105028 -0.53993227417944323;0.072154584075382958 1.0348067804087981 -0.42137915563304373 1.3924680512732657 0.86397930085658403 -0.50399327744968969 0.22528485824309388 -0.20516979910740546 -0.49435699839318825 -1.3655647690759651 0.17083556184219137 0.12142673931241807;0.49539266654135405 -0.41235647766390154 -0.038678279804067218 -0.82901426461010419 0.28478601502842849 0.96693637174923497 0.39675518568730334 0.069086042280362747 -0.95779436532554818 0.96242553354459437 0.40432798996683683 0.67501802333692951;0.74356232014115464 0.010342074202353339 1.0172913889001003 0.0082558347047037711 0.57384102611196697 0.83763364132935936 -0.37434403733914184 0.26947546531511773 0.34138138333865414 -0.66567914119443738 0.99351189200717349 0.27973424762437982;0.71803805719765523 0.20687143603013577 0.50045409124428386 -1.0870143794144476 0.58000564772292018 -0.050793977834824949 0.83297413901959105 -0.62702579118050961 0.72925259639962414 -0.50928329071908396 0.43404356165670449 0.066994349792214719;-0.19228967187157614 -0.21300728082827078 -0.45146265872223035 0.70403008558357116 -0.078086444443684941 -0.84259591713856541 0.95007375266694993 0.85724650174176031 -0.57258548291446498 0.55261917869663135 -0.24727512701723639 -0.18962619572544778;0.55605575226126036 -0.035372566933075333 -0.40732121583802672 -0.60400850738163625 -0.26882333881001347 0.47600379574742624 0.6810333382009407 0.82468555380234343 -1.0582968936428925 0.72717048895145275 0.23516511622786318 -0.4934547782705257;0.63232509067795162 -0.88721624265780186 0.81146571011351065 -0.63323952660222016 -0.27080990686167866 0.22325534870250446 -0.94337224156686039 -1.3862882957709042 0.5522581049327453 -1.0284479822394947 0.041130485954479795 -0.5438027119937503;0.20449294624719208 0.54018870952562192 0.037079449690776548 0.64337123339798874 0.20674813333499692 -1.2577130424987153 -0.21074232605925186 0.031547602018349531 -1.1403499232503129 -0.16968049878744074 -0.70612996659383953 0.47057634843188001;0.43074510589966797 -0.65553134613259423 0.14203680295430607 0.59091405968709054 0.47333849560895458 -0.25691100443646497 0.43124051340469771 0.83901475332712916 0.22111817292847058 -0.76761929803312245 -0.72110585949445605 -0.47351774688974391;0.36581225075430668 0.93991018463339826 0.88127069426553972 0.51246433970802607 0.91753346564054206 0.34857205757637777 -0.55237867081527825 -0.10218865159475055 -0.49019831166731359 0.99704320361138599 0.42886745677036042 0.26407900204580742;0.63595417611354144 -0.7356435577767626 -0.62753948463647635 0.2152327395041943 -1.2401303148292935 -0.22456066863213028 0.58428919272982094 0.19068031923391565 1.1122132097022541 0.2317705196914433 -1.0774219518414576 -0.6667293441863722;1.0513221369201873 0.72433327924954538 0.31058351825237496 -0.7827054604931688 -0.19608127426234764 0.12528600894815126 0.05678285112122719 0.79875370253476918 -0.31017901542991111 -0.099041853907229319 -0.57320446249343571 1.1423221250930069;0.76926911341244619 -0.25954070351383807 -0.88094168180495436 -0.37646641732734498 0.22202339735741836 0.42294677622147608 1.0738284342523037 0.7157052508440358 0.53443036127429355 -0.60096205679654568 1.3764371004022542 -0.081092218880779957;0.40003232614074991 0.96303200583563142 -0.3849882410750694 -0.36960763335659369 0.83299429931777269 0.18293770089917979 -0.90355928754809312 -0.18739734732739297 -0.06216184158343159 -1.0204396735439312 -0.87111006642133615 0.43724138091270826;-0.34898831307929945 -0.86668517215380503 -0.47564418692455673 -0.78688360222253595 -0.65191279360212095 0.87656999426270366 -0.67837160346391157 0.019941445036996797 0.8922540396050711 0.19108103449431121 -0.21971971132419207 -0.53740360414854849;0.50635838355680551 -0.32841380410792032 0.048648990736611483 0.98286174061804421 0.45320491923391137 -0.0087859146050628806 -1.1292711118412211 -1.1885329322785951 -0.045863327117146309 0.86313111919910712 0.32803216289798987 0.074397800910633707;-1.226349263582782 1.0888715334026384 0.53112586348025725 0.30452220833020216 0.46653708960443974 -1.2003639322549118 0.60722782232192762 -0.47383290684341745 -0.78531946568746258 0.48570307974254512 0.057135822685390997 0.16532621940478626;0.72406111780270788 0.57512495075189174 -0.25028669255558683 0.26291391601490494 0.6258588559521745 -0.75260859768792787 0.57657507064279812 0.55393175264245342 -0.57232931856202496 -0.028954467383638806 0.8847014904078484 -0.92025266178777365;-0.37315077871848507 -0.0081939407520274163 0.35515482948075561 -0.53932084611894737 0.77162118486013875 -0.014290123906775844 -0.41204766195567866 -0.76531741228742012 0.44540142275501216 -0.34219521008255588 -0.5646991861534677 1.1700369762753751;-0.89550077494935953 0.92779010516566518 0.7489036774669231 -0.28674649044827005 0.78871856234499638 -0.079701649475717035 -0.80189185240315208 0.9607197604448503 -0.29669293152647569 0.53306540509940437 1.0747427573601802 0.3137134904511793;0.56159102710978925 1.1375106363673202 0.8779942462995497 0.19612642529179328 -0.50086987625437751 0.24343583427512344 -0.33105413923193722 -0.41558849623023075 -0.4665410190202644 -0.90233883806355619 1.1144554057380367 0.4022829567616158;-0.96203159803409299 0.42396662391118245 0.68811165726501478 -0.57706774004861972 -0.63606303970805611 0.14123631425333272 0.35167994681554382 -1.2247070607253203 -0.72872853017963357 -0.17528655071002971 -0.10890695253045722 -0.54209192368640369;0.13815348432322561 0.55379243331599892 0.6591022713211957 0.59547033696120899 -0.86636729490659636 -0.77867423056642626 0.6614693617492905 -0.25092085411335402 0.85698155760151962 -0.49623055003450406 0.52426953631175888 -0.28969508205126981;0.39313294094652262 -0.39332321960489758 0.46573016605808959 -0.065943388052637053 0.68410925324326166 -0.19099488442705465 -0.47950735654013232 0.2589704748164498 -1.0277962219418819 0.68658256888250124 -0.76779288302171389 -0.062248981813181344;-0.58009042489604623 -0.60219414977728136 -0.832236638523005 -0.88321456698337386 0.43377361176051527 -0.10449701638063072 0.98012164039129268 -0.60150294839615603 -0.41455280112852483 0.64832161770144725 0.52452762314681611 0.48676874109366886;0.16433119892706083 -0.005523799438256885 -0.84455789325841057 -0.60622682774828607 -0.31041937525971824 -0.6687845292740916 0.93424995846368941 0.10307930587378467 0.87056360623886841 0.081995115893057455 -0.9547309412713364 0.63185861876856286;1.0912710872739453 0.91230941854546976 0.67730198238148376 -0.40265258982050911 -0.055241786635830972 -0.93953950087387716 0.13936470058345202 0.30784989425580239 0.65820663465857476 0.81154022923979208 0.62661039003735564 0.92429394626392836;-1.013768637416244 -0.45023221475336711 0.0036003543165372756 -0.94578906582006506 0.87486637083387719 0.32458155457293508 0.11732142174393953 0.35083054279675785 -0.23833138850278657 0.38058201354117549 0.96186406310674766 0.55845470299568334;-1.0188078013210526 -0.4177177144988945 0.99364434007886293 0.38719546150703155 -0.042423736081553552 0.71832669271233884 0.44962080502378637 0.35984633740564592 -0.71040637581433741 0.11656982793928615 0.48872947325750232 0.7595809417742565;-1.0577996852958205 -0.73954014980068405 -0.31870157639421393 -0.29368003819428695 -0.41430988142877601 -1.3028241760457602 0.17743098020127773 0.35404164543543593 -0.50949338239343178 -0.34592674990158301 0.019946752217671455 0.079222142858287783;-0.38564207496809549 0.64152936013506567 1.2136974146376363 -0.28856017419354929 0.0351801526157728 -0.43295474150151564 0.055285959155780523 1.4014487160101041 0.54757864696872316 -0.74096844945810569 -0.99999508993446273 0.4857802436444178;0.17386457328344138 0.2506584440779368 -1.068748136540959 1.2405863785145159 -0.97771917908648909 -0.59844657895394582 -0.34180184786504109 -0.19963381201170011 0.7949135420597454 -0.053904065571140414 -0.53559214066825467 -0.52927058992994436;0.87718977396025855 -0.542410326648611 0.26637375390459855 0.30472993622429873 -1.0052983461744962 1.1438484152576995 -0.3933204368472154 -0.82093827263688468 0.6059500044629238 0.27128323415033601 -0.9048377031277588 -0.59521228029664908;-0.525634598357965 -0.29349303796648801 -0.16686338418841268 0.35663650128423119 1.0052382617577478 -0.7132873745913576 0.70524103882599709 0.5277273802751592 -0.028305013909647243 -1.1722059884308427 0.35084401126164722 0.66139203453298123];

% Layer 2
b2 = -0.93291144082658606;
LW2_1 = [-0.26222965529534314 0.72364658165984574 0.097735141591050748 -0.21681834705110428 -0.29723607737021018 -0.19404257704037001 -0.84023295749564242 0.55723744924120666 -0.32209135809993661 0.42598457363132308 0.57415038565823928 -0.08666979611965514 0.75038478041438961 0.31791134231612689 -0.8617848494827629 0.89707971074541482 0.88495956719396174 -0.34828873832604829 -0.16813810206334001 -0.099007431402947502 -0.98141773837976953 0.64908515030119363 -1.0650886442693488 0.98839047953930503 -0.13862016780263942 -0.14687366972589236 -0.53375147487596286 0.45171894267287938 0.5449864737033816 0.13618713267289237 -0.14152642963603174 -0.57414767494053798 0.52554906111486521 -0.42935110103373492 0.67009798943208954 -0.075285683633926445 0.019651608976895635 -0.37679682026327843 0.745246840156638 0.81872018570487215 0.35067285202049742 -0.64602043438871704 -0.3777376621399936 0.29944275595651104 0.5740060561264122 0.76027476557163109 -0.59939671259105998 0.024364178930153219 0.69035434674827512 0.54891787940615666 0.37454284975304841 0.57313297323093126 0.20504450036999661 -0.71913859867740948 -0.30582967312879372 0.4857968975789031 0.41567220270612448 -0.26515972036047925 -1.0256618563679922 -0.73694340216948517 0.018893959505431698 -0.99310810681582551 0.069154127627559403 0.27853781293583146 0.48352926171706617 -0.63991524899731733 -0.40021963331196087 -0.21536850460249693 0.31040781961037051 -0.25723138631120646 -0.33904377955296799 0.22705977985723486 0.34408263674375217 0.27838793092541975 0.34914341638098734 0.47068353251237033 -0.41328099225279064 -0.63634800810404057 0.34297408302517912 0.72818520142860343 -0.33064225460885383 0.5594241522397353 0.45355339760235508 0.3360610719834386 -0.47323873445854603 0.51920215136780301 -0.3379668416973135 -0.20303151218814997 0.19431186018620644 0.71659738556987829 -0.73853111431344631 -0.32662287180698529 1.1173336093744892 -0.97000375258487803 -0.035494530699794843 0.28308877155154077 0.60160749508661393 -0.026788905900079631 -0.33288398984938306 0.68562152913561814 -0.4910694597079408 -0.68391668849121778 -0.62806723029764477 0.54745301075482478 -0.041886726693892914 -0.043699926148607598 -0.50350104339994683 -0.37882662935443717 0.34946248888158127 -0.48374572673116301 -0.28105480056295901 -0.47156525607489042 0.37595548183370364 -0.61327869028282511 -0.50167377100596688 -0.24397889742260506 0.57055135455943662 -0.16268815897077532 -0.083368775313704707 0.16398943143197181 -0.42853026140595762 -0.61037120539978906 -0.55026547740177267 -0.66964982562116182 0.77388985438016422 0.44966433343834233 0.36256636218555605 -0.35834480604740393 0.14823531658622507 0.31680038264194094 0.47516685070731857 0.86115468747776069 -0.24939706028485828 -0.82004621569581981 -0.2940046918730479 0.1071452381693557 0.092203915470877001 0.24118987356375207 0.37148940420680077 0.8346993544178225 -0.29364512929909559 0.68240958620923153 0.79408265303792547 -0.19302019470230453 -0.18440362844486202 -0.71423644334094716 -0.29140400987483772 0.88375277626422033 0.10853835986343337 -0.011646141507529843 0.046394412355567502 0.54637451578545493 -0.31446686288399089 0.50123032529023892 0.48866036972791038 0.36724351717978332 0.39175445516288571 -0.68593186622641822 -0.65078836635395509 -0.18626107164371541 0.11138032423195196 0.78695498791088225 0.30996772666654754 0.57355181489550155 0.93183580660647236 0.055858556886323754 -0.43785049397895826 -0.095179180280055078 -0.081320593049667489 0.2220405288017093 0.70156754531747689 -0.5684969106526051 0.40642063032806086 0.29258491046662943 0.40131112832484911 -0.23317151224185489 0.71630691199552454 -0.34472711964006875 -0.57447062973086149 0.61001153890560411 -0.63156659191495623 -0.62532733433041876 1.3226989045246611 -0.17502206150211244 -0.22873058615068861 -0.41775933922835834 0.1948874762437553 -0.45963018558722879 -0.12208639574722886 0.52951805026965393 0.32985139881251296 -0.79463572771326763 0.77168070293454749 -0.20661632587713405 0.046381343664504998 -0.71283623735444868 -0.46273183351278158 0.69447470248857757 0.49428362966075912 0.3537775663292832];

% Output 1
y1_step1.ymin = -1;
y1_step1.gain = 0.280656810303664;
y1_step1.xoffset = -1.20217394922256;

% ===== SIMULATION ========

% Dimensions
Q = size(x1,2); % samples

% Input 1
xp1 = mapminmax_apply(x1,x1_step1);

% Layer 1
a1 = tansig_apply(repmat(b1,1,Q) + IW1_1*xp1);

% Layer 2
a2 = repmat(b2,1,Q) + LW2_1*a1;

% Output 1
y1 = mapminmax_reverse(a2,y1_step1);
end

% ===== MODULE FUNCTIONS ========

% Map Minimum and Maximum Input Processing Function
function y = mapminmax_apply(x,settings)
  y = bsxfun(@minus,x,settings.xoffset);
  y = bsxfun(@times,y,settings.gain);
  y = bsxfun(@plus,y,settings.ymin);
end

% Sigmoid Symmetric Transfer Function
function a = tansig_apply(n,~)
  a = 2 ./ (1 + exp(-2*n)) - 1;
end

% Map Minimum and Maximum Output Reverse-Processing Function
function x = mapminmax_reverse(y,settings)
  x = bsxfun(@minus,y,settings.ymin);
  x = bsxfun(@rdivide,x,settings.gain);
  x = bsxfun(@plus,x,settings.xoffset);
end
