function [y1] = myFF_Function_(x1)
%MYFF_FUNCTION_ neural network simulation function.
%
% Generated by Neural Network Toolbox function genFunction, 29-Nov-2017 21:42:14.
% 
% [y1] = myFF_Function_(x1) takes these arguments:
%   x = 12xQ matrix, input #1
% and returns:
%   y = 1xQ matrix, output #1
% where Q is the number of samples.

%#ok<*RPMT0>

% ===== NEURAL NETWORK CONSTANTS =====

% Input 1
x1_step1.xoffset = [-0.110292687578871;-0.0511867276800725;0.915453460230028;0;0.000968167952669189;0.00105299691207856;-0.0715436192985438;-0.0356728613110051;0.932092136641376;-0.539090908459499;-0.0989582451363595;0.8685647319831];
x1_step1.gain = [3.79444364977275;10.0820489957926;22.8663059936962;2.96919858730833;34.4779172021159;30.453692734861;1.1031576030976;9.91856636775269;9.03494781299752;3.6154872311976;8.50592326867464;16.6228563284215];
x1_step1.ymin = -1;

% Layer 1
b1 = [-1.9548095471032121;2.0372195329225531;-1.9964505393216396;-2.0273767278904442;2.0043225978186525;-1.6441254620792118;-1.385311013571533;-1.7053505028702809;1.7296592891290601;1.716381986202745;-1.6218866515327952;1.4480593014486194;-1.9074569287170957;1.4658704664767603;1.5557626010141687;-1.7058001476658073;-1.3752662855547553;1.3041959945533577;1.1912802916782452;-1.1431244743323936;-0.75184625585242748;-1.4143876574663399;-0.93005449744256341;-1.2932092257857453;-1.1826702170862131;-1.0428957667066006;1.0815097707765591;-0.96880588795324829;0.99742941289472398;0.21651560828457481;-0.64537781020757168;0.39563722312869709;0.8223163152917774;0.59999551143833818;0.51499426761684575;0.44954298341884036;-1.0498687407210874;-0.41845548789657611;0.45317200551831788;-0.0062968382922248736;-0.5390350156008451;0.21522336610852449;0.22580129834571502;0.34167297913693634;0.21807999906678963;-0.3197497320571217;-0.1358140578812439;-0.40143657949525857;-0.0071255944394271039;-0.018046108952252352;-0.27159430987093486;0.26927731485538942;0.090582866032732828;0.31678797527466285;0.39153457520615192;0.4983397388674195;-0.00033915152238669401;0.15695069554237853;-0.24966266704331144;-0.55751736216816039;-0.3880460041780589;-0.37021793224044969;-0.66541090967794136;0.74894996067498854;0.84973702109427973;-0.78616698379571981;-0.46808496918024778;0.98255392404555264;-0.89995638885581886;0.86907353426460077;0.84557974089239685;0.68621552968827304;-1.2228058063356901;1.0244980427019996;-0.62443007400120409;1.2386968046275089;-1.0069320256526537;-1.3291586048500943;-1.0990071802170918;-1.2838254368464141;1.491193335231942;-1.7792510978176965;1.2451243604675659;1.5443671946785087;-1.2683995651760362;1.4814371329858635;-1.345928452131135;1.4379609031568676;1.8108652167597801;-1.5748215582785896;-1.459956296037771;-1.4945615541553567;-1.339710140189285;-1.6673209139025584;1.4312000482334188;-1.7462564534779936;1.6790298847996554;1.9490904764141943;2.1150141960497795;-2.0453552766551817];
IW1_1 = [0.82157597493587664 0.57042355398279254 -1.15252417738158 0.43525743942376705 0.91588316775518452 -0.25337729237786244 0.15364739065692593 -0.50587451729377642 0.037953199702841833 -0.19617914023332317 0.078069870563166194 -0.9360595056115868;-0.98380986664919334 0.50594492745241881 -0.61283496228684742 0.51633781533559053 0.074119841624638111 0.50480325618098676 -0.36576993439987532 -0.92993914441147218 0.27183259013759303 0.45770012030594526 0.3427247307973128 0.81325628431264863;0.82050840760423249 -0.33650800052479196 -0.66415253928834816 -0.75046720933443889 0.3205578740440046 -1.0108837051021657 0.42715908258667773 -0.33974763708096711 -0.41030962538979754 -0.60835608977337308 0.34791439038479932 0.75048411165228845;0.32950697947433266 0.30024044837776687 0.77773656634431154 -0.72596344361230636 -0.44746840055485615 -0.32053330734255653 0.51534357986082457 -0.63533581176341802 0.93449263821386763 -0.77118499412956432 -0.30153215291664964 -0.40172522961164314;-0.21665485567249299 0.049954289681193358 -0.22956333900907636 -0.28455056194242334 0.53410471333205978 0.82957327753577847 -0.12336825902302039 0.74688585723802092 -1.0945311847956094 -0.87143001090206718 -0.19523736403893666 -0.69117526340088242;0.30952796298885893 0.29655194215302211 -0.19580792476887107 0.17110133011315967 -0.93235977091251176 -0.28073923193713551 -0.537225139016973 0.86466861288144459 -0.86716444401069614 1.1478957341527465 -0.92830865762863446 -0.60630518428379143;0.93199636119251983 0.16258075898919036 0.40810702728373977 0.62903459224726221 -0.84927431036258361 -1.2224521626503884 0.49692977958763823 -0.89489451290700028 -0.12006858718541095 -0.78662566704607617 0.27988493985130924 0.72019096540306327;0.20545698480493607 0.84111704608100535 -0.80711590939953903 0.85476017398792425 -0.49621710458467166 -0.26075946988498466 0.095975563967843014 0.61532645997805846 0.76904100101086059 0.42497480106122459 -0.43999935000482743 -0.79901198734978041;0.04354715532478709 -0.42494486075685428 -0.40596245273178466 0.36961135868880174 1.0518430393920382 0.050938870787212577 0.16665963849147303 1.1050286926066752 -0.83080319156948856 0.29846811915244914 -0.28800971573946232 0.54819670441868928;-0.64333272645862993 0.4468395660320027 0.11521517945155331 -0.1849399635665902 0.71604446331354898 0.54655195106981969 -0.83614010609909883 0.48109896046548506 -0.91118496833289397 -0.54493376397236359 -0.25873013528724559 -0.83007075692272903;0.49116489212805126 -0.62510741586636664 -0.36642605957310354 0.7035802621764613 0.71182235180409559 0.58237427245404749 -0.48749446629736165 0.68848524667165112 0.68029688503273444 -0.6350303357078132 0.4793075301623731 0.53477933160268321;-0.03262248279361793 -0.83932602196957851 -1.0331410491215998 -0.408269460183108 -0.66316512808492833 0.055734042411477502 0.18671126851094172 -0.68634986469628867 0.72430985187946717 0.62047984472549078 -0.91812617654613493 0.084126608222303265;1.1987868889111908 0.60584463435983615 0.32180181855247042 0.10616044511434883 -1.3964985217048482 -0.98024820666968882 -0.39297568111011549 -0.2358274822720712 -0.31791162296044417 1.1019335470639158 0.31570855652444157 0.39064223470737175;-0.4028125531705396 -1.0235784863472825 -0.73979274276585261 0.57330081465111538 0.83569727359950285 -0.44490906057237395 0.35326570829735637 0.080209706340031342 -0.94526812641342051 -1.103181480735083 -0.55591248790203296 -0.31188979850528226;-0.21604596103267198 1.2067604604879625 -0.91974013496629092 0.712326697631119 -0.85511392550665877 -0.36449777246128934 -0.056082803407054266 0.51866050383016926 -0.75925191748017562 -0.67916023525911984 0.05016094834178525 0.47256279730487483;0.76670028154964165 -0.63569165056556654 -0.73190707647059572 -0.18047625290534208 -1.0317299590386537 0.76433667612710143 -0.71373166808192789 -0.60517148858378755 -0.40827516325194646 0.40205662039505785 -0.86517494623465929 0.6172717976493719;0.70716005673297144 0.4171011503871096 -0.62076924080246343 -0.31763603696133236 0.94458047191751959 0.057015750277180977 -0.52292047507181694 -0.3923534186707448 -0.29350983144077131 -0.57654868318178409 -0.64590564155081642 -0.56468234786381877;-0.29126201481148128 -0.22166225057205075 0.8147608582953938 0.037174602695263938 -0.28425709337536575 0.41404063073611996 1.2434616205130404 -0.62093323463541783 -1.0026690996957306 0.68667885071199242 -1.0022665215360662 -0.029914024968593932;0.12461917668310769 0.69234331650836112 0.48144206258028938 0.86340365671560348 -0.27874078606037589 0.22848954890240725 -0.73070833770734422 0.85631065460657529 0.87047312446184033 -1.0956908746263445 0.1948125969416479 -0.58493718970786723;0.76606571187595918 0.37415983153619436 -0.42625809878369575 -0.42235738295431646 -1.2238591113634716 0.453147047885886 -0.31635279406234157 0.70717745848666291 0.10348620491446781 -0.1063073808135184 0.77307783381234241 -0.16923258232833488;0.38496555788032094 -0.65345824284267862 0.71345339700198573 0.5198999022250641 0.73021316885095888 -0.45470647579837981 -0.79492229556154781 -0.81843380062964144 0.0659365368202115 -0.93162064206141892 -1.5468637501841416 0.50916277124197651;1.1015966201869425 -0.68596610380960121 -0.21170526505616727 0.77433799325652752 0.48286571021210833 0.45405500961410766 0.2435510019529227 -0.688934170180448 0.68472334369381083 0.060152813005531686 0.0090924658383014379 0.17439180674811536;0.062226601386936448 -0.32351760703285842 0.7942708367808845 -0.081734181401848488 -1.0791622315326181 0.014136408795637406 0.56640343660005221 0.17694292030486647 1.146173390100591 0.54839001913123298 -0.93836101032200603 0.99316465059784309;1.1759131102970326 -0.85574410193718087 0.40151834118247559 0.83902032993295939 0.30327129121400637 -0.015722314697075756 0.87301076486849116 -0.38682727535435746 -0.41054614874269357 0.86590941697666712 -0.96881951360553176 0.82234136840806038;0.71974520649780616 -0.21207005872569978 0.45072767414502951 -0.71398659016830246 0.1588917231601126 -0.56955401464345801 -0.73477294303393581 -0.30361817286143933 0.88747955152426972 -0.24005424784916227 -1.1661120242307965 -0.21787921211109357;0.5766324714555201 -0.89996232076351379 0.54179627079860448 1.0819068199179558 -0.48439865044571767 0.53534469789371653 0.33520071930229672 0.62008263216523407 0.2275555667330369 -0.10031984345179353 -0.43890241511380085 0.81061644530519072;-0.62195808441523226 0.0011575319518696368 -0.26950220803769037 -0.25133432260252109 -0.17716453356847103 1.4105432671212812 0.3925905827416396 0.65941489605845061 0.67617108866946374 0.63412486739434681 -0.6759656647523955 -0.51217521044443282;1.0987674880716796 0.79860813189073132 -0.26107805748528162 0.76728219398294439 0.18861225206578869 -0.9166882960783207 -0.37749760169173513 0.041041968554711553 0.29483323036983222 0.36285229880093278 0.76953712222737192 0.29557695531521977;-0.45795340905367449 0.54243062495418326 -0.69197959525795272 -0.12779731708761058 0.3264158809989029 -0.025715102535381926 -0.44361933895778877 0.065915802035722115 -1.0572345620869648 0.96210390987558958 0.785385278342704 -0.42608970816426806;-1.1660349630679778 0.32071527466028305 0.31702396206063482 0.39082930859585224 -0.62370839230849118 1.303163502882164 -0.52554129670989191 -0.52423411079977011 0.87760599215053459 0.67438039145688311 1.1451658607760404 0.27201506376364193;0.81464423315371626 0.58450103297601486 -1.7057985609169948 -0.17992824694888968 0.63162141272738836 -1.175071679478966 -0.8338092720231367 0.1409378365828238 0.24909030252248382 -0.8643068449678305 0.19884019240965967 0.44568957559889882;-0.032008792683230765 -0.74504314781501524 1.0878330104864988 0.0077416551262530289 -0.2205080095360816 -0.1706737066068974 0.46251595009825514 0.68590889557429235 0.57236513845829395 0.01258216069366648 0.61024460435207617 -1.0240653821572292;-0.56747944058376143 0.68572006053705081 0.3911267252902515 1.3313749935251806 0.71787027646575374 -0.42652872280347975 0.67664495217097376 -0.019581864336843155 -0.73488365925944477 0.20868996095186343 0.84523849050258493 -0.38501483658340013;-0.57791727426378825 -0.32257391869089075 -0.83153549323200759 -0.19032727451062947 0.58177720000591415 -0.088598696691033638 0.098003219177825271 0.80815597212406609 1.0063786171685454 0.9992167675182273 0.4211573788362748 -1.0003941219136803;-0.43282209467907312 -0.57209345216505236 -0.7904966966648912 0.74173851316021011 0.22707341986977983 -0.24239126295692662 0.77630126760302876 -0.61678444328249538 -0.5371407514885489 -0.72725636644057257 0.13641008125969584 -1.0646211799589522;-0.57560240188435885 -0.30771073023531675 0.34783517202038533 -0.48204765615513839 0.11581118671862176 1.0873353018284888 -0.7376837434668273 0.40310071713217133 0.28893208677181115 -0.68194004173559164 0.016922714991727358 1.1438487213484827;-0.18460898650956328 1.4198686365156519 -0.16688857800679108 -0.92119769514035676 -0.80471327476940302 -0.59308443491953045 0.52700287854459804 0.16436565928086935 -0.12673484245769873 0.20198539915174979 0.86318157098043602 0.17604347154919692;0.66699362769442616 -0.71503140066628634 1.0455366815414184 0.60037867099176478 0.87868359292386189 0.42277788213232015 -0.16933130865396617 0.8107144997132949 -0.094397596313463242 -0.033665433566439605 -0.32555200413815372 -1.0980619167256418;-1.0703153030691945 0.71781631642020183 -0.28812839856986594 -0.45636662489586105 -0.32718507201945013 -0.81773079816411609 0.22404608276905161 0.48957692558778626 0.7142519270766593 -0.26100228328552116 0.97927354297210301 0.56645243054465433;-0.93459495716664953 1.3333342179419476 0.021332782751436553 0.62738402495849199 -0.3719894000284617 0.854943654762501 -0.63424145078978611 -0.2998449672554494 0.60841978631433358 -0.1704147124470439 -1.1156836599992526 -0.12795779080493025;-0.14230395955532385 0.33776557675652935 0.72279375574959293 -0.55199174440669918 0.37498254487232846 0.71969630629900128 -0.82238411461573746 0.14101998735063592 -0.41214052806316542 0.67763214986193221 0.37819990998980224 0.57491768815094146;-0.62000336967482328 -0.36375570359739307 -0.64736666284697708 -0.60767637295200871 -0.62824934361975426 -0.42982802941100889 -0.45913887796080632 0.55846484036126565 0.038686250835989408 0.38463296133756508 0.17691202970240627 1.2423835921213937;-1.2105690841188632 -0.54432578106170837 0.20993930447549164 0.84880823102204261 0.59198194512959357 -0.20829891065402006 0.32382337335703298 -0.67043143536290939 1.1682404591801676 0.097956953148390355 0.71359335266288326 -0.14141560145728729;-0.50091635340941121 0.3856217116154913 0.79331518562979253 1.1387362280870295 -0.75736366445885905 1.0146126649260072 0.2778138780000296 -0.78238622678770775 0.42394747606177507 -0.60864783006312306 0.24890810445220701 -0.019794005305893248;-1.098776115507629 -0.72021635821751118 0.051188824198997958 -0.063642054719723937 0.49394329076228499 1.0106230813916 -0.80937372832499965 -0.18803562344347488 -0.14809237886577228 -1.1093831129640925 0.57561823777933951 -0.043598307250726512;0.76400266716049658 0.23302788033714747 0.21501006675425283 0.69764912097958365 -0.70600752135521483 -0.42908752283687818 0.78568397020915237 0.57242654506492618 -0.23648651658936887 -0.51171660134484598 0.75536108163028048 -0.68168065591268501;0.7641502680378971 0.20413258610560417 0.055195052709776649 -0.71789265404868785 1.0017934204014554 -0.6255250913028072 0.21801546286903639 0.64057645506708427 -0.54078608047119703 0.65376549321908917 -0.95237051604696621 -0.78954170475682051;0.11410154804825652 0.12577352619687476 0.79046060133367435 0.48879014358410705 -0.23910532985987251 0.78667045545950753 -0.72277422291576343 0.35526361715238192 -0.88876450949983332 0.18466787237434185 0.76131633341374405 -0.13688095077725726;-0.55729167890231168 -0.25695211899799564 -0.34953507488104313 -0.52508809736612949 -0.34350124591385456 1.2580560526584306 0.92316455330181491 0.17457055208319494 0.60447850509358048 -0.24111178994762919 -0.84504709692333657 0.0060610099182458925;-0.26980521767612847 -0.0014476452350249021 -0.48832459100787479 -0.039510626527993711 -0.58062185037723679 0.085610053958692034 0.87822541083018169 -0.72858697336837752 0.048965247169653482 -0.83756594671819751 -0.94085194714559073 -0.76320049927037392;-0.70983158405990099 -0.93588465698511836 -0.40664337907020098 0.91301977574406534 -0.76601010846730189 0.019475894705144527 0.88103000033937173 -1.1169853167979784 0.78706480796752432 -0.68399836175325712 -0.90858287664739323 0.61324066435712776;0.3250837134656876 -0.030086840188520439 0.40787205630620005 0.39957837661380119 -0.53248868398318594 0.89766720558830126 -0.94447133676069384 0.38339946606757785 1.1858673001049382 0.23409400836547239 1.0547015710941556 0.77387800731380552;1.2795614233808197 0.81663004392679017 0.17119433029038875 -0.1424227961163585 1.168749869192411 0.29091385505181244 0.1521577127589839 0.15370535791884885 0.58203375228789167 -0.1057052228151619 0.19949434120529244 -0.23180969144954766;0.83738705954309378 0.19003607543944318 0.56704523654438566 -0.88292361423206978 -0.039130457725485637 -1.1521225866380314 0.48573400760552199 -0.21795533941937767 -0.8056002261839269 -0.90986057586249858 0.53244096258497131 0.36991965499121066;0.32655398993494972 -1.1831784631711786 -1.0254348779661249 -0.29937258190039229 0.10142147155614407 0.85423256213452448 0.41104208413288051 -0.76180997080138813 -0.3923776458004577 -0.61261484352287576 -1.0392873913603 -0.17062103978855842;-0.04841910857801289 -0.33201850184992643 -0.40039545222979994 -0.94453975999038764 -1.0234392641502248 -0.11385741751579075 -0.44817881655097103 0.71265478258378201 -0.059898780318881156 -0.14780411658514542 1.2453948454242159 -0.86059733040107966;-0.73294710245149353 0.83171432107826815 -0.80451373724423814 -0.83536785549978776 0.1907395294393093 -1.1138616588939589 -0.15571443817175948 0.28771834821564979 0.5041973118435612 0.17022482740935854 0.62628964760251371 0.88935748619611865;0.58801592865125352 0.90546473163939623 -0.30065711180153926 0.2102743067547993 1.1950610024817612 0.85810320559606224 -0.6208733584410101 -0.54429529073944072 0.00054731870850748335 0.92897809512519425 -0.88955275116131471 0.31954178308600217;-1.3284427683260929 -0.29040496661813009 0.55565726346953104 0.75181645547208142 0.12298384815790074 0.4963591997183649 0.13121339082834604 0.28355746142716415 -0.029270222008644303 0.4199161909621914 -0.77846758955684525 -0.095020657793852201;-0.77771623953810742 -1.0137268017255445 -0.16092241130161719 -0.22675718299971429 1.2193823667179682 0.45192138188460729 0.36780690904098629 -0.19494851405557645 0.67993446433944971 -0.025814479396748427 -0.46153769496258079 -0.3891600851175146;-0.63005321218435106 0.141553804045849 -0.68222768973020975 -0.22479620862229613 0.81590833930840956 -0.53073384633215226 -0.64655605730888321 0.080986891654909063 -0.72067142768972847 0.82989767859011598 0.60214740233542818 0.71017856627740072;-0.040528402463396306 -0.32324859129659045 0.92565032233827516 -0.27329463889524658 0.66962260759756842 -1.0885494446637269 0.49651897691509478 1.0880713181229096 -0.14580872881527382 0.79606275783236591 0.86733191068861359 -0.4107843869506449;-0.40151535539262073 0.054518496068988703 0.21072696374756614 -1.0121644752982903 -1.1715772745283937 0.84823872038859616 0.46012032967669136 -0.76755998332580588 -0.24699635726407657 1.2960967000956141 -0.76001231277387371 0.43892401041247647;0.3766818284775777 -0.53088256766915454 -0.46039260794184211 0.18202221683546294 0.33292084459623877 0.59644506448385115 -0.53230197428286585 -1.3924224400919334 -0.088563585003378714 0.77314840058416079 -0.89594812097022114 -0.55665088792635953;0.40286850407473562 -0.71724533615921471 0.40689850158898938 -0.38266605001087406 0.63212673233352246 -0.59148472754286585 -0.0062601781161055513 0.31833491666634106 0.84040671345380291 -0.34890552192514285 0.84209655982450915 0.38868991315471979;-0.0083307315809607735 -0.36198439469770394 -0.66388567463777615 -0.58216694676264291 -0.1494536635086193 -0.14669480338212121 -0.28533901685636942 1.106743499942114 0.22956737790204879 -0.21832832486797607 -0.43581121132670603 -1.1982910824738662;-0.6990123949938658 -0.050244318945759557 -0.40940474636264351 -0.62676433059008119 0.74569233976300187 -0.12157322524650764 0.13465340440570503 -0.067073682874349977 1.256033537086245 -0.28671115671154634 0.53098985918675345 -0.67694812720496989;-0.51647679429118232 -0.71668299759646847 0.88266795860926528 -0.28539787640032821 0.71203925486822661 -0.35248789907237854 -0.32960192632119406 1.2115916130106581 0.21092774884593404 -0.29253312903842582 -0.74092593472682344 -0.91205342905746023;-0.58318680953896584 -0.25735035060259015 -0.61511790151584889 1.1385383504601048 0.0030950495427822834 -0.45484636508075454 0.15607429122419159 -0.0885284648907953 0.83034081410891525 -1.4034669383946632 0.74767641716160171 -0.13887982626667059;0.39816755955129618 0.10011244587025024 -0.99751718104298337 0.31649483053287603 -0.015534209572764376 0.40781440779522427 -0.23866053714793073 -0.9054731232595945 -0.76895601716161377 0.54557970503494146 -0.64618768651348824 0.20252265923627791;1.0740423606691729 -0.96843471744423171 -0.28830235831932416 0.10294480023423552 0.06167138545861521 0.19377077640459087 -1.1462909440587061 -0.47006763064714779 0.32334587097245249 -1.1217334978648752 0.15799501672656757 0.46674090908663868;0.6455658528773337 0.59540327256927339 -0.64992647110113855 0.81729353251557513 0.42500408474777834 -1.103747211658803 1.1786169427430462 0.32419913752973939 -1.3705882485194592 -0.48159667747442514 0.61053742821179291 -0.070661538997176143;0.18033163365335977 0.11753659215008919 0.78875517306679743 -0.92466562165740451 -0.97737655425711989 0.016515747346568792 0.21283471400903248 -0.84213242952568745 -0.73366727845217938 0.39705461180552454 0.034881242531213288 0.9699017276752997;-0.094879537036860292 0.59271056158803082 -0.63221825928035313 0.55082858958558323 0.80949191746912319 -0.53102315605260009 -0.20356043571898308 0.42198313221095041 -0.34747247570115852 -0.36087136196262121 -0.89609570640370528 -1.3134482024735381;-1.3373282248456508 0.97755537656563385 0.94440116290664466 -0.66485387257197381 0.032544360259658428 -0.49666697754704431 0.50137696644704943 -0.05420373271985103 -0.64525685441473102 -1.3007130204875725 -0.55984983692357349 -0.13254484458063584;0.54116993190094831 0.010499308459413399 -0.72377419583390856 -0.0864370372464459 0.51377799007068403 0.42535702407841314 -0.10666057930182606 -0.74329274220917141 -0.1513033686621286 0.23819802107329083 0.39567379539424163 -0.9823569685584993;-1.0259763924613627 -0.21028127606785393 -0.059260549911805023 0.45171830334328761 0.10247290660656777 0.3707680155028662 -0.19571792359080728 -0.27960823909267318 1.2258074145973703 -0.88065183232495869 0.76212292960087247 -0.47537968730478453;-0.50994207231320243 0.66420120077848988 -1.443176575712513 -0.80683316870539223 0.70737736869779133 -0.67296288396992909 0.39553698234330326 0.60308975964123335 -0.14927404014081166 -0.19200941885962594 0.25708017175750508 0.361526259796282;-0.52641466573925033 -0.082500634622931251 1.0725736977934128 0.55719299887530238 -0.24911012659832449 0.90847364756628046 0.49236041858355267 -0.60269889473678917 -1.146351022652734 -0.2772177716913537 -0.38408253767495304 -1.2358304595479153;-0.43464583224826142 0.60361978076338785 -0.87026597679067574 0.052587756343307021 0.66024611085298179 -0.69677519271809008 0.47057981874320443 -0.95254615570385892 0.38997567301543007 0.43112587644236505 -0.01187177596750986 -0.53290039864221894;0.41630979462195189 -0.48146852270979695 1.0119418036825687 1.0560081810394664 -0.66354298264970935 0.67855170249391517 -0.10030989689189197 0.089359439846374386 -0.90443112800562697 0.40124523574147336 -0.3538639914790418 -0.29629908921668996;-0.10944914510510045 -1.033393724470494 0.72770414761617919 -1.0966948651482702 -0.14106564349646228 -0.91211654128292441 -0.27605478127991168 -1.0603244431961365 0.036526058548457946 0.6698065804297012 0.20629839703077865 1.1499966384234512;0.48675165456555186 0.42288707527414182 0.47669719757166806 -0.58973630771652152 1.001292845999308 0.28213518105064334 0.82412276661626016 -0.74074672026423505 -0.79058507322428417 -0.15620864232138346 -0.69658655942113601 0.018854478877206822;1.784313797290763 0.06227276802695101 -0.045019094125981443 1.253829143593248 0.55516039110935878 0.23411708480679908 -0.29286731635706353 1.0628427484591536 0.31027433427250856 0.15577298658645516 -0.22475990338805424 -0.22613511057809668;-0.53108058512911016 0.157204783463434 0.74319034994814781 0.058138900476527186 -0.024201524531790634 -1.028716828214346 0.22433133992698728 1.3570455085569049 0.50406141277169558 0.52215572883469685 -0.52369438286985448 -0.14361471162634587;0.28463159707811636 0.037054105727453678 -0.034533234783889068 -0.55064806262409705 0.79632790290700239 0.54144626211260483 0.23651976370254885 1.768598355779341 -0.23286153265889464 0.093152634558821376 0.35656830785024107 -1.9430800522283442;-0.72938373511938437 0.15414947612135413 0.14839451013220817 -0.85953326220353288 0.91256341855277512 0.11305112570204984 0.59678768854777819 0.27053669280706955 -0.16628973111260659 0.014949779803887007 0.63159646021765459 -0.8062416228834911;0.1458406481032562 -0.58287930816641775 0.53161421774767903 0.028402759539879356 1.2133269752623081 -0.88036609534326948 1.024775847017471 0.49463317926752642 0.049002333466172603 -0.51387657589596203 -0.31646685607235553 -0.026808594396344292;-0.12089989513873274 0.61859598589563336 -0.20476805283960314 -1.1521067934431564 -0.60696073391133576 0.08845800662146476 -0.64733601138452879 0.602029177464667 -0.51399636800652604 -0.1762807175976786 0.43248724013252993 0.69736979542031263;-0.071044740034074905 0.16430349639548203 0.28343362765947711 0.85338766603952909 -0.44128643535750595 -1.52626477554699 0.15666525869498682 0.63123436709263037 0.74208491372944074 0.65859306318782207 -0.256988271358982 0.61971785473998464;0.16232439787126871 -1.5934474036754527 0.63741709428866744 0.31428645217097828 -0.18233040067877734 -0.026291477082800274 -0.23897831580686762 0.76036095977274132 -0.73795153656398083 0.72598502994649106 0.29396588281175973 -0.53021408940694048;-0.24553223518297423 -0.14392027311972325 0.034863601768204786 0.38928002538726458 0.49815753905006321 -1.0300593223730814 0.99144835560724487 0.21592984923849518 -0.75584218530546654 -1.7068969921143009 -0.57940143660766297 0.39066855266339673;-0.93441762260489136 -1.097780141925089 0.75729367465341157 -0.51352080231384178 -0.28754686987321959 0.66832844839181016 0.38351805165580011 0.18296718894783837 0.72547519620053136 0.24083512525033932 -0.83797244218172395 0.67748580402456715;-0.23379691110362627 -0.80127237657527439 0.66714905514045408 -0.95082613175762698 -0.81842502118423976 0.62540679339203875 0.4667720751440394 -0.924253760754839 0.13943839356710644 0.6466104001881493 0.036411888649038854 0.49683499054457114;0.57318836656538874 1.3776717418838378 0.69225131134782025 -0.44663848783462962 1.0331950343680258 0.28869870203072701 -0.26487760292307222 0.092566902718744182 1.0456626221508172 0.51933155357850169 -0.43962034176881715 -0.99314132039413139;-0.55423800674322454 1.070413433792635 0.61994035929045299 0.78443059656559222 0.20365398301775706 -0.11932360277495643 0.41265232047834621 -0.066655440192463847 0.5584528770556314 -0.46456297854249229 0.48023622202338351 0.85963312712267292;0.66358663659824657 0.5471660633515989 0.55519998855599795 -0.19915121033428371 0.69125067598199341 0.84077446006655565 0.032379852112447857 0.12225993437036614 -0.63524375667084343 -0.49619626924520882 1.1341740850655802 -1.0008728678783521;0.06243596706487356 0.55851013116018855 0.9371179223698447 0.015291020625662417 0.61854907550516369 0.74278006114624462 -0.6207462843199737 0.17355722799872925 -0.14603456488929498 0.97935152879881149 -0.7126250181759981 -0.51335702681628503;-0.084751828495441717 0.15356152471918477 0.16406700576711258 -0.9392606256627174 0.052978359912219948 -0.97851288406412684 0.076614642093938451 -0.5631072044546831 -0.44566315892057906 -0.9213022621950554 -0.15069995274156187 -0.36477157973765723;-0.50892875008978489 0.64249850259796171 -0.7622970570664559 0.011223530817824403 -0.05133077687014196 0.0031609996500003542 0.5954954288454154 0.15371374266003904 0.88392690545626484 1.158932927668628 0.14099707372773532 -0.8679360766069566];

% Layer 2
b2 = 0.81996131609814871;
LW2_1 = [-0.79765769160932054 -0.070438412292730221 -0.79577529331198937 0.3420434078112109 -0.18159141066507306 0.47404867478939944 -0.81691379141980425 -0.3631226433514369 0.45696355469124023 0.65490881712766935 0.33081058421931758 0.024515076560263031 0.65647116741518419 0.51032678507120399 -0.21079212038258716 1.0699653053665414 -0.26077517758247343 0.74438077426442395 0.41714949377325078 -0.19533555956538778 0.24086913670191051 0.57386422735509335 0.47812996003269342 0.77676069042931861 -0.53365365635245676 0.65564370089107149 -0.30050505764772606 0.66827563299768078 -0.17374147244121715 -0.49756146208789703 0.75180832903246908 -0.52923372535665791 0.91672844430948641 0.61982678476098663 -0.20543039769643651 0.33626092250863099 0.52086254469242133 -0.98896523260630687 -0.70610942807548582 -1.0631446442758443 -0.4591008949838683 0.24830714680960489 1.2398159822851982 -0.6924989582437836 0.91410446684309066 0.025180716735669337 -0.56865968081340912 -0.33747125255266996 -0.16248003676169553 0.027616292563627295 -0.85793393334447132 0.76517045760095825 0.67899545464905697 -0.68962293810361153 0.38103157110895741 0.51637596035159672 -0.34331418368346384 -0.76303286037772322 0.61566426570312927 -0.72411402128792535 0.19605779937630838 0.5292957994656593 0.82235225858033856 0.63363068993813432 0.75190491131137493 1.0417493261330695 -0.22298420713896627 -0.93913650291140116 0.80500340535103976 -0.52960256863951982 -0.71637452181072547 -0.97462329041614226 0.22343380493071657 0.49225734699985702 0.83605010199560503 -0.33614325781594667 0.52130419416863938 0.43768933505134289 1.1290126806871024 0.2034020142713831 0.71281619163315124 0.42752729300307785 0.18897660086950899 1.4110198206147595 -0.40655310851835857 -0.79888438101655823 -0.18678997030578823 -0.38322096501475439 -0.58575810401574335 -0.84979350494606609 -1.1751195909320089 1.0635788540671758 0.46463509224477889 -0.2819046325370746 0.78839508248254442 -0.91762142482339226 0.57028946816019599 -0.46478231160274253 0.027738656252955227 0.21460552216740028];

% Output 1
y1_step1.ymin = -1;
y1_step1.gain = 0.331107946064642;
y1_step1.xoffset = -0.453976182214922;

% ===== SIMULATION ========

% Dimensions
Q = size(x1,2); % samples

% Input 1
xp1 = mapminmax_apply(x1,x1_step1);

% Layer 1
a1 = tansig_apply(repmat(b1,1,Q) + IW1_1*xp1);

% Layer 2
a2 = repmat(b2,1,Q) + LW2_1*a1;

% Output 1
y1 = mapminmax_reverse(a2,y1_step1);
end

% ===== MODULE FUNCTIONS ========

% Map Minimum and Maximum Input Processing Function
function y = mapminmax_apply(x,settings)
  y = bsxfun(@minus,x,settings.xoffset);
  y = bsxfun(@times,y,settings.gain);
  y = bsxfun(@plus,y,settings.ymin);
end

% Sigmoid Symmetric Transfer Function
function a = tansig_apply(n,~)
  a = 2 ./ (1 + exp(-2*n)) - 1;
end

% Map Minimum and Maximum Output Reverse-Processing Function
function x = mapminmax_reverse(y,settings)
  x = bsxfun(@minus,y,settings.ymin);
  x = bsxfun(@rdivide,x,settings.gain);
  x = bsxfun(@plus,x,settings.xoffset);
end
