function [y1] = myFF_Function_(x1)
%MYFF_FUNCTION_ neural network simulation function.
%
% Generated by Neural Network Toolbox function genFunction, 04-Dec-2017 09:23:43.
% 
% [y1] = myFF_Function_(x1) takes these arguments:
%   x = 12xQ matrix, input #1
% and returns:
%   y = 1xQ matrix, output #1
% where Q is the number of samples.

%#ok<*RPMT0>

% ===== NEURAL NETWORK CONSTANTS =====

% Input 1
x1_step1.xoffset = [-0.275439155568006;-0.135867671682442;0.827083124317404;0;0.000361661286815961;0.000578587233606286;-0.153174779649677;-0.110032077825603;0.895823437441869;-0.471284624289299;-0.180349771677152;0.122374832724882];
x1_step1.gain = [4.21294515419628;5.6030706199936;9.78207253082714;6.84964155235887;14.237024010438;7.91606847783023;2.76680126542154;5.1230829176723;7.41045367012807;3.37327299746055;5.0287756716618;2.26777843578395];
x1_step1.ymin = -1;

% Layer 1
b1 = [2.0545982865847261;2.2103514977923919;-1.9658786908226491;-1.9722986907076447;-1.9229778511540996;-1.8113407458831583;1.8387783951831027;-1.7975209404461407;-1.7687736101138942;-1.6783406346534446;-1.6249747357501618;1.5704779902460253;-1.5944202104321727;1.5695274189346415;1.4476084884368445;1.4698781201824123;1.4364043295746454;1.326619388223093;-1.3296567196239701;1.3181821978680768;-1.2319695079390474;1.1438958477675942;1.1794589582676474;1.1616003524844303;1.0308955846227714;0.99408174366980373;-0.88807330442840449;-0.86203496459638018;-0.85042538878365415;-0.79039141534051871;-0.76595814436296239;-0.86549967824914664;-0.57475979978494141;-0.72174208316071897;-0.48641747401871288;-0.62878837168461454;-0.28010169256839323;-0.48215806630936697;0.4424388217861473;0.466782750157898;-0.38963176724155885;0.16538192876572327;0.30432258988624022;-0.12196075362756541;-0.39122939703655824;0.19613296970673877;0.24150888482491387;0.05013586855788691;-0.028108223720255111;-0.1310463253369033;-0.037693549720406075;0.22067883391849349;0.14329502195903343;-0.15656164878478959;-0.24231300684899898;0.079645889275635165;0.1165415808674673;0.26958102865282313;-0.30369921498969704;0.40401226140266372;-0.43367704419555059;0.61215744627013824;0.54857775420161792;0.68759404312444505;0.59467605886768082;-0.64849536304465327;0.84494588390149783;-0.71311480184173726;-0.70877494117287954;-0.83819527426843832;-0.87194494531850852;-0.99227240412790974;0.83724343594492734;0.97877300811922097;-0.89881186927054857;-0.8989252599563482;-1.1444444816682404;-1.1603187179386842;1.199615369033048;1.2754951572872448;-1.181797645144482;1.3550473088054054;-1.4012002535321875;1.2356912049665552;1.3434182173135898;-1.5993126388865948;-1.5644739249853079;1.6430390640053776;-1.5385658451154427;-1.6694720433907926;-1.7417783006342233;1.6617901152228067;-1.7808294122469996;-1.7426086207240832;1.889243017939916;1.9127970916469825;-2.0724953464896285;-2.0165085690837636;2.0485135186988774;-2.0498362686378235];
IW1_1 = [-0.61987007563388508 0.096631560438135561 -0.54361622164094703 0.17718993900048868 0.15416922384744722 -0.32399159726753779 1.1740180876294808 -0.1506219598024339 0.49516941479405879 -0.29559435357087432 -0.58451127115430224 1.1327301329860979;-0.99026559120185043 0.013273953480430933 0.75513137988155177 0.25633142140581044 -0.045255735389578305 0.16330410663753364 0.26562423493135034 0.59284979691728368 0.99429677379743209 -1.07741652747031 0.32118078831413233 0.42225211517233907;0.7179434064168535 -0.92601402793490162 -0.81685673440383311 -0.47694679986624494 -0.37486719378889299 0.51716937779268801 -0.52938056302701275 0.71056192338032276 0.83035153077488544 -0.017059399312059159 -0.32673428555318323 0.069436213717142328;0.37072041526539118 -0.069746766740416605 0.34146717384269543 -0.84794421889430027 0.83781617199951874 0.1396624790859764 0.59528352124583594 -0.067351412311505043 -0.9059756439692821 -0.12332109111809118 -1.0272223592747289 0.36263904917896728;0.66665747733793046 -0.50199304440551151 1.0924228751921727 -0.50662768507727274 0.019787703561524296 0.22378400670131357 -0.13019239566732713 -0.29154562078004936 -0.020957828568229843 0.78284238307827014 0.81399915110591647 1.2208369071861509;0.52469898411963678 -0.31314076296923143 -0.90681949215372804 -0.60232097746616509 0.94650331654939623 0.18039440904085607 0.37213917275844466 0.61357625811483318 0.060400805666916101 0.079180732085611938 -1.0262183273956511 0.67869597878003995;-0.87484678477287625 -0.11168672309357329 0.77366342724791526 -0.4734558861881985 -0.059693165817238977 -0.603654952084556 0.26072787492731264 -0.58077955406494941 -0.74980683482015942 -0.71722423700469251 -0.37534007005573106 0.72387163993601411;0.36488585745241003 -0.40755420776821605 0.29566056270990448 -0.80862399747710745 -0.44038908438320945 -1.1216254727573287 -1.2650650122790712 -0.18830891493805293 0.48729401580231063 0.67200611112739994 -0.43887428314727661 0.19252725251483735;0.090800969522311009 0.28233939907287003 -1.0497225283488079 0.60401614969245188 0.36300070568894832 -0.81060598471356193 -0.4736610906685681 0.089684587495080223 -0.33473232408844705 1.0450370729244542 0.14819929047005992 -0.46949341129752281;0.21636453048453669 0.283311544129981 -0.68219049332824522 -0.13345093418274218 0.8868262576092264 -0.34645953915898581 0.81734458276399347 0.69281238333607564 -0.62815661540519618 0.76815485921887949 -0.81128255601869925 -0.16514507489704222;0.16366080816719678 -0.51687706187305604 -0.7490775465956474 -0.81336932080421576 -0.61074770647392096 0.50362246070384864 0.31481082444453673 0.35642104639311256 0.87276577102071939 -0.72594834244148687 0.58282904727656526 -0.47381709051837301;-0.57759769184152487 0.39061889505745168 0.91001883774928083 -0.8377371327890849 0.76458064325473218 -0.13948613276839142 -0.36541059903988987 -0.59976896137239544 -0.55032353747136575 -0.79681586157395379 0.0052950275141595907 -0.66220620088146953;0.61807723935493408 -0.65945799971442509 0.13715179490750878 0.36291528591335231 0.1728103769682498 -0.68987009270769917 0.11694769028242213 0.75125503192275078 -0.97961872030161157 0.20865482451176828 -0.53405215791894645 0.50403108538363639;-0.34802829417178971 -0.011350850195812903 -0.81816361766916645 -0.82225477138007741 -0.26198481717658978 0.58039546826541688 -0.20500217334332074 0.16423376291178501 0.73062493317559229 -0.93807718474254009 0.88023910740644784 0.22169961526373685;-0.17243148230446939 0.26392300273664548 -0.98713244703274339 0.11791370719180223 0.45468259708087461 0.55941670530975762 -0.698241407265484 0.28244164313658598 0.26876784354472244 -1.0655900861444076 -0.97952187325254747 -0.72485176020542053;-0.75494295063815131 -0.7176778604382259 -0.28821182857013883 0.099976087004458467 -0.75938704916409805 0.35812655827849593 -1.1028513908684858 -0.13478099463509008 -0.56082184317692674 -0.30082811606579579 0.94247044105459887 -0.069672116261522449;-0.51991737799251625 0.62551482025052285 -0.86926604146622766 -0.61079364915570145 0.49162640546694719 0.043265995187571016 0.97851033784071761 -0.23387804948978091 -0.66091618535681107 0.30947814301390297 0.57380904882491002 0.61275770302897259;-0.68532525987279858 -0.78174493949088952 0.763213106744278 0.85043928037297867 -0.69344598812748548 -0.38288956913932465 0.1944616764919897 -0.94255935478540998 0.68386636116566268 0.080858114915029075 0.080750380693076496 0.12585913224035125;0.5309798806762005 -0.8408877741983003 0.78926830826215055 0.42868217200925618 0.16445723205192192 -0.84522701515904008 0.23778274952579437 -0.076588546215541481 -0.79280265639392022 0.4230622740275598 -0.040595996787570303 0.88228278381598113;-0.22797077950770653 1.0308210737330923 -0.41965818749517436 -0.29644699243866335 0.45730685724045567 -0.26805700672876071 -0.49023846342239374 0.64354971210201817 -0.89171909973049768 0.65920545259663543 -0.51593841218723036 0.59365587557477206;0.1911956329145188 0.32369703130865557 -0.61249265759894012 -0.43642564995052774 0.71036308174874685 0.82882721142717863 0.62311216434961192 0.28467555236586034 -0.79068897871387744 -0.16988531348261654 0.85548868419177526 0.56374795455218241;-0.58161597633234596 0.75601881229945633 0.35641126715740828 0.6760091606181573 0.61833760271863281 -0.85756791926609011 -0.11873299652441821 0.81644424696954532 0.009714405738114237 -0.66408982720476206 -0.24489320333793466 0.45999756541621173;-0.35952282988135337 1.1363939981554687 -0.68429998979208106 -0.3154028641872188 -0.38891467678929026 0.18744830072796054 -0.76969549465732856 0.38486477730420715 -0.52001967071300803 -0.19684537639193858 -0.046648592978061676 1.033877026758838;-0.63814862829144214 0.80445961099940866 -0.74768469510106927 -0.96579094105176377 0.31065476070175491 0.66385614797888515 -0.79351113595381761 0.035534523596425525 0.031753403333829901 0.63231296818966387 0.13229193497656141 0.18875944051646365;-0.33648234235264984 -0.96253695191650757 -0.21177613733508677 -0.90253186254194229 -0.2141327488942896 0.18271745644781021 -0.8882076317633153 -0.87936310205981194 -0.24718391259855965 -0.34531646948054401 0.66308810233048643 0.2722561854277436;-0.0069466609082507831 1.0015614308691976 -0.14806271865017218 0.34146228782344834 -0.12566823342578715 0.6149022762375278 0.037765353183737055 0.27327311267301246 0.29547856232415776 0.71751242577981345 -0.25295854233995835 -1.3495362468959564;0.17643998792531362 0.12962111810481794 -0.0057902905065920947 0.13191740229389484 -0.77692013061530252 0.6017168950435845 0.54530421764849957 -0.23358462136734268 0.42376416556123442 -1.1717245459692314 1.1134774411082222 0.19731149068960432;0.16609891447846434 0.74681736174054891 0.46979817443446326 -0.57007109702046543 0.23237083429147984 -0.35324019542203405 -0.41543826290400554 -0.57347641808636074 -0.40007792989233998 -0.71215718675167627 -0.93795752025742096 0.93242113038074659;0.82793621968550646 0.44770035584879631 0.77982946986415569 -0.21886181570025531 -0.75953540395880093 -0.67833660176358523 -0.63518793258548478 0.51705955208434173 0.67356278193956187 0.74159713482344014 0.80298848588712401 -0.06174026580403065;0.69964703775351467 1.0037145139189096 0.54984637770892386 -0.73600532909331395 -0.25505819130961832 -0.89735038885705298 0.31421591694071538 0.99409173703266895 -0.31096997902966284 0.4791974794122375 0.42408294052996681 -0.23115570992115347;0.10229476625385542 0.65851489806333774 0.58505420136908493 0.66222832615241656 -0.39351618273750588 -0.097544350810123068 -0.68071843450707792 0.099777826705486683 0.40532802411900953 0.84808322245980217 -0.17869416042580924 -1.0048745219261703;0.021869889849426595 -0.52184205397831063 0.7085574893436587 0.62376689002919283 -0.50808887292036942 -0.86391024257697935 0.084168953898216492 -0.073026909287528793 -0.87296352029360524 0.64894539856662248 -0.66837778969366235 0.7390833649138272;0.32602166762233836 -0.57849390315912397 -0.76402420483364786 -0.0019733389510161637 0.33282173771767826 0.28725700689960776 0.68330452954328658 0.75840241910552997 0.6797328568561477 0.70387310721305185 -0.96723308764820781 -0.0061629401306778405;0.34602868756622557 0.47489889841343752 0.78764036357847556 -0.74605638248518391 -0.15387434389343599 0.59070380714625137 0.0092567046651511522 -0.62966283192645323 -0.49968781437398557 0.84684072168485724 -0.29526914709580016 0.84508791946322548;0.84287428637557571 0.92421652628683149 -0.20130804919121981 0.26225095711894408 -0.15370674849580465 -0.17415691057348481 0.68818797045591551 -0.14930267334402941 0.89050291414061 -0.28828641114834069 -1.0395298264971002 0.18012153313357013;0.84470822294578551 0.76262801934869895 0.17322163719995134 0.93942886602992259 0.83473068095424996 -0.37106601401146544 -0.11300391249887828 -0.87163505113927964 -0.38582958507096771 -0.3575250674812025 -0.075877962212266947 -0.085728031173962507;0.24081795071588161 -0.55301031564496561 -0.77771730904662628 -0.12206661796379351 0.0076487545633962947 -0.85749691202354816 0.58774237606780599 -0.81467203997668702 -0.73294495467117216 0.46227793867619416 -0.75272904280926323 -0.62640460740193094;0.56008421895188543 -0.81024899489255375 0.65306504877569771 -0.0094131760705606898 -0.43501342213657862 -0.012930218792446531 -0.2484422789732387 0.28375344934339186 -0.46129015018688907 1.0182079964559787 0.94645704793736796 -0.60361321127369438;0.066806660956931121 -0.14642205243844947 0.046253198362145774 1.0788433623205378 -0.60696983974514507 -0.25480202853534728 -0.75097832823860344 -0.013714130945086413 -0.39974958636887747 -0.39353977976890026 0.93519695505819311 0.66659421165488131;-0.77678041285944743 0.83097697422446781 -0.41775412191927036 0.39609694164544912 1.0449671697011653 0.63952450917470183 0.055799551029223321 0.095562055685705694 0.22568003657473978 -0.13965975228934102 -0.73966889966891269 -0.63664347725187331;0.22655149326254792 -0.88564386848716981 0.088637056435914199 0.040407276273088336 -1.1118787729943442 -1.061589009851128 -0.080297323570893503 -0.65946959757458212 0.22240804254076135 -0.65782910849631515 0.69196943024900726 0.41790497245387503;-0.53960902849608738 0.27621209568666055 0.5600095939432953 -0.9219018526881525 -0.10417438784002411 0.62933616610311727 1.0013064723000669 0.41417588057283455 0.67484906280772028 -0.029731462255063321 -0.88740652822205845 0.24043513291510599;-0.65513791939612132 -0.16937399278325194 0.34645427301877807 -0.052879991474210811 0.1107846775346164 0.33029391378301887 1.0464302755043058 0.3378199035441049 -0.7658326746970302 1.1003252587559877 0.033066064567132687 -0.89826358969678888;0.91398099520239062 0.55860666188987251 0.60883669042523625 0.30933424985956121 -0.85043479014101353 0.61778786887324377 -0.3176509246419163 0.46696943891866283 -0.3847021053485612 -0.69501054193571998 -0.69222053011644491 0.55235473201778873;0.50523810107658362 0.22514865613983331 1.0591467447170018 -0.76945535848007429 0.27350722081864759 0.34362628150968966 0.96427887431615655 0.3824615607605325 0.45289320369832375 0.06933230219765163 0.23134448672928939 1.0610213311626853;-0.55201947583656896 -0.14881445205365662 0.23405803490753505 -0.80394819326082534 -0.70821651525763718 -0.78159443006191376 0.63878573302181008 -0.032227197436420746 0.76869002634944472 -0.44967378908199968 -0.70210196037744388 0.52367138790162016;-0.85119370072846501 -0.090443322148477043 -0.12309515181565892 0.16965330955654523 0.15101934683080842 0.70447637540388253 0.89011958896808174 0.43116659088660614 -0.12179286581958383 -0.56471589501926722 -0.97291915671715867 -0.57919569131565174;1.0197001130076377 1.0005242560152889 0.69292022780940821 -0.28474936537961465 0.072027955108007913 -0.75356446319462556 0.16388648455956692 0.97701550647516933 0.41630081263476082 -0.13237325979695616 0.004555520289837937 -0.5816721192595089;0.3805455671328199 0.8086062031387663 -0.47991496679807616 -0.16936034309593717 0.58957865970059764 -0.97726405811955386 -0.25668421970452049 0.043880766268528687 -0.75631682253077437 -0.28685903913530142 -0.67726171375989408 0.781114803963599;-0.059268495779318135 0.39259823648790909 -0.27781812319678867 0.16745834133903911 0.35590772394463549 -0.6579812596591974 -0.18930164723751364 0.93837763765120752 -1.5870568638280229 0.16189977884823112 -0.34755143522006893 -0.75043419851072124;-0.71151425076623087 0.73090878271796489 0.565574965626918 -0.69512958619188014 -0.579445565894943 -0.21025384406235453 0.38769369159143191 0.80388926480854239 0.58348458054037877 -0.52859662474518854 -0.40543593182141485 -0.49982843386931014;0.055251329408599358 -0.36934564834549638 0.72071639614247052 0.39304752099271567 -0.21322832866552127 -0.57413804372603594 0.28284243617886923 0.38370409013258328 -0.9919282250638265 -0.80911906084901386 -1.3686668454514914 0.014579651882191562;0.18621751034716422 0.67109426609597167 0.45059002632401518 0.82057630801024628 -0.23727038692442681 0.30857149061708389 0.18635627455716472 -0.52613999064208039 -0.71263521734289725 0.22306293994631951 0.9330843933648425 1.0641291184977129;-0.33271954559226669 -0.34919231803537448 -0.19249844560671414 -0.44094589918453619 0.73794318249766888 -0.53940694996931215 0.6820277361340229 0.098040512797856361 0.72483819027660146 0.96305786350991984 0.88075173488021874 -0.59042131377129259;-0.36388537379276953 -0.44407861961704898 -0.62723821498508625 0.22501254941779947 0.67584579428238267 1.0558769006190625 -1.0249018288234515 0.33611859419943507 0.36057625347955774 0.48263590337993029 -0.12643070970548981 0.49243347823898659;0.54469583840935132 0.71737949573819071 -0.14757626136997232 -0.76952702074068924 -0.21188618224656108 0.50495765414159632 -0.53543611159110538 0.98705404388101314 -0.10814445481763929 0.98846534917799234 -0.20325865908885971 0.42642186875241139;0.70346216186955135 0.19212503372109058 0.66353670163268508 0.85427981397278963 -0.67275409017649479 0.49795815406982041 -0.21176081251447887 0.42119263332817231 0.98249257631835463 0.57847286807909026 -0.12614512597491254 -0.63851770252310602;0.054835007112726215 -0.34345364570350045 -0.71741666077337762 0.87751753726633508 0.11253386352720875 0.73577543125395217 -0.8728517597159281 0.91330084759126573 0.010477642055424646 -0.13296277118425859 -0.60324932013781729 -0.42732478456527112;-0.29579663146796381 0.097902146780592794 -0.8687337606985398 0.46934166881030637 -0.88757680506271863 -0.78746958251573951 0.44631200077778294 -0.49681672757474832 0.20688905368743457 -0.6046515485862346 0.55670202959843762 0.83195430319689634;0.2974474653982348 -0.61661805415317528 0.43078593739095189 0.80721922825280656 -0.60258073038943016 -0.31157909276509249 -0.13073138369106083 -0.33937115652202848 0.97684108506871936 0.86608785119294596 0.75837303916627163 -0.56117623781285364;-0.46519090071678759 0.90638448106417535 -0.68510952996526009 -0.2351053886128904 0.62321084412483618 0.061032371111014186 0.33224626020229653 -0.1879317504816885 -0.77249943353428185 0.33141893126585847 -1.1396492276666632 -0.48615813436244631;0.21911517643284964 -0.54988600377994301 -0.83880329455709324 0.41698847152635787 0.033545358431046904 0.81023800673453994 1.1066768150323119 1.1185196846404397 0.443719653741461 -0.36890023617959722 0.36394067262706598 0.43626597134601669;0.19211831438248075 -0.4026602971765994 0.90735284664498261 0.21625830499584098 1.1426397717641779 0.90763234973140183 -0.61739729797671727 -0.049086164806531524 0.46539872742129401 -0.42287412698409532 0.10703663700645585 -0.22295856801930675;0.53167989047846731 0.13192281175076853 -1.0087125509659889 -0.29265923910709135 0.37716753603757452 0.14696711176751284 0.6935981688841758 -0.99726996206731844 -0.9562224261030503 0.098488921372357777 -0.26956536352816923 0.67731132356830592;0.25009769900145523 0.47113247162731431 -0.49231274617099152 0.72975170765565622 0.86880496628834136 -0.82243177652232535 -0.13405326848567384 0.4337217510233527 0.075169884865012332 0.51907614269863189 0.56782242096253266 0.8941138302331586;-0.69214557669021959 -0.31470685198960713 0.71947628030273858 0.62581541600598167 0.7403766162869192 0.73094839811602819 -0.22578538210652369 0.6675502691849754 -0.75677134944959035 0.71964629091913457 -0.16463417240293721 0.39206513097918716;0.84932547256178959 0.19729472328596737 -0.52853693199048657 -0.65775104314199073 0.37967278089541528 0.51368625343471752 0.57526467727983555 -0.79897380225644354 0.20051840923881276 0.7715101555371332 -0.68596131048770437 0.49292609851162378;-0.07229950381214241 -0.98503137511386729 0.50173240460402335 0.048614861035567732 -1.2396495936288841 0.017521987560170642 0.0031583480426360115 0.47251412343230897 0.43012314294328596 0.17974025225169499 0.55166419857534865 -0.73928927482939888;-0.2230676627979862 0.50734954476349403 0.6889267782885885 -0.036438019436160297 -0.22139604041714667 0.77779907081807487 -0.081677016704036778 0.046854947147260413 -1.1276252365403276 0.15207723946857343 -0.31746981851524975 1.2834707710701543;-0.11447347860902364 -0.33332055437173674 -0.3740828103008299 0.93937342492757148 -0.99256930871161586 0.18683795962173214 0.71311622482432602 0.81175385238590114 0.80783512410692249 0.01068690559443251 -0.090080712109836411 0.52373447182560529;-0.75732492181048772 0.87802146493267252 -0.60290454966537776 -0.82640058680243 0.17247808181129295 -0.17649341526938889 -0.55680958956833726 -0.2709782459006812 -0.54450769542744459 0.21265038553433097 0.65708436894439604 -0.65295459936409261;-1.0168805124909324 -0.23281435050175381 -0.4705791671560679 -0.36905512002474067 0.73474953094794737 -0.49914143025603802 -0.77250515724511715 -0.58509618068226954 0.19168514460727537 -0.55068082337668289 -0.94717607994991238 -0.67481466540729806;0.44670471318802774 -0.17978353549393719 -0.75283528505010844 0.84815093543914932 0.58263159500305861 -0.39379790295246753 -0.63465408686711566 -0.50887196191842077 -0.99263781151265496 0.14857173271699042 -0.7382056638767327 -0.0042987683696787135;1.013415328329627 0.30866621816832407 -0.63659710619437482 0.86468981483783947 -0.35774637068735438 -0.45559516128898658 0.4573136936898155 -0.85908538788834388 0.81437695834767576 -0.34032907422736314 -0.26095963627258423 0.046304734422367037;-0.71171767827157373 0.78029107664000219 -0.65580524336051527 -0.46106075183031892 0.13581378591537693 -0.30668622623356923 0.72570929626602909 0.91637989324064451 0.21669614256103395 -0.40752577203754192 0.57176993462079284 0.86657931317677073;-0.49280743319040571 0.84095583044919797 0.099960093635456354 -1.0616823497751673 0.65460997945832844 -0.10018306296940613 0.096014738044262499 0.39347400816667855 -0.26850431064814972 -0.54791181713348602 0.44812530357014779 0.74523454069047146;-1.0101218762786017 0.24718530008665135 0.21359124910764349 0.96459872008339465 -0.60792139630760444 0.075219688561494719 -0.13397338077134163 0.58816430529127051 0.23472200842602686 0.86543074030543488 -0.40331334710421385 -0.5741692540517952;-0.64356984670391515 0.89842528268296984 -0.10886124084269261 0.078389719701082564 0.82614570748106309 0.75331371370427869 -0.83488553268569055 0.086596663979964919 -0.19614913120186278 0.45452643036149748 -0.54704878305849469 -0.75161392282459927;0.32779647913077203 -0.43038342341589103 -0.10300588130728153 0.59014075991450077 -0.81915220069283523 -0.62212315656536687 0.66019501475196718 0.55984253260820038 0.82539305852729572 0.013285272183437861 0.95917540914896871 0.49517119998361819;0.70270223076283789 0.65970848973098684 0.80640499020171541 -0.40092378848471538 -0.56487214926512819 -0.57442987886303387 0.80295777255570711 -0.50157707618254799 0.32286141688647391 0.88392050280577428 0.57320885579754755 0.32140949642294975;0.058819232731094559 0.8965196107342136 -0.74977596078543485 -0.089789141502941747 -0.28554091074413596 -0.052968624734391512 1.1584255580672354 0.33230683098250952 -0.66721605474424583 0.13685518131095314 0.47575108741823574 0.92812221195985856;0.88787637048097212 0.77226961104613534 0.63094361758227957 -0.59186661149362896 0.18769635111730859 -0.4135779363144419 0.81233508850576741 0.74626026684557234 0.60993456226733023 0.11287896157617032 -0.50721481896382015 -0.1435083059656021;-0.055267191685677453 -0.47343302784467656 -0.46697673595108957 -0.92070546139893961 -0.45809333516988271 0.82988054958800772 -0.60287248501626223 -0.78118897338286064 -0.32917057057898291 0.36082785732966116 0.68166534170257187 -0.49691000190179152;0.31247511141232681 -0.52351234554825488 0.05669561242266398 0.86619037341883998 1.2957795679958879 0.57509433016446299 0.05157416239986766 0.88783216903792106 -0.1604710394926987 -0.53730505068499768 -0.51536470114680688 0.50161455756246753;0.38805854723309513 0.20448372401535056 0.072131708135562272 0.14765262469461235 -0.18008124187121427 1.4648037794907551 -0.013960303678468414 0.61558128310715821 0.48579098168634477 -0.23358831817472012 1.2314972382418845 -0.31504022388555813;-0.15930840364973875 0.73915550721175827 -0.61466706247870062 -0.72430167449140692 -0.77389917784516971 -0.34548080323649538 0.60411845201353531 -0.67166596435531245 -0.59588317471754071 0.33937977632046601 -0.040326183075027666 -0.097859610541941366;-0.8663849691747445 0.12567203517820738 -0.064681797996461218 -0.080514753579543019 0.34698247027927204 0.75153533269367978 -0.19892789616316395 1.0096881252993628 0.65053631191766614 0.028761984739789959 -0.81195645229228308 -0.79163279370315798;0.3646197321958411 0.34039916498556105 0.29560407400170918 0.41885130228664325 -0.54850550954737654 0.18401506771223788 0.67476211696697963 0.90172365238744301 -0.51701972445646716 0.23976387353345208 0.80233460846459803 0.97588093471685677;-0.0020891278535572731 -1.2217116856231032 -0.44525301737412187 -0.0042952033766249266 -0.59156030141871241 -0.63653973915691331 0.420084719019234 -0.29041868835240436 -0.47466098180457311 1.2434130614539447 0.63856809078237187 0.13706734624290448;-0.70954042705668219 0.20183758174832325 -0.48924635382804094 0.87209308636026062 -0.47280740741492211 0.59174742920224088 0.5503078143251432 0.14267074882778066 0.57166914914353517 -0.33427838590381753 0.86422881369750093 -0.74505371917896579;-1.1117861025817557 -0.60921308177650868 0.28404456237338055 -0.24762983022065357 -0.95113487878479919 -0.12534718477451234 0.57674730424649001 0.6913522884340676 -0.55691897203404939 -0.48712124190731537 0.26114797266874978 0.034553600530927361;0.49284129372869956 -0.76144563628617412 -0.166512856058639 -0.56391931093283176 0.076973876938628255 -0.59690290468390717 0.89811153485263706 -0.84072520012435514 0.59812179264935506 0.21122896338420713 0.85542897584390021 -0.53038382378447135;-0.62687650299479303 0.74891798984470792 -0.25866211834329206 0.73382163561609304 -0.41725357865963492 0.14312551853517541 0.52225243425778589 0.66928956834499664 1.0010485870587977 -0.68603742564749126 0.20491063512113888 0.66476598985493474;-0.65765923573004093 0.30507505177240851 -0.81484588521877011 -0.55683186803866525 -0.89669221420103673 -0.7688311680607941 -0.041707213160895068 -0.61774396824669187 -0.25328974645459518 -0.56206685014817126 -0.18755398209141474 0.82788126152012986;0.20606003422941579 -0.76858294393035531 -0.04229674983948277 0.77592722593174246 0.2616583028388329 -0.67616516973738428 0.61200911542103598 0.73991174255655823 0.76176005735812402 0.71914455811521316 -0.49074950545950313 0.18383327668157554;0.45719125989092363 0.63190171174300647 0.20220675984739389 0.66625016246499602 0.16862755736091659 -0.12089277277793743 1.1208398224727085 0.8423665002909112 -0.0023299245403490317 -0.78512043011360289 0.59922470782021631 -0.34722666588341655;-0.46001803753942871 -0.25409159342244209 0.83228237407279959 -0.05772755127235351 -0.64421947370871346 0.17122281378232992 -0.39790999280421357 0.041652447569554475 -0.71546949129084914 0.49036263934829738 0.8960058719682874 0.88775602363340966;-0.10925033093686472 -0.43620799961102874 0.54489996357956649 0.6019878931614131 0.44454455666166615 -0.6697979005348319 0.92812190970565733 0.012143828219532615 -0.17830207633543688 -0.66115001128301809 1.0019695181712074 0.40120135898708975;0.40923645553709731 0.6981155232567251 0.75152086441207755 0.62980781211613013 -0.39733644760936154 -0.75807266133436602 -0.33736428760959636 -0.25698254447508989 -0.92491893365815969 -0.22811492800052402 -0.63213647442076137 -0.59092733683083076;-0.9644070388623841 0.81341395482657908 -0.11317593641809193 -0.22918418065272142 -0.12635765284768255 0.33553450657333567 -0.65833639745119921 0.86880121452546355 0.75374164080788641 0.089351856141644995 -0.65338291173864493 -0.52352318662575326];

% Layer 2
b2 = [-1.4492178320971538;-1.3947573159063231;1.3202103501546856;-1.290712399048513;-1.2240911437084709;-1.1684671141951883;-1.1284928662641824;-1.03441673178661;-0.99577608375583992;-0.9740532342554733;-0.8482305392433942;-0.86775131501819891;0.72993255157666292;0.71767445973001798;0.62145454500798325;-0.54689531849658024;0.53933934275647255;0.39669889625905813;0.40598511244791741;-0.37046503556705906;-0.27431416239563072;-0.20839900286704191;-0.134405089444711;0.14278395376653219;-0.025344802154144613;0.031932485441941251;0.043573289917093347;0.17001324100100421;0.20887600557807517;0.30479006288865335;0.35770180986085809;-0.39654089630833489;0.45626590412003587;0.54001382140585552;-0.57463791450678414;-0.65156356822833439;-0.63253182362455407;-0.70892796067343544;-0.8454492809384061;-0.86375291430180534;0.92184236324047319;-0.99413592344402069;1.0520117845166741;1.1097149493668896;1.1530862401292969;1.2445353527521821;-1.2668049658629468;1.3002274515728203;-1.397374641780581;-1.4525567753463748];
LW2_1 = [0.11363221737907254 -0.041633013100998803 0.23647592686075009 0.16435552867877351 -0.2707447807981801 0.033801772424084463 -0.20568008814486299 0.088284123106892154 0.096556724802114177 0.1940973269788738 0.12263896301969546 -0.16515322815443037 -0.42738768834146945 -0.021552828725144357 -0.081479431066942526 -0.20031575948701416 0.17648627383456753 0.014986335428924582 -0.008101755251855771 0.067404209680800423 -0.19978498934114292 0.21328143100113264 -0.18181577838806409 -0.32047500056949058 0.063802804663058252 -0.12052507753086054 0.021216080129227287 0.0072952386315852822 0.075403146258046727 -0.10461324050295559 -0.081971147966012334 0.010807416052113241 -0.13021055436860909 0.058764992118295264 -0.1190127277544937 0.18861530068729249 0.26951930748579306 0.14376115895323022 -0.12383604501509195 -0.15387408955966059 -0.050372876624697464 -0.10330373665814246 0.072765890958221002 -0.244317741527907 -0.016798300858459063 0.033994863759613907 -0.038375623122275548 -0.034392561296982517 0.087533164846503295 -0.13660548271172965 0.17862170454058984 -0.052338257901420396 0.13173404808372488 -0.10748522332218835 -0.05412006200007094 -0.095743717719909735 -0.36519132563018464 -0.13445241984115378 -0.22615698551131344 0.14249629694241403 0.22293518010880187 0.10242351853571174 0.042154439880533898 -0.1752951371656675 -0.1897799937015103 -0.35695393398958797 0.017773910307996174 0.16971552381563093 0.014033544793842011 -0.071965255907430761 -0.12124092679044104 -0.15144689634376909 0.23900506000220112 -0.41290851653499128 -0.24523132944292292 0.25626030388463361 -0.064109406850017356 0.10237334279328784 -0.1885015878338164 0.13117213287328658 -0.062905692519104273 0.21348536217733988 0.017603216256936643 -0.18414635280349681 -0.25972423694057789 -0.24284909601436006 -0.25880767968606166 0.11561261458145751 0.10041449469103814 0.0071795235746554891 0.10278295304835322 0.31113754857818426 -0.070054765502287841 0.051699921225512126 0.1560444048622868 -0.01537560113706582 0.11068002463388249 -0.017227936949473204 0.085737221571306421 0.040185778503454228;0.03413557588678489 0.11815034370001545 0.06840284969096852 0.11593158672990131 -0.13413165063468668 0.070524768777120231 0.091414342451945879 -0.0085084014243754745 0.091878866952494101 -0.089970542966134492 0.15575270637289357 -0.027060755144612373 -0.20418152404173975 -0.021869786399429648 0.012132299714266938 -0.15117329292039014 -0.086152638881046101 0.084365130809495759 -0.066034364107823693 0.015580141540952205 -0.080828440276126859 -0.2434581489300072 0.23390198280120827 0.1121914056655757 -0.18554421097156537 0.25270409487882062 -0.24125385979891445 -0.20231792864909029 0.20592411163682495 -0.013737097161780924 0.11680913410746203 0.25049423489931472 0.15639875990166538 -0.057044521334910378 -0.17908511315673889 0.15911495963825481 -0.19368664685570489 0.073956467422705743 0.25616775667776603 0.21956457104679195 -0.14260618943537276 -0.057562325815751735 0.13489869218508632 0.2662521901324964 -0.14663891399414627 -0.013508679043412752 0.061145549085500288 -0.17996505954727118 0.088593372501342693 0.22992014640781724 -0.16115462825302582 -0.20318401348528986 -0.018165195801407276 0.078535529191012018 0.11113416262446282 -0.25694731927025172 -0.11280485055513319 0.086841879995218113 -0.18282246467721258 -0.1219163309703276 -0.097413669639264885 0.1430168972409166 -0.02322321325548064 0.1718599169092038 -0.16573358018079665 -0.034849477806486506 -0.14137023528737214 -0.035286293464721001 0.15221483880422684 0.17333813572577364 0.12804475696880982 -0.22719266320978676 0.076411186835412967 0.15318947415098502 -0.13944412928962868 0.072017040505888752 0.21017382702344531 -0.0055402727999282614 0.0049730059783143748 0.15663619103762211 0.11164476900272646 -0.21403121581627768 -0.17807175043600817 0.060271656705309803 -0.19257417645458985 0.13304881193155654 -0.021611114355837534 -0.05348845849002002 -0.066711616774975446 -0.2396967669539864 -0.17066055120966728 -0.22984092513834203 0.17551738243467646 -0.056861533849343102 -0.03960694131558655 0.14015241032004355 0.18909392211517601 0.22575167659392048 0.0035586607195662789 -0.069910538080986268;-0.24915047202595339 -0.020608492470503045 0.24470454431504679 0.19720302509982243 0.28602571892263379 0.059648994188646026 -0.25121307298707757 0.082462854893208773 -0.047003088660511991 0.051720201003703503 -0.21163422700252676 0.12189902019495344 0.01285087541749751 0.048717671733738706 -0.28755624279879799 -0.026691284920769682 -0.20487223752792527 -0.24054165725708268 0.032151845022328603 0.20932732942035104 -0.21646857534128197 0.10077154680512958 0.13240073157722734 -0.079252755974524053 0.17575010016559198 -0.043304489802506681 0.088464938785174516 0.099973939382379293 -0.16981256684078302 -0.1555536678247218 -0.1623196884531044 0.1237514010944967 -0.068424381045075061 0.24944446731613315 -0.14908390288824835 0.10095672361421838 -0.11535615614984045 0.34595689378452682 -0.054711066121657721 0.075144648940249262 0.2367514520410097 0.026835461385384545 -0.11868957148389231 0.11052727460503564 -0.19641175221763663 -0.18108407812300029 -0.2660093874499726 -0.24572951045942301 -0.17123035719858548 -0.058202429986863286 0.096475412921075504 0.1207936660848254 -0.05442587632658194 -0.062099240079068349 -0.056732051206066218 0.15123644553252968 -0.16139083641133467 0.2147514858016793 -0.021608525448408876 -0.053319735750447371 -0.18380536694179833 0.016880602030520577 0.033102029997683559 -0.20369474172980861 -0.00050501500748707209 -0.19511505976075227 0.16741378526159084 0.14991094730070234 0.09344729314132745 0.013053802247024425 -0.046442194078366236 0.010325999469780233 0.12651406618849409 -0.098726463038108767 0.083200051653643164 -0.10888963359244271 0.27052107251545748 -0.14137531947041801 0.15261631768782827 0.16092953238842353 -0.12937343337810064 0.133069001919633 0.062613337724376661 0.2587105250788963 0.052107770854515158 0.038679196690934545 0.080851955774625534 -0.0065809179210360603 0.34142141567101036 -0.0063945127530295447 -0.10063579773372883 -0.24538804552304389 0.075806474354722667 -0.20829842963643122 -0.23442178083528936 -0.0071619983678158656 -0.23620079158778365 0.034206535061127703 -0.073865876563867713 0.19243957556120247;0.0031695146257732718 0.1528734551592856 0.10003412437322405 -0.030242314682089613 0.049801322916316372 -0.33412000618430615 0.044157704516183581 -0.22549228345485972 -0.24988159561497764 -0.20726737972453774 0.01508154944994557 0.19041065806297539 0.26947150318122076 0.066332665983561703 0.06529905605275603 0.13260797027188409 0.068188151638986241 -0.22131765029194111 0.1879115999442163 -0.041537633165521268 0.036593746858550477 -0.13350563230817217 0.17588828510440166 -0.0059826958858698095 0.014056682046060566 -0.016052062691017506 0.25718237842069264 0.022512431957399832 -0.18087341833893214 0.04699829398672075 -0.070243864545921311 0.082083669950406307 -0.39174743444223115 -0.054353546740178095 -0.12129186519751407 0.25269171869037294 -0.49744716629378605 0.15529420620033363 0.20098802014910697 0.243191003264672 -0.16954862798310286 -0.03754947801206647 0.31572640088051929 -0.025507532376688638 0.07276730129591534 0.23643183653344738 -0.090028627905573852 0.13278781592640099 0.048697778601222909 0.083776327881202151 -0.019719011522160924 -0.14448110591297728 -0.16255663894920616 0.16519029528055737 -0.13933764311027488 0.16894581944077861 0.24442710865859724 -0.10831464457783675 0.076342200558362383 0.24120495204400896 0.071528523734105495 0.22003343479337689 0.087917922660173842 0.10061672271043591 -0.20010666522828824 0.2019857572775563 0.3781461948396434 0.22155205386334897 0.30447726466950847 -0.00029537944680120429 0.14511001728755005 -0.0089059796847619586 -0.16124879564636149 -0.23412217137517988 0.15119275372228913 0.072268001814449506 -0.10165880623326738 0.11569391284509412 0.11042748620139763 -0.036828371042128001 0.0038554496421338005 -0.11089948362797895 -0.089325332485166969 0.075144048639592648 -0.21173462108873783 -0.17287888492950948 0.13169921027436932 0.088999165698355254 0.10138453837368552 0.090192153898623645 -0.17154715168006088 0.12552609923974045 -0.2966648761705426 0.27421274977795046 0.13156020358479067 0.11016907891931338 -0.1854254090205486 -0.14891543233117246 -0.097042035362499238 -0.017377432979115901;0.23661728423310979 -0.12070157365500628 -0.050795437743060404 0.015641731907354843 0.14793789219241776 0.37943710145483384 0.23862805181325034 -0.20421333674099698 0.22432545651663541 -0.055385417086682723 0.12071507862161795 0.077094499620313381 -0.12461010797481717 -0.073040694692091249 0.10115931289497762 0.094141986953197712 -0.16137745699423478 0.2161622352900458 -0.19087874066752566 0.073321184351557822 -0.049396326215976956 -0.21150931633650949 0.021010758918986044 -0.031926710204078439 -0.15711229698128629 0.12236948656771211 0.19693155189246048 -0.055451072853460355 0.032073672892968232 0.023652835075987651 -0.18810392796639488 -0.23422777880667262 0.15168055609961972 -0.26185121070994105 0.031261520797117089 -0.28455215963828123 -0.11752148373356791 0.19029181302479584 -0.26486081098955272 -0.07881031702511819 0.034293522184230853 -0.094349828421067275 -0.16753851587226201 -0.16890683015717078 -0.075815031907300753 0.072282325166389688 0.33779551258118906 0.216013909572808 -0.066173940014320837 -0.12280667349269413 0.17710401348851965 0.083997004167877101 -0.18663441933234257 0.18876828232519385 0.079847908529274536 -0.23620230386680641 -0.20088483568626378 0.1101062188336599 0.09666840182869714 -0.13194724541904376 0.20842307437475205 0.16630247178927252 -0.14182111272714504 -0.042246882579958088 -0.11634177504505139 0.16163056790503075 -0.035392289513269615 0.074819263790352267 0.098608059662366604 0.14433081338572074 0.013606396306801617 -0.10222994235052239 0.20862153567960051 -0.076564647084981133 -0.12938591224436616 -0.2546005022243738 -0.14456664353784207 -0.18107547551770511 0.083788670079812583 -0.2811107316987862 -0.029910593500325384 -0.23163782919470216 0.22070264932493341 0.022707937852754278 -0.031316354502754308 0.047789138444169189 0.026344971526507638 0.088414836987748283 -0.07676887862590101 0.16122339959156293 -0.017164494487369914 -0.19560449696341625 0.13057670848530992 -0.12403135909728746 0.13998795633137862 0.1016578011715483 0.047059793594601787 -0.10198327499267744 0.1797745986206723 -0.11287138214246642;0.097491937977883414 -0.094450420054477818 -0.074643248183340338 -0.21337373515119681 -0.075165861218912569 -0.21273295813437915 -0.09320015391354336 0.18410014912995115 -0.24868874516181932 -0.12302939721981915 -0.2120115572829451 -0.083770843941874035 -0.045862160243100969 0.2185656574100503 0.16829673304171064 0.17364372157639366 0.03835151423525382 0.22492411002973145 -0.24251007956639334 0.1775445996060149 0.23443909560679593 0.13483745996778565 0.082555789667673171 -0.070264065505100226 -0.1634655051352395 -0.13262493081457857 -0.065808702999716112 -0.0093679099636514405 -0.18830161298463818 -0.18744693590318687 0.029322913512219818 0.00049239645423623476 0.17362854008509918 -0.28020575595150959 -0.17438682629263458 0.25100978694253856 -0.16343368416001294 -0.35054160260614464 0.24249799762991717 -0.0075456887612853378 0.20088823088475155 -0.34137967748874842 -0.1110816083623784 -0.010295579502348631 -0.011831942590919868 -0.065650416412979931 0.10832623540762687 0.19594877813857198 -0.054916550469387981 0.06266025770120838 -0.28976970058502854 -0.076890132754050364 0.11037357031435518 -0.18970593496528917 -0.11188140471338434 -0.2161867924091613 -0.23589220261838872 0.24203322375202399 0.30416626208245512 0.22148793879267434 0.089973238153783927 0.15343151180859679 -0.018014115962501406 0.33218745458721805 -0.18303529198023327 0.0035299007620694049 -0.070657394938341167 0.26258744116734334 -0.19976020722364077 -0.14204778875619517 -0.26316541290957707 0.090464180435219255 0.157614663187123 -0.062578237609858978 -0.25195764809926452 0.05006449224336397 0.00033088941408751282 -0.056621422529476675 0.12306486101861079 -0.018552873293150533 0.036046970689623606 0.15496167230528671 0.16517842340114969 0.0088883011635349229 -0.26077107342775535 -0.16054521728727603 -0.061931792713420912 0.13790114165012934 -0.068135722844981123 -0.027852494067257053 -0.075573734183964403 0.042099760080447635 -0.078327722178602108 0.048641971718341011 0.07886312862803925 0.052985373728372073 -0.26677815080629341 -0.24521958419034001 0.057893866100227245 -0.15556879171458032;0.20618072066900239 -0.15380790526298838 0.2281407366219933 -0.17407104024940698 0.1855677367521103 -0.072164036743419605 -0.073768936432137139 0.31215600135322386 0.2392247748642595 -0.19102697661546866 0.21404215339588295 -0.0015793269265743869 0.046486825439955505 -0.21247328814373723 -0.017309825916104641 -0.077110642266231502 0.06941604815531445 0.16058354593023513 -0.2079263776235302 -0.010744922729869964 0.14842721032938341 -0.0013382021772391714 -0.08162325414907716 -0.078238262222424165 -0.15721822535734306 0.17624039000751512 0.14839573893519548 -0.019204828709245555 0.1350972824247593 -0.14111754305222948 0.14418068887426139 -0.15584772065942704 -0.13329680838577687 -0.021719509850822452 -0.037814417203841585 0.033069523294026196 0.13725439114211868 0.30136806786510956 -0.019490976786693814 0.17916645486021388 -0.090144559814360398 -0.18134487402581562 0.17372997540041016 -0.076509085524921222 -0.18810710804352554 -0.20346337646684751 0.18366124568253783 0.053867453911533185 -0.04356202394509557 0.092800761331543774 0.17220851847559027 -0.14802276933604 0.076142564779192193 0.2113988178368035 -0.20119602165857189 -0.088007077085915056 0.11371033646951099 0.12082998722193705 -0.12796632245728601 0.20709539297419774 -0.12075858691046346 -0.034789902925515918 0.16216643778046436 0.11196594834009856 0.014010427733264472 0.090885005892446954 -0.090335084678768343 -0.15722420375798921 0.015777345128686431 -0.038467190358133785 0.097633485977497256 -0.23148557952073653 0.10998812654005716 -0.1863164267813682 0.21225524513590574 -0.060147469643258102 0.035960446073725866 -0.17000049563844694 0.15049244554469932 -0.14146530822001327 -0.069714197120483129 0.11389071769813361 0.2213708325263298 0.16380261523389139 0.15080992623066444 0.1009368623477756 0.048945861642588746 -0.063594446926821369 -0.19225517216910629 -0.21502517943599492 -0.001301254231714294 -0.0095286504651090741 -0.26345857761513236 0.176675156802649 0.20196854894475919 -0.22526107963452094 0.25974474789322149 0.17097693960242696 -0.053950189516857275 0.14907562225795956;0.21746050091331162 -0.40138923259673309 -0.12012648090272467 -0.028735844736650553 -0.09910933536585205 -0.073952599388336412 0.27713419388293536 0.04766514718768898 0.025115330632029476 -0.041532356938632914 -0.21756886474213155 -0.035495781153319764 0.050095690156499374 -0.040168176839947133 -0.086115040101183593 0.08099543173066881 0.33650466296918091 -0.050774033552988145 0.011604410505202126 -0.19440686728735831 -0.2202467805806719 -0.0672538480227486 0.13387725913275189 0.41923325419378704 0.12238319173848881 0.16548039566771997 0.22486990848290911 0.190596439369977 0.1163829759478512 0.18374281168594769 -0.044005867778040268 -0.33018115740178211 -0.12450858786701513 0.025434564898244697 -0.023543122514453736 -0.041235284335433373 0.15815536355193552 -0.24777166908405709 0.011830620547177735 0.19448995720556231 0.31393017175488147 0.088880293927145734 0.23861060992371552 -0.21686415468735212 -0.21175754035607636 -0.067677676606670067 0.1470627000436236 -0.04601306815677627 -0.040662993833514793 0.037935444877261179 0.012186774753564215 0.1968517159643785 -0.062059895015648563 -0.050032383511429745 -0.053531278995647802 -0.015224203483804587 -0.046554679816009539 0.049109550591951955 0.16486432037267984 -0.0029256732225631846 0.040277733886480212 -0.079723562178493065 0.16572580809720136 -0.068128397553178482 -0.14503842105817102 -0.041434790176708106 0.13448439643905757 -0.024908606007164998 -0.13042702362772859 -0.087688428624508929 -0.12132420776427508 0.2244275737683071 -0.052742870560225502 0.027529208896454452 0.23064009716784212 0.34907363734355323 -0.23063965034651523 -0.24245368879694504 0.028558704249398471 -0.10931650210511509 -0.32336186088397745 0.10844709483637047 0.21717014649275837 0.1008208397481225 -0.26115575575563982 0.065328365747292769 0.029883121944179091 0.11614145775948856 -0.081383066385311856 0.090409710649601585 0.066213336513365417 0.0093128238581436928 -0.11553640339249262 0.10285089249041286 0.0084108145647274601 0.12270526579840282 -0.29263585239700951 0.14330317169793103 -0.22160716520230894 0.1208635188337677;0.027937175378415585 0.17420611666644131 -0.24035587823177745 0.27573692802456584 0.031941707116983777 0.20398839023036616 0.07293845189410883 0.056335976308977777 -0.12659924661041988 0.073324551523114276 0.11881056710494149 0.22828050362921345 -0.065428751580777517 -0.0040711523710208778 0.070226940335142624 0.011805476954557886 0.13632052114156704 0.18017328250129575 0.023418290811215103 0.15574425139075482 -0.079935221441753204 -0.19614030206792729 0.07264011345874398 0.051509943821342816 -0.17725553005081093 0.15066759947492875 0.15771606350808054 0.057245116440218374 0.14549626098321958 0.060096527014747818 0.16653067383383074 0.24776543176355512 0.14681077854744534 0.013977359235573408 0.23839544382961547 0.17471510188689882 0.17961100530249016 -0.19293858880084694 -0.090681024897236021 -0.079890148343826115 0.10862149094264463 -0.1942372345421573 0.01550339130657892 0.16447650275499895 0.12581696168895884 -0.23817407945814473 0.13997865722845707 -0.14972397060962828 0.047296780239156233 0.15654889839570335 0.19872872136885525 0.088303537376034413 -0.13166730525826051 -0.14188856099896124 0.25762721508266234 -0.13473206971510429 -0.055145691339838605 0.036609231533638965 0.13039809681390588 0.16005339087412138 -0.17472499786044443 0.25882652028904257 0.02182682532721511 0.12280869892205747 -0.0044416882816793006 0.11299914639036944 -0.19983908992685823 0.098336693476062734 0.17433063964552176 -0.18236082575493742 0.15823543402525511 -0.082960157156172498 0.095476468745370274 -0.063537491329079571 0.24051180781211545 0.21052533063070089 0.025950605746432584 0.1207843562491026 -0.26365889930983333 -0.045625044081727725 0.22006343010555476 -0.23116526968152529 -0.24113833613309629 0.19311333203405279 0.11548656860276812 0.024226254143131933 0.15120971232290414 -0.13192843236351839 -0.051276818809760941 0.18265519332523447 -0.11703372622071237 -0.071306432723050789 -0.030920820976735215 -0.11607978609679453 -0.20258064779737792 -0.058515688905626279 -0.26362592306676319 0.014830256246284947 -0.14656757064577475 -0.019237313854189302;0.065976575192517081 0.22277336656754645 -0.18997630780554803 -0.0054923309504756714 0.076450873907153327 -0.09526223570535855 -0.18632252544947139 0.12637068413729974 -0.030540658882582828 0.19898960307344685 0.20582493378940581 -0.041886030241808474 -0.21697583246330263 0.27204446126956094 -0.088369516519074293 0.072271600778250913 -0.19995431139076608 0.088037362183419052 -0.11903287937269033 -0.073320422625742884 0.10515758982807488 -0.23910947134445415 -0.28207347964278606 -0.12351679992203549 -0.040737954264106098 0.090668145979472287 -0.030906220060968975 0.12363908792533214 0.02246708366063924 0.07412133794797128 -0.0029632486840219961 -0.13797536722460463 0.16928204866928018 -0.10056211027248663 0.34672927585482372 0.015641306001048509 0.039299691412308178 0.14862740809158542 -0.29886939129699402 0.18388017888038058 -0.054761777901936558 -0.12198280451619435 0.32191810326467135 -0.24307564179429186 0.0060358646487466555 -0.17200082626345914 0.016907457880470631 0.089396373818865504 0.13411887038460196 -0.14418418008543984 -0.067633460666268186 -0.21454339736134354 0.024188633901863533 -0.19361059678310322 -0.11744172685307548 -0.2293728656691279 0.14779925394817714 0.21540013073551423 -0.065667267319127906 -0.15639583895233433 0.20855557677626499 0.17450315961477911 0.095502466522669208 0.14796626673737323 -0.22341619291982212 -0.085337224956640687 -0.072950843656264155 -0.14780967831710629 0.057594322201707841 -0.064724360474035431 -0.10014320536040898 -0.070283100451253869 -0.16966618641513181 -0.044697518932242053 0.20779867965022389 -0.15801867430588329 0.058128056356909562 -0.19914355619175542 -0.17277166595060614 0.001805135953718886 -0.16778469539276938 0.031987088300273914 -0.11523588306787846 0.25340981610078922 0.20701306680043402 0.014123076763210235 -0.15166144049952604 -0.27170366066627466 -0.21102593682320872 0.28200850415730855 -0.1735859722424461 -0.0072019566298002369 0.059583709323536224 0.34665274580159899 0.031489639708753257 -0.11253639808119908 0.18236966797436066 0.11463603341674672 0.028322369037862713 -0.039474195348661728;0.18465812666126485 0.20846383805747282 0.043936565265395106 -0.093082588008875936 0.22918778443065732 -0.27079040275361249 0.060150208498310827 0.13755039279656064 -0.0084080175734951926 -0.33330847647244649 -0.0086347247884695048 -0.12261197698603207 -0.083144616387589992 0.091080407713125144 -0.11737995230350332 0.060990016250050787 0.16062934455211952 0.21720536307510324 -0.27174506942721283 -0.0033101643900883713 -0.032899017191357093 -0.16427906766735581 0.19273182245972978 -0.085670950724014802 0.2211626497412042 0.02391572084745984 0.078441053676339967 -0.31096162764121216 0.18180200677557251 0.016669110470160287 0.10218662834611027 0.27096343591772493 0.093985542229911984 0.15616462859248564 0.024696580935927026 -0.020822217123081792 0.088442211583714528 -0.12819021436363914 0.013419253517401513 0.068786902199131722 0.065146668912583069 0.13664440204702305 0.040220118497844404 0.14787878481648825 -0.29191655891401974 0.26502943019743985 0.11155655518141688 -0.15618145194640914 0.137633257717446 0.32802519493857069 0.13840316773815248 0.058785384059741118 -0.26881245027234157 -0.012136925369242223 0.27512848891735914 -0.053895418115077753 -0.19354063234364141 0.12050996580414192 0.1690811014132356 -0.16804380311058986 0.10096387742973906 -0.04193816064022534 -0.30697397807962856 -0.031691651738532209 -0.040888359147667794 0.20957094457648995 -0.24533997521105083 -0.09591342545782687 0.039059038729485324 0.20528489332149064 0.060352396593116538 0.13209788914380957 -0.1288623923152217 -0.047288915158565606 0.10176098758687041 -0.004317125968087223 0.26052597582111653 0.058561546067798925 0.17747773503915776 0.24552223461142123 0.078436084336735754 -0.077846962093587449 0.020483649085508586 0.111517338178573 0.26019126966958078 0.18977508453785841 0.11279128911073485 -0.2105450504469876 -0.1638411850847962 -0.21167613995835219 -0.15054981969043191 0.1051493259885974 -0.084674030636739686 -0.10020345454928765 0.18594120214694421 0.015522479844539364 -0.10551019144157156 -0.10141401112418622 0.0093914496474992067 0.20446797121767785;0.021047584919123299 -0.23764964955260409 0.28765030423402382 -0.26987556354992143 -0.14892052197774402 0.26943730406525229 -0.1047160214652418 0.16460745896578077 0.052200833296859053 -0.36988531321187923 0.04656563222689819 0.078301853657599979 0.19175984452348446 0.03122609358776773 0.15684438288589944 -0.032632145107080138 -0.072067899571757479 -0.11352489930084037 0.28251934099784382 -0.24167199807087011 -0.15612272543659017 -0.22139437074981183 -0.19765755003618449 -0.17787262762202222 -0.020612022895456404 0.24808161730548842 -0.20946008654963458 -0.062788665513404257 0.24335473913754646 0.027468865522187615 0.027814017058524564 0.073299268268340156 -0.11935198722422322 0.19712189853648926 0.012143456524552738 -0.013558118737256236 -0.20078534306161172 -0.30091905363458099 0.0098652321451388417 -0.049860921989552137 -0.22390383115581478 0.040787118220130474 -0.30540796852591157 0.26937864986338922 0.33668189019791211 0.13498026744319169 0.14741749685180594 0.16412167711516792 0.29177182764287746 -0.129009621927972 -0.11971457957778027 -0.061353825005124554 -0.056549365827481921 0.12705971353745649 0.072100092414934647 -0.07535074541449148 -0.025528828723480279 0.10025742370780091 0.13425993730038913 0.16499220592611899 0.17381590003649652 -0.098093069733208887 0.14403567884760346 0.10004463103193613 0.070128731583730314 0.0054549211485403377 -0.1593773569350008 -0.3112893430501118 -0.25880944385960863 -0.0034279212163313556 -0.040796884396788309 -0.14466643817720237 0.27279601026090344 0.085678369426979331 0.051836515917441678 -0.029602572158169176 -0.17684673363909517 0.24919307236625796 0.053754201057801106 0.056488710660277087 0.052747858111519677 -0.24152509624781385 -0.12341548148873141 0.14630833357746523 -0.082831445247963417 0.28437871904134676 0.1843922090702563 -0.35017555849787829 -0.024333758533584066 0.20279056218847832 -0.11643980338456496 -0.33586139088970746 -0.053228168275964417 -0.10549400659969289 -0.21459746028799254 0.26453202958246519 -0.31544414407826254 -0.074054941431455953 -0.10323262681877682 0.16258825293120205;-0.19104355368946918 0.31523471421016963 0.12472013194123255 0.23571505318717892 0.094279426725764476 -0.21179842863171663 -0.25912593290943059 -0.3147960111591967 -0.051130322283961215 -0.17780051507602626 0.22277567509610191 -0.065381163587814775 -0.063427216165208328 -0.036250306284969627 -0.090768763910676911 -0.2865348334584113 -0.0068875190552722294 0.26840797003274708 0.024294769914841814 -0.12049295001814672 -0.13691236464176459 0.10478321933210559 -0.15888888459593684 0.01544716634929565 -0.18663913935356213 -0.062411611983530686 0.24379522664501393 0.13935422091399208 -0.22785854626899776 -0.10342225368909018 0.16777119660136866 -0.17742218234030702 -0.42686092228421946 0.11554949076453305 -0.055011959794191559 0.20533670293283057 -0.020901715292520155 0.15860301002771379 -0.015620888758054254 -0.0044992014955957975 -0.15948360044663326 0.30703777059855275 0.078453896457395603 -0.13278708565914904 0.053184374904932441 -0.13320409885388143 -0.1677700160058071 -0.0780646256469891 0.044923402716413395 0.21419940002878404 0.16803377545801115 -0.34867806818952235 -0.035120113613447287 0.11740161376244015 -0.17422014084190959 -0.047368210922004661 0.32307599777238161 -0.032318251777104054 -0.28978781313442598 -0.069014330472613794 0.14608077569421479 -0.14835561525657293 -0.082590673553478849 0.2865193301381378 0.15407109288505322 0.26899997019485505 0.39940720381910461 -0.20250956181440921 0.1591503421452255 -0.088923645103182333 0.072377568198724068 0.17976882216354015 0.039518956888705999 0.27773838690049046 0.075568523809448229 0.10585300668187116 0.085073399229290719 -0.16595081127958811 -0.20424201111665191 0.25885755925727783 0.10981800014930489 -0.073223765067368204 0.28393053498841531 -0.15630272380867227 0.13025037633198691 0.033647144008035111 -0.074190682094108076 -0.078824013254930714 0.29579438067333202 0.14296705248542407 0.12349150752490136 -0.051479120851753803 0.031367448115680194 0.099507023070978792 -0.03894043487377407 0.013447985244997417 -0.38931860049816641 -0.08149820417125607 0.12717332481487245 -0.053838773112371653;-0.14787911863188755 -0.13112331472736316 0.054790267430038071 -0.01484284889009522 -0.074135845241859288 -0.18764648205259335 0.21576823575789728 -0.39517004419307145 -0.014270403812981329 -0.21939844941898318 0.1931349531834029 0.070170532877861236 -0.00033970601130260301 0.0016029167580683583 0.0046368557957509361 -0.25802585244828558 0.30001962762923123 0.038867972250194421 -0.036487032547602639 -0.0024237575671753864 -0.13908373688337622 0.21580773301550302 0.19408979243072097 0.074669662891865482 0.010312324799991508 0.0058713909005213422 0.043686979859496732 0.29358343385301966 -0.010762589613190194 -0.40304679994206127 -0.0059033910704252126 -0.032213506484975916 0.13131849325252049 -0.27611885373677592 -0.13435232920379722 0.024280446173196919 -0.18859229883393888 -0.14806010490256946 0.052630087305801342 -0.30320143089472584 -0.29244127638917705 0.38221839843764494 -0.045520253363256886 -0.10667254085321723 0.057163403325703216 0.22864663013018433 -0.090540494157263229 -0.030260290182641526 0.22316962068234558 0.29958875774578969 -0.00076503867107894849 -0.036638322684178423 -0.36581284897204686 -0.0717447157385529 -0.1576888208609353 -0.31167068346977589 0.046239108853336867 -7.0169577913136967e-06 -0.094200509415441086 -0.30259907331782798 -0.018697048083609391 0.2754151256605214 0.16017423019840232 0.14033789776628797 -0.29902639515333007 0.19648230212639395 0.11546551660323777 0.15103510423080027 0.035827492356422588 -0.17111141086522788 0.25805752317329861 -0.099871770262301152 -0.22632789667290301 -0.027373656407395797 0.064034167625006036 0.064195026596522431 -0.19512103734845382 -0.012858160621445694 -0.18011037280105971 0.23439853057829529 0.069498289993419865 0.18736486339261693 0.22651583025599001 -0.12776879786742582 0.093269163301992641 0.23208728636700662 0.086041895682820613 0.2333025506139994 0.080130030281288719 -0.1168121229395903 0.11542582287845708 -0.15539719486848189 0.3047010024173441 0.04113086864334875 -0.013970481825654165 0.078949595415215887 0.025310238941441122 -0.014429346434197405 -0.082227035323128889 -0.099516697712877578;-0.088934584268081457 -0.00036464456931573574 -0.10625959187348939 0.14999962847627363 -0.094458608628491772 0.19793662761875813 -0.14413606754854313 0.0082394967417438927 0.075385540939718609 -0.022352871424235064 -0.23795004867648539 -0.1168719545133009 0.096071363955219008 -0.17683291288203465 0.21943074124564749 0.021673921385141248 -0.029617754082024994 0.050156361196971734 0.088161165863195237 0.052509272763579432 0.2576688613815456 0.21864148351129645 0.040464742293447743 -0.072622445035308458 -0.1392803706788327 -0.19332235451262492 -0.10711583970765043 -0.28414112833435262 -0.24810360427720735 -0.10805704590855277 0.17091800030096954 -0.15815472188328128 0.020634898497905143 -0.19824835720045308 0.10141977840411033 0.083197845430291961 0.1892238438096546 0.18868422065201598 -0.13568101200426957 -0.21015189537644907 0.13525346788793341 -0.19897278770405236 -0.050710056598186837 -0.14911229950998997 0.09388994387151936 0.045720831871521754 -0.028779927018954893 0.041327356267708087 0.0032092852109434399 -0.0377995047265266 -0.27076303642375377 -0.003804658613323983 -0.19284319688872106 -0.19556194229925281 0.10326774550732792 -0.094262089063706048 0.23368391584095607 -0.083037328029379479 0.10843633636899001 -0.00060278385145119272 0.022254410077603513 0.30599402255432701 -0.27155219418067139 0.27423204601427736 -0.15699319828643343 0.26251113056821673 0.2775433366063047 0.24103472253729721 -0.13880003513116537 0.0097215784248550624 -0.14087539373081934 -0.13128200847548355 0.16529370885321498 0.0098258196528087857 -0.0015368065360840779 -0.18767806535867257 0.16692869605127211 -0.22088552027411387 -0.15631942096250226 -0.17053695372755587 0.059552710101244875 -0.21829711735627699 0.037378289548444001 -0.032396781991140051 0.20522778959541282 0.030891542049183172 -0.019476828168031719 -0.039345055582152212 0.059688102028302541 0.021254786121694246 -0.048827299614791611 -0.17617550147978564 0.058104037048548517 -0.020458652019849498 -0.12917264809056986 0.20960587670669523 0.268405576656147 0.13522307365478917 -0.14416110062351831 -0.012867383718832972;0.17924866467195213 -0.17695216535915367 -0.055742286299801422 0.22157287780406928 0.16056941183569109 0.18264255739734109 -0.22542187374603137 -0.073849450864688318 0.24918529858793795 -0.2028434260989328 -0.13117843912395888 0.13681615679836623 0.073517582021495678 -0.20540022648943609 0.059477232872291175 -0.05863243153754414 -0.056638314927957206 -0.10737141488493379 -0.022956259969562538 0.11378362996440285 0.019679414296815426 0.075602106003555478 0.048282679040483722 -0.0020495511672759658 -0.061871830364418116 0.15442767254489598 -0.22451210074343295 -0.03650003393502977 0.32734202466039014 0.050229264632202383 0.1287324249590216 -0.057939898401669042 0.0041729081493496805 -0.082515678083594363 -0.18797790921135654 -0.20313669533914294 0.0031891885117048303 0.15491611500537897 0.25335707751820602 0.1323492489849637 -0.06891600643172828 -0.23949368044295474 -0.20246133778511699 0.049518753247334742 0.002690804953194295 0.090164828194923066 -0.22067253907922579 -0.25704322380316957 0.12898144797048389 0.13868190825391943 -0.021131711121900095 -0.27131213004457405 0.18889493919938036 0.11238049850826662 -0.14597026293118592 0.14369908996629974 -0.062591387609008356 -0.14529164787326762 -0.042902723823401219 0.10096222497694152 0.26230022635709754 -0.22650051661245194 -0.24697623136183075 0.21528482359277248 0.24301236130738876 0.076855337077470359 -0.016352913784083451 -0.041834507200871562 -0.13148398958068694 0.015994812379439661 0.14365378044521604 -0.32529526816987481 -0.27033877711967086 -0.1937590939853894 0.23147884419722914 0.073371016720782958 0.088694781446419541 -0.19352861775408683 0.19460673985487234 0.11212201926435382 -0.08674963379616446 0.24706083532946277 0.036922816099275606 -0.17621224152176423 0.16514455495550479 0.11655208444898875 -0.17567977143543947 -0.10115912987785317 -0.066657241068905637 0.087623649093899733 -0.076533309014785306 -0.042586744615435677 -0.025053282622784591 0.070348302606614427 0.10945370097134062 -0.036357510278409041 -0.08483537957911573 -0.16762381825631126 0.0081262642050114273 -0.20746908467611577;-0.22162805643412226 -0.38442425136878555 0.092546843512353025 -0.1473211601241784 0.034560882003477206 0.099769250932166056 -0.14187342198605873 -0.26208295282347421 0.014671611754376281 0.31305847385788688 0.21617784611867563 0.15879793531916286 0.14847548149274092 -0.0007141795163500273 0.056443939314997076 -0.0002272578984520831 -0.17024779975360058 0.085988330736140844 -0.014112221704768169 -0.118602259523619 0.1925916589771175 0.072968537045814991 -0.18293184990690897 0.16288725550209024 -0.10461839185068314 -0.033830082453008219 -0.08881402225576697 -0.33927216278043604 0.10290900588365855 0.11974052227622234 -0.096895233162598335 -0.24095636610830914 0.065944133435838187 0.17492259608724825 0.13425640669550465 0.024265638929093399 -0.054556853570791645 -0.017596811816882149 -0.15146162850482403 -0.14672667983076085 -0.16423661868774495 0.23440739712456254 0.21575025592469413 -0.1123522173275317 0.13223078398730362 -0.081303471421099477 -0.11533589692259728 -0.13906099940529509 0.16629233185170852 -0.18177099406614272 -0.072470727978138458 -0.29169031264068546 0.16405985184293514 -0.045110845010780207 -0.26197142067059681 -0.1049561592753076 0.3534860572623601 -0.11126819041596156 -0.18927206746507177 0.18232209715640041 -0.20295049658626951 0.039629827146176487 -0.1962955840150723 -0.11595381296243461 -0.0094492609125410229 0.052798638297948702 -0.20474253834953687 -0.17286352590209961 0.095796363199155576 0.10665861806507125 -0.18830559818291284 -0.027098712125830857 -0.10663070077750407 -0.026664350266910955 -0.36873751822638445 0.17662593432671564 -0.11475715272869695 0.11121954505213812 -0.042175528900581891 0.081263055807842322 0.11838026419827466 0.25273500697894857 0.011684872739560594 0.13152990435172046 -0.28686060781354766 -0.039182584519899914 0.082053632782927571 -0.047578735705001936 0.25518411846814915 -0.10247340269453621 -0.022724175229855904 -0.17237275748317352 -0.039618006319778423 -0.12755674141587517 0.011271220407362156 -0.24210100777741814 -0.33739647519005378 -0.16582086248883934 0.27868006675043683 -0.022401566492700122;-0.20132509523174677 -0.16792705661213519 0.25339681927204544 -0.039122109919980393 0.13345557396358798 0.18817188210466823 -0.12948260778388748 -0.036752028547906712 0.21930584257537561 -0.027322461527431199 -0.087837433110161678 0.10890779718510349 -0.2331813154159707 0.0060403052867348383 0.11591007888078808 -0.081651254532619164 -0.14269485615789032 0.29526423690593606 0.1494948740088487 0.086937673862123879 -0.12069725978091993 -0.029895299672568699 -0.16230498163582807 0.33480391787081998 0.1172940690106847 0.06770162054446191 -0.23652794878510125 0.25917767462780483 -0.1068105192813347 0.084598072734740459 0.060641634670829087 0.27160135363905258 -0.11310205773031963 0.29092433256741546 -0.1174423409336068 -0.07623609263900695 -0.10962257487201529 0.15302878760714472 0.028641423815612337 0.23375066579630363 0.26950780069196001 -0.09381235946278757 0.13429325697270278 0.33537834150298085 -0.10141139617598159 0.094781467639882364 -0.17376201245052539 0.11427836183530736 -0.14050275483058008 -0.16086855829868318 0.11414470638525907 0.21820714757231335 0.061198533935012601 0.00036806611313475266 -0.056792432378432033 -0.36593276649580747 -0.046550947732709555 -0.29871921022458875 -0.11033380626370022 -0.015663638025686381 -0.19134970910201676 -0.38061646919641418 -0.013579315704530956 -0.13237459260722398 -0.023107202850864227 -0.11370486121401154 0.070946207728972824 -0.14623660621001536 0.27126151554004302 -0.0079656499161941414 -0.13176060329404637 -0.096179568478214822 -0.083299406595770745 -0.11148409539329707 0.18062468283302063 -0.15323251651969119 -0.20576380846954317 0.23935706389596847 0.16821420093741837 -0.2277924221851253 -0.19040248539071361 -0.17429321706959566 0.057256039982097086 0.093763510598782962 -0.16287044075493803 -0.077519510229850763 0.23504048770758687 -0.14546418041863554 -0.24760714401151454 0.10009403616245606 0.21795792605361072 0.16880542760369827 -0.020719852553593557 -0.094190685994625684 -0.19265879129897928 0.15002414510372403 0.13097500035380791 0.016596175999284403 0.046595291759773054 0.21501496682569859;-0.20139809406285078 0.0014890621654275395 0.30641473248680379 -0.060394508151676782 -0.076235587330541185 0.12436916330514056 -0.072594016932435043 0.17717595467141714 -0.063935650850632977 0.14271244322986013 -0.23005400824795047 -0.19521926670486164 -0.0097638344269745572 -0.25680724137946609 -0.02411068128091029 -0.17647456666534928 -0.1817699767349277 -0.054298183769275574 0.043711019263956034 -0.10861955957845856 0.19593438395735316 -0.082339113977130632 0.26045333745466093 -0.075953188584625422 0.051678933437241829 -0.082214311315926464 -0.28012639125851607 0.11199905803977528 -0.10819333966236044 -0.026476292945316515 0.080278378381137008 0.059514385186529128 0.45092522039880945 0.054868291708172007 -0.30896427260285864 -0.17102743674927412 -0.30867718478698264 -0.22699286351122139 0.11528169383675033 -0.049895511844658583 -0.16493782360481762 0.18331164930954477 -0.28010092620865878 0.023568205468672047 -0.23441396393135014 -0.024455898432660533 0.066772244453776775 0.28135094729834292 -0.033597834936939346 0.41665312901432994 0.1519720857298397 -0.12068346678024246 -0.21752520770496367 0.19790164901800877 -0.17536537327406709 0.082003928622113198 -0.062703376411905098 0.03825630214988008 -0.14478791805398647 -0.23362848363192712 0.1655931066664911 -0.31481844040368812 0.11440821696667916 0.13883633700245279 0.092050130769820757 -0.203183565853263 0.12451054469179647 -0.22743971104436489 0.3030630761994666 -0.23142940825844582 0.20676786775495079 0.057945569132394327 -0.047932194822590327 0.2748443721725316 -0.074655512726179735 0.41585383960417782 -0.14538809152317014 -0.10273293426981611 -0.18081532217946125 0.070357290324355823 0.12070869065921537 -0.1085780131599075 -0.094619425602768481 -0.12501495871391499 -0.26022709265438204 -0.1208236749474448 -0.17762485378911766 0.13463895455443015 -0.41085793425873413 0.20904754488530844 0.14530006465324308 0.073468654311454967 -0.030868162134946017 0.09845790858915332 -0.21483194472422448 0.26090412687207304 0.076718127704174854 0.078791401571294092 -0.17003208764607927 -0.030285521306788004;0.037206165796946584 -0.0073168226956190673 0.13188359661147658 -0.00079510573074360663 -0.30611991388395582 -0.042512975498024866 0.22077213220441103 0.28055084234526179 -0.054047812379030724 0.04077359678363876 -0.025458493965983087 -0.28680266426602374 0.073277771328575353 -0.051821394105766819 0.23348932222396321 -0.061878600655317341 -0.23585792227724695 0.061184329810192797 0.04767798618175894 0.037181391992605638 0.20268319473443192 -0.2131318863991192 0.15819309865008446 0.15627648433218991 0.19075434742096056 0.029517335137234365 -0.24138237525218531 -0.35574742974054407 -0.072772690312384411 -0.28245360981772127 -0.4746214976890456 0.22140471652678895 -0.10963012131476724 0.33018138712767892 -0.033918258596388876 -0.057862306399739015 0.039460106844150952 -0.20636100743744226 0.011338353543787429 -0.22451645051370769 0.040542488842083266 0.08323121769408412 0.11969850692738461 -0.010326218808562652 -0.17850985026521055 -0.28238297141828422 0.043022856785552843 0.18483225562165112 -0.20600934859618744 -0.088532410896932728 -0.17920367453268998 -0.027395351402984106 -0.36337588254344 -0.2781235768466917 -0.11601270118681137 0.20015045150319077 -0.069795169863541687 0.17898535683792682 -0.23160968381449679 0.1929734499271461 -0.10878159555666866 -0.27150709389016414 0.096517790900494477 0.3749900230398977 -0.25019043534507601 -0.019057590663347303 0.14382473297247914 -0.23483320080032596 0.0060519606216377208 0.21185584932555229 -0.097184284114357727 -0.026188139837123665 -0.12893679576948447 0.085855320727938 -0.15819705120015082 -0.17298875333946284 -0.071295066822948228 0.091523735831413183 -0.012737724413179606 -0.11395676495882164 -0.36020427584206588 0.15985479507913794 -0.041687276154922147 0.12477253528904619 0.11335350507207892 -0.19949920553205713 -0.18089114033563577 -0.074995990367992635 -0.032106868937849725 0.19926122698442417 -0.12474875452278751 -0.0062344355737741835 -0.063498384310733416 0.11219806723406808 0.016330691834918535 -0.087420643937400178 -0.43209513905779462 -0.16236198872212634 0.010366451563254539 0.10574854045833006;0.23512659098668903 0.052474204333432979 -0.042745115110677745 0.10556443340948335 0.21053458314327933 -0.18362113154072671 -0.25190657329775007 0.11084373070422529 0.069949750149222084 -0.036661953983637363 -0.10862017194796077 -0.24544149847139263 0.18975147236258097 -0.26722680312371361 -0.13412016042118419 0.029909529398018771 -0.0053910698818810804 0.28866306142241899 0.066435861414441869 0.016883429290538335 -0.15789186823679544 -0.13342090505732884 0.19857604930299427 0.16722647690168527 0.12900535603855681 -0.23045051213322942 -0.21312732720698468 0.0017763660273026061 -0.0024362676070488389 0.18932299787902435 -0.062572187021112474 -0.012478106361845971 0.1933066018438056 -0.1684683621504543 -0.39929017419926449 -0.077240372788901321 0.22611433982994028 -0.13771434780704497 -0.13176772940375892 0.32127491357676508 0.28123893965408592 -0.24666113331026479 -0.18752773653960947 -0.051648003028805317 -0.021927972484820542 0.23435286754252999 -0.027674231912881774 -0.12224153432049482 0.12381279133214247 -0.057268386385517935 -0.10875858098011172 -0.27056635805467222 -0.12724892991642556 -0.089734298154399886 0.076274123950293551 0.11552783892892911 0.056720821754059486 0.046085337063721712 0.2051016006678798 0.28300969962370187 0.13620838070325098 -0.032157144523729586 0.19628928908384402 -0.2856595810771706 -0.033156011031706498 0.094377361983248656 -0.17342276449069588 0.11818299200014695 -0.093793870897245252 -0.31703659533394102 0.15945220911401173 0.0066927399836117065 0.071831902900048025 0.21656263691055308 0.11520447639387892 -0.092501032802148303 -0.13379537725341831 -0.21771817555283229 -0.20670227216122852 -0.036006334452590473 -0.081995186735662084 -0.22303500075007823 -0.028642134321765045 0.32583838981697261 0.19951428205664792 -0.098496278838802284 -0.19893122171589178 -0.18256660567860319 0.23939636925293875 0.27976790270313079 0.13776263347733833 -0.30602444277685265 0.23478359550050157 -0.018233844357634432 -0.17131153991402456 -0.0098541951690526777 -0.1370710525885222 -0.19409865876427018 0.12318885382151099 0.19753781620051677;0.10322554451774894 0.10292494564274782 -0.036433225420821828 -0.21721691726763759 0.34824804837471673 0.0066668980855994547 -0.061091700427919844 -0.28056914197277677 0.075012628649804611 -0.055073283085224987 0.071142323270351304 0.22462575905894022 0.23987678143620886 -0.15422602915976066 0.16433517165550254 -0.10972250080307128 0.075125055625368337 0.055714229925999545 0.18575956324161993 -0.097189704570576296 0.13424785073739634 -0.19108564556256205 0.098923090335334099 0.22542793976101699 0.14073331774888681 -0.098349791216774368 0.1682325671510719 0.29948560634122079 0.089120992724143686 0.18819405718975646 -0.11050637835411802 -0.17758026777007119 0.0045627369493162441 0.023885165821556587 0.24684029329921822 0.10619401965398816 -0.18799440020255107 0.031465817573598523 0.071779425949127409 -0.033185795583562029 -0.11241519260401035 -0.19477889109185309 -0.064756740026953447 0.13965566291403472 0.23580913911633192 0.21282658822079786 -0.21503126175689885 -0.21084925600126794 0.094063667982373297 0.29175405145376043 -0.23313274241387244 0.110675763160029 0.09065135828672885 0.029953895376297071 0.1185979664740711 -0.060649264948886013 -0.43260998391390831 0.022603133590429002 0.021346585560939803 -0.046537366752304958 0.11239851533855005 0.091667856774866802 -0.0058550697208089595 0.05002331488645359 0.42594861575431886 0.23301547305416301 -0.47219131474418669 -0.099910933577176411 -0.12878840909035152 -0.080650985286372545 -0.056762334370023246 0.01395312833503248 0.18741545587424577 -0.032744104711081704 0.050584494047513619 0.2619625616372212 0.0098465909413559764 -0.13401150105171195 0.19886019647741882 -0.2930090531603729 -0.2265298096908302 0.21854922149513589 0.083392941918247213 0.030937345516969472 0.023480923478718031 -0.30488327707100166 0.15409154605807249 0.26038080949164133 0.23397366843557046 -0.15031714757205372 0.044158365269177151 0.045322552424692013 -0.11189783140460403 -0.067512553587805044 -0.032645678080466672 -0.26092126503004476 0.35239282298872077 -0.072441832500658054 -0.06903068952225011 -0.046161738455270579;0.080182133510170325 -0.50632816235272815 -0.046678330662598147 0.025039332691923124 0.16343111056400106 -0.024449423561602152 -0.15090528487401506 -0.31725108725971496 0.053566542236880892 -0.027114544672344976 -0.068798382896310628 -0.061425154755722598 -0.0070397070573896721 0.095189342306609886 0.04159334753634257 -0.13369830396973395 0.071030319449344612 -0.31351737474981151 0.11095436384365055 0.11866384135325976 0.048108594768370948 -0.28092389879501406 0.15398172553944242 -0.10374119058748642 -0.037760784790883836 -0.076072336432866858 -0.039949179022079569 0.034884884349866571 -0.014620047947387298 0.48110098731768247 -0.11672356647628727 -0.2838107999554717 -0.18466310929686747 -0.070424933275769902 0.083559879943590112 -0.18549466826600833 0.50575713439490388 0.27505844795681728 -0.052381103462661935 0.058594522475001208 -0.21944592452306402 -0.34644662278120969 0.0065042925622122681 0.20579400324716765 0.2942463700680773 0.071100866099399668 0.15451472511435821 0.1115869273149509 -0.13880348452728952 -0.22292658530413742 0.19636919945615564 -0.17800212600434642 -0.24685076645777432 -0.19194747122541198 -0.10845853039506832 0.15945108615635037 -0.23152217025139163 -0.25587629065586881 -0.22538768695015679 -0.084159931358067763 -0.1045240206890307 0.39999871495213934 -0.074287249780902939 0.071639061008627297 -0.3749823713345159 0.092502911380501776 0.051083990116509367 0.10093315615859767 -0.16152895854351165 0.15418079034844981 -0.1808822004160455 -0.28050308534773311 -0.031450502108610535 0.2193694283647554 -0.45768124508961916 -0.086456194398405573 -0.18368050689906834 0.13725979456265128 -0.10207198408287237 0.043230746843191802 0.21861630208773658 -0.14474770752593311 -0.16178695226778203 -0.12849112494295417 -0.039739641177032312 0.24611438964160082 -0.079007152131579508 0.28138552079916429 0.22495149429308639 -0.16907977898370152 -0.23356399306043171 0.10092101311963042 0.19670172492801083 0.057641741060313334 0.12095394345202599 0.0064698726427169593 0.07241043726921681 -0.10807019297058428 -0.07066139165068526 -0.085673389532244376;-0.083047927013132614 -0.41785908471202871 -0.13439520199555244 -0.052369402346950658 0.33045953022862096 -0.040329989240952158 -0.19856299467720526 -0.091353041355960202 0.090972016345173518 -0.17489643252686235 -0.012666448809648363 -0.20290377901563278 -0.022836426973947225 -0.28086713093923965 0.11528101388838462 -0.043124716235774511 0.039913976275722754 -0.1603532320926585 -0.050919921029670551 0.16962317464457494 0.0044406985535165866 0.28947139407973088 0.26147987205512407 0.13435103519224384 0.24276922927836073 0.0022496031969016575 -0.073257066818955816 -0.12868803908502074 0.36270111451887593 0.22223535041596143 0.01715692730788225 -0.030832004749319894 -0.079756522917731193 -0.18748707720970087 -0.16722768215209871 0.051811791109759808 -0.016023287116447252 0.029423540691365924 0.2581552176355264 -0.10466903813014602 -0.098871411560681369 0.13967413705196652 -0.35883897188853553 -0.19731023328944372 0.13317949121145356 -0.16985699053154568 0.20709619174047303 0.24559531825173889 -0.01078971907179959 -0.075143285687633718 0.079367113100377126 -0.24685874851004289 -0.041352126283628964 -0.33311330184357091 -0.27204405410115623 0.23754009384902525 0.12663592633300122 0.064850731459869401 0.081409230889689904 0.12845525558882784 0.065376764883101332 -0.051761555073800813 0.25785478359881187 0.015998488065990989 -0.13508068711328303 -0.1505674186482277 -0.074510572573853587 -0.2062992553834509 0.10037806864216853 0.067356779346646925 0.023288460449322122 -0.4712041101860755 -0.051874173767408716 -0.04800091438506815 -0.13048345018200255 0.021579823046278371 -0.24465577224737239 0.0058884365491942104 -0.13574310544308182 -0.046617832639729358 0.15045315746201526 0.25561997197851671 -0.17010466573301311 -0.25273140441868475 -0.12052153749286376 0.2614193934567256 0.022169357666879958 -0.001835754519863027 -0.029979125542264708 -0.10455723148479795 0.044302629414445557 -0.10004622377578223 -0.1970357326991887 -0.024397617961766874 0.14575258067123026 -0.1207208462949608 0.065277349319330644 -0.068912748212418537 -0.092975202982008426 0.11120817506927939;0.20514141670781313 0.19920229237233861 0.099703467525128681 -0.093852048215697814 -0.2025182384694654 0.11957051690184239 0.18383385551496287 -0.061315270072495695 -0.17987127946920453 -0.12086598093310838 -0.0087470189124700826 0.18528171120501727 0.22004423334100148 -0.1401760726110087 0.036595439527900633 0.04740981495036943 -0.22062509284579451 -0.1358769680010867 -0.16301278070029343 0.034551267441857395 -0.14334641874405085 0.090452092681690521 -0.14488805348170428 -0.043655273025950903 -0.24042117882492181 -0.041498362924189916 -0.2284144229979467 0.17881356829951389 -0.31531938163927625 -0.13145062149304212 0.14808856782406171 0.20770409591697758 0.011319388601682398 -0.19284982954651975 -0.044285703704102265 0.13139492988740495 0.26305079160947498 -0.21920342366168089 -0.067357003757405526 -0.16385329657172007 0.05681259497009164 -0.11556057586475824 -0.15381982998494875 -0.31658785163006475 0.040354100722164159 0.080878647309927179 -0.18309863845583918 -0.019607082994102291 -0.08123237906907689 0.17069087045019418 -0.019191879330852472 -0.15383035743587389 -0.10431011953192973 0.23364368372515254 -0.080810157523148976 -0.10659873465563521 0.1377283025343902 0.072019837488946623 -0.19314382541747713 -0.19284833627790143 -0.042819013909272841 -0.14806122624853868 -0.15264502674514457 0.11022394965766114 0.021428010481865233 0.017489212736044261 0.20786914311163679 0.075339256472978997 -0.044136730145843947 -0.24095604287367689 0.10258523409817054 0.20988114512879402 0.11833876940794585 0.12434104684194855 0.011374913025280473 -0.1728484063464428 0.14260536800488752 0.037572528695341258 0.17183995411862243 0.22413292146368202 -0.21223468413798921 0.021292965587513452 0.17830810090341154 0.074379323419248272 0.13183031930609415 -0.18608721011537338 -0.16256443488954617 0.16147229733972362 -0.16877851999080737 -0.21018730042075301 0.023796067769881721 -0.17156783650074753 -0.15380010907986974 0.082459081261544165 0.027358837868787077 -0.091609960741211569 -0.21889981377082093 -0.1752340931238584 -0.15628804428408366 0.17144291673555867;0.17096001542562977 0.18254139979636727 0.23152785243552532 0.18594891466030422 -0.053283522657423331 -0.12022811375852184 0.1677099156669771 -0.30547361771444376 0.24540985188312453 -0.18560057662329271 0.097679273105512082 -0.27083935630759171 -0.024727955519210205 0.12403462063547117 -0.16525759511128107 -0.11723012939814692 0.048708418370263393 -0.064267922239234415 -0.25369484170457657 0.058545750895179612 0.074272736589130708 -0.059291832694465398 0.086176898809420713 0.10730915046347121 -0.070182670917409415 0.15656682576915243 0.014643675789944677 0.09436312953011762 0.33178813524107587 -0.18250189543193865 0.1898260420487336 -0.25737435919934576 0.24175896111911321 0.022755866561304555 0.19785552407361756 0.1560963455953992 0.24944297522816186 0.06756178600263138 0.063099896620905191 0.10962305797059912 -0.20824906903973442 0.095608560707472617 -0.16505094529564174 -0.22418173005395636 0.047556784963116147 -0.27914281881213798 0.064743175094667954 0.10478390171786262 0.048841417290015746 -0.088067861224187555 0.059864772673388675 -0.18510903305865237 -0.11316139883334486 0.21002156449328738 -0.14437716634602707 -0.2026849429031575 0.13935828014480645 -0.10093747988129517 0.18758078381352392 0.02011057044265744 -0.18115283942311725 0.32767280993536751 0.1377809321252266 -0.17726626024872777 0.2694555679462019 0.12814089053576866 0.038843499306196155 0.12756556427189636 -0.34080824588546654 0.13062141367295674 0.045924649842848844 -0.20904701383687474 -0.062728564972722681 0.084697893405509719 0.018916779704060648 -0.23723811965265712 0.13239070650287579 0.17650680210554251 -0.11655744956261764 -0.093321676778543652 -0.069311041098127149 0.14877253205235441 -0.22701494480923531 0.050685491292921131 0.17956758435249798 -0.17388242983623731 -0.023575043666620107 0.1526914322758828 0.13135315325987076 0.014432175506817605 0.16575118632189842 0.03406793273147217 0.29496725697248194 -0.21700936834855936 0.14508628731665998 -0.21693325585445447 0.11482931685699847 0.11265047119645323 -0.22668192858923628 -0.011294610217008158;0.15278974338927503 -0.14926622842481382 0.04308888627502333 -0.074604872654395887 -0.2396284155034463 0.040843790758230504 0.044452030129411915 0.21180346706863082 0.063591693550155065 0.148255716000879 0.20762774270642653 0.29713671052731555 -0.0014624420818936119 0.006145115404550339 0.17999904392167301 0.28725253930947409 -0.087952072760661262 -0.17465195550633922 0.15161478999525452 0.18091956324949685 0.18143722492083411 -0.16486263265625381 -0.18644553201467651 -0.13662703388191549 0.086012852444729435 0.015854341493829315 0.052123484596560299 0.2034484610554628 0.25636546155968049 -0.0042384704846879437 0.059192386384879926 -0.18259244508724265 -0.033725459454653675 0.06741279599475293 0.13304869552794948 -0.13771451289997619 -0.28991594553451833 0.15869950990937259 0.033093876157708105 0.27521481383745938 0.027695569049195568 -0.066624589357506189 0.10157953540098129 0.19844968178405242 0.016994310575850699 -0.025403745718943417 -0.12375323817354848 -0.017947706051584737 0.1622428386419755 -0.13408528393093358 -0.046177429790108547 0.20047076596547689 -0.092744202676344714 -0.26808133213754359 -0.21521534583411234 0.15500170903178567 -0.1731196819052617 0.1981994215220074 -0.094467407915037882 -0.231920819449494 0.19372129040011654 0.18705812263528135 -0.20871971531447908 0.19095611467087825 -0.050865784804326603 0.0057561031867498103 0.030808818396635355 -0.27983529977932553 0.064746122314505841 -0.085006882978685902 0.10541250459325967 -0.27714213289077366 0.010049799089390351 -0.022236814593319269 0.01271133917511353 -0.046870880392512498 -0.17503050531352018 0.13216689636214643 -0.10555793571845173 -0.009106743207474715 -0.2332328369871387 0.16683917913928839 -0.11368571427756111 0.13385978606765353 -0.14191168722432035 -0.17304278303406051 0.27324703258481181 0.087434019686131612 -0.39575457509858719 -0.20935832418646391 -0.29144011907871042 -0.10312974372594538 0.061746186899579295 0.16345310479319047 -0.13662617137975971 -0.0070008565036856294 0.1121143572932566 -0.093574246730079136 -0.20723403197944501 0.19886667771077357;0.18908551934429293 0.25041932804016959 0.24171059373572806 -0.16604597268672686 -0.2295862718323651 -0.052019359820402199 -0.029242969803749675 0.10227716031612659 -0.27828836020389236 0.1891250063143243 -0.10111436640657015 0.14319753325408249 0.11710861568698457 0.0005534056664632447 0.069462179580260214 0.23418536732070869 0.19117024833789073 0.22744442147187435 -0.074558127561902041 -0.10255582312947277 -0.15029281273606704 -0.10516306483078824 0.126099834182924 -0.23037123940278664 -0.23480294673817367 0.20139206250978997 0.20200494390255461 0.018910869275324569 0.0091421269293754225 0.26323597749748312 0.12507231199595747 0.038245195381152418 -0.28260554961433454 0.018155678457826775 0.068326830416482506 0.24826596913619303 -0.20245546959136806 0.1249178736170071 0.098898657684480862 0.15673677631173863 0.16713762589636758 -0.056646486595741487 0.28108589941007905 0.028854214605736284 -0.13496722545043247 0.039705036799619862 0.22806192572101439 0.068637529149609341 0.17796948953588498 0.01032148845377703 0.16762222763736812 -0.35290544160250831 0.15060467483636247 0.23880665838922238 -0.0680659958973545 0.25221037395779167 0.11783362370771316 -0.051155099639413296 0.091106475169953849 -0.099059239056671536 0.18328622721587709 0.20472810472932729 -0.20969817985867722 0.074973701688861555 0.10240551991833415 0.12045760826317164 0.17907344885199172 -0.038198711408756775 -0.2779103632522944 -0.082122784256369472 0.081604831088114407 -0.2642786050508556 0.26619870875245677 -0.3746192227022338 -0.22373235265463029 0.33568707475213855 0.042989698374747788 -0.18891756208592789 0.11994155543628512 0.038060112240134766 -0.2049085678487827 -0.092467522088080845 0.31122370804967286 -0.097838997189168317 0.23306170841698984 0.029255983919901467 0.14441470244484356 0.09783001843666754 -0.25251979723350026 0.16810614271197008 0.15095308549679357 -0.15620526016220754 -0.072830634259514471 -0.0075465022978659941 -0.21165190790572586 -0.38177597082223236 -0.23661785689902207 0.12684798838083985 0.15258638942004552 -0.065620543290860769;0.11902890887311504 0.038072087731120786 -0.069528347924792011 0.22229868287112367 0.19622021071841186 -0.077158948840676797 0.19307690836603478 0.1173391004213421 -0.21220151701548109 0.20959807522543983 0.034165926312847573 -0.047019700028626807 0.082074090066487665 0.0092597701176198831 0.11739635912409649 0.28276684305362726 0.21668353187701175 -0.11979181635160681 0.20125051682629186 -0.14346790368728332 -0.23109876772197727 0.20444625570621042 0.11419913490194772 -0.10978168733783453 -0.029155651102805231 -0.062265397036313182 -0.053483786919147611 0.068794401954447387 -0.15831943862952658 0.11595331243645678 -0.26031787607813245 0.15583165773398058 0.14609765626577312 -0.18182976781836574 -0.28470269854292868 -0.17343394514873856 -0.17963323128748104 0.022556280977474464 -0.016337870201112267 0.13761807418186572 0.15458814241597782 0.17522454462481551 -0.18102601052101569 -0.086127230029103441 -0.10087511553847148 -0.22957983785902628 0.10332643526190012 0.17070864254888934 -0.0021798721988390704 0.17488133082659402 0.10473532870207841 0.18359265099793895 0.14847053444873207 -0.2041097622129884 0.069065311731613135 -0.060227889056502157 -0.25175974754450009 0.008810679322103011 0.25629226784762554 0.15601237676338539 -0.14063307894154373 0.16162519203745343 -0.027261973643516357 0.19671687029071244 0.12835949042798084 -0.22044218613231709 0.13674384430087705 -0.0032612356171691373 0.14061420062799387 -0.0095980288967333523 -0.014264072151138401 -0.21046033138696105 0.17311060887436161 0.12859609865301239 0.035966820373443842 -0.23589663254388002 -0.094690400889094903 -0.20525055735653572 -0.14483128434977055 0.023950916172301356 -0.11092350141634412 -0.1146483371489202 0.15255236385837997 -0.035226345653504118 0.041300975370283551 -0.048329052523416086 -0.031130635959646446 0.10222207740585199 0.019126569941086538 0.0034731079612261265 0.17644530789406829 -0.23310458183027097 -0.18948270823073257 0.17827545050152088 0.16668170516303646 -0.15769072711332996 -0.088227940908525926 -0.015973723719192316 -0.17738884701292687 -0.18357678122380172;0.0854222927467337 0.076489168521686524 0.090601499099289412 0.018488682322392057 0.24430064718633712 -0.046211490870757085 0.10597646817834956 0.045347832326543769 -0.17452093637860022 0.21416952674798911 0.097197810546951618 -0.055600110344164386 -0.12360051153347457 -0.14408969914448566 -0.23910227449029423 0.12428611049491381 -0.058508746290198546 0.094966311142655455 -0.075874877149476522 -0.12410839988655233 0.0016487821947191712 0.097743373004408787 -0.011407934404632733 -0.045644422746349028 -0.0067203687035886353 0.16701476493915185 0.04809148356362964 0.078631011073769075 -0.027124450107593435 0.085157366079872038 -0.20402566322443841 -0.31999916066833739 -0.0027602579552189893 -0.027456815367135044 0.11542976779439644 -0.20095215102330941 0.091209322805116802 -0.13110378296189551 0.11373641512516157 0.020487851601872449 -0.042329659096419045 -0.17955188735139771 -0.080007295780563079 -0.045691159613522034 -0.24258069655281325 -0.14725842061324879 -0.22780577607639552 0.11204319580338343 0.20843742620693112 -0.29636739768446763 0.015403991082042143 -0.24267969139186743 0.18287046634744142 -0.11126553552573146 0.02684235606509518 -0.17872107660168832 0.19571889508347565 0.26842136067851874 -0.079429132758750465 -0.14571166925138973 -0.048030178034801634 0.46501185364864517 0.014959840861679031 0.20494065157216634 0.15465723562974518 -0.30472011601760979 0.085812724833316367 -0.0026914066724510991 -0.19262314220989449 0.31927396675087899 -0.17474756343603706 0.39373837769162134 0.01019209729390283 0.18527459567611393 -0.21610635587382565 0.43147280733618432 0.13645202578535259 0.15667079313050031 0.24211493334050524 -0.18576784546431416 0.16570261025725094 0.10806314400353126 -0.15016953538566075 0.097259278209214053 0.12857032026567911 -0.089574713722553753 -0.063263491344789619 -0.03762858969862521 0.055989637719709079 -0.21558838313582993 0.19687336654015469 -0.14182840572621719 -0.0058251522537223124 0.29145479559798942 -0.11858048838534596 -0.014223071051378518 0.26732404266901705 -0.0029814091984791749 0.26175921442481376 -0.074235713841730208;0.16321085566031238 -0.34744900252289435 0.10586649694630643 -0.034504529588859294 0.29081280714100838 -0.10995138595568101 0.003797762711042351 0.069176783275876882 -0.023405101357964444 -0.17654417229011293 0.10177236601849848 -0.15010724243691834 0.099618247854248942 0.14743346977744942 -0.14178332945858604 -0.32827266380893444 0.20311434704644282 -0.1004466279377895 0.030064226067763222 -0.11449360283365535 0.047816342499124642 -0.18816461104197313 0.20711972289946431 -0.06307264006211287 -0.12344418032566278 -0.12492060769446721 0.1461167166586306 0.33389528457403944 -0.12414814737432728 0.13163593472351545 -0.080650647798423306 0.2655588528639331 -0.11517166231079212 -0.40707597908603566 -0.025136937516919304 0.17192160772118273 0.23770910521850191 -0.30971984954588549 0.14959658332594541 0.029770882787425876 -0.34969685154035329 0.056676049696863462 -0.049364113969115143 -0.26961063121954099 0.051141913510436156 0.089512343678467721 -0.12197058002297378 0.080895172212134339 0.25639143029917372 -0.11020462556827269 0.16143560256781325 0.21933723556243429 0.24868324110235884 -0.22138188047441548 0.06199144713657434 -0.025434769351614019 -0.10934036372165247 -0.15210174435877993 0.12100917316667414 -0.098880080911457488 -0.10809310538796038 -0.17724575461331757 0.16701463003396128 -0.28404215952766243 -0.0602716611301196 0.29078364808250273 0.12636946737150337 -0.21345365936659802 0.36228956817366065 0.24047252887007051 -0.21794166710030929 0.088020036091511766 -0.069212335827433566 -0.099644007993031261 0.031138265168627631 -0.05906145602155137 0.32934582771906412 -0.0091362366142453393 -0.1127326266438967 0.12718095898150497 0.095270425903219935 0.21286121726830498 -0.022628212048518594 -0.15700224631974177 0.10980244494065428 -0.16513327393718621 -0.084450185074733439 0.0046774582619840566 0.39619465315298596 0.017719497129277832 0.098471223429915364 -0.11658832793974533 0.28722008402201366 -0.054126232705752168 0.035775672312780379 0.27265203435263474 0.10756647550707893 -0.1073216100924316 -0.089689921886694279 0.012069053174087281;-0.12354246474111115 -0.02800971683693404 0.11698764217234676 0.027779216925568319 0.11357281336884889 -0.15687134475481546 0.17361005389184034 -0.25484077657581788 -0.18094911502776062 0.21416559067212054 0.14032176670285498 0.137298635918288 -0.14276211230164029 -0.11248609589922773 0.15316392488648053 -0.074436110522617213 0.15240169418516691 0.12630294597776545 -0.071218042813536137 -0.18471976391321343 0.14018552729942069 -0.21555742934429331 0.11749026677738392 -0.16761795037760627 -0.17187985318347332 -0.024088990728517015 0.15248873090401074 -0.24970817825283284 0.020802597026852013 -0.23405692251625643 0.2001271282983457 -0.059532044949226363 0.058385787536758368 -0.21362187506299024 0.23830879987944545 -0.056987590468013209 0.062337137887564051 -0.037399197610312317 -0.21211300533162605 0.22769279701215231 0.026290440988832001 0.010394090085572544 0.16542786354278299 -0.34211842615759269 -0.27022663358619764 -0.0066479096650741637 -0.21553948822412616 -0.023166054292237497 -0.20147798108482792 0.26764386141408014 -0.020645759954597841 -0.14522053022391015 -0.21053028333702134 0.24064979304944445 0.061574887138859141 0.20447006109648472 0.20632477912852393 -0.10704838044645025 0.19929668546238705 0.14482787278163559 -0.061578591006305243 -0.057806013015395001 0.10364512096891182 -0.10057980691845227 -0.097848552169155195 0.22489908541586826 -0.21844734942854474 0.041265897664833455 -0.085900083645333372 0.23063994202162186 -0.19155467084490549 0.15633697768718385 -0.23996411063714249 -0.14994745882177385 0.082517580239060778 -0.13671943649318569 -0.086669666164925788 -0.13865058489816867 -0.07225462346967311 0.097937594845311393 0.25953547450831854 -0.13462336159644195 0.1170211617067393 0.098303718494110806 0.2566787692082006 0.22609089028697987 -0.16721273500636821 -0.13393386878725608 0.25643581833424173 -0.18447018145611518 -0.12772508899680271 0.016460865645657886 0.29012186771145826 0.10730358193014422 0.098352077867366189 0.16030179339862552 -0.15351685109291766 -0.16990466314771877 -0.020130288619442507 0.053439581438143799;0.11714798890685854 0.066055424478557959 0.14799061442175543 -0.11181560412916175 -0.27455040568006545 -0.054431285921251828 -0.1422450410726416 -0.047776094283033449 -0.26553357438910519 0.25637146526495108 0.12562147732425144 0.0097922022142874262 -0.12704466898338224 0.1012641336832556 0.23147594288705672 0.032871334210644636 0.06324979972882451 -0.18833627707205419 -0.23720318802206286 0.13002724973291746 0.082196494685791308 -0.21941292321838204 -0.1370887527935368 0.15859520436486868 0.0034963709735285264 0.27942143658562857 0.11721978689133275 -0.1014015685458339 -0.35425424962845042 -0.23766453440203239 -0.041957713611111835 0.091121438072583036 0.10749097072998498 0.22895883975929232 0.20068944995946947 0.06148361076315588 0.19492855896389003 0.0064116943061021496 0.027303415649513482 -0.20666286957862756 -0.2206070590835871 -0.22860629860604992 0.09851632191730407 0.03692391584962533 0.039325715508487714 -0.13831415040055081 -0.19104683672978709 0.15242576712467243 -0.16512605398003846 0.31280298849427435 0.037209618381183245 -0.10359717768039933 -0.099846107144896626 -0.1051484776855634 -0.099710801653797768 0.058887020883114226 0.13700980159824286 0.32462845437103571 0.14263588898841062 0.22099242215797979 0.11250620272710878 -0.10015898114723004 -0.10371102145816993 -0.1664973956425122 0.22745716047295639 0.060457443148440128 -0.14031891109131692 -0.15023365481130008 0.17035846807453156 0.34075715124676731 0.10289710211162484 -0.049756646271266178 0.10365380878873909 0.3904702232303664 -0.065540676937191469 -0.14277708924832955 -0.0058370487224276672 -0.16293978979362872 -0.14512107251846926 0.20701447989614338 0.16378719969679087 -0.026455349599347779 -0.19219504158544876 0.11318049064884694 -0.022069736527230641 0.024711758772677186 -0.053054020011538208 0.099999978738232867 -0.12884632938610138 0.12900469335708925 -0.042086096490854943 0.21009980376856907 0.045488102777531653 0.093887529665170735 0.23130881652379406 0.18505368030312297 -0.31365612806516185 -0.1607087302128406 -0.1399015234120827 0.0069576387566987518;0.18867733231937034 -0.39447224865445102 -0.058782484977290349 0.072001096456588268 -0.22322225286229633 0.25460962393371889 0.18348576762925467 0.20983377858588048 0.13581901449012462 -0.27354709861056808 0.15010408719467652 0.25327000176062753 0.099112227675000081 0.11416034125518525 0.044116760995099952 0.15520186600695418 0.080987947054104739 -0.26224784802268003 0.38333418885395432 -0.11050141376772438 -0.046211394672065934 0.028650936603908318 -0.010001987005539838 -0.15100480877212091 -0.043831925917301028 -0.11761900866107693 -0.15220191508646294 0.017541909054661541 -0.11600699340607569 -0.15872867458513079 0.19567579855365308 -0.32191338242754469 -0.084312754193378942 -0.26997479479086217 0.048455594692349793 -0.073508790117613562 0.081986336462831252 -0.31645336335068858 -0.16060252438999731 -0.06133691259598649 0.15278477336639321 0.11175638123360311 0.38199937963177999 -0.14183174734362941 -0.035005765737698161 0.35512496866823806 0.19295806089116951 0.23415349836255842 -0.10829044854015092 -0.13665194143675644 0.096221024858697213 -0.087317397070911365 -0.00012292766551830637 -0.17676106076225537 0.14605810272795194 0.06816315251715542 0.15569448999368934 0.25153803317317719 0.030124632727332647 0.097306065524287555 0.093958603116230138 -0.13874376712412761 -0.20013133112170642 0.173450465958916 0.087759685580712274 0.15363171433888281 -0.093991816096989839 0.076075297998866628 0.033145403016770519 -0.0048260004250852096 0.13757382226974418 0.093822658532502795 0.02927108463222795 -0.13519432483799532 0.29514539293641034 0.2436911494806013 0.050357026247479182 -0.13890159675750557 0.2907700715398534 0.37669677537138613 0.35505406133153383 0.10892896391857339 0.29586480868228343 0.23478297451113156 -0.11575881087322824 0.052097807645648933 -0.08652950027386648 0.064710821242596542 0.13286716010163652 -0.13088365217997983 0.1715279962466674 -0.012618586831107828 0.042506451670914221 -0.066639966281964239 -0.15826574337596122 -0.44778028401509401 -0.061441105298626709 0.021871868434886341 0.024913361177897553 -0.046786293278270469;-0.23356341799371255 -0.16444739754689569 -0.20897195383505612 0.13376275375971944 0.14276559717598497 -0.076901801298009831 0.17621524592735832 -0.24331875303098563 0.087417839945830259 -0.30588915809295658 -0.11365099142122857 0.1379377943399713 -0.029266070312598608 0.17075801003175373 0.016403856352779786 -0.17980330007930667 0.37010206659066591 -0.051444720086724981 -0.30795411220382085 -0.2011421482056201 -0.072928344696341865 0.15032209714356717 -0.21083211229283869 0.16419897845856515 -0.28236444821960027 0.084347462561991798 0.026852493049170423 0.22357276821567787 -0.20887097447940858 0.096665766139408194 0.17691368594521478 0.17532197222390336 -0.095016582376405007 0.26950047536942157 0.20250945225739989 0.23852319475859465 