function [y1] = myFF_Function_(x1)
%MYFF_FUNCTION_ neural network simulation function.
%
% Generated by Neural Network Toolbox function genFunction, 26-Nov-2017 15:09:46.
% 
% [y1] = myFF_Function_(x1) takes these arguments:
%   x = 12xQ matrix, input #1
% and returns:
%   y = 1xQ matrix, output #1
% where Q is the number of samples.

%#ok<*RPMT0>

% ===== NEURAL NETWORK CONSTANTS =====

% Input 1
x1_step1.xoffset = [-0.125360816621926;-0.0521932057299026;0.91661184959428;4.10744937870977e-05;0.000567270861497079;0.000824363313315327;-0.0861525675552649;-0.0286286962791714;0.931353342557686;-0.909098757068234;-0.0917796921102196;0.88788516543672];
x1_step1.gain = [2.87676270851879;14.7601794614753;21.0545855959723;1.97946375002367;30.5995126310305;54.757990584983;0.76652551349073;15.3257247102128;18.9445210832419;2.18234872511332;11.8848548583271;16.4456763747762];
x1_step1.ymin = -1;

% Layer 1
b1 = [2.0431879616165611;2.0964804891887749;-2.1607617455085357;2.0493892171327506;1.8673967242752028;1.6344587899692316;-1.8260832441893984;1.7476628972976087;2.0911384031304578;-1.5663714362446259;-1.640505415340765;1.5037996735606156;-1.6709858717227617;1.1901985747492521;1.5010981054492838;-1.475668644562508;-1.4350311642678564;-1.3320310573052718;1.128701364488863;-1.2244394240528458;1.2027189292912204;-1.1807023466003144;-1.3587134859483934;0.93548046684565955;-1.026767467832012;-1.1138432895640018;-0.95649076575540737;1.0348024582889463;-0.88785633977391998;0.72146926204787309;0.75832131280296466;0.76021495482665102;-0.76331463575256064;0.85150137478340127;-0.79125050421909149;-0.54643430673543936;-0.74492944641169501;0.77388752057992827;0.43685867478619167;0.55053255901887976;-0.56718586951006522;0.38346605155980773;0.22945720593511262;0.36778250210941704;-0.28520130337431404;-0.019743662523969321;0.34088208138705378;-0.036632181617064982;-0.20992663106232304;0.14653252632445432;-0.25800980738295576;0.075046533816417571;0.23702601470289369;0.053700360478149703;0.12695727422314823;-0.23698755332433064;0.37564932567940318;0.38434114815921128;0.38575439346762713;0.40029212874143472;-0.36756218853053724;0.14535343200219999;-0.51262493549060251;-0.53710363522399374;0.88765021274800038;-0.71572093277016369;-0.86133260655754074;-0.77198926386915978;-0.76672726316442819;0.69787453273535272;0.82697848327441492;-0.98166265590156032;-0.99439317370066782;-1.2506044136164958;1.1258216347983732;0.93069299920176651;1.2194696548189268;-1.1752202982282711;-1.134308569179082;-1.2746792971609917;1.1100932870928411;-1.3114018349561232;-1.5025583859357057;-1.3449270557485433;1.4918457593535233;1.3845235510137004;1.4421186659388576;-1.5492913549252678;-1.3858681908473387;1.9023865887508749;-1.6952444722969549;1.7456847540839531;-1.9369159373169178;1.8570146162713266;1.8473256747515319;-1.8863116506146356;-1.9431865686787002;-1.9592873785907425;-2.0349078375583809;2.13542115703661];
IW1_1 = [-0.2416075487091657 0.80905999973820053 -0.83899333328418735 -0.0003653020661050152 -0.61607076014548978 0.11206686777394509 0.7767943156529814 -0.74879326802885071 0.47169111241695438 0.41162283897606528 -0.57032775363138044 0.76645329170676058;-0.61138567778085939 -0.047784376001253043 1.1515137164237876 0.49463259254625863 -0.3420715951778584 0.22561470237129835 0.92644375227086295 -0.60158637317037345 0.71695694776165186 -0.65557654029929979 -0.22008251922143318 -0.15287940127510447;0.40159661039304195 -0.25373766962637262 -0.70418953701684484 0.037293190681320434 0.2133848968715665 -0.97758736028076032 0.43973513716694307 0.066885817841665821 0.12325310407378343 0.44816927085341079 0.52299203742246247 -1.052071117523943;-0.71293289355451483 0.054091493389573211 0.2055044182905105 0.78365455688185504 -0.4413834046719971 1.0103065750975351 -0.33800069804925137 -1.0417532479101641 0.34347682405559193 -0.51498223238186014 0.47449013095564446 0.23964542857692964;-0.65422315469162906 0.50840733522950809 0.48395856406739235 -0.23975624463283379 0.21623227872868891 -0.71838916354558879 0.82632682350067699 0.86183352126560864 -0.73811691530177836 0.16851662216953087 -0.65965883995774011 -0.55706448206906867;-0.8409767412413951 -1.0889339124290958 0.1261255855483267 0.6375537433925984 -1.2670391383406048 -0.81792900047508821 0.25409177046887832 -0.90360012492677977 0.3251600954173583 0.053593939841067639 -0.56662588435069672 -0.70347965016119884;0.65256695664802755 0.37200996780760798 0.021635875066086468 -0.80973154513316947 -0.12547533096676117 0.042917866636939112 0.61337812376255929 0.67377008866163712 0.4490756509336401 0.87847992017346166 0.82547273582084779 -0.37514794667346507;-0.82542055840799777 -0.10493163536104193 0.43237707568501171 -1.0295723471153553 0.11520174920223686 0.72165786704453327 -0.64809538023159285 0.28348672122928287 0.59715691763479417 0.75412913736076359 0.41653352842082236 0.2823831008721232;-0.82515706230078267 -0.75992473008883343 -0.39085409018330308 0.11071405280437252 0.13820926641176501 0.24417658232702982 0.6278810858040782 -0.20337394681498755 -0.55370340011503028 -1.1057215395409477 0.12104134237675115 -1.2703515085884258;0.40100153890754792 -0.83258221320125203 -0.060891798456972665 0.53313743017231652 0.98819317618332114 0.82486203412147319 -0.75375249547694689 -0.37477513115956862 0.71276932629276257 0.62693042939772881 -0.88598321265024849 -0.39501210968467443;0.71501502270255168 0.72738865009281994 0.67880044220095659 0.052506220042396162 -0.40166082521052693 0.84202070114591954 -0.88942392385591584 -0.62606335408861746 -0.60194541317543326 0.65443434685164514 -0.228802863968779 -0.99710106773686891;-0.91343709505846471 -0.074991728117674586 0.23678700250064133 1.0454285382056279 -0.44071823812539518 -0.71947532017265314 -0.4602505587683659 0.12841485712946904 -0.39744729255581118 1.0155424508359525 0.23286227204669799 -0.23492149049268327;0.37269295615880871 0.84403217330119917 0.75443005143380881 -0.14897277281342391 -1.0845441635317594 -0.58970077810744659 -0.045126091814075925 -0.71677501042081382 0.88640827334246208 -0.043178707989739502 0.77225673917393456 -0.60204558633422056;-0.15636222765963967 -0.27153869876696157 0.76685502751903256 -0.14290088050444347 -0.23828237196111079 -0.17031054981927385 -0.71288345212012427 -0.49805546420987123 -1.0685516482089632 -0.81225663695388239 -0.83892028374321959 0.93347439793811193;-0.72276840307034251 0.086925324547436442 0.96043185360981564 0.44408596054198518 -0.024034051138496902 0.84171918603614282 -0.72044071581672076 0.26614152650293993 0.54301315375230608 -0.548623887796031 0.70303399563072033 -0.052142449783472267;0.71135407305424347 -0.95063371805797159 0.15408618567741345 -0.80571500571308674 -0.87229732098499302 0.30129987624324195 -0.38865182392985781 0.55313470873868231 -0.24217366025211173 -0.19365271395010558 -0.55184439722550682 0.6808743400685896;0.16573627884761866 0.43805719608599314 -0.74841737923005769 0.84171142836597912 -0.50430120581990689 -0.72018075751686816 0.47872621538909321 -0.094061077410712443 -0.64044347135625035 0.62658414119587769 0.63937358276133638 -0.63528680799721227;0.55653628793461851 -0.6685460651449372 -0.3424219202573956 -0.41644004465349915 0.249790489481477 0.8951018161754688 0.7240362326621993 -0.40008400612889694 0.87223980020156633 -0.10798155260606167 0.80886417598899596 0.45950635954960006;-0.39851960289971805 -0.81797883319392728 1.1340411203664034 -0.74171155600459582 0.75359985408311325 0.42474216848231894 -0.2704727878646474 -0.98160167922606856 0.45607836665193929 -0.3665868612975694 0.13089862512823264 0.73550668488909832;0.95059067605542469 0.038121230154244415 -0.71922420391543351 0.55496670398565839 0.63480118264833918 0.57844198429718785 -0.18545827971117088 -0.092896179464904444 0.66953497443682308 -0.092235533553098756 -0.30788363464905188 -0.74684591954044821;-0.66750997390458644 0.85478011832416112 0.68551261827018561 -0.57503358720542841 -0.28902764704712341 -0.32686878604659092 -0.59049059384823921 0.10387564652500174 0.84349608462735859 -0.78146298149162852 -0.55929388980240902 -0.21139032260733084;0.17776755438479835 -0.17122633253005914 0.3801741327874929 0.64861345723745611 -1.0000386403030783 -0.81054555082360991 0.7559205481116259 0.68837574249607647 0.31315323471083556 -0.067424319293649976 -0.86898545395530002 0.047643302920417213;0.32171149943575322 0.029169063572439785 -0.9450046858809894 0.55809475706105294 -0.44260505632282698 -0.6636322844699043 -0.42802750492417679 0.22276136293473647 -0.94549181031774121 0.16690048729463527 -0.68486092870975079 -1.1088360652073228;-0.63539888341133632 0.54482875920468055 1.0428591976424493 -0.61221223422820603 0.19153629106483633 0.67814985252531246 -0.74349119243213513 -0.019439486555480376 0.023932942726434005 -0.67692737520594082 0.32260895168816295 0.86017601447916814;0.61825033676589924 0.16754690986326209 -0.61499248793765682 0.97630794739690607 0.036654255904539891 -0.83928116874963787 0.92891101081653027 0.082056855600313519 -0.63839082443588369 -0.40607455641435347 0.53454180265270734 -0.1351129428570858;1.0635174350957133 -0.047132500685591397 0.079388727724942335 0.67591394164321839 -0.3573565195290655 0.12549348179166039 1.3037113682254666 0.035857136375611956 0.16191543943721509 0.62234121059942282 -0.0061433990381418672 0.94961812331459183;0.60433603685534543 -0.020302208740113615 -1.1379106062328941 -0.50562740608736678 -0.33842362296660256 -0.71823005863501255 0.70627122712357659 -0.53305929582196665 -0.27528653108473644 -0.23582715546934729 -0.52277957278898035 -0.64250782962833319;-0.040288269213145655 -0.47536337515221494 0.17948416463994979 -0.65148197520933171 0.19592028850452103 -1.1297131162132745 -0.89475200870148286 0.91745237206460573 0.33671620834676935 0.43834815341594813 0.31773898172477033 -0.4050189319892013;0.41589898125906061 0.41626480010281564 -0.55989786555295573 0.16586213904002534 0.95480769575500202 -0.85608187839679428 -0.66070215410635613 0.1088653265582796 0.65415210121337608 0.72851265153775568 0.9487344287613324 -0.47257872515276356;-0.10507331483808889 -0.65003398078727381 -0.81552101005229405 0.0616630674827039 0.26638172603812715 -0.38270401136375443 -0.51765581038619424 0.1134470783641708 0.42228663987604359 0.65546624789897268 -0.31259382336975461 -1.3457777223063685;-0.75256131070333399 0.08225353446702742 0.87428132623139687 -0.56699855925919496 -0.63647879685884001 0.24599520341355352 0.30544518039559326 0.26865618230516269 -0.24186788135623932 -0.80284675571123898 0.58131326246044401 -0.81679090957269085;-0.34252630277609331 1.0313659962144452 0.40824438781609479 0.41834912665206031 -0.49255166802572459 -0.46867703614781192 0.97982906675943815 -0.84718423937264553 0.16856494829229846 -1.2995796957240173 -0.10481481161225616 -0.32529093897115324;0.33127073063519347 -0.32635480306909337 0.57732458575858669 -0.038697846820644602 -0.57724663033037293 -1.3614617335247867 -0.023843340220854325 -0.66748163465560728 -1.2905824261597989 -1.2344625372544287 -0.13324603848813876 0.5518499793030931;-0.10414305856913414 -0.41419360562905089 -0.43359355190028614 -1.0385891889849523 -0.64174535329834925 -0.79953541582447374 -0.5912404370467883 -0.22155386858681164 0.90698444904030806 0.23985951308854322 0.13963352532114381 -0.61830363925049991;0.58238605889333706 0.15124720026296484 -1.1288836200389072 -0.62288812761746626 0.66461676984066298 -0.12750486803164435 -0.96198357089574238 -0.80480749743525193 0.41679329572841051 -0.82563265640245742 -0.33894932710210801 0.0091502355202541935;0.32725201897638845 0.18350689474635093 -0.79400655704543188 -0.37158011655179418 0.55596005330541265 0.96272671284900535 -0.74027341175315919 0.41896235452081021 -0.88572525485168208 -0.42798435533080259 -0.19512267141051132 0.4822126014131275;0.56170790260110415 0.14997119069629239 0.52369801067169963 -0.70454899239083946 0.14404074258095687 -0.41916487984288608 0.91308825743568278 0.27730514855857474 -0.069990698546855995 0.44819336182481201 0.68850194242819174 0.5751741737771664;0.042433489236954003 1.1980486836572586 -0.14032926622839476 0.50175019442124058 -0.25380330329616302 -0.4709886656383549 -0.73609513540764893 0.65628659324234195 0.47001522584006333 -0.12367857682071054 0.36883627401813263 -0.027070161152538352;-0.026231980144400157 -0.39270502313232536 -0.20927845026123873 -0.51188096853233622 -0.94179719324157529 -0.27089957627152239 0.5812284115666847 -0.64852768439914921 -0.30831001141378073 0.92302369146337304 1.2109525126807523 0.13765092177738655;-0.63357523316400177 -0.20927863903803301 0.18321930059640984 0.11865254183438131 -0.27585088197630958 0.96574354056283174 0.34851302006856111 0.59823560670015252 1.1876083583824555 0.46717433454966167 0.21735204072996603 0.72032790993652895;1.2219141654920764 -0.84867400183579955 0.19114301874987633 0.2021896134622399 0.04303690917061094 -0.4610237610810739 -0.4670457579920671 -0.76661771283936275 -0.4988134307676288 0.58181148191184728 -0.81399646906839096 -0.057273491402485006;-1.2820376498108508 -0.71269373235703626 0.85850778625572799 -0.48077249140267786 -0.58794133569364004 0.012787947056750709 -0.41951427074059144 -0.74712913572651207 -0.83381844277411798 -0.062026195162658102 0.41237383816053141 -0.062302145631816436;0.073848841035528204 -0.21867166014372655 -0.67357736918285083 1.0303744561477366 -0.4800560999631247 -0.48710122343087126 0.78142709084794726 -0.11217298399247343 0.80293541936225055 -0.86887853123955783 -0.11488904632972474 0.66452474776403592;-1.0264098331525944 0.68188376129227568 -0.033227351108369253 0.34351585483654273 0.55980498380876176 1.0945603158011394 0.38334163995412929 -0.50902325973454465 0.6894243957964501 0.1656036181416714 -0.41194481985339243 -0.75779537814622999;0.75392227290247871 -0.64323675569321581 -0.92853688495757836 0.22394046857555061 -0.36953237500108721 -0.67442616027766744 0.57566017593276431 0.20390400003102896 0.36179301473380016 -0.66118711235776995 -0.17765978771850241 0.82249726484783969;0.92414890454730614 0.032440734778868358 0.8635669404492835 -0.24548438897328623 0.14129272441721275 -0.23076030673473669 0.20395574118055548 0.23901914498341353 1.220552855622433 -0.43171660285175018 1.0806609612560183 0.20656865071711988;-0.55020051232346645 -0.88745982796565015 0.55481169133369268 -0.73622649379366856 0.087738450310791444 -1.1071243545469656 -0.49038801995876058 -0.30812688999045351 -0.70739586060798176 0.59353955654898927 -0.25170805766794513 0.80754450341426454;-0.053472238405676671 -0.42325288511708015 0.95143776460757035 -0.58047614937948999 -0.021951337732760992 -0.3266589472266207 0.33685532745273317 -1.1969112496826604 -1.0069750609699737 -0.10953655049139945 0.47243221303954397 0.21268641055081286;0.49979643802955437 0.75887480034274124 0.43782599070221867 -0.86123941900570378 0.3587677894264954 -0.20082550969751364 0.24601291842120229 0.47747857330955168 -0.52273126282839988 -1.1014446476461461 -0.78720450109833018 0.4413961194310716;-0.075682586991573486 -0.52238088712598207 0.48211571656793939 0.64831254206138667 0.56626267944429798 1.483124350987713 -0.33984425785137162 -0.23319051592335954 0.32926702413018338 -0.58816003312414056 -0.056928580622887755 -0.44517487492440883;-0.43175141460456096 -0.16148136868295387 -0.17738052511671951 -0.27677351586167626 0.91722831644418934 -0.47991274911170423 -0.28853564289855954 0.80211994561476485 0.69857544873298649 -0.79683237633443771 -0.54684994028112355 0.89554418466299635;0.46338242740483798 -0.39139988583008278 0.67258822548396857 -0.7209337274646932 1.0455036846751486 -0.67829637884591132 0.045577993335693283 0.75230760196810909 0.19235413213318017 -0.35532219160704109 -0.43769298482425151 -0.61876307175967926;0.44022460886305903 0.69793437914703926 -0.1663015397967948 -0.79943781739634423 -0.83473564259509458 -0.88095338901923614 -0.61877735346279794 -0.047066113064365596 -0.1915395783904342 -0.69453607345757895 0.31182064320487846 -0.41668880783446233;0.52803454264456495 -0.8203603420514427 -0.583741193113265 0.67184973113213131 -1.0072849063461595 -0.58940246166928489 0.93466281210901625 0.17372458133880664 0.47821965939192235 -0.57847200366392015 -0.024826436170087281 -0.32230068808573897;0.3015044061624243 0.1257444880075903 0.43985016833318757 -0.54181949199313351 0.76505115516908151 0.99447492380781299 0.52819505864417882 0.86205895351649786 -0.79497926023373167 -0.64066966455372465 -0.11995650525594211 -0.21992759641521381;-0.59008369087859369 -0.47413729215728478 0.70372503490291638 -0.31628374841402079 -0.046018293575982687 1.0205570089536378 0.70835447241353366 0.90152918465089249 -0.21330607614596947 -0.46080657032019395 -1.0976925125360861 -0.834900119230362;0.29402717637748166 0.16661923712822113 0.4036222507169836 0.64530864376277708 0.33686550749114291 0.93920826821370185 0.12829548136696595 -0.074756166674800131 0.51168476024014498 0.15966596058224131 -1.3229334334063749 0.29577866803871211;0.59867912584024463 -0.67240096864953336 -0.66607746614723207 0.39719411368656932 0.37962721074308281 0.69125374448668397 -0.40474337913563901 0.94160572515181529 -0.50450287091031143 0.49410002121747709 -0.84401694604102717 -0.21731156677706412;0.59576956212010279 0.77565150496124924 0.66263966832614962 -0.55111916700945862 -0.10235609404348707 -0.63360802279372463 -0.57700137609709989 0.40379131861557926 -0.58000791845731248 1.0824404155359866 0.13394299939196308 0.91154514656965724;0.61009763784834403 -0.21319483441269702 0.90963095115955162 -0.22196832633498381 0.062585541874326633 0.39461598418356614 -0.41378019801741556 1.0340551971265319 0.84363248192390594 0.82014333943486872 -0.14566555772386147 -0.31931528428509331;-0.047306291414394921 0.93869025272197693 -0.99834742827148015 0.37633148242337633 -0.24733405028078931 -0.47513460757906212 -0.32115965391089007 -0.31083277427696021 0.86950032544169886 -0.72261477146220676 0.058747381201522945 -0.17643794303470828;0.74301403961595358 -0.34493842640415223 0.7221967599557968 0.13974893565074584 0.87928704435757798 0.62314733272678169 1.0603487245503327 -0.57285798905098029 -0.68705605756721333 -0.59874628276095487 0.080517538907619104 0.54911772015217941;-0.47292536426921938 -0.93081632257692537 0.69475500096857234 0.73975846932743938 0.097293994407233311 0.53104423783521082 -0.61259062204945092 0.70055636731230897 -0.34830989276940127 0.67204856325529316 -0.61285102160696692 -0.23087360766701004;-0.94111288859060027 0.53039857067444041 -0.2941058794726491 0.53185940227512407 -0.80805726844688741 0.031597711247806595 0.71333600245856399 1.0730102108149868 -0.44365847570754169 0.16304663999972951 -0.08317055504111795 0.49839469906355954;0.5720854406688155 -0.8504861662792933 -0.23738958460796322 0.48588931682916942 0.39465643291627805 0.61065705984005492 -0.6692901835589613 0.85184507624279893 -0.82030504660559522 -0.72170969414675457 1.1315392380790292 -0.10359702105108906;-0.047652242198613894 0.26181896931706078 -0.68010126190675813 -0.67599020721602399 -0.6667859071151031 -0.66390913621046876 0.77771494589780776 -0.70640368661958364 -0.59257176692693725 -0.1332667599499826 -0.18991067225949756 -0.71576911067144033;-0.66344156170352531 -0.070549235785114073 0.7448876053260598 -0.44598916674995159 0.07242951217684751 1.1763008077684876 -0.12360789483663318 -0.52645406006956319 0.46389087484190256 0.10247203563188967 0.52234063312357271 -0.51189092861584451;0.099315138109169393 0.24119991197611856 -0.484727602720185 -0.49522057956244347 -0.31649321496170674 -0.019393540703927091 1.0229310557570717 0.22516408108828556 0.10466273806315816 1.3825982948024069 -0.96304006548347532 0.069593194651565257;-0.18073901633553138 0.078841455108446118 0.014898472292169672 -0.8916529313274737 -0.24895945687502116 -0.86375102175317464 -0.8982013054119613 -0.41102832494179709 0.1210345945205578 0.85568235490945133 -0.71436979892497676 0.40374710167859984;0.47264490141999799 0.15002641555750673 0.10455110212310614 -0.57610082706391741 0.61441217456291419 -0.81613083707039935 0.29294850781251175 1.1607223987709168 -0.06015314671834477 0.24827791284691345 0.40711204447947918 0.7548654990470286;0.5636346049900135 -0.20689368416153497 0.18801647327634816 0.9710083136552301 0.86630731704269426 0.071421154163776715 -0.82936165497278991 -0.61872377213632812 -0.56812872151037952 -0.97884511113660233 -0.30332039250521126 0.15603889970532672;-0.34589115791809572 -1.1763826457521538 -0.066914037727516806 -0.29251187719016081 -0.89181182196155395 -0.28061323150444595 -0.22429021759448861 0.97374838871473579 -0.0050484077153062218 1.0359815726870267 0.18993385887353886 0.55819209983338602;-0.35224820993442396 0.95135869040545251 -0.97176813100196746 -0.67877433963142519 -0.42470045699509568 -0.80065335552528172 -0.12954990434397995 -0.43575843839030287 0.59899783350232039 0.34923065627059779 0.23051186875535887 -0.78135303570961312;-0.29789832015705536 -0.17389446257056757 -0.0086837252228682618 0.52389484438628076 -0.055430195672523608 -0.047465892304137475 -0.57410419918380085 -0.85862952898781231 -0.98512842932615829 -0.75897259912297166 0.69169996514123322 -0.79114537740421187;0.3654840328254963 -1.028158170242865 0.036348283134951268 0.84181382641071612 0.76643906478793344 1.3974060358646199 0.2293039739012237 0.093612739987860225 -0.083338300714417085 -0.30866212794467773 -0.86840063511307131 -0.63620506907564522;0.84488238510576308 0.11621019668703299 -0.054583146788235032 0.22298947959865223 -0.60794028889101059 -0.54113239396288226 0.21554539116011262 1.0508541866841548 1.2525121173452258 0.50605355004097408 0.51397321931871875 0.24472172937594763;0.51687249133879187 0.70355972827532964 0.10053287936304922 0.99223033070936273 -0.25708106826079474 0.60170885454441181 0.25616903811676411 0.69274768225312189 -0.95527522209637006 -0.59293053660671691 0.16154015803645871 0.16915179534604452;-0.57429224058678907 -0.19581795635416491 -0.73531892998552029 0.73243583911869503 0.084902921355856129 0.0039323367825623672 -0.59746883405150841 0.80469808573964707 0.54046963667267767 -0.78566568089504152 -0.45941516977503044 -0.71083613545260171;-0.72430463895150354 0.48013567686577036 -0.67490041258600453 0.10388817477263271 -0.52073017456457105 -0.60548115991067686 -0.36979715533628182 -0.14539064367287477 -1.041306439371547 -1.0513689897972587 -0.016984128943670438 -0.17343640178213657;-0.42367595499581484 -0.10475944417085045 0.072169217930543178 -0.29245063448765668 0.090401992275292609 -0.35117733471356705 -0.80307240117443013 0.42888949848928204 0.84667162502465942 -0.14206543572097766 0.91117573510198591 1.0868920171585257;0.14351583020656 0.56341923735550248 -0.84297088237888618 0.40938350975345239 -1.05718984140593 -0.45561664825362369 0.039115099476113357 0.41630124728022111 0.16631210252322676 0.44047747489201922 1.3066818375125475 -0.12771107155176961;-0.54748082499676742 0.33961333260302523 -0.73185036481917187 -0.48347029986949652 0.70739989366389411 0.15039146265291764 -0.10312121529815108 -0.79129005365099203 -0.74343178501917606 -0.84562281794102945 0.58082664589540023 0.58994535162042616;-0.11527371095605746 -0.55566166041620968 0.19541104797812783 -0.13522009150121911 -0.5062038688322511 -0.53743967417142902 0.82713078181065902 0.67051829178462452 -0.094275836530526375 0.006809511624618958 -0.98554130111555749 -0.70351987347853107;-0.43364706465618552 -1.0567500911451579 -0.74150465509278884 0.63111353089074385 0.20276173827521185 -1.0696301445725382 -0.023189432637900159 -0.068999866151901901 0.015071051943280029 -0.6704974995407722 0.21821963262937072 -0.21214679150039645;0.55211241519908105 0.24121528457381633 0.16707690221144536 -0.67194532416025232 0.66023818287794145 -0.4944876028257178 0.73696104544858476 0.70445917854310725 0.32436420250335191 0.29336286550389618 -0.45130449379722132 -1.0555182677672459;0.89891049678245383 0.94697302099592662 -0.70805733365542545 -0.57874540043282785 -0.26671534584901729 -0.73370686944998287 0.77974412062177645 -0.72273889951085801 -0.3369201707047455 0.0054111243867492123 0.18623647287883255 0.041114195006132309;0.39681999699274423 0.67531754252849452 0.79601274527062271 0.69793743480058679 0.3241071706676632 0.022749204502500564 -0.81985171643761523 0.98601948089085378 0.51396238038054853 0.40487734866742131 0.55901726462006485 0.095936537333174074;-0.57194427966397376 -0.10913702519810427 -0.2768685109556967 -0.91465254613621327 -0.78395659115108629 -0.06305318594581194 -0.74783399071522327 0.69938099011236521 -0.27016388651777751 0.57249777151015269 0.68114023436262405 0.65721641638599348;-0.88542460477995755 0.91377809094268803 0.13430004039257892 0.31775766456010873 -0.94516743623597899 0.65654954247057462 -0.52294114644880685 0.74082949857966085 0.53838107870976171 -0.076124325717595434 -0.67830602877005663 -0.39469975060769341;1.0883461860143901 -0.40686938808315387 0.82085929269443336 0.12192182562035146 -1.022898229341674 -0.31868582488453889 0.11085939630487701 -0.98033575576007503 -0.064839338821112466 -0.52676116344068769 0.19731498988381163 0.94677334342109609;-0.90331919652617343 0.8595207819981362 0.052020112097216638 -0.19451083480195058 0.65592630490369352 0.18681705395111403 -0.70808057707003091 -0.77882498725888738 0.8025404848120864 0.32057258797980931 -0.13054761104794971 -0.44414535158236279;0.00094362360689572724 -0.91749370994688884 -0.84225908907782354 -0.1737643823841821 0.56435072098657646 -0.79072353156564568 0.17528457288946628 0.21453710493568684 -0.72184194233368626 0.59352080205710589 -0.16207583176840223 -0.81058069755189965;-0.32675427040083538 -0.35333275793739877 -0.52896643857296843 -0.24709689700736948 -0.38123806880389244 -0.64940516485435718 0.481044565629689 0.78899135298610157 -0.50924836851512645 -0.11585243656432545 -0.38924602751758169 0.52927374002935068;0.061820072918011469 0.17749271479989984 -0.88060836791251063 -0.1056667118321642 0.42243798610875055 -0.77429345526814009 -0.33734193663388806 -0.14910552580154707 -1.0403647589583089 -0.93051184963801803 -0.54742823460149159 0.42248205479709733;0.76393004512597784 0.37787757301905534 0.5680179214634723 -0.38714133404231749 0.69211209445082722 -0.8163957586944971 -0.48957361111081832 -0.78273065430445843 0.043737207777852637 -0.88269765682573365 -0.016051670484339302 0.52664850648752126;-0.030734098837282925 0.83762455054870621 -0.03453481704310811 -0.3781026478324907 -0.9504061125657739 -0.051291256833656693 0.68221027178386684 0.58319780392663212 0.82846596088104751 -0.26883485878138336 0.98264213545063239 0.51204305396483374;-0.57903827282201981 0.63031257810174501 -0.64095675377512862 0.61229957759095677 0.30096327003535062 -0.20445186056267745 -0.21563054502359355 -0.60487131361088786 -0.86202899982544845 0.79450942666423452 -0.080009286928606482 -0.82195218687289384;-0.25473624705533265 1.0110852442982816 0.42378083496173274 -0.012162249370141844 0.66972704746660261 0.58739854728655372 0.34794252988556601 -1.0204442436714829 0.0080856461013296497 -0.19047926318323571 0.95691613020584365 0.2292494473040988;-0.52035475658661123 0.33940804971575467 0.54133053976909551 0.24413189811295335 -0.91498838203615873 0.17237396013222409 -0.38644782233933578 0.85505656202239833 -0.099340145479985001 -0.80107331732863574 -1.0303308576193262 0.18434678247705955;0.73589900255063301 -0.6403543237745507 -0.50734911871265065 0.19571599590712638 -1.0526041819898129 -0.5911363722738876 0.43758799514362845 0.8316950265699582 0.46772880706209519 -0.34963513514795008 0.022566596641083427 0.053272989428504544];

% Layer 2
b2 = -0.30802737180190842;
LW2_1 = [0.37893699135689418 -0.29852906122727346 0.2437780786549717 -0.26912546196095666 0.15527420075931742 -0.91891042466800643 -0.35460616857546734 -0.70060092301119337 1.2299788062521166 -0.75768565577483959 0.78174971856869024 -0.57144000269740236 -0.62646249567998757 -0.65176403973538521 0.099839548655115073 -0.34070656272380595 0.0018855358019919093 -0.074427265747057381 0.69098999641723791 0.32140327966363508 0.23671187207654584 0.067508733717899838 0.55012285973157959 0.52124776621150515 0.66646370424099666 0.7161122484552811 -0.24868751321307139 0.51174876684662995 -0.65132507236302606 -1.061649620029848 0.059717812986296977 -0.57207075300962573 -0.77939295202146108 0.91600022723878272 0.72463856998384468 -0.50193524477778084 -0.31731908304198642 0.82298618349850938 0.49032090457080119 -0.022927379393846772 -0.78230759357392399 -0.63864907729610565 0.63227974807889864 -0.59902187347706592 0.15127315389570001 0.8519904598443675 0.56352441871914172 0.27403701072124775 -0.25452221160347643 0.32437909103641555 -0.44872169195975919 0.22879024765732003 -0.12257271933891301 0.57897634009986354 0.32307081030363455 -0.7222892406707796 0.45913615183361711 -0.44067317903108888 -0.57423603661232459 0.0019122641529764964 -0.07736227608050758 -0.59270070047506185 0.062942418460694996 0.80455531555083504 -1.1229648426298786 -0.14736459930666723 -0.55102437982919705 -1.0434099755870243 -0.32167381704079223 0.4751850511557747 -0.33472946055399994 1.0146098098305429 -0.5505619483946208 0.64990922119711536 0.62735342742153255 -0.45978347652683882 -0.70529263522802654 -0.12893777579899807 -0.029242293062234161 -0.28881336949987457 -0.69267518460128896 0.4113153295717531 -0.32320136843036312 -0.57033045436579544 -0.010325555080595589 0.49032132595092426 -0.11937153387270641 0.082086545553677615 0.53804010804862545 -0.84160349932475187 -0.035370211243011894 0.072693617617765646 -0.21672791560792079 0.21826077376263153 0.0062818504627070171 -0.083667120665030847 0.13020007993545102 -0.45649429643539952 0.22153640676587599 0.42762149334839339];

% Output 1
y1_step1.ymin = -1;
y1_step1.gain = 0.341966090860885;
y1_step1.xoffset = -0.462811768195272;

% ===== SIMULATION ========

% Dimensions
Q = size(x1,2); % samples

% Input 1
xp1 = mapminmax_apply(x1,x1_step1);

% Layer 1
a1 = tansig_apply(repmat(b1,1,Q) + IW1_1*xp1);

% Layer 2
a2 = repmat(b2,1,Q) + LW2_1*a1;

% Output 1
y1 = mapminmax_reverse(a2,y1_step1);
end

% ===== MODULE FUNCTIONS ========

% Map Minimum and Maximum Input Processing Function
function y = mapminmax_apply(x,settings)
  y = bsxfun(@minus,x,settings.xoffset);
  y = bsxfun(@times,y,settings.gain);
  y = bsxfun(@plus,y,settings.ymin);
end

% Sigmoid Symmetric Transfer Function
function a = tansig_apply(n,~)
  a = 2 ./ (1 + exp(-2*n)) - 1;
end

% Map Minimum and Maximum Output Reverse-Processing Function
function x = mapminmax_reverse(y,settings)
  x = bsxfun(@minus,y,settings.ymin);
  x = bsxfun(@rdivide,x,settings.gain);
  x = bsxfun(@plus,x,settings.xoffset);
end
