function [y1] = myFF_Function_(x1)
%MYFF_FUNCTION_ neural network simulation function.
%
% Generated by Neural Network Toolbox function genFunction, 17-Dec-2017 11:55:43.
% 
% [y1] = myFF_Function_(x1) takes these arguments:
%   x = 12xQ matrix, input #1
% and returns:
%   y = 1xQ matrix, output #1
% where Q is the number of samples.

%#ok<*RPMT0>

% ===== NEURAL NETWORK CONSTANTS =====

% Input 1
x1_step1.xoffset = [-0.114988529753714;-0.0905149956904574;0.871203434817158;2.14019153787773e-07;0.00108782622916156;0.00110796127172547;-0.0563165944149112;-0.0282407879759934;0.920444536354435;-0.471284624289299;-0.180349771677152;0.122374832724882];
x1_step1.gain = [9.71448881253221;6.47486932930602;13.802841521281;9.1528340075781;15.8730419196471;11.9705981601438;3.19489729429084;6.4809098827093;8.15434842774334;3.9316118618341;5.185144566933;2.3159987109437];
x1_step1.ymin = -1;

% Layer 1
b1 = [-2.244659741725382;2.2494255235013108;2.12688373172774;2.1778659411368664;-2.1169761066626633;-2.1334563309296732;-2.0259010481874764;2.1553336097333662;-2.0318299154135731;-2.1165385833730155;1.9909962590869588;1.9256014481286861;1.8991837715752005;-1.9185978991895958;1.8987966949932744;2.0246364387955378;-1.8501365724281309;-1.7776009145718998;1.7341243707057297;-1.7522612609048449;1.6579606384408196;-1.5672132379236667;1.8453522150287374;1.6168727093225297;-1.5604102940102784;1.7569817279508992;1.6354792584028663;-1.6330469702955566;1.7696839054223088;1.5605982744321891;-1.2834054520550613;-1.5207873091833344;-1.3092414196134852;-1.3861881401767782;1.2356675449760106;-1.3756640774308611;-1.2546498779342843;1.2943425142627381;1.3342127494671208;-1.3614707273077777;-1.2969773609124795;1.2429776281267115;-1.35195277098127;1.2539255041153039;-1.2983717166153019;1.1029012852531972;-1.1722474367523286;1.038671222066744;-1.1101368936644389;-1.1939795572921421;1.1874170875749346;-1.0313385163161719;1.0500241683925948;0.97712429790821376;0.96128283370954437;-0.96390077690187592;1.0519474843923391;-0.75159537031020973;1.0152434876194369;0.79590875799888905;-0.76045468165663888;0.92018524034617066;-1.0218802212261033;-0.89916253310481475;-1.004945735742915;-0.45490603852023181;0.64131310147405973;-0.84783825555599823;-0.52469993713726104;0.63787251915751275;-0.79954160918785944;0.66837388505513939;-0.77488647484945905;-0.70406180378389094;0.56929939336454904;-0.66884825147677174;-0.63262915902382943;0.53484839012333962;-0.60495930777870732;0.36494430920585036;0.55553537711190415;-0.36295506723133336;0.2680337860831995;0.2425029697080637;0.27686072247021964;-0.091794279891223712;0.23092918730993336;-0.17596862933803301;0.2714574015708402;0.38451658099123542;0.24288911169784394;-0.001995292576867919;0.087065489128531431;-0.3291238851245904;0.07779279535145539;0.35732234480764463;0.006544811657922818;0.088845123797331768;-0.14768393511456834;0.081353388361213211;-0.1364841995240095;0.025701128120103833;0.078855710302330573;0.085847125079418579;0.28024449534873375;-0.10352783818075656;-0.20286962316579646;-0.40290119053066925;0.16812843345311951;0.5645348197781741;-0.13909380471883992;-0.17164475067196813;0.22979871370618812;-0.32339936648672774;0.37971907310308312;-0.39821126762659143;-0.32212967877570686;-0.4802179019671447;0.094900460481411097;0.27894005043770326;-0.55080111592579717;0.61773907868444466;0.32341591218704197;-0.64092454472831872;0.41110483608028608;-0.50764208341395567;0.41809007200324178;-0.32924893747155554;-0.74361939041049185;0.53230356617458108;0.57169771411241921;-0.6043849245521703;-0.70745414615750002;-0.51608203052068902;0.69736710387771383;0.78371949159100096;0.74450116312760573;0.83248826207992555;0.65002047874763103;0.43523217131170505;-0.81533927896360581;0.90137273479306057;-0.97297738312874671;0.93952254455040152;1.0893444332691804;-1.0620474785097282;-1.1547412079464292;0.74836380918407264;0.98622704046976795;1.0445092079047966;1.1207977696985305;-0.9422460133935896;1.2139141287005222;-1.1337807576414736;-1.1874403994748104;-1.3909081918917163;-0.93824116868446361;1.4144418135837895;1.2753605600185633;1.0431851465438871;-1.5940875184306533;1.6055270063284539;1.3456395982879317;-1.4681418460273159;-1.3472074623129071;1.3641611264601576;1.1438274550158825;-1.5302891334336275;1.7392089321514936;-1.4484285057496908;-1.3519028771836579;-1.6990045657932145;1.6269802873026875;-1.5289763101800991;-1.6372925112196453;-1.6611714988677966;1.6792699200904804;1.8146938806772392;1.9254260046540566;1.5955621371438882;1.6998896973454087;-1.5998287710898018;-2.0074992865618371;1.7714545697668054;1.8731971592926038;-1.8405039370852114;-1.9463837254028493;-1.7972215988108129;-1.985954757534881;1.9795607408071501;-1.7942005643682559;-1.9167181650288487;-1.885472923917437;2.0250780641499402;2.1328850292284498;-2.0890515786438311;2.0742421361038814;-2.049370631610794;2.204983413047644;-2.2064114558225567];
IW1_1 = [0.57624741049448802 1.0783836426708031 -0.12027842053351212 -0.19946349379617606 -0.66275685360115755 0.67548378428269162 0.2300350030516444 0.46816827407752626 0.8923488956192096 -0.32325758101911578 0.36297190573372368 -0.81962664268935781;-0.50808145705161323 -0.27308561095963074 0.61458757357807314 0.17403348900317298 1.0549424228756723 0.54569017529268937 -0.13135407359973264 0.36265107296455856 0.81888289059601815 0.0037752809012981973 -0.10116399892766006 1.2031355509844657;-0.79469862937981761 0.66342152286802225 0.045620519484872391 0.39986665618631873 -0.55112713980933381 -0.85276721895318741 0.33220663023291158 0.24450274794767635 0.089530070004991788 -0.85964579806727792 -0.93013268787305747 -0.87392347064982856;-0.67021226809672696 0.85671493740500793 -0.63284738706450772 -0.56605087213587701 0.84630091961658205 -0.11707971690062799 -0.3297262866525611 -0.33067303951186494 -0.6511890446456966 -0.53666325937295234 0.70006293328368174 -0.17490191359911417;0.91273659221428494 -0.94520019201984617 -0.067170893635113388 0.65121824756483537 0.89643092433706639 -0.034787918176524595 0.8929339263339956 -0.316010416418119 0.8302077452431208 -0.25033749702973318 0.12396190713507858 0.28717547525653447;0.95470804626130112 -0.81785584714743698 0.9473744409081174 -0.20695924565389787 -0.10548448373238323 0.041614010687729922 -0.43027017794357442 -0.91292942014345457 -0.44797510401020785 0.092456185902699148 0.62322163300968936 0.89186982753389743;0.20851443223380844 -0.97009977666597713 -0.12310709408201735 -0.9172340108491206 -0.384313259411179 -0.17219070962749067 0.7169086538437478 -1.0626911178101242 0.23822441500512975 -0.77132048462104075 0.68365796011941626 -0.083421063369177997;-0.69453033084728999 -1.0526847714103293 -0.95097582213403831 0.39353339284492767 0.19778573586466483 0.88013313147897421 0.94095389336009039 0.37957492700921341 -0.70680922906494059 -0.20417556132497927 -0.005066114353647979 0.98826480741844169;0.16375123096565278 0.10062569308158154 1.0926241941520136 0.868887931051748 -0.47133967066310933 -0.66741437127909042 0.88879118796481504 -0.51012135937819914 -0.33290553925516109 -0.27672305216906123 0.47859599728953878 0.74986979415960264;-0.0073994208719632606 -0.065490734479796156 0.80378518593437487 -1.0836438811268676 0.23148692037593394 -0.21635637150949485 0.64539869048049037 0.45414252387205017 -0.45323208492430284 0.03082375362293583 1.0110250544419224 -0.79387902376743591;-1.0311085787319252 0.42213249174238354 -0.15878627658865352 0.88532528109111941 -0.22332910880205858 0.16640615391165059 0.40285151214741871 0.89311106547596231 0.65579492813124163 -0.53355249570585861 0.27335520533152591 -0.78407949335829519;-1.1797015391417995 -0.74842627522157701 -0.74501981615692747 0.27043418256172091 -0.28528369511159346 0.069176239078938634 -0.24909692589543636 -0.25531041474617822 0.22242802527936159 -0.78890182985604862 0.49652523853828595 -0.049498584642233417;-0.86117847021062977 0.60939249344961621 0.77666824693259562 -0.76238691860768293 0.79300830892031859 -0.28892874108860456 -0.40042627187610447 -0.051623759587092706 -0.20236446337089989 -0.63755565390672297 0.80638342351488335 -0.028472199909821316;0.98767395189994833 0.72174951707465995 -0.04838958269275255 -0.68867531816625316 0.072987965031368285 0.45021945762016807 0.086247855228402184 -0.80371220310577463 -0.73961481397750006 -1.1073225636651163 -0.17710055299368566 -0.24194002213210478;-0.69130244263498752 -0.44461040890052295 0.83597564639175959 0.73758659566114759 -0.62038428566974813 0.11406738142405093 -0.64802303414413875 0.85798309472624057 -0.53787225825926577 -0.19770071367857242 0.60946422100727282 0.67465718821649479;-0.015346325471531055 -0.18385570918193309 0.65114143311320316 -0.28558326803549305 0.79337575048265818 -0.62928722590535802 -0.7732607509940933 -0.64944096399515483 0.3842697746511346 -0.68380111024932066 0.76631909508871943 -0.77660596753691857;-0.15166954627800427 -0.64188555198125019 -0.63032002045889801 0.2251294470820443 -0.1600961936903624 -1.0481431423777525 0.44586038253007787 -0.69207672632628892 -0.57254147243730957 -0.32447222912462903 0.15563104075552606 -1.090762517921873;0.79392676336456136 -0.64617871000786797 -0.65405416922085946 0.75014554675600842 0.20861904916045018 -0.78708734609953923 0.36498282863183429 -0.41519542015442346 -0.6719999111430669 0.66808433243331522 0.76603649064403834 0.55352490153512535;-0.34695323360915586 0.790154083364636 0.51671574179696933 0.0060846720199604397 -0.68564875471405473 -0.50139722371845952 -0.29001471579568122 0.60273654919108044 -0.89650933025040147 -0.39216786957704158 0.19572215768469531 1.3170050842440753;0.62099445039881151 -0.0053800942266083 -0.8008959592330851 0.28289024512227184 -0.45208471040835624 -0.48416166669698812 -0.32930777603322847 1.0121422653969123 0.75231528815355442 -0.69517341895677254 -0.91712947913035525 0.32760157397207668;-0.84469129558921452 -1.0832217774626394 0.18481671585977444 -0.53742697917879689 0.13703442902237478 0.0022298142685835995 0.91079003498963207 -0.087634011312504936 0.56754477738221398 0.5265967505977589 -1.0361501812667802 0.71761246036879933;0.74780704331215875 -0.41574326323378613 -0.63265585403480851 -0.27379917726192488 0.18975541183846273 0.12760148576104774 -0.59286430429232051 0.33568479100688897 0.59580522834066396 1.0176835812759499 0.33683273901224287 0.53063003571156142;-0.94563232001673558 -0.60198604230047648 0.70551070317528963 0.064879627604700035 -0.21890750110356105 -0.55092218417256522 -0.050579192579079217 -0.029697030432874576 -0.50646175342672217 -0.90438566296035783 -0.84344648396873056 -0.78953188352792125;-0.57678822739954749 0.045955677761042882 0.99501623086402791 -0.099735142997748882 -1.0163666913678699 -0.2545674553540917 -1.0117350685004325 -0.91666411603943954 -0.2451335435519405 -0.62845740194856536 -0.14926556547845191 0.28880140366477086;0.11877481992353263 -0.39035695928834135 0.30948820010923794 -0.78691821742947321 -0.25331284089464501 1.0176002666692889 0.51880518905711737 -0.5200481602968231 -0.4327927947930641 0.16390989807934578 -1.0833595803825673 -1.0068097410273535;-0.6401479022539609 0.32296736380232388 -0.93428315917585003 0.3956278026804928 -0.25044090944953401 -0.24172019698248054 -0.65274449981059324 -0.54117499665706847 0.93472263570207137 -0.29032829743107225 -1.0793208611062264 -0.27884328319007234;-0.7786860003809507 0.72046176151772057 -0.73383964747791997 0.26426502631285248 -0.15473620519528056 -0.75864448935648277 0.16844518465446726 0.68710375012966995 -0.78104653252204292 0.93568736205210123 -0.40419324196142231 -0.32039172411694805;0.72625557904959248 -1.0549567114194451 -0.39126381731825965 -0.77380808307950566 -0.33860970316285022 0.77432412898732972 0.0029585440716710142 0.4794135338711728 -0.037160352087281023 0.38360450673155488 0.18973865506648302 -0.85211911489632708;-0.15087647176602037 -0.90052771672984544 0.33515601350902047 -0.2463119097516058 -0.76895594114919075 0.91036552593812958 0.31924078042239484 -0.48185594246195468 0.71239262771558043 -0.71496448143816926 0.66277996917322513 0.36022524831993941;-0.60376440993377012 0.8017264336217067 0.12912544377307467 -0.64624375391209588 -0.45666242339881685 -0.99778757156025655 -0.12160530545794979 -0.19006541768444557 -0.42554669149856283 -0.47756522171509935 0.5158858317080629 1.0047355136480811;-0.065477067113688767 -0.4012711762532109 0.82831888811971388 -0.15433089307314057 0.83926693036416489 -0.20491496254226346 0.12263167723289396 0.85603552887250778 0.5734197881550599 -0.6729747263358139 1.251848460026487 -0.2022782971033254;0.68162116378647264 0.68113543939491517 -0.27920725161786886 0.74711050955049607 -0.60253927131166618 -0.52695452892805272 -0.73802786209164573 0.14995783181478131 -0.6693582350424313 -0.265541868166697 0.57855745221082278 0.8615627727500571;0.72683507597551589 -0.30377139036447143 0.59956747407258593 -0.82136602823777749 -0.70893404393445814 0.694085433875967 0.21995055195406535 0.59593795961084495 0.51341259244945769 0.13028615852212447 0.76723326619266352 0.98014597905329814;0.086851575385911747 0.2503385780677882 0.86356657253248614 -0.72928330950553721 -0.89992677589664993 0.81604711649314943 0.91008641329755502 -0.080739014546904186 0.3430093058725836 0.6471842855363833 0.37271339627822109 0.9140601090864201;-0.57831443772388336 -1.0151195308993783 -0.22493827145227382 0.62380230702940265 -0.8406590951722962 0.73318073031864162 0.8805328816887843 -0.54078278104906596 0.81996441558826716 -0.15120021605660366 -0.49723216392318337 0.078441737707949599;0.43818338639105908 -0.50330089863251659 -0.81961541302486396 0.66443976364595014 -0.57921473745074314 -0.076506618436658846 -0.92234887508868146 -0.77785597758203839 0.25605724254295725 0.32741914320672766 -0.5788690883866302 0.96845988919117432;1.3126291327575659 -0.98598954908805825 -0.60121298320434202 -0.28559631452700462 0.01988071609437889 0.25681203251435458 0.012032326893148529 -0.8596470611389615 0.84856891950259372 0.42117793500020917 -0.33618436125782619 0.47178891869810624;-0.89375851191383404 -0.90149803777414783 0.062668810554036655 -0.72519564312239504 0.51122054676782236 -0.78750525373398306 -0.4344445652614658 -0.022306263242351888 -0.72907999358703923 0.47942098825026991 -0.85986194416727757 0.35995409460402411;-1.0061053400401931 -0.68496454718816902 -0.16866061823357528 -0.62892790879872928 0.20484469016333634 0.39641973486926946 0.64473747138046023 -1.0214624576581581 0.40477219582496227 0.69642920549571208 0.54940090174207001 -0.50650584997567549;0.31375474244540208 -1.2606691920779716 0.56716188979539728 -0.047653662615860903 0.44414422900154038 1.0798069259739758 0.27808910846693691 0.95410661929601992 -0.52181133723341433 -0.50040344112851176 -0.063873618356439038 0.26922810973268041;0.96376654807264805 0.57691401077258198 0.31983057727919517 0.4367288075217941 -0.3098186249841498 -0.38499404036379026 0.4082467418212154 0.60859426102275793 -0.98994026607291574 0.77746639288855957 -0.29524166756644599 -0.16402514237678004;-0.38891984396398493 0.44701098088141794 -1.1886036345210089 -0.78648976181169306 0.092627009242185782 0.8021684551189352 0.4072277618024851 -0.036671560009704035 0.25410185357554882 -0.56725581339931208 -0.95311770438479049 -0.52633474300472627;0.95758285406989252 0.93397535408748822 0.36619127335739643 -0.20237288249889721 0.010236625860829464 -0.13944677130370772 0.48961346263871891 -0.86212712893189547 -0.60636755428920286 -0.97260973469062584 -0.17958546688690449 -0.14626450075801506;-0.58075482714370152 -0.90873655266698206 -1.0713883340337012 0.5320662035830519 -0.48243842440938745 -0.85970559183229267 0.34365475587615385 -0.36154045320429296 0.69128082668864288 -0.54804046775532722 0.60898130167632725 0.41870300719667164;0.99456360307588376 0.35484599438153586 0.1940530407076112 0.29231133382813079 0.35468964992568885 0.43094016772364463 0.21885877221265784 -0.18220346734263204 -0.68962682884830617 1.1080929622941056 0.45542343977980115 0.19551125569353439;-0.5078586968331692 -0.82373917196463831 0.42765885886041077 0.87222701327147611 0.67952310842841301 -0.10138842160967196 0.28787384093316998 0.30791941505331522 0.48229093286913677 -0.41032358079520148 -0.94408111510812132 0.059963610211479466;0.76900144066946552 -0.65635250175039084 -0.038078204900702836 0.80863479345045663 1.119715083677594 -0.77997797630955945 -0.070440634879039482 0.61540996604198173 -0.77119055184901186 -0.81639741631352603 0.30365221132146758 0.1741034326855147;-0.40706833523338232 -0.70625168791925474 -0.47944713716771775 0.97670180328670364 0.2005144945716823 -0.76398558272190076 0.99798104335634386 -0.99524751033615644 -0.099748726531814186 0.16557427930850707 0.35064101985851848 -0.35931376792371478;0.62782259751383784 -0.079983693975544168 -0.55567718398957699 -0.47787075019840031 0.36260476914082612 0.91521373086512925 0.8155137999793739 -0.82081447917082473 0.59405264071571751 -0.32266440674801933 -0.9916206150865845 -0.45568567378123792;0.51603144049881777 0.30351168772869153 -0.73433146840147057 0.52269040692310054 0.19147523658752141 -0.086819198344901344 0.95335170720462958 0.023092920624686212 -0.69862707486613318 0.13684817970094154 0.45259283554838509 0.82678820640677564;-0.10804983878142738 -0.35172563797000916 -0.45123715094212757 -0.85663167257786543 1.2844194008617886 0.26331770267604609 -0.41860625868691959 0.66894490230937953 -0.88378154620842087 -0.66104222199904406 -0.52108232415485245 0.65312545169532932;0.68160671829781394 0.66703826597547833 -0.86424359328494593 -0.71020508507994884 -0.53742376710858863 -0.90680806124981628 0.61502528985205596 -0.58798364938949088 -0.027380769325571142 -0.13778414854317894 -0.65465343642306473 0.58985175900306852;-0.24670758160331313 0.62927799881776469 0.63811726928843593 0.95126922079116827 0.18750249123031898 1.0782418776022897 -0.64009453202627287 0.3515079302098334 -0.51086821241230052 -0.5695340594768673 0.053170933392274689 0.82590714832604428;-0.51006772124855593 0.6702520986362468 0.062608313191121534 0.53297585482794352 0.68125378035491446 -1.1587984209503259 -0.93803462873576748 -0.42289386267410517 -0.10026560913175464 -0.47596704149872399 -0.072369819060030691 -0.79775430118524859;-0.44349837011205462 0.74475651666521303 1.0363395175660703 -0.30290573133948701 -0.1055745791834366 0.93255947862757704 -1.039434194501041 0.19213196185477291 0.32188449495996641 0.61994896473172834 0.35369718248128429 -0.38976711008750164;0.57819247435667631 0.62660219243669502 -1.7130780884565135 0.80853398905389806 0.12322792720940956 -0.59249087161845149 -0.047204356463734165 -0.16570562596058136 0.021270065415731634 -0.77674264276691452 -0.29241016857187024 0.41097681621778154;-0.080142836338302756 0.077064955868684004 0.20238836277405006 0.38791553370691823 0.80337260269483624 0.76226073920746074 -0.59074170826880679 0.27288766480201948 -1.0573253243840786 -0.74302451282885906 0.24805792246533981 0.70294143263210973;0.75882092680695046 -0.29066045844446586 0.082939217137223853 0.56901396838468987 0.38360967096601889 -0.56441231696407879 1.0805696779943703 -0.18641889952022939 -0.88047775632914971 -0.80081203852718852 -0.32830438020605274 0.014058566659956572;-1.1753687747018899 -0.16624905905738294 0.15972760857557416 -0.67229252165505216 0.91230873561944326 0.42066429669003452 -0.10040122071448278 -0.49532832461092746 0.1992728436250529 0.8558450935259484 0.32698632953003154 0.43231486283230769;-0.064977006214286245 -0.47666699397055484 -0.75408936031974816 -0.15690180814379021 0.30339488621272748 0.29973454242196368 0.90069174954264442 -0.17869186810162602 0.082083356489511497 -0.24177966620826311 0.87273542148718453 -0.34677331699460451;0.63674028131955196 0.46647702734679675 -0.34061356441102875 -1.1441505684558824 0.76322914473408898 -0.4807679605183916 -0.88355757478441832 0.49747486389764761 -0.36952151752264889 -0.11409371595680924 -0.16916897576995291 -0.60952696527252637;-0.20325396086497566 0.48448170096999432 -0.90436138109971864 -0.31376978609805928 0.30315702727414218 0.28670359620356489 -0.004482597566684521 0.20192377599751893 0.92342577157618233 0.64911057587989307 -0.96086025552077847 -1.0053806358305539;0.59594545092532458 -0.52706086263972041 0.19285154935859586 -0.35368802870650462 -0.18682327083421774 0.87372763964835798 -0.72934810692416541 -0.80734815643388158 0.47239952661035445 -0.15140401511324264 0.50253099300662341 -0.99826996428643011;0.95061476681941393 0.6452245007046622 0.55892958226166445 0.012782883923959501 -0.89649773813947098 0.47649234041039301 -0.8195492066703024 0.98091242186071015 -0.48606395477661613 -0.92268506943804518 -0.14409746310896174 -0.078312119162430402;0.82269483497762097 0.95909350018044304 0.61486381062810025 -0.28566640604307519 0.11475307128510907 0.35098906688053455 0.34767925862840887 0.49036142369807678 0.048547495067397556 -1.1514725227193758 0.62880530033942084 -0.40011234924664607;-0.41553768110288852 0.65043073100621174 0.55050804835169642 -0.13787222324301018 0.9015593291062205 -0.43036099289298507 -0.78701300868079715 0.93188457975470551 0.43266577769456677 -0.10267581978490102 0.773402453143198 0.72382345691633621;-0.38597716690960293 -0.60309223498755715 -0.061787043552093537 0.67061757295964486 -0.73691089888538486 0.89489610912829176 -0.17540774364658879 -0.65062722534908934 1.2066455793862321 0.51176265434385415 0.55705575723340395 0.58625928190162246;1.0008516295055727 -0.69439020991109512 -0.36055274982034996 -0.10787247421974974 -0.206777873566592 0.27812619179941306 -0.73989935773775339 -0.14172344427211994 -0.65321962395080535 -0.34114402308496927 1.3578130539914028 0.052219121051170631;0.89601700032181653 0.72765127248026717 0.549832267562951 0.34970631378367584 0.81512690395926368 -0.2547509311517499 -0.35347844857568594 0.1817103899133774 0.78539529136925523 -1.0408583665106232 -0.44316218895924875 -0.2718292347741838;-0.7456739044741364 -0.75278429340172559 -0.25675003228134374 0.71829738801580534 -0.11357420448213763 0.68376336927003023 -0.50786874734266907 -0.46382480085004346 -0.62698607384134053 -0.86242604933199984 -0.22328038752623841 0.67229712311605672;-0.29060005724384935 0.52556529943229213 -0.75218177341914083 1.0352628487588971 -0.23475999729344199 0.34636484104848031 -0.56630814073905966 -0.58811868027493963 -0.37742331712636507 -1.029326548253944 0.87441156653046803 0.88848911956004006;-0.15773020110208125 -0.7609413239917443 -0.52059252841828285 1.1091333685591973 -0.94551260944953119 -0.55434269922272772 0.34400124269595761 0.13205469999279348 -0.73424887861990207 -0.68148189221449984 0.58770008224230419 -0.44443848446750939;0.14146395816437696 0.68380028429120698 0.51883000893658882 -0.83464597530942231 -0.40389261797002796 -0.64608405916402656 -0.14799219949980899 0.074612672879585257 -0.11398454363874053 -0.85583497032267519 0.37621077612576409 -1.0830136266731218;0.96759676190892252 -0.87884843762625908 -0.049321911546462281 -0.84695173803183255 0.62798057927118878 0.31663023547934355 -0.19863499007753074 -0.86399413244116763 -0.031532142549677553 0.17791524865978159 1.0788654002440825 0.14365734812911601;-1.1740291866406418 -0.22218324409454462 0.49767660158277272 -0.88184638265651416 -0.70795262860853136 -0.45782838882755772 -1.1364427612241887 0.77163153023592812 0.063030265552293491 0.42367664285314843 -0.29985238539702441 -0.54787976864574583;0.63575781210522708 -0.12291619411596444 0.59798579684564979 -0.72841233418409579 -0.54065600338018671 0.29373381743299876 0.75032134093749492 -0.45820904185323874 -0.24982995802486321 0.3688190024299125 1.3226928614908469 -0.80017201893360446;0.030317721211757125 -0.52817701934718553 1.0992404219977916 0.62846713164730927 0.96438996471340788 1.041697499779894 0.16732501995916396 0.021725613307134059 0.21807779352737888 -0.51078690640608171 -0.3142717455597196 -0.072761979325846812;-0.79285611000391887 0.77401183834467924 -0.43565733083595037 -0.020833096114646822 0.78902278597850461 0.054226605221977531 -0.42505308049142221 0.0043125178994678701 0.60794078552491804 0.34394927952171545 1.1178178405129953 0.3135130905775067;0.012439602754698426 0.67199365933256494 -0.08305885092977508 0.093368642553965459 0.39518686003708664 -0.24174235491768004 -0.25177409111818055 0.083801850837638026 -0.93033647727369895 -1.1202650322770742 -0.82885641498208551 -0.73276148308052969;-0.93751556908463762 0.2528757269984927 -0.72364906306731902 0.26005153435575445 0.045232109806988927 0.32299420036853355 -0.016406262830328144 -1.3529769052564089 0.78904993406750834 0.1555137657281255 -0.52335112871558198 0.98402871383146306;-0.83286882476527746 0.49978642082225744 0.049216172671127989 0.94225184425306219 0.94964568417230788 0.038419930075822992 -0.93267558653823612 -0.23667229880299553 -0.39566348985544253 0.033317939957115482 -0.33140431678467186 -0.69603461266299282;0.81942752241818206 0.37203203544082852 0.0057921775018927694 0.44445636903989383 0.26425051935887628 0.17421596177325666 -0.069498136003446426 -0.23731840044743946 -1.2675935342143838 -0.88956950716828143 -0.037903901203037806 -1.1010623318031463;0.0024161343933009312 -0.37656411491663111 0.80775603330080104 -0.88926711050344509 0.95916401815663843 -0.54468609691171366 0.16297252817828053 -0.854620659531941 -1.0458418998995049 0.46211281300607382 0.11022601810074938 -0.08687522336370547;-0.43120705815447957 0.6823365761028416 -0.5145937104816829 -1.156722528391966 0.16388075237301591 0.6854150946462455 -0.49535070276139404 0.33893743767223206 -0.58080836247726197 -0.46572921610893575 -0.65077365661190101 0.68243890282159092;-0.58015467287047595 0.56093898772096951 -0.10139834540149803 -0.43360392707702272 -0.54100125919783681 -0.38937206163977878 0.36779152967609574 -0.1324773930894651 0.18620986834730902 1.332122802411599 -0.47223838964001391 -0.49706829042751072;0.97474508199578691 -0.77080931669408737 0.51061662550460252 0.095654916059081066 -0.68651151532608234 0.20499544165801073 -0.54271234700770909 -1.2495522507296588 0.70616151305044028 0.25146502002935206 -0.87266052778562408 0.10468120592840431;-0.37658063082035492 -0.37820249474699008 0.83793534870667352 0.66296196849622047 0.58982277916001569 0.48913779578326588 0.38244821217518143 0.43733424777511354 0.14099344636838476 1.0582912295019908 0.72817538950982552 -0.7931564006431121;0.47880072406309127 -0.32854701449559276 -0.57523368420921317 -0.61440843236247655 0.47502294165870157 -0.62722703279802372 0.8853222787296825 -0.051310948251313576 -0.74889499711797902 -0.93873308270745737 -0.92076731147802449 -0.49114142504923042;-0.22242293920918077 0.27290420053245884 -0.11368271501400508 0.560794315565739 -0.87292736539436799 -1.0359972423562025 0.37039276276248179 0.43704246604861785 0.82766000466530565 1.0014198088383894 -0.47594584534994372 -0.46526972130301042;-0.58552925486623075 -0.50114148579091877 -0.11866886076990261 -0.41488855353263698 -0.20054909795343476 -0.50298341681921699 0.72194647772029896 -0.74167826211048959 0.20896903193225594 0.17268183008354207 -0.16759564559738294 0.9747849738906923;-0.50744452263119755 0.7447883667438181 -0.097558687812835054 -0.60814613713530385 -0.17786480456883036 -0.63029029732839914 0.56718954235427832 -0.76030134296421781 -0.73263894513070926 0.90673236423279113 -0.39741705966999941 0.95435282514301012;-0.44485546503139811 -0.40478580183491264 0.62459153614201168 0.45143502283735998 -0.32018026471759092 -1.1337724363150876 -0.58419153498294663 0.5000417839641732 0.062149561426707904 0.13435749266506425 -1.1423463802740252 -0.493440264469097;0.21316485880545943 -0.18568013947780912 0.2717995375865887 -0.67983075871626797 0.85237014905557995 -0.39449772766997676 0.54789780634834928 -0.63616434876004724 0.17949220456034598 0.71729379737290233 0.53109547607422969 0.015273207334279087;0.79831327896529336 -0.30616408792039529 0.67358178613876685 0.9374642393951933 0.76523108539735452 -0.30600793156923378 -0.050800414888832454 1.0259138977044016 0.28906827475544666 -0.42491950169083614 -0.40899234904658938 0.7094944514370265;0.021247405012543033 -0.44474056586426847 -1.39224422245917 -0.8265424437857356 0.68038989473704492 0.073600128373789514 0.0025117479809009463 0.33575018773970172 -0.87918339003067736 0.18727113224985314 0.056957108707519515 0.17826258118673519;0.1017230080375587 0.90543579942994523 0.26647616405827418 -0.43964824733274477 -0.13021384317043741 0.21303203135644844 -0.13579789378429144 -0.1851434962111938 -0.024528313740862361 -1.3273223713817679 -0.80867410744716905 0.033367816706165364;-0.20290347131089492 -0.33599493032307715 1.2295425623596534 0.75301468719584252 -0.67974604068971611 -0.18344177170521997 -0.21057730092298105 -0.46287293137590652 -0.78745848864518786 -0.39379608882343847 -0.90943550789044991 0.20585491918191565;0.74602208746115739 -0.31988709412651939 -1.1430664816914795 0.51798482879757068 -0.1486179510943676 -0.83859053208643775 -0.88426988943614104 0.47149813365573512 0.39033105383086775 -0.21172620294244543 0.6498876783184675 -0.47555955901915631;0.84603421714036176 0.25448027586629274 -0.33582696965532199 0.80723439385529383 -0.64773224741447044 -0.86639682089549275 -0.69721297106125557 0.46685553785952499 -0.68034858227947503 -0.9482741386303476 0.44972953021635892 -0.15851637937006824;-1.1996791242565819 0.75274944208328465 -0.53196942026343941 1.1126421600934651 -0.051693581369563861 -0.31816953850420759 -0.34354008510150641 -0.6893829903725639 -0.16238036640574208 0.83627305135707986 0.0050295758840068691 0.10646822251404629;-0.76922360993447791 -0.43797580631354688 -0.77336497884957944 0.013030005674454573 0.25218790333159313 1.0200706349402833 0.035269638700020839 -0.21800141296968942 1.1350525551404658 -0.18944679684782956 0.40819298513340863 -0.65604194859990905;0.28957745715295125 -0.44850217719614677 -0.44095209813830516 0.044330623586050159 0.49291784215977252 -0.4604896730456185 0.57829049878924721 0.09997581534539135 -0.25047903698931917 -1.3280640301443327 0.31353960249772411 1.1561211232267214;0.84581602245311727 -0.4983335083732352 -0.45378818587443376 0.82954295793321631 0.82795019304508344 -0.15673328421918772 0.44528552428064228 0.67988703462639521 0.77740943606905222 -0.48756192757557987 0.41955882197941402 -0.81193676965618611;0.55750009070267892 -0.29858849339614218 -0.23753188871257491 -0.38014042993849295 0.80482070953704898 -0.681220557129118 -0.30365565367685271 0.8649127203226975 0.067439488582948307 1.0881570900269899 0.29943494347985461 1.0257912424583411;0.018193133300357801 0.94692435885095716 0.080654406897719993 -0.1876457087435979 -0.47466766720302139 -0.20897148136889096 -0.4129502450679603 0.88976635713698482 -0.096659001679702594 -1.0207386033198611 0.47093557767915278 1.1166461538450672;-1.1945677691316645 0.051509157736377716 0.64920065912968028 -0.18697815472125195 -0.10695432613583536 0.54853445429698744 0.47435569264445004 -0.73916114124410648 0.007495111025251678 0.48740138329698396 -0.82538192067498728 0.88547068507812432;-0.60221916012266241 0.69202471749292005 0.90445650386105558 0.49669355952699545 0.86113031040918198 -0.65029888011891168 0.36434719026832235 -0.074565390932689352 0.49085284985018224 0.81614238723020549 -0.15555301231594254 0.82539441068780572;0.016330429210132336 -0.7456085512114794 0.51131735743353146 0.80929974529922988 -0.32665268956747923 -0.42516509252052087 0.0065840630746882185 -0.8522952846299755 0.4229439221213051 0.60523768492338326 -0.58559112524180601 1.0013827575257759;1.0238115201470621 -0.049567476206470507 -0.59152083797140942 1.1326712332931421 0.019806081112931636 0.12066432355435126 -0.50067718345118728 0.34487767767398309 0.33334614013340219 -0.8042737817629535 0.3344222245637169 0.31783639752643122;0.5113695188195817 0.32229262420295235 0.34653925000221047 1.213338880715592 0.78943322996855714 -0.59406830756907969 0.95126644167514951 -0.38160347269746003 -0.88158124238147961 0.099514694760535954 -0.28584685611756883 0.29944429088324531;-0.65914707007239537 -0.25299802947764233 -0.84961964485439379 -0.20485089179556037 -0.29858471397447289 0.83806163700131919 -0.69633320713247027 -0.51811683812046727 -0.0065731076879577063 0.66615619710576668 0.78495520903362759 0.10718247709184378;-0.98802214094008833 0.6340126024981404 0.0042517903744098522 0.18206027116909601 1.0922653544209042 -0.80064210418084514 -0.80128394211802412 -0.42544609683019552 -0.66053806801301762 -0.90262215698841175 -0.17928065017974973 -0.67230961452496374;0.62142534759772527 -0.59422647482056723 -0.20108227026019837 0.56254868766817878 0.16196415289642313 -0.10477950092793695 0.77167502977809443 0.50411649272645376 -0.030025870240678054 -0.45249766101486782 -1.2959112859428881 0.69635148674195313;-0.71051046088769232 -0.70157639496322544 -0.51143453843698694 0.34597432258787802 0.93543000063444592 -1.1176844251031615 -0.70193203989256048 -0.52858841221301101 0.089518336744612709 0.10988161992503445 -0.076981018441110771 -0.57846569493881572;0.10161025217166761 1.1931849005866546 -1.0724688744087119 -0.46370523279853326 -0.91278013321624529 -0.016893321088400963 -0.21376571894063429 0.64813713900644454 -0.52999905517399071 0.40199047743415478 0.81871405830600907 -0.034647569845243649;-0.11746223760584804 0.33843194912634889 1.1092838196887356 -0.44599055564488788 0.4950162648116741 0.1693714179514032 0.64949400218102882 -0.65630532261411556 0.8783117605221602 -0.15947773006213833 -1.0495228169631681 0.38745103329283226;-0.2324555856255516 0.81184982377290005 -0.24771645484726884 0.4988120082305984 -0.43841366193789205 -0.76061577081733023 -0.45496735546640615 0.82291395228708852 0.45996938404374299 -0.47164117266624855 0.47039588894138118 -0.66030553099657663;-0.90147751918960906 -0.7879920404053955 -0.77902335192933281 0.027830950953404938 -0.56503798253410253 -0.5609790788496043 0.72068047978074057 0.52465573421328127 -0.70218564280405527 -0.51754623663105681 -0.56507612232744364 -0.1244337816240858;0.40756970655769087 0.37590262350076137 -0.11570806850656665 1.025401359888402 0.065541652565364844 -0.27020304750589752 -1.0825461470458462 0.35778872872926271 -1.1606447589734594 -0.048647376692411884 0.3541731695667607 -0.51582084900729619;0.29751782559539308 -0.66322488136070645 0.78006109131661949 -0.94706945237481421 -0.78338177226133299 0.19503486242025805 0.861441644897187 0.25376102526068539 -0.78398513607252929 0.37324439001431237 -0.55515811768267453 -0.27263465937343878;-0.50710623181606018 0.16225963685610095 1.0935838323205598 0.41751906418012608 -0.29186279666641007 0.87138964671422925 0.61195379378961889 0.6359760930030004 0.074016938855467618 -0.0418104137308664 -0.99996104707465949 -0.5001970033275418;0.70940179352563626 -0.50320869603301255 1.0221968459675166 0.32445335382375889 -0.79611729663979747 0.28360560775989468 -0.2421673649226059 -0.086156750180440028 0.76345552808505401 0.70975441771334968 -0.35946078218111643 1.0316580897528185;0.32945708862363754 0.1217700231351253 -0.60436459336781656 -0.81689939404187872 0.80142838560855612 -0.33162418778790087 0.54753084161824217 -0.65337116343617174 -0.73387217979469599 0.074675489573262324 1.0262268422485301 -0.83507316426870359;-0.17333988632528233 -0.48035252496069858 -0.38636152759792353 -0.045806010759348363 -0.46319565064446833 0.27938081368256362 -0.93154689826918435 0.79097098629767126 -0.42114354253169833 0.39587564420428911 -0.93606746482258074 -0.80336680350604039;0.36302584008555361 -1.0826412743661797 0.92349803713325929 0.39129607095973545 0.09187326505211163 0.52822069606189226 -0.1813402503695121 -0.91282820923811825 -0.55692510091928005 -0.47171154900223089 0.86326395614648332 -0.61184463862488547;-0.15153416083473675 -0.71935533976874633 0.81270041134869941 0.43383087507797108 -0.51517607736196092 -1.0664875339531967 -0.61488312324070415 -0.62420421469378029 -0.1467144352412787 0.46869917898743652 -0.92192444960951836 0.22121150997069747;1.3056663104793049 -0.055883398454939934 -0.39231742390872576 -0.73483384567908361 0.40184185826984292 0.70030971325973868 0.14118737173975576 0.15688647751497917 0.30703403336630258 1.2967098720665216 0.86701547383177746 -0.92187013283055652;-0.46437854694259789 -1.2555343209032155 -0.8498342190855559 -0.85775013880803153 0.65509047161431955 -0.51675882382471494 -0.43738146349013357 0.77135846368021432 -0.1248578221964574 -0.91769951179386555 -0.41829921427334338 -0.69731253181096509;-0.90090467537179808 0.5540104497245244 0.61265704093959727 -0.13589747516035738 1.0649055210871599 -0.2747781557058781 -0.17201696709693715 -0.65159872180563849 0.29158522079055049 -0.16833134566265245 -0.69885961546993169 -0.2329323441570067;0.98195420205570572 0.72413230922962424 0.35762886272000571 -1.2904346021440152 0.13491719635955404 0.25383302507780725 -0.093375198860176256 -0.71365260777379413 0.77102085810866305 0.6775714751260723 0.22957977603106744 0.54504404596541367;0.97316053005939407 1.0879557780607101 -0.29479247000087361 -0.27652695737847927 -0.34193263198597595 0.23334786679353245 0.52137914535814744 -0.87314886332462505 -0.58071857559994433 -0.59374384468531471 0.78613746299230536 0.26652075052725321;-0.61464743939882449 0.33574623838711232 0.36354652414069 -0.81926060564351277 0.77570804494741386 -0.70567461233262385 -0.69777365216941178 -0.78674133992808826 0.53688128661997692 -0.30971995322689061 0.62683790430950515 -0.084620870243176161;-0.573638135852369 -0.85425561402739802 -0.62749583345553306 -0.57219853552288336 -0.50776202911243506 0.11592792391645336 -0.58997417090915827 0.84258683876736984 -0.33953437412111526 0.20992955563041946 -0.67926924856585036 0.76109813616453281;-0.2749321529821438 -0.83253307997133053 -0.96072042294822824 -0.46568489466539154 -0.55365459877732837 1.192940938139639 -0.072739575818172184 -0.034696203956375862 1.0053426975376714 0.088484310193257781 -0.0083363652520407634 -0.29686969037698224;0.27161549174495092 -0.41296988820361297 0.80127946846490516 -0.62062104165476406 0.028013896882615685 -0.11089931482313366 1.077289920145885 0.027616168547670673 0.87736341917014915 -0.72558401646600579 -0.87856105353812031 0.63779558880441667;0.71324103920517523 -0.025565366954572597 0.12482817115007851 -0.023938579160366028 0.72210997423799794 0.23333823060239503 0.16446469574312284 0.21777367808653392 0.89050556666620551 -0.32942348375765207 0.99401270249222617 0.99036666345849078;0.28876452044887513 -0.64625721637111788 -0.4767543661919747 -0.90707860416831532 -0.086460107469722214 -0.99794624875940863 0.6899866385964053 -0.39104302928925616 -0.91217056158171095 0.096471445290617325 -0.94058254427528354 -0.74848319894177606;0.17225870063952578 -0.36092700715125714 -0.87577468560223837 -0.8386732886217646 -0.29567653697353508 -0.1115797421883713 -1.2007478906456124 0.47098511646086727 0.656817109543396 0.92645776038302952 0.50752539275163988 -0.62427312867371998;0.41710069075306394 -0.79446378314582067 -0.30363327162846648 -0.21677274070124392 0.90314175389854978 0.080910730736640804 0.58554414724219217 0.16741181859777454 0.52235088068956759 0.92435072061865442 0.38981624197889714 -0.60831913539088733;0.35031152980724645 0.62640445370003395 -0.87645843989415229 0.5655008114481288 -0.70248670186597717 0.19036680286457086 0.5334936627771355 0.73927793901672156 -0.66321370800794344 0.015176578552653485 0.23628358248851108 -0.44792241956095386;-0.95139112853200702 0.50724969234340878 -0.45708777486929086 -0.5643149050361238 -0.45501625150166242 -0.43150632335474126 0.39581759841019448 -0.9995817132542234 0.87226477215877518 0.41564214969275437 0.6442596685870936 -0.58666892798245884;0.085188395712583062 -0.86924254142075619 -0.95716133000167791 0.46295164947772222 -0.49689539210438888 0.52338047257961029 -0.30782222893796518 0.64484755675444239 0.71110555096126027 -0.92491637344670763 0.84276052130648926 0.47424448041370493;-0.26013673802998655 -0.29595388643370335 0.81669225693583547 -0.67845708685534512 -0.78950107074979647 0.4325330403107317 -0.10849641732965884 0.65280788073234475 -1.2143915537474983 0.49015741279018321 -0.10947364220796361 -0.50821344265821156;0.68027116357473238 0.38808250581236448 -0.19209179683193373 -0.53367476534629155 -0.79753420069259984 -0.054252280366305992 0.30432865456882807 -0.56137380386316826 0.49900402412968092 0.96745712888557378 -0.80753868144731156 0.94966578368698717;0.51776864448551363 0.86499739372784923 0.42359476148948538 0.68124227508592761 -0.24704748725689904 -0.18722091976779665 0.55177542983335903 0.77327990566426685 -0.51737690193909436 0.8727017776639342 0.44058386651085973 0.77168474471960591;-0.42500196838139148 -0.79735965189597191 0.87422124241542309 -0.62845669268151538 0.39016485869213041 0.26363171440684613 -0.51462131261123378 0.80309592416500852 -0.62213372772208286 0.46704844258504724 -0.86967317126238841 0.031741324760343581;-0.38143191625045036 0.080651787054183785 0.21074485031973669 -0.27590852139141803 -0.65014722164140892 -0.3117653156896758 0.40103096742793309 -0.94433574828440403 -0.65896018498693187 0.92793393229129673 0.94411203175666059 0.52951110485571884;0.18466718151858669 0.43658734557392337 -0.79848858525362731 0.33135109769712451 -0.53002347098305791 0.62288900832456495 1.2112353180574107 -0.85240180903909846 0.13965053145307602 -0.14698267387308039 -0.038367801408906693 0.0033900592849139613;0.11555870242782205 -0.023439455063658594 -0.66064638674089227 -0.14588981261298961 -0.36202205776340068 1.0797368312809992 -0.53701513540601908 0.46086538219964168 0.52937872074669934 -0.86244786018408925 -0.89821613032144665 0.45733563645615749;0.7987401866234497 -0.46225250875114715 0.54344327409624993 0.69403929302375278 -0.55101677603841959 -0.34223351188451118 0.033367808056652647 0.75511357105382548 0.80952616403662248 0.64251620719221936 -0.73254531767776443 0.76059743269425406;0.77563317735739268 0.39593464839269105 1.5160633726625636 0.3481519352910144 -1.0545862497752727 0.11461843963998852 0.51474271888754641 -0.29567157138049149 0.21754201687582075 0.75632412299723129 -0.037376957041747545 -0.68747730140540408;-0.08010702792106543 0.20883623989286515 0.70339634084559255 -0.43095565784482021 -0.23110441870547208 -0.59149070383919644 1.2031708132520571 0.21403563719158422 0.47855834307645356 -0.54366553881160529 0.15817400826164471 -1.3868312885265612;0.7522453593743279 -0.62167484173194876 -0.46928915533247345 -0.32562713677367572 0.32067651003731035 -0.5401856524765104 -0.49188658674762059 -0.66262075368468731 0.78683453998368558 0.53528276619670734 0.74846603431746606 0.79856805354489191;-0.30433194140615721 0.59779037528465251 -1.1679964500124838 -0.80819197922687536 0.63930560259199387 0.14568917810181153 0.35328099120867462 -0.45583924191115016 -0.5974486506355644 0.79118619499316689 0.70910013499508917 0.1232582224633308;-0.9484343346030234 -1.5703102896870178 0.62380433350725328 0.15662501909645002 -0.38345203073257805 0.29962846359168627 0.14529506746057774 -0.30019537265787755 0.6524476134221906 0.0081209634892310534 -0.60056738235074514 -0.66961296167090234;-0.61295411102470265 -0.83521231618594249 0.42506796288311344 0.50965884265565031 -0.065774390115550654 0.19543068643224387 0.57020903906145648 -0.40430786972081595 0.92172429032157643 -0.85997521303641178 0.84936365225360899 -0.26030625765690668;-0.18637466066681485 -0.33172484880789543 -0.23748903780596503 -0.47642221793345835 0.4941306729329315 0.49544286542408245 0.72889735759583452 0.038592029304693638 -0.71331327599116368 1.1063858062923069 0.45307301847511022 -0.0017708806187548606;0.35615941304610316 1.0328381478006172 -0.049083108743557743 -0.75254670487051689 -0.65921502319906689 -0.282057205738106 0.021602631262319573 -0.22439476125617569 1.0298764441388144 0.68274334205941301 -0.53603883438222277 0.49345375298096028;0.47958462389979284 0.87300147114658555 0.79943080356679652 -0.59421100276514327 1.0654682195578895 -0.031721761724400777 -0.07367009793008468 0.25384857853841214 0.98894763752103065 0.32808267077937636 0.018396902031548725 0.56087299439130867;0.52591411055109116 -0.32659584131870034 -0.71067863206826154 0.68495267506620594 0.48748107084764752 0.47977083262259379 -0.16391100997428693 -0.60402136704853548 1.1372233642378469 -0.41188359550918469 0.932188635198405 0.055754562806867594;-0.78657206590331818 -0.99314353446664205 -0.29352898364115859 0.40094169623029163 0.13681687033895071 -0.99655796917346162 0.026609475050058413 -0.42683271253008243 0.35974357386221867 0.69302462009076071 0.20731479500953823 -0.19476937962729338;0.37820173346080782 0.46371348493148895 0.61161421853536768 -0.52953802947697293 0.61340239760565018 -0.35057640247316946 0.10258088575244612 -0.79459119161385261 0.98686390972994964 -0.038081192504470673 -0.78084382315856871 0.50585864879771858;0.76410804517318831 0.43293471891651797 0.27377485819086261 0.12430200937449434 -0.60642415309412567 -1.1131071576268485 -0.14086715446728584 0.024557966215332364 0.99270495856350816 -0.47600538378349194 -0.42711516026195312 0.88570749675455862;-0.35211339735133984 0.75665964897578086 0.2592582564299088 -0.65103505656664962 -0.38845118994445588 0.94196848179624248 0.6003937383132103 0.4951147740436892 -0.16063760162154028 -0.88125521693008801 0.85005789002260956 0.0043531091490157468;-0.022187468108778502 0.070502498760990323 0.63789771967413322 -1.1945135714936286 0.76730279074203267 -0.92265066838262522 0.32139146884139913 -0.30883860938187702 0.7659527720085193 -0.49356523997898538 -0.21563987996927542 -0.87609638917548627;0.5362678728855963 -0.13029277384253532 -0.14178344293013878 0.57763829083458984 1.2016189974300582 1.1885920376230414 -0.019428548791093438 -0.29432190926248675 -0.76938361018768031 -0.16331683567187558 0.1310696740527692 0.060143927439146601;0.35757068778391266 0.5748207511936857 -0.61487364933505051 0.2526152521885322 0.26657109292274789 0.73472501034018878 0.54911472122243876 0.56504653477313116 -0.90232622521726347 -0.55865804268803609 0.84640675219472494 0.67125599828946181;-0.79405163550304669 -0.075575756550036191 -0.56559664228826967 0.52661459578921366 0.22304524450262389 0.82216152526705188 1.1242416649025844 -0.21251468893613326 -0.37266791847266795 0.44943857123507003 -0.61575663655309654 -0.81780950332591773;0.84980063963946062 -0.082219121691108468 -0.83811565272320765 -0.65153564287585386 0.56351315474836106 0.77374769710811042 -0.60059827277026534 0.52697630884649915 -0.45803134536009699 -0.68655758123888366 0.58640935379210801 0.31752700305514653;-0.30474348904942206 0.14967424871776849 -0.83192601151804979 -0.24270823754310705 0.82912695023635963 0.6880112970614386 0.47759996009310918 0.3118395590970709 0.44018632967973659 -0.90514832489423713 0.81173607547007687 -0.61208618823437777;-0.33124090135961642 0.0047665477623194952 -0.63202826399294298 0.95965060543874681 -0.98496871642287198 -1.0933098477793168 0.38272428661346136 0.35310101428094415 0.65862712612427798 0.94143139320919222 0.20573487430077705 0.26935445784602607;-0.29415913258215154 -0.027833592645240299 -0.57841066520970996 -0.66884969122116089 -0.6146435177195021 -0.13882055882840511 -0.40046172962975723 -0.24349092394651323 0.32241966462025945 0.28072763779387544 1.0290569660411513 -1.0522965940971423;0.99075124246234036 -0.69862208611592946 1.0432636192477842 -0.29161607531195133 -0.65164207862347412 0.46577235316406534 0.049111548636413066 -0.19034474027737336 1.0969330934521098 0.667574636607002 0.15467719817001213 -0.0023305800176612046;-0.68568814311813664 -0.85960233513356776 -0.53851928345596856 -0.02835087336689909 0.31358669592348593 0.48370382872963352 0.87477879944993742 -0.54809139285211461 0.87942254952227927 -0.12768009245355683 -0.72589035552289261 -0.69139267985249109;-0.41760463312943624 -0.35344824367015865 -0.54451451959707853 0.53983350213793191 0.087685920722138447 -0.6815055746825287 -0.44399922932090141 0.11955901199131566 1.0571345779238324 1.1627400178673573 0.78163242907507058 -0.25442666251445301;-0.10739148809026257 -0.21909701490584452 -0.67287791092941485 0.15100713033447527 -0.087194388231301365 0.53990010653988085 -1.0773769660669728 -1.1748863445452866 0.097986065388787388 -0.95286566300326458 -0.29647883236337108 0.10669138053957772;0.55186110929305843 1.1473583421298221 0.16458264268622799 -0.7281788777534085 0.031410495464710669 -0.51323339385100564 0.30049251105383118 -0.036100029076481854 0.68589406312222367 -0.71912186781835385 -0.018259666576206642 1.155869392269927;0.47558160952734957 -1.3313175401599524 -0.10412628843964779 0.72538975593706523 -0.31286846269509327 -0.6265089234767931 0.28137248529638509 0.29682006261278471 0.34265466482916401 -0.21819809195519738 -0.87094110774005806 -0.62987210290351092;0.4561762603371306 -0.37877347698077907 0.88884180222873499 -0.48468384616114946 0.32667123725601477 0.10036437492104508 -0.25857245189546801 0.49491015963992674 0.21806156741735372 0.67881135087842548 0.46218355411810902 -1.2657236315450202;0.68799310767198296 -0.70621108589044468 0.61781423461696217 -0.71647302827008763 -0.40500568329851533 0.74446585312791447 0.0032061780657524977 0.86357717547836266 -0.76842517518433806 0.077237198755582909 0.61428723416617415 -0.62330723576415847;0.51125838200514739 -1.1106529796957432 -0.86360457997116458 0.42998822089112559 -0.090155891880776912 -0.32588554785393398 0.22024224841279411 -0.68702920597110695 -0.37691246393249861 -1.1179548193391045 -0.47031687465781585 0.80425984702145659;-0.72586675034511983 -1.0471631944536466 -0.4747533248434867 -0.11942147110997484 -0.12212742141632067 0.72157113584943933 0.2513116074397661 -1.0379773819955274 0.78750822543675059 -0.44981483079400197 -0.55307730494047447 0.87435432770792543;-0.95532575694323973 -0.47836723490105942 0.03715974819654972 0.36833510181478635 -0.62456659595100461 0.21403432026175229 0.50806901806831939 0.82879988023599716 0.50630811014763188 -0.87886655319947293 -0.084801541031990862 0.094376840668748088;0.54826083574996509 -1.0557423726580597 -0.27803591172273451 1.1581854209658311 0.45458876171851276 -0.014056021798671759 0.74095471057024143 -0.52005899855396898 -0.412866919731255 0.69859325135026273 -0.66488219833965534 0.40597928361639535;0.95184951452504607 -0.40143987320508107 0.26687085321207549 0.51959304893463121 0.88417012919403615 -0.56106380988844096 -0.90487906893180448 0.41256214281038889 -0.35954957028778656 0.75092474352102412 0.43856998226727961 -0.54830505821746944;-0.50414702362473407 0.75743017888005948 -0.43167844648268916 -0.42315657925317901 -0.83203707108100655 0.77288777675363374 -0.61780568034790051 -0.26385035641585142 -0.21208770923031109 -0.72489315609749383 0.80286447317507881 -0.80363275399470169;-0.74993379914528868 0.39184309896953351 0.6477784745832631 0.097217214232543939 -0.15522208786355551 0.57173318864942457 0.98179965444434536 -0.77349524358848332 -0.68968466207565793 -0.65592321099714124 0.78817039246090814 0.23774848840306703;-0.51839612043568795 -0.74622608031360005 0.56395077154173556 0.95312486642248684 -0.47875312243875412 0.085522396602975295 -0.69054513490836389 0.19249980298102878 -0.42542555361605905 -1.0950411403374787 0.80147938155036957 -0.39758657344027765;-0.29698141512632181 0.67034663602894007 -1.2287006663061442 -0.028067473080439019 0.50641008927642839 -0.77328706594572805 0.43081912721601734 0.43800457480375693 0.17660803739156183 -0.17582698859622389 0.87103921354516844 -0.7658956393450691;0.84902708250582526 -0.50414999276712724 -0.96897317155505269 -0.62930097428866671 0.3527190597392651 -0.83917132121365712 -0.34505416681314349 -0.42516189813811089 -0.31065051881993699 -0.50882532764210586 0.30656280002355452 0.93945111642597179;-0.58102357130286353 -0.30217766899352672 0.63544815959840018 0.16310430066551243 0.92749642568114687 0.18345120407740256 0.38422099566432627 -0.18071387501338596 0.35627221722432861 -1.0042092662192372 -0.96240749059987651 1.1245240619901959;-0.59729499153814203 -0.50849492908196503 -1.0599812752079321 0.061484449779357041 0.66979591490819768 0.37975115242412927 0.70790591078586496 -0.47292902069697706 -0.76180108786786604 0.95482173959623751 -0.13298470092896369 -0.72951438202187691;-0.1773625308839131 -0.2427726113576181 -0.486027634225765 -0.6811220350286562 -0.68475364616680823 -1.0894580707847243 -0.21040887977281522 0.61299601430791428 -0.22413678808057366 -0.67041184288529287 -0.51435755900282942 1.2974784846707195;0.074735376364008246 0.83742003497731721 -0.87532741411551496 0.23953582070657495 0.871223035720187 -0.7431979727171858 0.099081145195718992 -0.99647615377646781 -0.12131350279427833 -0.70810970998525957 -0.11288044894968532 -0.65023300116620009;0.68921229173387188 0.76659852084911329 -0.93981581694018002 -0.61044843964182227 -0.23929959120382993 -0.33137594373707319 0.66777711801711104 -0.73769453120885409 -0.34563877863076869 -0.54779109488338729 0.45726849463822739 -0.38383930912182879;-0.22304325854817397 -0.83516510488017082 -0.3563548432575584 -0.40701806093220261 -0.46247734770223409 -0.48967092804436052 -0.49878251055094358 1.1088199455879637 -0.35737506935629609 -0.47861301583675425 -1.109090924094069 0.39698832574377235;0.8513443581174811 -1.0972206233992845 0.080978160595522458 -0.01742577647882625 -1.1988679376725611 0.38100324216803499 -0.61363514941584851 0.090219396117480588 -0.85139727974921942 0.11003247742841007 0.23430935363639604 -0.26331937744531886;-0.6800417060207179 -0.83004981537533029 -0.59294623788470635 0.46919088608648085 -0.75789716764945725 -0.87049169175657215 0.51874274880243687 -0.45940853474419263 -0.87640227217344691 -0.016852633493860344 -0.81416986508059686 0.26895694960544753;0.60034049254154631 -0.66358328072440442 1.1384611925749031 0.44326653615738698 -0.8662226522146812 -0.73776633344021736 0.89763987333591255 -0.20784344545847871 -0.077294180202731461 -0.033996391837936873 -0.46055137605335783 -0.51179265359455239;-0.77029037432153269 0.94287242239936242 -0.023519004184452623 0.4011744718157223 0.74077049874654766 0.51976316643496323 0.43478395506444401 -0.88038013115038949 0.65003825791357939 -0.4982156541336451 0.64295641690067107 -0.36942070969806695];

% Layer 2
b2 = 0.35142487590324556;
LW2_1 = [0.36798264790189728 0.31544693357299536 -0.23374409858399992 -0.75821958119330624 0.48687351045365362 -0.38154544906337073 0.31823921229036839 0.97053528820546675 0.54067169279887772 0.34787255735002182 -0.3235946320737309 0.51162584463580962 -0.19932836916084107 0.71071739530981359 -0.13933735669762284 -0.43535746786647467 -0.38568541437648685 -0.47228750662197172 0.23754192488873188 -0.15305820626074432 0.82858539994453573 -0.32888307879219664 -0.44951007487882183 0.25138450423097974 -0.62647874383514179 0.42319834461020062 -0.49418162671914773 0.70797424561438849 -0.3363135737007063 -0.41184626806948571 -0.35052999625918208 -0.51756675032366306 -0.32247876719788027 -0.36306783401103482 -0.24925306199130934 -0.40749654487764003 0.2602541259592121 0.25987689657225693 -0.14694141472014527 0.93786873268967152 -0.07209588429356148 0.15948999510211195 -0.15947196526478416 0.60797713857780289 0.47558326295983927 0.38607913645310549 -0.28053119731965698 -0.2136221687259989 0.26258326173009305 0.61870790483404681 -0.52274457875620517 0.026384018076711806 0.28710389792001045 0.079040039431117384 0.29749733280033935 -0.50205873623490516 0.58897422601793115 0.4578058413125829 -0.47091132336165831 0.38460567504844934 -0.31648444892501548 0.3144514608918072 0.28116475194806989 0.50849976804155705 0.4123359027447378 0.41506962114025592 0.17068178334806713 0.73202777512727457 0.033781596486577907 -0.23064707139590826 0.65183092353508199 -0.20032866937496432 -0.16641966645887818 -0.36334264089388751 0.46160986218446515 0.33265717521742205 -0.4712108954897527 0.8234603540309251 0.86033891952343466 0.79074748796980865 0.099798170014547882 -0.25286169011955767 0.47753206388779101 0.60589433490564915 0.31200046132207737 -0.11564020914539276 0.25819208270738148 0.25811854437625936 0.17926877735739988 -0.38467776685291927 0.267666626239843 0.88112295351908598 0.23087595879978476 0.19791543293083685 0.014168497919181837 -0.51968237305019516 0.30278954696895743 0.62549128258203512 0.77673071638557922 -0.31276441538375138 0.6950192076659375 -0.57709558014776907 -0.22060186252891087 0.27169151790902696 0.30341802609424423 -0.56380125373728496 -0.1257813296558703 0.88663055819120162 0.098329611163799568 -0.29078118858819357 -0.030833418487608122 -0.43959477151520432 0.4354535856339769 0.29921496703145334 0.12728679022497225 -0.08902058749099287 0.32452601362075628 0.12460322403247304 -0.64688358484834663 0.34137477224963353 0.39252931592070356 -0.019433825909997048 0.04842541179805273 -0.86202002457743621 0.26045797509027663 -0.59962901566604021 0.26320905257709321 -0.60721057178113014 -0.44593927000638006 -0.31636899407529895 -0.45201185429960589 -0.26216100715939367 -0.59668414186630603 -0.45666593630505509 0.28551618903962578 -0.65303779583330368 0.4904230873199964 0.41671256267243029 -0.34160748700581051 -0.27198498547298655 0.38185657946295753 -0.54945209429501995 0.57465381856371889 -0.1421075728878432 -0.17308931729519023 0.1348211010133315 0.44414381048497265 0.14448988245336988 0.053380607880080796 -0.46866960850881251 -0.62888670007108327 -0.88225571884147047 0.046594598334713098 0.22684279466720261 -0.83330570551721195 0.27250566076575322 -0.3793671253458345 0.17016644566614564 0.073708986231676737 0.2815371383042663 -0.58452128737703635 -0.54851070769097388 0.26537825773357587 -0.52417751561686476 -0.54074519652577113 -0.14731409523034555 -0.024280111604902548 -0.17897140101063116 -0.90648780678468932 -0.61167041956852275 -0.57145662906463301 -0.44116144227143195 0.30446619924116036 0.7407328291213654 0.099439289622512195 -0.22378510321772085 0.81977341416700844 -0.10570801676441199 0.28836581410383999 -0.43116581962541567 -0.70003100010565478 0.81358129795960787 -0.13616511340532908 -0.43632584121730633 0.78296044590462088 0.2183081078988717 -0.68235995157519758 -0.67327057134074397 0.69892611561426765 -0.62032851262729338 0.30769516365110477 0.59034420190727965 0.25575810308705393 0.066696528607324668 -0.18787540521886087 -0.2462443494602084 0.15912655378577292 0.061860011510989382 -0.54333778943111455 -0.65649271544510246];

% Output 1
y1_step1.ymin = -1;
y1_step1.gain = 0.280656810303664;
y1_step1.xoffset = -1.20217394922256;

% ===== SIMULATION ========

% Dimensions
Q = size(x1,2); % samples

% Input 1
xp1 = mapminmax_apply(x1,x1_step1);

% Layer 1
a1 = tansig_apply(repmat(b1,1,Q) + IW1_1*xp1);

% Layer 2
a2 = repmat(b2,1,Q) + LW2_1*a1;

% Output 1
y1 = mapminmax_reverse(a2,y1_step1);
end

% ===== MODULE FUNCTIONS ========

% Map Minimum and Maximum Input Processing Function
function y = mapminmax_apply(x,settings)
  y = bsxfun(@minus,x,settings.xoffset);
  y = bsxfun(@times,y,settings.gain);
  y = bsxfun(@plus,y,settings.ymin);
end

% Sigmoid Symmetric Transfer Function
function a = tansig_apply(n,~)
  a = 2 ./ (1 + exp(-2*n)) - 1;
end

% Map Minimum and Maximum Output Reverse-Processing Function
function x = mapminmax_reverse(y,settings)
  x = bsxfun(@minus,y,settings.ymin);
  x = bsxfun(@rdivide,x,settings.gain);
  x = bsxfun(@plus,x,settings.xoffset);
end
