function [y1] = myFF_Function_(x1)
%MYFF_FUNCTION_ neural network simulation function.
%
% Generated by Neural Network Toolbox function genFunction, 25-Nov-2017 22:39:29.
% 
% [y1] = myFF_Function_(x1) takes these arguments:
%   x = 12xQ matrix, input #1
% and returns:
%   y = 1xQ matrix, output #1
% where Q is the number of samples.

%#ok<*RPMT0>

% ===== NEURAL NETWORK CONSTANTS =====

% Input 1
x1_step1.xoffset = [-1.13060448605232;-0.640530435431041;0.670637750250395;0;0.000547562599750697;0.000662470705980902;-0.472388828097036;-0.399648338281395;0.857896898007517;-7.31459595068658;-1.04243714115608;2.86832183561182e-06];
x1_step1.gain = [0.927078165478655;1.3517959977205;4.59453237086283;0.546619017564409;2.90179621589437;4.72776325285998;0.265649696595523;1.27715399707867;4.15381189621555;0.256749031109483;1.24131485845543;1.91866752512312];
x1_step1.ymin = -1;

% Layer 1
b1 = [-2.1188484721415839;-2.0103738260310862;2.1509717909557247;-2.2148327218592661;-1.8369426231047661;1.8321590131843393;1.6173188160480867;-1.7336413925076377;-1.774577540042112;-1.6954600190134601;1.5573982849065426;-1.6036581489969011;-1.5190395401186376;1.5104477790192654;-1.5583460570606664;1.4265077199225813;1.4848616253721394;-1.3109553234607003;-1.2020911075148355;-1.1783074694451556;-1.2211968394372974;1.2865608780430258;-1.144349334323659;-1.0206203710545374;-1.070315191450542;-1.1793531469671272;-1.0136156720585447;0.64054664801007533;-0.36932943102595583;0.95916185843818058;-0.6501647580630816;0.65325472933114637;0.93795977549891441;0.69557893922877345;0.51864277714155671;-0.71356668604279816;-0.52203433174841429;0.60399374902453251;-0.47471528806076313;0.30966933629056065;0.40922228223158963;0.24053837264777014;-0.52759107584705212;0.18843939896491471;0.19960238203039429;0.22996938034586717;0.32032651112457594;-0.39714134072218665;0.034236705110168658;0.079002318044592262;-0.21237908896307417;0.12638777926879266;0.3799572916903779;-0.10968098746408252;-0.32532135020850511;-0.19544925562940396;0.26995891742739764;-0.29363117649860249;0.30442262177567897;-0.29197109194943577;0.443134467297149;-0.60461859505020521;0.35858278615855566;0.43567445358210349;0.64223318340044055;0.56189598588898271;0.93101419777890837;-0.68260098638128452;-0.80134795792271718;-1.0467291107076879;0.59253498022313289;-0.91541589566060833;0.94279872987588187;-1.0382110280472459;0.90314638145902004;-1.0614523793281132;-0.95021730052996356;-1.0954708761352805;1.0158658543167005;-1.2237263037133705;-1.0323272825653189;1.3262664355519791;1.3774743894914858;1.3654567901167394;1.5739865180627799;-1.4425213593028576;1.4034821792546361;1.5439889728425364;-1.5935408416381052;1.602361396105811;-1.8000920814710226;-1.8167619375374837;1.7746101729705792;1.7883450165262713;1.7411721181325288;-2.0010439257405177;1.9003021611538029;-2.137035432282449;-2.020905744927282;-1.8809976692212691];
IW1_1 = [0.90559076205587363 -0.96585940442997043 0.40656527384137925 -0.91739416763593629 -0.057423130711458083 0.097257840531797174 0.7613963105441427 -0.11003031080397904 0.38838189650252963 0.95908674591997345 0.26368200129507086 0.68550313044096811;0.89082716554440711 0.64214221361164525 -0.25567310176613489 0.390936647314438 -0.8882708843163587 0.079045553955028769 0.12341364087023153 0.76467313107611745 -0.79108609037029798 -0.71306166649009861 -0.29898820056306974 0.43216733693994924;-0.77970398719323908 -0.020034247409296574 0.87722727175256066 -0.77454656758882179 0.40340207718579735 0.64556438034703101 0.76193342236780637 -0.20189710886791182 0.61460081437515046 -0.41105894766088208 0.48563498938405947 -0.82988959711065802;1.2088332161353312 -0.09196004812753536 0.066520796489714012 -0.82972283631995125 -0.12038425964068755 -0.51032582540608273 0.65565964053815418 -0.16014762095069998 -0.92379282929309037 -0.3133142491441554 -0.33485867399014535 0.76773309734567352;0.34937975603642502 -0.69502579236058648 -0.2594338562561988 -0.026018427566405086 0.27511738531454943 -0.5042112799376931 0.13070872670227937 -1.0054603823517991 -0.83945651215567241 -0.81495155810763564 0.41555183858937439 1.0003739835066878;-0.80291297186485988 0.19663347700886885 0.89976014371569157 -0.78780351924187364 0.39593307222382351 -0.74932506517604547 0.6543042024704806 -0.65362789488236728 0.29245200757984086 0.3527215063400766 0.21005723563285447 0.53765779371814215;-0.93133092749275526 -0.026536011270538278 1.0393546738017938 0.58713639097331594 0.43026382888042869 0.88380071809059479 0.6268891733744536 0.81926269743679614 -0.13056415635250365 -0.12985431447155402 -0.19994823918412319 -0.61141544721813257;0.057897277459532138 0.31795145833697808 0.092953999080114674 0.53374100260336754 -0.97027678651746074 0.30829650345006515 0.91976339983811128 -0.27235414533176971 0.30482067147147424 1.0608324845923167 -0.72257185071245766 -0.2310062167501962;0.88280259996028687 0.28940297574447826 0.18684450459110341 0.59437834723629424 -0.89937038700968008 0.029710171754361005 -0.83522212572880006 0.6295014813058093 0.42855299768800248 -0.33894468841778158 -0.64555399768863508 0.38963814112370126;1.0104188740561766 0.52463899290732829 0.20774499933678647 -0.77726434772140618 -0.37250365400574365 0.28623956122995547 0.82025556750084483 -0.86941935323095088 0.13946573280242452 0.2267019923738566 -0.17464301900279852 0.52837511555816186;-0.68592640615096612 -0.13538486327252383 -0.69354678852074092 0.44056498122359095 0.11601786575380299 0.15818911291509763 0.3436047228485728 1.0654243346586114 0.52897174278434667 -0.8388347485492752 -0.72335511521173268 -0.70067428471974658;1.000771512015719 -0.89787795885562161 -0.4357965407059925 0.030219010656544577 0.33386496707051755 0.32304480166231114 1.0400048809560762 0.084602620493485867 -0.57718342675133505 -0.24856701091840744 0.48420042075288111 -0.50651418397902692;1.0500909432569281 -0.63970437550942627 -0.04369138326816438 1.1451700982209052 -0.23838201711370657 0.069280831136442525 0.10889519732072318 0.46776905086966092 0.5467918518593804 -0.82351578205508957 -0.30128644419529543 0.44186816867175061;0.012044343001252549 0.91099227523072535 -0.46106769988618557 0.31770054637506373 0.60307414698576567 0.39159414882883203 0.0081390024451947381 1.0435186610091836 0.93945923420447575 0.49702550649989735 0.76018697633842691 0.026025988102817046;0.56564147304435042 -0.77348552700420425 0.67493186798820781 0.65587848367478518 0.55912425711571823 0.14119056977397537 0.62902535803237425 -0.43950178298196652 0.79486549916656923 0.74773691519113084 0.37360954756325915 0.14220947323698763;-1.213639285890278 0.46099273829991527 -0.41012971120452618 -0.036124365523684178 0.92598484822566884 1.0385073118074166 -0.66855908469232572 0.069351257575607422 -0.43698054966324074 -0.32674415914663912 -0.082074788279392824 -0.34522479608258283;0.1725822104174892 -0.013000581881737368 -0.89561548430885229 -0.11260459899542413 0.38490152889712076 -0.74296111745939253 0.00055461775212302389 -0.11607579288225886 -0.078962063779181607 0.52707109157440624 -1.2168583928566561 -1.0869992972031923;0.22235635154094296 0.79145249499409964 -0.47251626189199369 0.50952427843642656 -0.35828899851181789 -0.63387122843204935 0.73044262870257215 0.52548148873447698 -0.23402025478895822 -0.32612541029620157 0.66353474079972674 0.50830010373567358;0.561592401588484 -0.89798870340641579 -0.48216860283139679 -0.95363202019908655 -0.77761237513498938 -0.90065798515186257 0.060567942124937144 0.58342557253652305 0.31021800025090324 0.10985326498028908 -0.47706279596448076 0.62556460007452275;0.44273258163412021 0.010824992040746773 -0.13636389912573416 -0.80242366284748945 0.21748484249498065 -0.80137115187905539 0.37242095247194851 -0.52988101585446556 0.27612580325518377 0.69439220897406995 0.68187348583341911 0.88700353379711994;0.32657642651922031 -0.86666015647957206 -0.50581394620032871 -0.7585363240341042 0.56545280822326827 -0.23244340743739605 0.48558847450327774 -0.72782385321498366 0.58073375634915236 0.24408129846227442 -0.59379293463515614 -0.83937485843146176;-0.97712138653044822 1.1015039903904569 0.93872401907561276 -0.42598750525841844 -0.33484502425585266 -0.31510111125081619 0.075111456484471151 -0.42040684719571436 -0.42067423374649732 -0.25370509668370367 -0.16133363937982478 -0.42868980751261437;0.71813965775306565 -0.83612314825241763 -0.15943699414581344 0.35147970870172551 -0.91408249219045978 -0.21976457456124443 -0.62254716243056896 -1.0242382355838231 -0.42496832617356511 -0.10751903094532406 -0.55714155661992193 -0.76217830813498277;1.1288832418762509 0.69223425420906604 -0.64367119756017144 0.60101551980233381 -0.62349263038225167 0.44792300810858304 0.21641955241260774 0.09063694739717422 -0.91441589012432678 -0.067396366616423203 0.5728993536127539 0.14020390900504051;0.28288066949311325 0.83656739504193511 0.61589483481440299 -1.1074351909693112 -0.53040782150958798 0.25501970243494443 -1.0790609157505004 -0.12514054509428299 0.46780568012565277 0.03734524978929693 -0.61574839602466702 -0.51882192236892788;1.1347590038425073 0.59991323374940642 0.99277357690678247 0.0070722588058002196 -0.43519292384464137 0.5939251970044086 0.39004208868514895 -0.68463111413945643 -0.56187671708621856 -0.2050501397268511 -0.36831628042045611 0.58979282847639203;0.59877366457369341 -0.93615989622987572 -0.15948876696073078 0.082813113526574014 -0.11937040101216856 1.0338133378130006 0.39792841927755507 -0.67685280536651959 -0.2214629404648247 0.12350389751889168 0.54614906273250696 -0.96228463613707904;-0.69745068312296121 -0.1974275604376165 -0.95196446519294931 -0.038975963368938715 -0.053454491309242361 1.0083071158166093 0.49028523915312844 0.65546225322901475 0.027849895264168301 0.29624017631075 -0.44976223970555534 -0.7680596563411114;0.15057415647174119 -1.0647936513874163 -0.63527643556480784 0.52438727103203198 -0.56528417601352454 -0.88692371835871819 1.2075231294273843 0.31194387742689944 -0.88749178387411121 -0.27804503752277782 0.30659614552588699 0.059053212109212591;-1.4328017785384746 0.56487864355609696 -0.56189582895931511 0.20611127202801863 1.0266673983247685 -0.55745227511696893 0.90144411282447923 0.42032439325104981 0.30685525896166133 -0.10370780755025699 -0.40583107361854631 0.50972295680698287;0.38421625163938855 -0.2061498526390943 0.30714287707960614 -0.67730706220104031 -0.067874024303882952 0.37073236768773787 0.69245141448299863 1.251609132308507 -0.05281914377400504 -0.928801059660191 0.35295466374266693 -0.38975024457420449;-1.0463588845788161 0.54887518088808462 -0.67163921735548782 -0.067023273154908053 0.82464060621452251 -0.55708113022941741 0.15761375246142989 -0.56091368643545847 -0.77059682442202293 -0.74227154666416806 -1.0776103635637795 -0.62260313548533153;-0.46639544961261586 -0.87198686679258985 -0.044605581280400798 -1.1294476836993843 0.55854563202058916 0.17256728581015621 0.65885091961723141 0.85919152090732576 0.83700074245368838 -0.23484530692110445 0.80776332050340505 -0.49091467675752792;-0.91719731476787636 -0.40782265937090123 0.39659098006543236 0.82667001255183314 0.84814973924282488 0.050472837513072522 0.080297868462297445 0.46979448974748056 -0.78083918261685059 -0.25099130862067687 0.49928353721674024 -0.50275427911515458;-0.99675351570434112 -0.63806605852512277 -0.58792137875243733 -0.68228849160938454 -0.50843598082246899 0.8834582313741004 -1.0501077567725081 0.12044949296548652 -0.22653027862901076 0.18423164923725194 0.41552959575724147 -0.14169497129332317;0.52526318310895692 -0.85208429030069954 -0.8059281182961211 -0.54261217323174904 0.42787253637688655 -0.045189186563693362 -0.50271044703229917 -0.57127201384416937 -0.55101588781658817 0.5801541251600536 0.47978455789102209 0.5977899264267964;0.51910728309313514 0.95313938259868036 -0.51175534255472455 -0.37643516955767287 -0.58425504855616439 -0.27763842383279225 0.90332273190504686 0.23921688274049777 0.10771748626619476 1.1720368746427268 -0.29731782921378341 0.33719702764443277;-0.64080577476998479 0.28572204308566551 -0.53801237543992508 -0.80053375680506478 0.58841174773024463 0.48317190128487258 -0.036361517325973321 -0.32240364861975945 -0.85274414701719115 -0.14525617096375118 0.30146070400522906 -1.0247205426638788;1.10389630133226 0.12884995647012118 -0.24339433035478836 -0.087213636480264645 0.51665077402247039 0.63218131781148446 0.81796244923150041 -0.90071415629367857 -0.28157544131876516 -0.63748790228055741 0.16338204470435563 -0.31791729601226032;-0.55803468590937921 -0.65308682125319095 0.050293752500407664 -0.12034978153598151 -0.97782353592715154 0.13505513952011799 -0.38028417360704497 -0.80978696912026316 -0.62525157266959164 0.43964783905866361 0.066383847779901278 -0.61297567748633564;-0.016212669379383565 0.55883048171107474 -0.84809484418331427 0.89958719862231917 -0.60643901708112158 -0.29642091912788332 0.087314010050593555 0.51484308368146448 -0.92101693264546836 0.59822638339874168 -0.51268180637981742 -0.076928381370152288;-1.0348933731400332 -0.0036097887000485773 -0.44998304948279988 1.1551106181132698 -1.0839630510063505 -0.99749708944280124 0.45028241866918184 -0.94080811376909612 0.17157240071769547 0.23828674904097208 -0.36703568208114046 0.41222555569163055;0.52232114091749737 -0.29617008779204124 0.50881909673308834 -0.83179760621456877 0.43103987719235748 0.31777021166859082 -0.9464465805165756 -0.61853721751661273 -0.37558613551021358 0.54021182932862799 -0.15143019329249466 0.88277467759090622;0.66009688307830106 -0.11715474681996872 -0.60350248066174994 0.41349732731601091 0.8082559304455238 -0.83804337567454967 0.19260038375066063 -0.90719420425502961 -0.010054143694588548 -0.82322747490102022 -0.83037994468732712 0.77420100345142562;-0.64939240266750398 -0.20159706121348597 1.0091281696022965 -0.44854174030444421 -0.3361043122601558 -1.0079648297636155 -0.24833876325826512 -0.17567774868851971 0.92088151145025743 0.35003358754147967 0.65504095841772214 -0.0026795523743931866;0.25826345220124697 -0.65061267481781193 0.49580626710495429 -0.2516585583593407 0.53260997941382449 0.45055033042735121 -0.77129534982925674 -0.72060855113166677 -0.0898439367074131 0.052543482807240853 1.0221481198812039 0.64144919216185192;0.30731851325205206 -0.68570890490829728 0.02870114687041829 0.06250788638573089 0.60116180932189767 -0.72776996942825389 -0.12004650409789433 0.81749104208695955 0.567353459381296 -0.59615442269243557 -1.1308832340371076 -0.85715513120598186;0.95162255541034946 -0.59242128835111685 0.2205371721202414 0.81802787671728983 -0.69791558864070546 -0.075175213311147085 -0.80364430548612631 -0.80717565578653971 0.44951317912581856 -0.64186131931061563 0.27713848281273157 -0.40964549458428146;0.23639707307488936 -0.70676597078810111 -0.49074530000080463 -0.24856441295272191 0.17817803093347981 0.17922058682720737 -0.67586390592546197 -0.64222469031018004 -0.32685703127052079 0.71230867489816707 -0.82820505534064692 0.96172863213166393;0.30857691037165569 -0.88029044595288253 -0.00049445168569862974 1.2186998521613064 -0.46365234213799178 -0.39543736835801402 -0.38231033419696431 -0.74736920069481405 0.24936126392342203 -0.89106625114683968 0.44787923443711442 0.94366627297828487;-0.58612229178508357 0.030656374262498873 1.0095999172860719 -0.29472695988988723 0.76889280821676198 0.40936385746523191 -0.77151324522820575 -0.083004808962961654 -0.67341305150628739 -0.74882485799252263 1.2173136063123549 0.62353036116748983;0.3641956620541536 -0.80731590880298965 0.093358514107746343 0.31582178468394945 -0.9777818106048517 -0.24071015130183182 -0.62818579167472488 -0.72043199085025156 0.78299497178143507 0.36547670655914388 -0.77468086729277297 0.25570421797995185;0.20454463017716018 0.47762078672758956 0.097343816157118457 0.45693325990659972 -0.21377402820939689 0.17627841948757403 -0.74054992110155748 0.79420839424560652 -0.75786332824232616 0.5904425094061293 0.65369645529223508 -0.233406888490787;-0.5775661969987913 1.1615652042196454 -0.43315277829476273 0.1144600797739241 -0.28705083734890041 0.38980616552834485 0.40478528640816908 -0.34043322360406314 -0.5158196210927446 -0.016966042765531143 -0.83782710600384913 0.91728465624300937;-1.1745223654055912 -0.11801954913122886 0.02460994404490404 0.74817843732217648 -0.33590731210725389 -0.095416865854309182 -0.28503419263018354 -0.64178733100777319 0.74464689645101445 0.30483618610429281 0.67736213182610816 -1.0329233208672621;0.018082832180092389 -0.0030624344745530984 0.29997836518986776 0.33959891357635386 0.59834756189430149 -1.1139610425829809 0.046515656815158367 -0.98999360999510133 -0.0092328920723155888 -0.75411801773487919 0.68478978875698282 0.53812147020313572;1.0523024060453301 -0.37038855620523037 0.40688049205322174 -0.7374009094804781 -0.40571397326599523 -0.3868452498986763 0.44168923249609349 -0.46083820840334344 0.610297426008372 1.0380736604340342 0.077663721169828587 0.33455793662672739;-0.42965095322031066 0.9426108688691992 -0.27690187631340446 -0.83496214759384924 0.68864309544961955 -0.1658165859429544 -0.030354557415558835 -0.96670588047610828 -0.28068781201857451 0.085176838798980511 0.74930667333861822 0.77229783863663537;0.56311748291922181 -0.47882224277630503 -0.57196483652947494 1.3437099189624047 -0.06356773822196754 -0.57941293817061779 -0.0013206203201482029 -0.32739021529496187 -0.80537586693507779 0.59691410342906337 0.87376308545999593 -0.53004064195127876;-0.3727356028853045 -0.63143434244898944 0.93811306994222343 -0.7042126560018821 -0.71261374739535721 -0.59047386377701694 -0.17899531876210628 0.56184185726337288 -0.7642020842785231 -0.64998872521363604 0.20309985139225042 0.44175748845189849;0.4503424992816199 0.50407762117883037 -0.83075127808612015 -0.84745605732450602 -0.58623630130705628 0.57309424565653688 -0.6843714712228044 0.23753453619117487 0.30828796391294255 0.55838432150558936 -0.64688615054617471 0.60530065439046177;-0.51780122846414911 -0.23499407011483137 0.95814762886237936 0.34191884376593873 0.79074961612414962 -0.08728403515493724 0.13902295054886504 -0.93236697017081482 -0.18034260920147741 0.48227197417806894 -0.72898877444702204 -0.55554815649069123;0.040198620170907695 -0.42786332645391612 0.76274791370969297 0.82074162379503302 0.03787727135915727 0.89129220152402833 0.7424433662338501 -0.76318575748275652 -0.036812478446826426 -0.80394972801031483 -0.5687148635732957 -0.0026882622005350311;0.28929977736809387 -0.48792259773064667 0.34291855694521939 0.50843354314115574 -0.71617430295764739 -0.20094441846269315 0.79475285929757278 0.23461898275551818 0.034648798969963424 -0.13989895296620392 -1.3432425667230248 0.87067405851286883;0.93217659328575309 -0.74805842357690477 -0.75306481540332704 -0.53955220972147333 -0.28725102374214956 0.51831906392860749 -0.39501886783034179 0.71492996844492573 -0.75779134917000746 -0.28265424642201753 -0.69248565806646545 0.043542255531934249;1.3739316033743003 -0.93452779056630875 -0.75119433925242873 -0.24381737456378072 0.6429598405445478 -0.093975958234548601 -0.69963358638282858 0.36769657290595203 -0.3394446261983553 0.12000452561167449 0.17497784698064228 -0.6044466265724201;0.57866067497748275 0.87578103441771948 -0.039634876193243601 -0.076948236455941177 -0.56825105291860079 0.45550734515457492 0.1733683872808881 -0.86040527643600384 0.73671746909547597 -0.1547628217896122 0.92331862123737796 0.41836417675131504;-0.74565733065717665 1.0027960909272562 0.4451718338191778 0.92613954931658671 0.58693365674019848 0.49397101611862232 0.209180274159673 0.8222628710398705 0.46144131089514046 -0.074239253612213452 -0.32928951830106568 -0.2904710204125131;-0.71232710692608947 0.22477524260539497 -0.96175894288213326 -0.80104017684223816 -0.40100477272051754 -0.21607555962871133 -0.16182790666139246 -0.23310520397511814 -0.91164828655869456 -0.70424109428040826 -0.27833781749050296 0.48695051341776813;-0.2953558250284623 -0.66887506995236612 0.32085699056543043 0.6731627589428959 0.81690307147321217 -0.38663937644691221 -0.45295942802313371 -0.2856938811765059 -0.58804537460814921 -0.41024317599876803 0.9606833813172756 -0.25133058910275269;1.15892530412289 0.11355980144214445 -0.67965686394786706 0.32631513882537388 -0.014626722215187113 0.49135339907624631 0.77406838076042106 0.65596867646814394 -0.53564430793074724 -0.84455325399572168 1.0606557987628833 0.16739589619138151;-0.44986083632042168 -0.27142996878732356 0.29565104662937658 -0.18460431659766613 0.48238830713530806 0.83519680460041978 -0.71218180774934536 -0.89557763720377426 -0.88532454622506951 0.72296597160391474 0.31771246974911749 0.33058634687884902;0.57013319317107025 0.58188074076574647 -0.016035519274949998 -0.54974008628698234 -0.57698078066669956 -0.31375291138716654 -0.69864235708798073 -0.83569929598007087 -0.14906485530931052 0.26390230374477075 0.88218484988129109 0.86603799373543533;-0.59191047062861135 -1.1348031515448627 0.83848849640454493 -0.015555691718022339 -0.21689928030436961 0.31405893872927665 -0.55770508507664862 0.52400330052551203 0.670960533246034 0.79232323047683795 0.30758928129401808 -0.25632716514514314;1.0904440645497604 -0.78134822322139441 0.69285756141844579 0.094580195506558953 -0.69128936888340653 -0.11349963515847789 -0.48063984665838033 0.28019490930052954 0.56419810997340925 -0.74565219564648777 -0.25148456118258494 0.7542001863627944;-0.42853185328837917 -0.56612512038882168 1.0239820247721809 -0.87004416418296726 0.010645029111745263 0.78470036643380325 0.13772948058237169 0.12422395978076486 0.2041321344001063 0.99356879750210447 0.57956536284447369 0.64223546097784223;-0.45232069664745339 0.23908374794159615 0.971179243049894 0.17020605790732327 0.63156356736650976 0.26268835064244839 0.20417154566130902 0.58388009168588317 -1.0163248383128416 0.68366384773774524 -0.75036377237320684 1.0752544808314128;-0.55683092065466722 0.51410019848408961 -0.40579499722023382 -0.53485910492681654 0.081588930019630815 -0.82762286876914226 -0.85388096236045641 0.39000873031573957 0.07605960265364356 0.11891513175771634 -0.47274895285941632 -1.096600884060499;0.49176786446010423 0.40448563281643413 0.40614237529438602 -0.22949851245783165 -0.11388959051664624 0.91846962722621484 1.1349059805758084 0.74352289207424105 -0.88497874162242429 -0.22766244194364266 0.50810301881130671 -0.38412144500848688;-0.054419953903643355 -0.13687478856219862 -0.74580414408594597 0.18116560827756362 0.36093659746872969 1.2190062146516685 0.54550212060905823 -0.5373320138703559 -0.93583851190364908 -0.57629389675062637 0.063317348883060454 0.39965748674680679;0.11181063656614373 0.19020873629198914 -1.0604460380171752 -0.66943990733829373 0.13240628869324161 -0.11737995037515339 0.67097754789540409 0.31714479401361378 -1.0981511647256306 0.83297283635982133 -0.034523705073902414 -0.52708377901496761;0.70464419264287326 -0.4256306370128955 0.54550296884934069 -0.47880084696403602 0.34152708759793282 0.79574033443109538 -0.95603464881362943 0.1092470922629393 -0.79813523339760351 -0.5618140139154173 0.2441719803860711 -0.55761505412679502;0.35023844315679087 0.69955837215410621 0.056701415697478094 0.15658122197701288 0.20324751929991311 -0.035845196775078317 0.89486766770882775 -0.28779534395002532 -0.87851299238036529 -0.95129239733534532 0.72600908809334075 0.74992570372153733;0.10640420743561445 -0.64481597462391504 -0.055551645626641298 -0.47345992883209342 0.92230313704852851 -0.67677031581114733 0.89507401565288269 -0.89270480442719868 -0.6146420137969888 0.54468873810998386 0.13599889865181655 0.21768435230208558;0.74624416867452381 0.37504418909953663 0.52391325907942887 0.41562911777892109 -0.72490004450844248 -0.77986755280782083 0.77638075392240347 0.57980141826224629 -0.5695291543219041 0.51221730411095356 0.076830939465447307 0.30153417422046713;-0.52124094884655048 -0.77486954453266776 0.29836368542180425 1.209694942971121 0.49199763236796107 -0.25742957326983651 0.9178577005764581 -0.39458174572916205 -0.4385737633248315 0.4919010573969842 0.21045896501795272 0.42758234612489082;0.55990315247539257 -0.64215286652674075 0.32385343252160581 0.79498782574158489 -0.80047823095892934 0.74833747678120477 1.0167647540341056 0.26289178367270227 -0.55630299376538039 0.1809916102651665 0.03022652376638358 -1.1950362715662635;0.58163604267584812 0.2990409109449858 0.83032982150131041 -0.34714283334142376 -0.84568734705845305 0.75181347300653167 0.039903832043676452 0.56948778503840158 -0.57378968808578057 -0.18904167996624199 -0.9530381257182996 -0.35673502878850122;-0.2755195259899314 0.6438388515047142 0.73272779750068395 0.24839506163911171 0.25830878365887383 0.65209575353035676 -0.72012451417862355 -0.90250316817866838 0.93850564685481597 -0.29858085236055398 0.52222540312305554 -0.072245916060641971;0.18978914922113541 -0.84795847572033844 0.12801018649738791 -0.88241476537436647 -0.027636541835947288 -0.36313087906838326 -0.27012250791576176 -0.72210523735490495 0.3896740192397779 0.74433685975383745 1.0054583287346595 -0.57778777274432025;-0.84833072118225217 0.95014526213295303 -0.68881414326023926 0.92036408384739021 -0.02033416027825645 0.1332906561431699 -0.74197033002520396 0.10918270260978871 0.12778368232531923 -0.40176184790042963 -0.30869722638287506 0.41274282538035195;-0.92996056093835233 1.1221338055789509 -0.35839534340256185 0.62033577620921965 0.36350710106529216 -0.49225290387886067 -0.68951294210376557 0.37269378196672792 -0.189685186872253 0.60198864861536294 1.1448017010857516 0.54926107199523755;0.18215358224326658 -0.11613743764077973 0.7062600127097548 0.63170845670740194 0.63060775080293785 -0.85791798354710402 0.85033738688681049 0.73295968194945704 -0.61899886909519142 0.60583214027619192 -0.42145596620024073 -0.42078581614757282;0.5576578979072695 -0.12460862583971417 -0.91105081336975247 -0.47885588785329797 -0.26925401772211521 -0.68364693834434587 -0.39471546514047362 0.57876191171115976 -0.81126537814252742 0.70488879650208613 0.73395584441160999 0.42633507063219628;0.96211260610044358 -0.12671272414990425 0.22419382545516481 0.47100861853139225 0.012036122523272182 0.31099740707928725 -0.28406862634117258 0.18918609977629955 0.93953648529208711 -0.25154929968207312 0.028759966227038088 -0.68795342363729217;0.066803405057447529 -0.47056300089598641 -0.63585830248154374 -1.111934711596702 -0.13261999600779864 -0.1703217390803608 -0.40468909384499557 -1.4386672441994666 0.40514373527410247 0.44283589143528224 -0.27792686490697771 0.73883687247748475;0.14819299200636171 -0.0045060226807041989 0.97070817676478605 -0.14601623917041762 0.70346105279714821 -0.59807996578048706 -0.048292791666370655 -0.86186083326709739 0.12066037708941008 0.90645825236994482 -0.58857631012302192 -0.74208945709881402;-0.029207384422666089 0.10052658419420431 0.50692960295001466 -0.37972222184976306 0.97440931148614551 0.13143845748264402 0.56340854732442125 -0.93386765028880347 -0.47277323897324508 -0.24308491829755646 -0.87813168431259991 0.12387306767265648;-0.80331273794089442 0.701907197488293 0.17705450808001433 -0.58527631638966138 -0.49926988590691124 -0.6626721259018189 -0.79818393795672671 0.50687264215773942 -0.51170166856523824 -0.80533115210958994 -0.20274003784740935 -0.14546207678626452;-0.20346304067968085 0.41138776211137301 -0.21095620616792249 -0.47605803510961958 0.59186121803446012 -0.88422232335255979 0.83617947322897557 1.6210944551120192 0.04774961351812157 0.65238687995759692 0.36038010918534991 0.74613892956206695];

% Layer 2
b2 = -0.17604258323845789;
LW2_1 = [-0.80192787185411285 -0.085894899430793717 1.1597578761453864 -0.82979614666880486 -0.35436952466500082 0.94223706425113463 -0.67255079064648204 0.94379090817819344 -0.52536671829251824 -0.30366950844336027 0.17963483670538 0.32753674507070979 -0.41284925328785688 -0.2012411622791955 0.48933580297698054 -0.86772934593965534 -0.77243958555283176 0.56672019847878619 0.36322302881270829 -0.12225613794476643 -0.16235399850964666 -0.60406510841984717 -0.84984848449625516 -0.57582147741195411 -0.66813798049117978 -0.79754748005183529 -0.25396253493765791 -0.45321744124556851 1.0006752028094843 -0.9323665620300885 0.89925136418787355 -0.69999021081106971 -0.90933325980644297 0.045011727489368665 0.72068489217641118 0.62019173600632305 -0.34875598008214714 0.32759155862809886 0.71042304044613813 -0.65080370469429305 -0.24699395100477259 -1.4175512581091017 -0.66663593219704176 0.84052761134703025 0.47819071968473886 0.51914116377657626 0.80202672402812925 -1.0174707253052202 0.60597812517556515 0.60242867810563983 -0.95204252960539915 -0.19495346459020346 0.52060401649279464 0.38812601816839515 0.64239753405356959 -0.035684150223510389 0.13016742714260371 -0.59994516886155624 -0.82797171739716202 0.30869635508579624 0.14606732163262778 0.2742378127678351 0.038985695751136466 -0.58065062311518556 -0.36111547789469478 -0.67913680987106406 0.48279266112633956 0.59395145740196498 0.12583825829925552 -0.45013656962920695 -0.84074736210082046 -0.10469889890081935 -0.37220874176558111 0.68246912035500706 1.052418173799377 -0.63058032213269311 0.81258647154042296 0.56726854963350826 0.38610045677954768 0.75699401585860526 0.62289415001977766 0.092588339835632263 0.68551598685873461 0.2418986819930668 -0.74003544944390098 -0.27632616254433734 0.8241391586274337 0.12154477295442292 -0.21768235626311633 0.92330837339109295 0.50167126638651449 1.1257792982197723 -0.22083632362310415 0.2476632948038992 0.084956624930202368 0.9439815529075517 0.39319901323572765 -0.23956047116567297 0.11698531944135979 -0.51286025532690405];

% Output 1
y1_step1.ymin = -1;
y1_step1.gain = 0.24519677090296;
y1_step1.xoffset = -1.344599216494;

% ===== SIMULATION ========

% Dimensions
Q = size(x1,2); % samples

% Input 1
xp1 = mapminmax_apply(x1,x1_step1);

% Layer 1
a1 = tansig_apply(repmat(b1,1,Q) + IW1_1*xp1);

% Layer 2
a2 = repmat(b2,1,Q) + LW2_1*a1;

% Output 1
y1 = mapminmax_reverse(a2,y1_step1);
end

% ===== MODULE FUNCTIONS ========

% Map Minimum and Maximum Input Processing Function
function y = mapminmax_apply(x,settings)
  y = bsxfun(@minus,x,settings.xoffset);
  y = bsxfun(@times,y,settings.gain);
  y = bsxfun(@plus,y,settings.ymin);
end

% Sigmoid Symmetric Transfer Function
function a = tansig_apply(n,~)
  a = 2 ./ (1 + exp(-2*n)) - 1;
end

% Map Minimum and Maximum Output Reverse-Processing Function
function x = mapminmax_reverse(y,settings)
  x = bsxfun(@minus,y,settings.ymin);
  x = bsxfun(@rdivide,x,settings.gain);
  x = bsxfun(@plus,x,settings.xoffset);
end
