function [Y,Xf,Af] = myNARXClosedLoop_NN_Function(X,Xi,Ai)
%MYNEURALNETWORKFUNCTION neural network simulation function.
%
% Generated by Neural Network Toolbox function genFunction, 16-Nov-2017 21:15:54.
% 
% [Y,Xf,Af] = myNeuralNetworkFunction(X,Xi,Ai) takes these arguments:
% 
%   X = 1xTS cell, 1 inputs over TS timesteps
%   Each X{1,ts} = 7xQ matrix, input #1 at timestep ts.
% 
%   Xi = 1x40 cell 1, initial 40 input delay states.
%   Each Xi{1,ts} = 7xQ matrix, initial states for input #1.
% 
%   Ai = 2x40 cell 2, initial 40 layer delay states.
%   Each Ai{1,ts} = 40xQ matrix, initial states for layer #1.
%   Each Ai{2,ts} = 1xQ matrix, initial states for layer #2.
% 
% and returns:
%   Y = 1xTS cell of 1 outputs over TS timesteps.
%   Each Y{1,ts} = 1xQ matrix, output #1 at timestep ts.
% 
%   Xf = 1x40 cell 1, final 40 input delay states.
%   Each Xf{1,ts} = 7xQ matrix, final states for input #1.
% 
%   Af = 2x40 cell 2, final 40 layer delay states.
%   Each Af{1ts} = 40xQ matrix, final states for layer #1.
%   Each Af{2ts} = 1xQ matrix, final states for layer #2.
% 
% where Q is number of samples (or series) and TS is the number of timesteps.

%#ok<*RPMT0>

% ===== NEURAL NETWORK CONSTANTS =====

% Input 1
x1_step1.xoffset = [3048;3087;0;0;-24648;-27224;-10708];
x1_step1.gain = [0.000677966101694915;0.000252175009456563;5.65961784845383e-08;5.81933739045897e-08;3.48341025864321e-05;3.33383340834458e-05;4.60034502587694e-05];
x1_step1.ymin = -1;

% Layer 1
b1 = [-1.4549156404015595;-1.3348417080130046;1.2233225388016835;1.0470702699396373;-1.2661426715584123;-1.1791488754435879;-0.97368124977568127;-0.8426192599881257;0.86113384055305764;0.83434009246526442;-0.73568539030388014;0.97267735665593147;-0.47761641819212547;0.48518348270696776;0.39070893947840735;-0.54879190783936915;-0.20341231946465038;-0.25268987350609712;-0.16072232161701497;-0.22561803032621325;0.0039759625512022501;0.12575545595148027;0.11929567861332324;0.069276284125458804;-0.16613323730803628;0.31160593967605765;-0.4886054126172793;-0.42814176451592606;0.85183304239386382;0.69441399017940575;-0.59114682097691662;0.82674079021244351;-0.79778124833082364;0.990848294502371;1.1017673089265012;1.2190226090212268;1.1538805621481925;1.2592974176479748;1.2926448211084862;1.418520205610625];
IW1_1 = [0.20169223150128265 -0.099971073436347827 -0.070340059327738014 0.11927762665074589 -0.011553602156116703 -0.12087410538749538 0.10124672104003105 0.068302778753420834 0.067013415479095409 0.16344983328412396 0.088712693827218594 0.0092511033882640495 -0.07913447651483943 0.095187887791186573 -0.054360423551426625 0.13766430751433925 -0.1018087103624099 -0.043660981784616935 -0.012705948684099003 0.066700461488126805 -0.10686181718296164 0.038347564453955048 -0.094804346329131553 -0.042735709683304042 -0.018825488739795639 0.061617273205552575 0.020188598017105104 -0.11807731528765836 -0.0033663665315482663 0.060122649586834165 -0.19869930171218819 -0.012698994239680683 0.097706070534378409 0.090434682901499183 -0.029235531970082742 0.053391253423645847 -0.079597486990924629 0.026178245143061121 -0.022288721630580474 0.047697642868335124 0.033010131212683383 -0.11444484783493027 0.091811738154264133 -0.010533825590108029 0.0014321513206071151 0.021137020756147241 0.0065190621122583822 -0.0090215316436464046 0.081812362873428371 0.059640808112376015 -0.050468317646322987 -0.075951264067398702 -0.015662902554415093 0.19211720061021759 -0.02163992778335487 0.16880193618380429 -0.041687245401667863 -0.033969911814896524 0.076397650129982578 0.081960544732866264 -0.064009211033573696 0.045956095223674373 -0.09347357134432864 -0.054727175095660552 0.09350588446338573 -0.071331519497338902 -0.037013587962645651 -0.066978399708066419 0.042110859465631367 -0.028178569181710324 0.033967391621711321 0.058036407592256242 -0.10634144069553414 -0.016470877631754043 -0.040742413876471879 -0.048975629937399942 0.022363323569740211 0.14142343436801577 -0.098204173643006626 0.068749083277036965 0.12746854114157391 0.051832916404983685 0.10884276860840685 -0.056825502692270963 0.065921177761186653 -0.10420573817747336 0.027681900255045584 0.038255448035861159 0.11508722861103279 0.088593384434178718 -0.13547947203375282 -0.16533048929739116 -0.035009241561016792 0.094299976432579979 0.02381544918632263 0.17313815704880892 -0.080484016250960785 0.25277850043773126 -0.11771252591939677 -0.16907146109169419 -0.030675087352783622 -0.047099550820080771 -0.033837899301129543 0.064883952435021208 0.090632875907990532 -0.13918659934877345 0.030424078511883508 -0.031395174841650289 0.023523075086642583 0.031293595059796939 0.13961434223261884 -0.075363665503429864 0.069714155844764383 0.056540567389256044 -0.013088518416094853 0.026461322694636177 0.023633174495906156 -0.037573164255389965 -0.046951300779936089 -0.088170321942644472 -0.15169687677679575 -0.056678045204504909 -0.065355186692640302 -0.0026605851798605588 0.047470835967762318 -0.082014156094046026 0.024047341098935221 0.059853063337064367 -0.078706407341579437 -0.022386100177674714 0.0095166088544174753 -0.037627953509585831 0.031219880024542457 0.098790487638979865 0.043393372739493882 -0.018780148658649631 0.062544382867502538 -0.052632139800253566 0.070702676833485981 -0.025842821385693524 0.049611253626034156 -0.097439014491311732 -0.054493801954522691 -0.088990334393012557 -0.032467419166199947 0.10130063131649905 0.10919293285352523 -0.042169884636752905 -0.044689597409526112 -0.13307662159123623 0.05186225105121705 0.10238635269202462 -0.10897323319207995 -0.052127178804437159 -0.15239521668885228 0.17920084903162334 0.15574441775391601 -0.059129360996870751 0.086103949491175127 0.077781645758220622 0.15062196642193804 0.071061504963030542 -0.08321141406768412 0.059368109435523786 0.033529880657557451 -0.041116801517616111 -0.012350880429333494 -0.2258611397221045 0.022155369153778214 -0.04923958503716433 0.0314496069221257 0.097349415102474635 -0.044418089151734098 0.010745242910565533 0.01800950226412458 0.065379934920470367 0.08938971308771762 0.010284637654100821 0.0088021642390626702 0.087848988502862935 0.0079465823310839179 -0.060211655028897353 -0.017398561787265329 -0.068006771929667906 -0.12032799587719363 0.10815134954377756 0.015422823639864917 0.14139934146000657 0.10639085464685706 0.15211751053276235 -0.018700939597472349 0.055604771107390816 0.10278643393428223 0.043758525413440663 0.11343865147180751 0.014922656948883065 0.095465648248268975 -0.020963684682021581 -0.097109656157153834 -0.0086963926198860841 -0.083296170302141023 -0.081501826148547063 0.066405865968503619 -0.13999681594358324 0.038362717224546462 0.025543366341401037 -0.027063569126209774 0.0086080425509444062 -0.24394943011545961 -0.05865575316799769 -0.10460227908539894 0.0056237243546070972 -0.068367737418087229 0.12375506678851152 0.040798331344678807 0.010565109427406336 -0.14189815588912635 -0.078079220975738189 0.081471576146732436 0.092425112554111163 0.011200314755818917 0.10464464283351395 0.10802015257470969 -0.20588473702454888 0.05067853525963887 0.055776041997260974 -0.07202719870775362 0.016304252828246345 -0.20397295201547244 0.019838638830301566 -0.090048576290071347 0.13186836106957242 0.022933815585269753 0.071771929305990273 0.14009820743581694 -0.072453094840495502 -0.016465196109677616 -0.083198626680363236 -0.0016696449889006854 -0.0094400377897428719 -0.1100563379709019 -0.126829301683274 0.12946005009805517 -0.033208412567603533 0.10998040262045256 0.071326000532893688 -0.086645015669175596 0.03465616236799364 0.096056888874272259 0.032634722254929707 0.037047915596072643 0.095549394950943875 0.11831450479034039 -0.087809973696310106 0.011581696162669505 0.015827704709244165 -0.10317090681286104 -0.062265662897213518 0.091435265513261588 -0.13668061786250688 -0.047554599906594212 0.042242540596017494 0.005473627638890248 -0.056315971338894669 0.15291231531715074 -0.039365945675950795 -0.15478022647670181 0.1112426217411671 -0.046613453997574161 -0.15821439773948259 -0.080586420810938156 0.02606683201926599 -0.063125285630155376 -0.068991505926807931 -0.033280934426615276 0.00090305002410846769 0.0075132950856616563 -0.12311222488398132 -0.044296216627776386 -0.023423459167577293;0.067127197341512984 -0.064066723404606687 -0.12463653691682691 0.023398600428635067 -0.12263384794341191 -0.13150956692402579 0.016842175401183591 0.11403499754034148 -0.074851455127509098 0.09366999473774415 -0.0079703521117102227 -0.017518570833848949 -0.083179414072737295 -0.13121811890460286 -0.078542717833633827 0.050507940901270872 -0.024335168161150535 -0.10205447280067829 0.1455333032021143 -0.12386937574558002 -0.036098167185533284 -0.089873601152997987 -0.052183798464742824 0.025832644543563522 0.0079406858986841682 0.026781675821400706 0.085299859104123785 0.13011157513799382 -0.026013169934542255 -0.060129396185637236 0.12400171219206975 -0.042457856962752547 -0.039226608307932329 0.049503628798857613 0.018413176602773806 0.029856621209623197 0.054582489144197853 0.088126340911208051 -0.043150731704441073 0.01254155754250182 -0.040063292807503335 0.028510312683763708 0.02631306716379073 -0.027635666706661361 -0.063417870104327909 0.10942159621204495 -0.10521283879093585 -0.081467085390314845 -0.015568994847845534 -0.019072986242855309 0.040577527660644083 -0.060082939315895853 0.07251488178969473 -0.1160921766431342 0.067505913626762157 -0.06837230027450962 -0.12056954662189462 -0.067058253823509967 0.046542381680912653 -0.074897194070295603 0.11602166891418543 -0.014142150136839622 0.12088587132571249 0.065704372836606101 -0.11420437903789507 -0.1347420794443677 -0.058825152708440701 -0.098828796396182 0.091047679005324414 -0.10762935589520119 0.13387847091825514 0.11772674458605435 0.0016743575466537637 0.12341608326250772 -0.093465456256030019 -0.049796063975835927 -0.13482157299847305 -0.082180350018469517 0.034852319800592231 0.14456350821639835 0.042489099430412257 -0.1313057998667973 -0.10735104492717006 -0.065701323196316525 -0.10593671888273204 -0.066607221596800673 0.081741711320015814 -0.032762404230077861 0.090044634510207097 0.064513870287123118 -0.13248707694702005 0.12404848110217626 -0.064290583039633545 -0.08300672298485598 0.14152090301227885 0.073762810914610621 0.039447612057783563 -0.078423010570363758 0.044736319057369398 -0.016609628091883624 -0.026111123959083375 0.01221816896368302 -0.14271331685552877 -0.09455977940786961 -0.095881243337230665 0.061743728056493356 0.077659055964597309 0.13931434859783173 0.04091269265116558 -0.093906775916241761 -0.080973965549496207 -0.13642893551311061 0.094457427412985531 0.04372042422168692 0.087402400235829292 0.11624056812797605 0.022503844616611885 0.11460019389899752 0.026435743716119536 0.094720799039522255 -0.023451173608447548 0.085690606022258115 0.13263884833455036 0.050735945654920553 -0.025142854245927271 -0.10752852321225566 -0.14152546482854819 -0.041050744909208951 0.10632223192010162 0.022181012723571411 -0.088173673146860268 -0.080907723869014722 -0.047395562086088291 0.0020026528211820969 0.048811481421675601 -0.02096040584862215 0.0058674452689649412 0.13383222963407848 0.037166181822726643 -0.02724659856796283 -0.068171663397908325 0.067150373823143594 -0.074798783787334233 0.036114658852558948 0.027046619235124098 0.087246420628462287 0.11544384614936232 -0.082949214129357102 -0.13448258449999254 -0.072613365428441753 0.15275730148596112 0.11409654889938689 0.012187650467738852 -0.067355282811398104 0.081446693743513016 0.040488025855103034 -0.0095876546135726121 0.034797116752931311 -0.079186671677331649 0.015947290753034898 -0.12401698841980158 0.066783854335216192 0.024702117639463353 -0.0082201177477026974 0.064607011752282548 0.072478088773838434 -0.080237683063143869 -0.081276049873386533 0.016158443352986628 0.016063597979020974 -0.103679481401418 0.084497227100525291 -0.08114113073003569 -0.050522188755595401 0.021961121981675137 0.0974428161844441 0.11477493226000582 -0.085014498605820041 -0.027995673562426448 -0.073635554805507999 -0.094634587214426871 -0.098666574863425976 0.067931350078628855 -0.074030858880657344 0.090593931396694971 0.0099597924249893305 -0.085320175321186451 -0.062652477692453065 -0.089478302951565891 0.0383131977649026 -0.081035624769782599 0.053016872678929877 -0.0052323231479857301 -0.054823146610772713 -0.05168944205453093 -0.13217794798184065 -0.048673371994614974 -0.09375638050403369 -0.11705506869678896 0.11171685265379919 0.092279957198502502 0.0023275487703513583 -0.1121752277432788 0.064457857589817577 0.13517430766113578 -0.078774450200753382 0.084863620583163851 0.14129154709113287 -0.033622530656942644 0.022818753010378435 0.092390305227348063 0.047664011208025055 0.040642710549364393 0.0368584333511595 -0.083117284775788947 0.12155055232947945 -0.060729421412631074 0.059628818310678545 0.011081374231781672 -0.010708994248414063 -0.13173362807077194 0.089935245303666436 -0.13554324550319638 -0.016433904432033297 -0.04447094162412011 -0.013770700407173781 -0.090703799166249655 0.024785174317479005 0.13667339302583525 0.12596874449115991 0.11721768290891173 0.043864129623348902 -0.042062321950937509 0.094582078417756468 0.020242113040953035 -0.088716665677950335 -0.02421985034171845 0.079456746920776491 0.11440339265911047 -0.11934971041050625 0.0011529836167591724 -0.038456184501612201 0.0094264155984625283 0.039077772791819732 0.033337662356942965 0.073933245511359352 0.12328421893761872 -0.081401211706652585 0.096863878593566557 -0.0090331648724367216 0.0047152410025059844 -0.014802588832137521 -0.11766420195181466 0.035844375568453372 -0.083545633566952243 -0.035096120660736981 -0.11461846187375078 -0.072942726447538173 -0.017498335185360481 0.058921264996633346 -0.040623897016388709 -0.098082613791336884 -0.010733403087652629 -0.025968042540024744 0.050635198641405817 -0.14514051339440864 -0.027005093761293633 0.13844387271269251 0.13988279049372573 -0.0061156056037344241 -0.029671285745241735 -0.054349449966457221 0.046537738926933747 -0.025255008549403941 -0.046697756785185694 -0.0061662393356197165 0.12926277551611026 0.10178979675653098 -0.13118107043410207 -0.0083057175134500297;-0.012343390381892057 -0.12915755660834188 -0.20368885033299716 -0.0623820679540424 -0.11695659955228804 0.046976884302244323 0.061428466285708104 -0.040145958700387771 0.12638940913622015 -0.1640092830511706 -0.12832572888515387 0.091687073746829467 0.046998561760037486 0.15688598072873525 0.041124149996888189 -0.065819755649824341 0.045058571186821467 -0.01778209880737058 0.075341188606401779 -0.1150514753518156 0.088686381571475945 0.11159959186068003 -0.092732797168802117 -0.12008828399615766 -0.12227081378912834 -0.060645906174932013 -0.12023617035344188 0.037081969540354927 0.10575876453828432 -0.020255053932267193 -0.19462797942088833 -0.099312122016929294 -0.13102618569264612 -0.029620437724615992 0.030695408809451971 -0.014536175156736601 0.060015826992654286 -0.006589446873014642 0.075211129815132408 -0.052882276671434893 0.051207447918050694 0.069305331707540691 -0.0097081921546757141 0.088195446149279572 0.10780724965900695 -0.069461317023426047 0.0062107035862142938 0.019018734205343526 -0.12378988135659202 0.11770763999249309 0.09773781537678565 -0.047901155576411239 0.099438415761638518 -0.026733626071684363 0.12764411393134581 0.025357205924972582 0.020352729984631709 -0.010099826217540407 0.12514141801614556 0.09260847421007333 -0.016066301045140154 0.061019536499819622 -0.12157441451305241 0.066281536541376224 0.11511213834390328 0.067747504621691379 0.018830107628285533 0.05348117573955339 -0.057379045644036925 -0.12148932577832378 0.093911315518568517 0.14567419809991983 0.041990880188704498 0.012566588463823485 0.11338611760663247 0.038014987371993908 -0.059416051040561343 -0.084311583960262074 -0.04887672134442881 -0.03914295468026429 0.054322526143129629 0.12477809072063291 -0.066998486561184942 0.047709139028863756 0.04282986270202771 0.068071916069514446 -0.028029918969079699 -0.085718294624883673 -0.079093461560603179 -0.0088411468551670199 -0.10804180950794576 -0.0037364138637933364 0.10751468066351519 -0.071805492398615348 -0.092193019565728174 -0.11425241106424319 0.048132901010176518 -0.16739518008120402 -0.087182928338726373 -0.11822030296335076 -0.038316579981945632 0.080083333755410727 0.041987290579263453 0.04805109483592377 0.10307774024480075 -0.059114944383412749 -0.10124608353970634 0.12114705994255145 -0.02632644958346525 0.066199299659885302 0.0051767977530562887 -0.014732357198092502 0.091824073289266908 -0.0094023019970544582 0.095256778464244449 0.0032013127424545384 -0.0042849502166542588 0.14663544021531352 0.04385147627731717 0.079220141934914071 0.014406832311465809 -0.082495709625988206 0.038584923139718216 0.084403946336156541 -0.063907961165131269 0.074018345893145696 0.13841833818380853 0.054939665958012057 -0.048934442375412647 -0.070383630687276433 -0.065354268730894532 0.066008961018376111 0.025501970227125501 -0.072423791860893941 -0.021079333870259363 -0.12458027645507994 -0.11857776790832539 0.087700500080112834 0.0188873258877779 0.10261915521455534 -0.12148500787027303 0.06108176061111905 -0.040609770294007849 -0.038732485440693257 0.049517618251866034 0.0056134084450947096 -0.092887768029675924 -0.10011820770960682 0.080416645441344192 0.072739918658936517 -0.032194384313384124 0.09809122797344115 0.06396031401625224 0.10506250348780755 0.12630258773441796 -0.037647866939464938 0.10141763509061702 -0.028722381471065504 -0.080756222783610304 0.019756591617502272 0.12450774724044651 0.015161119819787738 -0.032877589537327438 -0.12475082482876317 -0.13049337951807341 -0.11733172587676489 0.097721053615046849 0.012745250079870013 0.011860462209235803 -0.12974759461974864 0.081006515400033383 0.12756363319642935 -0.070443505470559054 -0.013879970969308063 0.019711696654140957 0.00049766845611709173 -0.051709983579948542 0.0067862451813139523 0.12648569403496718 -0.05336597220715323 -0.015865236681220259 0.011435593351936241 0.045031966304591144 -0.081830554609902434 -0.087283033204682267 -0.039391190087060449 -0.012726035957983653 0.048168203974917494 -0.063750026916065822 -0.030044094270164318 0.04617580720571926 -0.14584479730380209 -0.092716640952935372 0.12569469197152594 0.0088861296464972008 -0.02742970202789221 0.093614337808000561 -0.01905483483671153 -0.0056912495490221921 -0.076319663082442327 0.079356010333711119 -0.1239057248503308 0.10223969534422454 -0.065253112604556296 0.090484078273417826 -0.037128099981435556 -0.083368772787340659 -0.027983384636088869 -0.14126483019464567 -0.098781701456809964 0.10953450449289734 0.13532538013990372 -0.074799265739000712 -0.052986135959163967 0.13835319708925514 -0.020069188320137075 0.07307707366749891 0.00067866635257180907 0.0055628041113709881 0.068068950449677257 -0.04726296092512193 0.16070746651247064 -0.17393364928261118 -0.1540378221794102 0.023489704528535823 -0.039920181291173799 -0.073777719794205096 0.11805274313041392 0.028252807076259247 0.022155065287603352 0.016915380990824302 -0.026429993203030102 0.050517387706721609 0.10401812793513483 0.052229954272659508 0.076832399365966364 -0.088394600524839953 0.056464062559942879 -0.18463137147239675 0.090525130285038224 -0.12674886409814604 -0.10175712706237348 -0.080409008961931872 -0.050963842063608433 -0.0053016626456766124 -0.071772212172921318 0.059722712674994446 -0.128486538885417 -0.02787404267791424 -0.058577311213734294 -0.055244246955116233 0.03968423117276372 0.031999395326933189 -0.16546612692634974 0.036131521493442925 0.073395819391440659 0.11439481007619177 -0.0049534955008560758 0.12595461704089816 -0.054881247602314616 -0.11175911949549813 0.0062709797853614541 -0.10050851057549673 0.022313333020846822 -0.11324882090091981 0.11733257328311029 -0.044839026468979935 -0.10703176809300989 0.00070763843158963384 0.021286597059952905 -0.017419200055016119 0.093874974737261835 -0.14729042203488746 0.13032857555146612 0.053213689845459149 -0.039614799186037754 -0.1386046598917163 -0.13399697468465405 0.085943789743705812 0.042531289360406545;0.0045358669249183671 -0.048310715590062142 -0.033901025497480704 -0.097374063985128934 -0.045892223880712138 0.045439980862516618 0.030818744752416333 -0.015290709242179026 -0.12203981477453529 -0.047452579938167531 0.13710286155912141 -0.017316644097366839 0.077515578721619974 -0.0019000915721263546 -0.087376585198265078 0.053840986066255522 -0.062050908926959941 -0.030647906423454163 0.16542764783226038 0.027618918527910971 0.043131642534753885 0.12095600860381339 -0.042936682602488584 -0.008759412799230995 0.095262638934253199 -0.11074830945002079 -0.12104304082359071 -0.18187757612400085 -0.16386357923890191 0.029098498528667884 0.039819155118844367 0.029722838082048397 0.064505454426265235 0.10384099973025443 0.088334209885967199 -0.0508586218170414 0.045381015565337295 0.071013855396997602 0.061737185750985767 0.026071132508282392 -0.19221384840188011 0.13152678767053688 -0.10189294349407071 -0.020067992141781992 0.11014265309661644 0.068343539801801675 -0.0037936900441663292 0.095749546200345481 -0.04560180970051516 0.050383264847829554 0.10541970658688794 0.051713414848365238 -0.048695570319627651 0.058337452172127449 -0.11031129868634776 0.035282302672567323 0.10903619226506751 -0.039409352793443049 0.06348365750396498 -0.072967357611310388 0.092466028770244596 -0.1643566366355273 -0.037501997442516817 -0.0095852599032294639 -0.11205077409857632 -0.017921716925557211 0.07097368330195987 -0.044085616002779195 -0.13456611570953678 -0.10190328213423219 -0.067346122409679951 -0.039254665018016076 -0.025475474421060986 -0.054575793179179981 0.055158084021395444 -0.12138362399091243 -0.09505666653846348 0.029546975174067673 -0.10302964505130745 0.15813254675650296 0.085292954550229685 0.066709014300915692 -0.0069479311632591398 -0.079738223857994339 0.1716708168618151 -0.028484023561109191 -0.047849112918077259 -0.10968781745983117 -0.032799623612525607 -0.0092873535465281369 -0.08451893448190978 -0.053052884063683373 -0.024886720914339442 -0.080751122027736058 -0.13436368989715897 0.15797952942370211 0.22264520969251025 -0.077281289275043186 -0.092329305939286108 0.053486920374353965 0.065903515055623973 0.0061838314926772903 -0.17324674849530791 -0.044641222266586303 -0.042143835604615071 0.0075577551893316035 0.11532679883793373 0.061553630364370657 0.0026281562618220419 -0.0135447142331527 0.023110089777860037 -0.078471631761949573 0.012201427485776035 0.12978961449225626 0.09608517966286971 0.083380962513326912 0.075009706342563154 -0.074214053810790354 -0.062258075906605613 0.026977878282854417 0.036341944957664955 -0.043298582926709878 -0.11805000775926319 -0.16337486752582867 0.11981722530846614 -0.037908923875435874 -0.031935266736355133 0.035162609041385198 -0.010590765658276262 -0.043532258733961729 0.03232809609271925 0.10287113218692853 0.087489114223810477 -0.10678732920680711 -0.061588213257737424 0.040659973468416141 0.02407640727205991 -0.03454237140580986 0.079065556232979339 0.041073032954211719 0.045673321508395565 -0.010829595557969765 -0.025927219568294899 -0.11792756344961587 -0.022162204295874288 0.161273393924315 -0.023924367280913857 0.13701556783624236 0.012152950615836284 0.031430498027772036 0.08962199553915641 0.0097530767495610134 -0.098938734152597241 -0.041284121179125034 -0.015011394774422362 -0.083257529983214743 0.010139095772868941 0.095701156822434408 -0.03104334707448915 0.040247991196827398 -0.19267414508459474 -0.14418458562620584 -0.09679675292781055 -0.018916118860005496 0.11464574799595266 -0.10948827663005113 -0.015003459664477775 0.0011971842698343966 -7.2280206436685542e-05 -0.074079540004608757 0.12783678925604119 -0.062157877379358038 0.099511715129494152 0.018217391329086341 -0.0013468215145787147 0.069448007474398318 -0.011355512154449068 0.083196466626807061 -0.035299942582008643 0.11295169948245821 -0.13518581577629646 0.0096959768521672034 -0.038129221127247474 0.13224996471156086 -0.070721339633142727 0.024720774926473871 -0.074674027712975252 -0.081419089404839301 -0.11874998803521473 0.031914345976717003 -0.077067060972960288 0.052462919741277286 0.085914223912730514 -0.14361013013250257 -0.089254750670681671 0.0083281706581669248 0.091539130076223926 0.12530930467476706 0.00033854361597722925 -0.12085104863305032 -0.16394815233656948 0.13694018210515504 -0.00094062612090168793 0.064363898060745092 0.082070433534660717 0.085922754062945778 -0.05168403774490242 -0.020096982804844097 -0.014422023106958736 0.048615666296433706 0.0040598152496202746 -0.0096594072383169374 -0.088689489821658557 0.070206358281433623 0.020646243430455562 0.05692053439037776 0.0022096271730602519 0.068870156280945227 -0.037968058585828697 -0.0076161086918256236 0.092946678266161251 0.10546235406693459 -0.019076610355255263 -0.036568375143049364 0.10035072465614196 0.067207486292049867 0.021166452984278897 -0.088697199667872692 0.084632469991580042 -0.063713796929391164 0.14025218972845294 0.0090991853936703282 -0.098256993636769999 0.042842330904542564 0.020171121647717172 -0.095797479361852664 0.031548129573554781 0.049355588579542885 -0.022578801594930163 0.090803901520421976 0.070282380185952939 -0.010953193030542841 0.019605632558226727 -0.0019168436059488689 0.023828157591757292 -0.10065992077451967 0.1202013814159934 0.049246387998533911 0.040898770367673587 0.034077267110474943 0.00072915814903986805 0.090846669247904896 -0.12623313055267299 0.10792249611223337 -0.13293910804472844 0.059451454478622184 -0.064414148806106325 0.075594016172010947 -0.035944539188365737 -0.12463398907863535 0.10768849090805499 -0.074697582309553603 0.027093994827190829 0.17077801049007019 0.06177984713685649 -0.07950758814036317 0.099664917998108477 0.11059190152293702 -0.02695439398208866 0.073479492963592449 0.058864397171769667 6.0409757188586988e-05 0.020250996152477267 0.036729935798826024 -0.067475591696298076 0.097795981500821763 0.027820839449054897 -0.14354185546916809 0.10070614037055682 -0.0091666943581242936;0.026243681837292827 0.22958290394296604 -0.027998053254622669 -0.062998255828981123 -0.099612382546069203 -0.027909892198263186 -0.10289986223926077 0.075452161727587425 0.15784617767069498 0.098172794522471463 -0.062880780666080119 0.030069883029642117 -0.094490522086682766 0.074904902602487014 0.0027049082810297279 0.089237897724383189 -0.070965642609692584 0.023740948259168514 0.20364778854725124 0.030321903157482497 0.15455197106837645 0.11290311913817659 -0.058798435190348206 -0.038763514630594388 0.016570543809638724 0.11569417331608117 -0.017886561644873969 0.088099876083246348 -0.0076931785443443545 -0.15320935268933983 0.085092763585374126 0.074069003439897765 -0.012718738792882961 0.10985618786291348 -0.034059732777645194 0.042799276451296803 0.016205636819247325 0.076380137397248277 -0.15361489742917284 -0.047510268626540994 -0.090986935171833108 -0.092105934009567861 -0.076799792960162344 0.12976705365525404 0.0057095525003506911 0.0065050985363225506 -0.037845943283010629 -0.0083027215417945614 -0.0039127256554492102 0.10094956560776153 -0.061122772921885046 0.0043257694601757388 0.051020885700058471 0.055675888300223589 0.017695655640634272 0.045659712385133278 -0.16983975107288518 -0.03767822267630451 0.024901347048946677 0.078222083425995362 0.023654778658888737 0.066688794789047476 0.037842757702186092 -0.011155591896556787 -0.0080026204322314349 0.040502496428154386 -0.02927155848422109 -0.038173209351646351 -0.13257429437247498 -0.053388864558612005 -0.022785096424101668 -0.033557023160470725 -0.015349834974353761 0.039227405197732879 0.012753006139739776 -0.026077991874245005 0.059185863435885784 -0.072290399561337912 0.022060366469991703 0.084043308134675546 -0.14437191990733481 -0.048798484263827421 -0.04915141967325045 -0.12272018147986262 0.013192313311807251 0.064149470282100315 0.061716569843803998 0.05212736079356093 -0.029063166140917338 0.10412394341951765 -0.091950924664401981 -0.013972492209428575 0.10689469544528112 0.12956766208474085 0.0096054442207827474 -0.059210426183677674 -0.0085702062926833189 -0.085647268723910902 -0.015940094463116436 0.030998213136173604 0.038020051576034761 0.028703075590990619 0.1110650549575596 0.011101945357665031 -0.065959136741376961 -0.07491995338209366 -0.013368645029101152 -0.089326160409875857 -0.070426994136994325 0.022425042267229602 -0.0064094327991336027 -0.068704241950594741 -0.043078847575228528 -0.023215321188413879 -0.035927394317117986 0.036711891465329632 0.17395744604191121 -0.10322854892254198 -0.02532174329429138 0.10511223316410205 -0.098021241106556564 0.089569620194059604 -0.078118735411202164 -0.078888820231135817 -0.010516700291225357 0.0069231784504810087 0.16382847349299584 -0.14221005025463646 -0.12960866518015871 0.017221456376513084 0.12338894663364131 0.096509582938383603 -0.015097442373460317 -0.02558669246631548 -0.037842631384265073 -0.032131789501729228 0.071630476039713051 -0.028343983998942383 0.037086922835159325 -0.13172667829249629 0.012486690215043365 -0.091191456316148625 -0.042383703515375647 -0.12575975307225173 -0.091126292845052359 0.015777443813140762 -0.15623743632570181 0.031436437447578194 -0.14345859372702008 0.017811508073774331 0.0033693671765979852 -0.097846026457058588 0.073761144695645209 -0.036619451475439359 -0.033108288304472551 0.056341572745658805 -0.013102492437602703 0.10690713637815266 0.016218078680081235 -0.23697947562969898 -0.0021268933123826071 0.0013990866774499335 0.087122263834930908 0.11512954228172478 -0.097823259225857787 -0.016213811514374149 -0.047321812075116376 -0.09063713500684778 0.052635575653176989 0.012127739969183156 0.097013874715077886 -0.027889418707554375 -0.053779490009958304 0.070103578635549862 -0.062384198548634272 -0.11152297208586348 -0.0063177606250826076 0.059348727339521033 -0.078978733872113224 0.015507513516164818 0.030105213917851467 -0.025003887601795283 -0.011117291617331288 0.042104312061796843 0.12837860569908008 -0.094917340075529127 -0.045435610634007459 0.13401538645509845 -0.034117467459874359 -0.084901078024027382 -0.086089250333144768 -0.020795531388853008 0.14982600374210422 0.12765360036166004 -0.14649593024909704 0.012679320385374695 0.057742095570576503 -0.14574422430386327 -0.055526988826301374 -0.07581880077635185 0.022508683720343571 -0.058851458283979738 0.043440127296852996 -0.0062123188685253633 -0.13170958155087012 0.025751010586729954 -0.076076489959572544 0.016238502631783718 0.063149628381080722 -0.093446871147422089 0.12061067249372964 -0.098838500083023723 -0.071711119629285669 0.068152466055852665 -0.017565347787911256 -0.054896905564339141 0.038841378769829092 0.16794487264808522 0.14592185876568065 0.093985921325996855 -0.0093220310441844891 -0.083976414457859902 -0.056953862510578629 -0.0097666992091899017 -0.021284852349842173 0.0077432387041447386 0.063455302109999112 -0.07057635966834358 0.023794204089171919 0.056543125772526001 0.017289133842151357 -0.136842561363645 -0.065061231164921532 0.08808215921511682 0.045714205065963187 -0.13799413024391805 0.055947781948495284 0.0050682162556460846 0.037145291926833891 -0.013379504845119624 0.016410119967436881 -0.02881114128946987 0.1174352636742782 -0.059015568203783494 -0.027430593608217282 -0.12060770166142856 0.10098967195092283 -0.042552998378801693 -0.11238118312150483 -0.018597675840927502 -0.11257470488605278 -0.053719102635924131 -0.055907018480695146 -0.0044256821828922849 -0.036966254522890603 -0.052609035401792015 -0.11616371656446059 -0.023748689198807807 0.015898778423743543 0.073279499236020881 0.019874435093510966 0.014577461211322569 -0.039022586436780762 0.12618952675533326 0.067340878454917555 0.025342434139036411 -0.02540613426171575 -0.024107706918940465 -0.0045942243975235671 0.037698312183972467 0.049440083053753088 0.026077377523757602 0.076098142260215079 -0.0045855465342020639 -0.0078211865694183397 0.095838554704540169 -0.13293386284015729 -0.068978297712220457 -0.014189272269363427 -0.025991187258672339;-0.02115254937048372 0.13765412384866332 -0.066682213848798161 -0.15747823646739964 0.27405656695561359 -0.13827435619854631 0.022170963451173524 0.031278285033701468 -0.0058566607087469809 0.0099381872276855538 -0.014493948670264314 -0.071955864054213239 0.079120326952095102 -0.110859834914506 0.060128317058127045 0.16084839733253456 -0.011217181388261801 -0.1240304208469795 -0.14416779654351766 -0.16059522315353253 -0.12995565509396523 -0.03360314411490669 -0.01973080597502019 0.060090034179609217 0.037680404603175399 -0.086422952257951005 0.0057678946293675728 -0.21598124407081426 -0.031389405386271718 0.14033709584107648 0.06973672281396659 -0.030668146943381044 0.062910892664383308 -0.13843897693586221 0.018714940306228972 -0.099369106858322551 -0.010402810454207729 -0.035907919098983172 0.065734165200604031 -0.034207398938336284 -0.0020193995904764263 0.032895829875039258 0.082197632597257111 -0.0806635769523803 0.0064579083393887324 -0.075595068328715834 0.033970072997298928 -0.041506613658753709 0.0011516851452054826 0.051490949961856998 -0.12976569208946948 -0.090360669437441296 0.018237520197929444 -0.011229770777076653 0.016278553628086251 0.058342741055880942 -0.02192402964609827 0.041102088319283699 0.14211036115470224 -0.024899373737380312 0.048998117844390662 -0.0010001186916720854 0.00053707922811444746 -0.012880662543672537 -0.060177764214320306 -0.078165098125670782 -0.073177723068261744 0.0022505871809357075 0.058717623989312198 -0.025258634052884602 -0.092506556168890808 -0.078160664168785421 0.11980430712715562 0.069897948081631772 -0.086044787590463398 -0.042485521795084615 0.057485643447832607 0.044600380278655011 0.054016679982560614 -0.13376265592664485 -0.022754626764586294 0.11753428081364349 -0.10244629639690411 0.065372142991498364 -0.14871458483840247 -0.1676367137491272 -0.034359570563033313 0.0098167396722638779 0.013667126469116896 0.0049029075854478306 0.053751211433319873 0.064798032851074355 -0.023031777541236222 -0.15959417918941721 -0.004801432693010429 0.13130945665899935 -0.048521730270910071 0.13380520312333083 0.062176265905262817 -0.066935871130124544 -0.036207040828948635 0.012117479858994782 -0.033453779776922647 -0.045089820483854647 0.055759530741351898 0.09156812533383106 -0.034312681997585567 -0.064308864667916341 0.029204970614864899 0.052600858158685253 0.058684907744927441 -0.017610263556634101 0.12702274164767166 0.14328096790539943 0.0044330543011543294 -0.12764360063561467 -0.082816623438146789 -0.053452576985731345 0.097871207919145109 -0.11694484855410624 0.059494404218162281 0.046792901148511014 -0.063082041530327856 0.072168235610193684 -0.054733655941768225 -0.027376271282072803 -0.036097002809932291 -0.0036550915867650108 -0.05106097074755709 0.080979211490415176 -0.039683990029615777 0.0785761190107436 -0.021768636403112475 -0.024365426967579873 0.12045593335198305 0.13146145102608389 -0.044195077034584807 0.050094906625433755 0.039915585255176272 -0.032954601211038437 -0.077905717582424067 -0.12933717545033138 0.040771020201947755 0.0052301071891300739 0.084902943560563063 -0.065092262256073896 0.0068333176640723945 0.050117297856242624 -0.13793612154817736 0.06292003704149883 -0.14728849574478603 0.16683908893683547 0.090184772217974316 0.075516672706227458 -0.081665171736841818 0.091142711667297191 -0.08981234190283495 -0.1019050396652849 -0.10799488177960777 0.028069007980550755 0.0072309540849960765 -0.093930107260345175 -0.058717504729685899 0.037083106369540104 -0.046961118003799547 0.024004441045318712 0.073321255507910993 0.024992944956867574 0.014798931989023659 -0.013710276998692091 -0.088827007128350122 0.0012246054317541603 0.11652009466239009 -0.0024739421566061983 0.052735766969857351 -0.02484262941976571 -0.018892525080324598 0.16021750008976685 -0.09465027201670273 0.076426712852499329 -0.020039285117715144 0.0074718272697939982 0.11407554128894816 0.1973961803595688 0.091126400529248613 0.0082062335265449069 0.00043957085312423642 -0.22577652320814237 0.046315007748248871 0.042260315063892412 -0.030788668451829766 -0.094601287692185052 0.0055119291705203431 0.093982619307476062 0.027783880412135337 0.047843014972984967 -0.030121375699462258 -0.087555122669560004 -0.010570325785111016 0.013856988205607894 0.10079103651956493 -0.0074905655073048121 -0.048800725043826883 -0.09618497095261444 0.14452813335307427 -0.023290915484913244 -0.042535557925776721 0.072989295003231008 -0.01442000357910622 -0.0015469509701642563 0.061701352551595701 0.032433030908072619 0.055067867187577835 -0.099662368156289857 -0.021931650222613463 0.067503599815146476 0.036460440144631255 0.0085968245041136565 0.071582303684120968 0.10886720287205294 -0.083292590935020089 0.043732837965472234 -0.0042423286771617608 0.048674163862895525 0.048000389328476292 -0.10566178945327671 0.099066306814937791 0.048401628887057492 0.036298050268195367 0.021368659653794649 0.031747017126310527 -0.010889175592215989 -0.10575384297123011 -0.0078513056029834421 -0.0066542055467419536 0.076208393541512695 0.075926993863534992 0.0032344113127723384 -0.080773225205346411 0.063002158558197296 -0.010411151833407128 -0.17469953566827776 -0.064967899435941556 0.049705299004118728 -0.040430158222682776 -0.05769244085318416 0.038789803468084735 0.033457919495427674 -0.03912541359589862 -0.1306885286932192 0.013768036079637339 0.017615643947114859 -0.013988364025688017 -0.10376926620024335 -0.084096521441137537 0.038472016959663957 0.099332799820563825 0.079944813720436214 0.042912508143815163 0.080494207533790774 0.050507405487444354 0.022597663087561334 0.052319928995548076 -0.10288682331983126 0.014209488129159989 0.0045612844516987076 0.027501105676907996 -0.0055627545873592546 0.01622866413509487 -0.15031801137072606 0.042098484698411341 -0.032116363404689104 0.047249004090270746 0.045532170860078242 0.14270093637426262 0.056005418324270334 0.028252968284013961 0.021794413398568319 -0.088513511097857711 0.062140125751381975;0.1218257382125429 0.04895888305174749 0.19445107555270164 0.15439146178601526 -0.12497730174075622 0.2117740508997997 0.014848413558242804 -0.047343690199491917 0.081736280720392157 0.082287411733028781 -0.11523509312452485 0.010225038241838399 0.0059790222967090641 -0.093951995803018912 0.045840341397549486 0.042120925096669648 0.040017042110419378 -0.09747911235990199 0.09109697480220133 0.1034114441504899 0.11923043175000812 0.068217125845248722 -0.062485302343299333 -0.084614656101142313 -0.053570677753767386 -0.21565183635103763 -0.078908881668274131 -0.12902729537172364 -0.15004665019743546 0.12220577684418794 0.12713621604540867 -0.034305689858026456 0.011524890002855618 0.0013635885509756212 0.034180263518362383 -0.017973551500232599 -0.0036383048564143016 0.13595967055017882 -0.047505059855204805 -0.16846040840860932 0.15572277423016448 -0.012290803878268065 0.018428585447053503 0.10489518647767053 -0.030423794984777978 0.042440974896211257 -0.044278672884310269 -0.13674059008806594 0.17989503805740331 -0.023386358241940231 -0.078196202809093784 -0.084160127661674314 0.018698588908386878 -0.0014009661852717389 -0.083988321347440692 0.00017727137083139999 0.0025014228848961977 0.13985839017438165 0.15191571012737373 0.037505198416397538 0.010125498960089213 -0.007426347859285979 0.1254107983458897 0.16831043739807186 0.096754425330662502 0.0093576707805789767 -0.041003768320497277 -0.13800567955080936 0.067379612131780661 0.15228507297296326 -0.081291118463491657 0.027115604646991021 0.13872168150556047 -0.055849714237025068 -0.11673088222467616 -0.061755047525361623 0.054521170858304206 0.050224440945281383 -0.022541419828861719 -0.10591501718959022 -0.078860715018855818 0.17497100469821822 0.072778494549693887 -0.064257991674324402 -0.10898660774638189 0.10613305067460621 0.15206093506424403 -0.095637410269969692 -0.041086123016774008 -0.1072434923738812 -0.24291523279088054 -0.029032311707232358 0.15819333345600048 -0.021897235799735529 -0.017098393212270031 0.13919663328184392 -0.027652772234808103 0.029144988541555648 -0.075936295846914498 0.069169363258916261 -0.071975008895986292 -0.081255521682223636 0.084531570990253449 0.052584114682485229 0.16203780039658675 -0.010791294323789518 -0.043051469765019994 -0.069721547876241213 0.01805899201527841 -0.028338986998255638 -0.034054120038125038 -0.018855291103066604 0.018004278567153233 -0.10525681255941623 0.01225508462204164 -0.11968404960173896 0.056270974292333062 0.050391526821713245 0.14439393155359156 -0.066479018453389244 -0.048464966181064315 0.042948857836480565 0.060511600908316407 0.12778968533651591 0.031053850180179955 -0.025989934739444789 -0.0090249718386006521 -0.058954936979715683 -0.10074513644837611 -0.017306868079654997 -0.040460698159118083 -0.0066358277395830167 0.088642660302303819 0.093657450120400429 -0.14685812088827682 0.016723970311489325 -0.046148542604177327 -0.034750879205493163 -0.087856459747789245 -0.10061284659531457 0.048801011196069208 -0.02235584147445346 0.076146897694416807 -0.042889248494042395 -0.085500643192410311 0.050678124474757176 0.12402952554701652 -0.016375660334750842 0.1146674135668795 -0.060327569078307205 -0.044745389540677735 0.068977546647608565 0.02449280551071412 0.062433112739317127 -0.11856818897985907 0.092267996372143127 -0.091289752684965808 -0.11886793847396615 -0.06885750029976645 -0.10298106875584789 -0.20535618470892059 -0.062518406720934727 -0.078572546529612639 0.025610016353044399 -0.040692163425794264 0.050386601539139139 0.0077336443657890462 0.040976050301597941 0.059294950119353172 -0.060432051953790401 0.088918894572753315 0.12091410927861272 -0.015015828513112046 0.019236539296016639 -0.035248344894038122 0.03721361225328261 0.037814261035596666 0.059350006524605377 -0.074913379741237518 0.04502847167160573 -0.10027150270103109 -0.035214340317531914 -0.1232488178540708 -0.10801496313951058 -0.044368668910482474 0.047222284628712322 -0.022190915732484585 -0.13223792404452434 -0.051735817872212223 -0.052695529558955748 0.041104927564838155 0.067687371617122349 0.068180306218645223 -0.058850989019545247 0.04847924118271861 0.11747355506090883 -0.10580511739422473 0.00013235194831085319 -0.063870607438203636 0.059183746684861004 -2.1773664687339128e-05 -0.1719051528168945 0.010882428276598792 0.049259163988917533 -0.083291636671452396 -0.14860459707322579 0.098180923918500806 0.11079514336927858 0.095261222077578728 -0.044199706088195963 0.087776555246865035 -0.07322165412946019 0.03490365595446137 -0.094865734838872201 -0.043238830689614191 0.010559553142244977 -0.014105066319185651 0.11440279556394932 -0.081032944843582491 0.13409037548140212 -0.10106378032453382 0.053530106738414296 -0.075791146915884969 -0.021669191965215953 -0.0079343881992286064 -0.05322263280819383 0.058595219073078346 0.099993996965021648 -0.008387127972091294 0.027333757669690088 0.11937053593332303 0.092493526416050187 -0.09001440676508482 -0.14489762151133059 -0.075806548367465684 -0.0045683637917590721 -0.050012582727123306 0.099774191295245035 -0.022502844574129988 -0.073749082060403481 -0.10712639487864165 0.093540332675848076 0.0078684157180089233 0.12038939779225415 -0.10281452966392468 0.0014038903826410513 -0.12507752174774681 -0.092123652506245574 0.025218615822788899 0.014835661715976079 -0.056763194937644687 0.085859107848595267 0.094098698064725386 -0.076487309134935677 -0.083859463637121573 -0.093837099285929759 0.062079743238299331 0.082835908661891042 0.11787049920673608 0.034703173807360446 -0.13834313023206507 0.10571776633448736 -0.0026832687397567809 -0.042315501383132566 -0.05508050119518397 0.070949046649792055 -0.087502291120568038 -0.051154026244987945 -0.045687158404531955 0.040963600014394246 -0.10422327292049331 -0.056359517437171103 -0.053013252001986311 -0.0083778229287349622 -0.085191199106383259 -0.062170898516777241 0.079646373621711453 -0.22158310155902361 0.02719415833815339 0.062607927926352142;0.11078570204748842 -0.022311780163812821 -0.088687822225836765 0.013174432030486658 0.070406159371303956 -0.13025808942501799 0.11612290315395785 -0.019365387154215125 0.0050701475683739283 -0.014057466202102614 -0.16084434521086979 0.011305363166429454 -0.049260156473920409 -0.10836184007386788 0.028667502679480029 -0.087371419751343965 0.077728995488505329 -0.089827026827633383 0.087385127965998233 0.066587380797434051 -0.073701804467900256 -0.099034801544338871 0.091393366525480829 0.0083063411774336321 0.016453867183375243 -0.069152486465419091 0.039761903559665496 -0.19843220351884061 0.15508075509158981 0.095025078551322417 -0.011479617845384264 0.17511496777721808 -0.074969652447615026 0.17234136419610396 -0.011117917755349253 0.093395494362608689 0.050762082468138396 -0.16225588074047198 0.071299376823440411 -0.066958885188049891 0.031734475785071978 -0.11867962505556863 0.015955079210412452 -0.164629550489023 -0.0074970389895938853 0.034137447194020516 0.068580584334290762 0.031027507278515838 -0.10625766787713087 0.10043798579585385 -0.055692425387913871 0.065309277508664776 0.05640318991531304 0.0035220583033782719 -0.055278788519543529 0.10356304850221955 -0.058369290160961866 0.033842296661515017 -0.022014605547481143 0.075461185105674553 -0.15752877656266082 0.10682843990218752 0.11357215813450464 0.10310730286629263 0.033282053960773807 -0.073125110677945221 0.042458006674411491 0.10683253339895132 0.034659813740719206 0.030483149165162413 0.10783927166968819 -0.0082767965076279617 0.060294077087874452 -0.018212575042968623 0.069648670615085728 -0.043190368099794346 0.062181634935792915 -0.14461457024604576 -0.046731914440560962 -0.10960754406033793 0.058174028296119479 -0.081029703458781438 0.058886442957002023 0.087948735055359301 0.023999797780482619 -0.095788119403409186 0.15138980399334181 0.075500199992212039 0.23573769452276752 -0.0045133677132007406 -0.11628107954989621 0.0097765441274347675 0.090556618415149254 -0.060884446643561359 -0.0027200024576132832 -0.072205606386601978 0.070334395339250899 -0.12531707335141443 -0.054757533599708773 0.083265953844636739 -0.092500971478747654 0.052280096638883521 -0.058021677209016916 -0.0057199527155262289 0.014313141958856182 0.044219449730038038 0.05207469450041291 -0.039345783967016233 0.14472194855846801 0.10860031232301647 -0.085146798416733671 0.06861095421147248 -0.067322786695480141 0.12419692195165398 -0.02046721305042579 -0.028909188715883261 0.014203517446021052 -0.048139273690800601 -0.12964900458788123 -0.036286587116741202 0.12628870959629726 0.02922829961144055 0.16008628459609614 -0.039621851168036099 -0.11349119816540804 -0.14347654318511857 -0.028393593788630617 -0.0053386616631410488 0.0054278100446072675 -0.010068729479565329 0.095826746798079634 0.031436082503965256 0.013959613196135843 0.090361889371271181 -0.1628403479523565 0.10632156330987114 0.098031452424530013 0.075628491296813913 0.066903495271626617 -0.076066678301672533 -0.061388552349631059 -0.071015192366291044 -0.18639361963336548 0.032869127775742378 0.055768280627390879 -0.037149938940564953 -0.00098224908964635645 0.085301809556578206 -0.12267618686572151 -0.0089374969634120911 -0.14666694182656229 -0.15089457275073814 -0.046144462655348481 0.045560567172103696 0.079644660065965073 -0.10895013867666907 -0.014621272845746519 0.11255227931220037 -0.044182605665115754 -0.094850643472647655 -0.056510166436464893 0.14393000854013482 0.12641093690656477 -0.10995575556281288 0.14377109135226065 0.096488482674786616 0.065983539090526566 0.0029250690998245295 -0.0081016797630379285 -0.041033857148356591 0.082215019950930252 -0.058075925042133984 -0.142059048353878 0.076331011674001692 0.024813742886530512 -0.048876380701767294 -0.099167580914168746 0.10955207754617489 -0.12800764256504893 0.029034974016201594 0.013164551155688263 0.11650945114501621 -0.034641923362808753 0.086424737789721623 -0.11882265655263084 -0.00522601291538394 0.085475283218913123 -0.016510258679714371 -0.018633946893052478 0.11020376396298991 0.038769598090346524 -0.023971340363272007 0.10032097941386049 -0.089331086383309818 -0.11316810902102317 0.034481740170532987 -0.053541891904052036 0.11182272871195215 0.15231815797867082 0.018056040382953057 0.1096223600939593 0.098204765100151525 -0.053077367218380279 -0.12107505039313744 -0.093177643966205967 0.087651627835830873 0.047245469611873113 0.057765852776168969 0.043614339287416252 -0.056494452714855418 0.080185952497494176 0.043692433897629654 -0.00026851026617287933 -0.090462403503257807 0.033385789693548266 0.041252140865730577 -0.0038274680478160399 0.084551727062083484 -0.053266029376974305 0.058241245024651792 0.021520852749148313 -0.081547004473421336 0.16545041626085241 -0.04535765232455357 -0.056939020238288195 -0.033065294102757742 -0.014127973501364386 -0.023197416969220216 -0.010122839928463802 -0.056754559623835681 -0.037870584934684606 0.026873165211402279 0.1039552642950738 0.037526008414886375 0.14459494459925248 -0.16209243631530493 0.029706411925891359 0.057725186770392914 0.11316475049617541 0.049531131793164554 -0.07887953812034057 0.11205861452398039 -0.0069567906778027558 0.18152033405823817 -0.068685371671243098 0.013379857411275189 -0.13214451998069235 -0.17128506090850676 0.01345839648188037 -0.090856048929414554 0.0034974101312769471 -0.055536870689716251 -0.14536202355671418 -0.093241823856712563 0.075018690403288096 -0.15220864643396509 -0.032652907762419539 -0.1512051857533 0.024550158661403906 -0.095988739711292209 0.14386102975239171 0.10871099039550547 0.018608593064485902 -0.030636137846504905 0.090138083953755513 -0.0022370830177147576 -0.012459779281156741 0.16433148265913963 -0.092432611831828021 0.049487314037880058 0.11434682809094074 -0.031859146790905568 -0.022423477289297847 0.05841823098716982 -0.015295652753013027 0.077264117048778572 -0.010941048156419055 -0.1912660926716955 -0.11384053651595204 -0.029367012957609035;-0.071421769300260923 0.13592275456259434 -0.019114841102122877 -0.045021177285900431 -0.082953485208613856 -0.015876288966559925 0.076719731577935851 -0.032267024244123262 0.01708555745454194 -0.031540557227751162 -0.087173091262348762 -0.19344898739141869 -0.048987320028581791 0.018628586382233525 0.06565974403205789 0.0091891083721480395 -0.00073055129213490163 -0.021276991969005489 -0.30458327689335063 0.10806932122025137 -0.023594408348181918 -0.067626447002009843 -0.066451810551417634 0.094851356409785648 -0.14539019425723163 -0.082936607104547283 -0.067795038588244386 0.051942530765339556 -0.055205065845820189 -0.14867866404647753 -0.034945041220369816 0.054777655428869761 -0.088061603565292745 -0.033036307560726147 0.20854603107584302 -0.056893090433227655 0.079328074776761806 -0.089538025441807514 0.045640800683006293 0.18391770727649556 -0.12861731075838612 0.039407730521214664 0.063954307402872904 -0.024125713374705093 0.10909039816395283 -0.16301161292669727 0.054954335913181392 -0.00020264869233998714 0.14389482684016178 -0.089731111256564647 0.048738908233291994 0.017488817128941288 0.04397403559377433 -0.074130984422995427 -0.14019864785065386 -0.024824274738352692 -0.08129625974205261 0.072940999354557778 0.032844195793540365 -0.038334238669258919 -0.010027851836841004 0.095397416006027955 0.058068259702273826 -0.091002324098080387 -0.11003437794503992 -0.12023543520446248 0.012635476081858821 0.0078211290909728885 0.048551259497050719 -0.013753148074068643 0.11603218114217656 0.0039740372705457834 -0.18385038256473102 -0.014116153249946509 0.274106407374543 -0.035407813390154225 0.078612283364577776 -0.011948652236314122 -0.076939015826532176 0.018696186055035605 -0.075325508854864998 -0.2684139023056249 -0.049584605523251293 -0.117043489290842 -0.12190655822931318 -0.027875192659735315 -0.050371473940144823 -0.022256524884396157 -0.049953938923107406 0.046936133766878052 0.075029807875473795 0.055593510409176136 -0.1152464025160332 0.034628814808216987 0.069271412609809346 -0.037605610942208906 0.049050962989153596 0.0057943448549028741 0.10108303948629495 -0.10031401689155579 0.067230567063969501 0.004580764514687888 0.015432739484311935 0.074786099601772016 0.0094838298384921013 0.1543731743000242 -0.085364871788449329 -0.04959305901286943 0.18046723363861991 -0.033426819706622972 -0.09822020849700662 -0.11307314453306899 -0.10415484200375831 -0.25186700825529512 0.0049202596601772616 -0.018145443622290508 0.038284569482670769 0.060718405037757793 0.084908136262531408 -0.021642874977709274 0.026929033160778867 0.0016825625476370731 0.053949374043742504 -0.034680771447999262 0.061804838930859855 -0.012322196913598262 -0.079648609575337009 0.060447243251189095 -0.023188588443753062 0.077916170639198021 -0.34638699760169511 -0.088986690408408772 0.079998764086607166 0.00081316866877008517 0.021238355371985467 0.005098486007693151 0.099299690607133548 -0.15768303499558758 0.00075161628313339009 0.020786021361028053 0.0025814040479956255 0.061329937297700067 -0.078545958250212225 0.025043559657990832 0.01211688819938388 -0.11492151244031906 -0.10778751750843152 -0.1001369310107903 -0.10362090006466282 0.066482861364086931 0.1685362216273607 0.113949437014812 -0.019481948150966887 0.0014893509489172967 0.097963970593776123 -0.1017176056615718 -0.1565203507736429 0.049478300920114446 0.18481180604050887 0.012447570543461944 -0.00016433936461125037 -0.12039600029646447 0.07316007506292703 -0.19836675563621697 -0.01398886522223837 -0.11083512260809129 0.092350126525577669 -0.026170994841664182 -0.08828049385968631 0.1572772090709188 -0.074045938921813381 0.052711030361531103 -0.039585929711666676 0.017017193594508845 0.076544090888222727 -0.04349571954243852 0.0034763577335731244 0.060917856745921289 -0.049929960454148221 -0.058123022642432118 -0.11583814160602214 0.02918300888203422 -0.1038589703015881 0.032662996367556894 -0.15122541510243986 0.03299376445048316 0.048181818645310015 0.096652716210333472 0.058088792102314955 -0.010211244908681718 -0.0051427050990765985 0.030925893508954069 0.16618060652113598 -0.015630066260204301 0.10730874936214736 -0.054742032389139994 -0.055931699489077009 -0.072334934081063271 0.027504454985822852 -0.11489612675532873 0.12524599467695574 0.095383158601157578 -0.037566045342914287 0.048829544023127787 0.16285809638012619 -0.065520885894293446 -0.016222516724424027 -0.10083182900089628 -0.13702729364788177 0.035119941077336903 0.13039450196969912 0.043728355929897954 0.12632098159949279 0.0018081838691351403 -0.12593379892782239 -0.054056055883114323 -6.8066666860873903e-05 0.025970493038333545 0.071739114036008966 -0.11878049437150671 0.062733565921099507 0.03377637464012144 -0.020360920819788592 0.049639510595293868 -0.080717622354028684 -0.016666687169389537 0.012018342467859872 -0.14903416004048126 0.018368086540995823 -0.0070036095808959364 -0.090127792106289975 -0.038956025080043422 -0.025096529665015119 -0.12496188840954639 0.047811858131780738 0.12325401932540248 0.01870385384588405 0.016914402892887273 -0.042071189263028497 -0.076914597995937056 -0.020264133940547251 -0.003996599368061295 -0.089286018696857802 0.0085963308494716069 -0.0050568613253354879 -0.035568478187067827 0.050077491442585956 0.12496582668742656 -0.059827074884975184 -0.016478025668984493 0.11899150315729175 0.034793986986567764 0.051666720076827821 -0.048954699311679728 -0.11402366317448853 0.017786637488164586 -0.13688895296765594 -0.024685670402117933 -0.061745783624644397 0.024097415386962702 -0.15323456185072271 0.13506298276542042 0.0035055793627251997 -0.029899875480543722 -0.030594816726759306 0.075708397177702419 -0.036835681436265366 -0.0097763439712575083 0.061350230424113285 0.013777666608310826 -0.033441623036938026 0.073100220558084017 0.022054200181315185 0.074406579387159916 0.12550881354705379 0.023951431663711123 -0.086217812730027779 0.14365964126228772 -0.017774104558968294 -0.072810978431846432;-0.11233441508121267 -0.0046741946093718633 -0.078105678488537847 -0.1493669797724137 -0.059290676360616523 -0.0058088786260620962 -0.14459930602639579 -0.16050465084517715 -0.035604855847890755 -0.0028828843482224861 0.082106499159821544 0.092421013075611749 -0.036300103142291984 0.15085627944858826 -0.0054800157717122761 0.19120841428708951 -0.11978088177937106 0.14124956364423372 0.25493051676248474 -0.088507671749526562 0.2130236449014874 0.017181024500299142 0.041362949752463747 -0.056082894989254985 0.12408351049432129 0.14482934025958133 0.0062447224317631091 0.16588154247426726 0.023377645198652212 0.19228891097985745 -0.1163187651926149 -0.047262938559512128 -0.066070395399923001 -0.097617857500390787 -0.045808983176191323 0.061038326178525025 0.040184326978666841 -0.032680414708946594 -0.052921673542189851 -0.046176578198161705 0.041105946303898272 0.0055925122267948104 0.060119206280099771 0.17008595099886492 0.10509796217521471 0.048691378472743914 0.029699295912351452 0.036684400219704538 -0.059107457443165978 0.17020554505844812 0.13721300961046679 -0.0069064191932357412 -0.074856869024889638 -0.18879284855578091 0.072024379816863812 -0.094706066704424635 -0.061460701314753209 -0.10518591326069476 -0.070048068778394104 -0.09746100242787914 0.067311547282334627 0.0044008613566993149 -0.020757907597109465 -0.040022215244593339 -0.13268500897650415 -0.017356251481336266 0.072018958913674741 0.060269192936499842 0.061808536593415543 0.030966929445678925 -0.057101171793327819 -0.13743150837884494 -0.029445244995382369 0.15460823094133105 -0.055186515153925884 0.24311372710107088 -0.0067734230752794795 -0.013005785557173714 -0.15813522122617371 0.022665566210254753 0.070632915124313578 0.15981366880562844 -0.0025886490445071395 -0.010455278219952954 0.040919392216296917 -0.022036186566773221 -0.13123787090598044 -0.13615894207569226 0.066259495256647524 -0.048399660006555684 0.05084431084076755 0.061668430955525544 0.016712694151230605 -0.051127331159550822 -0.05322258181781115 -0.072354020589050175 -0.15214017809372576 -0.061491790706263622 0.077915245530439173 -0.15453913422625434 -0.084352743543469985 0.039212131077376325 -0.012598577365232322 0.02716481775789082 -0.013400346145878997 -0.047892263909101535 -0.15282161745832618 0.12276551485312218 -0.041491700324942413 0.086857040723879717 0.16982891839145264 0.017948729569891405 -0.026420069326077721 -0.17258669389698514 -0.047130080727749074 -0.10924626594383367 -0.065524896039702921 0.077375607705855054 -0.064710852224008755 0.045191953660355701 0.10599383737869926 -0.065025695259921648 -0.12796766950725363 -0.012316898068974989 -0.16368938710872227 -0.075317660170921577 -0.092314548687853687 -0.0054714601744177381 0.053165970042580883 0.044215359128468218 0.061939916575447042 -0.09038571477970811 0.079588010944959361 -0.061112816688036066 -0.042740397774873089 0.1113014209520202 0.018281235211732028 0.023803521127238585 0.18815470849670379 0.12088292812468666 -0.0093786456006352287 -0.089181940573349605 0.053464613922142523 0.077140034619787634 0.10381450508614412 0.067082015466233186 -0.003674711131156104 0.077509890610596835 -0.064250518526179023 -0.080304039340375999 -0.075541258462645505 0.045949154075018046 0.10265133402647778 -0.064007801451034255 -0.14588639810189055 0.15750465722499385 0.013080198073179517 0.02800976632415695 0.10108404950834925 -0.039500839184490245 0.19969151817872077 0.099582027427897499 0.025708507917362729 0.10546307739266705 -0.14923423483148796 0.013427586017647129 -0.049806329445153771 -0.04167670723833234 -0.059572228065482333 -0.12606576271505374 0.097764840215953136 -0.031833368237270288 -0.060496640497888193 0.10103699992384842 0.078571342735095931 -0.084265778452423196 -0.05440201253633864 -0.12464756285174985 0.05592067553611331 0.15713710135477774 0.0044065167762830787 0.02213429782225915 -0.096587386187648866 -0.12257557272407379 -0.091861014157815876 -0.089936015876722425 -0.11896929775728213 -0.025501062199733741 0.040218541801491633 0.06643477941097041 -0.00095947610204041031 0.1129499258704592 0.12814375617186993 -0.048715759973501166 -0.0005591413664632497 0.074025960897527443 -0.091215305377174774 0.13818773527522338 0.12502821129995775 0.02809571486825551 -0.010534996571042208 0.083018386842198408 0.044416888580758776 0.059550958476050776 0.0051691101874986965 -0.090394755312786498 -0.081170993702667393 -0.034565676507603643 0.12738434434846793 0.10699951375649969 0.057814900110760181 -0.063074093264177775 -0.053395157161026684 0.030340413863838116 0.069651661314459046 0.14571647838512225 0.0097139374396693449 0.010195117078580793 0.047563538239660821 0.068002077361859148 0.069390680972586327 0.19125532317539878 -0.059738550068485281 -0.0044916661057744101 -0.0059586461886397433 -0.0064364977665672465 0.014515374803275825 -0.11888675119245271 0.068907628100157159 0.047977359931767875 0.12345352086256592 -0.064350948591001905 -0.065480156156927607 0.038403201250018691 0.0034533301692958825 0.02118521680845549 -0.26645142390114585 -0.0092678210503776091 -0.12712932204369851 0.10899359221071729 -0.063303124994543533 0.094529563637174907 -0.2045057801714093 0.090962161407239991 0.042130597865107276 -0.10644183107517781 0.071184357001581627 0.0041031922764594494 0.019584460390213863 -0.17052853929120293 -0.029782510311231098 -0.20740030335290097 -0.0085996597988375455 -0.12331401581831755 0.011646206857792149 -0.089156406322585785 0.029771171939576069 0.026359093127489835 0.040032855868310138 -0.021528645183590586 0.002205759740010459 -0.13338402483784523 -0.15858600052754157 0.149382370739788 0.041228212790241102 -0.11523116142801931 -0.011248024436731056 0.012997994705375169 0.0018386085911636027 -0.084274890902922131 0.0021832754864757539 -0.092796741682207196 0.10501919509304655 0.051983772343781751 -0.0327294122481546 0.11380844637557841 -0.028596534709498411 0.11052856983197303 0.1104945965024703 0.066174948097954475;0.11567861372453264 0.072166075824659295 0.11827970531617502 0.15197030586178201 0.0010170229715126006 0.0023514009673792722 -0.024679805604070862 0.13515953537290407 -0.052673534630902567 0.046231731428078279 -0.049943224600496904 0.17539792145702149 0.010024696325173863 -0.106159055631225 0.0023033294306692631 -0.12103679439151097 -0.044102914861961787 0.010977534158132417 -0.018397670166926554 -0.071213332899223436 -0.12459966529402912 -0.071666214279141688 -0.075338303699866174 -0.078265474391433221 -0.05344603081454561 0.0030512177073408527 0.093377870524710027 0.13373409657402563 0.11326374916371448 -0.027306515238050014 -0.11814121170770145 0.13665236924373136 0.090503307467627886 0.07387939972970553 0.081561338512681963 0.10349736882797632 0.057919115311808538 0.031566271797470145 0.020806598950825518 0.11896887451395126 0.18037905361779383 -0.042493947495388033 0.011660916516710675 -0.12613225038208392 -0.10818201885162798 0.061982264138796719 0.092294905310539938 0.049921372976457476 -0.078123615531605184 0.093230512999413553 -0.13435856373148097 0.10783219551087445 -0.010411510209224921 -0.10710922091587027 0.08530998847543797 -0.15094094261943666 0.059153588552415398 -0.10209395621110953 -0.13166221758199617 -0.06859422468960058 0.066751639204049251 -0.032911592243733204 0.048637047702484233 -0.021160082609127835 0.0010163287612336188 -0.042059014632860582 -0.026830112261446864 -0.042882577080783843 0.039191502346969109 -0.032465193294526934 0.084771646757718103 -0.010855919147242862 -0.088211432556774341 -0.015559821616694836 0.066119594302024048 -0.089533335382551996 0.075124929640420543 0.023260192020147129 0.083354071382425635 -0.11848095813786375 0.086128033416760785 0.11960410509561704 0.091960324369226132 -0.08809645613072159 -0.032499287789468888 0.11473695157367142 -0.13001728159058987 0.045335718534744419 0.02757068522179484 -0.14112544219395648 -0.055117373876058556 0.05600385203583149 0.048693539761779064 -0.030378278347920073 -0.046725984813382887 -0.066718759555895304 -0.049669066582165383 0.046917695891359926 -0.12766287142191826 0.091065955158611531 -0.0090403371722307235 0.10489571198145145 -0.074202628384226407 0.0099809715015725178 0.012303316582834012 -0.13704287811737331 0.056520210710260727 -0.01372115416629496 -0.056780058693932545 0.16664186001527681 0.088964936257531158 -0.046057649401637715 -0.10236585107059183 -0.042353960241020887 0.017935820116613595 0.038800243256754199 -0.08014997367955691 0.11614451474427545 -0.067808480881280914 0.023889456355722708 -0.10775557495790887 -0.12332150484538137 0.12451632975623482 0.0022055234988887021 -0.053932229512399815 -0.085423744564670279 -0.050167614915567746 0.081982158531399757 -0.099764343418306714 0.0044490011261132858 0.018106877640892909 0.078608704390807929 0.044049102294464917 0.05655908426284928 -0.088946070913187555 0.036301366919667961 -0.12891413691175885 -0.11877520169064343 0.1080505814788382 -0.037242173483325702 0.02106331141606331 0.062516818044104097 -0.057749368155444292 -0.01553038741783848 0.13370976163558315 0.11609246691758401 0.0033841203733762171 0.083265108129404825 -0.0021990473470914641 0.072581145108917625 -0.10998125134566687 0.018747111406278483 0.029060481905910426 -0.10057387447201728 0.046115725310614739 0.018484944811617554 0.07091121506905311 -0.012713667742966291 0.03553339579315986 -0.082295147099548466 -0.034425623905464407 0.082563664404373543 -0.018760709643552854 0.061727049747643405 0.13063509916068908 0.021378045471259311 0.11930156845207544 -0.13438586925019885 0.059627607315729199 -0.1335433466208476 0.084563755066393159 -0.037874699623077324 0.089909504813712043 0.17227068328947973 -0.0029491512949766305 -0.0049902501362737699 -0.10436676351209734 -0.016304526278842553 0.099043610705005239 -0.039751297007849781 -0.10678090061883769 0.13192434343302398 -0.11778533448484979 0.11135070047588176 -0.055215724270552109 0.1293498116223068 0.10242159540494043 0.044484607214808396 0.055026643369774586 0.080349633350793814 -0.10863367409368471 0.0096260917042497798 -0.034024875724989287 -0.065697199930335057 0.0045682349080946143 0.051872920658272141 0.074677804629019101 0.038408333372619501 0.046440729852217699 0.072779986716561051 -0.1276134324584477 -0.060305234857298773 -0.012176889436723081 -0.0037527781322472297 -0.11150222309587385 0.137899803451148 -0.035361521616907476 0.081343990649769021 -0.13930942358031226 0.15362020798093851 0.059937834844719831 -0.068152942641717132 -0.11035935167426512 0.061418471441414359 0.056328320415424168 0.05423109878243898 0.065404573225687421 -0.069788548887861387 0.07602981382495877 -0.046341122209632407 -0.079046941538825771 0.024857776961363195 -0.082316418161626256 -0.083621218459612373 0.060502327035384836 0.07723844264513087 0.13970965448314931 0.090920593891891485 -0.16591044478489961 -0.037356980967684791 -0.10561272802030192 -0.098266264666205472 0.083912905214640759 0.13291488478318852 -0.12171660072560328 -0.026744786886912543 0.099028309885499932 -0.034997613309856734 0.11814149302097515 -0.011121793790871203 -0.079392844946320762 0.026223351402173696 -0.043909428775936718 -0.1432047691253697 0.067553342722780962 0.0700889815304898 0.12766373634263586 0.08029908150376934 0.024712204947570406 -0.064743627641695611 -0.044743946574810962 0.11942662642592004 -0.038510231185624022 0.089396840669290822 0.094632325701224249 -0.016116321288947119 -0.062859945993472041 0.052288188102822868 0.00014804967247950343 -0.1115406692525148 -0.074385303379346263 0.0034853772052407528 0.082796328985799 -0.029715061867814554 0.041264699464995835 0.0488813956332661 -0.062585515548515991 -0.023821510581544022 0.02801343432643541 0.15207346285041989 -0.10903954132950841 0.025026727760142867 0.027320993131744555 -0.03301912963083737 -0.050388561350824562 -0.056507755322636154 0.055687057922568776 0.10765444190411541 0.036312289753185657 -0.11919840329634314;0.041392867793248855 0.079982954984580912 -0.034966982334945676 -0.10875036181382099 0.0046150981702762044 0.085096197446178343 -0.095164512747175453 -0.068427553167488817 0.060767185636017879 -0.16279404829603997 -0.11718729732515817 -0.026694983619019817 0.070441520537096181 0.075841337171885612 0.05911731894055116 0.025714588746990605 0.0085459086583717318 -0.01698318207884781 -0.18407810957631535 0.016896807358635437 0.1401892046657989 -0.057371689206329325 -0.11314748712927733 0.032321302477555214 -0.13958461141924364 -0.1119790602393797 -0.1407864420023752 0.16582848988599774 -0.020102309621227367 -0.033052976424354445 0.099930579745300174 -0.0054074824908943078 -0.054009317475942259 -0.085822232024300463 0.0046022457330562178 0.0016430189637687384 -0.11238790238753733 0.098724488338863034 0.031826490369852835 -0.010040682309985328 0.020062374213974762 -0.035642320215260481 -0.0088489007860045859 -0.08819929751780918 0.18904704964422278 -0.099066020220282117 0.010084816560167166 -0.10929677758398418 0.037450900003447779 -0.11908999106850336 -0.042344428588580764 -0.129375228832665 0.033223310276255615 0.046112411363162506 -0.083686083175281228 -0.055635152327622658 0.017631065439506148 -0.14485616974747381 -0.036965229716379416 -0.079230706551018715 -0.064194393888106951 -0.07013065736290075 -0.05399782663340294 0.013930148837141661 -0.094611643761585443 0.12377082354265459 -0.010201135942140617 -0.013027961948152511 0.01597633852225204 -0.019412229177984276 -0.11549053625377542 0.0026578881615192734 -0.015622503950333152 0.026262838797963681 0.13193055366735795 -0.097781225034062669 0.051568646064779851 -0.015774947813816706 -0.1133662466296793 0.057580282840368535 -0.040199811864217422 -0.08674230620689094 -0.08164749202654728 -0.12012250441859568 -0.089460782332181826 0.061674285010314328 -0.096599652056918853 -0.064266714489268545 -0.078883358178312102 -0.045662057179492427 0.20080251971740545 -0.1133743299327126 0.16311313894130103 0.12949159697432036 0.036769381843492197 0.14533549740748875 0.086277732824066727 0.086324203494466734 0.058290122480857534 0.058245103442490495 -0.0057315774868744529 -0.011823651385131556 -0.056153219140316492 0.078929984494953101 -0.14152699330249668 0.03905935570253094 0.0060662715926467162 -0.044376184820447813 -0.1609684430010245 -0.12972191358321045 0.11518060502008898 -0.088597671812221779 -0.021616580994381476 -0.014769816561040044 -0.057249064627107063 0.012762907718469082 -0.2210971631243826 0.01040914181702551 0.10617150418112693 0.053410044283316305 -0.071922738866673039 0.037301823371994398 -0.018998823783588706 0.075209134565341423 -0.014066188799056925 -0.018738525423233648 0.025121043539116435 -0.10626556035538082 0.015561200213979526 0.050191713019673033 -0.10954711301883764 -0.025855322450682776 0.069156742221035683 -0.12003090863776322 0.057929817649414593 0.071875636577086413 -0.0039703347183293273 -0.18807921233756056 -0.0016819195836722499 -0.013036546591228349 0.045202902959003415 -0.036197125786106482 0.061285859430594336 -0.052264553439357181 -0.017442442060399486 -0.0032431880571598 -0.068783298834134879 -0.11965038486790286 -0.095829930421018922 0.12921725387744068 -0.04512972354453304 0.15929679480753428 0.015893695234808561 -0.039413445996453064 -0.0638233841783266 0.027633306644107049 -0.12383092425164846 0.013305343852875802 0.039743834128908175 -0.077323161463064935 0.03878948480032323 -0.15801615738759178 -0.015083622424214384 0.12146694100942057 -0.011616890362643177 -0.044005809692959155 0.079781412659450129 -0.033038236611241292 0.0015227772833245425 -0.0363139280481342 -0.036541646065346489 -0.092292655442225591 0.044725298644033344 0.10168640048491979 0.12677700693529745 -0.18076665779242976 0.089662516611733259 0.087062009828269588 -0.010131262710213128 0.029145125096114336 -0.12654848164883081 0.0061797215288697197 0.10868175431022255 0.051728411102220956 0.030012295655326475 0.0026648648458209049 -0.080298895616669738 0.01588256066641066 0.096414472297054341 -0.052417278597235377 0.089165690942533835 0.02617966465035473 0.005305964581010539 0.016495682929376244 0.011149643693019943 -0.11401728196354168 -0.03328050461688542 0.14162364133471417 -0.1296225852490977 -0.041751865868074944 -0.041044986105102564 -0.0023583823255010523 -0.043110089020809629 0.15461088579662841 0.12981552511626165 -0.14482351094203599 -0.057106844306876056 -0.1234239260977564 -0.01965729936726375 0.03287149547552097 -0.042519004325964227 -0.10265454519234565 0.0062022237158979865 0.052598172886658176 -0.19557639565663751 0.12824057601378622 0.034860177460776146 0.13976622119577276 -0.061744600692696924 0.17460792255260155 -0.020516967354222506 0.07427051351407353 -0.040410659752246669 0.091422766638146968 0.057560522611768458 -0.055087033476434739 0.058657828690031569 -0.093183242931134919 0.046994903087915235 0.065737741024141844 0.012335190688300898 -0.046332563871160221 0.039256533429752868 -0.00096568968236925706 -0.047055855413648651 0.11039057441507995 -0.056881742841727576 -0.082368846686230207 -0.11462862884521037 0.086779472576769545 0.093534662065200627 -0.052239454987938583 -0.06943130660055942 -0.17454649164109562 0.086610825997142163 0.018826517542677324 0.094331251053910992 -0.082393982307447211 -0.045686406464950979 0.10637042806484394 -0.081365624719800286 -0.036768844504804943 0.068880143307689032 -0.11868329528142224 -0.057153652197853275 -0.008437264726251217 -0.057941194532670277 0.16391579156405867 -0.037129460480464338 0.022042970045797236 0.006673047312966569 -0.0051556698483189957 0.00098401297422340359 0.072620387915989265 0.0093797847354755749 0.030490186129463078 0.076589582578997117 -0.052247920500381399 0.060631755050329875 0.02401866037489666 -0.014739216106404607 -0.019985777023958123 0.05105544865386636 -0.11766756904876423 0.037632901636455732 -0.015692036474235692 0.1177275723127397 0.15943266106123838 0.1440775865604316 -0.02442491535150685;0.00242833974642063 -0.048747778369989239 -0.14222736069114736 -0.20614540347591861 0.011397662797462255 -0.083129256196817672 -0.067214798280152907 0.087756987865497724 0.10219083401429979 0.083768048314541516 -0.10713570557315225 0.14158818647291996 0.10535412796111511 0.040344610520875422 0.0094688509039018137 -0.051133557159358176 -0.079628096579037619 0.016406993665847702 0.12762764398002949 0.03752370060577246 -0.069990205108825088 0.045888197968748913 0.12198776609930653 0.13248219017432766 0.12106724586500706 0.03761331000315371 -0.035014865331678961 -0.1049243056666018 0.11275324675766372 -0.14767388697451983 0.104556411007619 0.17301284150895782 0.098844465473279478 0.014539871822032814 -0.026757924280683756 0.010349310436267682 0.068349402833630252 0.031579760227769094 -0.014149548292981236 -0.025531450886590402 0.037587026960777023 -0.12053245468264609 -0.068088426498597143 0.072580301606730832 -0.12807769632201393 0.049316501556224107 -0.11903586266092259 -0.012507169882251604 -0.034311622804093098 -0.017472725508668484 0.10089347202473296 -0.051721552688273581 0.069631267104583353 0.08750205522295261 0.12026227667185928 0.10754994568402484 0.028690519639335266 -0.016060863193748835 0.1183689145358999 -0.11827909091114644 -0.063406776938525714 -0.019574699303952638 -0.0072382961019856699 -0.072102918149747203 -0.083819806845789518 0.13678107766465647 0.0090599423283234826 -0.071498067568237178 0.029936023145036406 0.025637456210523261 0.14330888124274246 -0.13003892264673647 -0.018601522315469403 -0.038970526362617677 0.059447963863965614 -0.029142261253696282 0.046831791632286228 -0.038732476878997855 0.1082316870232703 -0.14982873398755214 0.030077515374040742 0.063320935393697486 0.034491496043333042 -0.0026590426152583099 -0.020401976134155151 0.19406344189269636 0.021279158657887265 0.019906407408164052 0.0076367184513895679 -0.10329682496600232 -0.050043029723441788 -0.024648855723475555 -0.14188791570228645 -0.001436077263423409 -0.022030164452537013 0.069646712119061677 -0.037559659460209623 0.076508532903724641 -0.096229759689984054 0.063894821462906273 -0.059032437389241507 0.040222313379898365 -0.053876138893738046 -0.0057288096897538318 0.12719681680552999 -0.060421727074464138 -0.1236568918280319 0.025007694728473487 -0.049157102397126631 -0.050577774414613939 0.078110095948116576 -0.023990245817147624 0.0043681524035004407 -0.16636649533429276 0.12561292767103255 -0.040580612378856309 0.0048921260800569716 0.08622746047425868 -0.060261310514137308 0.064287579897594746 -0.040614944751517605 -0.00034034358369551803 -0.069611220918443906 -0.012827838945731106 -0.016390490437143232 -0.0060226269330345208 -0.073850139235721979 -0.040019577546282464 -0.1008271121117873 0.046803964878203042 -0.060344546180667674 0.099039257707768377 -0.026197055473057278 -0.042204052786701633 -0.12223180632572536 -0.022007359538349241 -0.00276031847519689 0.051846680339849904 -0.028480771845048814 -0.025355733014574944 0.0076019593966749578 0.17096904922758707 0.10645234162630174 -0.099272406730727777 -0.055279162540889222 0.031018277794082984 0.10715391121172069 0.17718747631984841 0.071850678740319959 -0.0069852015493088969 -0.09892419963617835 -0.18259457195487638 -0.069234338966460598 0.022202162369795293 -0.057633800645833379 0.080608577077105323 0.077566956371420512 -0.01388096603733923 -0.027246436115439979 -0.069404132555455494 -0.010027829591423593 0.067794846105023496 0.049359624582115923 0.032708738348409996 -0.083746326367377 -0.053070135892442569 -0.025452966479953723 -0.10398173004360736 -0.0076955698253257628 -0.019570920621733882 0.072677617552000612 -0.024568473816408032 0.017097797604438712 -0.065053360009549824 0.012625270171883796 0.039709818013104525 -0.052557463428993687 0.04648742845246373 -0.078277836454281643 -0.02210773219971086 0.010904263515166046 -0.068031591162894964 -0.10736365512948816 -0.035392389390481171 0.06386740723340989 -0.0021869034119674294 0.06972431899441428 0.09906131548968386 0.032438610339616605 0.099563902524510084 0.13447431593018186 0.068392248977604056 0.0039198881870447806 0.11274972359433617 -0.022732101119601597 -0.013233325624938702 0.081809390094498474 -0.085705889301138871 0.0086598036466812942 -0.099744768913854462 -0.072942919905635839 -0.052842441995948355 -0.089160835983109532 -0.058588203779010257 -0.17392269203670085 -0.015899305097736863 0.062713594490992314 0.037554460585327125 -0.045399286149699201 -0.041988374976231653 0.032947434254893333 0.099445899148644379 -0.095401731008934829 0.027000047321125986 0.14347349802445186 0.00084980169396712754 -0.016486731365155164 0.1171757831672951 -0.039720829231439062 0.078082347009782144 -0.035164852713014526 -0.057200011795553604 -0.0775846630544893 -0.045234247077510822 -0.048491708383256463 0.016892445840637985 0.044340324143109719 -0.034770324909039779 0.017712369327072802 0.041616004547063837 -0.041483298251682316 -0.097569158375356499 0.015253700071933454 0.0083079110888706845 0.03712810562474584 0.066140959656062176 0.082725432473175875 0.014684934968260404 -0.069769381102381775 0.094048295601234816 -0.012818480899883749 -0.15377147810238209 0.13052560065405017 0.050452526157804538 -0.034414578660636505 0.12781591496072212 0.026086029187347891 0.047662499576507325 -0.0024733655089128233 -0.070597335541517953 0.034956787040536223 0.1115302036568917 0.037082865709823637 -0.19549680011560441 -0.012598758789864608 0.089497146190813268 -0.1380632410119601 -0.033731785356125005 0.0098416764581936815 0.014629790293780438 -0.020504639460007596 0.013498827809539923 0.15818265359742234 -0.056270418770652794 -0.0025555442576811723 0.022014810553149161 0.037873026791810399 0.12914784747563215 -0.039215781402063235 -0.00082347981066848916 -0.09487782370786306 0.038133270146782958 -0.11671158579530867 -0.05064923449267298 0.077674921532050939 0.015812924033987284 -0.036619209735765573 -0.072098641248970849 -0.0046660602991005556 0.051418353768220411;-0.03240395255498997 0.10660658079799003 -0.062097710576019358 0.073375445910948953 -0.11844778866333119 0.040217548295347308 0.0015634849142357708 0.01650261212043742 -0.043348192291309956 -0.064720420108151613 -0.078640906565392493 -0.071673916446347144 0.013973494070017408 0.10230691596758022 0.06795778101610879 -0.071190941765759241 -0.1215378893620989 -0.058649102515683983 -0.13062399965852803 -0.04181424728357111 -0.029791025800418976 -0.030257851896911971 0.093162710338296803 -0.11070590558622588 -0.067463665335845607 -0.055217530454717854 0.032485674447789291 -0.14519987462487932 0.11955196604505756 -0.047197031800373219 0.050659417419864426 -0.047770504572577956 0.098459167730143432 -0.013739826919249026 -0.006719316503197589 0.036831819955417941 0.10823440895764203 -0.10337186369244675 0.074508429055265821 -0.073705529019206642 0.018247806698178836 -0.085380987297260694 -0.056892198966800187 -0.076908902947392457 -0.11073001893296143 -0.092781030704842712 0.11564606024227578 0.16069354288832943 0.077060361410205114 -0.020262156555126441 -0.012449394010087638 -0.10721988728775284 0.065571372715401741 -0.048254157817551206 0.11667685691375904 -0.01758766359261784 0.12988238215723055 -0.092368198969838167 0.021155348566412432 -0.048779725594754228 0.11538515391439833 0.10690667180188401 0.029764964901776658 0.10196731002585722 -0.088962158455845833 -0.081743042736828114 0.078555186744908911 0.074296788617935552 0.071822849638946321 -0.032105044334865815 -0.11516702811536535 -0.0073513292764265529 -0.091385990208903506 0.041453206955794207 0.029081567662307614 0.036564520644910295 -0.084972685154273794 -0.071263161471151221 -0.037434293040115613 -0.099951965668677131 0.10455256731234443 -0.079344629296504252 0.065912810159553609 0.077117448115406093 -0.011653049282636557 0.045873242975128709 -0.13808570491524516 -0.13813640194132443 -0.110885108588651 0.087166161056941999 -0.059716517760320158 0.094497355810359659 -0.021955240161040369 0.10494167176703786 0.010568137379089532 0.083347280505129712 -0.12229811126254879 0.071848007068297678 -0.088307057284173304 0.063510041331431843 0.096857771096850925 0.012647784941992495 -0.11790540393372879 0.091874269482480703 0.079139058734213646 0.083419899024784486 -0.081858927740422013 0.12916879260840597 -0.0021268756774131554 0.11868435561034435 0.099342918499979518 -0.0080589955300588573 0.13365995756258184 -0.070923445398934151 0.059438617697048897 -0.064478758409496031 -0.10596932095557142 -0.00052205820530528725 0.029620365235306284 -0.11457225270026333 0.0020856724319668046 -0.053421857452973412 -0.066748821474798908 0.060196257229844029 -0.014692178743700943 -0.010985872319855847 0.012630368166081665 -0.071747595783269696 -0.044309499828176266 0.026698304360598606 -0.037557437395821076 0.052965382302469444 0.057194266672912428 -0.055931777218227015 -0.066642390521910275 -0.074146373328177653 -0.12953598288885712 0.029389224999678786 -0.041703433392854095 0.085481042067873519 0.02275857468618871 0.058045670667801384 0.12486468740244341 -0.11150325452233301 -0.010855007656462022 -0.039303337430687632 0.026740748286510855 0.035737179062700374 -0.025603932857021901 0.0092925171824139053 0.091024449823273512 0.022048502926267127 -0.0013875085891744132 0.05615002860459254 0.080264723608343427 0.13003865731063191 0.11798119908926842 -0.031344961022412965 0.076036037178076069 -0.01268363312558827 -0.019693285833381147 -0.076659165028477486 0.10492552544311901 -0.06572999494021986 0.080079902087335994 0.13299698021793344 -0.0099510815031865416 -0.12081495256046998 -0.1048857188047556 -0.0068919153607976784 0.04101682367122203 -0.011457955109492685 0.04938027085118149 0.097697679004876595 -0.050940996574717214 0.032998280241899075 -0.078936887042687379 -0.10939196174010486 -0.13344468056118541 -0.038055902480273879 -0.074651254561420216 0.093148821886588462 -0.11777249099829971 -0.081950054215986098 0.10737553349595182 0.0042991052877780073 0.14203229214854729 0.12046162858819449 -0.16206333442832466 -0.080043110997869968 0.08625702658454612 0.095580791780532595 0.063316281275521663 -0.091306348354081954 -0.062480888811337905 -0.055501810699266352 0.056272178330577814 0.035065085484163545 -0.016453907374212737 -0.080918890911955144 -0.020676072148200601 0.011934728580996742 0.029178786381848419 0.1015906965808295 0.091750688613883358 -0.11090102552983044 -0.0041760349189510345 0.054745894091112184 0.076296456258091241 -0.055831560841012658 -0.098680145073700376 -0.1522779922462123 0.045411605617528467 0.068792797077866411 0.034154972188493476 0.14935459750676022 0.093589605644070678 0.037263750434212518 -0.056925411032189219 -0.014694642542253179 0.06821889353335174 -0.012074238969169593 -0.13393647008738724 -0.060032184996896436 -0.10809743972501308 0.0046188625007118102 -0.11307364909613254 -0.075074874241695386 0.10270453023693159 -0.10206149129563662 0.062789596984947543 0.026622302729897813 -0.02031822338988306 -0.071106260907887145 0.10102966072458774 -0.045226277191730592 0.00040314475318399372 -0.045362037060041362 -0.007397746199226134 0.10246888056048151 -0.051968017032204994 -0.086348428103962177 -0.012287561113751115 0.0085501968026348192 -0.024773762304925173 -0.0028196247336553567 0.071094707860156314 -0.12441460740912316 0.033371934076628661 0.027963082836734033 -0.11801446833502392 -0.065924609615191282 0.018769172759688403 0.088364448337434412 -0.10857972908236735 0.023148178374854347 0.074427967653078297 0.070293247714468571 -0.085964538229238399 -0.13367793306026787 0.11423827486026653 -0.13685674123042105 0.1234759111775859 0.0886910968126398 0.060242917817510892 0.015684941902944186 0.0083262455003556037 -0.0415401263856136 -0.13322774193473008 0.0025818995593152134 -0.047285096307899205 -0.038798616436726927 -0.096096811481816063 -0.1298080058683195 -0.032682025742688553 0.056516101585367129 -0.044526098918297292 0.040290790150913358 -0.071302587116407412 0.086857596975446247;-0.042388952770689464 0.018234155633164308 0.094343117472207527 0.087972112546596037 0.05176512379614067 0.096181022803081301 -0.068468972475426965 -0.045216653915351623 -0.046460666444671277 0.034628649794408016 0.11987811446092203 0.015989360284569171 -0.014652912604608036 0.043346474355923495 0.12959293456438276 -0.10627050813259316 -0.060296609396326133 -0.055515009538054209 -0.083619965873231977 0.078580278918281746 0.17576642923941382 0.0026165255590618001 0.12274850004956785 -0.1144533026946558 -0.03764184106535079 0.092496889586968098 0.11974988857556168 0.098565119759747216 -0.069171988192650954 0.15069715916447654 -0.097391478791368349 0.039797164986716073 0.07382157480004789 -0.097298257860538917 -0.0065185874993045371 0.057498090389687437 -0.010920635846744978 0.099527256362938507 0.017916572442074459 0.020816183713383493 0.033858667945943381 0.037295811030159033 0.027720129908884734 0.05475643183242674 -0.0091037849276107245 0.098057591588516527 0.11204063339362984 0.012238263420160586 -0.053938899850463705 0.025503694484530905 -0.0079276505214950204 -0.048039655149906789 -0.11687554130915279 0.083799081416324944 -0.13054175236088114 -0.047904640939522646 0.080626811506515891 0.022725731686444577 -0.083690475955942187 -0.031762357426054044 0.043008551369467553 0.043469343387238131 -0.080329922000739379 -0.067203313286728864 0.02526179561394493 0.10751957964835179 -0.089920322871138186 0.10345222253140629 -0.043782582105779004 0.072628590300070822 0.088801654532304763 -0.12558410110271204 -0.084448406535686762 -0.00081258585562873345 -0.027053786945101414 0.08039216710968225 -0.010301167466125909 -0.087289659514860063 -0.080230553100817864 -0.095824116035121268 -0.061589717475501592 0.085239354461297032 -0.085378778724747209 -0.082558904804647643 0.087256566450631456 -0.102879950751321 -0.031522632684421216 -0.024191464277526782 0.05410590946116834 0.025690849059795098 -0.024358061101606761 0.043628400151997974 0.027045101469221015 -0.0054785875635373002 -0.053756759246285743 -0.026216207560324417 0.061374966365323386 0.10330038605530523 0.086177828478574581 -0.05138061899930154 -0.011921498056496269 0.052373560021213086 0.0085893250332269352 0.019190116500486749 0.17830558660007209 -0.032252330131076201 -0.076273235909147322 0.0026235605474678914 -0.12174095420492739 -0.045218222581735315 -0.12614885728521605 0.12107496332894138 -0.048707195957701135 -0.041512734750371386 0.12357321698767605 0.10206373357989552 0.064685840043822898 0.1213655014363243 -0.029973939925338366 -0.067760823313522331 0.13097308586008422 -0.078834257811826139 0.068118700088221337 -0.080374287786260656 -0.14074255112430437 0.13721231617249888 0.097764510705899976 0.015634662253152125 -0.0041293626178623404 -0.082145497250194793 -0.03389449881361431 -0.027526399077954768 0.099308493238607395 -0.028800670649345196 0.095707532986190946 -0.069961644559722799 -0.11267715295600957 -0.12061385292504131 -0.00736211409511843 0.084336726163171699 0.01529571731969262 -0.10202338028799351 -0.078794141733526946 0.0057430275973200514 -0.032354441122546637 0.086002304036100347 0.001227908154588034 -0.12756989685450296 0.031397455852917026 -0.11823283660212447 -0.0059044217270094838 -0.04025489332167239 0.066551657583214768 -0.023960750068059634 -0.0076489782462866914 0.089286276344103493 0.068912752734880511 0.01219191202537471 0.091954048466192387 -0.055591360972443944 -0.035593975676832396 -0.14252921984180156 -0.013427799423111515 0.043281488639583768 0.092583288603300895 -0.05306487779243594 -0.0061738537316119646 0.0049987319787222345 0.12730262326962938 -0.062837597898379727 -0.11212531960226607 -0.042635107265291912 0.092555001622030203 0.042667584659631067 -0.095922270197312282 0.04550670190917367 0.13863170873926087 -0.04538421441137426 0.012730736989906052 -0.053735956760732985 -0.096450292653431996 -0.044168771171743337 -0.083607818031550235 0.049042837494911021 0.0075106528993027204 0.048541289661315115 -0.11329768601105561 0.021447415538628476 -0.0015359629926550301 0.075746885970262273 -0.030125751336211481 -0.030192188457753195 0.11531310684998852 0.13735486952480677 0.018220011842223788 0.073836959914192299 -0.019657526467821811 -0.070045862660933295 0.12936620203930066 -0.082960073778471644 -0.13030101504816105 -0.023366879985527205 -0.0054983421037951693 0.13091233498515034 0.082322984768570556 0.076730339668841907 -0.040158317420682918 0.12784919540496417 -0.13907292995585802 -0.034076001119637059 -0.028201196891115204 0.041550833869766428 0.13455159325290186 0.028871523972808122 0.053794058263223095 0.007161535899721563 0.015612586331753255 -0.077768507941331527 -0.013098360850814665 0.093500086782117506 -0.077100260740048887 0.12916873120715811 -0.14156807573272362 -0.11935974271241397 0.053524124792007695 -0.12629859008529687 0.11658678157945247 0.05523992125988831 0.087219857991209682 -0.065435383477136469 0.067253570779316929 0.12801856075941379 0.077429562627720203 -0.048146998088575192 -0.11814524179582707 0.0046489737348870824 -0.15367062103750251 -0.037368497509374467 0.13478628670898241 0.0024975539120664953 -0.030386571267933773 -0.13511525105079822 0.055794190563953162 -0.15436286913081848 -0.0030206754486864565 -0.073202867076306702 0.097202712723653537 -0.018191174012492456 -0.085841545525179627 -0.12121014947641234 -0.11222083843439776 0.043165734539133305 0.13795580291524492 0.09034646886328912 -0.096799266778338541 0.044607095636120808 -0.051036764203729254 0.063145137189590486 -0.057156408298473169 0.10493398293803358 0.070698261829364645 0.10144700835671849 0.079701159595528898 0.11099119357146628 -0.00082506973948887237 -0.0021998225204199265 -0.070697292416115012 -0.094476081034876036 0.030934937260399867 0.046820528303402345 -0.074024724739373285 0.085678986935947471 -0.0078161967114831997 0.12386485862964226 -0.023670355606586025 0.050225922709542931 0.045579968056283372 -0.11637276472267551 0.084301298141867306 -0.083481649468492694;0.092203967189865232 -0.18266021948585826 0.044565459760588851 0.13852532861820502 -0.25893838215918519 0.038928556660593291 -0.12714393006937955 -0.054057428250138803 -0.040954292023538556 0.042860922605098856 0.020694929739156445 0.085553806245526109 0.032283908641518123 -0.037828960752057217 -0.055108132855331241 -0.097852377185316489 0.0063426711844280313 -0.067730121297257875 0.14744355354820096 0.091868256746066301 -0.054095503949509613 0.037131183247013609 -0.050860123760194838 0.085036425068076807 -0.059698575976284855 0.12061678321015143 -0.15364078917628918 -0.028438249179490942 0.056597007069559564 -0.016142764206797753 0.066213434188751044 0.19805951740230748 0.052974181070886819 -0.08287981416877592 0.1682633210079279 -0.070493002395415866 -0.18472576161232454 0.097122931251217973 0.12945051085732653 -0.097926563953893264 0.0047632258927814905 -0.14867892935706595 0.030131296642504676 -0.011168057743186811 -0.096414120077736518 0.010452023489753357 0.057413273292307956 -0.018049461866365482 -0.0019299740946694679 0.0050839931548123714 0.002772294708807143 0.06610031306272246 0.20161347418494771 0.010684998200195304 -0.030102705501619975 -0.061240439847016825 -0.084231491085478449 -0.12719286794248705 0.027569674553347662 -0.044888364495540033 -0.019812269887830466 0.07036582345344955 -0.018886286545376111 0.013314145393278657 -0.10708932828492967 -0.1081555919157972 -0.13219325492801043 0.016318463178993169 0.012628196332338529 0.15862311740858254 0.094919894706656197 -0.071155603132159059 -0.015121171654920449 -0.04390551147654885 0.15507870293330572 -0.088738284605323542 0.13264913740285184 -0.087215610685452374 -0.061719556494716853 -0.010138219239766866 0.093831426831005149 -0.016883843308026399 0.028704330327980844 -0.010076385429234499 0.08666936966460774 0.082439779875581043 -0.048756052215168114 -0.007286723621941227 -0.044800248585801491 -0.046950199515844594 -0.029200361756799235 0.12940851920387883 -0.12439040110490394 0.078959186740175519 -0.013194570055628997 0.2494818891215338 -0.14340163790240493 0.064903176723243222 -0.010313515580215824 -0.042753613503486665 -0.078274975606391267 0.02845870961032777 0.022751649927984164 -0.098406221786481216 0.092753560019721126 -0.1620515329875207 -0.056692591402907916 0.15420300144902216 0.013626258769149382 0.018049133304689297 -0.0068047172329193739 0.03640237256970251 0.0467393110611082 0.18401883016842782 0.037751198528695143 0.0023906783256322645 0.14340674071340292 0.060293517328853248 -0.13291048182879134 0.024031023550354767 -0.11257252153707936 -0.018772242080733574 -0.091312291080286559 0.1465055428730338 -0.12991716630857597 0.13125338742175602 -0.01162367282802943 0.15589053741567196 -0.0018535697148551241 0.10423703139440325 0.059085240442487461 0.074700357148019675 0.19731107875425014 -0.015405302326805932 0.077182580894470262 -0.12685806349881312 -0.024644558115721037 0.085334926200680672 0.021998114813620257 -0.029378524538404723 -0.050819981842954803 0.13561350024236227 0.099721623860192954 0.048034442273217993 0.092564015467915123 0.085441532134198028 0.020867712599502382 0.13075836776464425 -0.01336883164345324 0.13463477731045101 -0.025145941216623013 -0.16015156441559111 -0.12622157614776591 0.020155243644888514 -0.026358590324149431 0.11654501519670092 -0.042700496200989375 -0.11466990158208107 0.029864110062793003 -0.012728649140369228 0.13471722034613631 -0.10797871629408751 0.098934848061601743 -0.061427809121305882 0.040703464799436331 -0.12792926194741941 0.022644298930342952 -0.0013387961637926216 0.090804145048256499 0.15936179428989936 0.1450111890855727 0.067312666351356021 -0.03798096601761311 -0.22553067710096941 0.085534052851143433 -0.053853656153892072 0.049859540634200866 -0.11576949097301152 -0.07217325072839724 0.037472314093875136 0.12988296371027752 0.013230403526214749 0.075507565727227832 0.1278343869419718 0.037779200416872417 -0.066562206529479889 -0.0016113357652751735 -0.0080711928580325457 0.070252591556164923 -0.020426556826222332 0.072688464787039012 0.03246559045969636 0.0057924754246461482 0.11135773646227703 0.11820970798885264 0.02009213248610309 -0.0018751426069512959 -0.041952549747839449 0.0069388192508583451 0.10085066137681807 0.10945866249046163 0.035840006410992692 0.054724805889355431 -0.083686635934483347 -0.14675446508579268 -0.058564237799706917 0.067733643914111338 -0.036310369474363155 -0.0071381447347629422 0.064632861195526053 0.094172297811147498 -0.092986787110995284 -0.085924415065996435 -0.10438747834763562 0.053146101227917221 0.082359227415344474 -0.13950973805085773 -0.045055383873742839 0.067260127708282533 -0.049708309328517476 0.10790050606319007 0.0089910304475405052 -0.0075409149301184624 -0.059975618165738272 -0.072382786077386491 -0.16408596649912485 -0.066183645190364529 0.070230458527471298 -0.049770899056281445 -0.08508623881264693 -0.068606853094873022 0.1300500218272104 0.10556941426340768 -0.055027557833658675 -0.028930568668828677 0.12852975127250271 -0.040608597961899605 0.053485086635031674 -0.1280639178454917 0.065974528620225709 -0.029755151022505318 0.084812436212672607 -0.028181557699261135 -0.057514936757090629 0.11021173143466069 0.066154870788035253 -0.0074865834092046448 0.099587881832426145 0.042320519803229435 -0.18306930848870251 0.21036189151285511 0.097332923654552705 0.011255339121474955 -0.036181781245157446 0.047908672427733674 0.053424915391736563 0.0096544407712461575 -0.095366986530132272 0.018741926475858223 0.14999526141014516 0.1310278349003805 0.011038693925628432 0.14652074108837551 0.022743165012811276 -0.047235579373937686 0.042793307243530143 -0.036717038253248277 0.0030726642183115968 -0.068595238864905539 0.024174571966810381 -0.018131215169277758 -0.060170379202373912 -0.12526526502232155 0.0043537159797953345 0.004102974107013338 0.0096987735060355094 -0.036804413415626291 0.10249020472281649 0.06025430080271358 0.029258885215514344;0.066037799944530753 -0.03316730169502885 0.066568593085018612 -0.17235743204235812 -0.10387887044718552 -0.028631175802196693 -0.077596788147051038 0.10943655254242457 0.082415650958957282 0.048587619637176865 -0.03094594354643573 0.049217157529175437 0.085414815170988354 0.16749355241475045 -0.03811747982288155 0.15747215637760428 -0.01389773896850917 0.064502302925657062 0.061371097770668633 0.045693491295770355 -0.023537270177968975 0.063532919091161502 -0.016262734744307221 -0.13077729373082037 0.0070700213874773429 0.22267359094787215 -0.052216869767450685 0.060245453453366488 0.029946606764788355 0.063799501451197269 -0.018054960066240886 0.0088392984550605888 0.046193448814355442 -0.040316268009640902 0.033074802911206604 -0.053230200952959668 0.0032633268349657645 0.0033011453177835101 0.12333970570788623 0.032583082160620891 0.12357555737898594 -0.080841969030496466 -0.081925777982117809 0.10958645650388354 -0.013691237658536762 0.024528652806207626 0.073106745917837473 0.030663478157049763 0.010003567655757963 0.065028925388728634 -0.0041445017519224601 -0.067087224986138172 0.095377503158124571 0.06978542948696706 0.089297772365554168 -0.15675285173019801 -0.06544491463204577 -0.068447477278271301 0.051193169599854385 0.12178090843730421 -0.10993814424711885 0.10307966772262285 -0.14191628395753203 -0.094521224505819623 -0.090993531665772842 0.0023769523995300118 0.024356913536519878 -0.025363228567289578 0.036424276151543804 0.060375911140700685 -0.10498583288208742 -0.054808329588742793 -0.085043027775958555 0.072865770285674689 0.042991945222503346 0.029563784651108736 0.0049562013899626632 -0.047107746971436902 0.022122121384094921 0.075886572272545999 0.074011610066833822 -0.058438836927618296 -0.12525382480908082 -0.092353570707681021 0.046334215172215143 -0.067664281984194136 0.086240086924667794 -0.10419109661186467 0.08680303886807994 0.048694990095382813 -0.0042749270882550192 -0.026212340044067292 0.012748452325486676 -0.067478103229891118 0.0074625048547867787 -0.14178286614986577 0.056669786182680905 0.019739050223824287 0.055710203752022541 0.078481695940940108 -0.046951322468691534 0.14020834810111812 -0.022144499614976713 -0.0032163333180219092 0.028883903271550496 0.038535984989860571 0.038461259124744115 0.085765934570791222 0.068281578016804012 0.081528917104711107 0.10549235112711823 -0.19570970684591019 0.0048610161635142327 0.046676673546117743 -0.084080176480786126 0.061862107109181191 0.1442689063721061 0.084179832758650985 0.026714097703677862 