function [y1] = myNeuralNetworkFunction(x1)
%MYNEURALNETWORKFUNCTION neural network simulation function.
%
% Generated by Neural Network Toolbox function genFunction, 12-Nov-2017 16:16:12.
% 
% [y1] = myNeuralNetworkFunction(x1) takes these arguments:
%   x = 7xQ matrix, input #1
% and returns:
%   y = 1xQ matrix, output #1
% where Q is the number of samples.

%#ok<*RPMT0>

% ===== NEURAL NETWORK CONSTANTS =====

% Input 1
x1_step1.xoffset = [716;3069;0;0;-23496;-32092;-10756];
x1_step1.gain = [0.000213515533255044;0.000117082308863131;5.8707237281444e-08;5.67328005650587e-08;3.55473401702718e-05;3.08756329504755e-05;4.59527146566183e-05];
x1_step1.ymin = -1;

% Layer 1
b1 = [-2.8477085941911446;3.053496315050968;-3.9885648031258469;-2.7991600564411017;2.7288797678039374;-2.8178878690846685;-8.1958867826329307;2.5994876726384808;-2.4086526121664016;2.4358015760463942;-2.5360835429489539;4.6768566422884223;2.3967312371911267;3.1064684745705073;1.1854429243057292;-1.7230103701803972;-2.6357764322490369;-2.2693082017996167;-1.1328639850376567;-2.2247706528182842;-2.2327937428884441;2.0178851791947987;2.1266099065346835;5.5773971046174964;-0.98642906805547581;-6.6602022162805286;2.0812757764085146;1.4491360934952586;-1.7720975973280664;-1.5951647557057205;-1.1823853603411145;1.3750924268774847;1.70743895442746;3.2970121164380792;-2.2624685650337506;-0.6238964671344106;1.7185508088126529;1.1856759006748281;-1.7742150297941568;2.0005210459345606;-1.6053957693145093;-2.1823021341803641;1.8768041195107117;0.97289748518916841;-0.086243597403153849;-1.4302139945808312;-0.57818103145802524;0.47917245058391689;0.94824325574676438;-0.3081785096541807;0.84181825355392725;-0.33306312793343756;-3.3949331750634499;-0.35619204891746137;-0.95599162782449998;-0.26857338696366989;-1.2057087433894844;-1.9235445309573631;-2.8452701878823787;-1.2207649900042812;-1.4250635258244011;0.58721451861420904;-1.9989696980805758;0.24233203776834364;0.20237458943824205;-0.061275786143310244;-0.75340033687160546;-3.5268660051664766;0.44273285301044629;1.5956473442592964;1.6599462400396474;1.2307074853987647;1.8377896669709461;-0.54519429340695169;-0.41747674372860455;2.4648768076448637;0.051427727174366389;-0.4676460263014231;1.2751931659593978;-0.43486410512684881;0.68608977235475999;0.54885048746012266;0.53199129601225703;0.82178756672140063;-2.0726705758227153;0.57263499663163164;0.040223109479398916;0.14274853245694849;0.42310502229797936;0.7461405399705473;-0.3704130186416722;2.1604489575872381;0.050090675840323326;0.7778329245756983;-1.0231358695968964;-1.140847331803055;0.89705970807357782;-1.6430028211239154;0.07697834412496414;1.1298269536811054;-1.6317269966019363;-1.8821383974344585;0.68557557091756882;3.1661463296484138;-1.230198765122251;1.2738701978304519;-1.5945568131546763;-1.339055390029128;0.90636624459365944;1.4179214495515551;-0.18562635322121845;-1.7724560114144874;1.8511062680321155;-1.4329324172345819;-2.4726326685697684;-2.4476509565945883;-1.4561229577214618;1.8918701972919845;-2.3292410189763224;-3.1034756060775162;1.34258370618011;-1.7524019069386498;-2.2907511991337501;1.8466093769361589;-1.8780928367774645;1.388552679265685;1.9914380976236314;-4.2617920265527029;1.4049844330692189;-2.2683060021377308;-2.7719240838560215;2.4936572222423865;-2.9898991815105012;-2.2867930979655919;2.0088375601730233;2.3517361487912374;-2.6632768890934071;-2.1774508783716935;-2.7218948500520672;2.4641054037455521;-2.1376225063124066;6.1182316407619792;-3.0751054442819448;2.9828937712994477;3.182411810352499;-2.7085562028133765;-2.3207644559036988;2.7936284750321985;4.7001389846513364;-2.8663297012999034];
IW1_1 = [0.079025814631883795 2.7017882057862037 -0.79535317757378265 -0.78700464784039104 -0.63840865758714005 -0.24552543820239137 -0.52491605087068349;-3.8964495176531946 -0.78683555745924127 0.2767592767107413 2.0458209230401732 -1.7308318991095624 0.6097713177306413 -0.40989379158295469;1.5963918649668709 1.5378411007206432 -4.2838181587438937 -1.423204511793233 1.7716313674131379 2.441794362240937 -0.021865116560885182;0.94552978065923132 1.7367885165745187 0.53013483168404496 0.25711608764688781 0.85464278668355964 1.0703594308868494 1.3846331833196708;-0.77804500666495446 -0.57285291039094399 -1.4762012260560524 -1.5816287141792513 1.5392185406491823 0.3381894280904123 0.36176334812209204;1.3923044814470245 -0.1245007697697221 0.14739749531423618 -2.5439201415913169 1.8604888097171413 1.6283774850551278 1.4659710761867522;2.5778344060004375 0.41812834733956222 -2.9130255389914144 -6.3873472435666603 -1.7234574791139656 2.4768465216089015 -0.98790697359267099;-0.078163451768819017 -1.6675824620129509 -0.32911845523996675 -1.3253059896978108 0.34377045787393468 1.2532473830974358 1.3636093743793505;0.68188998868127471 2.3240715875662534 0.2007324185101306 -0.82839174022558726 0.55603598851764802 0.5265921117811585 1.5328846174305968;-0.21080316839464577 -0.011624742020904411 -0.065254372721547882 -1.5986623507824322 -0.22446959648480408 -2.3255462102283584 1.0759708692538017;1.5661005091191531 -1.9896259439105459 -1.2310128734344827 1.3437247033912387 0.0076297471288865586 -2.1961257302680952 1.0502159359679635;4.4164378689438033 -1.2391400281566958 2.2901731809626438 2.9704636425614166 6.4920554184001986 -0.2000189794810518 1.5245807329846013;-1.3587634823192551 1.1537671918334422 -0.47776701478143985 -1.1060196731963148 -0.91447659841796369 1.1547167552488822 1.2131909538797818;-2.3570863090710699 2.2321978025661369 -0.43554818237495208 0.021403771981235113 3.4005546315854831 -0.056706175785411456 -3.3551179656102175;12.094699516466283 -0.20403201900192763 -2.2933356435306895 1.0407274273935063 -1.0646329978557996 -0.35372726118906533 -0.23248779156344268;17.59958779274498 -4.540521514283836 1.588041349656921 -0.20802909250172893 0.14741992913813881 -0.3695608344368585 -0.048753899881685353;0.67481463232953509 1.6778279953962061 -0.55656150308507435 -0.82502802553897092 -0.43264937949557991 0.71676795672951998 -2.0917586848190672;1.8143188537646384 -1.4817042318746161 -3.6242615333760675 -0.34226989903443172 0.078934012015960883 -2.6359666329624707 0.56673231293142023;2.0381790337772365 -1.2549884522550037 -0.020567248153059867 1.1000377917274162 -5.7779681002864978 0.068714233703543445 -1.1683511884963684;0.26062713844164426 -0.36938110332491952 0.99795418371098332 -1.7379638214559452 1.8180752604361121 1.7620584863275486 -1.4669239127270333;0.5919060594580674 -0.11234336960416669 1.9099677295900921 0.66420835563334257 -0.45950953603403272 0.64661000847198435 1.831399478589024;-0.85784236268706804 -1.1416368936230361 0.37188663502427927 -1.6464554612622024 -1.4769514314492065 -1.0924075837374894 -0.12176781066538654;-0.20385205427362338 -0.23662539507441133 -4.4661838248576249 0.77880202433056156 0.56672477741682348 -1.0136894271898653 -0.32065644639753055;-1.7188017953435188 -0.4039837678927416 4.30324549103186 1.9732160677056323 1.2425114579023773 -1.875036001565735 0.99386678791435035;2.9887514916075979 2.5143622986155978 -2.5162617354925083 -0.054007794242656816 -0.12565525080565271 -1.4132837954667432 -0.59096207400734246;-1.0027918792119412 -5.2953145320435251 -0.08699034907798113 -2.568681792469687 1.2793930566288503 1.5310229305133323 0.41400787182533372;-1.4954596822030646 0.62796257773060904 -0.55228031816529533 -1.8194841047132655 0.32435062141041016 0.89610486520974963 0.20532724831639762;-0.77537716552536684 -1.2125408446485695 -1.2735515751719777 -1.102217792726667 -0.72633315230184448 1.1479402214866701 -1.3689084307037263;0.24825900355813457 0.34059478387228714 -1.7528301712148793 1.0704861504931891 -2.4454831893168931 1.8810668392926058 -0.93892656744535219;0.55867261191408368 0.16758057308759131 -0.81675986504427989 1.7577470457656421 1.9195257229400216 -1.3938333391266688 -0.76102661896540835;1.6450223698973516 -0.53078978681074196 -0.91750734873970874 0.0031347382121533342 -1.7455623441449584 2.3603172354253443 -0.45699853209798746;-1.2452391483445571 -0.21395477535733884 1.9530071115126906 -0.28319869633690276 -1.3087378403775332 -1.7903068223968002 -0.28064964665220932;0.98808734220561689 0.21130950637355733 2.2973578096194425 0.68418644609688839 -0.13673029478755119 -2.3161633470268175 1.3410824566488759;-3.4691410209638569 3.6282313386155698 1.310451115530795 0.094250410814575886 1.7877341526651589 0.84370976521720165 -0.081558388711109944;-1.6647218370754049 1.5917130618651485 3.6331392862492722 -7.7162847013797506 1.3352290174786308 0.88453114822608225 0.017129886714928683;-0.34769720744568244 0.5699664628695138 0.33488048831393386 -2.0794431978090278 -0.78947630360123466 0.86573816855370866 2.9265902342897738;-1.3249643835922476 -1.6780979891696188 0.86954561920268114 0.016732463722489696 3.1835958927865011 1.1032853662581219 -1.7372492986058428;-1.3768868205988674 0.59920818896981498 0.28107406101157767 -0.58605636357748248 -0.42521735286930706 2.6502474473731366 0.047386766071476752;2.6851686209261509 -1.2551854595433531 1.49077235073317 2.1862469063064087 -0.85231859157834633 0.82969512214008112 -0.1243112583390973;2.6015166369281322 1.5648342386225191 -0.12135697391922784 1.2618129306184243 1.2295858754197437 1.0761180432446835 -1.1112995221472264;0.32586590933523518 -0.31130782520207845 4.8342409292234532 -0.19040427529236723 0.59015606846927571 -0.4371257562604246 0.36953825824168463;5.6907333735048464 2.7739876617548633 -1.5272486855049687 -3.7180426803367994 1.9591648685990906 -0.59950309130080381 0.53564715941315988;-1.670772163760708 -0.91177279980427872 0.90021485897670761 -0.72535780097224045 0.23693035847006796 -1.0072699007663681 0.78391109452616281;5.1496082576155926 -0.30970732010368074 0.51940436990450134 0.10791709740812044 2.6585246451958384 -0.71062345704759333 0.66385433257363491;-0.17603418757957576 1.6015250489302972 -2.2615148325332863 -1.5723458961984726 0.51109722541833191 -3.6414440526450802 0.79212748095025787;0.67632235886645597 1.7683948665758531 1.0000904610271077 1.7205725501551945 -0.4603224256059138 -0.0060244446020936374 -0.54658003580263759;0.47935352441116441 0.21182759988563116 3.1244277293630498 -0.64335137806395482 -1.6803352074098137 0.74867448306369511 0.55389428329574208;-0.13110974962957192 -0.55825262852816238 4.2935577174977677 -1.959131494699873 -2.1384011013399342 -1.9839946011996066 0.11411614615028312;-0.28157896578659991 -0.43066692652698241 -0.96896425560056865 -1.4836340929681968 0.66350920203804031 1.4132303801255754 2.0101292650485423;-3.285320847654106 3.4961517967942037 -0.83590172862805601 0.16963924298072972 1.1192901193781202 0.28025083395009026 0.59355115713356155;-0.2813788983927562 -1.6292729440392193 -1.5563961780004385 1.0130410853550758 -0.089452920242714645 -1.0633411336793723 1.7386781711778196;0.72701953674253827 -1.6288954497897785 -0.40277544090537071 -0.73197307274730128 0.64151565094370677 -1.4536188962531169 1.8256686966485762;-0.35362732719956536 -0.31363152888401591 -0.91836717802767842 -3.7890606404002107 3.2195587876021201 -1.4080286961536495 0.9376490366433412;1.9847914871992793 3.6226279353037691 -0.20653652433954667 -6.3433619682306981 -2.3136559111779671 -0.57082530835390854 -0.84183986410380751;1.1924092054174626 0.083913539331966297 1.3617176197538596 1.303578073592172 0.3770973569355463 1.4684630938579923 -1.4018122040115852;2.7085067138715906 -1.4597635714829542 0.73704090135242128 -1.1152940452982592 -0.36549554821660118 -0.066779219409554599 -1.1364138675550632;-0.39399059586835622 -0.83832066851377007 -1.6630804789138929 -0.65403574069911519 3.5558097626173044 1.3632007570011122 1.968699394509285;0.85743371514227051 -1.1623403335682296 2.7094709184341501 -1.7523421814898708 -3.5921891967655246 4.4966608308024991 -3.1451290029176273;-0.43563151500334646 -0.72306650717078902 -0.60012051438867653 -3.0094548011644608 -1.7307693857362443 0.32779018204561178 -0.11106390190085001;3.6302449209523511 -2.1049997192972536 -4.0317864026983985 2.5713290760785528 0.42531859818515783 -0.62506444250023574 -0.034702778721773547;5.219356948481285 2.7310025204873734 -0.46715357193518287 -3.2542953518843745 0.40122245611792073 -0.060399116846419271 -0.016968038685477721;-2.9085015051167429 -0.0037200192977863127 -4.1482655825126482 2.4173849963452185 -0.098006101227646983 -0.61773955607791975 0.17473587031871321;-0.54016828603497613 1.9494354842860206 3.4715199873631124 -8.150834909015499 0.27127369788583372 0.2569298539192838 -0.1557880941524438;-0.71019880256411216 -1.5625855759442528 -0.93989947970536258 -0.57836526432738089 1.7396089196001108 1.0895602807476759 -0.9627314371897796;-1.7979685633894065 -0.79721815431862109 2.2028677950268789 0.30367368166775766 0.23198201508131894 -0.264974148331728 1.5868377632205917;-1.5436250142730858 -1.0640826825816341 1.4492058525197353 -3.9856054045408844 0.10908815869371002 -1.1236362649730121 0.76176605399257047;0.35126400221154436 2.0782352408708538 3.9954228519699924 0.24439170848222577 1.5584337624478137 0.41294698131350821 -0.57902895157184286;2.5714555895018432 -0.73580757881939007 -1.134811017198134 -3.3421547801212452 8.3904711104477503 0.18180035835932273 2.1119044275828767;1.4452856965574186 -2.5404289692195894 4.5816373459119575 -1.1249918906389018 1.3633134050787741 -0.87465764913723021 0.60629011609334849;-2.1841459538166195 1.103362470256644 -0.19807896884669027 -0.3602687670000202 2.4638513689909463 -0.15505782865100631 -2.176371268664905;1.4025431863743749 -0.97684819861118399 3.1544421413727073 0.6858209589087807 -6.2660433070806114 -0.23881495681607293 -1.249255426060303;-0.048304861017743964 1.2115013558807126 -0.53597483627375775 2.3958935542707063 -3.0932341951387627 -0.45340695094615557 -1.9660236368699864;1.2173657396044009 0.81277710108504497 -6.582905844515949 7.6246922716038208 -0.40736606148810606 -1.026971663990824 0.28778123733826416;0.22863853330901188 -0.049323207344672777 2.737218537970771 2.7983200379642406 -2.1130906033650931 1.6048151353788958 0.19268709994328984;-0.3275181086809853 -1.4047527102966204 2.8837815907793645 0.0076713319480645938 -1.0575787947814375 0.39318372019549197 2.0122422296087858;5.9855383660589077 3.7367525036258233 -0.32397486182706076 -0.093904396397954726 -0.36347789161345678 -0.23169488188997878 0.055424507455828866;-1.1357738278055038 -0.99416072276708223 -2.2384150371140743 0.5505657126971778 0.21260495160738788 -1.6803833548740252 -0.23115625529475115;0.32918034389736783 0.66487554035553609 -1.5601126410920516 0.45062156718098439 0.32941233525921038 0.074971893679352336 -2.8407895440715123;6.0106493431524699 0.31712451693900645 -2.8919981807744719 1.3778542295255003 -1.1738082528305087 -0.30774205535575855 -0.35349840407359584;-2.8831346356825973 -1.0003051567414329 -1.2504406759334306 -0.032969640998955205 1.0345391135849513 -0.98392936177207457 -2.6001534979904442;-0.95933513423617023 1.6414676498374887 -0.72513360477445998 -0.19073349641898829 1.2825282450484949 -0.33868852225702795 -3.0741047792673353;2.5964703179507658 -0.60147282380220246 -0.41166300165530229 -1.6229344734539295 0.36330092625379062 -0.050415012154723021 0.30461909254982455;1.8334116778771186 2.5124164568914105 1.310381216446064 -1.1457293741010763 -0.53399508007856866 1.7052417680651308 2.265233935934877;-5.0741826575090849 4.2132199557486709 -0.97138563069648343 -1.9948193331828632 -0.25038181806841125 0.023732140185110339 0.23122852509007644;-3.5461717676667219 -0.11486456379614755 0.72653067076873845 -2.8711203072851013 1.802322084690684 2.2088405149029429 0.14802125050648399;-2.3619345037685844 -0.51772421133720803 -0.6957001286594553 2.4522350801944448 -2.3674393641007239 0.46825235114755182 1.9546282049373345;3.9410943106075971 -2.4665466973716605 -0.32200017486887694 1.44550379143965 7.1428142101045564 -0.55389395863511315 1.6211799502805799;-0.035902076606045982 3.4115330212665085 0.67821047975781601 -2.6862131899062383 -0.32441845056437424 -1.5516610291026729 -0.15594359804292701;1.6586129597261341 3.4312796246815034 0.40819255039660812 -2.8349891416681556 -1.8003587635583049 -1.6079025852975477 1.2897433721691258;0.76639669501013985 -0.12537356832987206 0.70455580836091891 -1.1887517727698067 -1.0123646433126976 1.2317665565038585 0.10514743701526788;0.41798962019460656 0.44393761031896922 5.7721463232657095 -6.880853303264427 -0.67322570675733384 1.2088501015354722 -0.12668563452800777;1.5141654414087411 -0.88871437083043103 4.4538942390762015 2.8117961877161979 1.5984593051353349 -0.28465080420504768 1.8237561889300742;0.041288061519983675 -1.9850792487596345 1.2775552407640276 -1.3805529672130736 -1.6460011301568003 -2.1592978083383008 1.0875850373613449;0.36179714932650031 -0.86510210911255137 0.377418495416388 -1.1836192910335852 1.3788094201217307 -2.8487909394139863 2.183043694139466;-1.488579441213066 -0.57358370879674991 -0.71520336184802769 0.33886669730833435 1.1707133938687708 -0.59120067862518944 3.2656010751413382;-0.11078217977881381 1.8456671973975474 0.21226232936471723 1.1016612875659122 1.4383559727011725 0.28661197939390726 -1.1055384081421025;1.6226529733602353 -0.4614471824902619 1.5975008857922004 4.7080513057603186 -0.4087774887197842 0.098990924404690067 -0.023916360461388866;1.3917822512786908 -2.3086871538292191 -1.1087050909486309 -3.7556614742909327 -1.1852064179420545 0.59572158626843486 -1.1737825429235258;-0.45929175657702875 0.29691554246573543 2.6595428952768461 -0.48342741615748508 -1.43539448263144 -0.24070738251262797 2.82314912493674;3.1537898294042699 4.0111967941010258 -2.9497951504042184 -0.49303586875697319 -2.3564896023471027 -0.58032078983951874 -0.26360307780777609;-1.2127103349939485 -0.20408990138899125 -3.0310735313417201 -0.81045083838397103 0.37590637497864793 0.84918882166778509 0.83712409949047095;-1.2298263549210118 1.2425501493266908 0.63916383890871908 -1.5502668305291589 -1.5271726478351524 1.2032154514651137 1.2756196671012032;0.0092636464192778958 0.19589588413289091 -1.9000953729914429 -3.0690208039440816 -1.4447031079093879 0.51918436332815676 -1.0239838095350082;0.021223647326913897 3.1256168148603183 -0.89100672341654452 1.7824836897773488 -0.87419143382167019 -0.84800823232934985 1.1999736116283233;-1.2218313487524142 -2.4659118373148234 1.5826369611875772 2.9354223617397102 -1.5846621139369081 1.9789096425559554 -2.0811005313478623;1.5976351888415175 -0.34776623281981306 -0.42319055090477603 -1.5613552362688123 0.17113055564918961 -1.0625846702506629 1.3785840540188603;-4.276650418351192 0.97463512061240087 -2.1210028614862884 -0.58419927024215312 -0.30217096210640437 -0.12982012999574824 0.26244384848655639;-0.13736159390226826 1.5189315669858057 -1.0099748772860102 1.3964045661785411 0.39437513311526867 0.24785071504200792 1.4415871900537955;1.1169066611347713 -1.1151429323898876 -1.6922209403885364 -0.17070980702983443 -1.0675704722038106 -1.5279227273625531 0.86782342349649533;3.364462152054041 -0.5953731082427387 -0.47784052692600387 -1.5875325566474494 2.443044452633536 0.83883314579354762 0.55877323919952293;-3.1095888458526679 -1.284452113787343 2.007361204099253 -1.4670460205548006 1.7852286827147212 -1.6917757697737694 0.96599499680781342;-0.49050677412210614 1.7161906783333993 0.0079008850861467268 0.57703781299938273 -0.85892179378720235 -0.18811648416172438 -1.7714997038307549;0.80149055101584832 -0.23561463887750192 -0.59359930547788764 -0.6574589046875402 -2.996506111207879 2.354702098002166 0.77932109969316521;-2.6354138907706499 -3.1826319021694869 0.47243724441402035 0.84035260706076009 -0.54235712797137625 0.27978412414540005 1.4185041289964166;-0.39528620367815454 -2.7379618563888051 -4.2739804712794252 2.4146302142670977 0.56365992173616286 -0.5703114320707352 -0.62253148432561722;-2.5074323584049814 0.66110661404730597 1.5404019566192553 -2.5754161094425427 0.47278266600830648 -1.3725325548164953 -2.2022271265542548;-1.6453713516842023 0.8486389819781831 1.332639129442341 1.8694622373005039 -0.83886965446265704 -0.64034907179152301 0.86660074822829114;0.76652733933054995 1.2968558294636732 -3.2809955721436546 1.0929282913113276 -2.7518795885434488 -3.0663004086635941 0.43005685336347232;-0.51092263032439178 4.3474987291779801 -3.1858751478513532 -3.357857571866417 0.50588802612783812 -1.4942391913407347 0.034121806277428009;-3.6501279106499354 -2.6929096221344233 -0.11647905085068447 -0.92420444580987193 1.2395756866372101 1.8179278821333835 0.0055547530808797325;1.576422988569858 1.4274100825473452 -0.86647125336814901 -1.0257250156567077 -0.9931251460040279 1.0872228266622765 1.3897969449128651;-2.0323917765114916 1.3205327935917939 -0.57669357438639501 0.29899749845340157 1.2391843056057703 0.28303042205758622 -2.4899965343774819;-1.660071275573981 -1.2757522537997854 0.9898650781979843 0.92349401184599544 -1.3463482355635268 0.7816134682788991 -0.73239216507572735;1.2039209646894067 -1.6680282485058162 -0.79549950095499855 1.468456628471049 -0.79738571910099343 -0.23866108635136524 0.96093512301607553;-0.73717750576550667 1.5253192794684463 1.7731135693500066 1.0710242262205854 0.69763739604639641 -0.0031263175491776842 -0.82503874602433724;0.41899795938432194 2.7373069118671411 0.75062254963734809 0.70054605312497287 -0.16962972068267429 -3.4648679783544321 2.6160956752638667;1.3062025916981002 -1.8256938626501464 -0.61010358804895326 0.90101729465861691 -1.3357145561602453 -0.50290033901975595 0.2376314033711627;-0.66160718837261812 2.228788421375711 -5.1341458946403904 -1.4010816038673273 0.32228942349629114 -0.87703441458836051 0.020111798619219169;1.0465804103811223 1.0648311925075633 0.43481282587925213 -3.065992502538335 -2.4466704283392775 0.18846870999167908 -0.81746372150708724;-0.78831113673553654 0.86602691764220729 0.49492680558316104 -1.6241272057979841 2.0477451890249401 1.004479307129174 1.1791105891419433;0.83842451503651083 -0.58073865859768981 0.44594722099149309 -0.72571740513093541 -0.630069572374789 -2.9476496245409742 -0.36811177786495969;0.92495491473141611 -0.59356109245454369 -1.4402801127709857 0.18093551060211768 -1.0277265800943058 1.5742012906546272 0.052798845075606761;-1.0386335309332442 -3.4938822125429456 -1.7137976905927887 1.8782434490176716 0.78500212806342462 -0.89871302583411417 -1.6611845502250284;-0.42913010454650469 1.806745482632089 1.0133157602122329 1.0270023930347856 1.4152910255907196 -0.6626875895237494 -0.25472105797100675;1.3766456991535581 -1.2345392833174145 -0.0018033061150580449 -2.0912673583280341 -0.16582294486239385 -1.1306813800005158 0.41681973484354173;0.18142009195276343 -1.4653399295045817 -0.48719432773395255 -1.2933654110834434 1.1459725214711967 0.81809512634385295 -1.4586406060490507;-1.1719434208121111 1.3391945421539788 0.93922637349784499 0.90913672546443147 0.96741372316608132 1.0918472674786224 -0.19540124859253916;-3.5935470316358868 -0.9841502578551653 0.75018428120936487 -0.57106948159530868 1.7575927600737153 1.6625369940487165 -0.26247813543511433;-2.1691446182733647 -1.8443146774971564 -3.0983928098819677 2.7177039601451836 -7.2424715468914131 -1.0098312755957257 -1.930663256333756;0.77047481727338119 0.35488094021618199 0.045605965047396717 -2.0502990753418566 -0.15493725769873826 -0.60495144248253818 -2.161133049392792;-1.0521159824847084 0.46906321005206547 1.6198296429964156 0.98238491498740588 1.6437887979365673 1.3064699336475278 1.5231888783130521;5.1240553677659042 -1.0919858104512361 3.459469213911027 3.3562536133933967 4.4729225942564304 -0.37744034873832955 0.88454508890087735;-1.0879656536121718 -1.0360237749854184 -0.62525219321822278 1.3643321119457714 -1.3098153755574951 0.0056863005559437095 -0.0048147314602709091;3.0798153277683715 2.5595242178694786 -0.17994161009476722 1.2584583817275821 -3.438706387591691 -1.9877834382510615 1.3324459483625886;-1.0093252571213607 0.51660744831263039 2.5589285168653344 0.55749415624340004 0.3700345092986525 -0.27387230571446458 3.818062447054936;-1.729471485326276 1.9317262223000289 0.26442289988830064 0.69244369210613355 -0.054577539121524368 0.19533655071718661 0.94499938641395687;0.92831797931802806 0.14839609760018294 0.15751098298446972 -0.050803682928637628 -3.0768300820548151 -0.54390142314301027 2.6473262105516158;1.6046000257146518 0.95923004250857147 -1.9377990820671969 1.6608181108964875 0.53272722208674017 -0.26816232530955103 2.5722023843489685;1.0314701270958513 3.4051247873681953 1.2848549730131076 0.75572964899116246 -1.6881109558632073 -1.2080331247706153 -0.53754788675419829;-0.42901432533167022 0.48418674407753537 1.7364179253988885 -0.8749678781389022 0.11975276122361565 -1.3413640234390332 1.5489653624356055];

% Layer 2
b2 = -0.6875388765053484;
LW2_1 = [1.1899092738722146 -2.7703160708112282 -1.5374196511706408 -0.78319332669461317 0.055991874698634293 -0.72518651106108811 2.3014000084454365 0.2718711418709841 0.82855447628837942 -0.59249299160624691 -2.7010824546309338 -2.6973552219949277 -0.10855767102731775 -1.1549688096181958 0.89844485779535344 0.55032113647034386 0.74129557351871755 -1.3792483233472668 1.5519975089834321 0.92557343730111219 0.55370948194332104 0.32437488579599016 1.6451673680553234 4.699367668887759 -1.9686105668608489 -2.3532730422004793 0.48741791297436443 -0.42266079863557038 2.9446913884727546 1.0630958278722471 -1.2860815527169818 -2.4621066653326085 3.3545402513939178 2.6637396939446187 3.7240198162093519 0.95627774968661772 1.2038548846352977 -2.1271192020790752 -2.8039217713961566 -1.3586580161354218 2.2065120992454554 1.6425586672624641 0.56635891164859042 -2.4065984963004872 -0.87801609294996619 0.61025869098560448 1.1579813752582067 1.6696924006680141 1.0004214222707528 -3.2589265385784438 -1.3104717433811444 0.8514910767286531 2.2433886526426603 -1.6668120309722512 -1.2143357873367371 -2.0661628668051972 2.0542698274715181 -0.50705245530937337 3.7736753370073473 -4.1118434332359648 -2.880418968340055 2.1177406771677849 -2.8944768643485772 0.61307573450402741 -1.5709545674013121 2.2362679289111229 2.798492246992192 -1.2700447665191208 -2.042820854816894 1.8834685375113147 -1.3101370459654258 2.7684531795762068 3.5989497254138043 1.9639558936299542 2.6763311336018809 2.6495857331647192 0.86387566601416954 2.2483192219706205 3.7256837853551099 -1.1599161138908369 -1.4144004699678849 0.70878909424315273 -1.2494410393219857 2.7404271207843087 -2.184783782820729 0.49594496833110796 2.05902302701011 -2.8883018016006536 1.4685997833509417 -0.6728955458493483 3.9116373469148247 -1.4544339729579467 2.6142391361700672 2.0826271251226216 -0.38068335518926316 -0.80653738074002113 -1.9212233899568383 -2.5901670515282276 -1.0664283928219771 -1.9119136874887344 -2.0557785386725951 -1.1042204208360307 2.4706531231143654 -2.3661256913346458 -1.99840381462511 -0.81349612350569933 -3.8246992288868888 -0.73501271651988254 -1.224568367005078 1.5986573454274446 -2.1832919827220376 -0.18842057328116785 1.7044399081939416 -0.92128345873200357 3.6783125821966145 -1.9917031032329433 1.0942511524041787 -1.9205308947335378 -2.693393736136823 1.5619339234914587 -0.77535638951080155 1.6580875400455042 -0.24828152612549825 -0.53175690727686631 0.74335542800486498 -0.56889057676535804 -0.41741549754301921 4.2097716292375953 -1.9888754785032023 -1.2428359587827364 1.9671584662277297 0.91598174635326701 1.7218121760914358 0.59409217920117796 -0.78291974447990331 0.52660745108060836 -0.56536265812943409 -2.2561642541238101 -1.0545715419596033 -0.63228678911365943 1.5305664522208515 1.8901375486476493 0.77025460590190165 -0.58898195927387864 0.98483417347208313 0.17648926267276768 1.6319876368242772 -2.3043327902874871 -2.8744253125882326 -0.96929282324266808];

% Output 1
y1_step1.ymin = -1;
y1_step1.gain = 0.254945205474436;
y1_step1.xoffset = -1.20044904639726;

% ===== SIMULATION ========

% Dimensions
Q = size(x1,2); % samples

% Input 1
xp1 = mapminmax_apply(x1,x1_step1);

% Layer 1
a1 = tansig_apply(repmat(b1,1,Q) + IW1_1*xp1);

% Layer 2
a2 = repmat(b2,1,Q) + LW2_1*a1;

% Output 1
y1 = mapminmax_reverse(a2,y1_step1);
end

% ===== MODULE FUNCTIONS ========

% Map Minimum and Maximum Input Processing Function
function y = mapminmax_apply(x,settings)
  y = bsxfun(@minus,x,settings.xoffset);
  y = bsxfun(@times,y,settings.gain);
  y = bsxfun(@plus,y,settings.ymin);
end

% Sigmoid Symmetric Transfer Function
function a = tansig_apply(n,~)
  a = 2 ./ (1 + exp(-2*n)) - 1;
end

% Map Minimum and Maximum Output Reverse-Processing Function
function x = mapminmax_reverse(y,settings)
  x = bsxfun(@minus,y,settings.ymin);
  x = bsxfun(@rdivide,x,settings.gain);
  x = bsxfun(@plus,x,settings.xoffset);
end
