function [y1] = myNeuralNetworkFunction(x1)
%MYNEURALNETWORKFUNCTION neural network simulation function.
%
% Generated by Neural Network Toolbox function genFunction, 12-Nov-2017 16:57:31.
% 
% [y1] = myNeuralNetworkFunction(x1) takes these arguments:
%   x = 7xQ matrix, input #1
% and returns:
%   y = 1xQ matrix, output #1
% where Q is the number of samples.

%#ok<*RPMT0>

% ===== NEURAL NETWORK CONSTANTS =====

% Input 1
x1_step1.xoffset = [716;3069;0;0;-23496;-32092;-10756];
x1_step1.gain = [0.000213515533255044;0.000117082308863131;5.8707237281444e-08;5.67328005650587e-08;3.55473401702718e-05;3.08756329504755e-05;4.59527146566183e-05];
x1_step1.ymin = -1;

% Layer 1
b1 = [-2.86416620141497;-2.8257210175033598;2.7872758335917496;-2.7488306496801393;-2.7103854657685287;2.6719402818569185;2.6334950979453082;-2.5950499140336976;-2.5566047301220873;-2.5181595462104767;2.4797143622988664;-2.4412691783872562;-2.402823994475646;2.3643788105640358;-2.3259336266524255;2.2874884427408153;2.2490432588292046;-2.2105980749175944;-2.1721528910059842;-2.1337077070943735;-2.0952625231827633;2.0568173392711531;-2.0183721553595424;-1.9799269714479324;-1.9414817875363219;-1.9030366036247117;-1.8645914197131015;1.8261462358014913;-1.7877010518898806;1.7492558679782704;-1.7108106840666599;1.6723655001550495;1.6339203162434393;1.5954751323318288;1.5570299484202186;-1.5185847645086084;-1.4801395805969981;1.4416943966853877;-1.4032492127737772;1.3648040288621668;1.3263588449505566;1.2879136610389463;-1.2494684771273361;-1.2110232932157254;1.1725781093041152;1.1341329253925048;1.0956877414808945;-1.0572425575692843;-1.0187973736576741;-0.98035218974606342;0.94190700583445319;-0.90346182192284286;-0.86501663801123263;0.82657145409962229;0.78812627018801207;0.7496810862764014;-0.71123590236479117;0.67279071845318084;-0.63434553454157061;0.59590035062996027;-0.55745516671835005;0.51900998280673938;-0.48056479889512915;-0.44211961498351887;-0.40367443107190859;-0.36522924716029831;-0.3267840632486877;0.28833887933707741;0.24989369542546713;0.21144851151385685;-0.17300332760224657;0.13455814369063629;-0.096112959779025703;0.057667775867415422;-0.019222591955805141;-0.01922259195580546;-0.057667775867415741;-0.096112959779026022;0.13455814369063629;-0.17300332760224657;-0.21144851151385685;0.24989369542546713;0.28833887933707741;0.3267840632486877;0.36522924716029798;-0.40367443107190826;0.4421196149835192;0.48056479889512949;-0.51900998280673971;0.55745516671835005;-0.59590035062996027;-0.63434553454157061;0.67279071845318084;0.71123590236479117;0.7496810862764014;-0.78812627018801173;0.82657145409962196;-0.8650166380112323;-0.90346182192284319;-0.94190700583445341;-0.98035218974606375;1.0187973736576741;-1.0572425575692843;1.0956877414808945;-1.1341329253925048;1.1725781093041152;-1.2110232932157254;1.2494684771273357;1.2879136610389459;1.326358844950557;-1.3648040288621672;-1.4032492127737775;-1.4416943966853877;1.4801395805969981;-1.5185847645086084;1.5570299484202186;1.5954751323318288;1.6339203162434393;-1.6723655001550495;-1.7108106840666597;-1.7492558679782699;1.7877010518898808;-1.8261462358014913;1.8645914197131015;1.9030366036247117;1.9414817875363219;-1.9799269714479324;-2.0183721553595424;-2.0568173392711531;2.0952625231827633;-2.1337077070943735;2.1721528910059837;-2.2105980749175944;-2.2490432588292051;-2.2874884427408153;-2.3259336266524255;2.3643788105640358;2.402823994475646;2.4412691783872562;-2.4797143622988664;2.5181595462104767;2.5566047301220873;-2.5950499140336976;2.6334950979453078;-2.6719402818569185;-2.7103854657685291;-2.7488306496801393;-2.7872758335917496;-2.8257210175033598;-2.86416620141497];
IW1_1 = [0.98594553000544061 -0.2591802490474473 -1.3795968583888545 1.3031898309693599 1.0986894488123129 -0.13765963232680895 1.5285696363501564;1.2114770734140401 -1.3444903235528785 0.54327050328012194 -1.4892953806331972 0.18079826695413495 -1.1892015419044542 -0.98391321196613646;-1.0679778573282805 1.1530206088300641 -1.3100700851812521 -0.10751219582846915 1.2300175357046619 1.4183553906229256 -0.69346748201249508;1.4850636346009047 1.5979096765869396 -1.5395934390295853 -0.27177806401698701 0.70653209016907292 -0.60321091163271312 -0.37075116189759261;0.75971598165204079 -0.052438308292227884 0.124265827960025 -0.22433235452450373 0.4752038197117549 -1.1631893282349568 -2.4451860451712775;-1.3557805502453766 -0.036205035250028196 -1.3585105047463284 0.91009708814765489 1.0624902728982972 -1.4753544907309004 0.62017124219238962;-1.0005821778609956 -0.73306438221384795 1.4371612330878578 -0.80194183942096775 1.7121061336920653 -0.91138538467984298 -0.44093773944370157;0.13281587221717825 1.1333570551218477 0.89961449030976548 0.80666963079412712 1.3850921179153626 -1.2851919787267168 1.3678775666356227;1.7901973953449937 -0.51162967138920523 0.8703930696438964 -0.11207777644208314 -1.9544266301951516 0.021240002851797661 -0.38274832486712179;1.3868131174290155 -1.1598245130904521 -1.04448950763782 -1.3848703126778719 1.0901431058401982 0.77986188397171918 0.35997755722313479;-1.4219651679177847 1.163913274905753 0.66285567031676884 -1.346124125265084 0.46749916575662098 0.54434607009493308 -1.4354347998957855;1.604753583349211 -0.37599810993422372 0.063410026210597659 0.75621006635386612 1.670763723430599 -1.3984975301071974 -0.40462097110142581;1.471883637696398 -0.83164448173489225 1.5227774249194326 -0.085363855095170624 0.089118081055816464 -1.3494451943852377 -1.091004859653673;-0.076969368386093098 -0.50571962636106349 0.78415656678613421 -1.8277617481671298 -0.10777039454163023 1.4591436286491792 1.3584705697612287;0.98581917572017286 -1.324837638745751 0.98598367497258366 -0.52158706658695819 0.98932257958779002 1.330055201672093 1.2183558313367979;-1.6753276909295416 -1.7217029127978627 -0.21614360551749257 0.50238832789453902 -1.2732054519951093 0.15799197873407944 -0.69809638220717818;-0.32068035839054504 1.8118515568129847 -0.27710981883052149 -1.2634568315059562 -0.0078110097231092988 -1.6019762537639872 0.76046310027297537;1.2894272028521254 1.4147270288370855 1.008979102913333 0.73949430522331483 1.2432666243979895 1.0105145670631221 -0.63845963426699803;1.3883624088744253 0.35733801198138199 -1.9790566242231336 -1.2217967005144865 0.35473726890195095 -0.76924504756568501 0.14552877283738866;1.3254843550302877 -1.2698910690834404 -1.0581808588341544 1.2041317832781009 0.99572540853078528 -0.59431990440369098 0.95893201380088433;0.72197671455755175 -1.2294970281694722 -1.5140924454200559 -1.0705753718360056 1.1062794433885663 1.141850269377003 0.4519412639786734;-1.7257063308747813 -0.5457927145325846 -0.40537165443029727 0.98683304831777596 0.31960392982363062 -1.8200225134402432 -0.61212885638070813;1.1623135621278056 1.0693120936030205 1.1032221095213448 -1.03649965986334 -0.84316581368815668 -1.5032991295154785 -0.66841561104450875;1.5805502877781747 -1.7648413656980064 1.1048159825674289 -0.77390564357661884 0.6060674942163643 0.61152996192247444 -0.17265216095549982;0.57548135204786255 -1.4713461416413656 -1.4151700614050273 -1.3165097651834803 -1.3410785011480886 0.33314036780273593 -0.24906115479571214;1.5452935388379183 -1.9845864422217057 -0.60400495572673396 0.45691706321841941 0.75519804285930781 0.1564986083118298 -0.84173717629600275;1.5659130434193274 0.9603894905965753 0.17309581838343846 1.1809648319419317 1.0365755939581713 1.4794610688713128 0.37560921608458903;-0.64508538406827687 1.3869962907561217 -0.49800466640680141 0.27888750121339256 1.3752014947261935 1.2405353697773489 1.4517782630816323;0.79506638492872439 0.7555276744780044 0.80213351438172398 -0.37979999040704948 1.9981868301353398 1.4388761972552604 -0.38692877796881642;-1.4356468845795862 -0.21427425641681327 0.55875035352938363 0.630658253407539 2.1058062240458471 -0.92572345198790185 -0.30844293185438426;0.9837312026244851 0.22443577836085929 -0.9931358229175733 0.70477469508924384 1.2844325665297769 0.91921047534601363 -1.7909797548141024;-1.8360132015239448 -0.79876959946097026 -0.26804390859344118 0.70205079802341908 0.31940905251448248 0.22224234296878748 -1.8650292272130187;-0.82416061256269979 0.90402040628240798 -1.7900384190649341 0.50166557274195644 1.5824075633412031 -0.3823051288296348 -0.77516296506040161;-1.3217497172213692 -0.90590062511841662 1.4098077503423045 1.2965439947361272 0.23325858288352155 -1.2768419616703213 -0.53146080474543345;-1.3522696441646183 0.62693143080483871 -1.1171843171747866 -0.97699061516224972 -1.6212976841503857 0.94043870582653788 0.51587713572443938;1.0472584658365602 -1.02469500648968 -1.2749521896382678 0.67759075747747166 -1.2275418590462248 -0.52585424888170951 1.4794201064865626;0.81037656917365641 -0.54702948602618284 -0.5307031150479512 -1.0971311956314238 1.5086708684423318 0.4486609951013189 1.8123932940504504;-0.89129568689834515 0.61215398080884009 -1.4711044334754289 -1.8547267272311077 -0.076524942797138715 1.1756592810104529 -0.20522483483135964;1.617843408534908 1.0069789118948094 -0.03705679654128128 0.38558967424183926 1.2392162521773338 -1.4200777000217548 -0.93257386247729046;-1.5791509964537731 -1.4208142854837165 -0.54443561866084234 -0.16913208593935442 -0.985693024834707 -1.2621963026162055 0.89513734978811244;-0.25694530542023314 1.8011191922059091 1.8944268161832365 -0.17313165907617104 0.21934330695340915 0.20780287098738404 1.0877847866528629;-0.55925213990488942 1.3018481668356923 1.9847055938285081 0.76466370520622484 0.61327773391476592 -0.069743137870206404 1.1362815951236351;0.86401177263548434 -0.042981030241115555 -1.4556229866623502 0.87952957095938089 -1.5229367412104877 1.2706374843381398 0.79298035113662879;1.2922308590819662 -0.28077757093260175 1.0412184080197782 -0.65566724250404318 0.50215538542861893 1.3086918269067365 -1.7250744206572;-1.6733763597587425 -0.28439164683252616 -1.2338431558898513 0.86579148260844219 -0.7352834972436364 1.2523363821904268 0.97027260033978469;-0.043406201042514428 -0.82121519899856421 -0.327231567277533 -0.35554687580382288 -1.9103004603012153 -1.9026701257537646 -0.15580113091057871;-0.25032297041447482 0.039142862969751356 0.22022329528675538 1.5729965981283325 -0.04798178632439138 -1.9648806375233288 -1.3241523730470133;0.48279484317133664 0.03554335756764869 1.460916788791268 1.0985388335069486 -1.0146356431128987 -1.3577522629367342 -1.3247836465581455;0.8110956574467526 1.2305144748957111 -0.31866574493294814 -0.94356656141974715 -1.4602029115091955 1.1558344793942856 1.2535527079111051;0.82247752689826026 0.95211972892641084 1.5599551373940641 0.36640669817344884 -0.95106828548557276 1.4306371899538355 -1.0495138001857349;-1.0284567673664224 0.662685606327582 -0.91168689283529114 0.37767491438192863 -1.623146589222999 0.84359231463056517 -1.5448327803426616;0.87159425794766954 -0.58876899829480323 0.97536956038995748 0.19759400879232752 -1.5080627184340289 -1.7844719333939045 0.80507150616595091;0.53096022639515417 1.066659959710849 0.56944197883083525 1.2664506909243922 -1.5656770120965218 0.76247191433784445 1.3501467888732541;-1.6520491248338902 0.16073316977868252 0.19158592362180593 -1.1517786597517921 0.66200761415510434 -1.9079359256040576 0.081078616149598104;-1.5837411190626103 -0.62049392506016032 0.82348018118665112 -0.75622523364847527 -0.90673051855852571 -1.5899963571358746 0.84258799200852108;-0.0065822287180087027 1.7663206025528089 0.67002423181171977 -1.5320884012906595 0.15529354226215714 0.56617786358404221 -1.3937773977666856;1.3707846565085395 1.120920956487651 -0.95968872404583627 1.3114070957563351 0.58190324208143707 -0.51041203147323755 1.3520395043182425;-0.99083432466592458 0.31135452428818666 -2.3091675533788698 0.90353945627780796 -0.0054875053821792372 0.95481580908119679 0.25379529148844543;0.40290063925132535 0.57870988592109873 2.3582164156627683 -0.097038794868837916 0.16916440368430524 1.1771768879635567 0.8492648352048614;-1.1978356529457663 0.37751541574880992 -1.4263575025481907 0.60422171286634185 -0.23774220677409849 0.36077893725541832 -2.0099396724549305;0.88340676934736118 -1.0275220226122721 -1.6432858340912038 0.15721326483219752 -1.3221819550121789 0.84390760966667755 1.0871014135161117;-1.3832592394024248 -1.1225903089748639 0.34566553816966145 0.83203716646013826 -0.054463441708087541 -1.4977370537287267 1.4042363920962775;0.02481629669267885 -0.12112952020197806 1.590805805438755 0.18282305072879279 1.4705440622859973 0.97880233254151827 -1.5822511166920401;0.76768342216477592 -1.0392966526755651 0.65237700820854738 0.8524041579552758 1.4419459329163904 1.8147309307839616 0.096579637925812631;1.4632912335630761 1.2888714399829908 -1.1588194352433845 0.084208006780245051 -0.85987079328552429 1.3735518335195982 -0.65196726442917063;1.4497110356443768 -0.96344837635378267 -0.41375283607036578 1.5583331250229797 -0.92021484038360724 -1.3060125560958606 0.14661337427943005;0.30998506289453809 -1.7994112112778804 -0.25784678934639982 -1.8469779300615217 0.42661167496337349 -0.87688635333419007 -0.6638802181479877;-1.2641238710693514 -1.1518925668624902 1.6848124311473869 -1.3789527346613011 0.49082325592226911 -0.45755422725629591 -0.29701089258568797;-1.2854698046395259 -0.99821311135608493 -1.259405501866337 -1.4306060688511248 -0.30412020043277754 0.67819917074477454 -1.1702165787279035;-0.94896185333507066 -0.25163535230508099 1.3912951120017689 -1.7078319095537466 -1.1506289366599136 0.38328263709227117 -0.95726413803478672;1.1696567828845099 -0.64847168087463369 0.49696579641200295 -0.32756971684858732 1.5377208063224932 0.99336471358290956 -1.6459647214005872;-0.88718044440592547 1.5286401998089458 -0.4467273680465822 -0.18640301555874442 -1.5089595482539835 -0.47784789131150462 1.5297088209364202;1.295652356924859 -0.28772295198228509 -1.2741800097247633 -0.55317843026485847 -1.6254794008120115 -1.2119124600019378 0.63363422900037736;-0.86223176186054007 -1.0596017018032948 -0.24120300508033127 0.88586428709264509 -1.2034056984026196 -1.3895669660447549 1.4543839241498873;1.5096220531256106 1.4238738299598177 -0.063224302433422544 0.44978233596155953 -1.1729823978658773 0.9563294350394852 -1.1833500945252347;-0.49642201015279491 1.5875458807141805 -1.2554424312276551 0.9000162589423365 0.40026690152508021 -0.97395889620087084 1.3934621650258336;-1.3811003424531414 -0.27826426965859441 0.40743863746416675 1.9703521945314784 0.33552731659277407 -0.50858824339737385 1.3412845612842197;-0.8396509697650707 -1.3117836332593205 -0.92363146222614778 1.594662818102716 -1.5109435279792758 0.17466080832440076 0.26106829308269086;0.49928162970537093 -1.0409254169975648 -0.49642563135664969 -1.3250464623336093 1.8552417671136272 -1.1661772564666417 -0.25799654466957039;-0.14522353213306197 -0.49627312252144373 0.45118144020363066 -1.9633734097994884 1.2431907915865672 0.77170460278794639 -1.3178087745814433;-0.8473450963883814 0.54206185637967663 -1.4177239195640008 1.1211053369224733 1.3585903287235124 -0.088650644782205856 1.4391589050939844;1.086672444015246 -0.78106282047062081 -0.68833932832358569 -1.3341789282908447 -1.4340847746311716 -1.1435826352831566 -0.89123906504477868;0.37175321497244623 0.4483980137313226 0.51051869701137387 0.11076373044603466 1.5715283691458213 1.229229251911697 -1.9001533845985399;0.19696934877088831 0.83668575455275018 -0.92978904644481075 0.12020207585918416 1.7208021767756061 -1.5821119040048064 1.0589681934704844;1.3414314647091297 -0.89468685291351724 1.0429893075240699 1.1611976598948561 1.5575191903132812 -0.66215267270160605 0.55047815481183149;-0.74962793495260382 -1.3391534478343226 1.689467267182978 -0.053017894427885126 1.2563939632839851 -0.91927352880317137 0.75330861927435733;1.4059475084281741 -1.1114416594433407 1.2586214130776259 -0.58240524903958368 1.5609665312296643 0.16875868656121976 0.77655478174490966;1.2755636037199571 -0.91104964893757334 -0.78487180124509126 0.86182990931424031 0.067251839252254086 -2.0536444661917383 -0.40696574669433039;-0.74695222095908442 -0.47379205005634373 0.5252496347320138 1.5073349785682055 -2.0142801572710716 -0.59157173231943194 -0.68249829258309991;0.29787017974373675 0.034513300466561106 -1.7226642216421877 0.088069707574307002 -0.44539124256196239 -1.7355009129743812 1.3884758354519855;-1.3117815228617202 -1.2819007843678043 1.2566142047301985 -0.47098838693504524 -1.1321633326349114 -1.1991132340745434 -0.56465207392744854;-1.3305666525964863 -0.70851541752439884 1.1325069380572417 -1.0440580792816614 -1.3993563252579853 0.84844830663533 0.93827204142683163;0.1223485675634562 1.195832276051342 1.2623583846363984 0.34201551991086215 1.7445658322051782 -0.82802270149073132 1.1483941747907933;1.04301705554968 -1.758914467612108 -0.89396157926363884 -0.888666231568774 -0.74235490818514427 0.38681883399216765 1.316118820782276;1.3513059157217873 1.3352508514570147 0.29378115410796768 -1.4183565113853387 -0.63661183716965941 1.4459945812595272 0.017549786090872713;-1.4507360284548891 0.90287729451356924 -1.8717098224980322 0.99931661673859185 -0.65487549517752586 -0.26465305268865602 0.53178104847365004;0.34905015098650183 -0.057771402499723193 -0.37905925423723863 -1.3045049994544395 -0.16701893134084411 0.98771675430898664 2.2867827978371578;-0.23667645887791916 0.60716833082132726 -1.4480875201045091 -0.44535452781553014 1.145893781064095 1.9956648759166939 -0.43327811554627099;-1.4897175995496064 -0.80183350604480808 -1.0331781853684865 0.57317008667515978 -1.4490451395220456 -0.20558151537510341 -1.3428610667850163;-0.71389511159266417 -0.18036651129455861 -1.4079750258063517 -0.61700591879926525 1.4998992761101209 0.68155140454174057 1.6074730442340799;-1.2891012538264381 1.7671307072007896 -0.29426568613791709 0.90186598718871069 0.22526625930835939 -1.4891619521813522 0.50061191564480112;1.0889988172309766 0.17320438317257922 -1.5015527794676742 -0.38963458501155546 1.3103455079365502 1.6051266599195371 -0.53629939691279516;-0.80850263319458582 0.090517671772589459 0.42194381631147487 0.7855086179507641 -0.65148237064142001 -1.3385005019549823 2.1284982561781525;0.16377408262151913 -1.5405906959544096 -0.16688853702795761 1.1711885189413016 -0.30979547266578 -1.3420833524258804 -1.5831964806346341;-1.4054281598519929 -0.046667755469094761 0.82366273771213316 -0.24251619137178498 -1.8737311217011468 1.2519139943185915 0.64082014890863703;0.45507089465568673 0.55358953301273706 0.89195343261242899 -2.1437740609505012 -1.4408331657217623 -0.055315293336302855 0.46849652680665399;-1.3642596509972296 1.031045500071891 0.79733767094699426 -0.97352664153118018 0.93706987931608798 1.5480356746898807 -0.64897836532052711;0.67663708362944519 -0.45884406420192081 -2.0481748874428014 -0.33239421717533346 -0.74291306511991095 -0.45668551626107817 -1.5713321236710334;0.63519881094837272 -0.44501918099572729 -1.4475309692605263 -0.77120913806300573 1.3377300192705834 -0.76225133693062774 -1.594136218060777;0.79954865387116425 1.5722863162051788 -0.58125272239096692 -0.97609781654811734 -1.23031044691511 -1.4910378820341554 -0.25417766048247947;-0.17066320111370245 -1.5950973434107365 0.10650156058111765 1.1101443966878621 1.6853550596854363 0.59797858165716233 -1.0900565769380099;-1.8664812618562341 1.7274046093869515 0.6926593637012034 -0.31428903198796049 0.17931204227838715 -0.31588988483449432 1.012558752042789;-1.1382212399389982 1.7356895581116685 -0.38797364044132759 1.6285299971603762 0.86899552584684048 -0.20268177072280238 -0.54444060712632392;1.3660780750237522 0.97888633732600672 1.0575364667583631 -0.35963969855085193 1.6508175026680034 0.36307743826087846 1.1288545151068488;-1.1934638306668464 -1.3777102923560132 0.74967497753194579 0.92392974318721555 -0.72836053941304368 -1.512666798432831 0.80416279683629743;1.4077666503887889 -1.028889925952752 2.0249064456671588 -0.4459358180317981 -0.36932488918582262 -0.79582873945831112 0.30688350204256531;0.19892398794181851 -0.85418345913104088 0.16256311341636506 1.6005987588928092 -0.18241353165903229 1.4149068389446031 -1.676504900755962;1.7087801086646439 0.61901644451058535 -0.60223074662168163 0.87853290316504851 0.9091172017448087 0.67655169664651149 1.5753155214501251;-1.3703690698330808 -1.1807194059271464 -1.281181104088015 -0.39830157952928352 1.033740341156951 -1.2171726048804414 -0.76239157491756526;-0.20816126225044629 0.80337762256795919 0.40294133432022522 -1.0312644206159167 -1.4517773362291029 -1.3430882254746848 1.5418462550637011;-1.2460253165777506 -1.2456797423137633 0.88317553880051269 0.91993719104063187 -1.0196447159889359 -1.2913254948631003 -0.87502604020760355;1.5562493475038617 0.51804669353986466 -0.25790612660056988 1.5138164643437892 -0.47292483636532873 -1.6582756645566701 -0.425994932675966;-1.5714586764299121 -0.018482136360036386 -1.2980394065746594 -0.54701759374729531 -1.4062745076940182 -0.24392162257996403 -1.3085808230272618;1.4837204979396386 1.5060713028080606 -1.2603777609848072 0.92433169931396264 0.11811926714588626 0.8396446778669131 0.75622364886097793;1.3558488196755969 0.91886167538941244 -1.4799381162578762 -0.26217234029122005 -0.70142362083340204 0.95255648953185368 -1.3647362761477901;1.2024510023547368 1.3166833850611759 -0.71422342021128871 1.0876698786777708 -1.0577643092994207 0.10178515125132277 -1.4837580900415093;-1.4340005195571204 1.3489687892020537 -0.20675012720083069 0.92774396806000503 -1.0043470212819563 -1.3498644522108461 0.77011186273606047;-0.48257934247694645 -0.79855917412243127 0.13070118451647161 -1.6022830755639565 1.9509469802241215 0.63449821139953633 -0.73463766523351515;-1.0536710057748444 0.87208209040354046 -0.18681875104079715 1.5883437093664867 0.76960358248958527 -1.6388911122469914 0.70477480921721292;1.0196492395586834 -1.0268588696535765 1.2755333875206509 1.6646125862934766 -0.10714679517745981 -1.2426575339970711 -0.39462089626119351;-0.25955124849494454 -1.7765779747969013 0.06831475047831502 0.054582811742093881 1.5596365022023582 -1.5190438617161377 0.48191847537632815;1.1284004626070723 0.67068092458140827 1.2190110974807544 1.0559489210449904 -1.0881191763140425 -0.9836575787842925 -1.3144374343875007;-1.3336590812535198 9.4047302010312621e-05 0.57726001500313218 0.36899466135068276 1.0292996771696585 -1.3906507492314084 1.7210601264008238;-0.85689209005011258 -0.072839842828479121 1.6604536810491068 -1.25251327064992 0.85714739088162606 -1.1019691353913104 1.090387448350443;-1.3760424847196762 1.5711600522279547 -1.0065934346052063 -1.1651535264448418 0.24015038224861759 -0.7085562863514826 0.95439713959016581;-1.616762754067369 0.48808177840729911 0.78242204091264955 -0.41335245239095292 -1.4029654015048227 -0.81551282256362545 1.3910013739699592;1.7643074927081759 0.56215562770053273 -1.0077519887314541 1.1882009775710158 0.46443090384541919 -1.3493519741057316 -0.55750847740966314;0.36704479932502065 1.6552551528775226 0.7911877557012611 1.4993346089427946 -0.92130314893987342 -1.1464684617256351 0.54007847870972581;0.19959537308887926 1.2229047099299757 0.78116693030307593 1.1607510000408399 -1.4646424811202969 1.5729076736485954 0.30221347154065697;-1.4734591043105529 0.31839893938405173 -1.7928561919475536 -0.75313537963816601 -1.192721053879076 0.84338869792276094 0.12471639600967624;1.435524339173655 -1.2893268885111142 -0.99709255286458098 0.13851437303583802 1.6059445164715898 0.22664623420584196 -0.91462996864840096;0.42605560374601564 -0.90781454990046739 -0.96328839145370238 -1.4313516277143976 -1.4959217884584615 -1.1015415949298228 -0.87745626957591061;-0.60244482328108029 1.5622665736764234 0.67837351694614911 -1.569470654553069 -1.040859561679681 -1.163960412246674 -0.19547425556431572;0.039454729966353047 -1.4035230073862839 1.0255374658027838 -1.0830549145388075 -1.3288385959618922 -1.258584654460166 -0.810821887417979;-0.4872389047049176 -0.050110376524228548 -0.77179393848448163 0.88649160048339637 -0.28918130646912577 2.0533213318627137 1.5107109810058812;-1.291210361732281 -1.0111845035354357 0.85420148648366845 -0.014686306013788005 -1.4820858703101176 0.62946194505884823 1.4802205905024557;-0.8298428402941056 1.5273140386056214 0.55942751317368244 -0.99003302781897029 1.267308229002847 0.18438577006904538 -1.4996425971038172;-1.4435426493953016 0.81510213693580968 -1.8903989287681093 -0.019139015182527572 -1.1624869912532323 -0.71499004084379836 0.13667472311568085;-1.096431662904652 0.0016359265973391293 0.35439961329757547 -1.2223442680619943 -1.4104790436868329 -1.1578424555611546 -1.4323086544118477;-1.1456022897247209 -0.12736606809623482 -0.49881345377884356 -1.9604983189877496 -0.84861782054641854 0.53964431331187412 1.3308210237066713];

% Layer 2
b2 = 0.0075615715523118521;
LW2_1 = [0.97828981940067994 -0.86610748320449971 0.8787967237690697 -0.96364493272660856 0.3676772274927107 0.56747296016643722 0.068275135765456518 0.77071890186228353 0.79800979781228021 0.25187525216099171 -0.72426201517488353 -0.56439681257575081 -0.63571784821913258 -0.91636027205409132 -0.78611668289958603 0.23288697017137028 0.87932202032213347 -0.29108853806534229 -0.17874181988097204 0.96869883396890311 0.89115837807052523 0.3532893568670783 0.97660452462657243 0.53366277443318855 -0.32660147121704775 0.32476372079896243 -0.51166942641944146 -0.40898549833680642 0.36035674246100413 0.055693660837595749 -0.17681297318493083 0.20527643607279433 0.50104011184747121 0.16706634852391722 0.10358502987193496 0.16714123751542886 0.0236398399169504 -0.8348145460026013 0.43914026971897946 0.99231222259373886 -0.29093139008615632 0.94251763036681147 -0.30710247739928076 0.77308772352061261 -0.09061027001618438 -0.17314542195836946 -0.56453586328539918 -0.74869082527474751 -0.38217081286636945 0.4522088633296637 0.5657441459582464 0.38757522997379446 -0.98039549547387583 0.68642667602101914 0.84466399559255145 0.54190844134784899 -0.91468028812990254 -0.24362772589956228 0.40867924896673524 0.45902609100929381 -0.55144585867097118 -0.46189053645326994 0.34606233000823794 -0.04501560454627751 0.24743282533488498 -0.52711013471817925 -0.64575249100336696 0.65928677139516911 0.53384333587052968 0.86895654623653917 -0.7842221898312729 -0.63554498879788857 -0.80180943515508307 -0.020472396153106143 -0.61350933906225902 0.79178314758513646 -0.8018207006363709 -0.91166885647467777 0.11459031160952371 0.54499013437524813 -0.3761198850074623 -0.64203504137132983 -0.32208864350456357 -0.57970872591289591 0.020305039530500446 0.81272864653042953 0.25784787730463576 -0.79693222237537564 -0.21829049454729077 -0.89076676955268486 0.0025658264064305492 -0.13655765623150562 0.99512069902437816 0.6232051619906458 -0.028696660203964663 0.7888955111347864 -0.72490681046587047 -0.2199901711094292 0.85471244999624973 0.83498766483223386 0.42714802318863154 0.23667476724388004 -0.31342421951730914 0.87205465337953947 -0.75045191867901484 0.46117072301141415 0.29295486485162758 0.6663039713385901 -0.20343554356244908 0.49964441872127185 0.67044102095626101 -0.3550792052754812 0.10452323371670991 0.9582582648677842 0.098617066036605472 -0.33915278078679445 0.23894311035555971 -0.2787268579955946 0.51301908700388865 -0.17219850261962066 -0.015309791230124548 0.38948646626522021 0.94546777015956818 -0.3444900790131864 0.67560636615715119 0.47814445454705612 0.90834891275908625 -0.93615474099204321 -0.28626202763491593 0.32530766857442894 -0.43699688170301876 -0.53923386536507256 0.42225710236065028 0.24914583398661705 0.18121730583927187 0.32087593262520375 -0.90489065377226785 -0.30243038297988223 -0.097318839288513592 -0.51819000575977858 0.43009002659235307 0.71236458401257585 -0.43698460976289333 0.46210165944748294 -0.72447421496096731 0.67344556349943496 -0.72279656851527996 0.17641877077898727 -0.26768639909012437 0.61351908932221133];

% Output 1
y1_step1.ymin = -1;
y1_step1.gain = 0.254945205474436;
y1_step1.xoffset = -1.20044904639726;

% ===== SIMULATION ========

% Dimensions
Q = size(x1,2); % samples

% Input 1
xp1 = mapminmax_apply(x1,x1_step1);

% Layer 1
a1 = tansig_apply(repmat(b1,1,Q) + IW1_1*xp1);

% Layer 2
a2 = repmat(b2,1,Q) + LW2_1*a1;

% Output 1
y1 = mapminmax_reverse(a2,y1_step1);
end

% ===== MODULE FUNCTIONS ========

% Map Minimum and Maximum Input Processing Function
function y = mapminmax_apply(x,settings)
  y = bsxfun(@minus,x,settings.xoffset);
  y = bsxfun(@times,y,settings.gain);
  y = bsxfun(@plus,y,settings.ymin);
end

% Sigmoid Symmetric Transfer Function
function a = tansig_apply(n,~)
  a = 2 ./ (1 + exp(-2*n)) - 1;
end

% Map Minimum and Maximum Output Reverse-Processing Function
function x = mapminmax_reverse(y,settings)
  x = bsxfun(@minus,y,settings.ymin);
  x = bsxfun(@rdivide,x,settings.gain);
  x = bsxfun(@plus,x,settings.xoffset);
end
