function [y1,xf1] = myTDL_NN_Function_6(x1,xi1)
%MYTDL_NN_FUNCTION_6 neural network simulation function.
%
% Generated by Neural Network Toolbox function genFunction, 19-Nov-2017 12:21:20.
% 
% [y1,xf1] = myTDL_NN_Function_6(x1,xi1) takes these arguments:
%   x1 = 3xTS matrix, input #1
%   xi1 = 3x45 matrix, initial 45 delay states for input #1.
% and returns:
%   y1 = 1xTS matrix, output #1
%   xf1 = 3x45 matrix, final 45 delay states for input #1.
% where TS is the number of timesteps.

% ===== NEURAL NETWORK CONSTANTS =====

% Input 1
x1_step1.xoffset = [3048;3087;0];
x1_step1.gain = [0.000677966101694915;0.000252175009456563;5.65961784845383e-08];
x1_step1.ymin = -1;

% Layer 1
b1 = [1.4640383743452126;-1.4401495527927537;1.41935951807316;-1.3982681487005186;-1.3846097886454887;1.3690383374295469;-1.3631915113093942;-1.3515537428401576;-1.3152525638927897;-1.3007475793076952;-1.2857809861001501;1.2649105158914713;-1.2489244799413892;-1.2406852685377936;1.199590822464764;-1.1948707013531674;1.1815665172709693;1.1649177158008044;1.1440521359409039;1.1267484501596852;1.1126223362892405;1.0927858296001101;-1.0750096779600566;-1.057216160869153;1.0405095209396926;1.0276908276570962;-1.0111944488709785;-0.99262871604298364;-0.97942645239124448;-0.95520371476731969;0.93859738056052677;-0.92209202024846815;0.90442856961481166;0.89261954236683683;-0.86966570680185173;0.85449751395755125;0.83632221890073111;0.81670338607691029;-0.80040619752207542;0.78234754467414391;0.76854746974606492;-0.75140483904988298;0.73502484336847806;-0.71441124644954168;-0.69836246827193749;-0.69411200784808136;0.65921000372503069;0.63829945115446096;0.61763837880320549;-0.6064251121930988;0.59534747526863663;-0.57661893338939185;-0.56390022106512827;-0.53999532299053432;0.52556513990403375;0.51150577091364979;0.49869112409492761;0.47505088603714918;0.44171281035974957;0.44844340346622152;0.42222386360153746;-0.40560621921401063;0.38710822142198864;-0.39818904600058319;0.35226008673039644;-0.3337481368782087;-0.32360003255126202;0.29946386010643189;0.28069740448623937;-0.27561385740774597;-0.24584574673603812;-0.23229440844857732;-0.21532226737062846;-0.19424520273735302;-0.17686944021870199;0.17419255091833566;-0.14690014885697503;-0.12906617279222005;-0.12124850295821345;0.093660198377115061;0.081553188915162333;-0.063633484649542327;0.047476775514318642;0.029191941233263689;0.0076184718561944564;0.0020668517654012916;-0.027374865950737161;-0.020698987696695186;0.055868072441944923;0.065335617160509021;-0.097828533648499;-0.10546909437111877;0.13367820686075679;0.13024602579133521;0.16691331796843994;-0.17556198513984403;0.19425293102444344;0.21630157443819648;-0.24080113394264349;-0.24918093680287659;0.26848164955069165;-0.28479807469779772;-0.30182384057592065;-0.32235484294603844;0.32978070296132739;-0.35401563956744236;-0.35866846210959696;-0.3898051064794209;0.40576804759515483;0.42312961621102657;0.43468362833796736;-0.43775234195625073;0.46477426002572653;-0.49096763626065409;0.50780079794025001;0.52987154550254945;0.54066841212439132;0.5601187185505605;-0.57516143014701537;-0.59351960455523445;-0.60894714166758523;0.64112930907230936;0.65034322156227209;-0.66137713616673899;0.68040074332279021;0.69982799931838702;-0.72326054514953142;-0.71967359772832429;-0.75123314901765059;-0.76586789333017313;0.78223811164158763;-0.8076947050968728;0.81950484237164445;-0.83470962101488544;0.85239482785213927;0.87189685321186372;-0.88691452968158002;-0.90832916395560293;0.92379669813443821;0.94425238832910197;0.94670940958722383;-0.97325203425140228;0.98945824706051333;-1.007548011466961;1.0241858349972099;-1.0490518650028071;1.0540319802543086;1.0742125049406313;1.0931781969125038;1.1083655115222486;1.137937676044424;-1.1442974381121316;-1.1663263920201188;1.176941919149656;-1.1960647716513084;1.2144261580923736;-1.2319002080457011;-1.2458437105145279;1.2668971630897952;1.293863241899353;-1.2993670634008003;-1.3243786469053187;-1.336623349257086;-1.3483793238402404;1.3653598197921422;1.3874706517090163;1.4047066902700522;1.4255783477437634;-1.4345843207203297;1.4555280262311749];
IW1_1 = [-0.17799886533693701 0.1283195666984564 -0.13223940012864507 0.16489130471186539 0.13875748767973126 -0.0734506698518788 0.19379796010438896 0.17891125927889409 0.11301071897796072 -0.191142591400499 -0.20017930353608429 -0.16677093152855196 0.044971850156717522 0.1784458278048712 0.11587243485710218 0.15020341886638702 -0.010411582376897495 -0.049702490120139484 0.010660416105114458 -0.032084155273725323 0.18239820318178937 -0.0349351075851616 -0.11119979841705277 0.03474278309502752 -0.027903475828698284 0.089785008220780019 0.12396142940312739 -0.044241302581640357 -0.085997455485280566 0.1754886284801368 0.019958168680220139 0.0035462815981466968 -0.19468158743488465 -0.15602431967583388 0.19843288243259891 -0.12966389883251234 -0.12205609008104931 -0.14499383158049425 0.0907110719892395 -0.058260686449844459 -0.029038764584145609 0.12803122628159808 0.075679442127883578 0.21338531354229162 0.0035876536931688805 -0.042145919713891505 0.13782083505348527 0.027223002268937466 -0.12971281309469848 0.068925217948616821 -0.010995409357130644 0.20545899205475524 0.13770740540079818 -0.06241862827226697 0.15596519564088776 -0.063172159831629021 0.1250149575315167 -0.033648082046815249 -0.10121671742025738 0.034456164578570661 -0.077313438874348051 0.13828383028816185 -0.18362176930117902 0.1448540394488817 0.096791890390817106 -0.027992634706789379 0.09345409766406268 -0.097977541123703812 -0.056328570850861438 0.18918326694031887 -0.1918568861175792 0.074405236844989828 0.15762669087352679 -0.21200037822564893 -0.10710554053158976 -0.14893632547912358 -0.092631391895711068 0.087344707962221102 -0.04645245851156149 0.20921250866847982 -0.10756526573048347 -0.0073721664690701823 0.035183365462059975 0.094713605659410866 0.1669985250842137 -0.040211854376834735 -0.17553104680747436 0.16911034658272081 -0.093694479074015138 0.10230067995676326 0.18621161800308217 0.17475173478800024 0.14026878446617214 0.070473425513084942 0.084300122955229623 -0.011721583376514716 -0.021835335417893644 -0.15940331704837282 0.13373060726657321 -0.17491067836056359 0.12665869760605761 -0.066128688935633423 -0.073660767902350072 -0.037360657882616187 -0.10881953995775043 0.0027622437427531291 -0.15283575811930705 -0.087629175218353006 0.073244815816274289 -0.14926974751910899 -0.013788603315635346 0.18636579671938724 0.17760365328586136 -0.1634068908787483 0.088850762716042392 -0.056411296085330138 0.17633357621671633 -0.154518891676932 0.105696294977679 0.093163397562833053 -0.13329510876758752 0.1090715251744642 -0.21454652128354648 -0.017716766043308727 -0.19464835972661326 0.1846326144556624 0.16061109309520807 0.16992860973000654 0.0064767205264691921 -0.21226184249846164 0.0085971114462576846 -0.061558881055843215 0.061896257183534774 0.012141806355864614 -0.088007747613156675;0.03915716698810006 -0.028630115124174738 0.042634456215613022 -0.22098493551145562 -0.013334087117595038 0.033009761459534798 -0.0034906858427247202 -0.13688203919489719 0.0057925408570867944 -0.21495575134614467 -0.14604602917253542 0.19503287823944279 0.14460805945468339 -0.029384906486910018 0.047346357993956686 0.094306852408418088 0.03708295294616068 0.18337061567545773 0.16009181159021574 0.10108880758835002 -0.057142066014562745 0.043708790597722418 -0.032124591711982932 0.20182839482841025 -0.041021333708669429 0.074917085434383968 -0.088545842057257421 0.15787033811715956 -0.13578776261537659 0.17592791676063022 -0.18651847098592028 -0.10569398857060749 -0.016057860201790172 0.11353894924225648 -0.17845611397696398 0.050218871203788082 0.065989323702522765 -0.11119865258054716 0.20491513306855544 0.13212431996183086 0.19663146500916984 -0.0683083932713002 -0.20541008790523904 0.025067467648912163 -0.036625798792753746 0.12048419059872645 -0.17213685134309339 0.21636161971010379 -0.14316648360868436 0.075727787464327956 0.12115573229351877 -0.19338632858638832 -0.095656704972775897 0.013883280872165711 -0.08439949858504861 0.064209428042439343 0.11807721853191125 0.21640417667176157 0.15712469860341235 -0.053343293674115076 0.080892994235358534 -0.13908568007588673 -0.07021926792996501 -0.047707249653625085 0.045291589285522425 -0.1013991872405878 0.15523208996116097 -0.16397168240765708 -0.046694803047721979 0.078527012826397763 0.10154781035299836 -0.06836417854991457 0.20192350802786835 -0.081225316025460639 0.032298470178782131 0.085803208040567763 0.034912681189911719 -0.041105661482525355 -0.062095991260650914 0.1306685301300374 -0.19550908211781889 -0.11656973596834186 -0.11685330287654445 -0.030471585654582529 -0.2022396957177717 0.11610670405303107 -0.024177409330263105 0.21026718355499605 0.17063153639618817 -0.16854846142549573 -0.15135328890600194 0.0093746417192941064 -0.060066783576092894 0.092616012965912237 -0.092302422510093032 0.034175512182145873 0.21127115018344786 -0.19225428735537373 -0.049692381156457563 0.01508034328426514 0.042609077611966396 0.17746368214510302 -0.099207253398959735 0.037400028969366589 0.027240381181221088 -0.16712033363791659 0.031629409563381408 -0.12050718875602523 -0.12552782834127627 -0.11086891124081222 -0.041285659183761189 0.0091355925351806495 -0.1283270580696976 -0.15003957454495342 -0.22002002789933478 0.1428292100453859 -0.11425962011333093 -0.09279474103216756 0.15401523951755605 0.092024969121474162 -0.060530966178541583 0.19761158910296822 -0.13236396839129996 -0.19322466319650364 0.0023619662907034028 0.16444621322842812 0.14311651473514067 0.12178397943473178 0.11801922070462231 0.18287538136092493 -0.11374333934178558 -0.20318344354365472 0.11741410568942694 -0.16656622857837194 0.14100473829896712;-0.088968676177468287 -0.19916037192957428 -0.05789966547081659 0.060110684205205371 -0.029088151557428013 0.053564068896236841 -0.082591993588022855 0.12783902458835833 0.11543381855350009 0.17668317347153123 -0.083899114089731219 -0.10958912378336048 0.20190223748434516 -0.17371765301559988 -0.022245569182562191 0.17847994178277773 -0.12334316521686221 0.11598166908324221 0.084410234887210903 -0.061778494664641061 0.10758169530626088 0.072844798723390308 -0.15173596480707965 0.10418183921535792 -0.11440967747770922 -0.047350776088723665 0.0053681212696632761 -0.18203975411586565 -0.12459260278616523 -0.014531051313384091 -0.034499002887965501 -0.11235189325263424 0.070460821679544344 0.10782020322760594 0.13749080601563479 0.073994632562512014 -0.061146536973568817 -0.19715926386521898 -0.1037452268777493 0.17724937160825441 -0.062043694383195902 0.10137502341580863 -0.035088228110571669 0.027641414026598712 -0.15743085214805483 -0.12130211029137525 -0.18958853917037852 -0.015247604315795152 -0.085502627093348452 -0.1959941350670229 -0.11977684083480541 0.006190841559352912 0.12509754195230072 0.17942009327579461 0.016349695186072849 0.17660709302444411 0.11000263057455618 0.1200153878338938 -0.037903356537692237 0.17799542298189622 0.0014474022152078665 -0.021566617054103929 0.029183289000255373 0.10679265310267122 0.15979968557828453 -0.1546090558031013 0.1067019424399195 -0.16977980345019303 -0.17040169379046424 0.11739198602038466 0.047161707460801519 0.16256436587808587 -0.13424402426151713 0.10839417606056959 0.070649912113129446 -0.050258938516773592 0.12622533855346479 -0.15168056454457182 0.15332123858683563 -0.096439780318153548 -0.14735813261983599 0.19143186723167244 0.13213608113275904 0.11901810464081285 0.088790641026119832 -0.18456905815628138 -0.10978004962242566 0.13852216006549306 0.13978261668393091 -0.18955711225099242 -0.072832628483743528 0.1061673890354078 0.11276811393668382 -0.11996762661728301 -0.1510103730233622 0.062807071527491334 0.050672130859238267 -0.15721858091973814 0.089271770475737505 0.18870069937369605 -0.14057099246210003 0.20479085467086627 -0.027649818886501431 -0.19736051999642865 -0.18788036894785096 0.21103705678994705 0.067758432933244156 0.19432236742345366 -0.12786787018559939 0.12457263730686735 -0.023097115125657666 -0.19349970399318345 0.17192194611168288 -0.033187504946489574 -0.094488395813476636 -0.058813497231652891 0.12126380965264402 0.2013575720447609 -0.11728031947594197 0.10246907832904881 0.025990474747775324 -0.0026577485682299472 -0.094917278012360565 -0.11310312507553109 -0.1545485163151514 0.20904159226149996 0.099068999505171645 0.068019199686265103 0.13007661798939851 -0.15691595945035833 -0.096425511569930927 0.096318576691201946 -0.13905791155521413 -0.17629257045384089 -0.096933349072663516;0.051569028016605414 -0.20201403972803117 0.17829641798364551 0.10067738323839015 -0.19745023575381909 -0.16554410664405106 -0.078014784264108364 0.0073799227825999082 -0.032386430038514241 -0.16237067162358948 0.066174902907628549 -0.14694199965140131 -0.045328468902066085 -0.12752169022421345 -0.1545751669459314 -0.016785933722786976 0.016075252628804517 0.018548939425321629 0.10766363446323245 -0.17035713306723888 0.04593616113223601 0.1927695928137973 -0.089318035385556618 0.065027948049334761 0.064739997659943302 0.18398876912499937 0.014270858028881431 0.0058309025276853232 -0.025126095667671655 -0.037116268993831053 0.06978760668012754 -0.19976002094020684 0.07836189741446381 -0.096116584544359993 0.13125831149700012 -0.041890744443135515 -0.010704212770461685 0.16093657874361034 0.047375021697763933 -0.088189762774179975 -0.00088042870405543293 0.19383360209865133 -0.10044552347976528 0.053789205868574601 -0.2044352535221251 -0.036110735193068684 -0.21088603745457857 0.085655227446064797 -0.099991754099856278 0.18595251130253557 -0.10643244894067386 0.17465896305156756 -0.088369204204445231 -0.10651139105887668 0.13965837200975306 -0.043602007566508456 0.13693810414041238 -0.0071776696948144345 -0.11017855179766814 -0.088517655189502081 0.10106742030597882 0.061028762520816515 -0.20888717324869671 -0.17370276692034381 -0.18657432676624808 0.20047286806065293 0.087396450779165191 -0.18375612736115718 -0.091474617738675809 -0.08884275253342741 0.13610672381055161 -0.027081930710100389 0.17260412509444922 -0.081882478181618409 -0.17026326183875024 0.13579211266919755 0.014094807774695451 0.20093306191979945 0.024269075236163454 -0.17533110559574611 0.053898534231271097 -0.069312995948765027 0.039277960191535323 -0.18922752902477208 -0.18552481994212136 -0.20001313010881996 -0.10775848141363414 -0.1152953467873053 -0.1871435013989898 -0.053385239549167678 0.00087832934041675139 0.010159619273828557 0.068986002217963138 0.10542544086770078 -0.13362219616207976 -0.1407964124616069 -0.1486816785257726 -0.10780260222904103 0.15881317029425884 0.095627754706462023 -0.16181816549467054 0.15337009142537236 0.13756754304312838 0.20448347192206334 -0.13504454242084266 0.070501756144802197 0.20460405818756866 -0.13389894213417838 -0.15213224985271359 -0.10338200853373415 -0.10966746487531756 -0.16650442378167535 0.021293805426438484 0.047425326169650318 0.12997323872166577 -0.11161903509890289 -0.1646050437310799 -0.15014978567420015 -0.07186078338330891 0.10778973693033665 -0.0069282559687178997 -0.016410479994354431 0.074152910682963327 0.14559401934278857 -0.15559890088465092 0.058865320180038858 -0.12913721096960823 0.17529727304368758 -0.1784573546820046 0.17756351509577509 -0.14080188899337806 0.0059166910309944275 -0.012025702354192666 -0.1578015322021189 -0.18261713639988236;0.072617669367070148 0.17224648093677675 -0.029156460125038811 -0.097073148777221036 -0.18335463401843879 0.13910205709602635 0.15913515646601573 -0.19563452456417274 -0.13471442429036459 -0.17447380726044867 -0.055611519985958986 -0.16272703267353172 0.051252658482698159 0.18643681970650977 -0.093874007060549602 -0.031188876354324178 0.081255654441484262 0.12788758204324713 0.1456207122381506 0.18879010785872208 -0.16005951004016242 -0.14876102745836386 -0.011571854314329614 -0.0038985908719234162 0.19503747700293711 0.13335708833551624 0.12475186274425479 -0.11062995961470706 0.0076393581731959408 0.092437474537824846 0.15006013987783073 -0.20257856022871062 0.15271717552741645 0.20056380475135349 0.037602315817386905 -0.18472754179779013 0.10116255423497393 -0.17640212378258377 0.031748408067021228 -0.20231254828713399 0.061586535821332868 0.05832469430396342 0.17767712856191137 -0.035625977900157466 0.15086384817396464 0.14624116875995344 -0.13459714359948385 0.013091852816840723 -0.15320263774248538 0.13369396135032341 0.1673504696018672 -0.062702826535383144 0.20519937913743147 -0.056102471889036554 -0.16364133719925136 0.029095779975664982 -0.19911450213213092 0.044217666380521436 -0.16454517482493564 -0.019641305272493987 0.18059026007860229 0.17237190237951414 -0.15479258602943202 0.039779362935336161 -0.064058503138059997 -0.0036331132241599826 0.16722263041029514 -0.18560633876792446 -0.12883796403619571 -0.085871600493581515 -0.021274238770937242 0.054852625444214306 0.055340492538046342 -0.15758557871979045 0.16761830561300189 -0.14478269569330965 -0.091609533168007046 0.16343165935885107 -0.17031407175672988 -0.17117785826585494 -0.032283613598313762 -0.12018272926853313 0.071306615551927521 -0.19132413943856913 0.16133410698872885 -0.070933979719713325 -0.15186630885143537 -0.067346321811066603 -0.16616925905754948 -0.12352746595183996 -0.087712477229964378 -0.17265738577668582 0.18648950006286666 0.14806001494489918 0.16513648454227367 -0.19640220211063641 0.0087834242159411883 -0.099138135731452998 -0.038754261342976729 -0.043134302460208065 -0.072841973193232754 0.19182013191024105 -0.13722853078094935 0.076733041669564003 0.13601687607897264 0.15743610050200402 0.0097847762284944267 0.079181311870573021 0.12464831308073189 0.028556725023291631 0.044248589928910717 -0.079003912332007556 -0.011409623556431183 -0.054079470249323615 -0.14270382224873315 -0.09538323784819068 0.10729918151995019 -0.018809365391228232 0.082622232304737864 -0.12150700291799321 -0.19650312601304207 -0.099714795383183036 0.12111206612611082 -0.023807448405340589 -0.10510292365427654 -0.0060698149393131444 -0.0070903380941054455 -0.0084439520041062512 0.018163575183810808 0.044276229089253827 0.027029656250507902 -0.17542710083761887 -0.17037213452738131 0.095067703635464448 -0.071736540051942618;-0.11405070533918728 -0.059978288309071842 -0.12601526573154659 0.19022966813760162 -0.0013588717152709995 -0.027680178987511732 -0.18023851241371444 0.17112567071093582 0.067163056160719659 0.014263657018140287 -0.070015178022837812 0.16923043714225386 -0.016080132697390913 -0.0007283039625534803 0.19413696402996464 0.19794740719964488 -0.13654577089732281 -0.13521043205843322 0.01303359397510857 0.14606206855002216 -0.0103529342244913 -0.18447086162302967 0.023350680180766553 0.090002684909305131 0.03760191877300114 -0.20100009256644033 0.16013748778828368 -0.18947271939041962 0.046173305871771791 0.19585206895180679 -0.097082004441923428 -0.0077779594429552993 0.17777946228259139 0.039465004916703197 -0.062469967311218497 -0.041360105164845444 0.10225065555383842 0.19478226215579592 -0.047202566751918681 0.082288931598712242 -0.16821610750302382 0.090057672922861071 0.13154698050760544 0.14819200855042378 -0.11488311216531913 -0.093195836929980971 0.0036403086233247903 0.013474217389208709 -0.10621976472894792 0.11929332126545571 0.16270353667171453 0.17166916811330746 0.16973098108584944 -0.11377592457218712 0.064063799996650059 0.20220769120312945 -0.061912232821659405 -0.19636481836209657 -0.091285529708961893 -0.072394982333645511 -0.034290675343625808 0.028772488673160627 -0.1883359361178826 -0.13217818473495391 0.19481465393581959 0.15563764338757197 0.15713283972929445 -0.091747179147931512 -0.1221490343422742 0.13168990504501515 0.16392634413455417 0.17294445725545476 -0.18454595641856505 0.050366099518124201 0.092835682297988845 -0.057884433996368043 -0.073374643878325138 0.11247783296032526 0.086745502156727966 0.10029644826085979 0.16369380878831941 0.18477798399520243 -0.041446740083872162 -0.12207426121336117 0.11016942653267281 -0.19364976236618309 -0.18919499909753903 0.1087241346507023 -0.13685230306817001 0.10360787335386734 0.10962825017000308 0.055205637462485427 -0.083694463966976537 -0.074424137748066901 -0.18897730248602812 -0.0076535390917453336 0.15132021355380723 0.1691305388337227 0.088230045069485147 -0.15618953718486431 -0.13061543838255846 -0.13309064151226493 -0.076862846404016347 -0.16069659977160478 -0.0038753313798727744 -0.13164829611217851 0.028120769453176046 0.18027682980884932 -0.12648656714174994 0.14190079251023821 -0.057476147765972381 -0.03329083691993652 -0.070918146405932192 0.18846895542446454 -0.14202814682488585 -0.091325299073460348 -0.086530178741987956 0.015603525470273383 -0.13378688817463855 0.10583703638420618 0.16812148098670984 -0.012449685593448861 -0.11658722820708094 0.091102425208659979 0.056920585139507658 0.18549002645031515 -0.11376739908497675 0.14684597658777199 0.035721658198885571 -0.17638871669937473 0.1015823227077553 -0.13072566131550437 -0.17453073044801709 0.10940754104144636 0.17177601243776319;0.072044838742921002 0.19575904869556815 0.12435268036987868 0.0024593776930174793 0.13706544046927371 -0.009527646054929324 0.13114471866151933 -0.12349509072428172 -0.1867173854467194 0.060146101448856418 -0.12076165007494631 -0.028861956778999207 0.20595549670936258 -0.15146784283440307 -0.20663607982163038 0.18775892041991604 -0.10494673297594713 0.14563929575599266 0.072689509642282601 -0.19208518070369043 0.020267760575506027 0.013799217584559346 0.11364026287527634 -0.0077469664664156553 0.14334330925295871 0.0046192494223440362 0.18777969507835499 -0.18457563886449371 0.021834486744588592 -0.13085406238570135 -0.16681327423523218 -0.021384953270772722 -0.070772873473378975 0.042096669537805401 -0.15100903080439634 -0.12171717576640827 -0.17215655831312876 0.027252307388258405 0.0031153206632285844 -0.14902837419552711 -0.08709079032162366 -0.13837908429991069 -0.15786468774927789 0.16412310245769421 0.18273415301290521 -0.16684184712405345 -0.16647301205037837 -0.077106916108829887 0.061195852743272668 0.11874020630044636 0.19560599710755477 0.11020900769667968 0.0036468977699206607 -0.19142899500952246 -0.20428761015742494 -0.077713499282586126 -0.016461920209726227 0.15433179165098668 -0.20455888090628874 0.097138962787306049 0.1561460214135216 0.20422127425933539 -0.16575201830344788 -0.033294448907793331 0.031253065490393861 0.20744361215606902 -0.093526370653328472 0.037932660788561709 0.0085438429607716301 0.13229496322471165 -0.087968180232470536 -0.036870353610067221 0.10525674726148741 0.0023421274794726893 -0.17474458893023451 0.15952297700870058 0.005965676665940116 -0.0032712881784062375 0.022454026429645561 0.0993894409055259 -0.099029776851763465 0.051967558610063982 -0.10682471483251868 0.077199480092530137 -0.120132575650228 -0.075284416787720548 -0.1330224710785817 -0.18919978605480689 -0.13360542735763964 -0.041450724772041696 0.19761240573377511 0.2047398458627997 0.12927451889803851 0.015027376413901779 0.036245339986399533 -0.14426111246219098 -0.1727175759748717 -0.049941804836818947 -0.17440568751327432 -0.032943845217006856 -0.08069003125347092 0.056074085291294727 -0.089733293193754504 0.14353810866771383 0.2086759788287294 0.022975186614082165 -0.20454978262247431 0.069852909782886927 0.1554818264180842 0.17804867584174469 0.17858759787508563 0.042103120137017641 -0.077999356203616213 0.054933871558630887 -0.080122614085534116 0.12644194179362006 0.038125704749369223 -0.043830328447853138 -0.031884092476597167 -0.015945888558820565 -0.19931375957341438 0.13997761012855797 -0.069929307965290163 0.12935481845708888 -0.1873036129597625 -0.16635538171703398 -0.047985318036835312 0.040367980225813747 0.061193726286775052 -0.073176206100355135 0.072076899321114177 0.0012386482736234188 -0.17605595657426915 -0.067749149582761778 -0.11030553957297173;0.18046674397801626 0.15465978940748831 0.072894136221841266 -0.11170287128117765 -0.064682448080727303 -0.12871955232040919 0.00085785646938855878 0.045588367409720415 -0.01894557771516367 0.063775858494698953 0.21291649419689113 0.031855690041637845 0.08066035616421105 0.15419931893122854 0.13264620510511188 -0.2012891483322741 0.12036362877281112 -0.1279527012941028 -0.1440866075850494 0.13045998130053768 -0.19347085391373603 -0.080343997527241112 -0.096289689148626664 0.12707739255702979 0.13477945672263469 0.032257119821868331 -0.095864584895106561 0.11064113128179012 0.0019894752297723076 0.087336188692222885 -0.15882555827243888 0.053559169527755059 -0.18331666681414402 0.12628962238361191 0.082085447408197731 0.035264958676362215 -0.10585687197901915 0.060273829539782921 0.085907429157550105 0.11966537410676453 -0.0765668341941773 -0.040701188264513674 0.035784848849302157 -0.13572456040705425 0.13608241207843397 0.16634417079931255 0.12032727596202419 0.075115829969265385 -0.073913132035488729 -0.073984737314504834 -0.056779799276816693 -0.045323408564193667 0.10388705188984199 0.079084957503419595 0.19393144573615931 -0.01619657200932284 0.14820344193543461 -0.023682086073394556 -0.082905530960514423 0.10384711249149872 0.14238618003323308 0.07993133573009796 -0.056771972067458674 0.15263981571470134 -0.19752247231444028 -0.12754159244206342 -0.066174784923420743 0.21534881012921908 0.085196642762541422 0.020670270186513323 -0.015440353756968847 -0.17606512791701542 0.058681825773523322 0.047168770951964555 -0.018538760528316506 -0.16954940741644309 -0.095681086023403999 0.1358079429346172 0.087500095431280414 0.079175596258874867 -0.095738608279751072 -0.17927085729899431 -0.11869181297890638 0.054020666576398334 0.11865091910040043 0.13259039734750389 0.18135291516133292 -0.19197798328990881 0.084505158763099719 -0.13672404688748183 0.021110203186563949 0.20357639576225403 0.21185187261522873 0.17442516884399015 0.19989693040964032 -0.053385355300448203 0.0060552828846772034 -0.015087417849135785 -0.02097378278682447 0.1644535399236893 -0.17277969972250087 0.16663769584947535 -0.045678156786973512 -0.035021707616204184 -0.17985514487946269 -0.20491292502431058 0.15184822387429642 -0.18137577450180881 -0.042964108856236478 -0.083304972770417748 -0.0058518929102173581 0.16693238966823432 0.10563934775919651 -0.0010576840848485977 -0.079078163010090893 -0.18415119367378074 0.16118928014997411 0.13736010134283885 0.038980945569741646 -0.036383002940106171 0.20044928242495252 0.16592591576504367 0.090852733608546662 0.1884177786425241 -0.17599255135451269 -0.14483330600236149 -0.17247196209115837 -0.18405027944169042 -0.098714046605805128 -0.14176847035754739 0.18894979154495875 -0.1145839670185161 -0.17845182180784913 0.097639093618229478 -0.14527216454649863;0.0075926386819513362 -0.100052227903071 0.18827028339955265 -0.20033546507431799 0.037020126823755203 0.0035856426468870101 0.042749432345457167 -0.12688945574411123 0.2114736905236749 -0.054238295005653664 0.17394140555893353 0.045736353094280591 0.20914054311020788 -0.17899774980723787 0.027299688874142049 -0.0053763990205677207 -0.089527742569039628 0.1835175606100613 0.21288920892742141 -0.084456086772583788 0.035897754619561129 -0.0098178301778974169 0.026966949237682784 -0.18954829185039401 0.1115521973090946 0.17956179694818597 -0.19404585030868665 0.0086107677983145361 0.055564036310641163 0.032127020699656547 0.17966338750235547 -0.06475520374455912 -0.069774951709259903 0.16913219124399445 -0.12822459185699742 0.074516203510104531 0.10580298236935581 0.097827332532757882 -0.043161260411602599 0.035366978470566628 0.095894107085914407 -0.20715206457283539 -0.096973595595703205 -0.083977516944970909 -0.042834842536181333 0.056441836967240901 0.13928454214606351 0.038362988859209815 0.21689493675067437 -0.13286633770291645 0.14741895329145968 -0.1352142075890331 0.15109058312529336 -0.018966429178327346 -0.087621814377228352 -0.04028027703610762 0.087510243360984008 -0.063238690636473416 0.032273583708694882 -0.00062075954182298115 0.074529232518819877 0.16434902644197519 -0.050848625173584461 0.17049549264849637 -0.048133047356908723 -0.026640809692940186 -0.16415377418189234 0.2072432542316289 -0.15833124114068989 -0.16795293181605156 0.12186877388609788 -0.18867160650978262 -0.18760942082315407 0.1389445692706483 0.022385794342564332 -0.073680346418854084 -0.024067191343120974 0.029371805582167163 -0.10921598134330136 -0.027945833933115217 -0.028064806994353163 -0.025956066839215197 -0.016214978157982802 -0.086465444862807148 0.19224419668470213 0.16730260231823388 -0.088406276378595647 -0.021067516509307518 -0.090101147044937047 0.085573362127282684 0.18953424027831497 0.20054610860710251 0.10644763416151097 -0.063060210214312046 0.14098586670492272 0.12068652289911178 0.15191823212745154 0.050012273879747125 0.17738372879801559 0.08857776710331107 -0.1898151712326473 -0.064935574361622894 -0.075552209581685195 0.21540566595512614 0.20793345195654911 0.1481673938600522 -0.060615259834233215 0.19019150195546544 -0.17697345937382614 0.18792546951074529 0.006448496237941248 -0.20269650415079646 -0.17787123521169365 -0.061349272216821064 0.070145267032959285 -0.10966767555006658 -0.1209572892070894 0.024230242873041149 -0.13192172408850422 -0.19611119553608425 -0.13885300100286396 0.11269818891154192 0.037669146934363115 0.13158619571441188 -0.20956817194478808 0.13279804306575396 0.18882847870256911 0.0060105812765041261 -0.20896963813281788 0.11888163103358615 0.11671565238897551 -0.041204064641889623 -0.033381502975631458 0.027396158485576083 -0.14910342482782052;0.15113544105410026 -0.15983057232890349 -0.20695905391575659 -0.097152110777028497 0.14170257701812553 0.13793192909985488 0.027283337924845778 0.19054605553596457 0.18109873725345652 0.19730408494577556 0.12904922230534582 -0.10053850926983858 -0.14770459432393848 0.19951164765813836 0.20652522094698028 0.19255552110927857 0.060517168026495489 -0.030125997916746583 0.034002657788931107 -0.021507911512963704 -0.080383534633081621 -0.14827299944424338 -0.18941722070929753 0.2023129806305089 -0.16640358232092939 0.078475325707247856 -0.017063356225335929 -0.15033166054142294 0.073482406638183867 -0.20496021901336117 -0.089285745801337246 0.07791168327274875 0.1983243217836109 -0.014203116003149456 -0.12537035315868256 0.18993332521647585 -0.12164748186708432 0.13257148655619469 -0.10242713463330579 -0.014413611905808518 -0.077169147154670978 0.074476488734971494 0.18294572452148791 -0.074010167212498909 0.095557707405392975 -0.17873832465770012 0.043179865513567957 -0.088824948501378759 0.088502897471542691 -0.011500321028766811 0.021288533853192907 -0.11478641558524633 -0.066874945732792845 -0.073066499090484585 0.025108811669377659 0.16435314083771543 0.0099540357875909213 -0.021707658657120328 0.16298523457906208 0.073906859636457753 0.17794574402206881 0.037296959209900456 0.11499196010750935 0.10207954357740519 -0.04262152878186197 0.03464423512054679 -0.056745898695953083 0.090986916647351965 0.20120296839461529 -0.12140508149263272 -0.13634123797924705 -0.1966958589986284 0.00091137579859169578 -0.18694740982433555 0.038712704669387497 -0.1363694196251212 -0.20620810721340926 -0.096698679946067456 -0.020649095477819304 -0.07816260009200926 -0.030238367791623234 0.19301773974326089 0.19582378445446624 0.12259021834099987 0.20374251197066315 -0.035098838569997737 -0.1289023225364643 0.086529502570212552 0.19555822639748746 -0.15828661893520232 0.076359959990945525 0.17437940995565077 -0.12809743543848776 0.0015360095110934723 -0.0049320727877922585 0.12767601122976222 0.093112821966003137 0.17518919399795574 0.17813938761513542 -0.021756583403120092 -0.14370095411373557 0.034847946789495425 0.043586724305033978 0.1807891124819464 0.025146441575388943 0.12558456982481098 0.060714288193669953 -0.18317762361780979 -0.014278023535812683 -0.09035290620638832 -0.02979311987071051 -0.20571495371183263 0.1560179917748811 0.059489450602718083 -0.1791575053294672 -0.025850714296485611 -0.075703645391994687 -0.15813620733166514 0.016423788431377793 -0.07399197193808138 -0.11688438552304518 -0.18554080712164858 0.026641212339173596 0.062105434507484229 -0.11239569159000654 0.194125392054906 -0.12246997587399114 0.0079948839192861068 -0.10113910140399411 0.10108103592935999 0.20473428189463208 0.12818472317873361 0.095014007599776573 0.0090232618189240044 -0.1316273905890902;0.11556743550458701 0.15074125352176437 -0.1340512359112212 0.057414129095966035 0.045181498437489719 -0.041343964225766527 -0.10955476722868637 -0.020722375906292161 -0.043642550411516774 -0.069598423530534664 -0.10425029526616621 0.064901639652176074 -0.080100419024039471 -0.063405841997480686 0.19654438854038589 0.18020894049548883 -0.095521448306620113 0.1576739172583137 -0.0007433085183180581 -0.18431235295160059 0.17949936051658152 -0.17288869269484719 0.17784827777888448 -0.17824967854266516 0.023336602618787977 -0.10138591137076529 0.20248009383219387 0.031356780234278146 0.13152977426635648 -0.15134101286349902 0.017691600284139717 -0.19097488955222511 -0.18738869120190454 0.031787697258846566 -0.20042493538021072 -0.02051314777637353 0.17507996232831335 0.09503580909954075 0.18034110704952813 -0.082047300586867281 -0.096698222713806903 0.029856533096773122 0.16867809117475993 0.0093180982368886167 0.12582227383343056 0.0031889216649243195 -0.048753268963521897 0.054952457948165875 -0.1109696615779778 0.042363039173475017 0.14572223120922068 0.11640404082904247 -0.0086187263223074483 -0.14118194579010646 0.0046746838919970307 -0.19983225388052939 0.047580814835722234 0.039470975253631427 -0.12393323423346732 -0.13248828750044794 0.04053424114522839 0.17448607460084595 -0.12188300818653276 0.091896352189601627 0.064643066897699608 0.10497165539510318 0.064377340783388137 0.18672162110929721 -0.16812570311017316 0.17234193826004254 0.19137797159757677 -0.096343487867857278 0.020429199426857763 0.063056143799275599 -0.13781862602250566 -0.1905201349297018 -0.12131101409392979 0.1583258560096458 0.18035152620485517 0.1963475110671663 0.025331873113685309 -0.13454810296761091 -0.046544829381469727 0.13547428383247059 0.043976258151508185 0.13348917903214838 -0.032643525949521933 -0.15544549038013225 0.20374175172134637 0.13134905103516775 -0.20025019390354626 0.090793871861440514 -0.19323369306003188 0.19068970580989245 0.15493695358841819 -0.070285167148801272 0.14072180737636719 0.19715866667759202 0.17168459741255654 0.026573650229988203 0.17160752737747345 -0.12408321507629506 0.17862521489528774 -0.0029251621954344072 -0.18184212435444397 -0.18685072144760004 0.11453211988058075 -0.023560142972223447 0.070666224753119788 0.0037118101918573693 -0.076591538246911076 0.063909024384892044 0.17186921163596552 -0.11663939059891386 0.05897314491024825 -0.18249116734693996 0.097280225075019461 -0.047715298046617255 0.18925467186527273 0.017748856209958898 0.047798598364768706 -0.19206899451573414 0.07671877905890756 0.035824936343580825 0.010333937149493535 -0.12974207460735629 0.19801987446176869 -0.011544167676819537 0.12849049097747783 0.015412224397360967 0.093711339774907462 0.14710597791899072 0.06283130364157069 -0.062493148946128833 -0.15596091599172368;-0.041990363963811596 -0.042373650715033184 0.13115034280001192 0.11110021821316172 -0.19509496852928829 -0.074445476174548414 -0.082326093755626217 0.20922485008986064 0.1381733594281688 -0.056053749654981812 0.16587550909158663 0.17874578280125858 -0.13373400861059451 0.10733905701765425 -0.20141492317685003 0.15068686004265225 -0.046439023999559167 0.14254010963265556 -0.11545853255115421 -0.17997733502176211 -0.028233527184287174 -0.049602573304400925 0.12328872766022846 -0.0075340706440997956 0.15476011970513268 -0.1681115399086141 0.035523701342403215 -0.21145216066206557 -0.062283342221488888 -0.034316353119966898 -0.12557270944345775 0.024923808654023348 0.14604974151465389 -0.16066068647580156 0.0093390086306541168 0.21037284389207436 0.11692896497220631 0.19263447261142808 0.025881979831742119 0.17866482497297875 0.12871731354577759 -0.035558710773317397 0.028228613156973809 0.15647375711271866 -0.031992622141369255 0.041629765267087608 -0.15907036909216665 -0.14350022338332255 -0.075444899335196894 -0.21265392251861864 0.030082234682382809 -0.061334484604827252 -0.036222371231075648 0.18258602587418127 -0.19205922885115206 -0.10042863668997914 -0.19811172395862764 -0.024030273958374881 -0.078793890803493333 -0.12927254677083772 -0.011510747357630993 -0.076117857813713816 -0.11773008902022895 0.21115949418515872 -0.038298217708787947 0.029053117718246622 -0.073151272254904004 -0.036593614724032969 -0.0762267505138257 0.046342477932374608 0.10145835005593089 -0.1848394871930723 0.10573067708012526 -0.14526029341840541 0.001786951153946021 0.08485943684027944 -0.087862435255650059 0.06623872354492108 -0.20479042655091945 0.096354574334704818 0.15823077475860531 0.1867959825966323 -0.034334379644588159 -0.16996092566314208 -0.088368308129874909 0.17095347312044817 0.062378046042329778 -0.16449329440999461 -0.039577396691680811 0.18394199342716019 0.099884132698522116 0.078531266993958376 -0.021971535513865194 -0.13987955806317076 0.10777905998878164 -0.19930686820760346 0.11813427511258255 0.041521021625003075 0.069356890168646504 -0.19311577038945188 -0.053746141741546946 -0.0035813835245977798 0.092818679727689382 0.20066503933688451 0.039741284638245195 0.055763383374562943 -0.14628581408749447 -0.20271657570619508 -0.056451418947525742 0.12297888528904402 -0.12162697344395328 -0.033062090726977141 -0.10911232597371223 0.10117521338402367 -0.11095158061531148 -0.17682755174375883 -0.048233125113700051 -0.052710036416103237 0.088630613778144685 0.0016314120164146254 -0.19502285749642054 0.20324502158289165 0.11559649207586048 0.08902800619201176 -0.068704158412722219 0.19389358807561177 -0.20202477815115039 -0.2038354910539342 -0.015368529049887204 -0.2036501695768381 0.14565317897180238 -0.068879346014496842 0.19067465718999155 0.024469283523459437 0.11055590488052941;0.0043743698351880779 0.034267352089558945 -0.15671673340274256 0.17768146093621959 0.20740734759672189 0.038767876291740867 0.13873064562927792 0.17329469747519682 -0.10844245639621035 -0.088509052647500933 -0.11215687803954488 -0.048099100194389795 -0.18215771725799851 0.18514303538904434 0.044549188523726288 -0.17343825180345665 -0.090526237184117897 0.0608828903439926 -0.20074916539975804 -0.017801041015485172 -0.21530221773178401 0.14162558261954072 -0.063345419115631726 0.10139068253095589 0.10363675039807872 -0.15665724988118929 -0.03036127876539705 -0.13296844460014223 0.19491753517312149 0.16302174265122221 -0.083709385241222511 0.00052661433694267961 -0.19108424097347965 0.092380382042921746 -0.088058057873459342 0.067350000116852632 0.10686371711119885 -0.024277739319845018 -0.035126336216435378 -0.010405449688259029 -0.030447138567136104 -0.0027868097958119371 -0.19322933932002853 0.060071029703977666 -0.18634408900042312 0.16251841728601396 0.08282701630993991 -0.10364050327114317 -0.19866044915547312 -0.03095151737243803 0.19826422295470758 0.12887657946903058 0.028445006309565937 0.14602685978383215 -0.026083968140967622 0.10409810884576653 -0.072189330429663273 -0.21452420531561575 -0.21485316586764786 -0.069171707220333029 0.071961539684601644 0.16435771960699505 0.1814172467029069 -0.056543795372138377 -0.099707139433367384 -0.099142879695265085 -0.039669406857346358 -0.015357238601833008 0.03434077920742562 0.15225961339339703 -0.21397399893480046 -0.08530195020209555 -0.068536211891205276 -0.1234734549985862 -0.058948231000022264 0.069133477502922702 0.10230322727399287 0.10672663692692599 0.11166696987929353 0.13748820368711598 -0.038520846604749914 -0.032559040401483816 -0.029059850767747607 -0.045506250946847918 0.15592465998403737 0.034371463527546282 -0.21997717135301062 0.0048233588708888097 0.21900020595148439 -0.12264361048857104 0.1104518587627519 -0.2269694316110499 0.01471578216714632 0.019527343527413157 0.014719410027980757 0.052678114944072665 0.14005794974493402 -0.037390048869752598 0.098764201034026097 -0.11304574416301282 -0.15189233549314091 0.071720012276448905 0.011537900645083142 -0.077886741220968642 0.16774183377911991 0.044282024320250933 0.21851102193024008 -0.15004220638875324 -0.0038255021612378353 -0.20067349229786713 -0.1813906946138811 0.12724405619703757 -0.13829802415365192 -0.18196272807968877 -0.17081641142300194 0.21119636138785308 -0.20587758608718559 0.046158027712399942 0.11427949042720281 0.19900541443224776 -0.072824909466228924 0.026976586939110019 0.051455536279264989 0.076951586614760356 -0.18555769058147198 -0.10026883151552249 0.21939431138747476 0.058494884965266655 0.07145102928945779 0.0039422200663305788 -0.032922671717017349 -0.17847430358803273 -0.039349845471855195 0.19620500046401432 0.079479278863670524;0.049184722047026307 0.1134148317023342 0.071448745240621961 0.040715235933250327 0.098949646792846901 0.056228142730911868 -0.045924740841429834 0.11353991563278003 0.074402831739552547 -0.15741700760374569 -0.071490256382365142 0.074467286122395102 -0.067737842118517994 -0.076183967222330354 0.067269871102925607 0.13145826758423526 0.020066932349070761 -0.063591559409474141 0.11520900316192054 0.0078310588985730008 0.20719186722710498 -0.10184050950159947 0.15607360308953974 0.081417929189556884 0.091393861965496065 -0.11904328538295171 -0.21123355867134927 0.020035065401577342 -0.205457575555718 -0.031434313595628108 0.06111512469971573 -0.12371616040271489 0.10828019413894698 0.0020706034279900313 0.055346416295365276 -0.21556697578631553 -0.075899476363981852 -0.044588667029381565 0.17386371642000253 -0.11968426876407665 0.036038451235603085 0.16150085159188973 -0.20014171411898601 0.20921334888206844 -0.19100689854534483 -0.15301616453968658 -0.0063552260108139776 0.057271235273881158 0.20860518530928171 0.19244431088813854 0.18475261665165232 -0.07623396614481133 -0.16093183626752247 -0.18788684213779155 0.020498467390102408 0.18135189331712992 -0.043531937934188719 -0.13706460333818465 -0.21197337200884245 -0.1359786721406388 0.077971570384234551 0.18400182958327505 -0.18518229800898253 -0.0079204329404917555 0.1397407972964966 0.12157919748732399 0.021128065177648304 0.17473954027402222 -0.091118500606802585 -0.16917599858837851 0.19506774093968779 -0.15074394759412527 -0.080466209396858474 -0.07880542050957369 -0.090550035149058419 0.18883151861375369 -0.12388183440433281 0.073569910412099135 0.13055644749709755 -0.16475715882897804 0.093693605896777638 0.060670975637632324 -0.037455817548417682 0.10857476620719853 0.18313148397432732 0.085201642483099069 0.094667247450624714 0.14558300196055771 -0.15059828476610423 0.21961552860990968 -0.031715479277378222 -0.18569053749635478 -0.068568609909579012 -0.048766313508273804 -0.14089916219215456 0.16835042313551909 -0.066022909041104749 -0.19730670615903484 -0.062834520270691335 0.1553222685956242 -0.077966125564478669 0.14735962427560942 -0.10602412214147278 -0.093289021509251377 -0.1424806059522529 0.038568536454384704 -0.0075175043844249619 0.21766418263741952 0.17207856096166707 0.17598047641044917 0.051846133306342357 0.059810099891845915 -0.047455392440082567 -0.11452970961908006 0.0024933957470380814 -0.12077968734758253 -0.036139637923496538 0.15075693667710699 0.1066264232962239 -0.11093835074862304 0.059763963808944963 0.070188293421053774 0.1780502648172661 -0.059508607181131927 -0.13586132284926933 -0.12741135698999026 -0.051151416314487066 0.096079587091015259 -0.17436807496423948 -0.11877126298921811 -0.14245073335514835 -0.097011311877118589 -0.070810378163891852 0.10700845962614004 0.16792730117420482;-0.14310730065610475 0.1563018347933775 0.059404930992639347 -0.024865197291694806 0.14009785334656544 -0.13458117797755786 0.068819880631853195 0.20305197570197817 0.030252687694139382 -0.069169184990072602 0.20147182830978524 -0.1052865152645677 -0.10151039159557861 -0.16923467542600626 -0.10473917401634596 0.13957249318229367 -0.092688314059046581 -0.15856220062281143 0.12696441981115766 0.17416036800785581 -0.15273852849808678 -0.12198874986262707 0.18622535994505832 -0.20068413741429672 -0.12053775853717771 -0.13645813213466623 -0.10745153412316077 0.10992544525203039 0.12702341684749388 0.021580193075793175 -0.17449876306222925 0.11694419535547518 0.20842124501599435 -0.10648101581789683 0.045896836770229266 0.20160682699083415 -0.1070069760491224 0.035025837276185724 -0.0075591133840321161 -0.028309125648238207 -0.16974613719193943 -0.069220243011638177 0.11017004201846368 -0.033064351585639265 -0.12176468367437918 0.20240393519226563 0.0024824994014009854 -0.063953466962767838 -0.18053367593612332 -0.16813588910638649 -0.085076838695434628 0.14611275727729311 0.0017784388681082355 -0.044248796804495338 -0.18106024260706907 -0.14013179876377319 0.120141110404778 -0.12414780362794424 0.19127966859974813 0.092049679818575744 0.014499691308948452 0.15551496479441573 -0.079612837155220995 -0.1565963541154978 0.1040038954648634 0.057078020925668556 -0.03487990815854379 0.14274667888501544 0.1946695393226141 -0.064209230843282755 0.11669580722399338 0.08088023071501238 -0.08365246212976557 0.15746486246168556 -0.038353921406341709 0.038782084515095662 0.071654615225593229 -0.19534543110529287 -0.18495103991966938 -0.054644949884782551 0.15415384417597461 -0.18299737143175021 -0.15482492941209725 0.19448148016309849 0.1302854374645139 0.11303588291661386 0.043085447490145902 -0.2011767736340202 -0.070693894579427555 -0.18581414059231582 -0.14802811203946292 0.042575119734755716 0.021063258369813209 0.18850616011934446 0.020707177023602918 0.12441056595075915 0.151604477809231 0.13191526183427152 0.095958505293446017 0.049788013621529258 0.13751567720870242 -0.15718811633061183 -0.077640543440351414 0.13283743353422223 0.0020858634144819053 -0.089412010239807424 -0.15645088597068796 0.10889194468222325 -0.20693096777532563 0.19477103083766015 0.14901480384062044 -0.095156292084881064 -0.0082184561191966949 -0.018236587054092181 -0.052097238684017638 -0.12665584115763057 -0.16327218740344729 0.12650307518122011 -0.11831689177773387 -0.15777264913144645 -0.01112180021219316 -0.16118844252841003 0.064767592285572703 -0.20862875607110154 0.10568195856111989 -0.11825772541932587 -0.043775117140233466 0.15447037778339803 0.099794294098034461 -0.046096960185463248 -0.079664348751060515 0.12130151128384879 0.0035609853876548952 0.12203556112977988 -0.18398551501188248;0.19106842391986867 -0.15804555609653712 0.13639161716253587 -0.022932964789562978 -0.20787047716676643 -0.14007038334434507 0.21474406823759601 -0.031321607384960252 -0.16552602916780468 0.012043622529950747 -0.02130785067228419 0.055881236308164738 0.19979097810812607 -0.01515285901183081 4.6369831445830753e-05 -0.14559515520536193 -0.0098495363456751351 0.044004290017440037 0.059605302807392124 0.15571333340261981 0.0025533632481032319 0.13659647500308753 -0.084523986736588119 0.046180904175426384 -0.087178151767870332 0.026347168577963539 -0.12377434458482309 0.0069896610127931956 0.046560780290916447 0.10243617467470509 0.072212035128504479 -0.071111809155936123 -0.21644640783250252 -0.18172088802964043 0.10426086720688389 -0.13799847823413544 -0.017719174758120976 0.0235888696996619 0.046882073669567398 -0.17757760183798318 -0.03306856147353264 0.23334748058290941 -0.1115254255947693 0.18016631368188524 -0.037971112306442643 0.15332988690181318 -0.17674605103491875 0.18140130314090189 -0.21387683900457494 0.15953106144235812 0.083990583631658511 0.057647807242482328 -0.22574106064034571 0.11184976686460602 0.026230671170547375 -0.22542967217697654 -0.1585079152269647 -0.11905295712958057 -0.17332053520181581 -0.11250485752525068 -0.19876223488085676 0.045133418868146868 0.036125318226941622 0.019910442352020153 -0.12349627284893348 -0.081842953180127229 -0.042754816655977766 0.055056232129781675 0.098105734394015945 -0.2045607693438688 -0.03689652073616196 0.12090625980901153 0.10380352271716459 -0.13299129104819907 -0.050618625306301769 0.027815830068794106 0.22251968241027556 -0.055376495966160282 -0.13420045898327221 -0.075663868113475974 0.21445579775489015 -0.026650977325289919 -0.11524196859623741 0.034582464832774565 0.13188400490594393 -0.21042145118673955 0.1278938271421621 0.017785304005212631 0.10374810425064093 -0.16065067087574678 0.095687567644735128 0.22894990891255654 -0.021334864434964906 0.13150861134617237 0.10351224073458473 -0.057039397202401955 0.0906784337540361 -0.22102174739494385 0.12385590830548053 -0.043971355837248829 -0.21465789426896492 -0.17641803204924256 0.22991482063328339 -0.12468940397098502 -0.072795193122943802 -0.20328647216514353 -0.03649717802149547 -0.046624987950586734 -0.10759620350730618 -0.067499678024912191 -0.0033144482195056574 -0.014492285041485573 -0.074220211484723991 -0.057273611372923451 -0.089986908374250676 -0.050501546683093861 -0.040468732644083932 -0.10114937783772197 0.17766101078303123 0.052945371737456899 -0.057345859947578043 -0.15350798207451022 -0.068063312956335123 -0.17946078384010045 -0.16870687523802377 -0.14841321763148407 0.040686910204593821 -0.046795616902564577 -0.032761873466905282 0.085076467389726185 -0.13477209658584999 -0.044326146388491992 -0.15602244047687247 0.16442580462402931 -0.22474095866561764;-0.19342396820871188 -0.13067104136559501 0.040795807991958068 0.18161129132489473 -0.10076883539776653 0.20635984641339503 -0.19057542769291716 -0.14968815108366826 -0.017424937438684368 -0.12100193770674569 0.13209565671870041 0.17410855834351241 -0.20685569914775842 -0.010654656672188912 -0.004285210598377295 0.096470464656295177 0.063526391432518703 -0.11473884379970087 0.1285590155049611 -0.022510062580934263 0.085191643781396251 -0.17208244958167454 -0.059233102731632861 0.037183837080326902 -0.098490900776320014 -0.11636458999094144 0.077392436579005408 -0.095603105549187842 0.089342317879176264 -0.18498724581844969 -0.18976497409877779 0.16647650974452102 0.04613479836130701 -0.032213446481696197 0.10993235371860526 -0.19462427809882535 -0.0052313039630122451 -0.16898531206445583 -0.14213129135092961 -0.21614138696707919 -0.075821282985771676 0.0060792526932417698 -0.11157967558404482 -0.017805902004348343 -0.093686814624123732 -0.060186301731532249 0.060573771022947934 0.18377877386467747 0.022461281930258897 -0.21735330856534973 0.17986687830923123 0.17906521354757535 0.12684254525863609 -0.1356753818822678 0.13535105734102301 0.16387809067797102 -0.16743638436823829 0.1896551457277309 0.069588132543038639 0.14938855581801544 -0.17562521528715855 0.074442088817757254 0.0056451084019572212 0.01702077463573369 -0.059033794379228823 0.1592669672409269 0.17661859236718555 0.024336443383670917 -0.10566049650266028 0.18753902458578089 -0.064315125243482443 0.18123095238818099 0.0034086533964399765 0.10222657785270935 -0.092886408841257859 0.13444335318133435 -0.17144904198846428 0.10707440702307858 0.020914782389545281 0.037235228896547609 -0.059166580802189221 0.14335860844961298 -0.049097415407645194 -0.15169147796621202 0.20518734225406082 -0.19368804280115093 0.020904102978168845 0.17490223932671911 -0.2084990040689596 -0.0091739793781934857 -0.032198480067209344 -0.10684191337083176 -0.10256397769597241 0.080082633943318077 0.19291590699465752 0.036028356024939548 0.074072613406240412 0.0222820752938509 -1.550503999828193e-05 -0.032162914289884034 -0.037042840636534395 -0.098630263121942188 -0.065871564771843569 -0.048071667460809486 -0.10554063001163676 0.20786019040452908 -0.0064692333325117625 0.11938534939892732 0.088612592517073402 0.21838926801697833 0.13348764618950623 0.06983362009104474 -0.037890773890526017 0.091132935861200567 -0.0039469014356483378 -0.16667500263081136 -0.14186800441853983 -0.0037469499991348845 -0.06333708053849367 -0.053656339006878703 -0.21025170218955669 -0.16773941397841699 -0.042797873800746157 -0.21370214525949041 -0.12978349736720934 -0.071499122145760999 0.11999349095796812 -0.012264674728856142 0.12780535626470227 -0.05586757157491485 0.083019426767418539 0.19813053084801169 -0.18208617456926038 -0.21738512700589399 -0.073437864913678153;-0.20039342878190078 -0.062555467642649923 -0.14943154398506353 -0.1207455950065271 0.11822328338932597 -0.049872754945941795 -0.019438088384540794 -0.012902459567406961 0.079009121969784907 0.20636136994805535 0.17691357096608371 -0.14199423138214615 -0.17536447389704746 -0.12527789042346921 -0.18668306782322028 0.067430656701837358 0.0045221763062002242 -0.007656414685151062 -0.084720652061794188 0.1727959575671428 -0.11272262648472793 -0.14051633612712616 0.065696682706216383 -0.10612494817781443 -0.042163805857881126 -0.19814261600644337 -0.1887227697360577 -0.10186256395478516 -0.11154475272580648 -0.098296068307748799 -0.076964992047481529 -0.10848880694757396 -0.015207701196310083 0.16830893736419789 0.17388823185804766 -0.17592076997678327 0.099615640732304389 0.16318819856153149 0.15204578484440603 0.14076459543783229 -0.13290759604519645 -0.17758052674034452 -0.065201596718127156 0.17911084166911909 0.059984084786354051 0.015578091300280299 -0.096344560162382825 0.068956613381006046 0.0027054182016016731 -0.0015393785982287446 0.056933972581689869 -0.042151430707088752 -0.19258916292614811 0.172181707095619 0.13491262499121279 0.15180701135443525 -0.17380733340347607 0.14281333340649438 0.19243681028576629 0.019398884111660106 0.18842364122034019 0.14289769680619432 0.12023633192339499 -0.071824259081975525 -0.19904388687378416 0.16654958976731643 0.16314246554173173 -0.15048001285575069 -0.14906893415855541 0.098200783896769533 -0.13275826575282895 -0.024050458843048492 -0.059702593967307233 -0.11178753045555541 -0.028880363092963268 0.19716303348689779 -0.11995783727069262 0.146232838249263 -0.19780969495479514 0.2038678730058642 0.030452719446691975 0.054816369677149084 -0.21146893479119541 -0.19575318984190909 -0.11599764998037583 0.13823865653725731 0.064003942824468071 0.084794411620693178 0.090840888150062082 -0.0079246805114179999 0.083453350718659669 0.058556015973757945 0.012225543851235823 -0.040327552575037562 -0.0052313923922352569 0.061551798981327122 0.13862973296677078 0.04721021044927997 0.067793268369296888 0.18332521955774231 -0.012064447986739571 0.085883213951884946 -0.20234049412815913 -0.18507449275093321 0.058476779166826504 -0.058352563240123848 -0.0056017361650722783 -0.1493899641740784 -0.059456972595290092 0.040132388316454749 -0.14387227081575227 -0.012749736553558757 0.11192985696109972 -0.19104384778725136 -0.11174443508260141 -0.12657427577865929 0.19264049955684726 -0.19844516542196844 -0.021938473247457336 -0.20849787036119832 -0.075270261933091151 0.11315382299556333 0.20556297349360478 0.033686761482557712 -0.061457224586070343 0.066409347753680154 0.055954547428832144 0.010023797687706929 0.052235207140725139 -0.19992936590635407 -0.066488323140853053 0.13572320860818893 -0.18402215561242985 -0.011826093064725382 0.0073205468812485089;-0.15236207496819251 0.17066409151674891 0.15087905333512067 -0.093882296818205119 -0.020568945212940407 -0.070180253185353411 -0.18207757979810552 -0.04496476275921895 0.05668177690572742 0.14607028219867133 -0.13271625906814449 0.1636882559981245 -0.18690181531374636 0.16120978866143837 -0.10314773699027778 -0.16107643949211992 0.049184371148676687 -0.10043089574868559 0.065010424271902442 -0.093914825366855414 -0.19771459432093239 -0.080661769359050936 0.14960669043195357 -0.13669864827703301 0.034008318060387364 0.14476329827331 -0.040451428286522199 0.10420075167997826 0.13619604394547385 0.19307989973215459 0.12673048919937691 -0.010392283791152259 -0.033580918033464691 -0.1039305897944495 -0.14921807162179287 0.065204328481484192 -0.012373368863680326 -0.11260809595962819 0.14333567277697692 0.18133535653658883 0.18642602965125857 0.14684759262467775 -0.011645711936562062 0.070624011099703843 -0.12805986394888749 0.19022452577924515 0.0109012599574835 -0.098359082796389857 -0.12413441151705605 -0.19182042326543322 -0.017002806788435652 0.014357946771009348 -0.067954706679628177 0.09267492211176083 0.056008930909217165 0.034441047021996928 0.05728833232951671 0.089065063761248245 0.13304330755682078 0.03134998768763405 0.15495607725341637 0.19251223817982832 -0.19856914269421222 0.14439584291441135 0.11822649858471281 0.15794781693775509 0.14179678939320989 0.025791982174663528 -0.038384855863850535 0.015882082054106909 0.1822401472386386 -0.10352112552653218 -0.19810352968430389 0.18227383899411501 -0.035905969335429243 -0.097582777779545507 0.068890737387704931 -0.048557128226799466 0.19189676435822967 0.17011838809154309 -0.20094179128541545 -0.11484153758079932 0.065195857887861086 -0.15530221134866146 -0.16502506503213152 -0.048699359342624142 0.18642120413629437 -0.17795487145462544 0.16091315939054476 0.1416908214896187 0.20090779102145925 0.066967961605946313 0.1728764881840601 0.11933598416370458 0.071257753811310665 0.17842151345504287 -0.17776260450774617 -0.16705729290291488 -0.079133336196192602 -0.1124775905625547 0.15316635550693458 0.030854915047877959 -0.08031121385256533 -0.13638818569158614 -0.0085680202372656819 0.11777740168352703 0.094325103440342326 0.09297791431850172 0.13363112244601122 -0.078215936293051611 -0.11675666401417965 -0.0073330206238642589 -0.13015426789069615 -0.0069763374165545166 0.1843911803016379 -0.17174743645780063 0.059725601441324244 0.090931092378376682 -0.17504787877781441 -0.0149231633834169 -0.041385411673471276 0.17420504902223111 -0.03647630006670987 -0.1752851506896351 -0.17647299860878987 -0.15365149748052048 0.08208570092931812 -0.062375267793978784 -0.13592082278896564 -0.15055946303306339 -0.12949841280857663 0.026731102287752315 0.1494195702382474 0.083455610221698506 0.031700151352507457;-0.12274925886397217 0.10430084091346277 0.14890152035661811 0.14318632754268457 -0.057643840528089768 0.1628805274346542 -0.17364736794906629 0.2079255503554765 -0.17644320040988243 -0.17633846168452325 -0.10139942869504928 -0.040311992256221611 -0.19664547821535105 -0.064992168206398929 -0.1641426775095709 -0.15587891321523875 -0.20494183272287442 0.13928199558156651 0.21113768168154398 -0.087657249236683527 0.092223820384994243 0.14784360939712743 0.0070716563683552672 0.0031362520253715698 -0.19986389690683826 -0.057584352339489081 0.058335237729301888 -0.044600360980723848 -0.16635349573838437 0.14651029613074601 -0.029270393326033022 -0.11340772679743481 -0.1453945379778683 0.034535213877467261 0.13272857248216285 0.078978743236157251 -0.091087610104023178 0.09384843036431377 -0.13628668567919991 0.010556598859761816 -0.14278048506134114 -0.17639787987114391 -0.17113743007584795 0.042387974252101328 0.19891777719123793 0.03911857025912302 0.030937139007317097 0.1233496638546086 -0.13334122122819664 -0.11893325531856347 0.01512797839545826 -0.10295633943894215 0.10064640936775655 0.19150995863001993 0.1589516504221351 -0.058317493897932768 0.17218998071875388 -0.14199599613434061 -0.20454022533983746 -0.051887165793293215 0.088910816871436274 -0.086196731867856327 0.1255150253758581 0.063919043198766887 -0.10161374772747138 0.14402363328245663 0.18364986304500217 -0.16850532284260109 -0.15239109969415698 0.20113663310236352 -0.080293965037139745 -0.18126280516739524 -0.12507870882592489 0.0084413028235721457 0.096270573608095156 -0.050150440259887151 -0.16788745822940276 -0.035040295874356968 -0.062260528491948519 -0.20554659158252042 0.004746663544071974 -0.078866841282365138 -0.18229914120458876 0.19655559476599802 -0.057060730607683956 -0.087768244853086985 -0.011960152902382592 -0.13552159174355569 -0.061496218238619671 -0.11499485583773676 -0.012394334221145036 0.026192664626992424 -0.02352072902721419 -0.032386479030963318 0.21290440398041965 -0.11146382878482834 0.071746343896515102 -0.044956928971484636 0.14903145210185731 -0.11732753766744707 -0.094360299637360548 -0.031903678387315004 -0.11323989282691702 -0.19769282319479786 0.13415209440225742 0.18699488466201361 0.12815089839337732 0.070825124408391366 0.042060266817912438 0.082059949366627125 0.13535426105064163 -0.17101608429629425 0.054852459235302062 0.21168385313337798 0.093900000607307313 0.10691737047704249 -0.15485217986728431 -0.0074581895734058927 -0.027007328039249354 0.18001393666240748 -0.19146093462008509 0.015454466586456392 -0.079608877129178302 -0.0065086534257931183 0.0085920065011525024 -0.10402362568774799 0.12910901310075162 0.10532152788767625 -0.1582612750589055 -0.15423931760623291 0.15974259583912548 -0.011446062243083401 -0.073478242069201588 0.14590124136883803 0.14986300796499011;-0.045748936720451723 0.17368844375562892 -0.20247444515638197 0.1431381188369979 -0.18226383961222375 -0.123066413310168 -0.013034376062226823 0.0068279344215176696 -0.043643586525130694 -0.16876029091022166 0.035927267460723215 0.16289373287971579 0.015177520097312928 -0.13405148627655419 0.015801998749973012 0.1823585594551633 -0.19575923764578992 0.1244403193163393 -0.068117765178982867 0.10237259337245448 -0.070411696682305971 -0.14742211598420613 0.067480057593498205 -0.19489653586564407 0.0027147863788994872 0.17627781096515663 0.014574381726948325 0.059265674761401516 -0.045543840181270272 0.13285310359565339 -0.033103650519289506 -0.10554605762487791 -0.06715502211657326 0.17607476154275628 -0.13889840325474551 0.064784288820564459 -0.18872216457842905 -0.1269020805511927 0.076648479497502864 0.015386611018668861 -0.091856877133943027 -0.20691557183745476 -0.15600600054347555 0.077317804090014985 0.054157818518775283 0.036252554510460146 -0.15550178718246002 0.16451721703665698 -0.095698283766848427 -0.10980509801049142 -0.19605998504750088 -0.19642047967516779 0.15926190731464906 -0.15174777536179046 0.063556174893440773 0.18649647852910003 0.046514262224568059 0.15858592858184123 0.18390294311220598 0.071414044731761578 -0.03407038754744969 -0.14640937489854769 -0.1667916418799793 0.14314159440716917 0.080377537957658951 0.047666473562543311 0.061072739713671102 0.03833945463455065 -0.17257958284291153 0.17382626350867142 0.15791479354631904 -0.21003774212134055 0.12881290551789665 0.060260302006714797 0.15083998475470331 -0.08016257278192572 0.20327763857419723 0.10213377606319009 -0.082189701090717257 -0.16650679071067975 -0.0029648761357474146 -0.18761198056332931 0.052179339336394355 -0.088272074403594941 -0.074158920686959132 -0.18310144279790949 -0.090270352969040749 0.034187841591353858 -0.12722622394370928 -0.1355106252311557 -0.1152976956548957 0.067889448396230206 0.11128648907617356 0.078845996648109706 -0.047447813839435658 0.1710031393283048 0.16531151187749704 0.15252121619931844 -0.10215735256375671 0.13365638654501411 -0.046398324510760869 -0.20938632944237509 -0.041871378177477089 -0.021617826242607264 -0.17039758609332337 -0.056677980894127331 -0.037281636891251649 0.041442243544765001 0.18225112595106119 -0.10586129598025505 0.016068303974833446 0.055235026670549983 -0.19722915803539334 0.1052209138264939 -0.16643311312494499 0.10173858400626329 -0.15578535407442035 -0.18988877911208227 0.11947044965836716 0.14642024037069803 -0.109003990603359 0.15973601903415965 -0.056324750388195698 0.076261670747118399 -0.15791223481765262 -0.097001787347205756 0.12911385894377567 0.035189841528584419 -0.068736628543983741 -0.012998056839969708 -0.075524389393688718 -0.09250356404160151 -0.19585225999073122 -0.17638113399440503 0.16173130836673205;-0.14131272033985548 0.065165971068704753 0.03282740602989228 0.15708970244838186 -0.044418293956555346 -0.0028656002655460503 -0.010851802768952071 -0.028072462539268411 -0.2207575996151056 -0.083669575141012378 -0.07636170776777336 -0.21667312486965642 -0.10184846500703237 -0.17163721659250605 -0.13648494675287329 -0.1458859510367416 -0.053934937878710558 -0.11751946084042107 0.19628326387189771 -0.11007705577010563 0.16030810651577204 0.10357720385440307 -0.20288935906853187 -0.21233064173548719 -0.041417177123330755 0.19319470630822283 0.15791925906221677 -0.076823916590073052 -0.030396117782117066 0.21205655613475105 0.19733436735793028 0.048237879046058821 -0.085561164608278159 -0.091977718779674936 -0.033912499595848057 -0.1682119392084043 0.0077951458607368185 0.16943829999471538 0.16343756897560582 -0.16814055567587102 0.17355957084361637 -0.10990646540704806 0.17902041747222483 -0.072506078198617971 0.20149660985878559 0.20607095579398751 0.11420655734720865 0.00092655326590296565 -0.029013565544023692 -0.034776934949364104 -0.087652891554854895 -0.11738902724827968 -0.16047235429207843 0.079238811945425203 0.11955089186846848 -0.077346395580034352 0.11693032663449887 -0.033703984290042774 0.10103348142161858 0.158432086738137 0.1973628678366717 0.13506694763301705 0.0065452986060475903 -0.19846283209503135 -0.1061176440469784 0.18949565668056489 0.1711127220523142 -0.037041942367033939 0.036160369822964847 0.17601107985016287 0.041032342430374354 0.040904692842363116 0.11954880731756333 0.13051560178034025 -0.036774582470128832 0.20296105363789743 0.19663648424140726 -0.15825139374176334 -0.021144329107488636 -0.10278278494815403 0.074745187093654561 -0.02730472323747293 -0.039900514053677734 -0.17302215618881014 -0.074473032910946757 0.15189367990056121 -0.093087842519639724 0.013732788718775337 -0.07472618853897918 -0.16012050159398525 0.17557518135090844 0.10642483810584294 -0.2043919575511105 -0.17094775271537246 0.10492571081792115 0.17939641429194833 -0.0070754136674242444 0.095659067328432393 -0.12431397238135819 0.026897516841727542 -0.068608037172250641 -0.17519207155926264 0.19178464538753048 -0.011965763407061774 -0.082335035393948722 -0.12525549686290402 0.12972353600730266 -0.02683404337596541 0.1749827448815163 -0.028947655964485067 -0.18677078484918602 0.10973328335695988 -0.20904955560969327 0.00034349072111261781 -0.12021461412117943 0.11943176222743089 0.0013651162257050289 -0.16920899035850381 0.14980426260960641 -0.13219079954587032 0.083240547373461399 -0.067001875626800766 -0.040815965630500529 0.0079005166881364591 -0.106585106419333 0.058554953649953473 -0.12268179493620274 -0.051716778596318062 -0.13163207772126384 0.031396432278146619 0.050992705049416276 -0.0099954349280289012 -0.10748742545242547 0.12279526384109486 0.15237934635994635;0.0084027698164851686 -0.056914935123049869 -0.10783319330570039 -0.11013233251953684 0.19696491001985816 0.070197307904263082 0.010584845922785144 -0.066195042327217818 0.10283312961820971 0.07726248609353889 0.080793803665519054 -0.15474402786023064 -0.18530253556326448 0.094291205618617938 -0.10082141891414602 -0.18009413843992328 0.11567772876944206 0.035398549322153569 0.1795558380768989 0.12271491510004537 0.15596998792975886 0.15370499918102842 0.12662488612779435 0.076929269524498717 0.068284005601155592 -0.21961106170944994 -0.17501705787622049 0.10828879765697202 -0.025648634787284335 0.20262439553341174 -0.20128953726481247 -0.14581631162992026 0.10947577290728351 0.052605917162470747 -0.19132654217763909 0.10821843807679328 0.13906571893079692 0.10635180494342357 0.21449731906668817 -0.19309724019966892 -0.050064868248542831 0.047839792294837882 0.066956598527094027 0.060079294190670436 0.18291190578336558 0.075465189427334128 -0.045463240683411871 0.022800307627149411 0.082037539532640064 0.099701875253598624 0.19547784788907313 0.055202225383523505 0.031058675021867172 0.074015388791998094 0.15951849670768298 0.17527272926744211 -0.040739849747340816 -0.04436201256078752 0.060247775613955903 -0.023190062531928086 -0.18198086382854817 -0.20773341163899267 -0.11341682737383917 0.07830032074698505 0.14354607900133029 0.028403429385083181 -0.1712760941958715 -0.12727120910094408 0.11023774598637602 -0.20769648939333363 0.015957475712871049 -0.061696849316363017 -0.054670324706671131 0.11391475321703569 -0.13331936275519432 0.04715482291473904 0.11027294778023929 0.11423416079392004 -0.15389289915113954 0.11140162173892582 -0.073614957672239745 0.070703290563168653 0.14781949864559607 0.092158644178868918 -0.029769961030168126 -0.00021365590788791522 -0.080490865785528692 -0.090542284807165085 0.20687743884739895 -0.17486283665622279 -0.21561452507215628 0.20093601153794541 0.022129347367552919 0.14627714286580626 0.0056848280912939865 -0.072190573846604156 -0.0038962779961895268 -0.17172782850779506 -0.1449250860978554 0.039751543646643558 0.18182212804167908 0.080245166432195481 0.13356029151005155 -0.19944395426750974 -0.21382635007933412 0.12291839571909158 -0.12111484312197791 0.016500422524956496 0.10215476573523463 -0.18965784324673757 0.15533891698280047 -0.088262480584983677 0.12302731465851327 0.082864815647604617 0.032281582947250545 0.1824622823061412 -0.18646243542258445 0.070192457416738283 -0.14513683952519554 -0.10832128349298061 0.11086860028778599 0.011645942880735827 -0.17330077825693874 0.13211430432950708 0.067426031304865394 -0.20476857269874821 -0.14753727795004704 0.11377092089772602 -0.078728495996218145 0.039647888841102916 -0.1140193003255234 -0.087376390240137422 0.041156472412077712 -0.058014816948129905 0.21574080006460769;0.073998103594127548 -0.10343989171919118 0.037592966725999696 0.15513205755726792 -0.12882251878220033 -0.060617961986972259 0.17187313788153741 0.19696686040836528 0.14768332228096412 0.023912457326369096 -0.20310667003657229 -0.10098336120993785 0.058748125730640942 0.13713039613041356 0.020512619683227221 0.070583248938974608 -0.19992064116189356 -0.19928623460220427 0.067574711781832206 -0.1924534744911425 -0.17883493536404954 -0.20342700706385095 -0.043774842530440637 -0.12599633572356564 -0.17587448970379396 0.0061297616852580197 0.022083694204351807 -0.049743208700680053 -0.12296271221378761 -0.040709984917978934 0.13107307608856339 -0.021513940741136692 -0.18994540245169664 0.062788522772864896 0.05048945113664912 0.12674349317030909 0.086428190847086084 0.13372132121058725 0.13056296327059391 -0.011066112789815405 -0.11601796167319045 -0.140859286339898 -0.14327394318391662 0.080836398758112452 -0.16242044726315363 -0.086790937601166671 0.20143999453458031 -0.016798167255920506 0.048060670198271004 0.22157011257670617 -0.10128424916741439 0.16987367885623825 0.193610410274457 -0.02927491203569102 -0.13392634749540933 0.2223988372622526 -0.16386034036223851 -0.1818731139862915 0.039333899800608446 -0.17087654322203866 0.10252721510050991 0.086317316785410284 0.010749248685717611 0.037861829523984807 0.1409242986722416 0.05087255739728555 0.22589378125780515 0.1159937613700967 0.086579491376365281 0.019111230629468193 -0.0030130057904407892 -0.075601572121936855 0.22871244144144795 -0.2195851948385909 -0.014207784811042928 0.079461919539153436 -0.0072780661698666664 -0.0050576123784715999 -0.026359001285552981 -0.087282392980142759 0.21644790575120762 0.10523083073236306 -0.014174882981176171 0.082179091779672739 -0.15714253735547054 0.016211098060181915 0.16545374797971593 -0.135527100232499 -0.0894940244488482 0.11810523677540587 0.030126607695891802 -0.089288479235199891 -0.22900706121353281 0.024840605316638419 0.062498183843232552 -0.063866473663927226 -0.21221874221711023 0.095159471813720503 0.09985969526204129 -0.20523928796520544 0.026404129650444429 -0.10338356093801737 -0.094239958792424638 -0.17077945295464209 -0.068663497637802051 -0.070477978607262737 -0.19853387682950499 -0.0091129715823453153 -0.11571263183825717 -0.2050017855478885 -0.10013421381785292 0.0071774484966655632 0.12987226761292167 -0.059797408021329358 -0.046170476566276389 -0.20399227005048087 0.087999615772317713 0.052182020360808434 -0.06694160064233011 0.041251375578836118 0.040045403788874105 -0.076174799562108153 -0.15956259628686117 -0.16049226595091898 0.036684144071309356 0.024976263251196056 0.083473423530754542 -0.21437700592905068 -0.073825314176527379 -0.064925664817038486 0.19394042153522534 -0.1876893804929653 -0.043976747059305557 -0.13667944008753929 0.17662089449108537;-0.12497250369308874 0.11440670425636176 0.17022710483735273 0.15467765794086535 0.11225864371612511 0.10077668920683742 -0.17128962681120483 -0.08876518600950907 -0.10465601073189082 -0.093747210846182011 -0.078465094766221724 0.19286612082782853 0.17809223592897772 -0.14000952068458761 -0.10669173158254744 0.17953951295818318 0.0090540374296546738 -0.19816875848479754 -0.017745981710027166 0.015056970053450369 -0.049044892037474475 0.16906241473106143 -0.14759198367400117 -0.10890851046275733 -0.051258643402179685 0.16313704026408299 -0.17849106690018662 0.081862729519402211 0.1848795117347852 -0.10941059295917298 0.15132121062468593 0.02116071492344708 -0.14032605105691243 0.056436035966820064 0.10952399485143188 -0.17524840626183213 0.13850019715078127 0.14807869649098668 0.12662010065837737 0.1622823712369042 -0.14294099397166304 -0.024014238676371452 -0.056952577630339923 -0.11608343022346662 0.1429303339638093 0.046895985187127676 -0.18119232899473581 -0.042318986126421362 0.18447127247775749 -0.058842608521710457 -0.13875029501958519 0.15294211004730052 -0.12392248910119881 0.044865161351917544 -0.16497619201912064 -0.14570980331595626 0.15443823860134073 0.072438487651657016 0.13883867650955112 0.14637959773621112 -0.17925243934751725 0.18144757741901629 0.013338608727421359 -0.14233607095071604 0.16197418767504351 0.031223671537712352 -0.18369634668717194 0.16934707581594932 0.14874659324325776 -0.13278122573509021 -0.17883315832549015 -0.16069362224859382 0.034757263935763026 -0.10995388614372481 0.071557339714103774 0.018715342873606253 -0.0027743038160359377 0.029850637814660085 0.057158507933719016 0.13834147407761604 -0.15460085353633229 0.09153257303504618 0.15796707097656662 -0.0024931191962209759 0.17867423816414324 -0.16656166673766679 0.15463688123488922 -0.036425655698713713 0.14449156650078418 0.052601931517373482 -0.11399465626365204 0.18024166723374685 -0.03986572061860652 0.17794337980721475 -0.1844034447937746 -0.09861355592056914 -0.11328987646133504 0.11873372913138838 -0.1922663085440767 -0.10197508418704526 -0.026203887159118956 -0.10862979241617018 0.13923554979278654 -0.049730400764038812 -0.17020671705728357 0.19816205953163163 -0.072521276311836413 -0.020266681349697904 0.065014223398234539 -0.10880151842650017 0.097713716478110363 -0.032578356237205133 -0.087290521814462105 -0.044372589927388212 -0.17284460166419524 -0.13575747319140913 0.051623460535087415 0.096545733104349857 0.15662529544188536 0.036232617803582522 -0.099408830648191754 0.16934269245449624 0.0035939598614424259 0.10825614038473454 -0.049262363078407721 -0.044204530898309141 -0.17624472437154917 -0.10123658807913802 -0.16376745985538138 -0.14365942423820793 -0.17889212023100967 0.099316614070363074 0.013013881176280306 -0.042448427563889252 -0.13490869414437467;-0.078096402060021414 0.06896512148252773 0.091516284260789185 0.18560534706449675 -0.14141901318924247 0.054976672248214495 -0.17403680097926358 0.15655818440187214 -0.033522318315845769 0.18529107855369772 0.074864038983700115 0.17770646983098171 0.035178183130207083 0.075933232902942085 0.061120611875192486 -0.014087715582583095 0.13309015166475816 -0.20156997749235256 -0.014736585081293144 -0.083740752481992767 -0.14331754025198909 0.095254932605739834 0.19258356714041233 -0.0097555036454306278 0.056994532320899106 -0.18537123773410369 -0.23000533944823162 0.095476465674968009 -0.21287126060214015 0.026781555777293981 0.10442216850941385 -0.034689170909061609 -0.10968997584790202 -0.10650809999566577 0.088273977687039734 0.063818365987327319 -0.093094229896456396 -0.21417475342759662 -0.17462600577834436 0.19735816693620287 0.067995972823397491 0.045232662631923007 -0.028635517645260719 0.19397631477644547 0.013563763813836449 -0.15012948234848958 0.036527700383846999 0.21155534256463182 -0.077548271266407759 0.045562699505636503 0.016507916552592487 -0.06055922558889814 -0.076431932038507525 -0.19866845015866813 0.19138288656209271 -0.06604974938962653 -0.091044212187055384 0.12510189642526767 -0.057216407000071745 0.038134632678892631 -0.076378541555989499 0.031740519904883933 -0.12665311694616985 -0.031458061051479705 0.17984903868114327 -0.15725369897468519 0.015237768092771879 -0.040609993538671452 -0.17648026441792503 0.16481954046916672 -0.10742346682784609 0.0098931272261145869 -0.13046446350407129 -0.11189968937618613 0.14542946906293922 -0.15511134193811119 0.088622576733666317 -0.093093145460816054 0.031384613415608019 0.10334146518216093 0.078987195807573268 -0.18984277731838295 0.026419709433303462 -0.16659019442278086 -0.19919420650982814 -0.18477708258004977 0.039725750550906339 -0.034058835082913699 -0.027215577756989733 -0.058266910425445802 0.099377056521738491 0.085759392928544481 -0.18351532021728539 0.064702574099016807 -0.1709255516510709 -0.18864168477757465 -0.18353852862473252 0.090021535465175551 -0.13057883586887939 -0.034820477389318205 -0.038055911653841638 0.17431325995511179 0.038961623257797055 0.20614056280193913 0.089442970760791038 0.081352779848803583 -0.070160715044518249 -0.026541621851818444 0.1205389859981065 0.18489508713418956 -0.012310486314408689 0.11866705124475695 -0.045883295315879875 0.20689046685934956 -0.092512198283958805 0.15337353360379111 -0.20455609464929472 -0.17838192540735454 -0.060383368218330576 -0.22140625863190835 0.16293963384577029 0.19185199572331341 -0.054153740735821826 -0.044347445962588092 0.022081927877974743 0.21532474020830053 -0.046375842823130613 0.19397292260791393 -0.15071520683803333 0.0771029780594603 -0.079212290353096085 -0.18448702995249741 0.15196757544635925 0.10697061301677104 -0.0019082787733329296;0.16636334520496132 0.094089649287481467 0.16512360083879282 -0.064244521419003914 0.20837943622872013 -0.10052310413461656 0.20926001725228788 0.019063806809782379 0.11365276005167532 -0.11685682673892957 0.040719999828911786 -0.0019461672141441553 0.039973196829273736 0.045087077302258 -0.19705066893386053 0.18506505967297296 0.11077341429365034 -0.013832354797678857 -0.20089446781087927 -0.10967150134085379 0.035327876369381957 0.040130021267490164 0.14666342036884014 -0.14966272880176368 0.090804398899841515 0.10205892514869362 -0.018610834560318694 -0.031211517614179438 0.19963715047437031 -0.09977214132765487 -0.12787468242942091 0.15252950184988809 -0.055201678689692023 -0.16489189289878098 -0.13509878753583046 0.075400841405674379 -0.090679493402097633 0.012054195372514103 -0.15260774534823968 -0.19201913483267599 0.042278804512123722 0.04048121113473277 -0.095225990981688699 0.17263756852396056 0.20652611155340744 -0.14792441770230597 0.064100606668024362 -0.1439782417166805 -0.093001829809640765 0.063103441250625267 -0.02771716342797316 0.12241780263428158 0.16552574630204517 -0.20448895170006687 0.048289456164385694 -0.1745238100101992 0.014294000265849177 -0.19142595012210106 0.18219339428680084 -0.15533188037715079 -0.10144753979558291 0.20927633118914307 0.17375273188207854 0.15196029561365876 -0.026679407729278536 0.21272024485969981 -0.02571233083248016 -0.15475638956189791 -0.016245318422730578 -0.205208380918079 -0.095038775570533127 -0.070817530173985857 -0.16912227055822296 0.1662766004242589 0.13111467596917076 -0.18909808339357131 0.18934856568299568 0.0195853985072563 -0.13052288822772876 -0.099192878760647973 -0.12507996341487607 -0.21314953049660651 0.17446920278268041 -0.10744983385021649 0.16910236902506789 0.089729977276960943 -0.13103975621076486 -0.028360085110605428 -0.030150727784447103 0.01262047265379899 0.11936963133990758 0.095574987897268621 0.21210749588649086 -0.049809019903115474 -0.10982524860099958 -0.07762370552171792 0.15058537626296969 0.17476601346239684 0.20834995804628309 0.06786958997345531 -0.18333167848504853 -0.02441882044107661 0.019136093042405603 0.046256840176333802 -0.047180942339873994 -0.06998084417978212 0.10549515573008635 0.059695675384180046 0.058557398706435421 -0.066228156011472791 0.06651670850488306 0.023488120855361876 0.075997204065366572 -0.038488354869110709 -0.1063642459095747 -0.20626856126273715 -0.10737447610171909 -0.13095563646145492 -0.0018042579628601472 0.098803856369813564 0.0076453252300670189 0.047258163713632687 -0.17785628930231276 -0.0091673407811451533 0.019114839346932571 -0.036094259384500317 0.15901750170270285 -0.069886772441784609 -0.094997607828502639 -0.13802944119320668 0.15526808474843351 -0.047983950858077294 0.19634925435933923 -0.19215445634990064 0.1442780936105571;0.086171304230721835 0.21069237264585639 -0.095657712453842761 0.067253816066109209 0.18230229043247342 0.078579321333699284 0.10821476868102206 -0.15958655898228116 -0.075884023417924606 -0.10015276176262207 0.13963691222601954 0.065525721749118679 -0.10970850399972024 0.18484634647214135 -0.16074561456368394 0.0010731072674377087 0.18739825191973394 -0.1874423094535638 0.17729758688867112 -0.12397139056624597 0.037824189077640645 0.1926706576315558 -0.094602952920434302 0.15956636075964439 0.12494308845240637 -0.1845801126325311 -0.15719057116202717 0.10642558486021203 -0.014632797820743724 -0.022326340615083012 -0.018957973019753036 -0.0059589548398353157 0.16629058692041554 -0.09146592286489505 0.20914505961436669 -0.0189849974296037 0.17578087579348284 0.15345350877959368 0.1755691777709161 -0.019901253479240249 -0.086615789788301797 -0.098101877959019951 0.047495479585965505 0.12915420151672924 -0.0023239698125099469 0.072956029105078452 0.1641975162648652 0.10447368468049377 0.040469317068260062 0.12155230062641356 0.081133628453480072 0.16705799497027043 0.033715222538576395 0.017738459804218048 0.10333153608032777 -0.0056882758271026013 0.18502905679238826 -0.017364178517882491 0.063332315782330631 -0.018693474328723966 -0.086480308386618007 0.15208359477166958 0.12889544989456111 -0.17666392153314936 0.14407643464413139 -0.075221956963108377 0.071981110594744199 0.14424747447908251 -0.1610509218047628 0.082526205389152729 -0.15855043055660917 0.034968512021643264 0.074783133294344828 -0.11661789656748059 -0.13331466898481328 -0.04214686288847555 0.19511080411846138 0.16815173304229894 -0.16939842244813322 -0.17134543514469788 0.17041523784071272 -0.13653664491815759 0.052688526966810707 0.14090144299522625 -0.20238585713781757 0.072904660555764306 -0.11287651907244586 0.0055304571358680112 -0.14494913444721572 0.037577807280974096 -0.0056366046850514478 -0.15012550628282589 -0.030382858247433354 -0.17461800438421726 0.15978261168694055 -0.051376465818430833 0.19983960644275953 -0.19857808647873834 0.12097854993290266 0.083815005280652971 -0.13707206992207427 0.027533647886606356 0.18281106972704256 0.11472682690665356 -0.20022507427780509 0.15793448222989739 0.01209830827838327 0.0083461205700747568 -0.17326882265566101 0.049222407941071279 -0.19279610522111185 0.20216510373599958 -0.087358027093228041 0.030047180756735535 0.081059240323445678 -0.030354915061956735 0.099619892960750189 0.039190775020343516 0.039995681088026924 -0.081494472157720321 0.16966098316290867 -0.013902915301029509 -0.10867483166678404 -0.1222776054996263 0.19578586072292098 -0.09452332151312183 0.02345829293513613 0.099748606349108287 0.1671800650359957 -0.19693538534518504 0.20362724550697989 -0.0014650441767681348 0.18542336568991882 0.1203770399793623 -0.059606853448121062;0.085501929952542507 -0.15000997642605898 -0.029337143645997866 -0.15937558734938481 -0.059482848709875781 -0.030808568516181724 0.18047604465360592 0.19629438103377167 0.13009786765988929 0.027176626093733489 -0.15691600772038303 0.14638331546937416 -0.061512838044819343 0.20468061192104903 -0.09432658216239706 0.11506184611918945 -0.12409838679714896 0.18632617875442109 -0.026267138176288039 0.18708818285963083 -0.17593322344079523 0.097662791088109061 0.064611396582476777 -0.028804828769879134 -0.15627640321903352 0.20158348452630276 -0.16531494459198268 -0.020208646160590957 -0.01450406364802841 -0.058102969348839358 0.14026688700747522 0.12839245914980735 0.053354927430374101 -0.19304942372866202 0.05825790441266368 0.13179243765383569 0.19372883399000176 0.080037069712402653 -0.14383903089150707 0.19317516933321302 -0.05473422392354664 -0.065086340102146339 0.066005552879818435 0.10688218690740836 -0.14337790890453575 0.093459082303075341 -0.17275651221128538 0.037403937055545448 0.19372900685049027 -0.035119848331046269 0.14305507914164342 0.025619612780079695 -0.045276949921309304 0.030575489261323818 0.085942947914784934 0.1301758153659143 -0.18496699428392341 -0.080344561922624555 0.10476895821906644 0.18252801321011267 0.021005723472343051 0.20300489339014033 0.19096344182277328 -0.15876586533659404 0.056873798527475275 0.097065239084369995 -0.125160609686818 0.1130065520314176 0.15936987114519327 -0.16119315462941869 0.076551386453538262 -0.12990003665989125 0.077688864787543069 -0.069536650995190116 0.16700320875067401 -0.051010680596417661 -0.050267371776169786 -0.11915870943906368 -0.18893118038598383 -0.12697229952492511 0.14822712779545316 0.16169773613054866 -0.16628644562063902 0.13583489331467977 0.069085566877741186 -0.070999219067303984 -0.10226007216480279 -0.11741740016265775 0.19810874140400309 -0.10988581231791948 -0.032889968024832399 0.084114918438509823 -0.094038828755661011 1.2252338668888131e-05 -0.18160016695132322 -0.17510867676795128 -0.073847433841881152 -0.055420156776195571 0.13865077215284966 -0.16247689173471042 -0.010106156429986905 -0.13065415360951396 0.12324739070152141 -0.14312815911329707 0.15137851827542073 -0.028346136007102125 -0.17737214796277728 -0.091499875038495271 -0.10976903569910049 -0.066217949810145171 -0.066813523492196075 0.19999455568299732 -0.17540980670691567 0.084430444731093998 -0.14364243579417063 0.11540395323703971 -0.15240458051830719 -0.038194788358139366 0.014806317207842761 0.038764035787279917 -0.16177859078286749 -0.1303872467750278 0.0012027029900334896 -0.20627801871964516 -0.02509368207283148 -0.11251060271394392 -0.08365006744635603 -4.8656256020941104e-06 -0.098960800025929566 0.17389689756283402 -0.029528779626670769 0.16759265156861933 0.13043659960158957 -0.16612647935541072 0.066262866721992206;0.1812611322104225 -0.12494942199342957 -0.15992921942638313 0.12632249445425461 0.083377593672556163 0.20901251923982175 0.21193679949131458 -0.070715506908698128 0.078369986760417051 -0.042450949021947584 0.058210696518576716 0.083683961724555819 0.099141426255289919 0.18213328563694609 -0.053992623673025431 0.16790640233004694 -0.013205491832850288 -0.21693164745778382 -0.12304733235255037 0.045075015626712192 -0.15712336409850983 0.024055441423036748 -0.15217300625804694 -0.0056498304330451698 0.017648840625323698 0.1467882522624322 -0.0085701609294949188 0.014117959059740661 -0.00099186849291336976 0.012325537514787656 0.075639070233244135 0.12350964262157957 0.0029967685173160619 -0.14286837107735659 0.060624049693864007 0.16387648581864189 0.15167647733534673 0.19806662668428859 -0.044592363866864285 0.2164021110817308 0.061842246115210033 0.050282921781336025 0.1638909381057275 0.13598396280671785 0.074927352920647089 -0.063462188894015753 -0.13447640221993479 -0.2342517738323536 -0.09334739731162138 0.068790568047194731 -0.12691674947771991 0.036912255642561592 -0.094036510723927672 0.0018606258795279892 0.11014276780374824 0.039035705090863765 0.23131987427410317 -0.16700333315353155 -0.088614342697575205 0.17364293931604527 0.11099384055058217 -0.10740370564527098 0.22515953552009496 -0.22978780285353401 -0.030955323351550549 0.14840768912779082 0.082139925004043948 -0.16686776151764141 0.076133316374465604 -0.05385342723130572 0.20607515136342855 0.21372713266187462 -0.19039215522540381 -0.12046101687667116 0.060599704601593272 -0.078547377349409975 -0.023848305376079494 0.028983673701102646 0.14130902966167244 -0.0036245673880986912 -0.13122434782100711 -0.083540867645733027 0.15740001991530578 0.18759672562564408 -0.11600359417411082 -0.012362882148860568 0.23804823171224343 -0.22094100392927024 -0.12346627603916745 -0.16873410904887837 -0.16476111449014985 -0.10600489429350636 -0.0024435596548129149 -0.15083973144078366 -0.04541858612461655 -0.082681903924801362 -0.12134655499787422 0.079967184558511747 -0.11443945230035583 0.096894569542199008 0.11669303290003367 -0.12718277685527665 0.01411559749836036 -0.20945731365486892 -0.044867388491525016 0.13328946862651986 -0.10973085494467501 0.049809715677859197 -0.00054195734164739476 0.11281459852184923 0.13689157421195941 0.024586695287486582 -0.008210771900334592 0.059740222340505897 -0.0650760817447293 -0.22533226466709799 -0.051458776709521849 -0.10148436220065751 -0.040444612722226644 0.072044864601570835 0.16835126235299083 0.10746440918006035 -0.068128397652854181 -0.084550237423309804 -0.00025900131669750201 0.026300984993008127 -0.17365737475090359 -0.044582355904483818 -0.232501913396544 0.14292299955860616 -0.070132752689756384 -0.16984418294201462 -0.13200360006016554 -0.15357369863920972 -0.17391439754505519;-0.089461608781294638 0.036129796733148062 0.058367995743611116 -0.084476135742158814 0.075462926372640751 0.083548246450321897 0.14435655335737249 0.012955411732261954 -0.17775266910473669 -0.12724871248191805 0.037374005243790268 0.17162792671416491 0.013354452896400101 -0.066282871643328217 0.082247311450944285 0.14482444407217368 0.16332543022796636 -0.010660535508732603 0.16445070402267017 -0.020939332233178985 -0.18253571917346223 -0.0700151391827602 0.18208063626987211 0.017016273824601115 -0.06325978498765536 0.20299225770241938 -0.040129012497676156 0.093605289411052464 0.20672572313629195 -0.064107994506751878 0.11058093133556776 0.013274990284963853 -0.06059929896098934 0.20275880597844514 0.02029895521914981 -0.19763063211554258 -0.17238857893998763 -0.0020123147521121727 -0.19597413912165201 0.052928775574915515 -0.0025846908127361008 0.18551994213357278 0.20287038449497855 -0.12164102347306829 -0.10642753737819931 0.11754217098743701 -0.025756532571123168 -0.20076043410201488 -0.059194516228235475 0.16178207985400836 -0.07367274517127341 0.14261485790429795 0.13858982149133908 -0.1436756082464162 -0.07004706858487636 0.082964536795564509 0.028854685818888025 0.057035669662831724 0.17896070348953941 0.082446237775257211 -0.11106871286919205 0.14500246538144601 0.076292175113331126 -0.22072795552809646 0.01771803720130052 0.10492422466727179 0.19760238943453595 -0.085996795242987339 -0.025664642582167923 -0.023776734736265979 0.12322011742630869 -0.044119940941205693 -0.207468085129977 0.20220498965411987 -0.20712778738159046 -0.057725900034731631 0.19692460649544377 -0.020379522194677164 0.10794767774971335 -0.13891501295222827 0.12986748656579516 -0.047225249154082126 -0.061584225913905437 -0.070833808644234747 0.12971867559939243 0.0096842723793364779 -0.042750999203839103 0.1482271431254274 -0.102708688852528 0.17668718500911465 0.19660988373615165 0.20018533113853546 -0.057786667608418739 -0.049263698778539144 -0.21334143045724027 0.088646342870203301 -0.023511085609702938 0.084077099832470192 -0.030530252418328883 0.13335597122675688 -0.03582616557512612 -0.13449201985564657 0.17933318995334552 0.19322908516960419 0.035127203541810578 0.085677363156563477 -0.16538406624621205 0.15496292214046628 -0.12955716482992022 -0.0096719656110829787 -0.14821748758511147 -0.1435917328456873 -0.14695988553904615 -0.050389915921126308 -0.13506527867210957 -0.05775156672331716 0.04738858540236985 0.19260335155109945 0.20148079637813951 0.14241791283653132 0.12884932275291477 -0.19327438308695094 0.19696584597926742 -0.19095205013420155 0.15053182426815701 0.15490903052563804 -0.0041851900569532668 -0.050242198336264761 0.19724917943975789 0.068033990222912552 -0.12957122960148754 -0.027474990721108362 0.034303127038954127 -0.10190902631969864 0.11532364248961041;0.18837114781516814 -0.0045032642750709572 0.18338994402101469 -0.023555581086648618 -0.19945718902054704 -0.0099968098518508196 0.042094790831326043 0.041718894003026981 0.03481635675241751 -0.0014324392862480673 -0.138478904208019 -0.1004695267705193 -0.091274582604104176 -0.188748024189198 0.10843597281016142 0.038332123361249276 -0.066011344985190262 0.13009897113087379 0.10831187129566239 -0.016199156252593321 -0.17274986651037461 -0.069255536586165137 0.11215063173465456 0.079240449391432322 -0.0073579428163724533 -0.010683836889425546 -0.073769886085768968 0.083245932603366726 0.092666935997124278 -0.060698068921114748 0.15868190183384567 0.1164828777533682 -0.062707814590732991 -0.075307241815515222 -0.058560253164783575 -0.14348168278723361 -0.14097488210601997 -0.083523674297602615 0.22209520972891536 -0.07359218310545261 -0.1668447674656717 0.1268529591632003 -0.16026847037053155 -0.1536554933648894 0.12666464735827573 0.18703141399597573 -0.10381368903168865 -0.051495836599640299 -0.21429648619059133 0.13001009963276017 -0.025714730358221548 -0.017309350634852543 0.10517742473742454 -0.021785428673942085 -0.033945019340962543 -0.05442065127873745 0.19252459285437154 0.19931168753383602 0.060249615106416458 -0.082192922329358542 0.181020700999518 -0.10840820793127941 0.10437450459316167 0.20000023579380871 -0.18197634065506718 0.16133289839194656 -0.1952663626798499 0.1068109806454077 -0.04492952233673625 -0.030376753729055742 0.14585415790941489 0.085807594034675749 0.14752825085459539 -0.0041601040192090332 0.17816922042234323 -0.1550019348483502 0.14277498849057646 0.01079415073124519 -0.11617588176317528 -0.1328509551617591 0.1196704795065134 0.1020001971908894 -0.19173082093546359 -0.065771756549075716 -0.07377570236188627 0.043328698442580804 0.12842841015420839 0.20161686023326247 -0.017367943546146857 0.17809598403003879 0.12876815669355773 0.20215340649079466 -0.16541979583603081 0.035771721001148338 -0.092079575421833496 -0.11895662102772933 0.12440326390196699 -0.11669606721377315 -0.15869188481454538 -0.14243454240232692 0.13901456394939291 0.14545590005441694 0.096171389935371748 0.028276830295761019 -0.20889555504839777 0.010658811982189226 0.048162353802793864 0.090569095783887485 -0.18646401283793193 -0.010308362428083105 -0.16947497856011576 0.079199972721919032 -0.1518934886304654 -0.0071259004503464373 0.054343949530052775 -0.05056246010148481 -0.2235354258368116 0.082827808327969182 -0.17909259946093128 -0.098246112648374212 -0.11739897006919925 -0.13910208867622517 0.17156075286892411 0.081314172488820113 -0.020271047788727483 0.028075282610394683 0.19771682699780194 -0.15089235195490072 0.032188030356187343 -0.17252323606430439 0.16375506406946483 -0.013184797518894696 0.13904308748778041 -0.22333924812194197 0.22025269773997336;-0.079907504817888095 0.098647715616946283 0.013440104009428574 -0.19263803798364629 0.1164929773431015 0.099866522320142162 -0.2024761109785107 0.11318725670880156 0.138101813876332 0.15254734642285012 0.11423280317004954 0.20361993747347781 0.076679215898574835 -0.0068200365086488702 0.19411914289642854 0.0025542599488312728 0.088636027907473561 -0.024316768276913661 -0.12095747880139227 0.21780095310786596 0.074518234916401069 -0.14542218458625789 -0.21836456191669121 0.098607897133056913 -0.049159492053180168 0.070765042418984084 -0.079183979270317173 0.10754414791399444 0.12926145158282057 -0.21165131114193642 -0.13672915202050159 -0.2037505221874788 0.042050592276928762 0.0038478391127442805 0.13716956507180292 -0.0028554383802223285 -0.17818175612006626 0.21697532606340139 -0.1371475136665059 0.11924136191192793 0.15842775850072413 -0.035241318761150331 -0.078603269916138072 0.11929870183708366 0.014682314946852527 -0.13469992786199525 0.05452756583541872 -0.17238895275129895 -0.13105464806480377 -0.056584556524597249 -0.0245770929069315 -0.063664123212665666 0.15479280011220811 -0.078433145912696511 0.13291103620047151 0.14114461397205888 0.091906164935305318 -0.056338599477599241 -0.13823107799884807 -0.10235473577086664 -0.11074584624153011 -0.11573278688720122 -0.045134770446662191 -0.14333968726512106 0.16430102235000005 -0.10594667049143505 0.15915330205311931 0.066733014470385668 -0.085938315268831569 -0.10677104743408329 0.052049875991746021 0.013072834892721945 0.19439504229132937 0.12872190873310113 -0.1851022639157448 -0.025368360222821813 -0.21683470103123739 0.17736295146670489 0.21181543648395934 0.212284059989468 -0.064595761608124941 -0.21383226152072984 -0.063338052889982982 0.13963047462369976 0.11788224206746033 -0.021527132316994688 0.160194872508681 0.052576389797962642 -0.14200478291385329 0.052115732546663518 0.12756859960854586 -0.071519100527846227 0.03456534904613786 0.078944702431017297 0.10073398099438266 -0.15720522139442139 -0.028149522564180549 -0.054826341348981143 0.20562394528236219 -0.020241106222424463 0.0053649676536186783 -0.0031545833259592091 0.13491985842058016 -0.035231340500986488 -0.16578615830693977 -0.093337728363924136 -0.033051852576424165 0.1477829197692713 -0.099183657342709633 0.034986873556256091 -0.033570442583984089 0.087058270152362421 0.05818551763457696 0.15344673071549453 -0.16604007353869818 -0.1725374026096807 -0.18139906284097859 -0.18512329043790698 -0.039434861942200021 -0.21617589283720628 0.047155131635159761 0.16384647277837225 0.086370153693518484 -0.18130215746197048 -0.030337494408027025 0.2177745992420464 0.18877882784137479 0.029239349683317394 0.21446508589164065 0.13209134349007909 -0.012137401426574965 -0.028290782838727234 -0.022319754414213723 -0.04818885313606968 -0.1038645687748244;-0.14532707557375762 -0.16670921616716616 0.13169035360822526 -0.058610583157033623 -0.051037669356727801 0.013698364051804518 0.2311877657913787 -0.20806264311259248 -0.17486661116221708 0.004354304843569059 0.065724143462324108 -0.17982616786090283 -0.074930902845208217 -0.14290218347857392 0.097816650399480218 -0.20042518297781434 -0.09064088502909641 0.076856825834416387 -0.14731088342161178 0.027910055431615545 -0.10856409630302262 0.055209640920245329 -0.13422155545208983 0.12852012556094877 0.13356598480984289 -0.19651768115952253 -0.16873674760971299 0.091589565213679752 0.14277173465875162 -0.069739338441307683 -0.12526660076778984 -0.024457718579534653 0.098783039496569344 0.14172723627259259 0.20539465816214936 -0.098935812724306835 0.097889115313165062 0.038474948238478128 -0.07980434692635037 -0.09616196403993775 -0.036730179490952045 0.073842851850696389 0.09357811903577691 0.010978710776712518 -0.153535213219927 0.075976903891700698 -0.012258978426415252 -0.17298742950150917 -0.16106298003408656 0.052131438048654222 0.054050814738196853 -0.077723914469479904 -0.090095045536616722 0.042978616813254739 -0.1256390649127046 -0.17792422820325116 0.1703046579807227 0.21969619139176153 0.15482243532776852 0.06091685488222446 -0.17217337489002893 -0.10502011088313691 -0.19471265841824353 0.092212945555707651 0.10737018121495646 0.11945392703414016 0.16590166347638929 0.072635925951069838 0.053656271047504665 -0.12125124687003791 0.027704517400965668 -0.01938108330560942 0.070985563524662218 -0.0413608282574362 0.0084640351419501495 0.078365465351162178 0.026232085108027582 0.13002047902253908 -0.20307488282407898 -0.0715205387404695 -0.020809769342901373 -0.13682746585402003 0.087377078206526473 0.16245358788273917 0.063055698291548543 -0.060971910140371913 0.19484221539991423 -0.11214895265030381 -0.15615497050562108 -0.070920199155577096 0.054024561707683334 -0.15050058671027328 -0.19849002554895681 -0.038192227575792999 0.22233982976433669 0.18768655808331577 0.053409459192054726 -0.069225448010490492 0.059151475235250849 0.10440600073527402 -0.19980721517631217 -0.00668600547371828 -0.070633985553997858 -0.19501394834433802 0.072969900966836088 -0.16976340864358044 -0.19573486469848994 -0.031898719437951438 -0.017024463502741238 -0.15698611119060227 0.032285121502659879 -0.12761736029229118 0.13105487558523121 -0.068162789723988662 0.03906004813231586 0.20713376178518336 0.11585509330880878 -0.11609640944070367 0.2082243752307881 -0.16943574962266633 0.08757542471166406 0.045735458644733058 0.064110006653679816 0.036034311666506197 -0.23256221145213168 0.0026595641441676224 -0.21839907193404631 -0.18387429471131328 0.030135057539557822 -0.13562844016870165 -0.16409192914304901 