function [y1,xf1] = myTDL_NN_Function_3(x1,xi1)
%MYTDL_NN_FUNCTION_3 neural network simulation function.
%
% Generated by Neural Network Toolbox function genFunction, 19-Nov-2017 11:58:02.
% 
% [y1,xf1] = myTDL_NN_Function_3(x1,xi1) takes these arguments:
%   x1 = 3xTS matrix, input #1
%   xi1 = 3x45 matrix, initial 45 delay states for input #1.
% and returns:
%   y1 = 1xTS matrix, output #1
%   xf1 = 3x45 matrix, final 45 delay states for input #1.
% where TS is the number of timesteps.

% ===== NEURAL NETWORK CONSTANTS =====

% Input 1
x1_step1.xoffset = [3048;3087;0];
x1_step1.gain = [0.000677966101694915;0.000252175009456563;5.65961784845383e-08];
x1_step1.ymin = -1;

% Layer 1
b1 = [1.4454539689888972;1.4145044663451174;1.4047584741435257;1.3469045202366965;1.3341539348601708;-1.2759068791063681;1.2586525378395932;1.1906678019375665;1.1821096586263418;-1.1514847479318993;-1.1274282751939846;-1.09380724922351;1.0602149352308223;1.0322917716846205;-1.0002568813831503;0.96218216297324632;-0.92730738592339723;-0.90200901622720298;0.87827750180171738;-0.82999491989719254;-0.79693410737523707;0.76435920372561028;-0.73242139986637356;0.69258667956874542;-0.66630585176164525;0.63703558214238387;-0.60114023405559469;-0.58818968282301765;0.53102556864664652;0.51014688282263909;-0.47185030920830928;-0.4391798061956701;-0.40805184451799326;-0.37422119837091766;-0.33385388020996754;0.30234862800744156;0.27702532176745609;0.24379664744997503;-0.2094730389875005;-0.17733072101970559;-0.13219389969424838;0.11388788091654613;0.084219504874935291;-0.048623836516668524;-0.018863918278067403;-0.016020136390356265;-0.061596555060148883;-0.083830961562870801;0.11193323884289286;0.10194548301811242;0.17111283617421605;-0.20786026217014855;-0.24571997424684316;0.27431499860756503;-0.30526851972595659;-0.32900017184425695;-0.38148197136042289;-0.40233298233070364;-0.43064440045547758;0.47607713750303554;-0.51359400405528344;-0.53918437931237673;-0.570866308432318;-0.60399029540274973;0.63185820157743855;-0.68826993297799399;-0.70071400972993014;-0.72959229427513561;0.78146470254846034;-0.80820607203778594;-0.82889788683896559;0.86961462124392586;-0.89389359964645165;0.9265331289301475;-0.95693173999893644;0.98434004012306853;1.0386114372869224;-1.0633334006746311;1.1073464335574483;-1.1150831826428194;-1.1541925340585413;1.190069939986846;1.2243824148356997;-1.2521265250918481;1.2847925090618133;-1.3172382605523381;-1.3496874761249817;1.382900169311462;1.4149458046690644;1.4520870563660402];
IW1_1 = [-0.18240329008053882 -0.019229345769563581 -0.10764481371795231 0.050742822558665003 0.13223405254953902 -0.15551352959397249 -0.039277643060754736 0.17306084642947195 -0.070144012040555301 0.041143084662942052 0.20547671996593189 0.067221066100354429 0.029284742361581486 -0.024705109592911629 0.20375441609733394 0.18265178935965887 -0.016971489678378068 0.043030917722837667 0.10778732993369923 0.21854288297807706 -0.08130350508613339 -0.084003072658582978 -0.18903122498878391 0.084268497646762766 0.20603201384262698 -0.085542894396966912 -0.031835171175981176 -0.061267444678048205 -0.100403437623203 -0.087637532666745718 0.21833000863464935 0.028119586525750841 0.17093636970256751 -0.0089230979587607215 0.10425721065071174 -0.14777203044561626 -0.015425384986912578 -0.010428452583748013 -0.061033645813877699 0.06976235974174487 -0.090472035252517249 -0.030365964447591657 0.040265547746754018 0.11034691661535397 -0.033907692638989739 0.19566257461245701 -0.15869136953200183 0.223274498296372 0.14139203353535576 -0.11758365553621068 -0.21106723982500164 -0.18707091162830292 -0.047871203010517158 -0.12585748521785906 0.022178146027020808 -0.16893316152003715 0.15399100049220296 -0.084259967554564483 -0.0042186461939874602 -0.091593105155148902 0.21565426036177843 -0.019462465785280582 0.036253915141719779 -0.18623151638492597 0.099948385227567202 0.22130146132430575 -0.043454303943526153 0.14864979616230062 -0.10955746309022896 0.060695504472453789 0.20032716879567397 -0.14628105985941331 0.05733464281514996 0.1757876113085261 0.02299616462912675 0.19381080517950833 0.13870127797145176 -0.066356356936394967 -0.069565898675897173 0.10432226009571403 0.14521140132920249 0.098803817680236924 -0.085324002098752211 0.0052900956781707087 0.13154464739514024 -0.072304130525726332 -0.024907902351581367 -0.18402928986050032 0.005581222126808524 -0.041842966947828325 -0.12104510312358628 -0.19516764051157917 -0.19188425407035781 0.20670072835789943 -0.12721744770458332 0.077133194801717528 0.078448611213046041 -0.12160689415357563 -0.0096990382666148171 -0.10505752966635307 0.1190328553195142 0.051263707261872841 0.19325414009825739 -0.150874678343656 0.12634255267147876 0.14298647594841626 0.16094522602038852 0.13524101131186325 -0.20326470819394368 0.0027880573936825753 0.0027885108671879002 0.19183736681852576 -0.11488939502374085 -0.11612914244170409 -0.013107519517172241 0.19163975641737765 -0.17735156144167422 0.040788197037280427 -0.11965218680507796 0.11510495137904171 0.0054505494759490951 0.0062719389297804778 0.079711587899861852 -0.067956874231751674 -0.21695240158184032 0.1922461501813168 0.16842773912635695 -0.10221622736688554 0.00010021713093400988 0.083225809490084318 -0.07093391762378079 0.078872889510632413 -0.0070006159381439149 -0.14872054490634784 0.15321449807349832;-0.20991162165236127 -0.043040438618756865 0.012247762720002156 0.096058749613206401 0.16092765863130831 -0.053391163853413727 -0.1997931433952003 0.13470964235594723 -0.13867811131237717 -0.11439111664843633 0.19471036897683092 -0.12407252152976748 0.051000271729215618 -0.07992904810033849 -0.076290637490800089 -0.043403927822601628 -0.023739597040967352 -0.10682284720812842 -0.12659611037592017 -0.043627847089719153 -0.13743196802116267 -0.18849733938529922 -0.15486247295256955 -0.083112342952636711 0.16527913264248628 -0.21166231407607436 -0.15267643015941817 0.16858154768077777 0.15686277213777541 -0.15897985819824662 -0.18648101632630462 -0.08973675054287962 0.10421249719891031 -0.095485134180730957 0.13354167348856941 0.05280083111046778 -0.17920698542173516 -0.10465618871870408 0.14527709892967822 -0.0053300531825396721 0.056940409376860221 -0.0034328903439897109 0.20857137200369003 -0.015600465388203907 -0.08748680592293713 -0.16702935794001231 -0.16637190872326998 -0.15166094697486013 -0.028962743079782534 0.14312992600165866 -0.13193943631829338 -0.14727085641042148 -0.20324172311760982 0.14038508265938499 -0.21412216890917188 0.15962480665949538 -0.088466204713352273 0.19952747196739382 0.21231226897255515 0.063676082630040917 0.20498716150513666 0.18679828496116807 -0.07587880509163325 0.0530086211821367 -0.078707270889725428 0.054901080038732675 -0.10824845718267152 -0.15553225947545019 0.19052600351458612 0.078856570042512689 0.059387191533042241 -0.19194116236584563 -0.039784071497688207 -0.09594759476511984 -0.18297398322879804 0.20019784134504184 -0.13751879474948256 0.10768218657848491 0.027828611664833088 -0.073168809337259805 -0.18887795596438756 0.060342037763501513 0.11663209306718175 0.10700304416239093 -0.014798076545738463 0.11839962462362293 0.041387171480123101 0.17059705927168842 -0.066858355834281846 0.042460455080453027 -0.1292389487707529 0.08621810264893276 0.080578243478559686 0.0030678243736246935 0.14394313559882566 -0.098760593477923889 -0.080728541814974603 0.03515058510136676 0.051311902630219092 -0.078830387497452414 -0.04769033442449444 -0.052426895664576485 -0.19286882431896984 0.15657186231238068 0.09062236326856464 0.124646872977905 0.050393219416574535 0.043028771498178839 0.15725321921827745 -0.13268516724105503 0.13979097616091996 0.14179370218533213 -0.021776187806164755 -0.051736658098892607 0.052044365013688358 -0.17919067932467456 0.12468535848186543 0.050902277730823113 0.18891483791145577 -0.039533281597753857 0.033363565738700598 -0.12161678169733633 -0.041581219349334488 0.10929196835064378 -0.022189504378404591 0.12418205167572297 -0.18391178970622366 0.063939875783224659 0.14074765159151562 -0.025443512973917847 -0.1277750587821751 0.18667184783344457 0.031151619163482063 0.19520363201687752 -0.058587972555243131;-0.14143573499393258 0.20236180452653696 -0.20898515137132989 0.085745960383129968 -0.076248569833650498 0.093862105223846179 -0.0014571968181645674 -0.086771843317884539 0.053493352357811094 -0.064208084521403197 0.16740419003071197 -0.22700979402726926 0.090675036552271271 0.05315866662400532 -0.13942908354231531 0.062116168891270779 -0.19520028424526725 0.054086977848923724 0.050516139690505578 0.15869084541285627 0.091626794055544192 0.062949993173372285 -0.087450079429645028 -0.16932579989899904 0.18387947120016959 0.094914112091066163 -0.22591085472841232 0.20200476280303337 0.08104707227333581 0.17695391793075863 -0.07044435785892976 0.17919582829776756 -0.12524445849591948 -0.029234935601096065 0.08780028101973493 0.0027012274886412165 0.029080410326218963 0.10315166912011123 0.076821511791921135 -0.22102224756701036 -0.039773630871529735 0.10341879377114849 0.18334729144710074 0.15196518479187784 -0.032193829409700891 0.0023698035842131203 -0.070900269075159908 0.12736001540633207 0.026780734987453193 0.10588744938120823 0.0032298643689655931 0.054926364824254253 0.17906575750359782 -0.099553027475446046 -0.022508919384800763 0.057496039316195055 0.040693581056124362 0.1538098935392383 0.053106878982595571 -0.12768118561754938 -0.083234447948856941 -0.19746309842635412 -0.01070328593566474 -0.17526262728566874 -0.21708314948449786 -0.05506167237548347 0.10691572328604519 -0.19296536040124257 -0.089841945835519868 -0.18714410440243964 -0.0085794435085228479 0.19419336419092542 0.03394821758109106 -0.091274181495031997 0.069608388384719305 -0.12698331251172307 -0.22191517154303236 0.059274180918607144 0.14379013443188232 -0.028796182081846072 -0.11310718451411128 -0.20399110614768007 0.19573831721729623 -0.14333383266567362 -0.11140074910230492 0.13384890116137296 0.091687547494598912 0.068828100758060895 -0.22589140672384328 -0.086815322264285566 -0.049177735194534243 -0.0057526017326614927 0.050444818547015831 0.0026839245767691861 -0.055638703856047321 -0.063927341927732181 -0.19961534278050638 0.1948555089812227 0.067933594981288231 0.2084048447407976 -0.074265535750028963 -0.1985533236029528 -0.1871398555941825 -0.14095100283476705 0.19357527953399509 -0.057828765890787281 0.1069952959416838 -0.17587008726024578 -0.068704107166631112 0.061226604725231101 -0.1455375348639045 0.17662822253439539 -0.12490920562417747 0.026603245395163323 0.054295847975803432 -0.0070494385188357008 -0.093706892538051825 -0.10990785298663487 0.057054761541772914 0.13929871802394395 0.016375653637379573 -0.019371767960400178 0.048129962412892704 0.0047663959212423425 0.0095506167023759643 0.053406983983447023 -0.11541841513460291 -0.20085847272148247 -0.16512893417601437 0.13345550889565105 0.063621349102505373 0.04233444278452015 0.16628161471172867 0.055997116242184404 0.16966436322661335;-0.063263408849274116 -0.092461757756766252 0.14722169889735243 0.0040287551584686681 0.13891220712545971 0.14988607649215016 0.20789894965516684 -0.10342196011663714 0.025947211059523575 0.082783801122565531 -0.053268615528194098 -0.12797370033752656 -0.0248205261397219 0.099649146639162939 -0.024237025142419908 -0.030547459260233629 -0.008241713926651708 0.16526538562439885 -0.058759626308366349 -0.14201596947879896 0.042153786787709285 0.16464330896800708 0.01674642878432827 0.18011721800575251 0.10474730379422971 -0.096081691451767551 0.11714072166869632 -0.20125130917365278 -0.11571827909774114 0.029740754575992675 -0.11500971804906333 0.11693735063444782 -0.065299160879412621 -0.078586110609910068 0.070727133540342491 0.13922202130028077 0.16347353217380003 0.0070676243927286844 0.021605508155592541 -0.18371389172118091 0.16650156388883583 0.036717063504488293 0.20819183557512341 -0.053558522262630436 -0.081358980428882774 0.13242465111630225 0.22344404152347522 -0.10206979406572601 0.20899436993415491 0.095276911500793482 -0.085109108132484235 0.1138674155068905 -0.015459274565196324 -0.025509212885241273 -0.073524877658555574 -0.15005614051861549 -0.0040935518030762166 -0.17919830926559893 0.21032285199510692 0.21485531846772873 0.18249763254509324 -0.05627633490368452 -0.040248996825039067 -0.20949002173197886 0.13627116152394936 -0.087995050640152686 -0.047661057373535758 0.17523162767939587 0.16489782566985972 0.20290875549748072 0.051867880769602678 0.08424875214788359 -0.014414012787830202 0.093704850241774232 0.060080476120478218 -0.1502197815778156 -0.053050763184385695 0.022756056684976746 0.19331672954599252 -0.014456105242563638 -0.12572691974779093 0.041502436439478478 -0.17561807762005732 0.12553500764545555 0.024364847750217862 -0.19259226239067359 0.089449943953502337 -0.13776484056480487 -0.10034638471569082 -0.13214516061870002 -0.21221336869476634 -0.0031453188181489772 -0.18727932861118182 0.025820411213640985 0.10538952207886573 -0.14369885101281918 0.070722160482460952 -0.087407293838289116 -0.13894332488405264 -0.07950938457465484 0.19719749811288409 0.020612111571654167 0.0014775992259900316 0.19263168026809549 0.11321365476546252 -0.16172206351874796 -0.18377075542235299 0.10232525487624475 -0.091434622083435613 -0.14933148500508328 0.14657352348114322 0.033630280749843755 0.15362262464160106 0.14637273142612478 0.0096067131431977846 0.040843090438037827 -0.083014264886163577 -0.13648832293941085 -0.038236023108415618 0.079361674272524371 0.001884971912711841 -0.026683968908115037 0.20276417021674784 -0.13614468887080283 -0.10760205207123935 -0.18550738213299539 -0.1797775710001519 0.13888324141269509 0.16784376052191849 -0.12538752332082329 -0.12924864697085611 -0.13883847778628255 0.1121173573821162 0.16651951346404686 -0.14323208825980077;-0.1777944850987393 -0.09129467342021258 0.091267678492515561 0.056897109343812098 -0.16924340848643923 0.13440860825349224 0.19482480114788653 -0.10400881074213041 0.0058295976497909161 -0.16820367081422499 0.053084671440475607 0.14531418277654054 -0.13230203835185858 -0.083006771667178209 0.093740297973423425 -0.11374430725849319 -0.063523099788519444 -0.064296083031707946 0.084230243948938743 0.061668451821383259 0.085684456494733274 -0.14608476414786667 -0.14920825185431771 -0.16771843849716478 -0.15394012506546953 0.18001618488686577 0.15804468334915273 0.046642436140350949 -0.083900573481620402 -0.13120756793077934 -0.015416271812986876 0.03280288554101686 0.10853895711587833 -0.035310282727076162 -0.17254498392022757 -0.064925105580725007 -0.17315023370188057 0.058141675943946328 -0.11023869106597381 -0.016130034632670168 0.086952001702517767 -0.015635876094759277 0.050593386942630429 0.11557950771106437 -0.085793037180582329 -0.057568153901679305 -0.062025465353643033 0.16933954600093742 0.20407477515365072 0.15402011899573212 -0.13936279806217464 0.008442960082310309 0.12737794352518148 -0.14459118849459981 -0.050874964722877954 0.12367634421203944 -0.19306019101191368 -0.18330735709149562 0.1674442845332548 0.068743659484218789 0.14671044828311158 -0.20296559400874084 0.048223487738123398 -0.061017273602587435 -0.19743493310825494 0.1374851068549858 0.030850937936547196 0.17567769798436478 0.17491997404115395 -0.17708431193984098 -0.0005041297339452844 0.07623200587790295 0.10267863189250286 0.032405996576558425 0.05813578177364543 -0.0032852062346913134 -0.16083144051729034 0.083438260520766111 0.03689519342675078 -0.01084791499730443 0.1057375745086451 0.01471366627944737 0.19840588501356055 0.13138132795950946 0.22025345227800802 -0.079860889644692276 -0.02984282585656271 0.069398858487445328 0.14901195790072247 -0.22324968470437906 0.083523894530986173 -0.025548567919732191 0.11009444513223715 0.16970149218464411 -0.13091537816153409 0.099688629569404177 0.043470714085028062 -0.16378234295992414 -0.11234270625558165 0.15644399862872713 0.1286893222882888 -0.011112580176498205 0.21003526430490729 -0.060373391239025943 -0.16879160849451766 -0.14787741260974041 -0.039184025846730523 -0.10183133131170276 0.17624084234706047 -0.044872863851653177 -0.12222935123659438 0.20474355984836315 -0.19049554206411037 0.14205087951683551 -0.023326588283228374 0.10856359113956958 -0.072627038513093767 0.034230390235291827 -0.033509577819601906 0.026411684451491304 -0.15827127790031298 -0.20584722321505217 -0.16145850887928345 0.19716188359113007 0.043800464273141777 0.12120197937015377 -0.12345935223056041 0.045160017093294001 0.13529478714609758 0.09709892076840683 -0.089227102007441508 -0.11776223828533083 0.18567849070360451 -0.15924261204987486 0.13398636963139465;0.097716181151062703 -0.037488777001559254 -0.13850677381429205 0.12508004353717092 -0.071486965936044297 -0.15313713204779614 0.17002346246944153 0.099347534496724732 0.16903290191416953 0.20247458597188389 0.12576202569333167 -0.17069622179588381 -0.078962410659276144 0.12753008325557072 -0.17766457201764985 0.1497801872628414 -0.063214241121579667 -0.083697857651958391 0.0040836818650685641 -0.0066111501315191138 0.030535685946954359 -0.068039342927974103 0.019976156984961864 0.18074919864376443 -0.10447010298810906 -0.20999876774317899 0.1037858721418919 0.083347879030533895 0.1890517009356219 -0.11043093599221403 -0.061248526853685835 -0.037774094499651835 0.13723451321623295 0.04204838410610344 0.19317912909327647 -0.18613633205548394 -0.05299438261136695 -0.0093775210611543418 0.02986805427472455 -0.01883221789191716 0.030570428632961048 -0.023585645012619186 -0.20517143988135481 -0.18914565211887155 0.12243816315516463 0.048166228551418958 0.15506497991068438 -0.01826153615881811 0.018321286496633074 -0.16661500060265216 -0.0063498458802763186 -0.092627587613631671 -0.17224421463220144 -0.10482709972173836 -0.021861245179478784 -0.057494639746226296 -0.018291446922479946 0.17435826346420308 0.072583591814980419 0.05854161210381234 0.18604909551930016 -0.19719051224665546 0.044766954103338412 0.065857887214971808 -0.0926849002774629 0.16243102934270409 -0.13428197549144244 -0.11703182190227954 -0.07846978747979276 -0.083313170153498317 0.037518596884627789 -0.11686821254879354 0.18062710565221471 0.11743975415995425 0.034625301090866784 -0.096423797826619168 -0.20467388619340612 0.17241381550085441 0.16623972800074618 -0.057502429233495071 -0.12728534826215171 -0.12834380173680662 0.14758238102713281 -0.14557285014390509 -0.13736853326947424 0.12279890054930045 0.03408535229022841 0.20410547270111115 -0.082382314483167601 -0.16225776065167319 0.02213403222949584 0.1352248174609092 -0.20727025558153506 0.14187982562054963 0.15811564647844881 -0.20524643841634863 -0.12748192165118857 0.096836444101777858 -0.010133421349962436 0.15087111503161038 -0.17932601240635251 0.15691884264998718 -0.17638853365066792 -0.20864410987453899 -0.005852655195454021 -0.046798872164569801 0.19068841514842946 -0.098398035922759933 0.01656950148563064 -0.15116193084955454 0.030754406383551126 -0.18616187891562755 -0.13592470735189577 -0.15023327446021598 0.024069272387459085 -0.14289373690543528 -0.072104034099220157 -0.10760978098118587 -0.015822415047919966 -0.20860750982867277 -0.13643763562625219 -0.13797980286478562 -0.16219304502859769 -0.19154007957496 0.039930064769478524 0.20032985531655889 0.092342623637268723 0.091457996962930652 -0.17278177102010384 0.0094390550739037304 0.045309060594913658 -0.060586960145500829 -0.13496410057564309 0.096216156794159777 0.069559690098003557;-0.03768890383593676 -0.028083664409597014 0.12687646172073022 -0.03358227317207918 -0.022039447742570877 0.1370005164496598 -0.13570138689308023 0.20083735412447021 -0.21315998151507728 0.16833015197671916 -0.046190047882533072 0.20021961004003686 0.08494954373273568 -0.1247452656658059 0.12335060853714989 0.16496734422743908 -0.23832655900635813 -0.16032436060438099 0.12145063622865275 -0.031289775522038182 0.092091789178155734 -0.13220201308978563 0.056741337256384861 -0.12121650461241971 -0.071786795987269281 -0.022679848767956437 -0.077882419178750717 0.18483236423335453 0.19223127122523753 -0.1776679674531042 0.12488547156094738 0.13997250742843695 0.067792789687297211 -0.037327544060622421 -0.029211350651864147 0.20252859549132518 0.016189960466712359 0.16268025298820743 -0.0610774681681523 0.20587521060222497 -0.041862395420370235 -0.069291407285755016 -0.082576274606334515 -0.20822454877969343 0.0030163513426769489 -0.19299646776533322 -0.0052606116319722715 0.20624420521787026 0.17151704581789626 -0.14106755696634313 0.040166945733540772 0.038806569601840479 0.11521912351067204 -0.19406107944563677 -0.067467581508127761 -0.077152556149319956 0.061709459514672139 0.0055077846053644651 -0.1795851790181755 0.12739539216584214 0.035255088905775236 0.061425089945853689 -0.071770001578263451 0.019620512817616984 -0.088523424058521247 0.20750861205131296 0.18983649973273339 -0.0023319931881141207 -0.10134444661732379 -0.034336195872036172 -0.17568289505266071 0.11917790168900685 -0.099739190756282722 0.026809766123699265 -0.062949349123696777 -0.11367000524737715 -0.038241267341000681 -0.11131738189031511 0.12647269066457204 0.21330594388555635 0.13594983760083848 0.16981940847800123 0.02297254040612539 0.072547193578199345 0.029042076031801683 0.0089221025147906488 -0.13723718057168036 -0.070032594939104825 0.18482997569226792 0.021683473920955442 0.19111498802209428 -0.029050539037086581 0.19111004217797919 -0.16199074539274746 -0.046113479992862007 0.22341194596813943 0.0078073194731541609 0.17221871272054462 -0.12364420973754375 -0.034268917828166483 0.054625170413159785 0.097358770555315929 -0.03444472794092051 0.14411575364365581 -0.10308851225306491 -0.014746190947244362 -0.21730537263111507 -0.13750820276344966 -0.11354900738934133 -0.20227853247230887 0.18773275747679513 0.10122010536223462 0.17227133173632705 0.015700512895773476 0.050112657586342861 0.020160211854189151 0.066989006928277334 -0.15958798945588976 -0.070363406989668476 0.068232037000203555 -0.010144526013139336 0.120220106552606 0.17515016399880493 -0.037493477512438513 -0.052073241644684645 -0.16309063316721628 -0.011115509125726085 0.071250247595942007 0.17391059856874092 0.019543204999529558 -0.17226172605674636 -0.074514912368499303 -0.17513150054961787 -0.00025179571591487027 0.068295206758793012;-0.032735680753782123 -0.0051902127498521878 -0.18268348124436654 -0.089237735320758155 -0.017793224575778682 0.057218403163733729 0.064039960489005163 0.060981278035102338 0.09769112126755837 0.13723490513882544 0.09272754263701273 -0.015549346750952677 -0.1178236652952134 0.043952777979510985 -0.070257096978512165 0.01193157156051796 0.10979610199476886 0.10050582469382399 0.0084460575925068386 -0.058219465028900914 0.20716397319259078 -0.17307320371354923 0.013010176621478142 0.22168451857010493 0.17878647864999497 -0.16176493877637546 0.20103158708221414 -0.20045693454359878 0.12046144786550253 0.11412241137348209 0.024653995742232815 0.05772222405827826 -0.068359953998354817 0.18988444994798151 -0.17890151790181688 -0.17833773735510805 0.070418557263832005 0.14130749960885103 -0.11730665157738711 -0.087457667712809661 -0.0026995379140714515 0.09037446685045343 0.16580612537940784 0.047891843711322775 0.086844133882235414 -0.20367618041719027 -0.092598209673916659 -0.15677027967600879 0.10801618306548399 -0.11993229804023671 0.15511135079209093 0.13952650158051236 0.21658275073840089 0.12913431397603203 0.043562213125415299 0.16897418086208377 -0.026510285009237015 0.13529190126378612 -0.014906292355832285 -0.16681476354078492 -0.074117704291713382 0.014277390649278549 0.22015689793843682 0.058630446120258188 0.025128591737014934 -0.11900568645484487 0.011447237089012172 0.030527751457159961 0.03272424159047084 0.12265432617120921 -0.10719652189324479 0.14449244095547104 0.00075598008338231869 0.16522963274960362 0.029222868757684942 0.20145133827065076 0.16268218577698426 -0.12385538301113767 -0.16955403876994959 0.073039259980045984 0.21891792866944523 -0.16432501762108276 -0.14739585912748909 0.057134677540182317 0.076360230668825441 0.11127288260982614 0.091764352247696621 -0.033600801107512603 0.079156065390425329 -0.12876617664269077 0.0034618705090181836 0.10389888715756231 0.12045648230384759 -0.12308319820322808 0.17462623597090768 0.028952674534328128 0.17833171748625329 -0.054699433424920299 0.0043973496487702927 0.16651928866486848 0.13368066679069765 0.055707703231690886 0.10344793393499163 0.15964123079610248 0.16800768056908869 -0.025785171117694777 -0.15324599860143279 0.15252835130703243 0.17322997529988246 0.096773566616317697 0.15793661785815777 0.046815151238574236 0.13575267377511716 -0.19078199597483111 0.10899802635884943 0.10048943842338651 -0.026267385221608371 -0.19287097592684199 0.22098381661723426 -0.016888138090501052 0.040329970683437126 -0.058446200514703374 0.10656914313503639 -0.18962118024721744 -0.15606632556725025 0.18525675949057824 0.10616802134961562 0.22925579983602945 0.19993298268077522 -0.070504984940536794 -0.16067564176925533 0.056710828358833079 -0.088297989978125616 -0.095062949596585108 0.055437718131672357;-0.17360687553214843 -0.12469833768491953 -0.19564727509178254 0.087674594928940974 -0.043614453317143011 0.04063472175277455 -0.20500482903577313 0.14861519453659749 0.11549826351287371 -0.17594723099890269 0.14057647334833986 -0.1287424014135401 0.091605939198279362 0.15078548214286888 -0.15133625316323623 -0.1163475444753239 0.19795317221454142 0.015970880857575712 -0.14238032523715083 -0.1412976976316353 -0.15061652775329426 -0.10578193445393354 0.15941019105622373 0.071667673145925884 0.086647388384065369 -0.085073234442140475 0.097814291367710762 0.16768628528620314 0.13908442292822976 0.18461857790228739 0.083079033764814209 -0.054854876055076413 -0.11364975621927423 -0.077016585605074225 0.10110786801378988 -0.14920480985705767 -0.16430781737955244 -0.00037789705441840216 -0.19244744124282476 0.061964223853553171 -0.085633251244539896 -0.15208159792206116 -0.14018642290345032 0.14818942650040276 0.0741186381958574 -0.17810149937322059 -0.100316860067503 0.0465405594890448 0.19480632044343163 0.013971244615748854 0.051997455118171575 -0.12652139538203697 -0.16732858405425036 -0.040439518699347116 0.0832371762888965 0.17147947947825032 -0.094501501516329633 -0.078754878773231576 -0.20553404880352469 -0.10194902825593637 -0.03928299312446009 0.025658817108102618 -0.063705405253156461 0.118685505835452 -0.15632439521819383 -0.12883244179872061 -0.1542363556967786 0.057038659060157995 0.045153521763539047 -0.13547170006530518 -0.19893033787451461 -0.12892435244447722 0.070026137045398867 -0.012592609385301335 -0.070220612163281862 0.022221010107592878 -0.1333366753103612 -0.086214808144789115 -0.039526120164472045 -0.18183062606330644 0.036552937586484563 -0.019173218741209332 0.091212142953379691 -0.19474194874813588 0.076288534883546713 -0.036052457038799259 -0.095743272025289483 -0.0015030661751895325 -0.20239909354143298 -0.021105216351803315 -0.14495782137770089 -0.040553449151230325 -0.16249723771326935 -0.070637323119840917 -0.058322308505909914 0.073317859559979437 0.18301181840328254 -0.15643065445238102 0.12920000901173018 -0.1429119800902148 0.10033758162003271 0.15051636169811489 0.13498816259980145 0.015925557428687974 0.071125165935773935 -0.032429499939328893 -0.19408494418367944 0.0312448029888064 0.12341901616542965 -0.17925764046852466 0.095507444050252716 -0.12811785122197156 -0.15233568841678632 0.043010324735043612 -0.16041319000316065 -0.19814038927851119 0.0053716725761081881 -0.18004594623208267 0.15321990949250042 -0.11415115716391762 -0.033575594345940922 -0.063089625471118169 0.072433817463477851 -0.095615414674696822 0.097555108603868221 0.049005636394069935 -0.17498389533258957 0.19458085335490699 0.1892525593572936 0.17912198915531161 0.097719326385735231 0.20447870820865133 -0.12290821407771864 0.0018527879921381573 -0.20143288006416182;0.14772224436850745 0.0012093769263045696 0.09536319936551442 -0.042961022685549827 -0.19082200077207292 0.18193412951981414 0.12742001699196151 0.15799090624481504 0.068147164676127095 0.19097400760766389 0.07591038894443021 0.030485677906755021 -0.046253703326046322 -0.14069492793197239 0.2009518690479179 0.19128783806247479 -0.058918659832085551 0.13485824800265486 0.0067650268871282731 0.140200631865387 0.11128849383351569 -0.12528324269951296 -0.18380950052728615 -0.12071081072425124 -0.10131647509599756 0.018177117157594892 -0.19183973515880573 0.038561151127238402 -0.19374326272979189 -0.1530167615751292 0.015246965057232212 -0.19202008578111313 0.013288901828825838 0.11497539705725238 0.22301462579714901 -0.022603047708800832 0.1181055501161411 0.16481086442226212 0.18002193350331172 0.078412886215742689 0.21149724298351127 0.025272821614741037 0.1645888692295448 0.037640515504489123 -0.13287468145901105 0.15827027645564662 -0.14766907167742321 -0.20542254637036747 -0.032012736943553922 0.16861685174910285 -0.044108671692661548 0.13081594472250099 -0.053510219932591543 0.052375313117125205 -0.10904514495787906 -0.098973530611534577 0.048395527139455718 0.015385205422526117 0.079988917242349314 0.005133795701151864 0.10412011745943077 -0.095712768115924274 0.075626813216550209 -0.045241235069447119 0.13020978255121674 0.19930445912013045 0.0208294819732231 0.031629926390579884 0.02825875495007733 -0.20171027994056082 0.14368781339861306 -0.053683074716467001 0.14630598248331636 0.12408827843399989 -0.13857201024615426 0.16132945643345589 -0.17082275518414775 -0.15679230774612402 -0.13460255257037582 -0.14165950190403737 -0.060776867307531089 0.20798282172250102 -0.17885614370681113 -0.0057194270840277136 0.17237916728641298 -0.11789409324368336 0.0074119619607838317 -0.1858979774974609 0.10257196105041784 0.18566076390088593 -0.12921110155493545 -0.17193740721647099 -0.07166156732604323 0.11053256393866193 0.081357240312321943 0.018865354820254424 -0.17191207767440567 -0.15347986859197404 0.077309895656490393 -0.2115863281212618 -0.0035526322744727609 -0.1770313630210168 -0.13752630038886865 -0.013837927285835537 0.080324804808719549 -0.18027730457804877 -0.12389152164087756 -0.12116588331521957 -0.17402266711062783 0.029177179100343745 0.071905285552913561 0.094681352142196057 -0.064939494921356047 0.17071663769259499 0.08199276734931589 0.087599403958706482 0.1880039675458248 -0.0013483600791115498 0.00047692541411870461 -0.014400222748382718 -0.0065378448331745937 0.074538928213556357 0.14381501928878868 -0.11991313464724321 0.08726438916195503 -0.12430528209560815 0.080642667204771784 0.086776832350482322 -0.080857652473361991 -0.18008370077887456 -0.074902480617106498 -0.10027865852782622 -0.070342571251794175 -0.15874132315232306 0.15517975816295354;0.20037336536174613 0.18070538958458982 0.19620125055768925 -0.040559421163751865 -0.01998022155644813 -0.18754145151206739 -0.21218311729413411 0.045398580535610501 0.21733774002223727 0.029501510806629685 0.040635299267992413 -0.037277221257179485 -0.21038259826267122 0.021257655579631926 0.14085967294107327 -0.13362548862019336 -0.0053042396909529447 0.011367796336380992 0.14058415008147435 -0.15232559189554423 -0.17698088969683962 0.048309877522213801 -0.18993557239706377 -0.1554743071482145 -0.16850755656870225 -0.054437353368253311 0.072000536999372269 -0.16295860384830207 -0.1443144822181392 0.074914107630932203 0.030852506108971868 0.12189568007453852 0.067163940643958989 -0.13873843544357689 0.03128780700361198 0.14399037132351972 -0.057502908740193717 0.0066729270090258525 0.16250737659400938 -0.23016680230097031 -0.17607279358211467 0.19020865627375788 0.058580217892503041 0.21003535455331748 -0.032033817455256901 0.12739561759362139 0.035106183747696133 -0.080810780488438566 -0.1458363859553469 0.046801942002621041 -0.0033844404302437311 0.012355965786657722 0.018960387206182143 -0.14890123947277423 0.083209617417585466 0.1674642580150961 -0.030995453295307243 -0.13509652880703152 0.13231386896567676 0.1676821085343671 0.058969810248273101 0.092848078096699246 -0.20407371695382764 -0.18737574266289375 0.016071055709728287 0.062441646629166098 -0.11864689186031875 0.031221583041115719 -0.16066206541852696 0.19218478390011348 0.014532865117345384 -0.047305713191675508 0.086861255533387666 0.2378721122277534 0.16875005456071651 -0.086139631251642632 -0.14245904885308133 -0.13805522751954108 -0.0030030842534168639 -0.030660462849185208 0.23501848827113589 0.029093646439481213 0.032772465111123764 -0.023531475566046994 -0.22150098516667299 -0.13438955086930027 0.035847098806920052 0.0065737664768053157 -0.027246952976065827 0.15392339241736588 0.20161565811062737 -0.020948862021659787 -0.15620602142561513 0.064985188022594995 0.068874577904205536 -0.023779122047199723 0.10828865376781344 0.19153495464790157 -0.10131636165072934 0.14029072884755431 0.14375505944367611 0.03283625165147671 -0.046298823125244096 -0.15754820804191774 -0.16021658326227403 0.11004286492035652 -0.1366196350431074 -0.088239621317097547 0.20400415920418774 0.22168119673881734 0.14422319204963499 0.15576501236864276 0.041515441697700675 -0.0033953259703688615 0.13158088521717259 -0.034621017828446454 -0.02643994579980867 -0.010528075580966087 -0.15653096760880114 0.085274360519114856 0.15461072535013681 0.060481766971291276 0.06365734604030221 0.087868835904839723 -0.046123658729478205 0.10158134119385877 -0.080246157315293873 -0.15260791035465729 -0.11142410528156095 -0.099066586039432677 0.066173551227543453 0.042194526721387023 0.047787763589501348 -0.16998693693966158 0.11991183125626959;0.13354861280044009 -0.13296897879400135 0.030544829819711891 0.039773538359771494 0.2158317943095942 0.095015961154109652 0.10790125633497018 -0.10535970433435848 0.20537479083633031 -0.095433424816352558 0.20217933968334229 0.13297466040258854 0.06134698280672863 0.093997860085069426 -0.15524928559595397 0.071401644761985433 0.16323241897895657 -0.12973308641419418 -0.033349186185780082 0.13938990089566639 0.085141283614807953 0.1687483462560779 0.070673471519669975 0.10111752780950632 0.11153065079637577 0.13902472933233267 -0.1791446469942676 -0.084060274822730277 0.0047019586344224538 0.12887615547397099 -0.12232823006650427 0.22018439605845197 -0.1945429855013224 -0.08565306996900271 0.0437612098500723 -0.036749909824002648 -0.20197302404078307 0.20432141069610174 0.16687010292065466 0.094503732590551628 -0.028037761337372968 -0.064658751363289496 -0.16987669811902201 -0.06710254189781166 0.047670374387442552 -0.079323486364691109 -0.1299251689257126 -0.00085456442433969396 0.16832043899946939 -0.072467027963908817 -0.20875410047107618 0.0040189651599723984 -0.21274091381383461 -0.049707094563769962 -0.13205055594297904 -0.18559152056613323 -0.05263827946835848 -0.21096138726232086 0.18241306754895367 0.22274431854947307 0.033097762618016786 0.058087745981349276 0.16413516342187714 -0.02771328056012403 -0.11541457216075021 0.027826738693687004 0.15727933278247461 0.18494707499529944 0.036279548126260573 -0.048132390187125597 0.0082950466073422567 0.13619771053505114 0.12018606887681667 0.023755647045814263 -0.01436305793766666 -0.11420084240884046 -0.14820072283907823 0.13684406865381779 -0.20515170593753604 0.0051327976519990291 0.06483214805834199 -0.1061345433864368 -0.20682550278070125 -0.18888855773649041 -0.18923666437273282 -0.093498048413991938 0.10235673694334363 -0.020512118736416018 0.21959525803538887 0.21647697324926463 0.12952487271133251 0.010544363586209495 -0.10760466092539074 -0.072859807694179768 0.14036587999923822 -0.038565430944215252 -0.030155821473533503 -0.0034721101524196225 -0.20419036884491748 -0.066704090669311294 0.030651265023004956 -0.081457893772674816 0.17535493082624273 -0.049807320409949216 0.051599138805635665 0.0039353262609441251 0.11618355856082103 0.17332943679304591 -0.16556127484553318 -0.16719443634137973 0.13566656202476129 -0.18368137527372588 -0.15528193803563353 -0.099701369925404418 -0.091293121296686555 0.20226420286480523 -0.031513405465607235 0.16165393566290748 0.03320245719830818 -0.094712536931387675 -0.01300309828543081 -0.034547406718297223 -0.088211821530926715 -0.17257525465052651 0.11797301516205808 0.093475889562968234 -0.025062061228501298 0.14072781348138691 -0.062651902319670785 0.0097319532033612339 -0.0072074586568301674 -0.084594223004747018 -0.0078164788245915252 0.0041474776657062394 -0.1644277832656153;-0.15791692109239588 -0.20933999443590787 0.13556415715917033 -0.1992514497245419 0.12861083270033585 -0.0046678493447953728 -0.067081319592584371 -0.054046792512572932 0.10391485923078954 -0.20123376568551041 0.16434117932195993 -0.18016170148704339 0.061181438523402229 -0.11601932161686943 0.095714644416016251 -0.0075841413722897337 -0.17578595617221729 0.11474526697995348 -0.13915693443736349 0.132391432665451 0.17010273428382727 0.096548799051541373 -0.14142222811919439 -0.17040299572027773 0.13381835038609108 0.0078578092448873919 -0.17050409126096924 -0.1011761825957206 0.072175443403268771 0.1678000005567315 0.082038839871791489 0.034729279434339476 0.18197336996062621 -0.092547925698650099 -0.1461586956723907 0.10358005621002603 -0.17954388957169568 -0.18026298589462947 0.10387157051431516 -0.00714064286254424 -0.17732378709706353 -0.073413601242213841 0.20348599622184491 -0.077901275228210096 -0.047910018516011496 0.096699805916314829 -0.16984728533541738 -0.14168667451958197 0.20144161970746591 0.077825737762599781 -0.028734943311482124 0.025358690550262918 0.18739891706256745 -0.15026713918800752 -0.025135416644259379 0.055581981617639768 -0.19042145548149012 0.1890675933158581 -0.062400182107556205 0.044896927456965469 0.13323520189728488 0.086530488958155835 -0.071195754381827472 0.12071544479044852 0.1380250864691116 0.061281888769414955 0.17707556632421453 -0.20648905237271578 -0.013082248046713195 -0.15534686169731032 -0.1173743295779317 -0.061195838296579416 0.15142326261423961 -0.020551183899187132 0.023189035832364938 0.095762032898578472 0.0080334941827960877 -0.11757994318996115 0.11970675347577218 0.16458457197365953 -0.025115157805747572 0.11490247524444211 -0.16141943753281682 0.025296154147788824 0.012165122687232736 -0.093766994871491594 -0.072710309928353006 -0.13080637323252844 -0.12828310782392094 0.1478102980570706 -0.03625337498249144 0.082657994207219199 0.19722447205369392 -0.057103792095489207 -0.14590679731207098 -0.11698574369045819 -0.047066687665969213 -0.13016680455073537 0.050386834281349532 -0.1577074976693203 0.11148337727943135 0.18062224073554556 -0.045194926703892253 0.0062144282411523855 -0.062406810061996221 0.18067705461976941 -0.19441656700696 0.00024301674122659766 0.010382014163943297 0.024971947931050578 -0.06841355152114155 0.18737546033125413 0.022985290731853798 -0.1378574991961975 0.11523085940646227 0.041174174981816136 -0.0029977186952252011 -0.082780827184894865 -0.052487027551630989 0.080530277926425392 -0.11318364262985886 0.12416590686903013 -0.19276905822559501 -0.1141709118520384 0.086516607219788738 0.18730401012644388 0.12918610684340234 0.09584840011173984 0.11605528256980666 0.21403109944735493 0.10263620040262827 0.1758271233562812 -0.11964414262473895 0.19560582080165681 0.16425927645724814;-0.12036174152983579 -0.13269223035818375 -0.058509520820759234 0.10100549949903695 0.0078098512733560188 -0.058420844146901338 -0.14914531992987265 0.0036664884942795707 -0.16527317227973415 -0.016289608450564968 -0.17609961563102369 -0.1944858365564181 0.11129031979350011 0.11220563812305588 -0.10411170303954072 0.16328017258019067 0.17513099135245561 0.17103698203078782 0.091074086654685027 -0.11909283415659783 -0.15041452818390075 0.17094671980667472 -0.025032541486820103 0.02792824200440229 -0.086360799539101488 -0.15080452423055496 0.0095577645057247623 -0.17964135237649873 -0.15237168279483262 0.0026144287759275507 -0.056642160563078497 -0.13756743290567128 0.11024986243552209 0.09642712159247642 0.048572996984760988 -0.076291537580714636 -0.19442424318426788 -0.060407600501345679 0.040520520703490263 -0.16131322542759671 0.14263481248884913 0.028846520989402904 -0.1132981273914201 0.094601227848129688 0.044466532669327256 0.1586861613260937 -0.091565367320730395 0.040555059010647772 0.15801844634459647 -0.18664198126020695 -0.15122223210652883 -0.071738381165403417 -0.02683577175384325 -0.067483840960482044 0.069675443469505258 0.15610273073841596 -0.0023266988285016743 0.017070910061318331 0.013947008228416179 -0.20841056186086432 -0.14858898689345132 0.044510888274356085 0.17295166255499847 -0.081422120724577926 -0.16943050006862426 0.20470177377489654 0.0377453231539586 -0.1295238885992612 -0.10417263792238667 0.14016296082020138 -0.13958772172155831 0.016274590957947969 -0.093487877284950949 0.15014327284805551 0.073356296041954899 -0.15189628781297296 -0.0038520740401574078 -0.19208146786829683 0.061197855046316876 -0.094811314830482898 0.093364146683930352 0.17868925141069203 -0.17357701257709846 0.14664175102814356 -0.054738152799543478 -0.037092366001563709 0.2040859385568724 -0.16006332290213321 -0.15266314758306498 -0.13399243248301035 -0.11341952884071088 -0.1989256141643243 0.19581740057698693 -0.069881268582785705 -0.14745928049845025 -0.081925933103173809 0.17956241215449101 -0.11007213087814754 0.064401345668273893 0.024792266110511021 0.049425656124891477 -0.0465083788078305 0.036109328172885438 0.19805286272983685 -0.053413738820292489 0.021876034006593739 -0.12453160135543165 0.11588757819714848 -0.1681794712432835 -0.15627483420507318 -0.21838829824756936 0.056907135522813519 -0.031634648278522151 0.14696640972117681 -0.0028184520968690579 -0.031037350054070649 0.15131141710075427 -0.20157606112007889 0.047125126675725867 0.18446171758804508 -0.086110152110988533 0.086192927367238409 0.13968549765947852 -0.163196550347005 0.048138338843663982 -0.21481735917236519 -0.073032158533783254 0.19036762343330993 0.13285667469731033 -0.13413314328215159 0.060809965003647173 -0.17624261453665668 0.149558599288102 -0.1495802823217236 -0.073233534302869718;0.097461196537053679 0.024534802192165181 -0.068091711201353364 -0.04202566979358803 0.13761591516374194 0.22561933579153337 0.15063594019711732 -0.18833456274917412 0.0041429690592541023 0.19223971875924778 -0.013376769566979555 0.16408408306084502 0.11052840111240968 0.040462279979241768 -0.14801750545350048 -0.217879473563756 0.016952075809508006 0.043575870638476816 -0.10698681362646005 -0.16525173656943007 0.20433374862721912 0.13605669700471268 0.045138453010343492 0.030423277621176102 0.12177242001149946 0.17123317293886658 0.11943470844742587 -0.13408684586002217 -0.037882794544618778 -0.031499254220256262 0.077235994693506976 0.12380353610789016 -0.029378850392163341 -0.14478448482886203 0.029876240890716773 -0.0520999367030726 0.031821627038617656 0.049434291560794617 -0.11224010301409106 -0.018853326199923498 0.17440948446056223 0.097510472389222821 0.018013751741942936 -0.13972767246421697 -0.18968466280713039 -0.18776850570098244 -0.10443976532876727 0.016947754587029032 -0.19335105159312421 -0.080390580630748942 0.0014154565156048243 -0.036299921879632206 0.21611391427215587 0.0076132558399021289 -0.12671254291760875 -0.15361624428070142 0.068091045762998972 -0.16603560455899541 0.076171707410692777 0.19005125643900564 -0.093987933625607381 -0.011667730134441718 -0.091920298788587512 0.10616311504286433 0.2233911109898522 0.15273823493737046 -0.062570914154744153 0.044653854962613336 0.22520943148702782 0.15865934780159108 0.19017623652766646 -0.022279303954461885 -0.12978542681371569 0.11093044746231856 0.14016401838095685 0.045558369988301262 0.037658993178971263 -0.11111230818403946 0.021828532556152459 0.042488741101329212 -0.094401766431306475 -0.03200698613402618 -0.14277177837959637 0.20864001691048842 0.025647848691663963 -0.19083033892694271 -0.061497785040800806 -0.1443682657554852 0.13754068448713169 -0.059312296188221078 -0.035704578805039237 -0.10841199683286737 0.14738461166600739 -0.0047539901255737108 0.034625834348981574 0.076726023515613334 0.019950357917942783 0.095339886907233787 -0.026617301988424436 -0.1181886724934276 0.13795433027423534 -0.19110153309619887 -0.071693945357918565 -0.017460686320570566 -0.1214500290845268 -0.11585830598965063 0.21222156949067711 0.18098907535515721 -0.1744196979202377 -0.15656881884990276 0.032165253002442287 -0.07406411048468356 -0.042578592630131175 0.18732230884925977 -0.13446478822685926 -0.048943470950408081 0.19367903830556851 0.028394393083225937 -0.18150366331389683 -0.0074627604954678167 -0.19922084278423549 0.21013629701689848 -0.1754215901482245 0.1323219372615474 -0.066901525225852271 -0.15063046392214377 -0.040625837775439599 -0.16171193077837412 0.20980586079752248 -0.13507330613076568 -0.074830913494574436 0.0048978502632177328 -0.11766244698612227 0.21087223894752558 -0.13320917607469987;-0.061905094311434802 0.017247529233835952 0.075514584131058562 0.10734920708945954 -0.014160119086593032 0.19816003987456174 0.10880685734228106 -0.065887380594893075 -0.17341935456645566 0.06639023423128361 -0.078971082555468849 -0.16665452968637051 0.069738018741253321 0.21450335507770246 -0.11941502403827239 -0.029425298234414171 -0.06729376847691787 0.042020425811194639 -0.062310861851022491 0.032004152672085229 0.18968963767165567 -0.21586606160446836 -0.074027572522074953 -0.12558497711682753 -0.037529117176821829 -0.18722830220327033 -0.097514943450466532 -0.094043009628243718 0.18565690586223482 0.10625087655970521 0.19926741391883068 0.21709405574354146 0.058315386959244972 0.0067696359412565323 -0.091651584236969938 0.049520058172551923 0.10622195157994717 -0.12219186215644616 -0.10733164160103559 -0.063700082029809119 -0.11805397354901265 0.0499372828328958 -0.21509533106549694 0.21529177628049892 0.0015738058538821514 0.065422493049918817 0.045763652861178117 0.12218062254163528 -0.1332072219344782 0.039690387243446722 0.13726406247480086 0.17206591477333805 -0.11635200257539648 0.028767098479038376 0.11642299501257004 0.18174181423214963 0.19211028442566652 -0.023022176666214214 -0.14126500752296908 0.12423148048464605 -0.056056214933638451 0.097122751195732757 -0.1821888466376213 -0.17487195535334055 0.11035701576382773 0.17637784108354312 0.2129294769858866 0.10283671810840853 -0.12491233397481584 0.11494018253865261 0.19103825898430091 0.20611667012197982 -0.067165200318194604 -0.060791324261557318 0.13278441507389835 0.078425645100655805 -0.027388924734784575 0.18505460917345667 -0.16107469059348775 0.21088745792714178 0.14604031564430864 0.18519982896251214 -0.080215743150440694 0.020310272526308987 0.085111056187956016 -0.034932351299035769 -0.14151701078035972 0.19245389184063538 0.1989331166063936 0.15253158339532341 -0.03247597881847783 0.14036931657944621 0.1844027520552789 0.15899411112387851 0.029032082576393406 0.09871686126683818 -0.12340853869785723 0.11300719780633604 0.16766705757508185 0.065825635027877069 0.016518690378870327 -0.11256023399760028 -0.09791156937312534 0.13134231578546907 0.14571736948259531 0.080152610130953983 -0.10503211512788493 0.092398002187608214 0.023019479719338206 0.12600674583558086 -0.10874955042277845 0.02305629383106967 0.026420277056261657 -0.12257429627892896 0.11057029585939722 -0.20763983805168471 -0.019164067642002538 0.044608159191380024 0.0780225076390587 -0.10112989263382216 0.13129878694590941 0.16029948860208756 -0.0025907229240779207 0.03079231787982338 0.018048759718953842 0.06563323932668412 0.15570230392047479 0.10528377390010676 -0.10750941367697726 -0.15601871243183879 0.17721191288981106 0.13002291061317889 0.089478051999579589 0.12022080025617905 0.12618866954059718;0.16810137075636949 0.108520114751986 -0.18920508555639237 -0.070141445448236001 0.037193172150218987 0.006123086062099649 -0.16017417577077978 0.12919472620303379 -0.053576536868574998 0.02168162973362563 -0.15957987483047542 0.1945867510336497 -0.094934726535143746 0.16577641725379066 0.13697360041240092 -0.034293516940542841 -0.0040568019799905267 0.05241078848517159 -0.043753124379439214 0.14147593952609339 -0.02599825625131949 -0.071791626816115436 -0.060805154651384974 0.072808094831339834 0.16619550689031135 0.015860561537070345 0.20869317566659393 0.20951719400766031 0.1974608950815841 -0.018890742753334043 0.08821269838862901 -0.075037992628130504 0.02844914603754781 -0.12737104128783411 0.067356597996461626 0.18905634225304574 -0.17620331255361132 0.075379168549609812 -0.20893120796223624 0.19073193028430002 -0.0090492325953611518 0.18445107470943356 0.033872309590996658 -0.097382240993473049 0.017942743821557795 0.13820448210460301 -0.0093049475025702225 -0.15300922674457881 0.14137951904358348 -0.13965631183518201 0.02048807871133233 0.15664432999723837 -0.05665620111402532 0.03017715779343982 -0.18596373167567956 0.044855900629723632 0.10571777051983147 0.10623443998662847 0.20724475826630831 0.0040052808289565926 -0.16966182489465059 0.20726384568626208 -0.092244120262757648 -0.13990507322591594 0.0079600347049824244 0.02568811685199586 0.077320176779876321 0.011366636020999032 -0.10648067932553217 0.16629466653540687 0.024001749806036924 0.08473527425486109 0.18164571479769751 0.18773102149565227 0.18575472437370691 0.18818708249461488 -0.034786914958201527 -0.085154137664652491 -0.096899995823231957 0.18547854396674923 -0.016899706845760632 0.073565502429297019 0.12891628070391017 0.1202827929121747 -0.069282984807253686 -0.19073478223535506 0.12516432797955696 0.02029441255766087 0.18018786721506572 -0.1845749294349793 -0.18260188635070101 -0.011443352321614354 0.078306527792889991 0.19364089953932576 0.16013689271381523 -0.20213998870534597 -0.091847366673995748 -0.0061332767694020508 -0.0074336528513275629 -0.036436396777542714 -0.10708727576062223 0.1060663262352633 -0.060453041463761098 0.16940257880290271 0.18971711765755694 -0.09362002198821591 -0.048567084021739239 -0.004207415622640486 0.1784938217043299 0.16922758571389168 -0.059040567948412184 -0.17712353939607384 0.15165400191005812 0.18962280552482719 0.19676298289397395 -0.13891424210413694 0.063054902434765844 -0.054557781913634425 0.11788241589034584 0.12333936599975072 0.18371977736693898 0.048097621715516826 0.056519253042127855 -0.076610901432991416 -0.12112759182435921 0.11781701616536994 0.17273560696634147 -0.050003207787491802 0.13611338808328621 -0.09520591651442159 -0.004002426314269638 0.13923981234428637 0.068977103660611369 0.20484914012436173 0.014509371844373261;0.055836903225437697 0.062567802350496637 -0.066038034940811216 -0.13930164167510434 0.21062040193186837 0.077606544514656844 0.19470356754614127 -0.0011593942734784337 -0.17328922509521877 0.11616987636810219 -0.073858803049023924 0.053836500816094861 0.067065101299675647 0.11154165141744758 -0.11988372366608778 -0.18717394440182414 0.088453649439433013 0.069850832837516849 -0.15145349850620352 0.075002332452210843 -0.09954783781386442 -0.18320023305281338 0.19895321748066733 -0.012902918913975124 0.11910823344787871 0.056246718048388634 0.040495740572723857 0.20064496185997716 0.11033150835096633 0.036571103420003165 0.043908647708815765 0.10241447168233839 -0.055210925326953042 -0.14110096577461231 0.20876956683914527 -0.12855040496263523 -0.18064584840074288 0.071952659346456643 -0.060318662473538127 -0.10420804666719725 0.060026236391305124 -0.063323704597719868 -0.025041505249905102 -0.1442148133254138 0.1907318239244308 -0.16425294000627175 0.18163123634017414 -0.058300956490074815 -0.07310404318107136 -0.11893371910459603 -0.18531775392551955 0.17732621826986544 -0.097282140214965632 0.13271033113572614 -0.1965313234858711 -0.18839800346067453 0.16824687778946551 0.012990146395511859 -0.20610487203037423 0.11329501538343674 0.099414262697749112 0.01647718679942357 -0.075983076210533448 0.1768708754392051 -0.0077353905487952583 -0.071097249333152077 -0.13582718498061017 0.19363640013322928 0.19570615535049962 0.081168739614075253 0.054207629846265822 0.11296109828151769 -0.051764811824764327 0.07729268038164426 0.090532142356296169 0.12017579630672515 0.12700737806570164 0.014773271094259636 0.19360612483995202 0.019650605588826704 0.10534873848944058 0.17830840860265842 0.20072556718989398 -0.1877316849954099 0.19776415984549353 0.18544497137964866 -0.17998810370406765 -0.17339543693780476 0.11481300769719067 0.13126682878962626 0.1269721669353796 -0.049666224747227407 0.067565299991923303 0.024740713675891226 0.04305012765957323 -0.054911724931645485 -0.094587093241385312 0.1796006478167986 -0.002494754255276573 -0.037347565547830461 0.16767178421522899 0.16885866103311586 0.052040664339424579 0.14063810928657591 0.17130346964566229 0.1494499314488153 -0.18127266056852756 -0.035176944126145485 -0.18614917351825733 -0.0849566269528826 -0.030234343770832565 -0.10804091277203719 0.14777306684054883 0.017838657549478523 -0.11106244280954827 -0.037551180538358229 0.11719355261535773 -0.014761889512555222 0.13656002755487545 -0.027644274965240873 -0.0017553988178417382 0.19835545929492743 0.096627390150701903 0.052692486865124906 -0.13952099347641764 -0.1837600092873288 0.11888900895542033 0.00019855978554347647 0.1129041667306095 0.095725091128339393 -0.15890255401073267 -0.04613952698505 -0.11590119908389752 0.17846905951864134 -0.074038870835200749;-0.088548077134141853 0.066943554478062592 0.17143902801546701 0.058899446144578343 0.092596207158556793 -0.21339120285153546 -0.054217520073204302 -0.11341503002421835 0.1727862564637043 -0.06428620069673531 -0.067707777064928684 -0.11793440160139773 0.13170404671066238 0.16856477367612849 0.15234666284777854 0.19919109619127012 -0.13481285066040341 -0.17200238507183921 0.21375771229166593 -0.11110550296364567 -0.20211152975667557 0.079372343802579556 -0.17521511738515985 -0.033480585829763591 -0.10558016414816838 0.16156697280441495 0.16268826043836138 -0.0015132448392847014 -0.20630488095983496 -0.10415095556085759 -0.15257817667979143 0.092246558138822071 -0.13833496744255291 0.10626132539679051 -0.019553271776141794 -0.16791866061194047 0.050428627654478288 0.087137231449432265 0.11052506851267888 0.1155566231795473 -0.063401554691299447 -0.052422954956577554 -0.14891905035726904 0.086725035599566791 0.1785767237654553 -0.18712906035949478 -0.054653290617966963 -0.16229166896854536 0.17646894615436196 0.1502070527936252 -0.10308179278356962 0.032910070988234383 -0.23311333929846292 0.13279668819685292 0.23010955440791808 -0.22754230776269557 -0.039574367948158079 0.2017166836788965 -0.15517008141106192 0.032496330026032562 -0.067998463384442598 0.11291163372190491 0.037382975761157955 0.13923622002971595 -0.11202616517457414 -0.050931186326229658 -0.10785279622809692 0.21163428985906577 0.08840455034857303 0.076299332703370012 0.050307267959560462 -0.17388509705779706 0.0082956604289353905 -0.20108757546457123 0.085309949958042405 -0.16005174056509541 -0.053380992263491245 0.20071616523630512 0.0020376917011080092 0.106941614571439 0.019852511636131373 0.092990746937919533 -0.059089176165122478 -0.16882486709145347 0.053895675587904486 0.19639615404083374 0.10450767044583098 0.1275866642787877 -0.021620479359719842 0.071952942184910135 -0.20527413420705942 -0.017063104787240237 -0.031182342420514025 0.18588002659885031 0.023220696147140073 -0.086758374088080459 -0.18109286032108771 0.071212838862316608 0.15048380463326927 0.10144984856359351 0.17746463075719557 0.080649864684930059 -0.011579872525082741 0.0096507371064154298 0.027558014095869627 -0.086266636223671561 -0.12132913982922909 -0.014822671683962072 0.17759834009033315 0.03516063549523607 0.047954398942481491 -0.074765298740441063 0.13295288815930817 0.12839987836060884 -0.22536021921521798 -0.11071235566611495 -0.087208257013064741 0.10409286097700794 0.17201489030715869 0.022070314480284368 0.022611983014356192 -0.017645215339080644 -0.072355564964492664 0.12873863115511081 0.0096385622627480436 0.080921145796484337 -0.13174104519938504 0.025404206477620307 -0.061745058584794427 0.038895607672000919 0.14036837642147365 -0.11334355321360981 0.087524837454460172 0.012615506143919314 -0.059473920821234004;0.14040496240797509 0.093532579630493426 -0.038542766414069 -0.11098105512014397 -0.014279617596955356 -0.0026871070537140135 0.047918127772598122 -0.094346151169069789 0.044546370160526726 0.083462754739669118 0.15710388868876637 0.086975515564901407 -0.091157437396238827 -0.07625960184836432 0.11508227662156997 0.20375721067303498 0.027513999827671443 -0.10867836535870604 0.20280805461411391 -0.099497885250090068 0.15598221181030272 -0.11497030244841221 0.17381899624788222 -0.013410855081678705 -0.12774031107471395 0.11182906232409036 -0.11404960262632978 0.039381180785297856 -0.033604747908577787 -0.10107841759691062 0.1507732840782465 0.10365425265663347 0.21854809173372583 0.18228862067435417 -0.12917879462472748 -0.017743079036715712 0.17795641500585482 0.12395598885565653 -0.095562886359964544 0.1774491131417871 -0.17936769563250965 -0.071580021090002027 0.18915448030956566 -0.14610831109719805 -0.035609987859992032 0.042796007487353481 0.049252857082675357 -0.0046186807089134549 -0.16184051301872956 0.16644477726828003 -0.19608455883300197 -0.13803236738423175 -0.18845704373403077 0.0031292363228608419 0.084931549822805777 -0.16362342256865664 0.034559107052897373 -0.0464091730955071 -0.013628600762295382 -0.033645486282486231 0.041690241909692893 0.21627918715883487 0.036445878010690741 0.12228843623789691 0.20379628074264414 -0.1021679317965408 0.10364322550829157 0.13138074366200125 0.0056524168198936308 -0.02800271872984008 -0.091000897932341437 0.14519344166481438 -0.037870503502501228 0.18441013315123567 -0.13393260568606727 0.11355507071156756 0.034467424465632654 0.0094798474774797341 -0.00096606822491462452 0.1793455277348151 0.029552392051997469 0.040209612469912573 0.18084934818681986 -0.20710099894406636 0.19577912982909709 0.031660781304449999 0.1593587218481084 -0.01062753748146741 -0.19630785369537124 -0.062514216119786428 0.17366488009757228 0.027109994710086672 0.21665961067661094 0.14598811959678726 -0.086177441491573317 -0.16718178648591661 -0.054476046710088023 -0.12100890762937881 -0.081161120989959826 0.18384014148722225 0.0390782179053904 -0.093098292370688757 0.070883560938470883 0.11761009856235964 -0.033169061700019889 0.06201514982128787 0.15123963090080922 0.029443406355742264 -0.0041057498296895737 -0.21078598629100997 0.15246468683867126 0.15999707831830803 -0.15347326596974414 0.20570525806295117 -0.17138469705111897 -0.16388842135998588 0.059191237902988726 -0.18297262894196026 0.079892987218179959 -0.1400275235229573 -0.086602535726461635 0.040933937779922179 0.093853764512318263 -0.10555651026536213 -0.083433672568742165 -0.032825465568585836 -0.21211062449987256 -0.16913678218770695 -0.0087194669989487158 -0.14897266400927486 0.17845118426925929 -0.05467995397757483 0.17259927239952233 0.20762684570163362 0.10249979763815559;0.022241646477418608 -0.0086858807109002657 -0.0022290404999713398 -0.1775884279677804 0.052131917675993837 0.01137341237039053 0.034572769473016497 0.14148950813064962 0.20761818900035475 -0.059200065875159337 -0.14133545157262578 0.0052138153748858013 0.14250245934304812 0.099940662750265682 0.1595241285172829 -0.11637467064250077 0.05317118169222089 0.079595863504853454 -0.21541928213168579 -0.098457898103825311 0.037222999083874088 -0.010411454968412887 0.15399543877685989 0.11505051105817253 -0.054418553740279374 -0.055410886652470313 0.14634852860451752 0.10404852861827579 -0.14274823183677088 0.097960940058532245 -0.0038324288742492621 0.077977161697496217 0.087839111134296516 -0.12409192553667052 0.059165104036026171 0.20967170814748093 -0.039582538884518854 0.051698400644684686 -0.22206107277614412 0.18155300107492314 0.089786005550317571 -0.11880369512089307 0.1372799123637862 0.13299996153096533 -0.093672849045952161 0.064726908536545308 -0.18830094662482688 -0.01420772348443225 0.20256687832947104 -0.13962540655243608 -0.066536976475425572 0.079267787678577006 -0.053804455198482926 0.00091216172808464204 0.20010069015176085 0.16278275575027659 0.053828048219563822 -0.15042999547940591 0.025569930028912804 -0.11331790171348681 0.17503627159771706 0.06108242215503841 0.0851169481724416 0.16871605313515736 -0.079945758672403652 -0.15995683872388936 0.025769426867636034 0.10152045458720317 -0.020712531923017308 -0.00031264610275557686 0.17881550803040541 -0.082049346410360616 -0.093097958697784644 -0.13997110822281195 0.1721955366049778 -0.039928516104303861 -0.063818506534233696 0.030631561463815588 -0.09418956989767828 0.19265658880449049 0.17390094846378565 -0.17189700509074923 0.063094683309846314 0.14015980883235596 0.063488346376433788 0.12075960710190745 -0.17569541051036563 0.1832239605943323 0.20530987449308435 -0.040438218860108142 0.17033946808741646 -0.010758546603986755 0.098775435678636683 -0.099828887588768539 -0.060020971768911628 -0.14658386175572277 0.1052493417735381 0.14376496237162231 -0.099314868694337685 0.066570230190444155 -0.19809323411776769 0.13091891326510857 -0.0046673054833618905 -0.21570763456560055 -0.21801028326289237 0.012887437280242288 0.052808334376466204 0.14469667179920701 -0.066723553328173979 -0.086252104069153748 0.16601684370627059 -0.1753157227235233 0.052111630832490027 0.21738263924420026 0.13609875114810763 -0.031031446717508942 -0.14793117404448911 -0.19177082788787631 0.17902137339875035 -0.113751144227725 -0.15714885574737683 -0.05220537644770399 0.014129620742868391 -0.048641776881330222 0.048042635579565708 0.1199822503505464 -0.14979111831089673 -0.18178702883707412 0.20796573218080219 -0.21034492032592095 0.059089666518508339 0.21612300117280323 0.098148073073470787 -0.10460410305650707 -0.054376133588239672;-0.12796289712068154 -0.093155381110112206 -0.061404287211664445 -0.038663861473380724 -0.15993723053038211 -0.083568196054205818 0.20969481106989166 0.039310465420327761 0.17818074056464453 -0.18376319204728081 -0.17280273059120063 0.055897198001579579 -0.18184803714789322 -0.015953065061276379 -0.20350076843359916 -0.054865416189711691 -0.15007111087756217 -0.050814016417024439 0.0041928883889144446 0.097450754581557539 0.033078540169041847 -0.19164562091373799 -0.16321119873656378 -0.058631215821836495 0.12911268130649556 0.14945662138002536 -0.020153696953872001 0.21370249569609284 -0.1034972932406813 -0.21186818192419721 -0.10352404307441289 0.21130842529832314 0.011313139607935712 -0.14271716273564533 0.078899571575104965 0.12684673237040037 0.12151173354062983 0.13358059441446593 -0.20182165043344322 -0.11822360796401725 0.12232645498506406 -0.042326068297074394 0.072224528690430445 0.11370457288936645 -0.21227505287258244 -0.18487552766627083 -0.20468572655548856 0.14718992064862763 -0.11594184666794367 -0.085440309602365636 -0.15478357530183059 -0.061544680345388791 0.025823656922657048 0.089020677930380293 0.16716400946663065 0.010402113511024517 -0.11210043488379952 0.14929250557918841 -0.10597228001475273 -0.12645708740612668 -0.091504972607478918 -0.097710477765683409 -0.15358012118069422 0.17652958445658026 -0.02025825163626498 0.11528643100666275 -0.19854761126413198 -0.14809940166585145 -0.082503029325761215 -0.011783169860781347 -0.20686326276764119 0.017439727497337004 0.096632533324719383 -0.01342528049096732 -0.013356902175832484 -0.059521860706266687 -0.019139953988384417 -0.11967581702917357 -0.077353884057686978 -0.094596333015618678 -0.12266564831335013 0.12307235087853781 -0.17840008803806726 -0.075939049430272618 -0.19068148885347364 -0.090127853232737948 -0.14074265596905744 -0.13160125316137047 -0.14837712321050531 -0.18729757497351016 -0.16850856190426816 -0.13070995869935265 -0.0517581304647423 -0.070220522966620486 0.14096622286025945 -0.025970486923544756 -0.037569066505986987 -0.14242558814274259 0.15594464600103078 -0.073360290530559619 -0.0016144094439768907 -0.11718729650111662 -0.049547542834442085 -0.065354478029056903 -0.19419058675974429 0.092795832921460472 0.10053510685154719 0.0056424599687118857 0.13912131063827102 0.17634702899073898 0.19317418489831317 0.10256518110856876 -0.1396733164582136 -0.056688426900438238 -0.047578036178927904 0.2105803711544601 -0.098204784929989131 0.13591648903488152 0.15678234736610622 0.16700461746412909 -0.11501749424114119 0.13033268033283946 -0.13439257512210626 -0.13074824802417445 -0.0080261451086454487 -0.059947467582344136 -0.10508527946082817 0.020608799313043661 -0.18027175860714229 0.1842382390779812 -0.068874232719265974 -0.028853520850398679 -0.038390653389150105 0.0036494293103801726 -0.072526374993075821;0.15983618507538691 -0.16726435008135881 0.21501755349516422 0.1415866362895612 0.17460589382205446 0.1583801672989453 0.2133564036409803 -0.046235435589803232 0.00061090227733551791 0.18325179490859494 -0.21146743620821024 0.05353451840437836 0.17935288783172013 0.10571381584618542 -0.11464755665512835 0.069920728438671212 0.19908183949991254 0.026778535116422211 -0.13393790088604171 0.11013532064436167 -0.064153834528953096 0.14954898707629036 -0.15235927813289205 0.095468803966645158 -0.11279571098817268 -0.0024052452456147446 -0.19121873900526351 0.19869591596436995 -0.036125144924075259 0.065963387434337481 -0.12970002933173758 -0.025910495535708782 -0.037031679485178305 0.13167721620624831 -0.019182574838330194 -0.14997070794185974 0.0029294291723167012 -0.091630957951453568 0.084713789130515554 -0.072594595159543723 0.081835423758361503 0.19993502911476999 -0.087226665665258468 -0.18084476445213554 -0.064878856389372061 0.20060063938430131 -0.16030296792553295 0.014958046232604097 -0.19592429285172996 -0.065611980664908379 -0.060812340542170634 -0.14064135419852064 -0.11533918410624677 0.016861461557346968 0.20271443572398423 -0.13641639786707013 -0.16150794744616798 -0.14805848012993367 0.21783055811313376 -0.07659281520724677 0.10560754597327708 0.045710632453515226 -0.065848361385934043 0.18855959680862108 0.014981794808116898 0.048647468805527158 0.024749343497253492 0.15359455586779086 0.094220203668736888 0.036329939897154349 -0.14538097135786585 -0.19057912465408003 0.10196962473305148 -0.06010174718355013 0.17922333983052927 0.17549217113305443 -0.045131156413461188 -0.056547559861598408 0.18776072793547258 0.10387171545350424 0.049559877673225984 0.050147294585152935 0.010302757687043852 0.18026482390526669 -0.032302618853656088 -0.17857941694246321 -0.21249818204991117 -0.028043539632792897 -0.15788635886582014 0.14868104008643301 -0.18730548698517002 0.15044348352315839 -0.18375559645518111 -0.14572469523411472 0.0098481981742324816 -0.12441347200854519 -0.11377551108852998 0.18486219501169887 0.15321628702607404 0.096396562956678589 0.11208543826543282 0.021277542809484885 -0.05497778118160887 -0.12538022122368658 0.0093782311848269583 -0.0046664942157981712 -0.15771591796536918 -0.12914970085243263 0.19629037824200399 0.041254497947062915 0.17255059153871014 -0.095420260395052192 -0.015846421749797116 0.011412091508922912 0.031837922043591919 0.021143571197455854 -0.12268099945878908 -0.1087970287520381 0.065798881913595827 -0.15941386838689103 0.024292546797355184 -0.037784735920281066 -0.16612659679152056 0.14099310716939714 0.029253866003939033 -0.13172798835656632 -0.010576205034856095 -0.17746219446375502 0.075939098965399882 0.10799904234799532 0.021464361201094285 0.13919400745093952 0.095278552625178328 -0.0055058888548642805 -0.14643282271622718;-0.12463477336338208 0.019045535775306266 -0.013296845831949939 -0.14998188536892884 -0.14156568951006696 -0.18661276017738904 -0.021257963645946676 -0.16552999894402923 -0.19810790827892535 -0.17651646380569305 0.13383646349502168 0.094966530288807291 0.21335672632352379 0.030978339564630735 -0.041064702091702834 -0.087944228269690283 -0.1218497725138412 -0.13181339596955882 0.15046447602660531 -0.060044454373117319 0.15919939991139095 0.040311498275996081 0.1143109842988808 -0.15197075496356541 0.11838807857667977 -0.15610031909173658 -0.18761865224521762 -0.21877336414470719 -0.11247039338368624 -0.12969448593030336 0.17879999645987579 0.092681511026809119 -0.1257033845521556 0.045608852679961863 -0.17733729356666442 0.128357098414144 -0.10637358254671848 -0.10088247835668769 -0.097199139571899823 -0.21324698022869382 0.090481978401853999 -0.13305797661577337 -0.19549490006568343 0.21384160050351947 0.002376396585779505 -0.17063133951053092 -0.14980561233577586 0.14198547086727042 0.038946550395271687 -0.13719066956900378 -0.1252368114429849 -0.03944105728368829 0.043213622622059543 0.18222018582154839 -0.17561991225026979 -0.17794584737704588 -0.10257908816534744 0.15266829538125176 -0.01973762782936957 -0.057300050145342618 -0.011682631638404101 0.062799568165143635 0.058973837457439698 -0.043098716572486533 0.12696453329036633 -0.1182009330530035 0.20598587856615275 -0.19167742752571654 0.18290844728688072 0.095647335898164848 0.022098113407130228 -0.095601961656970283 -0.014019501284853346 -0.0050295824296378673 0.023413994778555755 -0.019229618021592912 -0.14989533927573082 0.0080313753229478372 0.13702114210740185 -0.043736680997963344 -0.11622425336312335 -0.064765433815627133 -0.1586473316512107 0.19110140777214543 -0.012414938262623009 0.16521539293352164 -0.088400096086221472 0.081390011610637095 0.097283828225964472 -0.08307175624049648 -0.027808542324796372 0.034874032221148543 0.10619035096029826 0.20227670034949422 0.031217942077992885 -0.055518342302155743 0.0238955866634693 0.12402036627374262 0.14563922215293978 -0.12355047721737956 0.17699032693484265 -0.068230347262218896 0.19897473361998749 0.060166813970143625 -0.0014201917822450976 -0.11937580182088391 0.21519992326255202 0.0013767930302566345 0.064929815644492808 0.038917770297848243 -0.16029841459307989 -0.16606078591682413 -0.19529483482159168 0.071862871374009513 -0.15516482035694884 0.0063236374211764895 -0.031707934540089605 -0.1185075800022192 -0.039525545878774548 -0.088942759840154026 0.10155330871305918 -0.098010504302194615 0.06942539617995977 -0.19543447526594748 -0.15335223749584376 0.18264028674636631 -0.053730070590918097 -0.15056841724729769 -0.038126550483246785 0.042770107088845245 -0.17911293587970425 -0.18444141093124 0.19059551989797463 0.0015718785354806952 -0.048622977731028437;0.044606894647784515 0.021402340979191387 0.17576429797201523 -0.11941359169077191 -0.11674686723780828 -0.0025001496961315731 -0.04765021166291919 0.19979770851603618 0.082114943719873282 0.1063232390311491 -0.10716914200231926 -0.18752207978097293 -0.03010962035467021 -0.048159074196252365 -0.032853795159776315 0.18479279451512329 0.13928021391945827 0.11107937030178235 0.1529033158837026 0.17515591469300149 -0.18623389809128554 -0.085249250150795555 -0.14643364011879575 0.0063133880488896281 -0.085071947793097291 -0.023365759358024169 0.129500518596045 0.16967033514488711 -0.13778147797588633 0.066862797031386506 0.12428603447952061 0.15781281599288011 0.11830715698027643 0.12655877926280742 0.21189827493250774 0.070318751740553617 -0.034764444246801703 -0.17284898507194574 -0.17917830894016512 -0.016291488430031649 -0.063419414209193128 0.046638422412578734 -0.16432423173895058 0.080309264568294195 -0.16760761340547037 -0.19649506496701855 -0.0011512671395152957 0.096824065372344961 0.17210627072645765 -0.12418607953220979 -0.097077394263731728 0.12703424616787912 0.16530180301856237 0.17848123080642955 0.16617896441290295 -0.087293969690533685 -0.11167413331601754 0.1403910124665807 -0.17954792544419049 -0.039984050068702578 -0.03763914011630972 0.17237488334768444 0.14546079381948937 -0.09003620027711122 -0.036060319529396437 -0.0046579192152292025 0.084611182618829286 0.057178245203961649 -0.022257298613388942 0.0086481126807526464 -0.16511928273875251 -0.069169591021507243 -0.055761704980321368 -0.19924015249578178 -0.15367445614081779 -0.13326481074544863 -0.14296922750534 -0.026919194619915928 0.14563773510791664 0.11273410908769349 0.087119717647765757 0.061543905238808441 -0.19012252232127819 0.16590948616557524 0.20190994310397095 -0.061888217766098826 -0.19668517726305759 0.17532024237081548 0.17775453391421661 0.16970115540462238 0.17875020934871821 -0.065745441270237071 0.018871755112995586 -0.024828455675567022 0.08323730710255399 0.087947965475426548 -0.17851933273470091 0.16022932278355442 0.047261086554779036 -0.078930616610884616 -0.18814723368429018 0.073893871026951372 -0.14896278173829042 -0.081805074672251399 -0.2041480183219142 -0.045021683896998586 0.06353553456820131 -0.20190327991883716 0.19422189695388031 0.14885797322847635 0.081551077790658344 0.14524396107545579 0.14132473415412572 -0.13871431118684763 0.021866092190582685 -0.085764276086505761 -0.079576690843553621 -0.024151299623653248 0.017410801753111486 -0.094358547427651596 -0.09902877181508056 -0.095599351035336955 -0.1555278618080522 0.022050617870825129 -0.0084085659880202002 -0.17399699683076328 -0.15546495994438717 0.16832498176344821 -0.061386350489223911 -0.028606324388346874 -0.060367113629693991 -0.024503675435164546 0.2015577209734474 -0.072368907764007659 0.041951534158037415;-0.1075795413984237 0.13453367847290074 -0.16788385064946632 -0.17034696681182224 0.052291412439170043 -0.20824502822833452 -0.19793389651745319 -0.21133290684464626 -0.1771392061070266 0.12054833647474859 -0.061334826111644696 0.1324237000048272 -0.098390647663147757 -0.1880445534947332 -0.10721759145380334 -0.13094848424019509 -0.11537800932310432 0.053201747865721266 0.03281952837448586 0.18889111091922853 -0.12362614705701282 0.1982204280288844 0.038719374766557055 -0.12351931909376933 0.0091476925654568851 -0.16457790729094454 -0.16102964030172923 -0.10680700258339208 -0.029333287819682068 -0.090298964922944008 0.12874374828919705 -0.1858805543945985 -0.038627411774642378 0.024294941200715674 -0.19627725389117096 -0.081383099255725483 -0.010047251349064533 0.092467611629355892 -0.048991750040968757 0.13531143724991559 0.071870301071919884 -0.14415767483720843 0.073971090761947758 -0.091792430835704208 -0.13542878895402991 0.056288124213786955 -0.039058565348950712 -0.19506642504206709 0.13974167267340076 0.11769964641281283 0.10517551290756773 -0.10465357066365101 0.062394050632383374 0.041184335151636269 0.013141793557822114 -0.17027127972989939 -0.10595328978732736 -0.0062677215604743132 0.081731977183144455 0.0056756776308458231 0.13872705238490796 0.047481784392303487 -0.012671705349031668 0.11351895088550122 0.17191848492851428 0.12412824893883671 0.19678178946673064 -0.026103717675889558 0.1152864713206766 -0.084452831729528832 -0.19640477091279365 -0.18967286587733159 0.14300095772174376 -0.14189472010254306 0.15464159198761113 -0.066762784798586161 -0.20419187402093775 0.17968232684122651 0.17975518961450843 -0.20415310578257759 0.096409341569596088 -0.011817307242821703 -0.11911280846431017 -0.020806143035614268 0.029229373698091286 0.066975529548874743 0.10993954274856095 -0.015333539379800995 0.10179360385956711 -0.082807673982827679 0.032659486202473685 -0.17298924792892265 0.0085840540295294282 0.15380332267038727 0.064824848904476373 0.11370314576421135 -0.16755340424556991 -0.11825686684896741 0.20377319679948289 -0.14316821249790862 0.0011189756739929603 0.082607270653033887 -0.01060063073535236 -0.12887871271067983 -0.018892568194460491 -0.094756046700158206 0.16397106441957804 -0.20084627816557857 0.0016661704286360791 0.1395855734302911 0.058256455647540901 0.11147029278020383 0.013145909412951602 -0.17639247452584431 0.18878119454027625 0.02738482592080748 -0.022461431828151992 -0.20565970996476338 -0.19807903242917091 -0.099933943506821304 -0.11848829310466798 0.11472668146555233 0.11788804288866778 -0.1056180103002191 -0.040793708165432971 0.030057779273825944 0.21019236227530141 -0.10242103893158604 0.20463789313071967 0.05251580670495614 0.17816287189418731 -0.20355471985100429 0.027983659398035755 0.080832095291041975 -0.066631021369034024;0.17253268103268507 0.082556913976618407 -0.078745382917094361 0.11554440955732265 -0.0026939282174447904 0.067707520579491628 0.093801314120260743 -0.10760111835670899 0.013957122996234599 -0.063470629756088012 0.13190950372326787 -0.045250648387982248 -0.10327170650427478 -0.0011284152351417906 0.16186680442272627 0.091468204704964015 -0.019700310002838714 -0.11711107485173276 -0.078248618474036039 0.041385909432999746 0.17463817375865465 -0.17661003745093845 -0.018849862186109734 -0.13538405326529299 -0.10081346630416951 -0.092090390031731972 0.21148766465118349 -0.17690066959101444 -0.11834105424619262 0.15442774815486621 -0.15867319768121566 -0.13447537123360601 -0.17116457965933518 -0.08762244140009251 0.10440724362957868 -0.15491419291473596 0.095694864547796521 -0.022202637008039667 0.056264369229358846 0.14799754966497178 0.13839550395579389 -0.10405898683741656 0.020429686948264018 -0.098387832351785678 0.061961922317875583 0.15167323570596661 0.12073870344128426 -0.17074730171859456 0.18221234418869045 0.07651095136195378 0.12361093935906224 0.070515525673317286 0.0015630152150052192 0.096453924280712325 0.13656812515967115 0.16846101208345365 -0.12676243843796234 0.11691529292596063 -0.11238794363839356 0.17540509346526059 0.0097244155882587873 0.19048164500242018 0.08152534706107685 0.18991184859015459 -0.16328535555087098 0.037669130574552442 0.17080860610941684 -0.20970099917832571 0.029299194987222062 -0.042710477522797996 -0.076696404256600445 -0.024961005319142339 -0.1459009528906495 0.11925185342461685 0.10574341302491995 -0.19339197665804234 -0.014934111659407306 0.091137903742220777 0.11312372835323818 -0.17908059498733264 0.073743383819510802 0.054415937358226411 -0.12310692165598684 -0.13375985926212786 -0.19856370551024749 -0.060642368521075123 0.16409656421367855 -0.17874375022787709 0.025155852279125621 -0.040018175831917843 0.20397749630327242 -0.054126388667359263 0.13609753042516223 0.18136279924719706 0.20855136231537499 -0.068072912887874176 -0.053809754897721392 -0.028749471409095013 -0.10610336063103583 -0.13319464278526577 -0.20944238993374373 0.031916843419341583 0.19876826634948214 0.1545046130211967 -0.20378501152047376 -0.07098516644242607 -0.1107488509488234 0.037728148863845963 0.17273793734483162 -0.15325531425702998 -0.1862982746277573 0.11424004020836045 0.18126603113652129 -0.10831909338933406 0.17386328622617878 -0.081092525195238352 0.10699204885310699 -0.046313625256469822 -0.16214693474118322 -0.20552138615783397 -0.021590288057526226 0.089640452434813639 -0.13485385049863124 -0.051582683304965411 -0.022402046430577992 -0.11200169978143661 -0.16483602362644961 0.15173928300995143 0.0058470979239124256 -0.039071858227785222 0.14908990738434902 -0.050432999620361407 -0.19854163522097221 -0.095612945650362949 -0.097344662600648307;0.050354349147671583 0.099650399629531455 -0.04502666749409618 0.20745375154195575 -0.012943099255420802 0.016586877999207036 -0.11231056302500625 0.073040926678707055 0.067632658821473804 -0.21329426772685248 0.030604577430280572 -0.13701398311392893 -0.069477219769078183 0.0017859897173244325 -0.16943706442788806 -0.1709182391782372 0.16621975873872974 -0.1747762476431837 -0.045289397210938297 0.087084101343652381 -0.12629274688810754 -0.19533811237332979 0.11509162708471619 0.098880117192661918 0.056745794711329969 -0.047111776515979045 0.021907050651859269 0.17908776094407067 0.19675853236919669 -0.02997938444773332 -0.067194020021483683 -0.21637077432685967 0.17401238999303717 0.048558281668054995 0.042358698510598258 0.21566434224536585 0.046217046519337036 -0.16108895825004665 -0.063622437379462271 -0.16953832437791627 0.16881552216307477 0.15264014279234736 0.0048845451717670829 0.0036037673716486683 0.21285975762211315 -0.017036427163909199 0.039983688301932982 -0.082136063722335811 -0.039333332281166367 0.01809991302556398 0.22813516082827273 -0.14499175690536262 0.055080936428851743 -0.019555181532290383 0.10420272262919004 0.15612163820896624 0.14588815379485046 0.14238614450749162 -0.094805547568561868 -0.15443173416692568 -0.022014677598857824 -0.11862564754645989 -0.1655033699109307 -0.10930753167630315 0.15101830822454174 0.2079320539005261 0.023106900346991234 -0.17089836947441386 -0.15415065766063765 -0.08256820572660005 0.16918682399032703 0.041120836414964036 -0.065705252431577862 -0.0074166152029961265 0.13391586410528902 -0.18737156930002052 -0.0043478563719942962 0.087367783392133594 0.086342560103158758 -0.13391483270880131 -0.020237530790809383 0.056162649395774054 0.011074376188615315 -0.16267138190551034 0.12944742715896415 -0.16916107542029094 0.15296844291127318 0.078251286467953624 -0.18370156832372769 0.16951321695362981 0.030914517493367738 -0.2187568401646508 0.16830828334112008 0.12205659376992375 0.045906300919088226 -0.19291897612484424 0.1880578015156803 0.033476661025578697 0.12666130127812023 0.14077530335134558 -0.1681012229543464 0.091928137501909674 0.16910304657311151 0.063560406622827068 0.11969733104385473 0.066484926635779873 0.021792749243358715 -0.13812724753224301 0.0054544640271943692 -0.22360885878843292 0.11361217788413405 -0.18373378447435487 0.078388740261548601 -0.15120029730817716 -0.030083169878177645 -0.22436558885969926 -0.10622392745635632 0.1520929210044745 0.010681827782823748 -0.15211723765402271 0.078290296436050552 -0.046954459422607696 0.026130683870050211 -0.12721310239081512 0.068523786139690526 0.095964479872879968 0.16555038372384229 -0.22123104770439239 0.062842575029660369 0.078926414821456473 -0.15194314410164317 -0.027167650966089321 -0.18901610968921975 -0.033379948699502109 -0.098687448151050516;-0.13653797931671319 -0.13737053591865339 0.14628074138172256 -0.0032026744491928422 -0.17161100288001743 -0.023004797147844598 -0.020812310306582621 0.066868129185623681 0.14191346574913011 -0.19927057464165221 0.14063645090226734 0.16586093588382753 0.14885599913103878 0.024170061263933187 0.057401603175660905 -0.069906632964125817 0.058311804431199016 0.2160024547751091 0.13297069809186574 0.19812412596887063 -0.17145889401796788 0.064652748753126862 0.1383640310433899 0.15784947499446994 -0.028032227752647968 -0.18200072270530021 0.084039935930405901 0.19029701515197134 -0.046147225712615154 0.085357941179374161 -0.066157158947643568 0.17170480928579929 0.049246279080923758 -0.14725833991310749 0.21071465019905999 0.13440362620347346 -0.010952558807343917 0.096359658503576667 0.064517307084015971 0.21595492100089081 0.13133205769388284 -0.12884375898334999 0.035040763456955615 0.035124622439681508 0.14463744347396412 0.17903582838381119 -0.12512841138647227 0.023073232072745253 0.042544726334529173 0.056959050174868645 0.176176096760154 -0.014922781661463057 0.12302733777145493 -0.21864823298214714 0.19337453459529316 -0.09321604325381605 -0.015989761281659052 -0.02651579191688435 -0.10825909159881761 -0.14242191091774023 0.18431896935006192 -0.13361906576412211 -0.19695697166519524 -0.035445161438140749 0.072590697013517919 0.11202202367475382 0.12340999526371303 0.058228849862189215 -0.042971542986044484 -0.07691235182461284 0.096375101083745404 0.2170362277498265 0.081916221520464155 0.094196729978083815 -0.11611736073856721 -0.12496987855946573 0.023085906866141762 -0.15121056973091099 -0.1942116392983953 -0.097384480752987612 -0.10197190622190884 0.20176290503395333 -0.030149980641429226 -0.00070517320855263959 -0.049331281162041482 0.04980610574468234 -0.11209782117913944 -0.16351381961274189 0.0636160436820674 -0.011625399688818394 -0.062320434870772462 -0.13438752347012994 0.19947190376590532 -0.046222434133604225 0.051332276386814722 -0.15470335679377131 -0.15852881648954134 0.23186483176792072 -0.084031448087486402 -0.11627749272773211 -0.051541015965076688 0.19560078820945834 -0.18706981426013075 -0.074283594089618807 -0.014658381090115472 0.13389566180546508 -0.033952157008106533 0.071179018358940416 0.17219253052200129 0.16898702811913385 -0.063071453343456679 0.11355521070284041 -0.052441599566639054 0.10812211154178547 -0.013305656080285682 -0.015496073788430759 -0.19217258913693244 0.12428416685487412 0.21430758713157244 0.062853762069403504 -0.12985248368041097 -0.070495341813741147 0.070477394588527351 0.027551271803099152 -0.12453326123051654 0.072434889666046082 0.18790792296910608 0.0058243852723228514 -0.14977335858387469 0.021114731736357115 0.13215781618083153 0.027115310987230745 -0.14179549138107708 0.078285641489813304 0.16233672903482088;-0.11773400849226615 -0.081752057514056772 -0.15610285503384042 -0.16369532675969517 -0.18532191884586993 0.12135482266480913 0.14529215448774155 -0.036587839065385375 0.049334364718469255 -0.071027800682220629 -0.0071966470423303758 0.16863810807922056 0.061255397274255871 0.0013106855886119936 -0.11819089745314815 0.1295012506618653 -0.20575105385338935 0.059897197253750117 0.080963940798720838 -0.17273415077576978 0.11663133640768206 0.20915231084951108 0.025316237358861553 0.038963072668113018 -0.079736486674888959 -0.050127669658520467 -0.072159511083811065 -0.10555582380322583 -0.064338344624578686 -0.10304132284289215 -0.12105961305174869 0.024867079769988126 0.049188084047345815 -0.056278642327637386 -0.046703520679210665 0.0011251903094484036 -0.10638677521810079 0.21193259715139548 0.061929967784197397 -0.1542056056684912 -0.017322226526300218 -0.065047952869387346 0.13839435997921889 -0.13935912910791035 -0.078838997215198325 0.14333956958653299 0.17029367398458625 -0.17418083021008812 0.073744241693280033 -0.10803269022967749 -0.13582850343843811 -0.17768901500092751 -0.078249009770215552 0.0084686035721827611 0.14147814940859035 -0.17036300611483579 -0.19240343879661354 0.028911637477359708 -0.18577129879908369 -0.018395786796032335 -0.1619134225751897 -0.02706373979739787 0.14085997264667702 -0.098557775165933018 -0.032473298295366541 0.13172073530360948 0.15500001283072321 0.19086085156483201 -0.077641253099347274 -0.025083721178451621 0.059823181424779458 -0.18350880343762704 -0.13438724883505565 0.083197478338289776 -0.16283528805792549 0.060469070920022808 -0.20536319814550821 -0.15980046421052496 -0.05337881933043543 -0.099431939613391918 -0.12827616087504287 -0.18751078131263332 -0.12663764817583625 -0.19142049552360418 -0.082518630411196017 -0.18790008259178204 0.052174864419321426 -0.19575773625057155 0.055226296896929372 0.00037133180075150365 0.13774209162445736 0.1973807231677053 -0.0093904189209681587 -0.1898558939568111 0.11317196010918466 -0.096335230526510773 0.18185378377837605 -0.20066946123449267 -0.2148464047652266 -0.12528700253473174 0.099423440202154725 -0.0042411021785578023 -0.21155236542394998 0.1967891339947504 0.20595122814954778 0.041865480555983062 -0.052337344113024931 -0.1756844613955291 0.1665805472927368 -0.037627312142931267 -0.062474907964224294 -0.015805701231165196 0.048515516079851322 -0.21684111301298567 -0.079621167239963223 0.087819592075338487 -0.19349557547425789 -0.049446644251801813 -0.065449278685445741 0.08234154945940883 -0.18584386087001681 0.16200145803990171 0.083087008708883733 0.023568868548383359 -0.12178727952504746 -0.023782115158219767 0.14742949278531495 0.097285898281746899 0.052864710087896651 -0.13652056701690496 -0.10361897149760467 0.16514262199180912 -0.055929419785373982 -0.13629576981917702 0.0092780705895198698;0.11666261494469002 -0.14249569446092361 -0.11520009980145866 -0.11504693195305926 0.17739553099766081 -0.14789738335906566 0.023714586880572423 0.057369515787253599 -0.18097938088149179 0.089772191982786922 -0.023118385205262295 0.14961709206814519 0.1018086698263552 -0.032387205308273104 -0.16470889718799339 -0.15643352748446207 -0.095712150517086328 0.096726626508200381 -0.16414510448241185 -0.027316370791420796 0.091848719531595208 -0.16336559844789247 0.15979971075873239 -0.10035165158633795 -0.088291731603602971 0.11560855575141904 -0.18028959714257359 0.10303721262549842 0.21386625717396304 -0.044936296158997739 0.21146992486104393 -0.17274058884462493 -0.087657944991759676 0.1713871180240216 0.010011407223954914 -0.055229726886455305 0.060929632392118342 -0.021583593717060895 0.17733012098522116 0.11862624912801085 0.12726799050291901 -0.077655197367131515 0.12652352810172535 0.043419800110645182 -0.20164845168853038 -0.13969054032129014 0.18293425663207702 0.044301320067573688 -0.14902014910671363 -0.076953036677828615 -0.12565399711059946 -0.087740159428586706 0.022590326200216445 -0.12317346144664908 -0.12160740252125836 0.10241556469064779 -0.18958316438462861 0.0046534353246905089 0.031496545888340714 -0.079797020585548176 -0.16388116911839706 0.16344190184617033 -0.17523772941497895 -0.013982667953133531 -0.1547735225357838 0.10048011622604949 0.078247567240677593 0.059763714173175844 -0.10178560995574208 -0.17289085461609055 -0.17715990601594811 -0.20721426837281984 -0.019633738684141127 0.12394801041272459 0.12427943539089052 0.10325342925225479 0.13413060692062254 -0.067990929948948259 0.18740249440068826 -0.07475721686280723 0.02254353341850401 0.063405428919595636 -0.006259063618058152 0.15537920139875958 0.0091136356475304964 0.1928774186606563 -0.18948018075920092 0.21065345240340649 0.14838121300036064 0.079331317852758723 -0.0080842863977093754 0.12975709107067657 -0.13460398564756898 0.11395883601601912 0.027863365182787862 -0.032718703163137353 0.00040201277930382968 -0.094110695338602959 -0.095199920099768395 0.10704254063789277 0.057097656139108659 -0.10212674983973093 -0.029538967298488907 0.036458051578046741 0.027267693139826708 -0.18907670369690419 0.16985401603959094 -0.11563228691961977 0.13624216596944319 -0.1523624909176981 -0.16568964789506993 -0.17417282390463407 0.046125364135435533 0.050800689696280522 -0.16952288697353149 0.088462149153316738 -0.11038610295702074 0.14553763746019641 0.18118272330605428 0.21461122068063038 -0.057692673531538619 0.10687413995395584 0.15513310320424245 -0.1470482119041194 -0.15974546610492954 0.12046059050742361 -0.13928148728154816 -0.21149860749546609 -0.1710332504689327 -0.17592560810315788 0.060938610570717346 -0.0038921130485862977 0.030947832051923162 0.01657443635952811 0.067932160781041903;0.16405806928742475 0.10704693709132235 -0.14867146821239496 0.1620211854598525 -0.044827239509159851 -0.15275977341049971 0.03363394036023145 -0.2037445085479781 -0.088553390452854736 0.1775250636618905 -0.071644255300853277 0.042959797382328732 0.17831977656216838 0.068612141041496294 0.045553272969980713 -0.082061149630616781 -0.10993590230941989 0.050828665804696423 0.052971938436576091 0.1523916044515472 -0.013644225516562584 -0.05692741259644702 -0.12329866298232162 0.036491844082675778 -0.016259944138396553 0.19241876056127288 0.1431846447969507 -0.044979150669435246 -0.076976378432649151 -0.097405047417305934 -0.12051503443771942 -0.033561366204316462 0.081429235793258559 -0.039628780549374604 0.12980586707317379 -0.1033248680178793 -0.20426934077988662 -0.14521672284975332 0.09656571505216005 0.0010557975436565621 -0.099902770764779117 0.17065236016070945 -0.1715671009037289 -0.029617141173037487 -0.11946232837341653 -0.17083798522899754 0.064041578550292258 0.070856212926654796 0.16038923086831203 0.15650677916239075 0.19586190900965073 0.097191279356247245 0.1157941223080534 -0.1400580817752968 -0.15409126206639179 -0.11432844039625595 0.065705353548508399 -0.091928951631333397 -0.10343488583910861 0.19114041894987271 -0.1627422096763568 -0.067043585031169084 -0.12984981537687965 0.20372816690724754 -0.21302530316048063 0.15282738768303789 -0.14933833660768078 0.18580881062126373 -0.015007127268156067 -0.15721441519295593 -0.11924606101118136 -0.11888364956173327 0.10820156319018875 -0.064773798454224665 0.17148522545325981 0.1235061011282421 0.068032943139309382 -0.21475149532908339 0.0051492201348873725 0.087780198041309696 0.12057322596192678 0.05264505817952124 -0.096243799053476825 -0.14903076767738749 0.036093474629312464 0.055485441783483351 0.10493233160818458 -0.11779403090259352 0.17821150255673418 -0.09782539790500748 0.055873738135908221 -0.16611595051496172 -0.1421652186827406 0.041985649688484235 0.13190761118190455 -0.084335339891700084 -0.1085931836661892 -0.1504991111283504 0.21747193444908847 0.15497692500940521 0.21275800231573311 0.083593425505471081 -0.19792543271596844 -0.029904263473132877 0.16516129195007573 -0.11588012698575646 0.1524052857575133 0.14914716950714413 0.12417947525257968 -0.12139887813481964 -0.1074266985968034 0.037447957251017697 0.17526928455398991 0.20971834090376906 -0.030510093738796613 0.037464315680300973 0.1375892703359464 -0.0085289956676054286 -0.014680290074625565 0.16177815757480496 -0.16227842810637202 -0.091323177758547022 0.022466251674905836 0.21212815489244449 0.022591773983292665 -0.071767543788064866 -0.13792129558826186 0.12495096468033684 -0.20470283834525782 0.10078720090988851 0.024416754205969685 0.11683684216343705 0.074849300464862004 -0.051003380350807093 -0.10444715574315641;0.015191424102948744 0.043180091790376178 0.02101319256130238 -0.19960815594990955 -0.19753361661108756 0.12457988705167256 -0.093700221383186594 -0.015466062272951584 0.16814587880385631 -0.019402966175282463 -0.18628018058491772 -0.036597440962796747 0.21387369195425754 0.10343453832539075 0.20820721168350323 0.1125526686826651 -0.12369715326372324 0.20444811049136705 0.078980476984604919 0.061686014203768222 -0.066446352562233232 -0.1027153096898927 0.14191580310672233 -0.0059145575477201149 0.13973212079821223 0.2018242757522915 -0.10741252477721817 0.080996221051520351 0.1851208573043964 0.030220457047932973 -0.099876403362149715 -0.18295624113960277 -0.036920757241736331 0.14806208835286133 -0.029159897517845503 0.032358352498354725 -0.18888573610613293 -0.19851304961118998 -0.17678072146660734 0.10630226601048998 -0.17541816885461547 -0.20453434959283126 0.0057884026147002852 -0.14843934257863109 0.069221805560325908 -0.017928572274084391 -0.03322383236012004 -0.06420151412454056 -0.042367213236474272 -0.17834687143837816 0.069434482512483992 -0.053375157412424878 -0.1434275594973726 0.1971374624533761 0.11266519828821397 -0.17730661062229877 -0.1653900923000472 0.18151798650760223 -0.19395353911450619 0.16781881035422097 0.063365605225328331 -0.16403515060444121 0.12827038955384029 -0.1793484866163482 -0.051466273628996202 0.057269184579699553 -0.1621287974075965 0.11123343502537086 0.033515179166805145 0.15620110739238105 -0.072643274973755917 -0.19844084366343323 0.13278728512799215 -0.12172327540293372 -0.070369110540316068 0.010934524046291126 0.046504335838370235 0.012404384278266997 -0.050974607066182537 -0.07856029664128121 0.012400485697571698 -0.025806889157744192 -0.0039529566700512589 -0.057897268750295876 0.068205866814710331 -0.089970883937548721 -0.067866330336324374 0.14668261579663155 -0.16604924062787796 0.14263435155049162 -0.1173878688018391 0.20229192786109709 0.050335217911180931 0.034792307291649435 0.1798090817160421 -0.013308773853709618 -0.088301679554628518 0.18166550259951839 -0.04754202621721574 -0.082242106347691149 -0.053793730644929004 0.14680719156797867 0.14929106177992663 -0.13173621242899561 0.02747391271089648 -0.16675034950907008 0.020589179393187107 0.17167951768510117 0.16311147515916291 -0.081573178888072598 -0.058088078807435072 0.14252226692458797 0.21192631914154897 0.038388905471511567 -0.071811706984711579 -0.046314501944109597 0.19272141520348532 -0.09911050241759109 -0.013212238399433057 -0.19398585766299511 0.005754120548746809 -0.093278156058484232 0.18037894827856041 0.12820659519728569 0.029730419773256231 -0.16207203866696537 -0.041225107330528823 -0.029635719254443974 0.010056316942917313 0.025092003191934855 0.036568601784777117 0.081239154787736953 0.18783488997759298 0.13717457153219495 0.18041652316032802;0.16280553267228934 0.099785882274000134 -0.14155121899047463 -0.1786112794181845 -0.013371573957436496 0.19491552890628167 -0.085253107975572229 -0.069831377683098231 0.094888415255822242 -0.18057774488864536 0.078561404425932235 0.022946645774809343 0.19497352959676451 0.067935866914744777 0.099890159119560618 -0.081296725486202481 0.072165025382570663 -0.10146757497548628 0.10644708375831395 0.13082568437496456 -0.14851861874267586 -0.1508483085736339 -0.14478092751597224 0.15005214678956519 -0.020345205558827135 -0.077249718237896808 -0.18093233302311498 -0.20254792963036139 -0.052947647505038511 -0.050094550944185988 -0.061544545499787169 -0.12174131490650311 0.094360981436829958 0.19317534527305671 -0.13839601073300656 -0.15940540313807464 0.097822409186391068 -0.090935840962482778 0.075638965758142496 0.1148311765602808 0.19741738189941757 0.053022098312971264 -0.17522883695874966 -0.1388448242930902 0.017887071680878802 0.17656436993145055 0.18045725557701492 -0.094899882782996492 0.1234056589558377 -0.066771760926196397 -0.16681827761158036 -0.024786905873752839 0.16952054534302638 0.099982885778931344 0.19096477755560134 -0.05928851452773886 -0.00061709907583497228 -0.039157723175256488 0.057141952165506139 0.19952481324374641 0.19530563776449886 0.10806463298426548 0.074184817288900626 0.01696028396315484 -0.19658940429182811 0.045973205663159329 -0.062522946440018087 -0.049223639885968111 0.14441761844606735 0.026814670456969083 -0.036701012521501521 0.0019389998905795223 0.077076037179941076 0.068462247282513697 0.015748453019837048 -0.19432739261836132 0.090248376671088551 -0.051762219942369021 0.033602724295136693 0.16242737736315593 0.0040877712954233269 -0.11916279880114888 0.075398511681932567 0.085601075334965096 0.021708099581145258 0.00010160217155297864 0.073802572517211257 -0.14587489976001397 -0.17089121005953448 0.20300804231236846 -0.18651809771133285 0.042570437098739929 0.19320577760901661 0.075340462605174102 0.11126552752262456 -0.06792892150307614 0.043447315938059991 -0.15794733582881676 0.20042677564760472 -0.023647062588241684 -0.15303060312174629 0.19349417267599808 0.1321775393701875 -0.12624025342751652 -0.0090831388702968217 0.12445837170313769 0.12239073437037896 -0.15604005603242121 -0.19033214708038199 0.10771511121640928 0.19524367904351414 -0.14411890739007865 0.030752505388266758 0.0022200446721654049 0.19893363501785166 -0.18474197530687564 -0.062927264074385647 0.11088584605516695 0.18688045188625962 0.081285349477231261 -0.16537280942668312 -0.010114062008210778 -0.17666987778088392 -0.16056532591628664 -0.16391012571880353 0.050655704136169252 0.070701921572516882 -0.1262264658415137 -0.13569854012009688 0.0066790988590951757 0.14603174247982861 0.12548285163826681 0.11394588124974424 -0.13758484371905391 0.19019895576530155;0.18217639532619459 -0.10310072972496777 0.073902939255507449 -0.10825359204384877 0.13747821167085272 -0.097442784937792237 -0.1016151399419758 0.10934420178569584 0.050017572337267703 -0.042249826489955358 -0.22171138799768764 0.030853934249020828 -0.01084923806812726 -0.022789189203278232 -0.14687022906005937 0.060923212643631236 0.00066022282379468874 -0.083681839311055287 -0.11015929327211137 -0.20173986806505523 -0.15387209074983851 -0.040672386147728321 0.012631068258655795 0.099672225014429322 0.20353470182849973 0.046577751177881772 -0.1593503440429834 0.15470568485189529 -0.223680976269408 -0.13862394964732208 -0.044181322509673979 -0.16038177362704104 0.062268496819087013 0.039585587162765251 0.022301173588593903 0.073499241569152329 -0.18765153438107987 -0.027748793216554539 -0.10842103391549707 0.20753318684377872 -0.020957948836054566 -0.10028896302741583 0.16782529515368222 -0.12567790504558174 -0.078608624000273408 0.071058264229803658 0.042322294870462483 0.16551862680791038 -0.13157419616107469 0.18261251503568776 -0.0067074553308508825 -0.20827216207353619 0.093419230900536152 -0.10744541522015176 0.16957747491186231 -0.038580215208708045 0.059878977319352045 0.16838694654938147 0.037127621324025993 -0.12061002368631978 0.030570477289955451 0.1612163098591845 -0.0054729226475254281 -0.09056538819395131 -0.019441312444167781 -0.19271587657024861 0.12178280499746121 -0.06778732886835466 -0.19274839397703158 -0.18090166613086051 -0.17481723560220538 -0.11060278920664358 -0.073267231251980022 0.057604909364828795 