function [y1,xf1] = myTDL_Function_1(x1,xi1)
%MYTDL_FUNCTION_1 neural network simulation function.
%
% Generated by Neural Network Toolbox function genFunction, 20-Nov-2017 22:16:05.
% 
% [y1,xf1] = myTDL_Function_1(x1,xi1) takes these arguments:
%   x1 = 4xTS matrix, input #1
%   xi1 = 4x40 matrix, initial 40 delay states for input #1.
% and returns:
%   y1 = 1xTS matrix, output #1
%   xf1 = 4x40 matrix, final 40 delay states for input #1.
% where TS is the number of timesteps.

% ===== NEURAL NETWORK CONSTANTS =====

% Input 1
x1_step1.xoffset = [-2.61691872059251;-1.02515940969855;0;0];
x1_step1.gain = [0.312410006400465;0.16878616004543;2.4462962962963e-05;4.03888888888889e-05];
x1_step1.ymin = -1;

% Layer 1
b1 = [-1.4410073243118429;-1.4130320869083144;-1.3826627253399568;1.3538322099500095;-1.324483241203267;-1.2955123161092912;1.2649948989186253;-1.2378225110423304;-1.2043417717221656;-1.1789958033212153;-1.1547333505034201;-1.1206389839051714;1.0915663095567056;-1.0632770610980096;1.0387789063827271;-1.0022080285599351;0.97719063587411681;0.95031255936812198;0.91541587681519443;0.88772933646395769;-0.86451395481680571;0.82810213445649283;-0.80124187420701187;-0.77323539970675637;-0.74269653147445713;0.709275680285823;-0.68509204289694103;0.65564353001044617;0.62586050755402534;-0.5905476873287937;0.5668452471153328;-0.53956469854289191;-0.51383025187176412;-0.48075952030097091;0.45139652143145892;-0.4199796850073812;0.39824141141584452;-0.36474555450711404;0.33102678697308369;-0.3105891166092179;-0.27491827371517502;-0.24773731689630776;0.2163130391739484;-0.18833894974011342;0.15986319684048911;0.13301771750942193;-0.090605242072045983;0.078858051688938599;-0.040671772230677666;-0.01618836021579689;-0.014885464675450669;-0.043348636231917675;-0.074483059063801219;-0.10393864255015203;-0.13094553538526726;0.15889073535474726;0.18777933990373843;0.21779690139242835;-0.25348497266216724;0.27560762917340204;-0.28901579215285739;0.33565030213654751;-0.36144257788495171;0.39215802671818611;-0.42216411352977851;-0.44959695499114161;0.48030051831799181;-0.51192367577499631;0.54294617111637744;0.56665022628042572;0.59711233872682501;0.62495843189191835;-0.64751768833650158;0.68840508095451636;0.72095440098066887;-0.74159102544480926;-0.77138953862233361;-0.79757957279532743;0.83090161850979438;0.85707576476561154;-0.88498175232784149;-0.92147037067410376;-0.94661409517334993;-0.9748826157967464;-1.0056653283849257;1.0321631168917789;-1.0592700491009461;1.0915910720403459;1.1208638145555523;1.1490627363032562;1.1795196183732259;-1.2117363663806364;1.2380931708484499;-1.2657741774609956;-1.3025291536311556;-1.3244796088972601;-1.3535850316679923;-1.3828048947219083;-1.4205564844339449;1.4412902237941396];
IW1_1 = [0.11463525763147193 0.057049490397831824 0.17173133362413753 -0.039839342543057585 0.19305103906660143 -0.010201238473722053 -0.12457616734397789 0.16874908985044954 -0.15823254102564197 0.061880339693638861 -0.18179338261337072 0.075070692830519453 -0.091004440411595292 0.1014011362912232 0.114485365303283 -0.024408498547358198 -0.021284865783367218 0.12285627590105286 -0.16852347686575436 0.10347642189244682 0.057599411917960246 -6.0550002087458171e-05 0.11670507135114619 -0.15611214905237134 0.042279279059752373 0.097215687090280944 -0.041278036096894545 -0.1788478635236487 -0.1731797692891715 -0.04460495556780826 0.097948129143242635 0.16357525330811029 -0.045957452336301871 0.14097297241010029 0.10449811386730086 0.1012728451297235 0.12555133260614326 0.047216545299550328 -0.12782815857610644 0.073195496999768267 0.045348823598598598 0.18979059187945305 0.026900776252885172 -0.17646666973818401 0.18102240536346365 0.069461739409270626 -0.048062550673332934 0.11747360225881899 0.17936079843772282 -0.072025696129263683 0.17795585857669738 -0.068022421365970642 0.060030015897626104 0.17955515892114793 -0.0086648822198895584 -0.065164483747053262 0.033329266051748623 0.064074393707301711 0.12330713689927711 0.11275032948629542 0.10936131972208908 0.092293716065776174 0.18460700143998518 -0.056103440811229768 -0.074201107362434821 0.038096866775094065 0.18289171287606842 -0.042844436700702593 0.043093730728252989 0.17205389176308117 0.10134434456827117 -0.17395898023734355 0.13246321994559868 0.066768582854510997 -0.031743839413910582 -0.014643065376103945 -0.0046920127298225407 -0.074652047883547082 -0.097620719346242363 0.1872329462089623 0.037263453356757299 0.17750562615892754 0.025127695610057853 0.059810803100353603 0.14776628813999595 -0.076541971135256431 -0.06415721513309032 0.098808675004197849 -0.13354158130118313 0.019210922957882726 0.085586769433651191 0.14708309364588681 -0.1380249993192271 0.1828211946670005 0.040674773849629746 0.10708048755887613 -0.065560042986471459 -0.038831832172898845 -0.073559747103250805 -0.0022590211917919451 -0.13848965891640111 -0.16500537387892827 -0.081589505707069368 -0.18549359101557072 -0.0019244335839057258 0.029957590399577721 0.11829411880224752 -0.013186428648445698 0.015088930205261182 -0.073528832864052679 -0.098263619285281906 -0.18556998063969102 -0.19397103907540533 0.12490184520286547 0.12493830204899403 0.094188432967646091 -0.065542622316840132 -0.056973599109426065 -0.066581172866093302 -0.17687430449321748 -0.18651120990681747 -0.102802353907677 0.0012919628901811797 0.082338882584742271 -0.19247867355599513 -0.12664291031179181 -0.097451862562832461 0.012054082721394334 -0.11915930781894456 -0.17593073295441897 0.017252752218316892 0.020314471593981594 -0.14460627767732329 0.02814402785659929 0.015709359755784705 0.1082385629076667 0.074719469641057371 0.18415718804239467 -0.011694521907990372 0.072566518724551568 -0.029380507800556829 0.16565622722819026 0.034259231535191226 -0.14516457928393933 0.15578602420839438 0.095706037577670586 -0.057481963561251556 -0.1907830626915519 -0.16608512438636849 0.11105244460663588 0.089040234945816435 0.10151915550075842 -0.15645433418134272 0.039641041310835741 -0.0036144444120081373 -0.13855015294091891 0.18831556729125912 0.16464714926698842 -0.14391332846838234 0.11861742799370775;0.059961543795813775 0.18652015155823293 0.11464769198384588 0.039961594539283433 0.11544725661750499 -0.12168609287473107 -0.12812458995788786 -0.020401069601779849 0.14676342848953233 -0.051473770542624593 0.12967285698951175 0.17478891911322525 -0.072997602921945681 0.026313125556887772 -0.10776422542111823 -0.17876868178238098 0.083936642269059641 0.028414969531676604 0.0011569641442577226 -0.0058221928349090034 -0.12470461285284554 -0.12275750965806202 0.12398918703450744 0.0968382195415321 0.15764842132802986 0.067639148109712666 -0.015671227976245799 -0.013323615549208028 -0.15986096367552546 -0.079210805042262314 -0.033874513966551702 -0.015014417093030072 0.11992541384940615 0.020639259930404136 0.15724115966834107 -0.17466176955354748 -0.14054322012258069 -0.082412033121351952 0.082331109126949825 -0.017690019226762686 -0.011755405588886778 -0.02638303286867949 0.06925101440360229 0.12226909498281609 -0.056983251250510784 0.014583008570076956 -0.13813191781682582 -0.15707126928313386 0.030201298217296925 0.031803342559907175 0.031398596961177021 0.17993505389073672 0.01052831208235505 -0.02035113688079309 -0.065507271828204594 -0.060166970950473332 0.070105942112669739 -0.065954380157655285 -0.014911322302868409 -0.1964088651565436 0.082350501085571126 0.035052436329813336 0.14808493456385671 0.023691686904655875 0.085887612911261027 -0.14015134809154314 0.10226755998800909 0.050681716076536001 -0.1415817224504719 -0.040611351626830265 -0.035674317460335683 0.17423486082876063 0.16680031046758742 -0.014418581501634088 -0.18118870193779787 -0.071241468094732391 0.0051401002465059917 -0.022809302658820873 -0.042059422031727987 0.09459537215884832 0.051444193635001904 0.050819857479839255 -0.10010130530801825 -0.039998976383410094 -0.12070487222349774 0.067728542215986912 0.031398394074178736 0.17272861484162855 0.037774023538003049 0.096860796005012545 -0.17855693165316641 -0.034298274424220287 -0.055087414411167511 -0.085801954516366005 -0.16620841103728998 -0.078877651215374406 0.15952603433405038 0.080475521193004676 0.16156078693985199 0.088155841323728806 -0.08231054581102093 -0.073698560777491068 -0.11721661472435484 0.15274692601616041 0.19232418421890271 0.10592695157117145 0.18672447513626111 0.10526282608946913 -0.1868464736174176 -0.11527099020076298 -0.077597887818456945 -0.19267741090931753 0.015418201220486153 -0.060518850792914074 0.1394339893113358 0.19738307806378458 0.19437920699673591 0.06880967810619204 0.048807580262966159 0.052284317684391408 -0.08006238100481905 -0.11531292120225334 -0.17926692755205309 0.14939084777104222 0.17804718484569457 0.10662731193731964 0.18576405741129129 -0.047587156063592623 -0.051911819313955609 0.012408452407871038 -0.072560118442024105 0.16978449392564812 -0.16562237174110039 -0.14256739678567715 0.10504753710875953 -0.018336547601503675 0.15572624341640159 -0.013479941456997229 0.018468628084499204 0.0048759521979088692 -0.14481614305718529 -0.02755031966764095 0.15175286313794431 0.045892100993040599 0.13816020255677752 -0.071532214961011018 0.18730158527235127 0.16301348211446726 0.03365219453073031 0.18237041414023081 -0.040596844177341503 -0.19659809955713434 -0.1499886471977615 -0.14720310177640769 -0.17519936313595 -0.19643433101365662 0.19845783915000917 -0.17643438135982684 -0.16670603798757555 -0.076600999970665162;0.079314874433967189 0.11242558985289464 0.13552050077943342 -0.06478328038387185 -0.037687894889499529 0.14152331095948273 0.040354507158753182 0.10682059640895994 -0.16232123172255283 0.10315507644882001 0.11344293485103715 -0.02780915976400309 0.19164009540282587 0.11315588206504516 0.019275992358573687 0.14725422529900001 0.16041128746674602 0.036241648935095183 -0.04971784626464204 -0.13684111683020875 -0.010193858773747544 0.068074908461000394 -0.06198312367084443 -0.089988433306120483 0.19412750567934747 -0.20296193528812695 0.021427910535418399 0.079335478517546368 0.10032017304116617 0.11466985001410777 0.15232250521046223 -0.11634804081995984 -0.035831952167174497 0.17395130135508416 0.071046708443357101 0.12265765580347666 0.01244519184837343 -0.070183852264501204 0.020949916485370527 0.1419869120780059 0.1030227083034488 0.13029901869838503 0.16728751061047789 -0.12405811587473006 -0.13169933927588418 -0.16840314466242534 0.067806596524694618 0.088799497502084143 0.0049500280314733313 -0.13961596640440849 -0.073061570764245271 0.15195857929514367 0.18789248464700911 0.066160192869687648 0.16255339528357793 0.046374618304588097 -0.11371827398911349 0.0054701905576637682 -0.099493126964313283 -0.10304374302875131 0.10641281047850742 0.093644056506346329 -0.011026788409373893 0.012810448271442313 0.077340432172487802 0.030158381750986618 0.17523909201821428 0.13013206231938262 -0.14629043691001739 -0.047931615029576317 0.052786465464093706 0.042276542573793464 0.18206878189018649 -0.14266245251599147 0.049377494369193746 -0.054742349248407735 -0.059891354481501326 -0.033635398367729441 0.027796229518758847 -0.011666966995051613 -0.11226292801566891 -0.18060882320871732 -0.024815534427733606 -0.032346727506273612 -0.10076938424855063 0.05405421072302001 -0.11026466875420657 0.16476441805803146 0.03196572398749864 0.17999763110733555 0.11326038869020805 -0.17944192492129357 -0.19999898714612013 0.13395596970324783 0.0055686132969043735 0.11613843333737199 0.11961839860503408 0.062298775824831266 0.15131901766797892 -0.026270288701268796 0.1477645718465509 0.1731735504340142 0.14174909152705539 0.073675504221910257 -0.044317370504203771 -0.061289426187481642 -0.13917681905196888 -0.036598932432848723 -0.10462241135434426 0.095533732821839537 0.10078266735479856 -0.18457630586010479 0.046053250519111792 0.20534050101866519 -0.081553017980702622 -0.13216258281368212 -0.10282285764443057 -0.012269628493023847 0.0037205402349371254 -0.1685581665584458 -0.15545414980210207 0.12342710887139499 0.17052513996817575 0.099955307544261657 0.13659451799635988 0.039537036913506941 0.18784950896127756 -0.0031939916923385864 -0.044279201968198768 0.065133275926552409 0.14364741030502765 0.054556999070762606 0.071053971213686409 -0.1738681186848347 -0.091425497296073119 -0.18163510755143678 -0.14290649823884763 0.037607548378477906 -0.15864728346868939 -0.19699838578360662 0.01329488200615558 -0.037313578432988569 0.16519357907680873 0.048504769865871607 0.061628559079116553 0.095172607362021877 -0.13526811692208354 -0.17955215588486295 -0.0051608635312364107 -0.022271466524300933 -0.17860235424153728 -0.14836210973183156 -0.0258834557917372 -0.19966031187442007 -0.11445803178850313 0.053943500583923346 0.10841258287384674 -0.020829441324768355 0.17109491299763957 -0.060574413865845951;-0.17868963602606769 0.15758303900798512 -0.086869997546069416 -0.11960355654405105 -0.10857084857622183 0.029122900309158432 0.18231595417799543 -0.034611545233189538 0.051143348847398601 0.093312862945118605 -0.14137423288523995 0.041934608792622279 -0.067773528884045114 0.049916600507559958 -0.064357183527886941 0.12364805583860795 0.04798695783748351 0.065275460336169919 -0.12742540130182553 -0.079901737260372599 -0.15678193105519767 -0.12791149616979294 -0.18346359441733384 -0.1466872882633643 0.026341694461917357 0.059148362119137848 0.065141660532112594 0.11425490592589109 -0.15874802993729481 -0.14179440495590737 0.057889136649741747 -0.088744334146867193 -0.091367884510021924 -0.16475393315477543 0.12356638327453663 -0.15604289475812858 -0.047216586172319649 -0.19027672367291268 0.16654454745321504 -0.11832362768537724 0.046416570740382919 -0.16543889951406618 0.10723677524517204 -0.024101443657131176 0.03321737375441975 -0.039714699491418426 -0.12377569030140174 0.18320101998715213 -0.073809569668614405 0.086439491503936594 0.16000176554014001 0.05089027524323738 0.078807101334916557 -0.1216954748936593 -0.053529759791130033 0.0019925126623855996 -0.11353664616391022 -0.013085405686638366 0.078235424475995644 -0.15692950314841969 -0.1047959254420015 -0.039514391803943193 0.15668474663019524 -0.044847724227345398 0.017988806402295169 -0.035828572831584568 -0.15074228348570456 0.17589754923997658 0.1808128816028669 0.10311638556375124 -0.16264554224837713 0.17337849866503208 -0.078100585917454446 -0.1607425757556418 -0.014157585903223514 -0.032956174400304322 -0.11838280726003146 -0.015550452299621874 0.18172127466903673 0.058622487562855152 -0.18657339912877394 -0.11117309574119642 0.11995591776026708 -0.11407561048845767 0.12645221375250548 -0.15987007792152638 -0.13308279911871701 -0.057505664650436071 0.12069843222104348 -0.18853963985618202 0.087052974060130184 0.13355964503768675 -0.099700765532376612 0.14011121412785976 0.011599700191926382 0.15177276541526283 -0.18407648961549294 -0.13940231510973947 -0.16341597255865556 0.15732614822251528 0.13636049855236504 -0.084755347550191928 -0.15614434236963823 0.12272157429487535 -0.0017922218703362895 0.12663056782323442 0.056849975618050629 0.12837181173886153 0.053203583142500878 0.1356207813395971 -0.10652439237622731 0.10341891594082604 0.13807038584188519 -0.084224356164323305 0.14132096639193753 -0.15099723867111747 -0.17979115205056184 -0.1186014522171646 0.026049936308185497 0.02929798987476271 0.032860109657182911 -0.0736953372971898 -0.085658918490218325 0.17990687093775568 0.14131563368771993 0.15343999432832472 0.062025723425330533 -0.064798516663237923 0.0032177553779554665 -0.064078661048772245 -0.0424955633686031 -0.14909582305096469 -0.027588130487866659 0.0026048601056321975 0.12118833459380166 -0.066077552187440741 -0.022165714444147073 0.085775559797113474 0.12034271725886911 0.080825092302838381 0.16021921955876045 0.19157622424531551 0.03846738209338818 0.013488862622864875 0.070393927603683362 0.050990392037534124 -0.042697607225248693 -0.074159433777287606 -0.10625845708219495 -0.15379589655359535 -0.12899731914424273 -0.17757745441067779 0.10915016232613661 0.092564919054676856 -0.18207907260625347 0.13661662590049434 -0.056132299318823721 -0.018460896087974712 0.074643168926605913 -0.02724469059307414;0.17359588943295806 -0.18992676052470553 -0.044661592262662059 -0.19774320111769167 -0.0440109375734365 -0.050058667872056699 0.17086570691331185 0.083252914788125854 -0.065362991629812253 -0.066953672503391612 -0.15092768548673846 0.075072916837568809 0.13740455668102788 0.12156859284200977 0.068832589802708427 -0.0079007002450896934 0.19440481088856784 -0.13285634670921181 0.12082056631706933 -0.090039355734090956 0.18016092544299614 -0.044458304988092716 0.022510227766228904 0.13358542443779375 -0.064041116511490109 -0.1423533387134425 0.11434946734538551 -0.015456122483956848 0.052735584574347211 0.015428314142449644 0.033028637007167898 -0.19599159177093292 -0.096652889573607306 0.18510303933753974 -0.11223594443478721 -0.18777992311472613 0.17615846045546829 -0.16519864757026156 0.03601581583772643 0.067598036341272316 -0.079764699893982563 -0.028883327541171736 0.15432127379256716 -0.046374672778667907 -0.0047984041920321012 -0.021113186813223179 0.15292403522472711 -0.16334691294576495 -0.070296311611312862 -0.1902133318140499 0.13325379935618567 0.022615124571941498 0.13932840460994131 0.028041136938570015 0.017609418580937924 -0.097715260987597294 0.074231879333543263 0.0643217614266684 -0.024084064054270288 0.11375807567057761 -0.029155362784087424 0.15428570388644575 -0.069772201683305876 0.10043217676923649 0.15141054269921686 -0.064172748224049961 0.16355027379624737 -0.0016887889611565839 0.091755768752736513 -0.13614409293445584 0.08323537189211816 0.016955450657910182 -0.054827338579484207 -0.017020472034037972 -0.10927868443642244 0.18480322976714483 -0.071849252936257005 -0.1234408741144937 0.17068248628472033 -0.1105017992010727 0.068287308901686439 -0.17103463689129303 0.13548439015309324 0.11733031009878167 -0.023652468212100618 -0.053007710382960926 0.10414228639140752 0.14101615461494185 -0.113119140063083 -0.1352562637293438 -0.043305513693396448 -0.1054222563694924 0.13865497265930796 0.013378460003536957 0.016301905799245758 -0.12499133477274033 0.13880338351286328 0.085904155132988297 -0.034969551522173424 -0.018707260671826421 -0.14421920527208795 0.049440930211781448 -0.12355201022747463 -0.12146440376482577 -0.052032383810265884 0.12100465289733538 0.04651819712207609 -0.017559957292785075 -0.12974046996870497 -0.00043911538363621379 0.004239559057113788 0.03579260303755312 -0.057538605371558034 -0.0063103527521434855 0.0025336472183869791 0.018895832361077076 0.14745218514778582 -0.18792882406531433 0.16254849182964345 0.063135869934342864 0.045317429771956026 -0.049349517065439219 0.07650020080177522 0.17640197365287236 0.14465887148665391 0.12839346844483637 -0.036368104425845843 0.05635237526075481 0.12780607433211119 -0.13250544312621712 -0.11259687818787111 -0.13152296924436369 -0.097532573877069678 0.011529800404797806 0.098844163596373685 -0.1882440074697887 0.19604901698617136 -0.19509360824510424 -0.010853660433075764 -0.16074815661913477 -0.15649606172650027 0.18491232057276058 0.16296817829171456 0.17780718444691565 -0.015325392872611145 0.16008183442497212 0.12303981803807769 0.16240061778714726 0.16471628128846888 0.17753257342839313 0.19491660310892708 0.068893357992341211 -0.092903295218153353 -0.18222209603498599 -0.014542736929616119 0.042039831357318869 0.085897005067651869 0.046566816232962514 0.016222776445108722 0.13017567911441977;0.03683747065189278 0.15869479087990709 0.16008331858050384 -0.13495638646213529 -0.024973399465461607 -0.14938793979593815 0.020057965146907025 0.061772844809479199 -0.067430353135707555 0.098507765933182098 -0.059062644863962212 0.10868016893211199 0.12772939403999492 0.016513473173206016 0.073635672426268048 0.056310911821236612 -0.11979226356238118 -0.01637063480269486 -0.18392609687119252 -0.076346691679565565 -0.048434155679380433 -0.1281508883242522 -0.096671735207070619 0.097691208741113505 0.1403680033511345 0.055811543457707134 -0.033642803294442643 -0.15403051954038416 -0.0068048740057403559 0.12914466489429555 -0.16978681022720865 0.11867747510488123 0.10164658778577067 0.13416437316428659 0.11394972312770951 0.14819161789526802 0.16683670277559312 0.16746478426804862 0.16228542600786286 0.013917859047056122 0.15894459935343355 -0.17745172256515851 0.056913237983329652 0.014780897896090855 -0.093137509282115852 -0.16314266922306353 -0.17974542529950191 0.12159352420257821 -0.15725161527855092 -0.058428927353806226 -0.084778127153367952 -0.047900593905158884 -0.012545523863350217 0.13792100523415535 -0.11622663124195232 0.18196196684530308 0.14444818296664316 -0.13799262130628151 -0.17472669671076663 -0.17830715040689973 -0.12668555950819377 0.16939295542987631 0.050269156743783953 0.06634784473787872 -0.15995177318366238 0.017822629797866956 0.11743958745096651 0.12675345178425926 -0.17626626108104898 0.12813750802660012 0.146032432948413 0.17233203570146136 -0.07042737514564848 -0.037233248876921983 0.16781321741565416 0.034703511473125601 0.10528426283243017 -0.16946649263659927 0.10992362303154338 0.16956179179750444 0.025523834926683107 -0.17794499281842696 0.17412356446538088 0.077468102417117171 0.16578586876210213 0.15498791440402618 -0.12991141353463312 0.091269896313970131 -0.12062966300795926 0.1535370066703253 0.027128382207506657 -0.1634680093262291 0.14906584611738882 0.056116279159266695 -0.045816077600831819 0.12409827692309301 0.028814655425529304 0.14783026216304329 0.15060381793376021 -0.026089971454793959 -0.075822105384263122 -0.0031294917234816829 0.097195976862138864 -0.015730322710288132 -0.090365416195025583 -0.14580344220591179 -0.1036554889360355 0.15225215818127488 0.13155311794275154 0.062375799508642256 0.042584232046315347 -0.031103971701290728 0.1283898857579594 0.10432214870796498 0.027067350229271984 -0.10864558775164469 0.038975548580299814 0.0086320167565649038 0.05942695772815261 0.0070701372206635393 0.10753467442357201 -0.17730517220857797 -0.16604017671390733 -0.12088062602011963 0.0081116789419239284 0.061953176974157913 -0.14958754459617279 0.15728779447250335 -0.15226873635865254 -0.12361838863521428 -0.15195589858498118 -0.12144393241697958 -0.038328164159376843 0.093333421648779516 -0.015521805914498225 0.023308995329224133 0.021990983262115484 0.12162399216253192 0.04651541746941374 -0.10265687004666346 -0.10037882374969813 0.11779578141243235 0.087905528888634052 -0.0012890409494510527 0.12220968969023324 -0.031314653814449915 -0.07082714103990069 -0.16967563464302088 -0.17473263725141946 0.14228740709907373 -0.095534081729040918 -0.083982834864584854 -0.062815102408433743 -0.099828811147301924 0.090246989462843305 -0.10032099783941992 0.10371775124990454 -0.11209632481883569 0.037589979972269504 0.058592787120824032;-0.14752041670388202 -0.10309966804164902 -0.020998818694574237 0.016140369986432559 -0.17513608127943547 -0.046412569480071053 -0.086010085878439557 0.17330164701447281 0.14830315021814883 -0.092042993353775249 -0.04382812891456743 0.15337382736303734 -0.021249787434283296 -0.099993846151045881 0.03309453117859916 -0.099776672366041624 0.055142526026638654 -0.054105989370573794 0.0070709277162530329 0.1841205486105604 0.15007583899277732 -0.18168223243786027 -0.054568167136673736 0.1113339194135614 0.19181110994137635 -0.065675648937469772 0.082202278089486852 0.076303034980575724 -0.0038627257032535899 -0.048938573925464156 0.054408557536507238 0.17953348887264797 0.088535576446244352 -0.18297895739726255 -0.09863317330167938 0.10037304320264383 0.20745575386355786 -0.12560648998535118 0.15813016409074876 -0.0026690124697060984 -0.0017832394574238946 -0.04468537488942919 -0.1532805268357986 -0.041806386788205502 0.18566980418092252 0.094205115962125607 -0.18174830326971045 -0.089294614721828508 -0.025249801438460073 -0.0021235084466425468 0.17121810521294176 0.014591745981977463 0.13928896206620497 -0.12454643484510554 0.19424628756157028 0.015418679997975679 -0.10089524800322193 0.022110460221808119 -0.072264830065616792 0.14020503699292911 -0.19852039690844309 0.036291686918830127 0.18234923358288366 0.039439514635880309 0.16360597303568516 0.15154035973494187 0.061426455466173445 0.02023199794002347 -0.072026617614736874 -0.06449582437354702 -0.10033237879234 -0.13838669670825338 -0.041249350343106998 0.16722399306723881 0.045057698023707335 -0.019952462494564754 -0.17948437105154758 0.056991070900774994 -0.12205865337377436 -0.099485755973935081 -0.17048148681969419 0.020050442940203122 0.020286560264352323 -0.1745806339496864 0.040133203209548801 0.13445799977878542 -0.018641119988413675 -0.11156286644198374 0.070520701420100376 -0.16929835734658633 -0.04845792485360411 0.14321452441364257 -0.068464311524207219 0.19463501788285811 0.12333509205875472 0.15425420051598182 -0.16633704569310406 0.063862052825380794 -0.16794162112437336 0.00041985767647444915 0.15524692869413806 0.0055395253171029862 -0.11678051799363401 -0.019572375844885775 -0.076950869936975544 -0.17821005542046972 0.20317099440191086 -0.16512101970855003 -0.026429482051271731 -0.026159175350273064 -0.097409469498674781 0.13337016307959118 -0.018269027559594808 -0.13774411283081572 -0.15015797706708947 0.03746540765582812 -0.0062561650854013303 -0.044554290624573105 0.12008707211701468 -0.17645109373153192 0.089484998195351398 0.042378158353985944 -0.071581882970036356 0.089238101715079204 0.066169381854280229 0.053339986978965664 -0.16254480237627378 0.060171767962885279 -0.12023937402945714 -0.18457990267163513 -0.15549032562237894 0.12458190379585504 -0.077064104180562198 0.10294427338698145 0.0019687230904215131 -0.077766516824954945 0.011361800994705089 0.055598598930829551 0.032452146692201658 0.016013907817403524 0.17270217740249197 0.068372042317049103 0.080267773356555175 0.10153024175952866 0.051927462353191477 -0.085934926702427569 -0.17258769785178815 0.079227965797113886 -0.03790038033073561 -0.013534577584899074 0.1809421544213225 0.062093524376508592 0.17704073819971808 -0.13271128035310953 0.11164169191242036 0.19536598616268461 0.13876209185141419 0.13601108062215764 -0.11900764077551287 -0.13779690123917443;0.10502976034623586 -0.1337458657484272 -0.093200024734776607 -0.13532334502037383 0.12109126088217258 -0.16755813045676041 -0.10809891832316576 0.094829401459074397 0.026533103528405828 -0.12099954165132513 -0.091576695897011104 -0.02107709895959595 0.16987261909079368 0.15688776175710334 0.079633694714894593 0.070381606109526915 0.072336231702837581 -0.15118573474434369 -0.085300524204378586 -0.035539952789549238 0.18900206388970714 0.076488214494841278 -0.029976972190680105 -0.15991841161430576 0.095718834604036976 0.05802739716298469 -0.086123867519654965 0.12801968438194836 -0.031370682443133742 -0.058038208531280201 -0.038819524433647321 -0.00050610694878825118 -0.027461430500769282 0.06350828930500324 0.099026029218533596 -0.1593137671038094 -0.049397199603963396 0.07839089153770315 -0.050225402436830026 -0.077417758779353973 -0.15498111391677957 -0.033640534478111772 -0.19676265331500919 -0.026531765416152757 -0.0063780055723780989 -0.079380648091588735 0.10759180764831694 -0.17793823901250017 0.036349977573288117 0.19199133999068474 0.11011521523308368 0.078080307364476492 0.019806257431151733 0.0086423747886430601 0.1426226646425991 -0.073482450084115317 0.13616623731030883 -0.14520268273275669 -0.027269947847030008 -0.17001682662141909 0.022986910924281123 -0.069014249282171564 -0.037120259558901053 -0.16897469161809339 0.04883086457167337 -0.017878303721875124 0.19854692866510623 0.04107999165637078 -0.052349233635569578 0.053265288250840689 0.15953594321151487 -0.19721907411651274 -0.1377106231278373 0.016557362736937007 0.12966471158753379 -0.089088476492391114 0.039258330715943666 0.11782676838711216 0.019161470587219186 0.19640603357717082 0.18002448991534856 0.15948598570928929 -0.090596823040424129 0.14748171489971945 0.017195392524039482 -0.095057625116730896 -0.080955667745642307 0.13703200293748427 -0.075183938534925304 -0.057446704358410206 -0.051427294740696787 -0.15908651608446608 -0.16344180693304983 -0.055681397300119596 -0.059788994479087032 0.093376433273721748 0.088388216191678234 -0.13931493511157986 0.17048217765653662 -0.010050836102891788 0.014327852965380078 -0.06722860449059162 -0.1788419826338154 -0.10670575199458139 0.12139080097767345 -0.11554747304287907 0.076516828207687848 0.16682243138223432 0.17815409495845672 -0.1083065968625055 0.16334450378070489 0.12747767668625037 0.10087641504605974 0.1474871261794905 0.17005881580016741 0.14784100729446265 -0.042665867078650971 0.021384272342957259 -0.089972197596630388 0.14950588017265781 0.17437013404381105 0.010503542991815287 -0.18922339176138786 0.035765026020577038 -0.15052123193783598 0.19410819682560529 0.1834120992624074 0.049442499895082537 0.10208506608818764 -0.10670646180306172 -0.089486224412456003 -0.09080822913828257 -0.064827416299269608 -0.12729655914532637 -0.13283351443916058 -0.020828795651316141 0.11007375270153126 0.19738416375770546 0.016028956496832971 0.048030209454501559 -0.1878043703504898 -0.19162842839273317 0.10194113254562762 0.097748223870817663 0.15115413326854851 0.17604013342698216 0.13446798181450098 -0.090906756137234423 0.16016405163028924 -0.0047769117682739878 -0.15589748255181096 -0.12951517546941341 -0.0075628241416170463 -0.005308418359887295 -0.00016172845864661025 0.052394126355125969 0.014723949402489207 0.030118682441219933 0.15819962852117958 0.13268229550045654;0.04728449535272021 0.17532758084020134 0.089193639874043038 -0.030667867681683083 -0.15955802685376752 -0.12420086242049845 0.10062460018137312 -0.074140120104011151 -0.0052510353901348518 -0.18338985175745467 -0.18576518781150012 0.081552135975067344 -0.13048333476771645 0.13486703151327434 0.15196738098920337 -0.095013318707897379 -0.12787850256255923 -0.09529929396704262 -0.080862200595609154 -0.035467067649396965 -0.073568093469534385 -0.17182096081010578 0.048203120028285779 0.079136768968136428 0.16496606875844722 0.039352709915731414 -0.14574297829114094 0.16990738112359091 0.032839749244430658 0.17678085924504686 -0.11604869606381402 0.058346973953260862 -0.051720238526609709 0.15321081511934079 -0.045507288919135018 0.030006561992034411 -0.045376241526646217 0.062796930569873732 -0.025672123208599986 0.17041628431678157 0.12487302822751303 0.018582407386407075 -0.13115323879107407 -0.13682167722217647 0.16287049890130709 0.18889870435314743 -0.18117037966028846 0.012955084323267229 -0.058091985840943092 0.0078141336630680042 -0.036215663559393485 0.088056305365575058 -0.050854628627672635 -0.038882903954792734 -0.11766940926467714 -0.040959593182739625 -0.14309695711875381 -0.035998360628827698 -0.09361569439127565 -0.12453045870886295 -0.036585263147328663 -0.18281244024760526 0.14549132556776398 -0.14063433949137158 -0.16899113297395016 -0.061185939834981738 -0.11633301460806622 -0.026667301534939312 -0.11390710736245782 -0.18716023241094457 -0.13721502162984292 0.13721567698292148 -0.13005793017372311 -0.09899122917473703 -0.14038485790417299 0.096214444119672532 0.099931440588578654 0.01926260246879789 -0.10964335071327297 0.13016171634175372 0.12492887598023132 0.12240073138762811 -0.19289994523870041 -0.036005556489513889 0.066231632174396857 -0.045154898466539486 -0.19436854174281573 -0.11064893233316693 0.084908515177281055 -0.0910522974652129 0.085057353136259714 -0.12822953063226103 0.042575708394468392 0.11956338579492902 0.0026894730134144253 -0.036749905363353118 -0.017323039899591545 -0.073347707311570615 0.14409113985772135 0.054592662764121384 -0.11841565751732608 -0.19228280436222939 -0.1291101691502759 -0.15589170908671143 -0.067562675325198329 -0.095008152512982169 0.048571533092866236 0.042705007366128117 0.044649640591548176 -0.081947395518940744 -0.16921598201229926 -0.026228698986096841 0.12968322306992797 0.099977296982049768 -0.19645533757143741 0.052115349794795811 0.17977086165435538 0.16855105911612869 -0.12793435618546223 -0.070825506217188305 -0.0069339836272207774 -0.19215705268407673 -0.15616565723872694 -0.055193489718091647 0.082440292010217103 0.026632025194800926 0.16276160892770838 0.08587464644563296 0.14672660004706109 0.025229762421405306 0.1249648476028893 -0.1704161154975142 0.0076281002793642224 -0.082053847985986375 0.17828454085758569 0.00052280579724901452 0.15038151011659878 -0.17743119531524795 0.038908734683242595 -0.030596665016958766 0.076967293456253222 -0.048496289285716677 0.10833550859385885 0.19015854063711762 -0.17148695728890984 -0.0710918963608827 0.055357337189280785 -0.13142780936132409 -0.13776227903354185 0.060179220273663285 0.17281465369126939 -0.093421021003992147 -0.11593628475909606 0.084136958772649928 0.15409966596119004 -0.12390377852270722 -0.12620773352447573 0.038225845208868708 0.019395259760277429 0.14030175751139637;0.03217259932918879 -0.014961534007004338 0.023263040807688457 0.17610808946709133 0.16500639223606364 0.18681846766323454 -0.11760195637872868 0.16219438978883047 0.056763699189991919 -0.044479070571586427 -0.04919276991196473 0.11517289774158554 -0.20493067215212285 0.037232666829857874 -0.0041047115063503571 0.15022289585574664 -0.14670644043234304 0.10323695437904867 0.063376917602695051 -0.014172603767686384 0.14091708503801142 0.029792467197465471 0.14500949752837872 -0.015315925915816557 0.072485949633207411 0.12937977143518056 -0.20374773456122014 -0.16192583892924628 0.10416125444509848 -0.078936287148865913 -0.015272362902890826 -0.082520707357995257 0.15477865959871903 -0.12409221888366025 -0.20405990447367792 -0.052063246882359589 0.0706155446335332 -0.048018991761057055 -0.11471683748317044 -0.17725357097822572 0.16912384448526691 0.16031246947603955 0.056006562384296965 -0.11678720989247653 -0.15375033749545436 -0.1733242880227614 0.15728722886149873 0.12327538238016382 -0.001393125178197407 0.0578204048760124 0.13490969478040213 0.059708708997835307 0.07378331064190001 -0.045446994889136047 0.0072139361588666844 0.12078564272334034 0.05776906214926586 0.054139721553451647 -0.14182636601719859 -0.17650525266079239 -0.13419157115310296 -0.043042832315588461 0.049081586555335399 -0.074489299876157641 0.20102455493823518 -0.035571807705347992 0.20518768293717901 0.076094455736889985 -0.0036050654650898141 0.054440831212323848 0.16659484598835392 -0.075249967976412369 0.14729819777316913 3.7519056744757592e-05 0.039578918334193386 -0.041546890707097196 0.11286560384121097 0.086129099808620643 0.076712004016105825 0.035454617869014569 -0.18519305699063132 -0.026216335859621961 0.00032720338244635614 -0.19479388310076307 -0.066908084744534357 0.074722361345864199 0.1829636158656805 0.10610541816998406 -0.15133296481534123 -0.12714920044435496 0.14833319933071343 -0.18196659773262955 -0.12031874800367549 0.074682227071213234 -0.080297269294933971 -0.012126958837735532 -0.0020370564414554813 -0.0068869825481490555 -0.083496525250305806 -0.010896215953231361 0.14347544260611342 0.04863733879325547 -0.026153615550449483 0.035410053485863222 -0.003541470306314539 -0.0047561223674723509 -0.030653120623808264 -0.071734576302621311 0.053466285924344277 0.20675692933517917 -0.0021338719724972562 0.20115590981644035 -0.0060887233636311459 -0.0023649076298048149 -0.12509788996830959 0.014156935605251834 -0.19534295812151165 0.024693408370693119 0.14089161975324288 0.18889753783678956 0.018537344451288029 -0.04759292303449944 -0.11903534223685081 0.0020736444595227405 0.11830467406290447 -0.0040964962022003856 0.14624903505637274 0.035141864834364371 0.16161452290989037 -0.039254638768136833 0.067560667169089372 0.13959389258394567 -0.11282809073735002 -0.087799413852176517 -0.17006159551863131 0.16165109323436497 -0.16350471285626078 -0.074099663705449112 -0.14260060799275384 0.017711149233569465 -0.13733780995097281 -0.043542670790349132 0.13054951128097239 -0.0055218581216797671 0.065701291775843718 0.20777520978635591 0.18746186400361689 0.088116504470964849 -0.069643999056725442 0.172197760103486 -0.19758482023906465 -0.19768843555822754 0.15856158877155899 0.022753797310158051 0.088784527927683252 0.075317284209392737 -0.096353672635800247 -0.14452433298708162 0.0043160411642661073 -0.15590085552248067;-0.00081519180199958008 -0.1511852221042872 0.0072462097148436469 0.12425849469092523 0.13650987117778413 0.11676016649161357 -0.01583871809732381 -0.073362602415666528 -0.094299221746668715 0.091985454249115264 0.027333451024041906 -0.0069031158174048708 0.1206375193981629 -0.162702014290417 -0.081244505254293345 -0.018862422615960658 -0.13587858535430319 0.042899455136424819 -0.010156973597738823 -0.064998226003327969 -0.17142601668164412 0.16837381167386728 0.14270216737037067 -0.14580473693696128 0.15813576867734933 0.14508755850697411 -0.16648354752808436 0.16395735081560212 -0.1489218444029371 -0.098669727665139373 0.073976397439540098 -0.12608940780176131 0.087608591984369696 -0.13408779324184278 -0.11962257918067815 0.10622141290942849 -0.14200960008083666 0.10275694872529005 0.0023283034136911468 -0.055169504047262674 0.044763074494994559 -0.001517637897138793 0.12228477410329039 -0.1699892404029382 -0.075108472014529276 -0.17569729782296889 0.10422373100978864 0.020123449473821799 -0.038046742802732979 -0.051380177258147003 -0.037179180627204399 0.1047809240920447 0.092939804660713443 -0.010790859558263796 -0.16053409716413566 -0.17236657681206635 0.16001253089258496 0.0071931435292953991 0.11281812111455244 0.097057172568663475 0.099494424111593732 0.088240761431845546 -0.14615053085840066 0.14274385041002871 0.14024660059029873 -0.062375118786051106 -0.17102050802649676 0.069159361113759033 -0.13439602148745644 0.1061665845528183 0.075438268668370251 -0.10765666601154077 0.094611887244381701 -0.096516075391269343 0.09930932623290227 -0.046000225836635676 -0.10141884521134066 -0.096940308697383168 0.1381157548920966 0.10658066900381367 0.16562379564605179 -0.14533986358141557 -0.089489886456559281 -0.036592386763289637 0.17487891340728187 -0.17943457238506599 -0.14514788294187997 -0.030662973907796955 -0.0043423139825677949 -0.049415492997988114 0.065351217906074635 0.028361872620915489 -0.017515367049836351 -0.092219282176007944 0.18928799081870515 0.05668544720324617 -0.12276414056236762 0.10975886403385851 -0.17757826453673517 0.0046211685718173749 -0.070229156689446209 0.18145955731359861 0.079209496820810896 0.033984236174753581 0.16750797302454584 0.10146654244503843 0.13050932533880893 -0.095004205612077133 0.1285467137397423 0.12141082366315946 -0.16905282490905463 0.029002428750688564 0.019185668830082929 0.040471681381271045 -0.11548394327064219 -0.098127292215827028 -0.049404685243910833 -0.14260508060490504 -0.16156363652013986 0.15640975596394063 -0.015526380743508048 -0.052851154506469163 0.16218941050946109 0.1279788089600544 -0.0081789282843729005 0.063924904092293774 -0.1743884078845245 0.14854295118628727 0.16057792332839757 -0.11964847905942412 0.16798070725666644 -0.133289715173315 0.17927418248133228 0.10960826504453638 0.15963267610921811 -0.13852317011327042 0.046503403624435509 0.18348036129860615 0.11352489168739285 0.15675938368287642 0.02759497793275182 -0.14891610474670064 0.063404399122154981 -0.031431130391449347 0.1687947846036621 0.17863620676404388 -0.099205889518555357 -0.034936443993089962 -0.025238449043629079 0.0071464404015463209 0.07619241230871357 0.15329521894841552 0.04445114509295834 -0.094178558001160623 -0.1313628607824785 -0.12315331352705108 0.01465615889805111 -0.0217311405684582 -0.13831526931420635 -0.14082576516576881;0.12684634003715986 0.1387096384050846 -0.058847456469647119 0.186548998470982 -0.15008003930144195 -0.14424440648317682 -0.057117772169837461 0.16060330451802202 -0.15205907771135682 0.087720541162415261 -0.079932718231145075 0.046303259916875388 -0.060275357861951109 -0.0015608637366578328 0.072054377290172389 0.15298444339636669 -0.1565114612801338 -0.063589729919516613 0.046973595263502615 0.13857871406465122 0.14110624411185377 -0.15020111924265564 0.17168115646196375 0.032436537750794768 -0.13863368540080945 0.085939792242510013 -0.056523301384831956 0.0881860002010567 -0.010726827529328636 0.16811240344296541 -0.088361337627441597 -0.10237563750348729 -0.079464478394691881 0.04736268508900017 -0.12627113362409961 0.12626425291493196 -0.032228589565656426 -0.092964242466538907 0.12481657651607557 0.006511468237004811 -0.061562619839203324 0.10107102350778596 -0.01958929663346249 0.012376669210955305 -0.032380867538176691 -0.11541835210084238 -0.15441597378430669 -0.11145250125058524 -0.085249815656939995 0.18513762259169161 0.011908270592331224 -0.1057111161018144 -0.014562850620479373 0.13093751931455838 -0.033094906615077802 -0.14587928911771708 0.11046782892646079 0.16661707401536979 0.018164765957516215 -0.13586804449972131 -0.073044616647188837 0.040862977222994853 0.084040392542920991 0.11105649076516028 -0.075565465628912698 0.156331219579151 -0.040386216697440733 0.16052504844746096 0.13209595688949272 -0.023150812880025906 0.17959110509715567 0.19143336617013879 -0.0033674470238734657 -0.12795644097536574 -0.14459960303916877 -0.032731981855445819 0.074674072183412946 -0.16360131244640719 0.001479212595109096 -0.084622723150942575 0.072947096775592482 -0.035938970679104842 -0.024947581031444253 0.15601875315788649 -0.035998773931607636 -0.022414136606851893 -0.014837611945994932 -0.060611103882588571 -0.053543775789181153 -0.082245661918580459 0.055604879136621911 0.14460096168146264 0.11928760029720381 -0.18805155165303683 0.017074598592511887 0.098037114856314445 0.1221478547139614 0.17608012496057721 0.19036102850913389 0.04501332502206587 0.14767623335607372 0.039332043142122401 -0.024313752914888097 0.093107526998191054 -0.18888373377053311 0.18785321290141255 0.17530880113397812 -0.0066552730516286525 0.16013277846505272 -0.071755637918202095 0.012937389139160604 0.16810012709982156 -0.097978413386998239 -0.1676450526912002 0.18163532620217693 -0.076690419536824372 0.076958093660733445 -0.10633552613251744 -0.14166019112887573 0.17509915637033141 0.071993408475125142 -0.14713771400447948 0.071745013009711048 -0.10743930174828197 0.15016482824817681 0.11855703335287954 -0.0058009524910580482 0.056076240229687387 0.11588066383349686 -0.050474101711205172 0.17244878465666091 0.12598053080917127 -0.16844637730540618 -0.099467989842783128 -0.14970835689107906 0.078381312359380964 -0.063761042607289611 0.10688727544492702 -0.13596073039494255 -0.16354394741256398 0.13964745365015549 0.19038576302662469 0.020525483772919854 -0.14867259870252444 -0.15949887877357685 0.098505060109090173 0.036735773348495857 -0.040836327773946399 -0.18256492585435707 0.094891418571074956 -0.090941160604103469 -0.16417897701088108 -0.033836160382350766 -0.084174584767468183 -0.16571654749775824 -0.15625060767087393 0.057233348748346416 -0.066750797524918512 0.16672826857957929 0.073262805822168542;-0.063570511764400192 -0.19094044396241869 -0.19971927746393237 0.14357376479837869 -0.17225653887202055 0.18789785026023928 -0.031842564625722491 0.19634637452719897 -0.05625222322451276 -0.0058229312081311078 -0.19283183863247266 0.075515897774707103 -0.1507709347102982 0.10281698009366144 0.1363925781298449 0.16789488892636606 0.16824254666417451 -0.060342703944873441 -0.045043609512046591 0.022630103978641174 -0.066235422821080206 0.026743013613940089 0.15795410992061346 0.12933329465696711 0.0074315824045194431 0.02218906951941458 0.12240122996244111 -0.078731652014328413 -0.15756277581126432 0.065442812148728324 0.078430654628440441 0.021756946928981169 -0.093724194159626684 -0.19184466139440404 -0.013756417639542044 0.14234281510801203 -0.15059386458059815 -0.11663233312470718 -0.13559668930196889 0.20115098271371265 0.019342244090852612 0.068852017135485805 0.12453352830826796 0.087241862010700014 -0.038118519114227568 0.12380569000153374 -0.021937678072352019 -0.080639312445261208 0.13849040243172153 -0.14904063261653971 -0.18362023743218914 -0.027468647728235675 0.047139202827698477 -0.15902745839046684 -0.066294672881786726 -0.08531038982954596 0.044410516095771867 0.045342965928421505 -0.076405921979186567 -0.044268715520021873 0.010817256703751733 0.088265223305914062 -0.15048735737830018 0.069911342376038466 0.01743703677384844 0.18131063450106333 0.025409559480302449 0.045556849916457809 0.012051115039281064 -0.15775112122344911 -0.036987786871796199 -0.11672169139305473 0.20122502034356743 -0.073566765692357969 0.19672655773281408 0.016926598304644661 -0.069450981703923498 -0.04095822265573943 -0.0081164915328143135 -0.10165844254924458 -0.10669659184598099 -0.046684357473119116 -0.1966804443381879 0.0078905123793800557 0.18406686787087922 -0.1632961870614198 0.080464893215646843 -0.14185345880849756 -0.13725499825383478 -0.16540450903900702 0.034578822828557787 -0.0785136169062471 -0.19211171513866138 -0.15437074860359762 0.0013378683545290776 0.16432761820221592 0.11917095846224644 -0.0091512507827449449 0.03315063642986206 0.094845308272851231 0.017246951418972575 0.0044936287645901728 -0.067419975016571917 0.1099472200421508 -0.097876330411583667 -0.059303468801312945 0.18398565120202631 -0.16344338135095754 0.020949200117336936 0.17594149194408271 -0.053027024445523666 -0.078972462620720635 0.17114389199363841 -0.11458307835925105 0.046271561039479644 -0.053509934893381773 -0.11691647293979765 0.10562566998565892 -0.081390805966312596 -0.10454406932375573 -0.1340717520606991 0.0089769901868515314 -0.054024620790789721 0.18418036314879588 -0.1389378858906469 -0.14216634134906722 0.025518803224608127 -0.095809836755112524 0.1531557900263836 0.04120029542324035 -0.026961304462938322 0.0349279106328612 -0.058927134916873777 0.019195567307137971 0.10733752939951828 -0.13218508165044318 -0.11397295389874387 0.089009238258831017 0.048086749740721142 -0.12950697418241314 0.13391693421829917 -0.039497834341797905 0.0049311409484371705 -0.17984124467508109 -0.1360723830976413 -0.13858580777226986 -0.16966235655978781 0.019920136397804537 -0.118551916396523 -0.12371352696696127 -0.1187850294039645 -0.16556125370958941 0.18156456773436014 -0.16631541780084796 -0.049858061046178806 -0.04301131396871774 0.034284600810615552 0.082765396736653646 -0.16637154766036555 -0.17886937170065617;0.16039316524754532 0.15729824882291052 -0.087664101456325166 -0.11963006670112666 -0.019751775516879101 0.041084003111043571 0.12724495151351789 -0.012912276056917821 0.013521295765172803 -0.15167760367284883 -0.091737216042840061 -0.13654311559862917 0.029969961813680345 0.16290840327089004 0.19271063226018154 0.16283277931574053 0.15029805567753959 -0.010465688189906432 -0.092841492219017219 0.023440292217096613 -0.076700785302532104 -0.15066373421183263 -0.15784174215438579 -0.14353783199725895 -0.0029919552243115178 0.079517021273766808 -0.026041297283122038 0.017234549583881112 -0.14741906774838159 -0.040825031307630676 0.18207464642220306 0.099079560874083455 -0.0067043202164868889 -0.06849335290176313 -0.05014489573268429 -0.013270529704851302 0.0075874201433223784 0.11670830369649074 0.16870992390143816 -0.13816284115859934 -0.16686650373339951 0.12462375104677896 -0.19286455403439895 -0.20333852661610993 0.19668495837778435 -0.014437636033738077 0.033065384377786076 0.039267266967181552 -0.17771745439333342 -0.094320901717246441 0.2001549331110368 -0.08941067166017766 -0.11789822951289385 0.032243955892571612 -0.065537152036657401 0.16628133771156745 0.037356487790294809 0.20240444246992939 0.16011284959408639 -0.015671095334610079 -0.069427494859133021 -0.10324311264956108 0.1421296352688782 -0.040565202552223276 -0.05421917031450043 0.082614983378544032 0.023856519696395507 -0.11024566648614434 0.047206641166348616 -0.17218778216986266 0.17138032587706029 -0.093359927477025567 -0.031678686662360067 0.041364483034635524 -0.1770445312974849 0.096824413292911804 0.1802093974656892 -0.07667328914900684 -0.16073315962763021 -0.17343607877839809 0.0081048346309526634 0.057170899737221594 0.046508196603893284 0.044855256572288116 0.1238491532114164 0.0080983450533622259 -0.039363853167543615 -0.10173146378818458 -0.060734301173688388 -0.15413862343689536 -0.070052443206629025 0.062014994497647052 0.20444189365271939 0.01164772182105394 -0.17726439962921495 -0.091870237318431136 -0.068235166288817053 0.003110719615412491 -0.09193918976607994 -0.009696776950528202 -0.0063930547596321007 -0.0017368919430507048 -0.0052472178119293399 0.011519190615513958 0.17248314942423942 -0.046759413399138375 -0.0024498481576154503 0.17217148837441418 0.13675496333485912 0.083389998409627381 -0.13212419255958383 0.14087764417878704 -0.0076377700962557138 -0.13638483149145403 -0.0056783394471210721 0.13422020317364672 0.018617251526068614 -0.18465983739560615 0.028055815869658714 -0.12006535023317112 -0.081413274133441446 0.15652208340540033 0.20378518455612668 0.056856689448026548 0.11081602870528616 -0.16286895244223876 0.087601104224713233 -0.15933303075583991 -0.14184267497093575 0.18672540705670829 0.0064686568120214671 -0.0011142125502489162 -0.085373009003054279 -0.11734867442040714 -0.0053892014923327012 -0.091913674887074956 -0.20071508798896595 0.095555479616498767 -0.074360087265999963 0.11263531447204009 -0.047732478595225281 -0.030284251633352539 0.010340120956730047 -0.059460893820265287 0.064316607562836345 0.12736186847909775 0.13546095437520789 -0.0048962417036315792 0.19770108720429602 0.095560826105488134 0.16974055571762883 0.0022617243919187476 0.17316722160138795 0.1669803472775726 -0.068562182578532527 -0.17875493922931787 0.074572192563684886 0.18376974737019208 -0.13114142706035262 -0.051169978536185039;-0.070649808969853525 0.11661311983094146 0.12892658627940623 -0.071280776950139152 0.15405261141685839 0.067101739204923017 -0.18687559677562474 0.13135159161417767 -0.13107528810370048 0.071750789867788559 0.042609738498202883 -0.094850738924464273 -0.1079949755258246 -0.16185503495093612 0.13871721103452606 0.0015486115287957629 -0.052265407912310428 -0.053444241788427403 -0.14313256992978451 -0.16751994548505131 0.15616992789972836 -0.15109433802092584 0.07818478210570412 0.13753392843987017 -0.013462265842664812 0.0180132600740095 -0.14355973635514341 0.068268467423879681 -0.060767865678625015 -0.039353244369735967 -0.02496178206769057 -0.13263574111653348 -0.11861658502300211 0.15841708557245207 -0.11860940607628784 -0.030170459215195452 0.15991826425331482 0.13701392703060597 0.1316819030002491 -0.13319638760710484 -0.055518422436102291 0.18841577555185457 -0.18570273349777433 -0.053800243144560132 -0.11839845203686289 -0.07540650411544049 0.035591319224062515 0.063046009207888221 0.094309953941472138 0.086519876738395438 -0.016278560189040902 0.12060189570324911 0.072761536623747597 -0.034839753772767122 -0.18268803365218303 -0.0024145163849210731 -0.18667998463173255 0.17588645394413208 -0.059422318445059387 -0.12178703628678611 0.15078550733006776 -0.17562732400155834 -0.18209056634712756 0.17018028037917809 -0.047610499810920283 -0.16087930533619185 -0.019301213463520154 -0.14430372381747214 -0.068147915852577831 0.045513059080997023 -0.074217462785948721 0.16806038693304942 0.094459037599660761 -0.013877637932784282 -0.12213274939043837 0.18013601909171439 0.0054121780677179494 -0.098984617661330127 0.12489363035484219 0.045750977857900832 0.17641834621916561 0.021212870848762527 -0.09195302166456587 0.075917111488328498 0.17522981002152271 -0.044426641829391697 0.14599249878932208 0.11442572287297455 -0.17451436345044821 -0.014175365626889577 -0.1085781497048411 -0.11322995590377324 -0.026031470334703689 -0.023791775033955843 -0.030079864757282696 -0.057603209222389956 -0.076819476703449394 0.028789364639643218 0.021199684673659444 0.10743001011434292 -0.15908964272300669 -0.11507459087613559 -0.19461871230437752 -0.060686298319276043 -0.023551136029193828 0.18019085250756658 0.10200691099075213 -0.044587175043059604 -0.014276413023409781 0.13737083574321918 -0.10504357733484994 -0.0031521733026197867 0.058632293766302322 -0.17826444756291579 0.012592935270145806 0.12009770714233702 -0.052526076255094055 0.05285835294440825 -0.026829643110468301 -0.0051507942516143095 0.027317244133609735 0.17897206698093165 -0.17361809854529267 0.023369645331966983 -0.11758609357002442 0.18233541663234926 -0.077995159282370302 0.15705492597752096 0.18327587449211466 0.18568018874484513 -0.17695102255341025 -0.1599361530200219 -0.024331743198133537 0.059396293789843284 0.16759712653033179 0.078315056949242484 -0.19072797059924804 -0.15670022022940927 0.068864839663937263 0.046449237571873275 0.047127931474350265 0.15307986792826669 -0.20002712577220708 0.04424991984990756 -0.10078606682889422 0.18103016554090814 0.086278475881873679 0.023371261319730871 -0.151653926866643 0.0094166144190336691 -0.086982018842478609 -0.1379321779907853 0.17589110803709168 -0.046539884798614921 0.016953997730675185 0.097472717411003829 0.11642332055614542 -0.013691653775252239 0.035910080953353671 -0.093233177604119422;0.080121661784249884 -0.049011500284459483 -0.081207126284967221 0.14481441943524753 0.035422422398669884 -0.11129391011638824 -0.11616455244964062 -0.0725984978604821 -0.15962258647785829 -0.10236388208973858 -0.1124726187681154 0.00086569458835272816 0.067652890733150686 0.0019228116743726952 -0.047514384292526322 0.052428376603630131 -0.17309804726435524 0.097187370347782409 0.0075930225952364309 -0.065014958446358545 0.010779528433075822 0.12873062057945447 0.061033182575382039 0.19972925017394821 0.10773906264158097 -0.04056349259690617 -0.081818321026479374 -0.052800148534596261 -0.17180257418300288 -0.0042997633955282359 -0.097894381087228047 -0.12303362618414686 -0.011705276207288673 -0.17801202709489725 -0.15586481923612058 0.052183612508763924 0.089455214817644887 -0.086475452789791879 -0.1789993502756663 -0.14740667368325322 0.18546282677532422 0.14121238322019497 -0.051336528773520941 -0.11920358616194697 0.11296010098901843 -0.092167201303148052 -0.12722480045851478 0.040797529128778466 0.1956249252382187 -0.018221428588497943 0.18321286747948401 0.027811222578605483 -0.12820195889311128 -0.091849696596519939 -0.11553160331532038 0.17488455308263431 0.045872261444992693 0.054499683026778871 -0.073787665087756638 -0.077191380389556197 -0.17710285030157349 0.11060132015183916 -0.058838373136810916 0.15026542044971378 0.0075341083191820769 0.13235883876257251 -0.023573893782384933 -0.14086334989804897 -0.065054184600692053 -0.080405782931578101 -0.19093389415896189 -0.2090857901250103 0.17356266939489415 0.11790727193902253 -0.11750120769879663 0.10199628900095394 -0.10494009989682583 -0.15891128968461382 0.074027710138377792 0.065465931396872623 0.20723506389787238 -0.13148134134400455 0.17336375062662532 -0.048250843310455892 0.005185995859053702 0.20853914831253675 0.046127200799212877 -0.098012018430907524 -0.072934891051343126 0.0087568957648802501 0.032969263863281868 -0.19997064798192485 -0.011622385258204223 -0.11447338736230321 -0.14187344932187171 0.11629209397887504 0.11478757396708701 0.1089011185475481 0.013289769377092682 0.0079312147294875977 -0.16562564350202708 0.057936104475178059 -0.1937335578409336 -0.070048686901686169 0.01594945260509063 -0.017661441003522474 -0.065972243589228305 -0.025014946279642625 0.20532495995225122 -0.16868822142270923 0.028116573028663668 0.20651017821925083 0.18798805606904848 0.016459372167999687 0.083710584851907521 0.03081154786515472 0.095419648345422534 -0.1421066818504417 0.18166217195224632 0.014222849190083001 -0.039117794792891833 0.098913429388403237 0.0039801770823252288 -0.024484770539558658 0.085861598795421878 0.13938983225089976 0.059949671943081984 -0.20153487291531627 -0.028662987186217976 -0.18415408642423833 0.15761535741449245 -0.17064759849689246 -0.060223050619843822 0.11682971206005989 -0.034797930316432461 -0.14518430003562563 0.011090156495213638 0.16052976948667425 0.047837005969135316 -0.15418690882052966 -0.083834531742867188 0.20040632796055141 -0.078599182716935098 0.01796705130058834 0.11304746253866813 -0.043454076412859373 -0.060747656569677941 -0.008703530573765805 0.023584727010399518 -0.15747122867187557 -0.10203608749009357 -0.12583625134908122 -0.0733244858873595 0.16990515795531258 -0.16878261180544482 -0.11858272061973252 0.049715535291956714 0.011619930460280429 -0.17690290421559207 -0.012627536180902441;-0.1834306175686484 0.05846517526700537 0.16127629931541701 -0.1609833878734821 0.17400765004713947 0.16169763891326916 0.14886993324206249 -0.15603540402485624 0.13378348642282345 -0.048200891850440637 -0.11932808125996013 -0.11139575709333564 -0.031683125068407071 -0.17697969625927937 -0.16300479705410903 -0.14675547501309616 -0.06258613198467336 -0.0017780719909940654 0.0033038303600023493 -0.0632441712629844 -0.089214031839367269 0.1478120538497443 -0.16232090553252246 -0.1511456812912354 -0.001646559145261927 -0.1222209729141442 -0.14027551397445928 0.089105397005021528 0.15088851686390806 -0.061348041031771133 0.10432737942673978 -0.023377607759347156 0.15844429867914736 0.020531089823684342 0.067597263334941024 0.14981515886553315 0.010934238277991387 0.12080747995520448 0.16029221160845697 -0.084570357231780344 0.12708596128972943 -0.10747043540535912 -0.073520921834373434 0.15551128296476086 0.1649175051630587 0.17807416611848681 -0.1303281064119893 -0.070823641788921157 -0.064867214006196439 0.1288294836515978 0.064359288799242964 0.10030344018431961 0.024824613603038739 0.1308186228517933 -0.10945729065171272 -0.087102811130184643 -0.092270721131872152 -0.093511747547834909 0.039715953965331924 0.1671860631584875 -0.0072181942408409607 0.10624351302158873 0.13510030027499584 -0.043450101665719394 0.11213768030994047 -0.084282319659447824 -0.11311988520842441 0.090623447844292437 -0.014713087222613675 0.12948653130066953 0.046264417139149396 0.14043776033826161 -0.0014379790224167946 0.11895427301739582 -0.069637940751201027 0.17385745853877529 -0.14755982102117163 0.019148206856274694 -0.15853771487699869 -0.082628856729263539 0.09934884408054688 0.043340148731996063 0.13059454431149692 -0.078556240888543294 -0.14498289552549351 0.058409504374856015 0.17407688847602235 -0.12531392928907173 -0.099159073795559965 -0.057503780813754159 0.097425138250221491 0.050563240318081307 0.060395737708714779 0.10665013030233625 -0.17054502618681985 0.0483224464774787 0.049968524598862939 0.1047938733792016 -0.08903056057380157 0.17951751315054371 0.12613987851886488 0.088194061258384512 -0.054791584187400037 0.14597876590316033 -0.095968133857281465 -0.00051951827815982 0.142819312290693 -0.16254753281658613 -0.1826476107353473 -0.099341347007665254 -0.16245153342891669 -0.064884302760951959 -0.056193178540873773 0.16570774368972394 -0.13973043096030857 -0.18395554910569606 -0.18261048200113564 0.0044478790798899489 0.1820832975527179 -0.17039148805893792 -0.14393099865106607 0.010092405483137798 0.11048867062359403 0.034114536321395404 0.17163996020940095 0.08128214114152893 -0.031048276812910738 -0.056296795168006793 -0.12626362141971545 -0.1008359814408431 -0.068085935108195564 -0.0079582543656861564 0.11989119218246937 0.16663178898608014 -0.1113969392701694 0.069323160060146966 -0.055961227228043683 0.13449157995799438 -0.055598125348753885 0.043808394482668621 -0.0079026868245910698 0.083219021119772432 -0.048108158063092307 -0.15917390424157613 -0.081485936252821758 -0.14520956054224313 -0.12720793138839381 -0.1406703615240118 0.019866858744847383 0.0096920466640735906 8.4859492255630486e-05 0.031604175492253223 0.0013896625974577038 0.087798400413589564 0.16692957598047134 0.14867665039212546 0.17664836411909468 -0.11788000443295799 -0.11596826808681651 0.16338427143394355;-0.062126748442869251 -0.069730215264730291 0.064657907924818486 0.11758368090710165 0.033665708258616839 0.0085049890583875441 0.13471313153630138 0.19818280408254829 -0.089891911488687234 0.1850939247859294 0.10782962122987791 -0.023477792642370373 -0.029014469148167667 -0.12702964430568314 0.031270629918714023 -0.20135174250847557 -0.17115666191404086 -0.18420842225571143 0.015760506586216177 0.13492407222089564 0.18345402023187579 -0.089521833726351238 0.1077341434979581 -0.048860407103124254 -0.13562712895768231 -0.114887729239907 0.13388047830276345 0.17640676214632967 0.069130843752692281 0.18160439825753699 -0.036835206660311738 0.04839509921333153 0.013446970630911322 0.14067091684867858 0.062073610018225575 0.10625744801651292 0.053068994306370305 -0.0048884034693133516 0.18157074260785866 0.089753752986574759 -0.11901043515567211 0.14686413465144729 -0.077289224544053278 -0.059056016686428084 0.032844205510927572 0.099422149373431593 -0.0020076308902502817 0.1501917643844195 0.15387524795750246 0.19253247445055063 -0.0233887837245286 -0.043476299676571024 0.18869412730991958 -0.077366336466192412 -0.12583404897294154 0.13185263079336693 -0.071729216874258997 -0.032481442421236691 -0.12895256034690644 -0.14254043395090843 -0.14904754483173349 -0.17347106049287758 0.00023771253202325954 0.069043160444192161 -0.0033536964692895913 0.070729670238069364 -0.12913761084977288 -0.17692352011937709 -0.17024002170657124 -0.17513409072538386 -0.12906758509055874 0.058412430522617603 0.036266682384210484 -0.093688394413995277 -0.00055624348455019911 -0.14926266871110189 0.1173295704356507 -0.079252873429404125 -0.12116668664263797 -0.04618013757628224 -0.17847582807881029 -0.077164930228396017 -0.031751456189771599 0.19448634889214392 0.028931188260080822 0.026743969915233111 0.022987820491977239 0.19079687053804822 -0.042872984667133289 0.029393775174720943 -0.12237817588861394 0.01165658572811645 -0.07212486778425406 0.01834149009952879 -0.13155845610909755 -0.18732673902605632 -0.036755615621620913 -0.11627759625966887 0.0028603224816145132 0.058494423767222449 0.16207036254874854 -0.10477312724475442 0.10501787088144243 0.066403203437376615 0.019747024930646638 -0.13998879889954571 0.050324254879902303 0.0099338648403249439 -0.15985278822204158 -0.014019892354444475 -0.12540163251131756 -0.037917483615747954 -0.053034797928780505 -0.088704293208786741 -0.061605717484488794 -0.032237862523770797 0.061451373961790928 -0.093732916207932712 0.036787107689568388 -0.19066188842846798 0.14668281598946331 0.19834869204626318 0.089154641396756371 -0.082433597094285493 -0.1691856204562496 -0.13397782911792416 0.049313626405089572 0.020968325650419936 -0.13719763822052863 -0.096391402531299325 -0.0067880168099972256 0.14577818042284996 0.0053684216513352478 0.11395136145147836 0.058054994286730666 -0.11910212018744029 -0.093480582403878826 -0.18247562651976729 -0.14452910843008218 -0.169642964958959 0.011328466071894088 0.0017461932702657929 0.15023993937164884 0.17663503478380571 -0.032759911752694805 0.016510364623596844 0.14104214263424739 0.12309456584582007 0.029907030285022472 0.040585912326884965 0.028472690710077828 -0.20693454617803059 -0.17658364022499548 0.18214767399129023 -0.16625262249627529 -0.11872388043234598 -0.11985464983201599 0.18700358266799968 -0.18525179313960194 -0.0041149208937351313;-0.0070535064963702515 -0.10988090488995297 -0.19156094156706849 0.088141753982947754 -0.062534846013815218 -0.19158013829577344 0.13371681014213077 -0.088020911836548518 -0.056614486382089095 -0.19280417610558354 0.13579823926445383 0.12188040036419832 0.094631951067377984 -0.045874766630326948 0.06485519810933206 -0.00059230442151726325 -0.15262563043381863 0.19544187625005377 -0.01339605264121284 -0.07478455669233719 0.13259902164091594 0.03062798618779343 -0.073499894373173683 0.1099398792595523 0.077946019304955858 -0.14536127140131255 -0.019624108700815279 0.15051059956783522 0.042347418214472875 0.15071909587376414 0.044976790059706923 -0.10291192699191971 0.045657193964048416 -0.031964627243333668 -0.10735434887906738 0.1493176503939794 -0.1409206921231147 -0.062981961094088393 0.17816054680266899 0.06689891591169625 0.1343478203253623 -0.14356951970955401 -0.10497013318022858 0.15272553963850094 -0.15465910106389172 -0.14434666236874374 -0.0048683394236753233 0.18626066317535553 -0.0590926396924044 0.15026582940074223 -0.16049982901636467 0.075174232223933546 0.19687223334638423 -0.17767916519075569 0.08018570920267401 0.050472182142505963 0.095169788619151333 -0.029654189540900454 -0.068099895560922427 0.087912975158037976 0.098572998098116843 0.10827148709464451 0.034263029305720998 -0.011271635046305788 0.20898789652688946 0.16599096206489383 0.13957473731508196 -0.16811065978960574 -0.067460651804867516 0.1054552946058092 -0.18785952857162946 0.18145702013859777 0.10660212254802731 0.064955997822189998 -0.043603351646434654 -0.11088237877603095 0.16908829547490836 -0.07512025212580771 0.093701407523726257 0.044333228917572597 0.01837435944958438 0.14952534439758539 -0.10856866584247039 0.15891754866160124 0.065433620409951432 0.10669577312139183 -0.12504907605073939 0.071822648062700695 -0.078560576065092688 -0.059595094222130586 0.098502381269433864 0.19713295585924434 -0.031023488623368057 0.19772884228457971 -0.03996448056161573 -0.080535420820516332 0.17870061799029607 -0.13236908343832138 0.1464315474940176 0.015971645709593248 0.0053586705282671126 0.0648446212765664 0.047360533397456141 -0.06769716060796642 -0.015973765683352771 -0.17072786948362284 0.035343293082074692 0.022229706751924722 0.16733646283243475 0.16877898242750233 0.13582147051217999 0.14247631539942404 0.11364034226821605 -0.0057890409529744169 -0.084107370422492972 0.059957183959906936 -0.13797127714219409 0.059486758133580259 0.12476935538803291 0.10513334282388397 0.0014572428179472003 -0.059938372289355821 0.040405139758595499 0.14744451931059993 0.17097206185039998 -0.16848740236239892 -0.10080507383150736 -0.011706726006166061 0.029925172414472932 0.12245568428616513 0.041671202176930537 -0.1600496252686282 -0.052543091212062562 -0.057611079890739512 0.12515860368243439 0.017927407496377661 0.13855456811358366 0.11020360644444357 -0.096974348037022942 0.10946451497736175 -0.12668109471896633 0.0038112262127817671 0.18274353758260303 -0.19402175782941888 -0.0015118069554083946 0.056025567510377121 -0.1851571054118914 -0.18594649528283719 0.16642473115556752 -0.017098052685109007 -0.18560979048096057 0.073648565043813619 0.052468955181319082 0.12854112616201477 -0.048325529342790073 0.01309747115937567 0.14618621063592921 0.024775681615036627 0.14086616006568836 0.077901774175775568;-0.084466072626641409 0.13980507946433943 0.094972075707693254 -0.057379466817457495 0.12288152053127918 0.18870963902258162 -0.13808225310930433 0.045543632820672572 -0.087422559571040587 -0.031530455817684003 0.062740125541544706 0.06939519020438692 0.1680888109502231 0.090848327990939295 -0.092570198475531329 -0.037948353680534973 0.089430768128580029 -0.1714293142564294 0.056797904317412606 -0.066724168311283333 -0.16005616571648629 -0.19261829965268121 -0.057362818281538643 -0.082188329820094955 0.12357227620668397 -0.12048717805018759 -0.1608296406386529 0.19910751520698364 -0.13857374883984638 0.0017298587761173771 -0.12817458362760642 -0.16658100105450041 0.14819541997841043 -0.036056331743044095 -0.060514567394712067 -0.13463797708972083 -0.14634256291833642 -0.14172432895273113 -0.070223095455252377 -0.13614115435153218 -0.09051060558624327 -0.045252719083894777 0.15494010797133276 -0.15894836107348168 -0.17588661373028555 0.051069462746784075 -0.15112548623704922 0.16876316804732186 -0.10335149723347906 -0.038402199374641732 0.19259020420186101 0.13252539869446781 0.11257958616026616 0.095005125459324061 -0.12749600975330505 0.034576530594345005 -0.0024467187002682592 0.16354173828083957 -0.12925735136322788 -0.1062359839880153 0.018746355181714056 0.11227849001076416 0.080666638259632675 -0.13992819656515498 -0.050967267687832725 -0.16289823412732773 0.076780067445673325 -0.098133901119058189 0.07586014041290659 0.077681246948911736 0.032461179432555783 -0.04690689558830595 0.13561505944265537 -0.15155008217730967 0.18167569678508752 0.10789473551063283 0.0085550696071576785 0.063686030765697205 -0.13172122626812183 -0.16499686169337763 0.030840544880848031 0.10315193420207919 0.015541861544852072 -0.15371220888718296 0.061854833078850167 0.11988699499145959 -0.04320822791485672 -0.17579943551261668 -0.0093380458124321837 0.13308778972972504 -0.01207635942588082 -0.032258472225265407 0.1171467417595014 -0.0049781788449311682 -0.13813458003403389 0.019774427632132656 0.19365626495518146 0.034611199554602005 0.18920076600477104 0.11036950934085309 -0.0063179040028955111 0.038210031942683242 0.033760260984321985 0.144263576248573 0.066184610889846562 -0.0031387600858883073 0.093815604880549408 -0.095864093167463374 0.14666615467249219 0.040479280018866449 0.089941580801891519 -0.0062846804220950637 -0.14725130965950531 -0.099526608546123024 0.15509370197850864 -0.17945022574918568 0.11010385052881337 -0.045171972909603092 0.12649656994273409 -0.012648844262009282 -0.046762584453002604 -0.053955632868691206 -0.15527437073919897 -0.06626784722309699 -0.16560923955970533 -0.16634376020800995 0.10574722411020122 0.0092631194722954373 -0.12524061455401816 0.19093740679395868 0.038594637526390196 0.076904306605650896 0.15740154198189499 0.058970564182626126 0.13682066045712865 0.19979237090252555 -0.090898324193459196 -0.15999616327839097 -0.012428926426427985 0.11698913798299029 -0.0052040933977030301 0.14180524602772249 -0.097818856007645894 0.054802487102679522 -0.19355886019315735 0.11681208965906711 -0.0039144475082389732 -0.10515626125929338 -0.054167167890400471 -0.07500967712501512 -0.17567146162336314 -0.022232481081510026 -0.096415963985013009 -0.07249096900484156 -0.19812853051540322 -0.062601545489461868 -0.03360585013433396 0.19747670426059852 0.12427829581679038 0.11566904539389883;0.098574872182354556 -0.16639802528121109 -0.043503648853784833 -0.033117884183417844 -0.019964668727223734 0.1541286875463975 -0.073746901334458173 0.17604507729698424 0.074275518401475449 0.10651941009016895 -0.10627607073118389 -0.089062243048991865 0.04638226821619304 0.055860288706058511 0.060799913218465521 0.20681388593121225 -0.047065794351315172 -0.043555235243071477 -0.040482771897339426 0.12569610362550074 0.18599852069452169 -0.080382199986366171 -0.14699482832119548 0.15672003308165552 0.047297466311279415 -0.17785942609295405 0.18484353561957528 -0.10457621396989522 0.026635170177513955 -0.15818635407521298 -0.096286161813634294 -0.054465608527137374 -0.03484038696982817 0.064108413422703972 0.10382240933406019 0.16362127055269779 -0.044114238885998726 -0.095568947855666539 -0.11553108547965864 -0.18523867194334337 0.046649597449309771 -0.14656159411432559 0.0005065587446894265 -0.18719879589514102 0.041625232377313012 -0.016037025192697178 -0.075186019419268335 -0.053511261365610518 -0.11845443346302463 -0.076286104861673393 -0.078319810724621672 0.1317256931888513 0.097771310853654758 -0.19047558001030196 -0.062167260965236115 0.054575928161586545 0.17640397474542641 -0.15036232337274558 -0.0099109785154096915 0.13126295986743847 0.16891328868808014 0.11882039849850229 0.15463065551752006 -0.099191842150467308 0.1281975117758902 -0.080900132970785937 -0.041605770466936275 -0.13346817298173949 -0.15473259271716325 0.083612686666481084 0.011463924003716548 0.046672874385145585 0.048955016139966868 0.10534385378918815 -0.062172494113900065 0.18321896235653265 -0.032072127279776749 -0.035854438271742693 -0.076165534773444912 -0.046324258259079813 0.08868417769433995 0.10418177894405413 0.078949650235981841 0.16417658401147456 0.11342311247205844 0.16700789643811836 -0.09767718971779224 -0.0033691255612936727 0.17279543149719673 0.14718092220167497 0.20165773417616187 0.1894178343441896 0.074900240784893574 -0.042304211474224439 0.075767808084085064 0.16893207019560344 0.063609473482901066 0.0086230929695716996 0.15515434274402176 -0.033739781022742638 -0.18729476634154513 0.016589245200482491 0.088276553883669506 0.088365076578010099 0.049269015688052309 -0.13532246414395879 -0.055461262211360267 0.17232196674935912 -0.046705662685555774 -0.098142911383074197 0.11198741515169393 0.20602969986483027 0.014951839982124666 -0.071006455890201867 -0.13081886052696651 0.093468053087339867 0.00788508067772733 -0.032010413279988111 -0.17131970180240713 0.079600198515127507 -0.12164991221956807 -0.19469340811409483 0.024733119401546721 -0.069507041263360186 -0.0040970496239129657 0.12099915812116857 -0.0021311050688090187 -0.010096539586506614 -0.088296765240471073 -0.19805636446491617 -0.073506223878827326 -0.1428734497403488 -0.010098705242925965 -0.17360483257633311 -0.083429882017792736 -0.085650263039127164 0.1027078778121993 0.11360781760532214 -0.10055358192564542 -0.082812575018235426 0.13286214902616475 -0.032275046794675619 0.17215150910920846 0.18289987585432016 0.072725266412562495 -0.17507137625183689 -0.10787178914854947 -0.094154775730987086 0.16904102596905704 0.0034190524100018603 0.20682998228037647 -0.1497645617570946 -0.078197454945290151 -0.1458998845951201 -0.11380039746921568 0.0063201266480804362 -0.045644016004456556 -0.042532016252849261 0.11803360875394306 -0.13877274807140291;-0.14538425722728668 0.15197533326752397 0.19139133985956755 -0.165707852281096 0.04198917170576711 0.053872281962326171 0.091553030106678313 -0.089915337748939797 -0.18779586581328689 -0.06690000871915748 0.032865074530551472 -0.18204948691083872 -0.070979657833357371 0.18061526263381897 0.10811101821040912 0.19219334089272017 0.0017650106873362311 0.088995472516913837 -0.10949143909884897 0.039292934570756513 -0.15235204090518653 0.15294197115851305 -0.090482205525077866 -0.13162647707935829 -0.027958902497210617 0.14626933958231442 0.17800361349642871 -0.13348066388681099 0.044713608117265567 0.024028764724397168 0.14970358652745802 -0.13885996731855807 -0.072458829427419463 -0.069571556328651418 -0.15008250435692513 -0.032771253258069045 0.075609940433045336 0.054791156373578308 -0.057425236020210636 0.16477822236816225 0.015896891207532803 0.17786787397052595 -0.17341686653115077 -0.17842902011146117 -0.1197929725075913 0.065298091834757058 -0.13682705528031089 -0.1407776462279223 -0.060787592457557514 0.031843954559649487 -0.066806211355064093 0.13260451987455188 -0.0059553568049292944 -0.19015119911310568 -0.090864086864418228 -0.052376566076370125 -0.17732115134347334 0.18270446067718882 0.11740719938446896 0.1098579520833106 0.061121845339955544 0.11779680556913301 -0.1078520125126798 -0.10560194647609145 -0.18357925461534516 0.10112991331609196 -0.11548211589078158 -0.11582779722629365 0.17765739804999109 -0.13112188336177066 0.054900205982493108 -0.092427420038974292 -0.024088215336049334 -0.18453396035925471 0.064569602992206612 0.12796044727616568 0.072115673448686024 -0.0057351443718489494 0.14587389120501745 -0.053475268742706111 0.1228799476946236 0.013978480626637552 0.085815992831207041 0.052512795437587446 0.11946675864462422 -0.0746806885200864 -0.13887662187286831 -0.1622751098010225 -0.064849989061926031 -0.093262592601344979 -0.043142848349743385 0.19021053840231092 0.091613217848439163 0.11056819097227844 -0.12041979428165718 0.080166512902509965 -0.012665769684719675 0.13076676741088814 -0.16897890047489736 -0.17891434714963211 -0.17041686339889628 -0.15966086578201399 0.0052743140255911 0.16191936794659909 0.023783687757497007 0.10886218670523812 0.13141452390548336 -0.18427080622516784 -0.070176489393367542 -0.023225775878692317 -0.065911277974907714 0.044634964990203627 -0.051869741319555691 0.041950124481683546 -0.032296244579256582 0.030181331208453375 0.033516387945150092 -0.16490830533522202 -0.11061551037489299 0.039116894970959118 0.026452217635133449 -0.18812541772892094 0.14969584077875916 0.10093854301526702 -0.058018505737592367 -0.073438712894587588 -0.058595979602721837 0.08893708378829325 0.086070990335535474 -0.0099742474919210442 0.084411523131749489 0.080156801929865823 0.17744256793707822 -0.15347353209668552 -0.17187638423465451 0.18357140733662933 -0.15762230836914942 0.10741416633716871 -0.16563869394768868 0.030425170894793727 0.061016285186019904 0.02733587473742435 -0.044836675063959067 0.0062843319030917886 0.025848656217338766 -0.050161829852401786 -0.088146243217012199 0.15398659458455694 -0.032153843981239771 0.023691663930020319 0.041557790542613667 0.16607302547827862 -0.15598620635612023 0.1061236073825268 0.12977184511124346 -0.082388586141664943 -0.022315803958756746 -0.18617809423954912 -0.010757648547535628 -0.066885694684495997;0.14388966433217826 0.065986550928495535 -0.12063702622394783 0.13723269299058405 -0.11754960243732036 -0.17023447241040679 0.041991391528511911 -0.060146721989968538 -0.20164516359878276 -0.20316373768246795 0.18851760818074623 0.052004322536023051 0.089562460013245304 -0.048731855020672218 0.06128875241466996 -0.081969442984013402 -0.093360747499131563 0.076182285043329467 -0.18659483835320476 -0.16324071977274662 0.010240632994456029 0.034543303051730825 -0.042632423612254951 0.18423407088988766 -0.097184231325083373 0.09076168858495258 -0.090936360033274377 -0.045071063192694223 -0.088084436825041967 -0.051117840774022608 -0.14740788403177538 -0.01400617789098331 0.10506425374287154 -0.14523528404782177 0.12992512982226828 0.058671556778433567 0.086681907542971295 -0.17460500863505718 0.11602940737329326 0.10089083291636257 0.027459607314755153 -0.17518510251771954 0.087423015917606442 -0.13750999981940443 0.10307350590468584 0.082071127020873408 -0.18152663908763095 -0.10442753215723957 -0.12897148193701174 0.12040267748668158 0.040394361876107725 -0.060850949827083771 -0.15885990664267802 -0.032775270012294563 0.0093405477789779874 -0.0093847818981144908 0.17331509127713784 -0.11517178525965603 -0.024762504475938269 0.099832415378408548 -0.091944384572608326 0.03486608806610169 -0.045079361311836645 0.034700740128616563 0.11204741896552969 0.0053673781862239528 -0.097761192533816682 0.061684879215298659 0.19953584897280413 -0.072694241195149861 0.1305478113901323 0.042193018988372785 -0.084315778935952657 -0.01790171927134861 0.12560215726157822 -0.10680049656050125 0.18757698608920176 -0.16456936296929783 0.11614500735312278 -0.039192587229503688 0.063495149122980321 0.014146282694554431 -0.053455811772769007 0.18334691487157667 -0.13026011078931551 -0.13803707304058632 0.13254816094939917 -0.044941134900399922 -0.037518182622351334 -0.19157568419497809 0.19777158730621283 -0.12126442257097379 0.031899959877958975 0.194089806616913 0.15207327350260536 0.19871732615752466 -0.15755718175289493 0.021336161847901654 -0.10754441683993694 0.14684684359626213 -0.12432691838579636 0.19721004805123088 0.031976777778636917 0.044979835068540405 0.086186185657437728 -0.10388722182577298 -0.17537382668490967 0.093267936998688059 -0.1085035139608047 -0.13887929376874802 0.090361332227281016 -0.076163030090744946 -0.020586336072236602 0.094801773061437458 0.083197350574313531 -0.16246267365267242 -0.15469030585134338 -0.049652166966762841 -0.060398593110098507 0.013250432473950594 -0.011614452942003473 -0.11960144046485045 -0.098874988159254704 -0.096720228058580326 -0.10912522233573806 0.065889299893189396 -0.14886946586261718 0.071302375272073462 0.1887372234030541 -0.0098548262140988087 0.11450523642526966 -0.014302700976032175 0.087121989433090227 0.076092653581999542 -0.019444760533020331 0.090092802072032463 0.084176559855399305 -0.19052907943864447 0.011457511177378482 0.17542051583250517 -0.042027497400980378 -0.10106162149690291 -0.039251715613134314 0.11182171142797952 0.17643024436839599 0.1566940448918808 -0.18065743600815598 0.0016016728740685477 0.10615703036146698 0.16079213391190977 0.13591704151437903 0.032262094841602272 -0.14384491109820954 0.17887202751610812 0.076832809074389607 -0.1404505663918984 0.066835673862370923 -0.026201522731686484 0.079922646221960006 0.17874229264229333;0.11363007531924797 -0.12554339976773615 -0.13685357570362927 -0.07839020334067491 -0.18203399126323638 0.059100063954682577 0.038068178303965527 0.10819442341442077 -0.16614350900744776 0.15504605028503077 -0.068533347944487913 0.069866215557853689 -0.11291215809223573 -0.14624445995056867 0.058448783143684326 0.0050361947421963173 0.088013698553340972 -0.19032722408766134 0.15848236659538026 0.099059344419069759 -0.15794949957849422 0.035521126734483724 0.18946633229595264 0.020134352669429378 0.033602005294077607 -0.14669955103262416 0.13795177425970809 -0.16616349041764414 -0.13740929136651947 0.042483486521263811 -0.083983006990215284 -0.15868957492465319 0.13369019816011934 -0.019598095781892939 -0.042343953971629461 -0.14975395731289687 0.042526634543038906 0.12608955322929774 0.14637135244481939 0.042368111404091774 0.14101956801327145 0.11076006623108908 0.058565237782749573 0.058454541238556902 -0.068532625276287104 -0.12653222964261857 -0.044267342838317285 -0.0056290501785617869 0.025165098941675717 0.045824415723866051 0.1635092863187419 0.17539669353169399 0.16441873582546507 -0.15012035425090026 0.028897876273605193 -0.071962647438658628 -0.092602826373209296 0.091321023302807072 -0.1637818384713445 0.097860893971420296 -0.013499549586449885 0.0026141221432030787 0.12035107773610668 -0.068508870632616473 -0.066402301506164385 0.049074818414426916 -0.079196177621595129 0.11552783126921379 -0.14029900419395672 0.10260207749253787 0.11683158808504333 -0.11625169388822777 -0.16292709492909282 -0.096973826270327565 -0.16556542407420663 0.021645136771714261 0.046480048724976762 -0.15782238341879387 -0.0014789262906479772 -0.010930535367301399 -0.041653996842383176 -0.16450963310162969 0.069082719667314343 -0.025104665142818651 0.026725506184436212 0.14336578172095094 -0.14554860533189246 0.050795789335201388 -0.047131095163332887 -0.049553086358327725 0.0091255843828516921 0.14803312725557999 0.047012894356335232 -0.08242079725970955 0.10775037285391682 -0.040543465522788945 0.18608073022892671 -0.093829694495615582 0.19309109228293175 0.14926102738391273 -0.057498258557518715 -0.16445260753473848 0.18634107073285316 -0.070710600900129358 -0.1288508214990059 -0.12197067071739606 -0.13949615715768332 0.14271561602140576 -0.10387306480044635 0.037823761779150644 -0.11219041042357698 0.086864909316274885 -0.013416122909581083 0.19712687171224424 -0.041522108304572959 0.02685458583502762 0.043930852947396189 0.013010939091545151 -0.1128958505534091 0.18224135246735981 0.0019772653330805794 0.10577191984557061 -0.039604502419179059 -0.14495560969626684 0.10717462678625383 0.11902866553436472 0.054177114359507166 0.19697098424583048 0.051831764026328601 -0.14506971322370307 0.19583404498095011 0.006265873286805077 0.15091036824758744 0.16713343720910551 0.18787005843145349 0.10556268683238365 0.14071099770497317 -0.036404592985561583 0.16681576965175546 -0.061505442052157785 -0.1448401117950244 -0.17676848532238265 0.15808370757341347 0.020569988780982689 -0.07685176480310521 0.077549303552294113 -0.19044557361863987 -0.057011160081185251 0.19269734601780894 -0.12651005430414256 -0.052319650995580377 -0.088541374510837517 -0.13943354310758951 -0.19390507413871216 0.08844298400558416 -0.082020807777322735 0.0014815458600635847 0.10289911183289659 -0.095610370882344309 0.091448626676289183;0.072651269368429985 0.044811677122035425 0.11880066617223621 0.15567931272891924 -0.15981442095412784 -0.16759291825076567 0.16245688932162408 0.008911599874569083 -0.081173166345852782 0.15606011331907388 -0.1445473487898068 -0.037608763210288339 -0.070552273782021474 0.14572092348928117 -0.081711735855848289 0.13666093097008042 0.14637598307741989 0.01736857474929181 -0.1756484050693054 -0.060016722276298472 -0.16115982477325583 0.14382427188175775 -0.064819979600605607 0.13445774441902608 -0.071774048546790412 -0.12049374446094616 0.15001884698332602 0.0056417790999002673 0.011887591937216368 -0.17559323710638547 -0.10332413443333451 0.084935183676706882 0.033183050307171967 0.18774327145920466 -0.076026524890768249 0.13758685066177362 0.10434910174210026 0.034230140261459777 0.18147444393243295 -0.053984812695424218 -0.1550321086834581 0.10813290182244496 0.17946690493918116 0.1141019023046133 -0.014264971371320663 0.0027916101281721594 0.095276132896686697 0.16596536163592368 0.1360541811560847 0.14452313113830156 -0.052521708874591462 -0.16687601895034884 0.1404597407717024 -0.1520090121981254 -0.099761805966021161 -0.16965836553216998 0.17499158462846875 0.1410278891268511 0.033687503595858127 -0.16176857303126052 0.06426453255794988 0.032200308464068739 0.00044239973168081137 -0.18501685460820369 -0.093621290342114444 -0.1488312357823515 0.15757527105720662 -0.1919785594683372 -0.02943964491768887 -0.15035871335477716 -0.030482642981698355 0.073487263666135574 0.08828799974451898 0.088164289625588727 -0.16451764926755941 0.048514302800431404 -0.1777582186104063 -0.10053813612449743 -0.16754233711184258 -0.14039871049241148 -0.044774980003384195 -0.059761053415810846 -0.11969752304857569 -0.025767479351007063 -0.15116304156940841 -0.086693924062444694 -0.15553003441816463 0.15864091460955021 -0.059454091515157702 -0.011105823493505189 0.087594863353895575 0.079641840016969334 -0.11432179520318254 -0.020302850727811499 -0.011738989072283724 0.025457442720343844 -0.010477206531206699 0.0094517894123938469 -0.020892079194660688 0.17002112069637032 0.17346860564084068 -0.16186126689410274 -0.13784810574823964 0.004515112710860361 -0.17520622228788141 -0.076282505670712819 -0.039694082696633541 0.010551397750201892 0.18197195771965474 0.009687897518455486 -0.079581878547524243 -0.13137024571951716 -0.12361833456489225 -0.18842623967899658 0.13191694017735495 -0.13442308354596094 -0.0013586693481729981 -0.016621776397458182 -0.11165591453498588 -0.036119661227052159 0.005676199247325129 0.11639404349445015 -0.095700699255393706 0.032331012151488897 0.027018227630213453 0.047232497175688982 -0.015653492256844075 0.18679585604774776 -0.11074317152087884 -0.050660439335265067 -0.0048011687915234568 0.15153687238469324 0.037309184954086312 -0.03710506966017011 0.087134415902832121 -0.060815021054267365 -0.030220479097311077 -0.11840814381779378 -0.015217103099078796 0.028767133488219625 -0.0360942465457426 -0.042708856002414822 0.17428560857209868 -0.10273860517007354 -0.18037862510755232 0.028157610372457089 0.10162126233204001 0.1668110788941525 -0.022427330324493743 -0.046557930852688834 0.10245786219782749 -0.19220836726537557 -0.068097118344874114 0.16711363906587953 0.0059858807480426719 -0.16728594057487642 -0.18438847329950603 -0.12979972312409174 0.079791270509925502 0.14894650197265441;-0.054346638101540792 0.22066870125321986 0.19960691864734267 -0.080031186360864565 0.03537373055306646 -0.073265855276491668 0.0055174670815713502 -0.058155825895382381 0.14325369121930151 -0.16635771543091515 0.10726784733828371 0.16735629186263459 -0.14979143159553573 0.13372650306501158 0.12874071569822773 0.036256762457407589 -0.14447519345733706 -0.031893336386176772 -0.080584270681835907 -0.094181019622767911 0.0161987852606938 0.15069160812284765 0.029687065819149337 0.14187893974595817 0.12902741085458266 -0.032817414678567351 0.057034931647746999 -0.17637733395820948 -0.10775654446584766 0.096229253021796676 -0.093565229320075577 -0.052740531451666628 0.063080292116896156 0.1541630536476484 0.15364241830660522 0.17730616420691034 0.028122435081549161 0.11655551000917494 -0.10585863628476679 0.055987369285967162 0.15041859085496367 -0.066121632186961779 0.072327934348782569 -0.05555357576333575 -0.025552153852994582 0.025163656671392486 0.069987060375149707 -0.089603414492904168 -0.031125941861932092 0.19981065863359171 -0.089531771740988086 -0.12636390356844684 -0.13850222227453274 0.053811251637674057 -0.14031485129168123 -0.1048881471704774 0.049865126272515894 -0.078003985879048332 0.027447517268621074 -0.078993525947688978 0.040210313261407296 -0.14825944072117342 -0.16351964716223569 0.047985189787198027 0.052317199094168071 0.035782114927693412 0.21281972532840945 0.20935051098599589 0.070706167727644556 0.16456787974382356 -0.087293175861106242 -0.142423913374991 0.15416691013273917 0.1575362841539209 -0.1820301272556871 0.19827561310233954 0.10988773790388247 0.096413666265178749 -0.0071929869872312249 -0.055163327424858112 -0.19335096679753933 0.091395966317873487 -0.096442840444633207 0.16734909724962765 0.12405442630308099 -0.11972257551165094 -0.11231093202046218 0.12293994071443964 0.02855517440086891 -0.063111716547124386 -0.097585175016831935 -0.11072633417470006 0.1624525647312462 0.16820171182091767 -0.029193190917401204 -0.084860137729535032 0.063642720076994841 -0.096328515947084137 -0.085964577316761687 0.046740852604743227 0.025391852963169072 -0.1975901950287155 0.12014748613791124 0.15689258139887613 0.19962079189715443 0.16370470983458232 -0.17810505423086639 0.043696943155514131 0.042397278436791939 0.11032829516964725 -0.07310609645788925 -0.11734079320467766 -0.070418231744708501 0.17827685041925528 0.15553627550976276 -0.014083685156133022 -0.058356811183695088 0.047129383935655231 -0.067608779630318819 0.13435300697580158 -0.081946615885421806 -0.058897849390188654 -0.028824955550738995 -0.14965089941969234 -0.095687001820844206 0.033605926721631665 -0.19198322601314433 -0.012776999946549778 -0.16205997285712864 0.0019873416700363069 0.018286515171579563 -0.19006663776106783 -0.042487180774676003 -0.12769704193183723 0.0026063334883956236 -0.037088959160669434 0.19777053946134612 0.047609739783193654 -0.0060518382697407986 0.10852786073803211 -0.12824087208678234 0.054267514930915729 0.18150645681132685 -0.050533359673144769 0.014299981594538807 0.19131176217399834 0.057118276233555421 0.0026080276602051733 0.036513395390596878 0.1315606873607279 0.052279447868102458 -0.059507607565082145 0.14861041973495262 0.17737066254735573 0.035370529047802628 0.032065529303386138 0.062324724782116835 0.14690637316050661 0.16373042476918276 -0.16628938393764134;0.1500411794052858 -0.06661550472386514 0.17240531767551234 -0.036958905883717891 0.055808002982608955 0.052008838760294426 0.11996736173979843 -0.057222933203269814 -0.16625760929965508 0.10179069931258965 0.17534204860434502 -0.0060780810604483346 -0.12424452785227991 0.14474564244224858 -0.083987328034890354 0.0067634490606564802 -0.041510851046149599 -0.076548051065885192 -0.17679840419388687 -0.10523684090853622 0.17093587345447461 -0.14349888650283144 0.11080599014387689 -0.043145558919652827 -0.068524746315416107 0.092948619363203117 -0.014529235417306181 0.16702602784887008 -0.16994508107277542 0.11300684620520697 -0.19472142890861951 0.10801175866746911 -0.017151035096951737 -0.092642798669629253 0.029882637003176605 -0.1385496775778913 -0.043027226382310713 0.062309492482456839 0.13148650150444866 -0.037999114202378718 0.094240105158153842 -0.035949085271739692 -0.08770976462342045 -0.01823792734911614 -0.066423182366064412 0.015797521587056673 0.18738318556116432 0.055532723383704227 0.0073270689629190301 -0.070546259566962741 0.0011250298505864995 0.021138490639018195 -0.048278071891652327 -0.051281783824966357 0.14579132964732397 0.044101577293873706 -0.0098872609422632676 0.1880902611271584 -0.18763119194519298 -0.016046678753729716 -0.16313837213207744 0.11936092600986106 -0.041400818538055634 0.019924079512880562 0.19044820002712173 0.18665815655561913 -0.16802228609275285 -0.19897716344717351 0.042521148706283651 0.022431864447485985 0.0651982195840516 -0.067893269588146885 0.058721463032110746 -0.17647827312852721 -0.051385408072459032 0.1864384620695605 0.040639975428770361 0.12638759812068265 0.046494683290704733 -0.15296629051274069 -0.039188310401026057 -0.090544620941230919 0.047943731878983362 0.15739162876644452 -0.072697127152402785 -0.033278639313332914 0.020214538198178804 0.033673724015031173 0.00041396801761059193 0.081854273029335373 0.18979000654493988 0.041806783340689914 -0.1623155266662554 0.12116610145654398 0.16901935624903702 -0.10465371997369893 -0.18572443553822862 -0.14515062860103953 0.032419794636517639 -0.12047277491275267 -0.17956482426407397 0.18564882674868302 0.078123630651991016 -0.19899973023805506 0.15245788619888803 -0.16455983998254117 0.1105530090359431 -0.00058013346547496764 -0.17902023232046346 -0.14344276292473174 -0.12337450602958577 -0.13589721547763273 0.13613797260037688 0.09617623177030335 0.081439579445589577 0.093007882988749416 -0.19760204851774804 0.19095482360080657 -0.090543693032697381 0.20355690334409818 -0.15666031933884766 -0.17906135058962905 0.070319049630739663 0.013734368396766148 -0.1654501314659502 0.13729963735554804 0.0059671616103014859 -0.17114863806163022 -0.1873261837693582 0.12447660430399998 0.074027120882015796 0.14602346130593752 0.055063992255544342 -0.1748642133962838 0.0192725349441847 0.14690479874305284 0.028200058498609269 0.064452797461598182 -0.043726433130334946 0.12885570797709039 -0.073308387485252827 0.14932797641824658 -0.12800084861040903 -0.038885815985232948 0.0094716847858759435 -0.077870909937262117 0.014638292506154367 0.0015409659998812302 -0.14881008999424361 0.0036730519308516008 0.14627032434637374 0.12826471891269589 0.061940064723941875 -0.076198186601798418 -0.074188884917467696 0.018973472504834266 -0.015335625750658001 -0.092296064638075256 0.055473430347671784 -0.069538935662903242;-0.12858837331593745 -0.019357931405276144 0.10852199287777191 0.14389405950515788 -0.035800174091122239 -0.18971569798933507 0.12298869135081709 0.10922295557994369 0.16708396974551765 -0.19421325372167511 -0.054100683569256881 -0.0082003183447483582 0.14523652632901374 0.13416143121456298 0.1867820039418234 -0.19259114742820005 -0.038674086572398084 -0.004457882826072429 -0.16456269578459989 0.13992033103266974 -0.17706581075204789 -0.18022539678653027 0.020388389879247942 -0.096847211860833143 0.025291571221370698 -0.049715173089335332 0.077844717192892557 0.00068491449142373147 -0.18287121885993177 0.13071914963077391 -0.16018661732137326 -0.010510210717353729 -0.15224157947564601 -0.091287175393356249 -0.060934464638424411 -0.14078163739772587 0.20182669240899034 0.19293790116005125 0.10411146404319697 0.059871316908959471 -0.021835575556498118 0.023024881607359014 0.11266916259328355 -0.047038482062053952 0.079620512472997396 -0.032515720917948743 0.0017286888525637851 0.036495215842980946 0.090511578101141549 0.1910309823742099 0.017991446169996799 -0.011377860592562997 -0.12088940527754896 -0.12085882727044195 -0.091875044766029854 -0.028147135278194315 0.11749535931225938 -0.043326584145808332 -0.13595874889051188 0.017423450782519136 0.098599501669676931 -0.092975238791245737 0.16127229620533079 0.042439659736304508 0.035070321492125814 0.093710910098932232 -0.06228883868359817 0.12616481924504927 0.16573974935035493 0.15207229148763543 0.008754270258411103 0.11079338771812858 0.011705827220355161 0.069324963557000283 0.051458693442075827 -0.12119157323005134 -0.010939670786273299 0.093314401192905863 -0.0034148553672926855 -0.030366258709193961 -0.11678859875272635 -0.14324627288269323 0.066863363355050595 -0.0020938125253010488 0.10410744553155002 -0.16109235522990925 0.15217139595804216 0.075305668416639049 0.016076075900240568 -0.08023940230940492 0.17298269777777431 -0.1953032228836605 -0.080955743652061915 -0.19868413304416285 -0.080037759625243496 0.086944607524332584 0.056284074595545554 -0.18999407419061864 0.16290821967430499 -0.097274845547712943 -0.098621313717066381 0.020144562124781398 -0.1556159903356775 0.035025373219165323 0.10278180941897434 0.055902548957810654 -0.040027669655910411 -0.17839341788925253 0.084428135678639091 0.12132163991684511 -0.093972184945367188 -0.073265892096031515 -0.19622826272938404 -0.13379011045187061 -0.075929321029232805 -0.063318936914317794 0.14757438415732618 -0.16363549068727481 0.093911453529364655 0.050784286379314453 -0.073775113736950615 -0.12250262733893012 0.17112000428634028 0.016777230177040341 0.011402032594166429 -0.017429468353957398 -0.20238459418617266 0.15489787405590036 -0.058984036160655381 0.074979115174129585 -0.16951933199523764 -0.047095726832230206 -0.029438136058583857 -0.1738041833766775 -0.086085667158194004 -0.16140689460952592 -0.04077573971877365 0.00078798512033897701 0.19651122317123157 0.16432193005743376 0.13689979511898451 0.022929326560325317 -0.14379891317082782 0.10918875790945576 0.11825272904444015 0.12173198888676608 0.1310928299502418 -0.0047164708332327289 0.19553389433154597 -0.11844739941740913 0.17320175770632981 -0.051985049246657339 0.10829031252693878 -0.0070508223307309114 -0.03258379922931455 -0.19546440198302875 -0.091274425081285984 -0.087951954935161988 -0.035784642792760474 -0.12274958067659064;-0.1084890912326324 0.001234020656745308 -0.025275009410571054 -0.0088165977890048795 0.073591159914757856 -0.12883527674161382 0.056967022217877562 -0.14891147758618126 -0.13419936918586001 -0.15819408300551538 -0.1429102010457145 0.15433994136204013 -0.12308285647078457 0.18259131852069163 -0.029845176157882004 -0.18379786609706766 0.0085145458477685933 0.18814402972546915 0.17291434178111595 0.024746481734935599 0.14320957269137766 0.14247909474476755 -0.080007117742675243 0.10323570223767294 0.15347231981961507 -0.081030213538484816 -0.070166553637366985 -0.13438091467469307 -0.16059514369275232 0.14642950158647849 0.054460982019101024 0.025539957996242625 -0.0075822158348803643 0.011688715104723628 0.0077333558924109367 0.085790637938025605 0.040104621522872093 0.18029911251335665 -0.057499506262320345 0.022983795801250966 -0.11059424098033964 -0.024546542980868849 -0.16082407100690521 0.14983360044642824 0.047962933656016102 0.021110459616315049 0.051257703562520025 -0.024572710171315116 0.082576739456550724 0.0075438468966076691 0.18708012713552544 -0.16005819743919072 0.05025392490898338 0.016742148089618939 0.013973194144902995 -0.024506654378588351 -0.18559692511169804 0.042176653888995726 0.15878701555319422 -0.028350961145393733 0.13376079939957175 0.10580588927205957 -0.13121664638654326 -0.0049629260024098721 0.13841975997278477 0.15975598969843169 -0.15536871625464416 -0.14769271688645508 -0.12672735558893963 0.1793012589917698 -0.17334263269562691 -0.059458267811507967 -0.11772700678106696 0.06649957645437822 0.1257220969999889 -0.078320405296419149 -0.099356622586677365 -0.17277095121162434 0.12309863888650822 -0.12579787203784523 0.11487300623863451 0.043809394526355842 0.016017364780006288 -0.07008996053432362 0.16226205265601615 -0.18483705987775875 -0.063408493719944822 0.18557626688673418 -0.11764567975693692 -0.094408814936903021 -0.12801932041810168 0.080444339781758481 0.15014099934077427 -0.17462836903562912 -0.011408656302205299 0.0064163690743058071 0.079358293158563603 0.072226469632630214 -0.036404539233846837 -0.14891084118750608 0.097137301346045854 0.039987610243814031 0.097746140340324542 0.13160015356247723 0.11914904948841115 -0.12850797028261837 -0.0027392432120518671 0.052631463618967603 -0.088572167261793386 -0.12690146284356987 -0.16530530844053326 0.046895495058259115 0.056779660585769311 0.16698021391801646 0.13193777565957276 -0.076456986583520445 0.14762761551138007 -0.16675363932333595 0.078243295967104248 -0.094266870084415227 -0.16387379036573274 0.031622948680508335 -0.12122007848715857 -0.088264305480360711 -0.059239683661581076 -0.12091990783573431 -0.18244339481687524 -0.11052357400023415 -0.11889976386206998 -0.18081843939485215 -0.14790840997492027 -0.1388697241625467 -0.075540373832540988 0.15252047049890405 -0.12614805757526537 -0.031559066360661463 0.069312742805423086 -0.092317419624133479 -0.16617511465392223 0.14484503131174364 0.015925963351764622 -0.095735545329295874 0.13551795036141881 -0.11032627240953727 0.062601203106254624 -0.040737247010689016 -0.091509513951271687 0.068419162034631081 0.15823715872470021 0.10891107942081579 0.0060853422477023054 0.12864715616719011 -0.14122015603705501 0.031573377622166651 0.17050414155607671 0.13657989321581199 0.17436015377850983 -0.1551527361575018 -0.014557953495399028 