function [y1,xf1] = myTDL_Function_5(x1,xi1)
%MYTDL_FUNCTION_5 neural network simulation function.
%
% Generated by Neural Network Toolbox function genFunction, 21-Nov-2017 20:55:28.
% 
% [y1,xf1] = myTDL_Function_5(x1,xi1) takes these arguments:
%   x1 = 4xTS matrix, input #1
%   xi1 = 4x40 matrix, initial 40 delay states for input #1.
% and returns:
%   y1 = 1xTS matrix, output #1
%   xf1 = 4x40 matrix, final 40 delay states for input #1.
% where TS is the number of timesteps.

% ===== NEURAL NETWORK CONSTANTS =====

% Input 1
x1_step1.xoffset = [-2.61691872059251;-1.02515940969855;0;0];
x1_step1.gain = [0.312410006400465;0.16878616004543;2.4462962962963e-05;4.03888888888889e-05];
x1_step1.ymin = -1;

% Layer 1
b1 = [-1.4408318599463514;1.4162909177845773;-1.3822178875424711;1.3528783185176361;1.3242572622825302;-1.2928521122766872;1.2650866343298999;-1.2364521733277787;-1.2139935790818688;1.1790005875007437;-1.152214720658006;1.1240185568738321;-1.0925375774382762;-1.062713887380812;1.0334624143629632;-1.00303075765851;-0.97712445278837823;-0.9427535862339389;0.92144332400215812;0.88991387413532785;0.85575608119605839;0.82828781867085433;0.79825077997390115;0.78063064385762782;0.74429251075604419;-0.70089441509237727;0.68370965928704786;-0.65451587566432334;0.63009653348427241;0.59082903440766377;-0.56994195418939553;-0.53856136175094393;-0.51473012259332351;-0.48442426920643045;0.45492786364127524;0.42510922727933409;0.38198338659842418;-0.36739213748402355;-0.34345781553115584;-0.31084081485889781;-0.2778702523241976;0.25473778026041871;0.21571999972832512;0.18661783902995294;0.14689121927044443;-0.14381181770862705;0.10193528103806056;0.081523786891486039;-0.042323373463531135;0.013361077466962853;-0.012267283047020735;0.045023592612323075;0.075453335225510315;0.10366657375927543;-0.12675449672199296;0.1563532695553044;0.18186590377149064;0.21939130292330189;-0.24701741100788741;-0.28106031682890831;-0.30306174630176175;0.33538737010685121;-0.36568833630473524;0.39029109713373539;-0.42190695865699751;-0.46142511982648782;0.48029527970851377;-0.50547380602734682;0.54310135961767025;-0.56479612919071098;0.58638122760513522;0.62683647786690155;0.65592091138843067;-0.6846940997178198;-0.71318859118544509;0.74235697572184645;-0.7738978767849356;0.8004195982097686;-0.82683030697551685;0.8619570225700014;0.88425942941633184;-0.92026104491087946;-0.953493888924275;-0.97540704817315704;-1.0048075702908634;1.0377236381133237;1.0629971511064413;1.0906180428806078;1.1216318207901121;1.1471941347562822;1.1781980332931383;-1.207773186401903;1.2371983257939252;-1.2649800137036131;-1.2938350838141517;1.3238692348015917;1.3528379714208296;1.3840060127865892;-1.4115924276847145;-1.4409527701398226];
IW1_1 = [0.19027808307329352 -0.082145166025237942 0.17278925075241719 0.014914664427630913 0.061677504126388609 -0.040655273512418495 -0.15782039181676041 0.12855219623127437 -0.085849351407001492 -0.1777608739846723 0.085578566002090101 0.072626501046926376 -0.092761042888032566 0.18515687954597956 -0.1202231739989523 -0.055206211911462952 -0.1381349350180085 0.066512949044737493 0.11852272357431709 -0.088414492371212502 0.027193418053225667 0.06933484567865017 0.10484476857159862 -0.022888242632818877 -0.04007660116043197 -0.024295771494843531 0.1337079498572851 -0.12343337809400177 0.053490049343075011 -0.18539143513889886 -0.18195219643456015 -0.17601946363066884 -0.073641437858634681 -0.054103814139224278 0.071153339175324029 0.048891599820574151 0.10524470597583807 -0.016542887451324706 0.090820098452363468 -0.0088123256740845063 -0.14983141871593975 -0.0015317380324166192 -0.074230054740531556 0.14291160065825401 -0.018532134124764101 0.12030512012679893 0.13394509159213425 0.08234769122739119 0.0048025453093739354 -0.14071409878809635 0.20130858626411585 0.014544175487016876 -0.2002358670028975 0.16590080103630817 -0.05111965038118492 0.019670184688028267 0.1504143747656809 0.19646118418025724 -0.20546967315526501 -0.11239248495634359 0.066574553542013526 -0.075529370950549776 0.0025650910546922284 0.12255317692494709 -0.014216414267464665 -0.01542126722802812 0.059159886026503433 0.091264461258627083 0.019913095217558976 0.030910149287123954 -0.0075706773719916845 -0.038976433527757016 0.090552922315879095 -0.16009143002970602 -0.14711590115366754 -0.045785235088410668 -0.077522180119196621 -0.071200019512363613 0.17190329492738499 0.060383314628941406 0.049298883838464189 -0.13689933943333582 0.15752826792865951 -0.19242660266209941 0.0076851888693559032 0.17485853935815346 -0.030329844577031567 0.18831726898544585 -0.18301290603618209 0.17855972657222005 -0.041078958730274992 0.17378949841356608 0.16289292635116978 -0.060931504252590758 0.18759120574538785 -0.15102778726656049 0.18011211304568545 -0.10766270724381377 -0.074168388564146329 0.20598959897148927 0.099602509141959047 0.018872692960585594 0.14307103231079393 -0.057159084355070569 -0.044465573081833444 -0.090630374951061049 -0.0087298674498690314 0.13386642061527221 0.15303509709098542 0.15090494537636706 -0.085681353535201482 0.093229625283027237 -0.13402859444036766 0.024248480632070461 -0.16788894003739974 0.15239893512264818 -0.028341614501192946 -0.096197370863427556 0.11433146940738316 0.12678691574135662 0.16525486771178524 -0.1112919576922804 -0.18223486473464917 0.031590215580257375 0.20060059560805771 0.081551206838816115 -0.037119069426817454 -0.075105471578500699 0.094965425095611303 -0.039553701074535978 -0.069710797335992655 -0.17462134426723777 -0.11037369298267079 -0.027917633835640405 0.094685856996539836 0.11152218395363435 0.096122170295291048 0.042236983031790173 0.058167492747679024 0.148725545705891 -0.024005616542405319 0.0033591163744410304 -0.094491080548039896 -0.027006053112087862 0.16143778646907661 -0.042378578483925858 -0.062418773610319389 0.17780038964024766 0.11425306944912179 -0.074892167030811294 0.044778493823072529 0.20412740323929868 0.092681238628684118 0.11977939101463402 -0.017149016231205336 -0.17826892164341684 -0.01522174140329184 0.099375088635938816 0.12758088592173078 0.09503954144991579;-0.067722613823220437 0.10748312806285733 0.0053335141350701748 -0.14791517463399861 0.036173708249111945 -0.1738372705239736 0.10756571908377427 -0.14434864948407625 -0.11518098776014252 -0.14729639759610152 -0.028179169187723393 0.087521948357435014 0.15438508359529945 0.09064442252005267 -0.064400111588779091 0.043041075446515413 0.11734005957848606 -0.18662642106923344 0.019138081674309814 0.18293834980704923 0.027404507285413812 0.15942748678504065 -0.05100782084001991 0.10327882732769923 0.071159432125370792 -0.022934369543672332 -0.19545091717816324 0.0018398512291703838 0.11792272118462252 -0.1140956431188211 0.033390453038818602 -0.058425328717915184 0.092481071313121416 -0.0056745361684508696 0.18044071463881739 -0.13924094981080015 -0.15286521750186585 0.072357463566898414 0.079043079241494743 0.092863203446376177 0.067888695208565469 0.062763419608840743 0.13766432822615998 -0.13780338731965752 0.17326435380427921 0.01114885548404029 -0.081448182261458266 -0.10401893433818481 0.11455724021276432 -0.18182676240405601 0.016362763108878988 0.031418628713713891 0.01393784194309643 0.12835918883147696 0.11661894738551677 0.1624024785981798 0.17505939822999095 0.18181054094562399 -0.15108655726243767 0.015263481388913501 0.012551746047661263 -0.14914687003096597 0.087488242409578768 -0.13402218835423965 -0.17047112999481021 0.14850078071698064 -0.012903678405993687 0.11861324238694596 0.16397238800853778 0.11226315168787879 -0.068525378644430521 -0.18892210115290986 -0.060547566627677907 0.092085619872537619 0.099972598725698955 0.070020205680920045 -0.0073294502030139749 0.10205317482208048 0.058505689684626661 -0.18689116585021517 -0.15651060262970057 -0.15030950893912626 0.079534384445384618 0.10857694648730912 0.1385029727153281 -0.16995370105761909 -0.12518565676689841 -0.1313545203509614 0.098892462133330292 -0.016182737993083528 -0.14818577432040334 -0.11068296897243067 0.17042464251400929 0.040711093403353757 -0.009981575316804674 -0.016916088517938101 -0.10376503625615639 0.026730252738623984 0.052984824043896935 0.15864569252687982 -0.05174730511889418 -0.02630751629358621 -0.097372315944852669 -0.041204660031620384 -0.050922755151527985 0.089302632200009988 0.18527520648179996 -0.043982456494042872 -0.078772551177226174 -0.11038828823036428 0.069353489334265259 -0.036375736807971418 0.016918828763508652 -0.052627846600549991 0.18283708318178707 0.064285967824860027 0.099033609405867196 0.18216826734946776 -0.083414186800429099 0.13158142457035721 -0.18954854989572512 0.09794275080895401 0.17328346993274746 0.032648580179178419 -0.11219901190954784 0.15469016758975429 -0.034355492763526445 0.13777933304927298 -0.18187219356520409 0.1583866352041019 -0.17844392862971969 -0.058434042601829043 -0.0014244482644509601 -0.16260378174886289 0.060308780260865294 0.11995583036054075 0.066486389900553541 -0.1121306267182694 -0.1777965830538743 -0.15610557694887126 0.023767558647246809 0.12025211030253902 -0.094765462277543372 -0.035957409722936262 0.042885789575777794 -0.061191359678557572 0.14718599534068055 -0.054880717837133414 0.049680609425922999 -0.14597488329491068 -0.019145370462943546 -0.09827041277516102 -0.18096146715691216 0.10663854488005202 -0.1575975899504227 -0.12050827902611777 0.18931277635462374 0.066916023153046622 0.077821080372337773 -0.044112150993168418;0.14637492196672536 0.18448085199983377 0.19063058580450085 -0.11674410855801308 0.005230098484752534 -0.050554906838390125 -0.096501720684993464 -0.11945374829514788 0.062766620484103544 0.0047146087431521452 -0.19649576798339854 0.037432876192951492 -0.060786773336735399 -0.016218990351799117 0.098271952213624988 0.12600659066797762 -0.05742812954813855 0.15305430347852439 -0.086881127233955094 -0.032256900514015946 -0.067674976576144089 -0.16654889264361628 -0.0018159153072858239 -0.019034849305197058 0.059527040220825729 -0.063715263182623189 -0.18152787609675994 -0.04294446123438185 -0.0066695076849470104 0.03701335747091556 0.12251032863292435 -0.14450110170989861 0.06082068659248422 0.06081682876033434 -0.11095420244206544 -0.1109614293138018 -0.15409531769482993 0.14512976680374012 0.16047211394691438 0.026971730746987242 -0.14272062349641643 0.12417036785209845 -0.092701847143802432 -0.029552689034255439 0.17116851372030803 0.020430296655156159 0.15891909665518617 0.070674376028264776 -0.17268730708648253 0.13228921151504608 0.10860886224691188 0.01267238102024896 0.19920076400299053 0.05547615896954914 -0.11328750394329143 0.16629401900672475 0.021888263057156274 0.036345245705026147 0.15778522401747763 0.011605702389501328 0.033173041158952032 -0.16836218967457842 -0.10248171613107718 0.14525273991908497 -0.089463591100923029 -0.064459488371948731 -0.010672264013648331 -0.12520911726271872 -0.15957631112651804 -0.1102415587423408 0.025546611016988595 -0.038538077999287046 0.10589380844413317 0.1665272097415299 0.17320568126350308 -0.13889074554427436 -0.095990977479300368 -0.14683794659139573 0.1140947731851122 -0.12343360874788774 0.027758153269296884 0.044892532533610759 0.06547577448563123 0.10567074454685833 -0.075341363713535239 -0.19659389724543136 0.086204745435771446 -0.19424049518231165 -0.067348238632035012 0.15215034296097177 0.12546991658866119 0.017531823410982708 -0.038403456823320255 0.17314560428916836 -0.13293720943770629 0.17501480183786788 0.070791410598191357 -0.12257083616149952 -0.05861753755528943 0.077338705247396625 -0.17172911489266582 0.081703708445458476 0.12502658449632895 0.18213394157532281 0.089786633672564453 0.096930446292339406 0.016752922033756841 0.13739933226616227 -0.12965719126401656 0.14995560630764565 0.18018521430427745 -0.16306815692008353 -0.12852478864983813 0.066975405268892993 -0.0719552384303664 0.14892045880471469 -0.035502429984124097 0.11443678561094345 -0.16017775578172191 -0.16365471261867542 0.16963596002464687 0.054757357231200586 -0.038078493801812316 0.079025842973131338 -0.15646993315934521 -0.054497967466639707 -0.12771878843658152 -0.061372204094512377 0.068996018410796764 0.078362442947351257 0.071345939644671424 -0.11916816059221012 0.11867607413171252 -0.032990725131485606 -0.079729856411390618 0.035290017454320824 0.15738435047927501 0.070214594239704359 -0.065133175339753005 0.024055030811312189 0.011298621192122374 0.031277745153919692 -0.1400210988193912 0.17835119205079947 0.14920561213563352 0.10292446928667023 0.0013837797731951417 -0.14020964165005434 -0.1365261540266787 -0.16461160584527226 0.10108694333870981 0.050938143702680974 -0.15522263112878054 0.055697726490904112 -0.025881521205823693 -0.14191811711509497 -0.17728795736330774 -0.13557164433883814 -0.18567753177157767 -0.05600709740794961;-0.15683118679064897 -0.14445296765125079 -0.16264827700333745 -0.11927727578012447 -0.16797119352362844 -0.080700721039499101 0.16735187445713656 0.15552043003202765 0.015878656635149212 -0.16745442224446 0.029978218445074551 -0.17673585203165745 0.033358441786252087 0.080724784139225986 -0.11886854193761442 0.082132212122771775 0.18382835990168911 0.12909773572650862 0.0012910135063867552 -0.14239171543813697 0.041815799583860502 0.1187927896592126 0.036668283049287771 -0.037514193027643923 -0.12528676800478059 0.18669423785184402 -0.14508065567360695 0.12816226137893752 -0.052433911911013459 0.1758702933680388 -0.1442205233248823 0.073785554213048984 0.050260229816451556 -0.16053093503294152 -0.11263822400948374 -0.082357942513177684 -0.15829130080794365 0.019668155052638577 0.12258545268028539 0.071731016996840327 0.063995643809267547 -0.0017279906469189292 -0.087565326738726176 0.066440243270823623 0.14343109952830255 0.025013179632563602 0.16297050487660694 -0.027725840663745758 -0.140371417077748 -0.056809700335837203 -0.047135507054433215 0.14895492716409647 -0.19277266924205863 0.078404254982454805 0.092136032901765627 0.069401485869949278 0.10964508034399618 -0.15909850111675317 0.056692274819597779 -0.02992244656927865 0.14152283709783905 0.035161515079716654 0.0082844058016747508 0.06948256947909727 -0.19472095668907827 -0.11339513622757372 0.14665647478350391 -0.097676090076499716 -0.15585792727029241 -0.091843079298399743 -0.16542194440053354 0.074993885276730066 -0.11584146965017304 0.11163182173588625 0.06044371541325172 0.15130391760328216 -0.077534208107226235 0.031144062068839726 -0.053736160849790569 0.18890498007342887 -0.18126447820289845 -0.1325057543116617 -0.060610315783196408 -0.17031116772882679 -0.083985806793816634 0.10122465920125474 -0.14309314996673325 0.1036203971331479 -0.17058029907335021 0.15762682776183554 0.093879028092486619 0.16130713015767759 0.16266420724136516 0.0075227640749129746 -0.043775361978504804 0.17467126051986723 0.09404061896022213 -0.056598737825852875 0.18418226543723074 0.10713016983556395 0.061541518591149459 0.022254782717269005 -0.097546658770978567 -0.079708290637224011 -0.074306152201942477 0.15558908272722008 -0.18008963833650246 0.12333272716435606 -0.12978032466781619 -0.015542491457510072 0.19477893624128925 -0.14809458766791225 0.044257590996036655 -0.11082424632157056 -0.0039125190624152264 0.12878716371832691 -0.018444070581352584 -0.046592204975561442 -0.068417301135334757 -0.12739927295506398 -0.086858640767913067 0.01112767273403872 0.075518290537445534 -0.029945873849986825 -0.18586849471043712 -0.14851976926979793 -0.064379786191901545 0.14019165787538371 0.13726676157856854 -0.10342132728293463 0.07774997891658661 0.043489772782952851 0.045481464133531879 -0.071341489224742843 0.020317749089898054 -0.029575430558402314 -0.12220080426518479 0.17179329449360442 -0.18809984660939028 -0.11892641594731471 -0.02988174476539035 -0.13252399141720902 0.00314994535117929 0.10417888071526946 0.16781054273368468 -0.0046201468198939812 -0.076040051855838633 0.066057206708189042 -0.080178031004517286 -0.18407846142443043 0.14959621786950633 0.12080842503603742 0.089090330822121158 0.076287653129987823 -0.061675420668587021 0.17118203133241977 -0.11158092859850723 -0.0011550070610132281 -0.056662824871794477 -0.051995684396217781;-0.20098097929207673 -0.092997838861466883 -0.18480236131570438 0.1253169528428007 0.016534912934897131 -0.040049528318161304 -0.039739140522850568 -0.097584544639808257 -0.17897593769823128 -0.087068499645811953 0.018762524693068761 0.044459061099283534 -0.10767196327811109 0.10817901270235357 -0.0081786047577686125 -0.041844538007923079 0.12901413034724127 0.00040734759377518279 -0.0093937132994929527 -0.18996537506494598 0.18127750453803515 -0.0084143525659759327 0.097534634429842768 0.19446995528032934 -0.012278911849665954 0.020323937815597274 0.10849859108509463 0.15125054641481783 -0.09301056186274699 -0.1479421784286046 -0.17882350899412605 -0.18437582277383502 0.094614670167845971 0.022001491918385914 -0.034708477189196306 0.028370395582356718 -0.075611013927264228 0.0064690984762323014 0.032441438132811487 0.084328393311537186 -0.10684490879491859 -0.14684779694623348 0.12936542045593827 0.060194037542769058 0.037691498422217792 -0.0045960874662928104 -0.090449530449129956 -0.18733787648336303 -0.15820805862402001 0.20150080478167903 -0.0069015909603816197 -0.088587867999536468 -0.14841218140977594 0.19519585501819314 -0.030100687289814167 -0.20148952070597412 0.043843397135146907 -0.070419141299823643 0.032810244128615371 -0.099597973339004761 -0.14638977405287606 0.1901624856553388 0.10198335421599811 0.16225643014786059 -0.019496171229255944 -0.019382292418206371 0.0060732990461956583 0.096392864307186826 -0.040332046430584599 -0.071184414656941003 0.038483980034751439 0.043452819874022226 -0.081622895683598637 -0.13986130807945291 -0.077934173824085143 -0.12116142981286669 0.065595433356337302 -0.058583374896189741 0.046079351511263952 -0.191208336015907 -0.064243895129337314 -0.15194834485961295 -0.020509434517064308 0.04791935279150903 -0.09689243301498035 0.024381401882144712 -0.095865554646140397 -0.092292171889701055 0.084511079953940971 -0.082613804128331109 0.006497696659946396 0.024449649336022186 0.091423753531020363 0.12851921155595053 -0.11730261278935526 0.11181454588043892 -0.14422055747177945 0.043340334380041062 -0.11989016283416778 -0.10445570853256178 -0.04161044371453225 0.12012391317938206 -0.13138963733315168 0.021442358830065043 0.050910264787210592 -0.12102871625574646 -0.16767400884022476 -0.076511813736492407 0.083033122807801188 0.1853252776908523 0.17761551587682092 0.17720440550720951 0.012471521346104811 0.049445422056555256 -0.15752270437407975 -0.17095999127652725 0.16264749158860317 0.10023175240390728 -0.096666029970474077 -0.057492686831127723 0.11120556937182473 -0.048887776280789295 0.11235314556347951 0.15770287087146623 0.030029779808065316 -0.14934486286254867 -0.07404753600044349 0.11776522748380829 -0.05355358716266588 0.085984266611622492 0.1581882456905335 0.10747688073095885 0.060868993042320609 -0.024386242629690649 -0.16783693489489396 -0.19399966933272256 -0.098388851728484356 0.11177503817195077 0.2008292413079564 -0.19857336697893757 0.09332680326516507 0.15586080824879234 0.10713702492041234 -0.15809915911454589 -0.014113181472058893 -0.19868432781397652 -0.15319641050351099 -0.022160162964106077 0.193650794312236 0.010113289984051914 0.0025694031682625957 0.08754546244164603 -0.14940016521508692 0.19324521027740316 -0.17214898239183887 0.023514516819695554 0.11848286265732549 -0.06524531959903114 0.19885599197199527 -0.039424755549063301;0.033751401415356527 0.16132805851149437 0.15758633040653833 0.17136810009440717 0.077310759712035049 0.16692972028111464 -0.067462213698015708 0.077291858784961281 0.13347481106940182 -0.15997302371766825 -0.040073158169256724 0.11977357205367416 -0.13260908014752648 -0.16876700560138247 0.061613953039593036 0.1609306120204673 -0.010188673091235995 -0.079049232887077991 0.007916953251638395 0.14706528257670043 -0.043680769649931936 -0.073459065101324342 -0.18020695129443509 0.13787449014977962 -0.016497743241567085 -0.054766494678888174 0.090547109549021329 0.068508307176575189 0.13751344102900662 0.056855255892999272 -0.022716982157907652 -0.13713522594017724 -0.17222399516724207 -0.12136244783711252 0.088294960341561035 0.14240412908895869 -0.076758320245473924 0.18362176739912781 0.041841533614913863 -0.066403662613349054 0.1893664481737421 -0.16781402322654221 -0.014324141581881042 0.0074927029049353224 -0.033517269865987465 0.13300050544004116 0.096184907507726167 0.15014293496170786 0.10619092501102208 -0.1947363227369461 -0.058382473527757883 -0.17524940009662585 0.00010343799169145951 -0.12848575933379772 0.056909216223274578 -0.031102467217566248 0.044132820412076626 -0.11778949090011349 0.031757157044113714 -0.1026647186032339 -0.0066208542939853446 0.080976934954177932 -0.14261168264652732 -0.013424206160708165 0.15186618192117729 0.17178551756620314 -0.14297960909107621 -0.03697642684457788 0.16820139660400682 0.047728698213713582 0.10754112587536546 -0.19290675272679711 0.19286617228985983 -0.19239343551185334 -0.1540537403824315 -0.14862468580232727 -0.11659393848952859 0.082742018463266065 -0.14608251695363109 0.11188853571325147 -0.12450642192647216 0.19254718225046155 -0.095677961195087646 0.037783707978405148 -0.15890810738865543 -0.12170484527443569 -0.024827546777969681 -0.17635069327517452 -0.097007254482213548 0.01796447945738245 0.1571709318619984 -0.16718795220147256 -0.039960777895153107 0.15947640116816453 0.14272713466723405 -0.073591738614570287 -0.069487325481125406 0.054511388513120769 0.1327338436695234 -0.19446278740247241 -0.051819804896229754 0.16249076252598774 0.082925161942482298 0.056162248259642875 -0.076720882194417625 -0.016144322610662992 0.040542164371926204 0.14436068893867943 -0.058997640991746737 0.094703677063451591 0.19219454899986535 0.15212989426077889 0.14152029570349836 0.12887387411394527 0.084320481230527378 0.15727192682051505 -0.064302415663615622 -0.14557461910313921 -0.077917855616922327 0.013895702290008435 -0.076587843689645274 0.077529883711009412 -0.084065560138608358 -0.18928726489810663 -0.16791044059237217 -0.017677842614881225 -0.073093336191528191 0.11345370698372187 -0.011509704419709128 0.15283003596854625 -0.03537522192229102 0.12293521489205965 0.10898396166095256 -0.055318965865539527 -0.17181722945261488 0.017608851959153644 0.091750966402730283 0.023798808995658449 -0.18608309715625118 0.043856951374390184 0.080831710712879437 0.090351656530916646 -0.087407663122852669 0.0051225567731564055 0.11550188532212374 -0.18537216432010103 -0.13353867627586696 0.11249955889369422 -0.036476076405410049 -0.032204883149093651 -0.14359672742499435 0.075435205675904643 -0.12032528679295852 0.042525796050313334 -0.0615092818459409 0.012027505893357797 0.0064833440914148022 0.0055937480986798247 0.060070686178798606 0.11056668890261627;-0.054401366234523824 0.1176253461476281 0.026276839760250508 -0.1058991337437712 -0.17600773425376287 -0.080164855628997056 -0.1978976074875495 0.13144836762260986 0.11271704910158586 -0.18431208887488212 0.11346261663139963 0.068741011006958466 -0.14635536205621916 0.18285852242225839 -0.0022670803421895652 0.040078497605043673 -0.0064942540958474182 -0.047908207476789783 -0.12043120093090946 0.067656926788004737 -0.038915254815270021 0.096845628314629201 -0.080078683417972529 0.0016099980020852463 0.13683595628455378 0.043977742211617113 -0.082206469985586519 -0.16354949696665988 0.012138555712278657 -0.12609499584804318 -0.06219981693416262 0.098021988058572554 0.078018069683563396 0.0079885487512580018 -0.02579147622707658 0.11665478882379966 0.12679497699110803 0.17638588646315662 -0.025208036006303208 -0.18419642286679114 -0.1162249930502048 -0.041450735081467814 -0.073343345296756776 0.14127995902784854 -0.14317015507520225 -0.18600664458962068 -0.10967104431898413 -0.12257336800677303 0.091019697923895193 0.16250276325156141 -0.13450854940154006 -0.12133229076673813 -0.097659537450014697 0.037590364228026321 -0.093622705766606903 0.11061967446744392 -0.16311607177320461 0.077536154407071151 0.15917425256440537 0.15559538857591571 -0.039469951398171804 -0.097930229220801968 0.066280540897056317 -0.15779354088971298 0.15157594786810272 0.14247984086647214 -0.17343348070531597 -0.028488801358226925 0.1253244759885673 -0.19103601281575019 -0.15444912039385705 -0.074010737579154329 0.10999766252586947 0.16531114987382747 -0.041234711749552684 -0.1580226224384661 -0.042362370080378325 0.068498703491206597 -0.13855943811781801 -0.027835450356181429 0.16493305890069898 0.13996134937633553 0.17160289303934012 0.093840908836935119 -0.036696538068444307 0.19669210196700865 -0.0652929517709014 -0.12630298686068517 0.069992016290616771 0.1962767970967936 0.12047370119678917 -0.11183645179081275 -0.047607488028678133 -0.080418859053810715 -0.1605058647810334 0.19498408393963768 -0.050865544387500176 0.046109535683994798 0.1548433172198985 0.029812494546954303 0.026306071647793798 -0.1047914285110722 -0.015173495321696488 0.10770005258829306 -0.17080391636669037 -0.16801776833552182 0.14719641366354333 0.12690686802521742 0.13790735861862921 0.09724610511028213 -0.18303300455558941 -0.086336975788933831 0.1164374342836436 -0.078633066770860488 0.034424976947949368 -0.13930949477950236 0.1746235642488011 0.12333662763912016 -0.002075049644723694 -0.11694957505559729 0.14940207946135009 -0.078467562287497836 0.15874801290137663 0.12742488272168412 -0.016919608403566443 -0.051521312503315944 0.0052685799567411904 0.034810267457793684 0.125907539302652 0.071760782139362295 0.0028021448454479672 0.12585817476140521 -0.015808402689427913 -0.019543066974810341 0.071333399310937365 0.17863905080426604 0.17099955333213548 -0.11678897423759738 0.1655851002613164 -0.092354293704039483 -0.016207549462926522 0.1783755181127597 -0.069235882634465784 0.073918897362683547 -0.12738321189617227 0.05824098465460905 -0.014098164825347342 0.17020009247710299 0.018991901483796411 0.12227628676063756 0.0067761456608847097 0.13516533894776631 -0.10174099924490386 -0.11294712579270841 -0.026356728092902942 -0.11839160726789864 -0.048115156021530991 0.12129248257863277 -0.039424605592155756 0.0059671454959273999;0.0060314261140111411 0.071582810398271537 -0.024148169573176028 0.0063508430725378179 -0.11028156452577494 -0.063190227040268998 0.046525082476904601 0.10658807568673143 0.08303337270620427 0.067662040951191868 0.095299957965343185 0.055756030895599822 -0.15723916516955627 -0.14066613610707812 -0.12605954307373254 -0.13888029490977635 -0.13416055592969212 -0.020792922218657171 -0.099955856943622523 0.087312433313917595 -0.17974351528537819 -0.10121966002153579 -0.11707378918110607 -0.10458791172903661 -0.19748689720585949 -0.072582208325499636 0.089238622290643915 0.11328776674773317 0.13987341090772518 0.17567694849255022 -0.20114709073323744 0.13146133963929552 0.070340113173513158 -0.06246039513791065 -0.16814131141966543 0.1461991207660398 0.14889079677100142 -0.067229858114408611 0.05145162773443511 -0.18970753375966082 -0.041164233523708731 -0.18346562159063828 -0.13454407949683123 0.18166421581857436 0.047449620915351265 -0.041407472272307254 0.03285919452747213 0.062953468301551033 -0.12941593502007498 -0.11183043001645331 -0.023321060631164375 -0.00029143195504952588 0.010197118335605476 0.053668629550855218 -0.024104929889830446 -0.031347205473595402 0.10368011619411109 0.16111011455879784 -0.19573107676297624 -0.065221903687832095 0.061081359903938939 0.10775236054262709 -0.18343959872934967 0.079676586522415757 0.13560793719969527 -0.041116626169143709 -0.079531278308061115 -0.12961731166537385 -0.14601091626538099 0.1320782261211744 -0.11656606323782719 0.14452912029616849 0.047647795664691898 -0.18934976431621739 -0.16124863068647652 0.015355025440715884 0.054869462953142246 -0.15185676427118325 -0.040467774640134124 0.089083546664258204 0.076535822706192136 0.10893965293868627 0.15213847638227895 0.094848942060018371 0.03449897248256753 -0.081794041026886546 -0.0039272810936234401 0.11084178220154288 0.12622601662201072 0.019528084375450831 -0.0043713888708198194 0.12611224494170212 -0.12936666657044565 -0.052570804124405832 0.14751063005440795 0.076095459955908967 0.16825730472019132 0.15154925936058158 0.13990469150407675 -0.0066070345745620858 0.091852229124534543 0.1885539505145421 -0.033279662880997617 0.17827021838868262 0.022747641833718461 -0.02801325217095807 -0.15044642690588517 0.127340474900348 -0.0043225174952162574 0.038353859986674635 0.13783352306804944 -0.0063464925718953119 -0.030212305104584166 0.18965164064404649 0.11089192618510506 0.1245769143491245 0.034468032486017271 0.14028005605012706 -0.00049294420433712257 -0.11101832408365939 -0.10065146840685114 -0.15712898558914065 -0.071899666728144129 -0.18725890396603678 0.019810346699825985 -0.10723898026532346 0.12178638370976566 -0.092945915630745612 0.052701056242073635 -0.1503157886685943 0.1408797260806062 -0.043322502389532891 -0.15861813573252717 0.12358013343041664 0.072696930368889592 -0.14183361345090234 0.020788421328712597 0.17193019585791314 0.12659628373553714 -0.043295743282513746 0.13492375934437309 -0.12108804416852922 0.1352343493685205 0.17509588931374992 -0.16320569454331682 0.1311401564216591 -0.12022276094040872 0.12406674156381041 0.19480662424368453 0.12060537828615982 0.15538574193338184 0.044561411702769227 -0.10749740892291453 -0.026195748983079307 -0.13462635908473308 0.16844897078523519 0.062250100254784217 -0.056953130640966243 -0.011944908993735131 0.16797971434945244;0.10639152611832862 0.17940911257771974 -0.039156779233087982 0.052675276759881019 -0.15492582801495369 0.024147557119670288 -0.015826730643521594 0.1123309384305381 -0.008945235707496212 -0.10092460770947539 0.14122956546188306 -0.17290347574564952 0.19487104495409302 0.11671617864726842 0.20360846108305716 0.016597488125068668 -0.15277157793898893 -0.062579314169613778 -0.12538328268768992 -0.010331869255256939 0.11368023094898375 -0.10083227992452054 -0.0048854324017341324 -0.13357108320349784 0.18684488431389409 0.11187779596030335 0.0088347787563006035 0.084677510061033509 0.082405794985138045 -0.048864091590197917 0.11348684803863607 0.18043754910355128 0.010582267145495042 -0.10684142793843938 -0.14756604273416643 -0.12160830771283583 -0.068529687115967269 -0.15779072752703521 -0.17667322997533533 -0.063716204919191902 0.10737983054559348 -0.14986480319119627 -0.076835217123196728 0.16288265245775171 -0.090737244464395475 -0.17086162452806028 -0.02191219579732159 0.10415590726512515 0.11113756565528778 -0.097469491765406063 -0.07337831873279349 0.078107376560925451 -0.1702190884823844 -0.035749035956135385 -0.17170566306588086 0.13795668793238614 -0.098655963718584205 -0.18135415811674654 0.05595027748580908 0.068391863361957475 0.16914699653003124 0.086884438480758927 -0.062243620484752807 -0.084582166887719731 -0.089748653273131834 -0.01070693527787382 0.047745457773006317 -0.0081937240609351019 -0.030463600139533323 -0.06992386204419096 -0.14680439585859281 0.098869901688575693 -0.15015520873839169 0.091012540393908908 0.13689076448849541 0.13264029237334163 0.1552037852430555 0.063257611876211123 -0.14625448860219803 -0.035078709337694344 0.070678140064775713 0.089329286096196586 -0.086838135618897749 0.15333781359431711 0.017877705246555953 0.19856129289090887 0.055652527467905832 -0.17521252430110773 -0.068260913664774034 0.079310534691172246 -0.080503088592425817 0.18078600989279378 0.06883221090286798 0.1295228065562701 0.061591727313414606 0.14633617346598662 -0.023699869800579136 0.10513242322443174 0.12942766192999197 -0.082178833122631398 -0.1539073733029632 0.0017472010298877671 0.044512927231552417 -0.16594911995971356 0.073249008863352519 -0.12147824101536076 -0.12894075289892348 -0.065536676188444984 0.083438363584224823 -0.13119337281040008 -0.08490433973719691 -0.07008363266588491 -0.13086212870249753 -0.17808614214023583 -0.022185277461778403 0.074204754639852585 -0.12142523644089601 -0.071984834973179243 -0.11873144798817355 0.11192722485191871 -0.078787199777409223 -0.042315749828749902 0.19899810816630781 0.16515052455226592 -0.066260503699934248 0.088205358146385721 -0.14993454190573466 0.18369389985263221 -0.13926973039623294 -0.13749882027992047 -0.0097624074371901806 -0.02748085016447455 -0.1238970953954415 -0.013592649906927793 0.099391332771613244 -0.033496485195128545 0.057470978011283792 0.07752837677311035 0.12953684032269822 -0.14731485213065629 0.19545605720331902 0.014081930167032009 -0.033917951005965945 -0.16397309533427795 -0.081829189470592492 -0.046086236481192464 0.089534351606708182 0.2002286684866588 -0.11866124211802934 0.024977589721010572 -0.11458764263249167 0.17587817144322201 -0.089358938300050803 0.14057064287368906 0.14453550736937407 -0.16897865665423978 -0.012110094141143467 -0.055450083328244124 0.016491289705683629 0.18199563588013787;-0.085872542876802557 -0.10607390956200274 -0.026506338527865925 -0.14004203471217713 0.15197266610754337 0.00079589397976158305 -0.023234692931408549 -0.05769470325971298 -0.19720240875045575 0.17754015090272229 -0.076621646978239977 -0.0070322656302077213 0.16334305662131446 -0.058911683578276398 0.19025331461926218 -0.035377350320192742 -0.072046876536918603 0.024648780334948592 0.11530354093036846 0.13298796914856376 -0.028295121734372104 0.085789581212443247 0.053663644317346534 -0.10974025296512047 -0.14026855225298068 -0.15555586899131238 0.18505762027173797 -0.16494748195775299 -0.0015566240961110904 0.011247548967239467 -0.096725383867761666 -0.16222535300173493 0.14382221117125346 -0.10989196916632438 0.003504754845286469 0.18730756520884401 -0.059997537878751242 -0.10927378802595321 0.0055668618146403181 0.067838799192360397 0.14169010401739571 -0.1557599372282073 -0.0020951565838214425 -0.18076431829637971 0.13259424470445005 -0.015421162499318086 -0.15702285361986282 0.13352983529540741 -0.0013194187700148797 0.017611744213751186 -0.19726320229929784 0.13860385005431883 0.038220897461535619 -0.17090285867539867 -0.079974229151075327 -0.090680398955876526 0.051724888064561707 -0.086151720456003208 0.026408680418317537 -0.072372073976110091 0.10655465683328974 -0.065461331276184392 0.043788890966778578 -0.16551855989279377 -0.13266058400397512 0.038518805035168177 -0.10405169451771586 0.093988692672842114 0.14426449410746611 0.073528976288188566 0.072359955475297874 -0.10861201963662372 0.035595165514860076 0.06466268586501403 -0.20273967487316386 -0.013066196021453065 0.16525826251592793 0.018284927161094901 -0.18096329313305418 -0.073532575999458602 -0.0050640434780913658 -0.086288919851241916 -0.053155185581498163 -0.026113668065210528 0.021248687054660237 0.18840579304274718 0.1894394704889189 0.021611874961426688 -0.048738404282835358 0.13386496676453868 -0.078105824111701264 -0.14937424664558346 -0.011561768171721023 -0.17874017664750477 -0.0050601320564762249 -0.16424625389529535 -0.067627001140518089 0.12384341473425507 0.17723495785289806 -0.075121607244071437 -0.025755378805822793 0.019534209202734933 0.045368018483135854 -0.096466965142076949 0.14074609115219625 0.089129126608749373 0.18219772255738576 0.13721396518542575 -0.014864248501084395 0.0449538769185008 -0.031058258108358976 0.041770789461473737 -0.19264296638924064 0.029907180989398541 -0.1410296890883779 -0.07299025563035498 -0.17773090346144094 0.11312774647091685 -0.19992397325696754 0.16143573507305009 -0.10633163454482669 0.12901486917748084 0.01622158895206794 0.072442565248455104 0.022202179867420652 0.18291349587606517 -9.3395423018450207e-05 0.12392855914615421 0.1922383582127129 0.1203940603994311 -0.066548389425744342 0.069633181757185844 -0.15624020671498781 0.084702813070587982 -0.16751130438325426 0.14761780661521703 0.19720848054502227 -0.03741570929842325 0.1835995655327014 -0.047455372675062044 -0.1828732753399093 0.018674198763255524 0.099532897879092502 0.1105462535852596 -0.16032569816581657 -0.1937750859493306 -0.16508608838174196 -0.053497780781349966 0.11881591110328962 -0.061356391951539101 0.040677208631861764 0.038047779852994422 -0.17343047454804905 0.0024302224993914749 -0.04858630121069437 0.17451321804434486 0.13439700816678099 0.063235289648339632 -0.011361723392522848 0.072103764951234398;0.18900287772449431 0.10575142919180429 -0.18327413043939031 0.018395254539977625 0.070436148530581361 -0.12914924935282371 -0.10841161071678779 -0.025870221386545076 -0.072150809824150314 -0.080301516366936651 -0.10290748873743616 -0.096814419632018089 -0.058494783938378592 0.13470397455986677 0.044276677944244801 0.024371171902072726 -0.10510421931528986 0.12820592803487238 0.083930493320327829 -0.12879616282850356 0.082782305856154301 0.19402211841311984 0.17095340873095552 -0.063475718180519156 -0.013538252266128818 0.079077058985085838 -0.038865740232026429 -0.053857959511388519 -0.017485985866282742 -0.071959873862503257 -0.18714747170820853 0.07048001916418041 -0.10524354534905886 -0.1089370779454147 -0.054686867550234622 0.16121372750957946 0.029423519152568512 -0.15474940162961193 0.065532096860585601 -0.1101651380118031 -0.076794931705240252 0.14471496175908183 -0.042469400984814144 0.19391191262778054 0.04136641852625246 0.17893156402930313 0.034681831568275333 0.13381990577958724 0.015878796543475137 0.15068486796609293 -0.087806813480882928 -0.13952179580183985 -0.073974451508167324 0.064482638108544946 -0.11996470997898147 0.19336585916048515 0.15448337393593442 0.051815642280452004 0.11201265877238907 0.082494632724431069 -0.055263772255846895 -0.16452167685451149 0.14064173223178983 -0.027415607598353105 -0.042157407291157266 0.19533975712831872 0.12820479815930094 -0.13291572476805796 0.088667113972551781 0.019757838461876572 0.043441102687158131 -0.060642441174326024 -0.15042511442062265 0.17970268000832401 -0.15208182964863048 0.14945794675933952 0.15537606418907735 -0.17714097026908202 -0.12532976098275778 0.046011088370855935 0.12635193331824274 -0.083641293899387403 -0.13677994817261641 -0.10694041580993399 -0.15603764343004745 0.053843596592669012 0.0059241876738910385 0.18389270926615417 -0.03313643300633258 0.10792898833544481 -0.17185498840248978 0.052533916185183827 -0.17892586307144007 0.1223472863366771 0.056394518222452387 0.12770461384666904 -0.017316593583988175 -0.091146221026168567 0.034503824371497474 0.043628186664940796 -0.17715321352777241 -0.11650123127706326 -0.088975462078319939 -0.10277575925062052 -0.035085830643297969 -0.041186576718539543 0.0043348516593963004 0.17104113728166284 -0.096843982965895276 0.15966356281624905 -0.09564105641268969 0.1218152200058522 0.085524012234221111 0.13306691546012084 0.15565724428626576 0.053306121511870884 -0.031383851922144684 0.14259249171141136 0.13729600574352885 -0.18138230485771997 -0.018660815574137672 0.083733288595706293 0.048308080673016458 0.034674318174902991 -0.18310460575657353 0.083181278829359717 0.022745444561127974 -0.17415098400292583 -0.050704548115305462 -0.17761681322973963 0.023797295860829119 -0.05183964057336625 -0.12582461541709866 0.14241401216654059 -0.034224550418470771 -0.0011975482066750355 0.13072448700229122 0.14310414063416066 0.12150938182669765 -0.15774461172872048 0.069631674240436481 -0.12536236941036855 0.033967370654934478 -0.16792274708684377 0.078149821922442297 -0.13512462536588296 -0.13078993613798942 -0.086635160176479958 0.14583872046908047 0.12393634251821423 -0.10086879095381411 -0.1035069866174913 -0.17899479098262458 0.19138961635365301 -0.16745680638510033 -0.062596550488764766 -0.028930016750127435 -0.13209159793509972 0.070028180554504729 0.028641836493730755;-0.019838421541029383 -0.12141912558392839 0.014357354625428117 0.14838419788644869 0.027659398766240038 0.15681888520150444 0.13617860950103122 0.11384107325692748 -0.044063296440623907 0.0069403739454372958 -0.17925221496904928 0.029936571877320677 0.063517755148931113 -0.017560421973187922 -0.022743086630091541 0.15475433975505254 0.010344460770769115 0.08157105843719728 -0.14218828632006006 -0.10951115526290615 0.06400065059257963 0.14180029276765985 -0.047250627759434984 0.11552266003071682 0.061577157910511562 0.14494341527843141 0.020679660946125566 -0.18859982252837668 -0.11243794322348262 0.15655381348004649 -0.072751703502886497 0.023774947193868072 0.18660725222128319 -0.15468709895839466 -0.1357962049581358 -0.034816851368512862 0.08892912099351287 0.088612005103062427 -0.1019255916151052 -0.026574502975358825 0.1494382839297908 -0.012727676542806817 0.09666761636935968 -0.0030889534443775723 0.035838770163796441 0.018842973944005085 0.071310353827399572 -0.13099892618141371 0.0069167043382578923 0.043302844678505314 0.1280686441370793 -0.11786157962648795 -0.10905331675397327 0.060387820656104978 0.10953304335273412 -0.070762044878492664 -0.17940394127635967 -0.13786956818668417 -0.031700361108230483 0.089169640768887726 0.077673359389368243 0.038394538097677886 0.13041120318332877 -0.17967380959746576 -0.1261177641269709 0.12407971037398605 -0.15761967828828541 -0.12960906787285237 0.18051205715549765 -0.17153856166817144 0.02106712563640185 0.14487739507664554 0.00016646307496744842 -0.11607662379204671 -0.14789279788635079 -0.0020332256797862855 0.16195129078909015 -0.18173551907190449 0.11667360092814803 -0.17017126050507397 -0.038057392503024583 -0.07452623457066973 0.11350391931777033 -0.066930402410874543 -0.14007871795490051 0.075301642423561507 -0.082374697787085671 0.090367444019261875 -0.023809272948297055 0.17507876793756671 0.14624785486951913 -0.15044088195663877 0.032254808069210487 0.027006475917681804 -0.12827664614332043 -0.018190004542133629 0.17275427418714789 -0.10918477541986527 0.15199314565335767 -0.084540731534366129 0.16382892330043036 -0.057080343427755129 0.16904320652848898 -0.13104823703586899 -0.029253731819976952 -0.068400360148925157 -0.03585498124907862 0.18556262600836892 0.1103808110749592 0.015043075646093657 -0.12239490414970486 0.12330532841566376 0.14465682880341213 0.067325279952329259 -0.14528182519602362 0.08574964139073471 -0.11901989581372228 0.14943950584343171 0.17025110232195775 0.12323372247717415 -0.10699085360896894 -0.12990021661372766 0.17243883055400877 0.016246395904583464 0.016789737799755091 -0.17747810897899272 -0.14223957627867309 0.043030883401880084 -0.035002341674579433 0.077251650541778016 0.031048168763648718 -0.11612017044656445 -0.13399427303166597 0.18255369640441596 0.15605504187377439 -0.10399696433561309 -0.16053952624919782 0.07539518504895526 -0.17688972600519648 -0.10029431838486735 0.056379507753502846 -0.14390930371179256 0.048751687732182046 -0.059505268989172175 0.12432973574295858 -0.17029709361782969 0.18558021462620675 0.14869874394621643 0.033978103346584881 0.1712302476639658 0.02092622728962721 0.1197443765496522 -0.067473146124695543 0.16044961739009955 -0.16540852018593052 0.15471907030354279 0.032160457881597375 -0.039045268894432626 -0.071952488972966674 0.11557685416393453;0.058755722266214276 -0.17248224373219428 -0.0083951461113048222 -0.010356559015386494 -0.079790055962091488 -0.18030467128299829 0.029635057736090428 -0.093806589714517677 0.14353280505278412 -0.088127235284849864 -0.060129888747763767 -0.11714717136765282 -0.010028302320077854 -0.175517376192001 0.046648708486294231 -0.14344392590697497 0.085001466561269542 -0.086863520306413852 -0.085180412622675089 -0.13942228271660861 0.083755360336880982 0.15544828820068901 -0.12388302480407669 -0.058918325825243117 -0.15498542775260446 0.12054687300023634 -0.097718684556749827 0.039364516023828185 -0.11533744979575261 0.10562730993428068 0.092123465516686293 -0.14808944254748899 -0.13089147348342717 -0.074976946935950639 0.049413953065090561 -0.18528289126322953 -0.13143074532593765 -0.18370329266181054 -0.058101944892424984 0.15012768659017342 -0.02171138690735655 -0.1403119932794358 0.15790667214536436 -0.083345123212078043 0.14683130368050989 -0.052691567483132078 -0.14833138569391782 -0.17362282854381142 -0.1348661241876338 -0.049178190279790555 0.18671219985336135 0.020610947099670721 0.10535130283229939 0.1386674206458815 -0.045921120729166293 -0.032206803413994733 -0.077031556987635641 0.17055930214928319 0.027245363845891733 0.1365509905304452 -0.12057754251635044 -0.020056688441903822 -0.18078974105933962 -0.041568644809749471 0.061226507000460846 -0.031964525542179684 -0.15127114248095605 0.11019368503747891 -0.14276869453846347 0.020135222468876161 -0.10010682054519907 0.11076410481126567 0.1779581208274908 -0.11832860924314685 -0.022178455558997254 -0.069737576354244796 0.17153882554662334 -0.018067476692449413 -0.13246557999871181 0.13485199856188912 0.10670874591717065 0.13992809953133839 -0.018512215263279338 -0.039173678519529506 0.18913787395518042 0.010466403260514189 -0.045173654069079756 0.15090368927648423 -0.079531693278612842 -0.1160992068756122 -0.10130595841627719 0.031964684256664266 -0.17154032808567923 -0.17036988103859638 -0.057733731976045123 -0.16661125520209075 0.12874882886951627 -0.143796228148908 0.16681951262994227 0.058963983495265319 -0.12313807314329316 0.056625887993961864 -0.13054537620259538 -0.10375066277454752 -0.16002451620015867 0.17471639928499452 0.0075700279413945647 0.17175701339293675 -0.14820504842237023 -0.014937216555012019 -0.085156932198897542 0.082112026508136829 -0.0012001944529340921 0.096289398908184831 -0.14444875315209915 -0.086342100539657934 -0.12626957425992891 -0.18801256740103206 0.081789125587344719 0.034633670737293183 -0.01073280733977562 0.10080042696827833 0.1798307920538991 -0.1543591513365159 -0.012457806066512494 0.18045895652994906 0.17008738239838592 -0.042723650740968809 -0.066698872501980991 -0.10084504028676732 0.009428070488762947 -0.034041686655950983 -0.058818065218168444 0.16532674426210123 -0.12527177519205832 -0.18175203924302583 -0.11971720357013729 -0.1470896215087594 -0.0072698464823651686 0.080640878444273756 -0.091222242243441123 0.047469162214811664 -0.046337162748047958 -0.17134852100338421 0.084263515765578431 -0.17281239327422482 0.039741438061169164 0.043073046946297384 0.16987750574356594 -0.12794232757421881 -0.16882999418896283 -0.12196799620383705 -0.14590809161728224 0.012277073568002225 -0.011484705005223124 -0.079077537507793005 -0.024128142023322592 0.051085483377689409 0.12791717788889573 0.055285251818369061;0.1504829482004289 -0.012186712873366493 -0.066856592302298928 -0.021096762727325736 0.029246399781725083 -0.055372884140911675 0.010094768144878731 0.1082830383745816 -0.11430949969884517 -0.087818926643847592 0.0020367015523452352 -0.17139073437323232 0.033615654165397857 -0.13058950437491462 0.13646183017717978 -0.15702568978419629 0.030036954945615087 -0.015208003105804635 -0.12371324146732875 -0.074883351853304428 -0.040422291153078271 -0.1163045645939827 0.042934683266911002 -0.15847362151350586 -0.091983464878520049 0.098069227785713947 0.091957088821217572 0.1844983700127161 -0.11975106577680669 -0.17361070875878171 -0.13151625039019044 0.011227207615175408 -0.10751322049703896 -0.18404404852214512 0.095947640493254549 0.091942191158222733 0.074444728509684421 0.044406711874834359 0.1133199702840591 -0.11263758075471031 0.026840601784109071 -0.061210429430348726 -0.1437872583655804 -0.032980781779256035 -0.0022583071775501818 -0.15221013741047881 0.16701875599427551 0.11572998836070855 -0.056085667258286308 0.16258020353508046 -0.011342795843059809 -0.15591431594193825 -0.18355090177524996 -0.099077872157239968 -0.12490487107574152 0.17933528258917927 0.041207778471662203 0.054749407262727444 0.15761550423190576 0.15646144747724583 -0.036599294237202186 0.1805029427639899 0.0010079358328738061 -0.11320030343558043 -0.15911923421592727 0.072471160652421984 -0.10580542211605456 -0.11448982887778039 0.12480291960449975 -0.11774122096228831 0.070037048614760261 0.049846734068332628 -0.062293423394382728 -0.13742558165454452 -0.053472330403897386 0.021540697922491549 -0.092131521732233851 0.042735976448906171 0.015702232419175108 0.15720222321995275 0.11049689068890502 -0.11254975732154879 -0.023363549027176349 0.096294950295883697 0.022271013516137569 -0.15669935186400005 -0.039708441356223589 0.19504750508458937 -0.10580552536399838 0.17665392890991061 0.0519991432934305 0.17193108024845191 0.029419657698636508 -0.13466165507306202 0.090537746587560614 -0.0017225472410773305 0.12345646769724344 -0.04381235088733864 0.12978631832995613 -0.019652628901028337 -0.0074001984762349232 -0.12406431913271064 0.17089754507658131 -0.064604069669052397 0.12161220669218548 -0.13481368586908304 0.15099348950822855 -0.07676744416027885 0.13202832554878813 0.11387282950159788 -0.11074200342619769 -0.15734832638754606 -0.091903565118865382 0.04914933228161681 0.15785105492359636 0.090859342793436854 -0.14708419945977497 0.18319762832481842 -0.1779743462420868 0.19097784051990718 0.0095046345393762725 0.16608494468197968 -0.17194726163311727 -0.013926559362063579 0.12872703226414722 -0.0597786057404305 -0.17404696394170366 0.066469483068145763 0.1873789814373259 0.18213364981375391 -0.13798289511698586 0.15234651883987022 0.1776141686042324 -0.1362040906714822 -0.078490642399057758 -0.1131720425358594 -0.19213194838620776 -0.15746524610036533 0.050415142823190796 -0.013645180662453998 -0.026672241239419685 0.001336204029755095 -0.066590265430182941 0.05271991362046078 0.14961046939999587 -0.14340083613968824 0.16382873130324022 0.049281376164834197 0.031419618433289671 -0.16758603592177609 0.0081352767073984578 -0.12437946923272888 0.14752722735911114 0.08265833783192042 0.10400713679598113 -0.15220504765110127 -0.10528903777032328 -0.028185739001535356 0.016532842792767878 -0.11104319677302762;-0.098255690649898891 -0.064547351759517202 -0.0062136773525721008 0.12047365405851349 0.097225118643874064 -0.042934541942958919 -0.12364261499287722 -0.011546112530370276 0.030916343851011892 0.1782813311007107 0.11943129719262018 0.074322235188431188 -0.19871318771213634 -0.034874674575642181 -0.067093321454936142 0.17288002276693412 -0.18016422129807294 0.18354536516597844 0.18022379268894143 0.17164030087771542 0.043273048222800661 0.019862345557130026 -0.20195118415008018 -0.13848765223570586 -0.059111951501850543 -0.04759162543948213 -0.19364404962177167 -0.18807675312110039 -0.087791435515301608 -0.02900579949763497 0.0088429218497207748 -0.060046149237374842 0.052019060238602699 0.11043893852852023 0.0079422150951132617 -0.19134588520787449 -0.12324595570947183 0.15151303531575785 0.18980669154093599 0.081239771430403118 -0.13235430850864632 0.034091904188751979 -0.16216107368601601 0.0011012232204169253 0.18524258898711254 -0.16785580327285127 0.015576643124387736 -0.077392658111998469 -0.099458211197077151 -0.039274604066320072 -0.054301327081861167 -0.088775037929375508 0.089768679905621609 0.12182456428421537 -0.19810239520884171 0.066930943853355254 -0.098332663362574069 0.031673047227640055 -0.057320380861387472 -0.13213996662720678 0.081923707879805172 0.11652781444536983 -0.019367455869469721 -0.17119579901565063 0.019607527498742599 -0.10991509166689548 0.20186677713656728 -0.043126093213543722 0.12421454145161873 -0.090188513198298265 0.10658458929753058 -0.20010276831247703 0.05842939047622274 0.017256212050556621 -0.1046637571489738 -0.05088430127790701 -0.017139816944024413 -0.083038444275150905 -0.09112606393845335 0.0081794883402380048 0.090001559027061903 0.041412020765862388 -0.16571042825047066 0.13981734265551235 -0.095982534687724788 -0.1358322217998669 0.17980418535105488 0.0031227344530355794 -0.11660760984629771 -0.16295005639478763 0.042534891445532484 -0.0282501076234574 -0.069559454632857093 0.022795919498703254 -0.049246435113821818 0.049656416121084304 -0.1576838907967168 -0.14408539889673344 0.020890788800286515 -0.16069064937721519 0.18830879477440346 -0.03205119611060684 0.063668555604701027 -0.049925101843999731 -0.12014461512852305 -0.020215441892578054 -0.028195958388065059 -0.095309578477608708 0.016778738660774038 0.0072228926185665216 -0.10726372266896195 -0.10213912531966009 -0.12582517412591837 0.084984827143143565 -0.033690873306181701 -0.042184532396021386 -0.017617109190811091 -0.1234018888917158 0.018597594279715333 -0.18094639416071168 -0.1566936610742303 -0.11679533151131859 -0.092852410567529339 0.18144794515775164 0.01072335233071837 0.086745998624363149 -0.055201710014728428 0.1599305970465118 -0.16099068053088036 -0.15643524315435153 -0.19938614572791591 -0.013473362481365761 -0.1117302906091652 -0.14696706325628237 0.0063496009137708354 0.10335176290496471 0.066556902801820653 0.043613464701902999 0.11624577594120795 -0.048857925101400253 0.19827517707707845 -0.13556746502642636 -0.13612922785328427 0.0054287185385872086 0.19917385818456293 0.032848170144220992 -0.037602378648829357 0.19423921539025693 -0.1652762733206857 0.033189723094156028 -0.17019039113896406 -0.032021434413995506 0.11651482507698889 -0.063691889554717149 -0.15922462308221327 0.062524005182295131 0.12283609317220351 -0.18264008209710791 -0.11810232362129908 0.17295505856632351;0.13027747653789523 -0.035908239844388908 -0.073499211188505456 0.070944144800979755 -0.0088792688773960647 -0.14637276026327922 -0.1140486247146679 -0.17604469586341778 0.11130859894409516 -0.14732367000328556 -0.066880190123736832 -0.18679747998313065 -0.12905558676331444 0.078328028870058145 0.094567727054033657 -0.0581954312959026 -0.18228688028459028 -0.03989989641588261 0.030791405059995822 0.12848989723735768 0.056613276862176279 -0.069363921090118588 -0.19054796332822985 -0.17660366123561722 -0.19022798774885957 0.14439283525192773 0.16749023455589365 -0.092152339490628288 0.034222761791806201 0.17250570040356897 -0.14111282506569423 -0.088264612443685567 -0.15308665269963601 0.053531734346010579 -0.16803173786679598 -0.0060575486240228311 0.12138917805618631 0.056639838780300968 0.14515269963700006 -0.044874317178955778 -0.043966044938537091 -0.060955829344535917 -0.17523563609139658 -0.049326765932664579 -0.12154334914114923 -0.12501008752372866 0.089047993946169898 -0.16787103904983025 -0.15657367336498434 -0.16597643284103727 -0.013959035637305779 -0.15133937180843271 -0.077438748194291487 0.063021399969298092 0.028421310568694316 -0.066587083572655456 0.11395218488149832 -0.18886124456447584 -0.036102182229828972 0.14101742422764199 0.16378185803707232 -0.16554261634822115 0.030593650569991023 0.081341707225569923 -0.12668644476505025 -0.14871169463029202 -0.054734658263451842 -0.0026154404820666164 0.19059479703271048 -0.16361870987389751 -0.15993275010392491 0.028098913393211439 0.18231660052601698 -0.14241106206638979 -0.0055955643208431202 0.026813576256779215 0.003689760221560358 -0.045478410838253248 -0.021345457605482884 -0.12566617200677191 0.0085584864111223954 0.091983123231464667 0.078943220546550272 -0.14842334323275141 -0.13031657051609991 -0.093217837510476881 -0.039486087132155588 -0.066996001932845717 0.10729473132124476 0.17497236781157285 -0.15267613533504135 0.14401380584494891 0.16458956220405782 -0.14135658603002701 0.19036064688030921 -0.15827381819535757 0.041832056878432514 0.032678420902953406 -0.0096602008905534754 0.13840551847939014 -0.11507087119833259 0.011243462944935565 -0.026286005105045099 0.1925635551036787 -0.17106904703825834 -0.10483108314190365 -0.11313479818663466 0.16258900385925099 0.096155763633492916 -0.10743805724857343 0.10855067285599436 -0.088637476503489562 -0.15611286006921779 0.04715853688800694 0.058282052814850271 -0.073043974334486728 -0.030624104303673266 0.053621356847676716 0.10375696806604788 -0.047396646182566393 -0.12005826328610504 -0.11546150809395693 0.03189147893632293 -0.056658416838025243 -0.17572396896179734 0.17249640611794695 0.015879410881861646 -0.19544235536201568 -0.059829675664750608 -0.031485063123937604 -0.051513458192155359 0.089010052242967971 -0.080197296663216219 -0.13396285030160418 0.075769048475752027 -0.094980978791280798 0.01016174458885458 -0.073712446902391385 -0.099062956138859251 -0.17566788653402773 -0.061658483354088509 0.14787420877681889 0.016218029104694477 -0.023925618493062236 0.14762478619441324 0.08569406131627097 0.163424277636736 -0.064780280937494064 0.11070903252265751 -0.13843319628285186 -0.037029930996215994 0.11225287832532385 0.00426177858256673 -0.19441003887751362 0.089653579169523559 -0.15022977562339709 0.13706673052997206 -0.025140390813673353 0.098190605990258112 0.052357675720247389;0.18326804271092104 -0.074061313286989047 -0.17526915963134918 0.066052566637275253 -0.01173753045407387 -0.069206623999152631 -0.098150477735268415 0.10085331828742404 0.058771162156144904 -0.064012857960930383 -0.0025216358124733993 0.090503968416986796 -0.021601047170264152 -0.01830099432027104 0.04532466436262534 -0.015166593540109482 -0.1795014662853513 0.075895233881989932 -0.14665551875807248 0.077536242590855065 -0.077563373233252714 0.14586904340791337 -0.02763012156865444 0.055880904152165921 0.096192910609739016 -0.12303019104003399 0.068764128469174027 -0.041279096176117053 0.039998261189596956 -0.16061520702693605 -0.032311624511670321 -0.027818114798787184 -0.070015929484797221 0.055344910527411965 -0.080383481311252017 0.012441874000532573 0.070163693277476791 -0.044070008269020203 -0.078947534864056951 -0.053848406504321426 -0.1593935594541982 0.17024767117619954 0.1809284658595631 0.078719456284325293 -0.092624776300117853 0.12760458846447245 0.11228256978505465 -0.10867291131373799 0.067538517505309495 -0.18813915967050385 -0.051327760887240864 -0.0071113935414812415 -0.20333187563587476 -0.20006371138682974 -0.10407538108841112 -0.12968762427072975 -0.20606220813103995 0.12622515024662148 0.084953715627946819 -0.14221368112245902 0.11964617346523473 -0.10363570171539077 -0.00068816636351476206 -0.025542410706312513 0.19238797382789918 0.1998831848832692 -0.067220446938993261 0.058536017400182688 0.13443512081591785 -0.13248853584110754 -0.032343802505444115 0.028275159080178046 0.046172577808730887 0.16438609569484519 -0.11015564261258727 0.016241237912004991 -0.039298063143509483 -0.15979441621926915 0.046094372105734971 -0.036369367756310229 0.11355193804291934 -0.074425533749377562 0.18846883493380739 0.084095999833476293 0.033883260740562561 -0.11220400439969008 -0.055482163529357524 -0.017683899381662819 0.16863922101593309 -0.039200858196156069 -0.023226769412209806 0.11501323937704312 -0.15991677523507297 -0.06081864049827073 -0.20739004503705685 -0.079485934725635324 0.10731961414606749 0.1179269211833973 -0.058415964719796168 -0.1888379742171844 0.20550331137123246 -0.19424970578391801 -0.038734104470560055 -0.17095076143692522 0.022340265100325878 0.017946668860732023 0.18656881953319182 -0.067843897133709141 -0.1979076583263279 0.032280685082520764 0.086041818519707394 -0.19054716538918764 0.16571118685636108 -0.12320959214433683 0.10065805895235454 0.054883144439608636 -0.046230055299277706 0.14722019000534051 -0.14756532105597603 -0.12700589782785981 -0.14867444559399418 -0.076655839837824244 0.20419498834508173 0.1444381452290395 -0.031463299008237793 -0.10091365938360676 0.10471883724390549 0.16346301283314763 -0.043032678494422501 -0.043565920789695553 -0.036654242504099752 0.091204421686717288 -0.084244166642043247 -0.18102298579212961 -3.0051133503673622e-05 -0.067520965167703451 -0.044888917833480153 0.027634822543389444 0.073451641772223963 0.15691975759225799 -0.17003431257498078 -0.087999782887338215 -0.19964184788354883 -0.090025113920024144 0.038797348710561806 0.12755839260564603 -0.14084902302933608 0.20158690724690273 -0.030689134813201992 -0.13009655711488949 0.031557978695206781 0.10010444958268254 -0.10053024829339297 -0.040144641606726462 0.018897903067176293 0.18868684822888943 0.096858337226405744 -0.10595995551570374 -0.20857348182411237 -0.13646689734427059;0.14534169822715184 0.10378538157117273 0.1117407494846992 0.0094670096927120407 0.12266470352900739 0.11331376827420936 0.13524809209524347 0.036121471719855636 -0.16638727383176305 -0.032634746524426266 -0.16365341519735258 -0.014305477521156655 0.093148910794256884 -0.040435349774024743 -0.13796553667101044 0.069193160751814822 0.16792660910653348 0.030779914524717327 -0.035893498363316227 -0.071626735037679759 0.2049032722973026 -0.13688554478073817 0.030931118914898085 -0.076434986885849321 -0.17125053548495156 -0.073882667977332964 -0.09313634646240565 0.12938787097095786 0.1957108070370959 0.013998201843882892 -0.12263949213493054 -0.10171764036014859 0.10456738523961158 -0.16231942507318384 -0.1264808822791719 0.11215581854238782 -0.12214011100603714 0.1409890479388424 0.17838781890791786 0.068300750170355903 0.090495926508122951 0.19142417865920369 -0.17975287513856109 -0.057484245273850362 -0.16167277798130872 -0.063700764373757629 0.14951429260944071 -0.075077893156093672 0.046948289838966983 -0.19375797003127632 -0.18104458138201929 -0.15882645316694577 -0.062370225812485344 -0.0057173857368775175 -0.14365802150559898 0.15816750581296501 -0.072433615333338155 0.081448738743801874 -0.070250198603334285 -0.17894222300915996 -0.12882335797063407 0.16800451781438366 -0.098385041634044282 0.036046247866631256 0.10854277360844018 -0.06227033475409105 0.081595209077866035 0.072852303638661256 0.17250358938892174 -0.14779732883928767 0.048682269201110996 -0.11942694806834328 -0.13136741726476825 -0.09597775772471509 0.049289846821355121 0.20220011381601199 0.038160402009473252 0.048336504995195477 0.19240413653668273 0.034444407665373343 -0.023184478898834886 -0.02681401791913721 0.053775246340122942 0.044381961968434733 -0.071093949852446672 -0.085691554699885347 0.019211207214321374 -0.16430690021517599 0.090893098479087914 0.077226124601132651 0.079464552791359139 -0.19664704475477257 0.16053444361653657 -0.056228234432346265 0.10829525655363813 0.040742090612417785 -0.10401929109989098 -0.12155459601066716 -0.13687208164511902 -0.15124352211723016 0.027778646560640313 0.10227330511579455 -0.11247748323340664 0.067274721385544828 0.016833722659904703 -0.043473401541400718 -0.10795766520645832 0.026679786224102744 0.074774487461770373 -0.16458295921566704 0.19331939314197988 -0.06289162105436695 -0.020550711365377314 0.0074637458055568382 -0.13574253862300581 0.088298358884653649 -0.086379531321267536 0.11581346974562967 -0.066379343769922189 0.0421391091643235 0.11438331016821919 0.040224462473836951 0.12028074051170076 0.032155662810087415 0.17118794479460761 0.11864920539184247 -0.14381733910283848 0.020254720029501919 0.087949451042298718 -0.14151352512861251 0.19615809151026506 0.15379976263945408 0.040166998052649533 0.094626592675638665 -0.15013042220534778 0.15022909938277701 -0.018946501868390139 0.20292627996099064 -0.081114046270382018 0.034527652678512745 0.056467278117791543 -0.0079421866199802776 -0.013272258205169918 0.073448187372251145 0.14881614988608372 -0.13683037844185608 -0.16842993384919466 -0.083154825449133371 -0.0058308880283668898 0.016978082896921296 0.18859215995140544 -0.19347274552675708 0.1937903348473145 -0.15368970607177304 -0.0055310596748806198 -0.069226956365432649 0.043115510043470938 0.010517270064205513 -0.012118912364971271 -0.17339585848395417;-0.097667890459215798 -0.062740895536244026 -0.053573996847375085 -0.15880012732759294 -0.1262731939795167 0.093551902678087107 -0.17423271161427487 0.086539665770702864 -0.060461531161415637 0.06816704294965896 0.030382639581134921 0.029377574704326479 -0.16702493932061419 -0.10825110766363877 0.075144507012760653 0.13082374409831085 0.11744964239375121 0.16277286981064268 0.12417434060015391 0.07621723146076459 0.034170713419223259 -0.097086556483250083 -0.10816932863976449 0.15317341228420792 -0.1829693542685869 -0.16284224893964958 -0.06187563166653913 -0.14352689252069056 -0.10710908819590001 -0.064904268668653176 0.0069855613587190037 -0.18367057212770391 -0.17181768017960167 -0.096664651483426844 0.11564880125728295 0.072859365672220927 -0.14989115250259244 -0.10431828802479272 -0.043029408598612519 -0.032356985930494721 0.1919580534656232 0.10302411392426347 0.18096175270619358 0.086685066487220144 -0.046600679721348584 -0.13733243953218099 -0.043637260137349483 -0.14964941937310594 0.077659315190791806 0.1257689665132401 -0.067863223254696917 -0.010423765409127792 0.083592233666063276 -0.18208612022259507 -0.11474992134501988 0.12671290598227836 -0.078988521188545685 -0.16411742408744404 -0.10767509072366407 0.081890109105004147 0.18772903603096158 -0.10870267426482094 0.0122306950135089 0.015615552601432095 0.0091957601080675383 -0.057090457505899743 -0.18247964189080287 -0.085954680750027504 0.041329700030446982 -0.060981872213848695 0.18645227700573566 -0.1681362287720948 -0.16261695524481418 0.15839882169050917 -0.086993633099214318 0.11323228969611275 0.076545210350642851 -0.013941705900652796 0.0031064240113671555 0.13962463836754946 0.049914105737782898 -0.12244683290918343 -0.18613277065238418 0.095394728466745862 0.011506387376623744 0.17839396073361738 0.086403017563043527 -0.002660724304914504 -0.15269408385763722 0.14873400510338644 -0.069920935964791084 0.010020425269184074 0.10788918568307344 0.1611591146183993 0.012011447473397215 0.094586002254037335 0.097774101506450245 0.056342072571385182 0.15384745101775391 -0.17304031721586116 0.005646037152742844 0.12135017340345851 -0.15334793640290514 -0.12413648576295236 0.14032454241978595 0.17218861639602981 -0.076328935073257262 -0.060049037854868023 0.18504741481820178 0.038828580377367854 0.16018256904182401 0.16342738028662021 -0.049020137723465279 0.17606636775419288 0.093977017821683093 0.014669310853305001 0.11671408826356139 0.056252743729992012 -0.067277164782693286 -0.14494838621709571 0.12182831737660554 0.15225880164707389 0.076577867148884565 0.13917135523838128 -0.087049884653834592 0.13263299714130405 0.051001331899684005 -0.13227119795141884 0.063052882372151342 0.046264722640146298 -0.18609625532319948 -0.13382145065160514 -0.02684844290135038 -0.062867659995020947 0.11327489068336416 0.16539474465102549 -0.058120428723864963 0.088882660518885104 -0.0775730593964543 -0.16869335328572643 0.043281099346873242 0.017212514506284034 0.040261033044784594 0.17876059952788109 0.050952582810059148 0.09338743258620831 -0.039063478178807634 0.18139848926080712 -0.12426116964229321 0.0045548686277571086 -0.10077211010084222 0.19050956660185947 -0.027998276289915504 0.076120347891045881 -0.14102434356367302 0.01814942321675677 -0.13851642498146519 0.03168485078419301 0.16336146252344161 0.014012105478724548;-0.14985242753071873 -0.021023248356187435 0.09664096680102903 0.05902937860734904 -0.18414738306572465 0.11413500014061653 -0.13420084858154785 0.16119884082446856 0.18830931330055731 -0.10927173143471385 0.09944120782840532 -0.058800388525024359 -0.15985023685473751 0.025046125844383555 -0.11666351802893529 -0.054398665052770842 -0.10106948785771491 -0.016914292560611315 -0.17864264563831081 -0.13505903330526847 0.095677076085997612 0.18612727064784595 -0.083819813114954803 -0.11127961301307601 -0.093843166108887072 -0.0030822145076586185 0.10568642018370183 -0.13813646706059146 0.047694973729134858 -0.1933721707913422 -0.036703508921200015 0.089140153947253789 0.0053525764347513881 -0.1505549005639156 -0.068044066553588758 0.040331366130119457 -0.18457518639639342 -0.031165612843890241 -0.063427597624775817 -0.13783009978517924 -0.052127887517254973 0.053431718934006167 0.16312856853661634 -0.12867737271697446 0.061310895769265593 0.078900305878227023 -0.13701041340206313 0.1099963478947428 -0.077133069343467919 0.19234724521108731 -0.02980483451620039 0.13623428391078393 0.18820987340855594 0.14043599365352713 -0.15747125571410719 -0.024851869381560605 -0.12775981170301015 -0.035436449534044581 -0.18499456352897697 0.17543048852155857 0.11781217781360585 0.043056305656856843 0.01014402774301547 -0.13841876437792083 0.17493592242237779 0.0010177987684082215 0.19355253090942157 -0.097924046059085515 0.044921453526287604 -0.056372323723293025 0.11779835399797892 0.17117320918077014 -0.012815210232080824 -0.066921126353222032 -0.006849432647465202 -0.13847094095421589 0.021371050174292049 0.16968461223965342 -0.15662834797658173 0.065894022570846603 0.15757142090494039 -0.093847064280539502 0.035290910913059859 -0.073874381218657581 -0.073283798009418838 0.1201750287046484 -0.17437339213319239 0.15856837380582203 0.13292408105351478 -0.10750372231762123 0.083329416282934332 -0.017334967227637554 0.12559358351249555 -0.10969399317435471 0.14752833775484489 -0.049055322481643356 -0.11664156787155446 -0.010479050319738063 -0.062009237394772293 0.0024968007430991833 0.078356605529563667 -0.12594346121763941 0.182862111306551 0.17952194774305269 -0.17440491685671033 -0.055052210458195971 -0.034202243694653342 0.029322658255078123 0.14999736877034792 -0.10221777062820898 0.078125334281156422 -0.1774326627564605 0.14681665098449967 -0.15302849030873436 -0.15034013788145151 0.10568565688226915 -0.039540843076142133 -0.089769599254773375 0.14913575030688644 0.12276793750014155 -0.0051749407132544957 -0.10228642904239511 -0.12672818666835789 0.1179696625372384 -0.092299225884940619 -0.0045762300578768246 0.0058231881594959607 0.019039559723725015 0.070944247522900017 0.12696952410394005 -0.05465335512688186 -0.014284304496894509 0.12532974298942842 -0.0051591777304120737 -0.059779348086764848 0.06635862692831701 0.021276559687698208 0.047982500537527902 0.0051183325922194191 -0.10177831780702366 -0.023858528966554958 0.033653237051487886 0.057232534712740181 -0.17985016132337864 0.01485546158487914 -0.19686234030915939 0.087703227276326332 -0.14489203890229349 0.090583489125865072 -0.15101701475547338 -0.18270383704898918 0.19016617762271032 0.12936556424862608 0.16352628977003747 0.046342913389602218 -0.067942823851986092 -0.15941469815847115 0.15786599828657774 0.15584632499146578 -0.08696765447252891;-0.14056106401143159 0.17217326413645703 0.14241028971130401 -0.063880969371879051 0.084425708813258851 0.077678698170513413 0.059838001859582407 -0.11148477170371279 -0.13939673299216812 0.12438933807404769 0.016469959255520826 0.014519070735110556 0.00064379555234985245 0.08791654814464446 0.17703495765018945 0.034580905227000455 0.14676527471802267 -0.13599894820928704 -0.070715954116567226 0.075616328719868134 -0.17708470257433165 0.18145823782072468 -0.16665987383791647 0.17648660672473299 -0.084674219730042952 0.058468916053417926 0.12897166137693633 0.1083473715676285 0.097919663012112648 -0.13602029345409714 -0.064240832387783775 0.061155308880118942 0.017456000888601424 0.12815355843147036 0.051396462535102307 -0.090107397518059448 -0.16577131502585307 0.08299992383495014 0.0044644799955816574 0.039728008270424192 -0.12917712864437456 0.12864577907730038 0.025438390901468239 -0.035187822943522913 0.0050374390656636675 -0.15428086180964565 0.062801700566681454 -0.16116874673857287 0.11147286893537472 -0.134632034348692 0.069090378038190223 0.18504300777062946 0.059413357201725997 -0.0076074958311164965 0.078237463885250685 0.076327390099927117 0.14358269030737086 0.14076658485452545 -0.058122819384813972 -0.075773342355273679 0.007367976588352222 -0.052988758098622579 0.15671083778071362 -0.082141197523889292 0.15993975078379227 0.12737828111672361 0.082027436463765646 -0.012633707151444577 -0.12263739842521265 -0.11413774479659997 0.063746747807427326 0.063295048760177622 -0.055144513409898968 0.0031174166143583411 -0.14854101802507921 -0.15438469035732827 -0.035187485113595804 0.18568284489956044 0.12577777304030849 -0.07001623299852712 0.12579883250872015 0.17247312470167667 -0.14378050570186435 0.044908744089847095 -0.046513574207903738 0.073248763360657498 0.07060154315415533 -0.073222417730502115 0.10884347366816706 -0.12715188308316197 0.04666112381594472 0.015100600978664055 0.19604378487245172 0.15717956246220013 -0.10158328379662279 -0.062072249061715254 0.044418823219455304 0.15669443788717793 -0.13434784355995319 -0.14193861283927428 -0.1117382613497333 -0.17821350223126498 0.15052869267719834 0.11629228777409521 0.054921469435497292 0.028601966341519507 0.089427130090865087 0.05349341905324078 0.15783948166996881 0.022271297063841209 0.18396503844389381 0.16928915860139393 0.18286953943894921 -0.16022225343870061 -0.18131344192873641 0.1737614016319097 0.12655802102617497 -0.07339383703513426 -0.0049411699314933118 -0.18188111379405153 0.12194736507808428 -0.16974081236159086 0.081797979904867563 0.019383893174855029 0.19423796482547107 0.11138537364893469 0.16156438934129266 -0.15301425276086178 0.12796037480812919 0.049650532386796759 -0.13187346425598373 -0.10144900529088653 0.10384698706670056 0.061301329287536725 -0.14816547684545625 0.047877016302427806 -0.10043787329363943 0.042112916833137622 0.14681235039134724 0.019137098617650863 0.011206756723008365 -0.16089661402297228 0.18492418117875356 0.10264000014785782 -0.17817136371575626 0.041328689271289354 0.024594095284869798 -0.071001545356688553 0.14914285236540922 0.18049272610656336 -0.11677442027381835 0.11747111304615879 -0.054609757847907905 -0.080380818608648083 0.13101994029819347 0.18306938435758688 0.022892592429374584 0.063968796534611419 0.043823681893878613 0.030592384169163551;-0.029666726865978005 -0.15898426310308475 -0.071410981968826406 -0.072294938642367773 -0.035978798141278696 0.060414978561175919 -0.14652756483807872 0.075119971930774534 -0.20139272925982787 -0.020862811182580321 -0.12272098889106059 0.16396086237256449 0.10693389306510265 -0.018705099346240501 -0.11876959728790477 -0.13582496916875697 0.15223269462381964 0.057948793376876077 0.026805170392074387 0.075188647912198939 -0.12463907360109551 -0.14081539960852962 -0.047681361592563795 -0.11010401964197902 -0.031432330459009637 -0.06120720266228618 -0.17114965994752804 -0.062558546234425388 -0.17205912073073384 0.0054912850234255907 0.17389075241357571 0.21295028750690156 -0.099632292846259851 -0.028540339976050759 0.15584027190116878 0.062005582308745817 0.15702994369508855 -0.0042003727743469927 0.14227048654576993 -0.0009200869462589942 0.05908206306319369 0.18940940095122377 0.079324297658657783 0.079840826453702038 0.10453074377364886 0.10452620384374733 0.061442472877452178 -0.15818814304755505 0.00029778622632423417 -0.0061248507976229341 0.0038997066433864103 -0.16496021264454119 -0.14884601320058097 -0.0063407446498414807 0.19561972172983794 -0.00021586715678824454 0.0034981921453190196 -0.089923801339249085 -0.070985474199202675 -0.20463949449120694 0.081529978073823617 -0.0059518160516912081 -0.042442697614901818 0.20148031814810458 0.10820603128106362 0.032220837018216424 0.096283499645283391 -0.029009784411832103 -0.17730149409054538 0.035267442138992383 -0.017334004766584546 -0.064616842805083896 -0.20578955216146905 -0.031749389063755212 -0.21022471665446421 0.039026952516462744 0.14723109071316731 -0.0023033481822799088 -0.011414190053615578 0.19465750608870835 -0.11492191439075203 0.13521894399638609 -0.055348088189921908 0.028610551198984334 -0.063196461371556614 -0.013410771606602074 -0.13332786651672773 -0.14914230338370374 0.14663879523746476 -0.13878650742139384 -0.014642933016167346 -0.070652146704121621 0.14980915776833512 -0.095042434215153113 -0.20136236234547669 -0.15373926479121661 -0.00057865420052413609 0.039696294251656959 0.082185049390952336 -0.12356133916619849 0.16776627218396001 0.086480365572791887 0.15638294123425256 -0.067409936488477554 0.022951993121481013 0.091642901054793419 -0.097094764805331357 0.2043872712764444 -0.14267901024422636 0.15701689345027686 -0.07109630387554057 -0.13815553133414551 0.083599110108491928 -0.0047966690243401782 0.10388708907168101 -0.0099559695672825459 0.028372501080176863 -0.037391533789778726 -0.19757535463587853 0.10122043348027729 -0.076874555917916587 0.055394635800780599 0.090484511732357026 0.097905571886163431 -0.15819763007514667 -0.18093008172204794 0.0082965871511025604 -0.19289240122089799 0.085185601726457935 0.11152707286744393 -0.1935411593030068 0.0055437888391693243 -0.13766784349523589 0.19974204291233424 0.067561526688847906 0.18873816778541205 -0.027872793851844595 0.03127917993043132 -0.05779150333057529 -0.1755190202854868 0.027135886701658857 -0.04201817165987811 -0.089026806281760601 -0.059876405694823262 -0.016467150816175363 0.002001433862411162 -0.20036342083752456 -0.044432929306695797 -0.070365995350358548 -0.16051282626925714 0.17555557950862588 0.031446057227572315 -0.12457592015711914 -0.071712774831301923 -0.035197959318854027 0.092173435588883995 0.20378864949135642 0.091739308603864797 0.17682843512476509 0.11776254767514001;-0.052839520106595664 -0.047352572908688044 0.062862977203070464 -0.12420433533961302 0.15663150831071801 -0.16493610219902197 0.20629711317422172 -0.064782432641260906 -0.16564690480892247 0.085523577318174282 0.19229534256544603 0.11251262730567534 -0.085736489943760277 -0.054449996832596465 -0.18011733561747126 0.16031289285722097 -0.18706827842363788 0.21643163926965059 -0.16564110138353633 0.086218145505576688 0.12811914328092491 -0.051827425587591923 -0.18134108887691952 -0.13909585840680566 0.082754710017275482 0.21277161067762912 0.012632767269786299 -0.072061128021497903 0.042166264369252658 0.11458610641630723 -0.060238197599545656 -0.096483031277519088 -0.16744109666436924 0.18035577502453087 -0.098056631263017627 -0.1156025602704826 0.14744339666625075 -0.036305821402251137 0.021076907816883515 -0.0038521063200715406 0.11307091654436134 0.068307452130652785 -0.0027670515382220246 -0.056382594031586825 0.11502542834327378 -0.055249971215735612 -0.090148411620437727 -0.08710781363551931 0.025963218345110339 0.17352581712294837 -0.017837929845014672 0.035216992937990244 -0.034723312769214781 0.019387748787147236 0.10890436090261399 0.050153557853327715 0.14728980814224657 -0.18368459161263248 -0.05864198870116772 0.084347233836705962 -0.016212169949345333 -0.11818627060762479 0.13844785497330314 0.049947097775200365 -0.17357144888011242 0.013013875764893474 -0.058582619903730988 0.06034253917332312 0.039083896661961617 0.021148814677276924 0.19352026239203032 0.0068187127413587897 -0.047529824548002794 -0.15333542551256044 0.13260793092637768 0.020220003288213325 -0.03832528005790381 0.18608402558581677 0.081893124542552001 0.17271249044101569 0.1391624965082606 0.00063295341491041517 -0.074590587049400275 0.091557663058471475 -0.14184864453072277 -0.0095532563002335008 -0.081218785088781276 0.13371827156640798 -0.14790826781662003 0.14535722068965967 -0.10667376483380167 0.20556006679163771 0.081736296704200032 0.14978092881463753 0.20469605829427087 -0.011554022178623955 -0.11168790265014816 -0.019791877675511063 -0.19648337231294277 -0.15336812432696675 -0.10444376371061018 -0.11927804446752514 -0.066049920248357805 -0.092138614083431658 0.13917293184838075 -0.037091870026351295 -0.003893564272685363 -0.13104196046637284 -0.09350571222607959 0.15074735097365852 -0.047489549042066023 -0.058534956502041005 -0.19199232155530649 0.20594634555800473 0.13574755422977136 -0.12118986482397413 0.14361081847859727 -0.031891977623033106 0.11953334673078549 -0.1882452482069677 -0.0013118695259320059 0.14350311646357003 0.052747413639477131 -0.060091374199409971 -0.023801604289957434 0.17847279401034916 0.15589549996478574 0.11738465285450631 -0.084138725427125527 0.054559422977461101 -0.17727546485568321 -0.0095324678139507325 -0.035257179451796669 0.062734811065118287 -0.024820757188044183 0.033394915231546703 -0.0023592172181685169 0.023643285864854216 0.135302447037978 -0.016798667487008527 0.033692327154269168 -0.044229670693677801 -0.17037566093023279 -0.20349905246277777 0.13188380751281351 -0.13709625059875571 -0.033334098009141055 -0.009825671295899575 -0.086667408553108352 -0.17479355046744546 0.1191786490923601 -0.0059209967324402694 0.13594333902781874 -0.091751921575503756 0.051897588724756305 -0.01487826970658741 -0.10499862536033548 0.033379530981103293 -0.1133927344935194 -0.16411677543219977;-0.1658736480376862 -0.057655601131480959 -0.17232297281630313 0.12541913743334535 0.14953766878818053 -0.1098250578236992 0.074289522467586425 -0.17346767981644717 0.028748731940399334 -0.029266661829182881 -0.14587148640210482 -0.17329567515830779 0.095962890200295151 0.13650456342847 -0.0020459051156603595 -0.15896908544453478 -0.02586721629445948 0.054307013037020811 -0.083390097064467386 -0.18331159358902158 -0.13580076556246795 0.080572572121859767 0.08069499314208263 -0.0018541642773764327 0.0074016913378791354 0.080124752151336048 0.022154014209620033 0.06897679682786205 0.18216116214754266 -0.023804495503699123 0.17746514759588564 -0.068611257987355206 0.17330110448232924 -0.038927397887149585 -0.058772931106522236 0.1709353847055563 -0.089057501697767896 0.10256268955534684 0.17695743686836654 0.12806735258051824 0.012170663111494758 0.045287808636177707 -0.024581366458979667 -0.18168524918515758 0.11460835597178817 -0.14268224227753618 -0.19243710890480512 0.11742147356304906 -0.033213037578276254 -0.048405439169643738 0.11415379592026154 0.089397749326493456 0.100485698143195 0.039459030624194535 -0.042640766365924718 -0.012886162122279938 0.16030443303326039 -0.061537925222158861 0.038630455847533246 0.059625266336269654 -0.030353262354427521 -0.10347312074711933 0.16842669292974274 -0.067624218067444369 0.17575792628028697 0.10894616196005316 0.16425792082690205 -0.1869932924422617 -0.11819560923585955 0.10150179941967967 -0.18815829484749963 0.13977001620461346 0.15169993201651877 -0.13568191656610257 0.11522904564571552 0.086228732490367735 0.080920577248813422 0.098310099536303666 0.0404179796624278 0.15166834462595588 0.12836253033975253 -0.12205860201389977 -0.1851702522290328 -0.13944315376808214 0.14516877873430753 0.11757423935570126 0.089671545886938583 -0.15262095610375759 -0.060074035621596161 -0.10699069409882318 0.1352781909005393 0.082195178200965516 -0.19243055961074815 0.11753594902478849 0.07726062036748757 0.14706652242938226 -0.038799892916137009 0.093159169379608178 -0.12877542039155895 -0.074848140459799511 -0.15393689270271416 -0.044226662863912698 0.15582141912454253 0.099522777424861542 0.16372420813809876 0.099935099935443736 0.001699571971696846 -0.10162750708007605 -0.0098399988330308361 -0.12424425327638985 0.039421539122993079 -0.079622689408441985 0.096280550914119314 -0.052630688930068524 0.027356364158428122 0.10041836484134481 0.071715414967438426 0.023856929558132883 0.17769631234508429 0.13325315839007817 0.17678572918977092 -0.007043564339170051 0.081296592435745565 0.10260110405518127 0.0059866885194561148 0.10375342583477309 -0.17750107011984434 -0.043032404935528963 -0.17987602604966671 -0.13595941292596839 -0.086239574452540851 0.15813632482688536 0.016409571679024251 -0.14670596715504919 0.049154531244427278 0.16548973520244675 -0.14805490001303051 -0.12922074734235189 -0.0067722700655897953 0.045505347172492994 0.056671318556568796 -0.14838672233286665 0.12758972786722333 -0.16651949405180727 0.048117814722388366 0.15030100785471462 -0.15988103849977503 0.034018995761314411 -0.020422069718504608 -0.042982311250582592 0.036086111715480776 0.12013880472640259 0.10413787497996307 0.14218166981035588 0.014103422454257546 0.054435539677196984 0.042209978049335344 -0.028678317232555865 -0.16267164861059111 -0.072815688768075287;-0.13105968804777193 -0.12286766356378605 -0.18498960466823905 -0.1386301642521158 0.13140623058039716 -0.033976907953297796 -0.16959233428578682 0.1307830675947928 -0.16173877899617686 -0.06013596701618986 0.049051708802837712 0.12138221418070477 -0.060846813104158827 0.087676411723264208 -0.031703516318708484 -0.0062416513939396257 0.039536328310465559 -0.10062248370192682 -0.096269579982547926 -0.15537407401020326 -0.063591801057104116 -0.077590161939536828 -0.19576047683895029 0.12772488125733727 0.16415949177487593 -0.17836638675373373 0.13691567264966886 0.042435234848636941 -0.18378827748822354 -0.17716523955141 0.13312385696647133 0.0024891259600851017 0.16438252001204129 0.19351494384171433 -0.19591337024428432 0.11541456755664126 -0.018283294852058703 -0.017268389070675214 -0.055202866689054213 0.017812699759557279 -0.18421566200395545 0.13086599134010318 0.11697643284411223 0.12838616825711924 0.17282951981439021 -0.0022764162147503814 0.12091712968188401 -0.036788654803506168 0.081742033833404684 -0.066855002464722035 0.12931804034886055 0.056325241674908225 -0.032057021708417073 -0.0025818055999947947 0.034629886568584838 -0.028440897173444561 0.090339623205400219 -0.13730317411079576 -0.18072902543679698 -0.021401868950433174 0.13891029374849712 0.19371313899255907 0.10115586829686067 -0.092016842753999586 0.078741917694046329 -0.11038952944376233 0.0080238704566015784 0.056857079711719716 0.054574883715902849 -0.082772363360865103 -0.11095957701518533 -0.18644915735643122 -0.15394231028356314 0.16974061870993482 0.050009622885605357 0.052744243359986703 0.091014311559825839 -0.10068512018505224 0.017512581507792103 0.030349292783964414 0.074984935943550296 0.050616754187095915 0.0011403016797953954 0.052552127021955171 0.11651952158581247 0.18309265766384253 -0.17282703720901677 0.16172007334271155 0.0075208608898616148 0.083076893213324426 0.178451173020514 0.020670348324067927 0.15809654748250321 0.17233063256438491 -0.0068250029998981974 -0.094107234249933364 0.078185632220625439 0.18933932882244289 -0.051231886356258458 0.1123943667853675 0.13154502900756526 -0.10792696014945816 0.1738041534912374 -0.088541900821210884 0.17733086124626796 -0.047842141548859483 0.044476209452061065 -0.17620851387872619 -0.091018063058986007 -0.10035378422296233 -0.14452303488321122 -0.18649727856245168 0.1741606883067969 -0.091859915436898198 -0.027575874001499325 -0.091910095290561544 0.053691048225806386 0.035320076460068107 -0.1512199718209945 -0.070804281631974553 0.17332524586842055 0.13604180039758101 -0.059369930642976992 -0.036697587546858423 0.0058806298284177563 0.012565040713636944 -0.18071580625528044 -0.11761771425311487 0.083270494763020717 0.13877456318135606 -0.14877104380607453 -0.18830922185796203 -0.053250653417761307 -0.14792193813243315 0.16625927471654237 0.038919755337764338 0.049540162310207025 0.093442193126271209 -0.0072259762488734143 -0.022982891013358785 0.10241478085191986 0.064400649537262183 -0.07764910032503021 -0.15423226554348249 -0.061217962825996848 -0.057252906013178166 0.11136778416048715 -0.11993968092945967 -0.089305880572336155 0.13291981181824344 0.057408426462587481 0.15962922020478926 -0.031853814259186104 -0.0069736978067819521 0.012849449672283939 0.17048775579253442 0.019152343638293785 0.0017359429164821823 0.06392155686527036 -0.17497704679918741;0.11136823602764802 0.066832795283600019 -0.021352260625906967 -0.052505775347444009 -0.040253359555847391 0.0008154832082473292 0.011555239295468889 -0.047589570309899257 -0.17387186145646025 -0.133496392340478 -0.010068858935560221 0.034840505099197026 0.047577167470706928 0.046346119922148835 0.11931861894519928 -0.081802382470039778 -0.16499763930763731 0.14915089687554145 0.014070544453549518 0.10182226732035379 -0.063310866712369213 0.025619773212731262 -0.0758472122994263 0.13247129339272762 -0.094899314046347563 0.14538040751766385 0.14635120105312138 -0.13298957789095167 -0.16812085491109421 -0.17541144317864021 0.025417839039205307 -0.15699911111387452 0.17898459194601504 -0.07347721232787828 -0.073756517649746847 -0.14345649135178867 0.18401211376444013 -0.054363700605841898 0.014279443255223113 -0.028624775621122627 -0.14952277767540087 -0.14435318767748495 -0.092824141155330872 0.035688757183018636 -0.1747915952841862 0.079942850528662276 0.0029235606460070625 0.12830135039055293 -0.17615909234652272 0.10793201881344662 0.021009459614455394 -0.074126931007353569 -0.10784822444512046 -0.14511326344694034 -0.0069840399159536394 -0.16192876271635845 0.032273793667727105 0.13096726740622328 -0.1758964351650989 -0.028330555733216387 0.080227018374354045 0.036296127580775259 -0.010072355437011304 -0.1406065172342616 0.04336294330124859 -0.17598691533963853 0.028488671990684167 -0.11211796287130128 -0.16938383311672606 0.1579465184746344 -0.069333952289569442 0.028200576417969501 0.14493437300454873 0.16961434972677505 -0.070307922632833017 -0.13069326814976792 -0.12626847049465803 0.03583574427944556 -0.023333786493660094 -0.12803730156200746 -0.10891310547094372 0.13762231877619333 -0.14214743967528196 0.10238448890042026 0.16625379941270824 -0.065350164615703907 0.12149607820869966 0.14602017934936348 0.10067838027971748 -0.009896073892429148 0.013177859334516095 -0.15759050129860169 -0.046777010324952552 -0.18110882143127058 -0.06059508664743915 -0.11263506155782417 0.033393805220148974 -0.15128265433843177 0.08950568851065932 -0.068783755880648917 -0.15914270307616088 -0.14745413025835091 0.17174935710055497 0.057045760819623002 -0.18312561037324226 -0.16698923620436379 -0.14585091722510146 0.11104882186698982 0.16873837393080668 0.085250330892287438 0.12631688659215237 0.042526537706826864 0.022433955256933029 -0.12194728700136979 -0.14388320515985561 -0.1792480486776723 0.10411230880821502 -0.057990847596582774 -0.18483698776858973 -0.089160116913473905 0.13686844109491783 -0.093402971617266753 -0.15165989866540791 0.084400935550222711 0.16561715464348303 0.13670979626627974 -0.12102853693424905 -0.1748037237948496 0.17657227282167254 0.076474784474429458 -0.06054309477463525 -0.031274117322410103 0.087155509206755952 -0.065937963275706682 0.1150349561860366 -0.054882678881552967 0.1555303586791055 -0.076991160550220372 -0.094239295291908401 0.024384034801996038 -0.17548585156876051 -0.024628684382722411 0.11314264293349741 -0.024111289702002305 -0.045088885390224931 0.1521521543673128 0.10689287646042937 -0.053413550531953236 0.071121224169046704 -0.081742437482248881 -0.12231548622489483 0.13925813876468615 0.16777495698254397 0.10282992493363365 0.026391154073148206 0.14346308053888226 0.17535800571394375 0.17559581572482727 -0.14686960135472998 0.070450048615890631;-0.16749005378294016 0.043787628671999888 0.054483868110880448 0.11682498752052498 -0.084523684654466344 0.086249982903608663 -0.051147982053258524 -0.0056058802344429413 0.13795337684737982 -0.036637577408049529 0.011619077492123113 0.083666552123929205 -0.13458741498122448 -0.18918230332467154 -0.17523805566269052 -0.15573960361316591 -0.13116989622916858 -0.025612915838823733 0.16232820267441855 0.13762780232702765 -0.1885820585753934 0.14638626396206411 0.071238022138399873 0.19672849566994885 -0.19950952338857528 -0.15082955332059139 0.051060224037794956 0.083907880173608951 -0.029948910624522092 0.032383247347176042 -0.055200868867203413 0.16618042368181701 0.055078745451364181 -0.061208780255554499 0.094955791896341651 0.10026571855684245 -0.041668413089342729 0.079691692590924221 -0.12290548470267688 -0.17089090387812131 0.13996896160138753 0.024125761993290914 0.15768102581174465 -0.068352092931130121 0.071900356192774434 0.15315738996966952 -0.0034621934712514659 -0.039616827058217341 0.079010161807110055 0.0064837799956614312 0.14825301379976483 0.037510154242912083 0.1245261663721641 -0.023163939471361517 -0.0022221570487548424 0.071156032333969346 0.13471289064319908 0.072354239811193141 -0.14441180617880364 -0.18552584629520208 -0.074777502156529119 0.18054970675251619 0.00086693350396572697 -0.070534765647936981 -0.036526674159319247 0.10643897595114736 0.054829540275562721 0.10514248624133059 -0.011706538603245801 -0.16911387098961045 -0.18379929196874711 0.1567931812751244 -0.1688613059289861 0.038651630603493456 0.18896233530130607 -0.1821283868477539 -0.10808980720146943 -0.16133867828100218 -0.11779765743100552 -0.065779393107653752 0.017100912198555064 -0.11804768436365656 -0.095800978264729983 -0.19351281158077943 -0.026050640131483574 0.00945497920839862 -0.035046005366796022 0.10128308501980221 0.15525222514321599 -0.10751281883171476 -0.090695179974667847 -0.15947640270436869 0.081677860558824672 0.02388340045710121 0.15669739619825698 -0.091504558505804592 0.013074122469651697 0.041223515475619942 -0.048877841799338649 -0.19407981127056215 -0.10053398052271771 -0.043013552587183652 -0.0052434619518018644 -0.05530855549796939 -0.19737565663846648 0.017964174601739064 -0.071260752138222569 0.10539960721449812 0.013083080671850185 0.039894512668644029 -0.067343693237655586 -0.065784921255002918 0.027750184108959991 -0.10511494076572855 0.041380363883290687 0.044467076583479169 0.19080835477212751 -0.065939997853917104 0.10227286831452076 -0.1835535270773683 0.10728728542557354 -0.12392679959172045 -0.13922737766469989 0.10991734941620931 -0.18443487063248049 -0.06537041446574117 0.12711933361365549 0.16464390725003919 -0.11179420995810276 -0.056272685751808257 0.16505983583129827 0.08764520660626407 -0.098617393977367546 0.026879409168952203 -0.090642855723117019 -0.065195688525487322 -0.18441943226360669 0.0040753475109522146 0.16984655957052974 -0.091397726427538836 -0.13358666715455078 -0.18864386505645001 -0.062638579541802991 0.10935729329597088 -0.053108223271712947 0.050709803652484474 -0.16213443517044815 -0.17381992902940752 0.17804121151464739 0.0050624510303032113 -0.17614117338646915 -0.097041523886532088 0.020118299839984071 -0.13551225971246403 -0.12589657429888976 -0.0166422507187955 -0.14714761238481502 0.19172118206821118 0.13919033770922923 -0.016133461090550891;0.16899048978499492 0.20209439983945707 -0.16435968542349583 0.0096624143938341938 -0.018255901522665388 0.043020924788021907 0.12611093571124407 -0.052716628079323501 -0.12847908566770419 -0.004971850373238172 0.19100257113655972 0.037486362806053879 -0.052738387067650182 -0.13502067123699479 0.14699913634129036 -0.031098889253575488 0.11089043284077725 0.15556253537167769 0.11742957086669398 0.13006429166585187 -0.085097481594671925 -0.087789567677898667 -0.17138447393587439 -0.063424693066863144 -0.061559085184704668 0.10002821360452453 -0.007551019144386285 -0.11743285073273418 -0.14812952139759866 0.11916098388535049 0.076495206209677091 -0.093518651694936089 -0.084271121351791628 0.0012888734069307567 -0.060221053704880387 0.073240673708013723 -0.094612913746592017 -0.015389973287303961 -0.17016597053383767 0.19667938726987286 -0.12552152351588294 -0.088727432066214529 -0.064488404433371546 -0.15108204469871753 0.011325918128561457 0.11457307665681823 0.023158433831926634 0.14669683431819902 0.076786115418711512 0.11708807734106794 0.098198961645742128 -0.0025743737092702892 -0.11725405410835878 -0.0040722470350701709 -0.16244571521401141 -0.092898149861827747 0.14960800891683884 -0.13035779274562051 0.11805414992715088 -0.091624447876164916 -0.17788282374584535 0.17653516362658389 -0.031099674385860969 0.044308683040058139 -0.094115677073761603 -0.038286496536968452 0.10254564083403538 -0.17450020532234448 -0.10416317314101892 0.1022740214175633 -0.15908392625123516 0.021782507520317643 -0.13074870031147251 -0.1161685833205314 0.19248537373488936 0.00043027393926747468 -0.063405834253559196 -0.091921347239201076 -0.09826037421839838 0.049567710025845022 0.15855970355020893 0.20206161536835099 0.15428875332093961 0.059322572394004555 -0.054185437350036982 0.09684016970553018 0.15961601113809054 -0.11010705957490721 -0.049554436359673826 -0.16019244513206582 0.0080144538205217247 -0.087460184213834904 -0.086851320032625537 -0.13364013349535839 -0.10915650722798899 0.076073259528134471 -0.053687199141984498 -0.095165853874646877 -0.014832217142425785 -0.12462723486219345 0.11545666964927292 -0.042977220913431376 -0.085365240491226999 -0.031240071262759624 0.20320664758625853 -0.029303565942392921 -0.11280891787738737 -0.11521293231737448 0.11026018196917169 -0.19031633746896801 0.15581994909565205 -0.16895585423457404 -0.16265125570382202 0.12006187260062461 0.046364317864672523 -0.11671039243772569 0.13549198249951921 -0.027057809833052657 0.11995913395568727 -0.039298012152180019 -0.014613139936665751 0.0018551482488918967 -0.1545093762518108 0.13303806787130726 0.10768191756341522 0.13521319135770896 0.083635423566458575 -0.095846608835130756 -0.1309404998175577 -0.047029403534183514 0.054127602146080867 0.19784691100138929 0.10599249550620646 0.13731237015125533 0.012966152228965274 0.077643675192711689 -0.02811719414771309 0.082971278275099702 0.085805715153951342 0.11182434611133535 0.16994353238779727 0.084429918709382809 -0.15038015306087779 0.051990256745343327 -0.13411995646586575 0.20299162209452065 -0.11388733820026568 0.1937666746542866 0.12849377113487731 -0.17623719233110041 0.046629701740743983 0.098078214289780363 -0.17837219693898737 -0.19330152144602672 -0.13553135581937339 0.068534581136702896 0.065688557810807013 -0.073925769020696697 0.038714430440625967 0.10652118685725064;-0.01096556437862581 0.0088969206388083664 0.092066179228387168 0.18833751986431704 0.075598473715031492 -0.046559160137686982 -0.079052672181794084 -0.18897591861032748 0.11567242567816237 0.087999003537470422 -0.13890027787569517 -0.039695135320366746 -0.10957498080413654 0.090068419033432934 0.1182916874116209 -0.09505626978211415 0.0052175899470384285 -0.048859029418436457 0.17462469062883001 0.066283828393182226 0.1884186250188796 0.083608796062410298 0.082226148192841381 0.16401545716572755 -0.1848131268757664 -0.027229026407472715 -0.089244610044915768 -0.16515943594991428 0.16863233178170489 0.042157263298963077 -0.1355645311706408 -0.15005073145377507 0.046969726259955248 -0.12563001883584562 0.14992175830925369 -0.12737625004081965 -0.064499583096120819 0.093947084255500857 0.011706728790211762 0.0061430536657155381 -0.18538831597360192 0.12938282698753759 -0.13301975045942724 -0.077776123297225719 0.092778073583244428 -0.037629120340601882 -0.054485533401896102 0.14056490759327597 0.10560364486814741 0.0016625884452099685 -0.19254809189398758 0.17110143892196544 0.16368078451611306 0.088152461595736115 -0.029294754768359035 0.17122360585377813 -0.049229662736483562 0.054933629705616729 -0.079988508718307275 0.042494347240151005 -0.027440053598032799 0.16413464256912719 -0.0343529662226899 -0.10790565965380247 -0.11631703687555463 0.025261563512086305 0.15843258036592089 -0.1480949063302342 0.11434046961684383 -0.16187104844315214 -0.19597773366554999 0.1682672964090276 0.17547643779567723 0.0083330276548474469 -0.03614730809805225 0.0058273699918240818 0.14597894369487097 0.17801064182243573 0.089942883646137908 -0.010791377591922328 0.18791290758826715 0.03834912306993947 -0.18295380061683719 0.15693571739722306 0.080323595545555806 -0.18090969809667576 -0.1365579186310896 -0.084553919228466168 -0.022815901173645608 -0.15855717219869425 -0.139301183721945 0.098673790742202158 -0.1080107486073448 -0.0073515860535803184 0.12120352818548948 -0.16177704719640562 -0.067742847821520222 -0.044948257385335026 -0.19772474297946391 -0.01906688892412459 -0.14653978191843647 0.10942185903949656 0.050978876465601106 -0.06961568362405475 0.16281124345414091 -0.036049607932229916 0.022805297313395825 0.049673524388104066 -0.10842947622134883 -0.026038995218050993 -0.082611750255558031 0.062199089270418048 -0.0047423042745257157 0.14830132544651739 -0.044942120124198549 0.11156406933339222 0.051747482622645141 -0.10126771573979225 0.14040536259146497 -0.056571244782810053 0.18366714367633089 0.061021093437031708 0.17736429832719572 0.14069724607718492 -0.040467560586363631 0.16653654606854851 0.043234245275627296 0.10320270681167393 -0.056966618786808053 -0.06964853094982891 -0.11248909636566505 -0.096359837259760273 0.10912117169626541 -0.12296825445843884 0.14573090943191969 0.076458213666167299 -0.07675304064547521 -0.1092827306298467 0.028473310577624776 0.1626567304864982 -0.10244054137466233 -0.013570454414327877 0.0062381468497422999 -0.14711642704938471 -0.042113703583622868 -0.18223083700437528 -0.16294207599948862 -0.16259460125574632 0.13808083203212021 -0.11318097535482109 -0.081819530074110233 0.012089607211868294 -0.14364915673447592 -0.10918346980197485 -0.1415584993266546 -0.18676154566051892 0.028501774646231704 -0.013815760216009724 0.14512493227088888 