function [y1,xf1] = myTDL_NN_Function(x1,xi1)
%MYNEURALNETWORKFUNCTION neural network simulation function.
%
% Generated by Neural Network Toolbox function genFunction, 12-Nov-2017 22:11:34.
%
% [y1,xf1] = myNeuralNetworkFunction(x1,xi1) takes these arguments:
%   x1 = 7xTS matrix, input #1
%   xi1 = 7x10 matrix, initial 10 delay states for input #1.
% and returns:
%   y1 = 1xTS matrix, output #1
%   xf1 = 7x10 matrix, final 10 delay states for input #1.
% where TS is the number of timesteps.

% ===== NEURAL NETWORK CONSTANTS =====

% Input 1
x1_step1.xoffset = [716;3069;0;0;-23496;-32092;-10756];
x1_step1.gain = [0.000213515533255044;0.000117082308863131;5.8707237281444e-08;5.67328005650587e-08;3.55473401702718e-05;3.08756329504755e-05;4.59527146566183e-05];
x1_step1.ymin = -1;

% Layer 1
b1 = [1.5947293661424327;-1.5123727341573345;1.4044843939148735;-1.477420481704125;1.3309978998172654;-1.1747937639434431;1.1668374500653906;-1.3670665713470607;-1.3122607972893481;-0.71691788789737987;-0.94389294800861923;0.79596652050113859;-1.2710277224246234;1.1761487868600149;-0.97326067229271551;1.0828461007397534;1.1108703671455935;-0.86216320470337482;-0.7053533979526303;0.84020231759262942;-0.55343219228704721;-0.54245862120357569;-0.60869217688083244;-0.82750066801796851;0.63220586375270427;0.60536780282278979;-0.25550125989852468;0.54879182460004405;1.1170264745400489;-1.4841955805796523;-0.33445241750845728;1.1187544550484565;0.4609030827751327;0.15753656527206672;-0.43002089145652034;-0.16927787113932036;0.30594253005126615;-0.17564881604788329;0.78223464437377466;-0.2656302445545301;0.27644113261782333;0.083221750456042437;-0.60313771196448296;-0.15916745265788862;-0.70824840205586237;-0.28537525581161594;-0.097018782918986177;0.61415547440172047;-0.27817624228404458;-0.43893823062830217;0.32589919566612108;-0.44448972183684105;2.0811246352774022;-0.35460899738891305;0.18503869633798214;-0.67284147850864906;0.46725860205802072;0.73307773413481003;-0.49413561071782719;2.7878021539648099;0.8337883354041089;-0.61084068479169062;-1.0041003328797244;1.1606255859029464;2.617479349002346;1.0476022175747524;1.3732326788126517;-1.4761930315175671;-1.1117679979000927;-2.4186289071946274;1.1321436420428783;-1.0999530873523158;1.3147584213611678;1.1717143214285508;1.3994452250504226;-1.2446920279343234;1.6019202514069253;-1.3982799142522619;1.2280008406379204;1.4687754107209665];
IW1_1 = [-0.050218415328482854 0.062939350454061294 -0.10772624713992125 0.02056139386935044 -0.02052240880630463 -0.17182199086194874 0.1098860948257417 0.25759085522773834 -0.2686173299810401 -0.078012946447211268 -0.011448655023088665 0.19021737476010189 0.051884262250517094 0.0032055916731864569 -0.038424444125005688 0.22946712128415375 -0.097927541281402353 -0.17488137822113939 0.20239950642365148 0.053887528780543356 0.19029911003673902 0.13463781569553446 -0.20413975351448219 -0.20216437646730942 0.22330352055568636 -0.21118419073574451 -0.32446214773378929 -0.20924694770219299 -0.22371515621889768 -0.049870248842386812 -0.24244258602605745 0.0056530861680337214 0.29614347226460991 -0.0044898585443055791 -0.12071666860796081 -0.23427268360259126 0.1965838537047605 -0.33170422761599883 -0.33717190615153869 -0.2103921460904582 -0.23131693138139542 0.21586277521019001 -0.13088011121170151 0.22427798529618634 0.073823996403626344 0.14726894852884506 -0.20243062580304438 0.18136613765007531 0.13642355225925917 -0.0099733014425648359 0.21645757309789398 -0.3145794385125546 -0.08415984197072536 0.35566840881113865 -0.010468217389734087 0.07911665548339343 0.14207575678067103 0.13618211947272271 -0.24025440605173423 0.20743156671572013 0.01501403370838115 0.029530542652902135 0.13604816993733465 -0.090444301786128056 0.038960555943506121 -0.34512050592991467 -0.17849672628813754 -0.12103651579946634 -0.088351899416341959 -0.14690606917879953;0.19988857138460836 0.12288932201555533 0.1389065090181327 -0.24736622582634274 -0.86762843788720623 -0.23627491107071122 -0.13414569316876895 -0.19884120875068778 0.23188164724478583 -0.14755024072460418 -0.077818702331572648 -0.36554172416378106 -0.17239757093790353 -0.19202301190432111 -0.24885246735758249 0.27257516100541551 -0.46298476268244343 -0.26336711473410251 0.084145095670874873 -0.33163614711548617 -0.062048495982234456 0.11369860031790317 0.099751292368546893 -0.1654746899611042 0.075831001881564775 -0.7769914946192501 -0.12279872228178459 -0.14895287366319893 -0.16781889521179288 -0.013815420724860503 -0.40419961591307346 -0.29051607092954151 -0.50674460788704434 -0.20430560608798345 -0.026017348167582735 -0.12206264291116242 -0.14933214923066057 -0.39843938112167804 0.025299304505332888 -0.14743380991682628 -0.40216562589394472 -0.075254106030987131 0.32687362116202223 0.08125692626951618 -0.19507660130949833 -0.29369623923842841 -0.28173099399312312 -0.054542913966525511 -0.032206173042995744 0.070317500656639095 -0.13520790447254541 -0.41862068671971653 -0.022499063639772408 -0.75316582718346803 -0.30663900845102426 -0.26063307989973006 -0.1524232657917432 0.14249341865431658 -0.28866430848339997 0.10931697289206076 -0.22653371179309981 -0.37248552425289649 -0.23244383284527084 0.37908074340143877 0.31098532886075625 0.35195796642592303 0.29507222371035646 -0.26433822893902748 -0.17195342907899086 -0.078751186293696651;-0.16266639585089746 -0.13664377323583088 0.062263197394562132 0.32050212404984219 0.11516363496266038 -0.28996704080226382 -0.078245718125420263 -0.16892404872014893 0.1973896154177199 -0.26888687400858763 0.13214079106523149 0.22258168537933568 0.18150590904936681 -0.27372355457875364 -0.039685865393420137 -0.28566136107499995 0.16285873218090161 0.25607694753027366 -0.065011957298334422 -0.21563213248523905 -0.15469813239222541 0.26192430590482357 -0.16337093493273269 0.053556092355190647 -0.073950700944961728 0.28974680800858971 -0.11787967415440205 -0.13445208346851059 0.09486405779883654 -0.12343460547390017 0.2112901017040178 -0.10410349974765833 -0.11926260554714249 -0.25670312717406119 0.036521433010871823 -0.22807309088664696 0.19827935530416047 0.23052955270892003 0.17542165312829036 -0.14223949097427832 -0.01839804198705354 0.090700395477428183 -0.14992592284031117 -0.072483048885793155 -0.17143914996702578 -0.12937234046301133 0.27925959840841169 0.088641829297974026 0.05016498486214347 -0.17193870457027827 -0.062301743432322608 -0.17998893047850018 0.11452882852299912 -0.13713513494876939 -0.015680121904141194 0.20826324153794826 -0.20216232585784635 0.022826225387477184 0.30858768153421534 -0.14389628401815824 -0.12795840375728484 0.18262597089010199 0.19625558930605974 -0.23301170943548402 -0.0095519948044376045 -0.27610709610740086 -0.26765460970267324 0.12409090210349304 -0.17387409622514685 -0.21587592506646794;0.057751108719735531 0.56189843553384644 0.081417470866775754 0.2704383870656682 0.63739741399647254 -0.0194871205473117 0.10561310430065947 0.20432798539209432 -0.12432112425607723 -0.02396772387564125 0.055610764714165602 0.72668365663208279 -0.029682100513030184 0.11398619120171102 0.019054570996152542 -0.09044471242866528 0.24452180869107265 -0.028442454853585535 0.91555025210262087 0.18878476504356276 0.25363856378700017 0.2552698562844572 0.0040026271220582835 0.077991534923093131 0.036103602675491647 1.1693432515316837 -0.022844955448770399 0.20286942766102695 -0.11750351189250687 0.033706522396882259 -0.060832331094115996 0.055795815902491587 0.94214014358006315 0.034085050021369273 0.20733752147250339 0.27998323084570315 -0.46213713633316617 0.0067665525636617921 0.15586259420816176 0.77992077148837624 0.36572751859197633 0.19416675965054378 0.33183374575746105 -0.64566292107542589 -0.045003755785602728 0.11679717308531787 1.01215301771215 0.14498649385159276 0.19956915055223615 0.34554346473862557 -0.78067825680934988 -0.048278480216652923 0.15058610053149399 0.88543936805018597 0.27828092385083936 0.2657738181029648 0.31503310479457824 -0.8903433819118256 0.29030719326123389 0.1158030766481028 0.78604862420908383 0.50048818412147655 0.31380456102289289 0.19636885458104589 -0.24869656980172922 0.086420586248561457 -0.17930152561175608 0.34859192861931376 0.39807688217550258 0.099102103360522414;0.029687338033056156 -0.41771688528131434 -0.1709012459388661 -0.27666861428895012 -0.051228999895798003 -0.42357806367840301 -0.55935765596047249 0.32042756276274686 0.087581699065786695 -0.059251993935042928 -0.27396554511103594 -0.03045012319026388 -0.36626258793476713 -0.13439254504996234 0.5969848628061204 0.028448350086331654 -0.24862087131690852 -0.20699972250825693 0.17372145932455951 0.10161383086278826 -0.24437485897808389 0.25356445636387559 0.14045580170519623 -0.33961411434906452 0.21728459655010213 0.18369541231396491 0.16947042150911354 0.67985338577333287 0.4412613707402796 0.16841257535749304 0.0095425499338244388 0.071760268306643823 -0.097475125892568307 -0.023175829641875353 0.30129119207804639 -0.18119454027671381 -0.32797940093366251 -0.19939366854398496 0.046852794687393527 0.36924260418256072 -0.24510299120143497 -0.45009380398857929 0.28959084543499708 -0.26610807408325587 0.26917000259908674 0.13511579571706872 -0.092920977861375806 -0.42520504355532279 -0.35613912968072298 -0.13580471927314064 -0.15572641249443669 0.016086396237014428 0.12279364965320062 -0.068907663062961089 -0.15870790635568074 0.18746705620421908 0.078337831147299766 -0.037741289474780462 -0.043816723016197753 0.061455283126178324 0.39657243905941147 0.063733982775161874 0.15743530715011134 0.15312033066045133 0.1161204044419361 0.27909944131502235 0.47154149399854806 0.20558933414578215 -0.021991017887889812 -0.0022009528633303906;-0.011572660782623638 0.19360699549742275 -0.0065906405871814216 0.19184125762292889 -0.24889030284034017 -0.1670592485492538 0.21017260417396655 0.22629153049147255 0.03441881462038146 -0.0017850322804742746 0.50224307940021995 -0.32377119516728708 -0.070167701273617475 0.39178238497704321 -0.09687230479367781 0.029551747794752475 0.18437344174914119 0.39370810163227482 -0.021745722898438496 0.12878418637596248 0.048503193645310028 -0.36755288129129049 0.065259305316785213 0.30851339374393605 -0.28177964689146673 -0.22289965529641362 -0.22177427104263669 0.18808080651174688 -0.22016231722407328 0.0033564415998325482 0.075732476758793937 -0.12423679291360802 -0.26578543661386 0.16305917038740883 -0.10691117319403842 -0.19537979157961025 -0.014317567741706965 0.022250868558727072 -0.2304170725679045 0.16034243982514407 -0.044805134579915272 -0.15603606506885306 -0.27127219963981658 -0.26549083360718939 0.17534637407242026 0.056080003022886474 -0.0078139454660508083 0.13505387973313809 0.27896612126172821 -0.21383675696805823 0.08814674522122648 0.16520229022783076 0.096037216226409289 0.18248562985628886 0.19407885529706584 0.057619004977642989 0.093227288121049995 0.12955738821475876 -0.31648626152268039 -0.044428806959090517 0.12634201985947716 0.03907042215826375 -0.033391550661689341 -0.15784554687759439 -0.066695854317588635 0.18677453574818176 -0.25369681065072069 -0.21923745448050228 -0.0043053770811438434 -0.1042681798740745;-0.28241091809926722 -0.33504866341310185 -0.092627988194560265 0.036002678089133031 -0.1977208931913369 0.22093756568039302 0.048556283024893496 0.22756328537166243 -0.19021424983191296 0.12245822203648125 -0.018680996325686712 0.26067117480091817 0.34320061815773389 -0.43115200976500384 -0.011912145585780033 0.14736450403575538 0.28014772216109229 0.39256133910984448 0.38414881592897304 0.45770342035048883 0.14339693988215496 -0.3353287205535751 0.07733995149617566 -0.15143625939347657 0.098104375224398049 -0.56384107929561023 0.26664778455978327 -0.035415972185591865 -0.20411167087270257 0.20289677750152443 -0.28282611452665668 0.051591905517527861 -0.078618329412932314 0.21928838270961545 -0.22127348971232877 -0.28185628989160838 -0.23273532710732031 0.16144903467967386 0.28793975031436675 0.18449234546835716 0.37198120483043368 -0.12955555792861817 0.33020783403541509 -0.062901138212776042 -0.038737520641991992 0.10906086941741869 -0.33826803133559469 0.13178901389291789 -0.32352602012102472 -0.042060259480730167 -0.28804110251292286 -0.26073670946900135 -0.29286521722271414 -0.21135773262473251 0.1638814815890412 0.043680656585470982 -0.11617670894118012 -0.14589751202465273 -0.39494305541831398 -0.057124099333243042 -0.0032215905726235873 -0.021100643140664309 -0.14005209577906969 0.21725711378345272 0.037151020729059521 -0.14274406845262955 0.03417808463261237 0.24989067442655485 0.11358110345316688 -0.095921921625661141;0.41247399068457907 -0.097310536739511427 0.12062195178685345 0.24583944052593024 -0.29792020716123457 0.14553251712550946 -0.54021310918911158 0.28156051585384251 -0.17564490440632946 -0.019950775091758594 -0.06306550340959248 0.50791012865800456 0.1448167165551133 0.1730131911033258 -0.24635679721714049 0.019289604108387308 -0.021706030845754006 0.41228680691842157 0.41869554979663254 -0.4545808504773392 -0.23770346505449949 -0.20366658250414382 0.044881543787283464 -0.3120360074884333 -0.17992671851139283 0.81590484284726783 0.2288300639778241 -0.42295697775946567 -0.41022156378989699 -0.35345404044771078 -0.24323554459066668 -0.15284777037218009 -0.55467559391336319 0.11704996328981411 -0.089768476908281145 -0.17523263126632665 -0.18794947550077132 -0.25010452567850139 0.00085052394799210685 0.0024412464804569787 0.25427187285380931 0.17551627698388203 -0.21104828671278644 -0.20309038452415651 0.15498703324897267 -0.31760905655928778 -0.23253564146048239 0.13143317189412385 -0.15416897053236436 -0.30283176820989705 0.21360913110880658 0.071821924594260442 -0.039862565112694565 -0.26406989470374925 0.10673598826977114 0.16150684538048907 0.019474202053314345 -0.22158640505530247 -0.29318471101636923 0.23300704229308714 -0.46050941465985812 -0.29325155945802234 -0.096238340731234093 0.197530413474899 0.17682073768844875 0.080093329885117234 -0.21203920430825252 0.34574029211145779 -0.37612406511860014 -0.27190994702135046;0.089343400905616724 0.2202718547585005 -0.46904758780321071 -0.29208322552146077 -0.291743548193661 -0.27403993110103586 -0.1910330536645756 -0.12430031254864571 0.3256108291824818 -0.50489068667819725 0.13600401498438236 -0.32649340930196269 -0.099749092509685638 -0.15352826521193172 -0.21366788579905152 0.22697132983111809 -0.18264458633795699 0.28895399854195303 -0.029570918310258532 -0.19455994504515195 0.12436215629027407 -0.022999534655954706 0.027506907734349047 -0.0092166171607053066 0.0180436755479478 -0.067120700796240218 -0.2284731068443035 -0.17854620661817622 0.56187327928652864 0.14777802179497487 -0.073496664800254102 -0.31398270207970014 0.09170442463316994 0.01284915919047076 -0.40648848266781479 0.61855766262014034 0.28998020740227792 0.31558451566463214 -0.32033373489755596 0.080709747271189305 -0.56040917057461259 0.015399294293741516 0.42243900784017563 -0.20130833857059885 -0.12146653369175103 -0.18109757368338317 0.18810719072224891 0.057254745832412801 0.38090448265732013 0.36390121245764928 0.24358892525475601 0.053847988905838202 -0.069113458642418968 0.15246890160911339 -0.13856759353437081 -0.141622200757619 0.50328060340215663 -0.13494066437967756 -0.2210741572156836 0.24578893929654097 -0.12907810152117882 -0.54156366832744307 0.30738146055449228 0.25240378809238495 -0.22765250551963226 -0.02229581266689365 0.39259144622681463 0.043318216919724005 0.032099741136320609 -0.31527065228273904;0.028830082506917692 0.25043334480961688 0.069400753651022634 0.16561587623951707 -0.62943635678494247 0.26956112187235137 0.12466808104012311 -0.10881655312214837 0.57128525118215223 0.21731323982470169 0.148438153320893 0.040893444408150632 0.28823698752352056 0.21699119950750306 0.4574746108681374 0.48491555915687479 0.27835683378141751 -0.076601685502726322 -0.074506143691430507 0.32061873979934502 0.20093776660751822 0.33159171082519073 -0.012744223102783548 0.12241668635661988 0.21275478876921966 -0.51627107464434152 -0.060401373348818913 -0.08464442969415524 0.30843168377175367 -0.048433030689201649 -0.27336055255637481 -0.067299407648539616 0.33557810951757427 -0.15439442915633286 -0.007781271950137481 -0.17580285514824598 0.34561078262990708 -0.2414678468467428 -0.024281409977001189 0.81371313245359211 0.025135351402251611 -0.069199129361026665 -0.050214507546503737 -0.28736242724875194 -0.044744756725175618 -0.047958446540062524 -0.66821847765158504 0.11149095733584792 0.13719324228817376 -0.23540368748685886 -0.27318753464670353 -0.71024425175966732 -0.19356536082623532 -0.62091067767629426 0.47030718089108658 0.14700315989041934 -0.20651750890794859 -0.14693997170458339 -0.12321544375152894 0.12746806200174376 0.57012007725208236 0.43516080004444369 -0.034461413609314533 -0.51763285136910409 -0.51474296477106196 0.077085712905326828 -0.040128942537289894 1.1150716283495496 -0.38636074945953991 -0.13481523980054788;0.22721578739809303 -0.040124506993516149 0.11509255646140344 0.079725638635206444 0.057810326992749211 -0.086252195319938246 0.18447481464673274 -0.094220191946425863 0.11166289002293874 0.14885418038849965 -0.27839245320249906 0.02266714836487985 -0.31806723124766001 0.45890315198174642 -0.24281554841309672 0.14750018870354639 0.19380428546812095 -0.33145304509420248 0.18312864334411513 -0.049608504454858558 0.11307842620336649 0.05326309475744663 -0.16641565781280099 -0.12630724420388839 0.1356343552489265 -0.0041634271684472448 0.25839447298149226 -0.1063366615706338 0.14815846742092925 -0.30976607745536322 0.25329184563487761 -0.050721727050569834 -0.02127339247356648 0.27999390468148661 -0.39016863179534722 -0.26469832645713187 -0.24977706571956454 -0.14611083812036599 0.26151076563255421 -0.19541058687207233 0.040273632019088589 -0.0054923549707523011 -0.44066679016361754 0.2199389546390294 -0.062545329737680788 -0.13009701112049205 0.33824667778955203 0.23571655513907636 0.36282764053626382 -0.092562118585036587 -0.39442106784805481 0.12750911572058929 0.38468873396348963 -0.13132151341270856 0.2211157889791 0.15593481624879313 -0.44343307250144992 -0.39280018947261613 -0.0723294307841649 -0.024766243575869012 -0.43432731625617704 0.23707514528796231 -0.23019559086265637 -0.36264033030360077 -0.12315542394099221 -0.31343769656567383 0.059213061218615248 -0.067700327231216911 0.36430250506518147 -0.025300789810263902;-0.16783178034749213 -0.071132455190315358 0.38783924669818637 0.22405203014326555 0.098924193889153106 0.12213281976452661 -0.019103829866083544 -0.1050662436174699 0.17745819450730702 0.58917118322993245 0.039392380684046588 -0.073048619191813907 0.063353203270145791 0.088463970880586051 -0.42325413381888588 -0.011803445353837779 0.17582869166839371 -0.056169406982090019 0.17777146564106105 0.2758548739219393 0.34580281617492253 -0.65989609544345018 0.092201023995413023 0.3223210310136157 0.2604239823315892 0.26884793545786723 0.34827101723455994 0.13176316239067537 -0.37245823095842362 -0.16887367224244257 -0.24769867509385823 0.32695005577134822 0.092745001301948529 0.52305545633306871 0.033604167279894237 -0.56779109853887733 -0.10880747639904563 -0.21515920459882165 0.27648678676905086 0.098565487784725889 -0.15668792940747131 -0.30358920137096956 -0.25817877457295163 0.10232911351848588 -0.15839171402009189 -0.038074327690954819 -0.12934683933037869 0.14681078537111575 -0.13925020795807522 -0.2692668395665449 -0.0084488046878002654 0.035346636569164862 -0.36555204549502957 0.3877989064755118 0.20009388483101348 -0.35059626606664862 -0.43286579615915832 -0.075733231881698893 -0.37811778460355178 -0.24696103195563404 0.030987493632602066 -0.064122389923861753 0.35181897411754637 -0.32286623063917247 0.16424842177463062 -0.35558499532030102 -0.56280608319094705 0.24538796692177028 0.02194565858921621 -0.11105540494114505;0.60596389946258267 -0.14316492082217369 0.34173032185904689 -0.022893117383440763 0.03071893744244545 0.023452141651391003 0.34840426763861526 0.321494461349767 0.20353442514903017 0.38949456807149757 -0.18086676007262534 -0.4721481816446072 -0.38011553521504809 0.42170431968410765 0.26395736831763089 0.18517805158674458 0.20653248365571061 0.12442975830213612 -1.1156097925471333 0.035325975759516758 -0.45021472571824123 -0.35225863904722854 -0.1126327674692837 -0.1616589306359198 0.088987393929895325 0.55495765250362394 0.20264959605460939 -0.20138325849037397 -0.075461044352516049 0.12104955806937155 0.031823657368933264 0.0096136147651986366 0.090971173211061435 -0.4412317707590111 -0.51448765848293676 0.12562297695660854 0.055270033665129968 0.15433484289145896 -0.35932822098352335 -0.89222037429360657 -0.0036887638683752704 0.26872823694014242 -0.18202966156449049 0.20034124420656063 -0.16367469885143637 0.07905312720284681 -0.49100374370151278 -0.021434381233970776 0.20735210655799929 0.19409039233673389 0.09593223613084409 -0.15420671462424612 -0.31630319239244997 0.0043867339159447682 -0.44339109757384654 -0.053603223098934796 -0.21822584493308472 -0.10736766896627019 0.19602539165243368 -0.20092163367213833 -0.31564676479192183 0.27696884069011141 -0.1809733253761146 -0.44838715635163873 0.38486133262942351 -0.2529854880877575 -0.42770998250846443 -0.23134651955597144 -0.2070403598287838 -0.11341963975968986;-0.19286475253013585 0.17618598816015987 0.28693928677483665 0.034214324291391311 -0.61618624139952682 0.020513230403023261 0.12155928381935752 -0.055050537779784095 -0.092842130438339221 -0.0098045923710993535 0.047054989221609556 1.1997356538865005 -0.31232017774752269 0.031126063520406422 0.19340598289384933 0.23826936394645012 0.042734976825860471 0.27828905190039521 -0.21783874721677479 -0.59399189475580183 -0.10562513464684894 0.073827873956764087 0.076765368975251561 0.19320483327734364 -0.048289805391505319 -0.54983011651453373 -0.066773940544388871 -0.054561485504701288 0.12283955925207286 -0.20006242573579033 -0.19504363172978992 0.10795489492342367 1.109469374267426 -0.079071989193708808 -0.11435948370116512 0.23094793113536075 -0.31945385549345068 -0.26205775718727253 0.2067816045179631 -0.43473368490448594 0.70419435004538122 -0.07268257420121052 -0.26621883540452707 0.066873920389548494 -0.018632104432278727 -0.2951184736182863 -1.3052613715663535 0.37536584356945996 0.23645623414810477 0.054112663103093331 0.22786672130129504 -0.1417466442000673 0.20294611751284253 0.87399074747942429 0.053085437769347953 0.0061940473765890094 -0.11284811698741552 0.1160558120521227 0.26364212051169184 0.021330261351247538 0.44177434364904855 -0.055582654390266696 -0.13763300687650673 -0.16392499668649624 0.045140359601142134 0.24256377277476349 -0.40134384984870597 -0.64389709515346916 0.20352879034287649 0.18433530013786784;0.16893103063272333 0.20196880374605564 0.31083565730686324 0.1877277278364953 -0.26250421187668804 0.11094064532290648 -0.1278989270998987 -0.047932000974564626 0.32221277823867367 -0.24850923697919713 0.10888315956365634 -0.046896955082000077 -0.17007738586965004 -0.06606401954033489 0.098700010724887377 -0.074436678361330666 -0.11722212713490036 0.027076509524686973 0.26928978974932177 -0.20066823558592789 0.2096022580121206 0.068286636771065987 0.070102096369000763 -0.25825043752886329 0.17147751049354615 0.27048876994399579 0.27908693183846434 -0.22404424492570815 0.11068385217777123 -0.11018918453138492 -0.26229107176787297 0.044836127890120418 -0.2281588024018944 -0.086465441225214587 -0.16047991355211599 0.28642993547667939 0.13701280499100935 -0.14865075455039636 0.0058688963812550555 -0.0097099239449399653 0.088805498541707439 0.017899780631089292 -0.31442900328622531 -0.0045858853862136891 -0.16361898380847822 -0.042752770465297692 -0.18639828814336931 0.20530019296124172 -0.22217542640942917 0.21774576495991635 0.22727672644036798 0.15531940986629855 0.17485854600957976 0.17679704312499422 -0.17491108862162694 0.13017590322839084 -0.073599141830693965 0.18958769905502576 0.16736793172187125 0.096759620592233739 0.12971616478918385 0.22787939053003664 0.076602778032059296 0.034737629412350549 0.075861207656145624 0.25378970056097488 -0.26615617271661546 -0.14481778307230792 -0.14851298997610915 0.29377084290837491;-0.57683207739728704 -0.13272025590054351 -0.21898397263530572 -0.058873613509626367 -0.17779715732548945 -0.42704250191549675 0.22550123274399558 0.10209142331847591 -0.17469493285968996 -0.1127009611628938 0.18310964765451426 -0.68026004814153151 0.076102303581623301 0.55514543592988319 0.11684272317785584 -0.22420250290221549 -0.35217610359175072 0.00063987321994655587 0.67305428409724666 0.33315597439191774 -0.16417663629927259 -0.096477327370011592 0.01291003678289152 0.21945766778484865 0.066686749231798445 0.94705507381756238 -0.069055098724473629 -0.60424368385720262 0.23664161179761628 -0.13455621801972734 0.19200196824265695 -0.082924898632432117 -0.13605199880716012 0.37592307705014377 0.083071206452196761 0.060214102218724211 -0.3213274717155149 -0.18141590977826019 0.22882987852368325 -0.060535145329878602 -0.19584651289730814 -0.11669406674627915 -0.012885838799857441 0.062162863279672353 -0.32656184369193747 -0.11122559735403896 -0.69730971682701204 -0.1840129261252349 -0.46856111154642199 0.27758116093685542 0.18040194640298648 -0.022125042850719583 -0.3463677556672356 0.82597147571339757 0.75223253105103083 0.016529067198939325 -0.12436766391208383 0.18356344214404444 -0.099392221018727772 0.13962176403650936 0.76894559618442548 0.1827062456460907 -0.3796403210856949 0.19546616428768182 0.48490468194619479 0.27738536611284997 0.59962492377483612 -0.42646901747625943 0.10795766534019088 0.17590234786854492;0.15931409997742368 -0.20898730096170956 0.11967920809861701 0.4023690184185188 -0.061604164166079119 -0.48701513658061935 -0.016494769420003885 -0.023948700001535025 -0.12967344952690329 0.22496261855968946 0.12728094374132903 0.0752429149903594 -0.72184997319644761 -0.0097060958383617633 -0.081532628341078328 -0.13431982810298088 0.15805982771102417 0.25491221683063181 0.21216658478474204 -0.5592957187416453 -0.024274054664348736 0.27081302857517198 -0.18713196501194765 -0.0043886334539814768 0.24801915739397842 0.031149134801828904 -0.41965269527277616 -0.03636467274011243 0.37586244237728744 0.016092576176137106 -0.12718887475652516 0.19143651208849102 0.19925360884459001 -0.30616325843775294 -0.61905381316631047 -0.12354811454930592 0.11888231936077727 -0.37032205828842962 -0.31552490317063342 0.18576112509996404 -0.13476676701376447 -0.15786142681245524 0.16399513537109167 -0.36960607620512248 -0.09762351656435124 -0.13602737426658917 0.39878275573641914 -0.44947540100943106 -0.14449273096560847 0.13952316107870852 -0.060534778004255274 -0.18788104059918018 -0.051597755081982138 -0.043203343002032456 -0.40999746504667839 -0.2044269292863915 0.012630514007843548 -0.23124253320051666 0.023252770029294909 -0.11070301596726034 0.34783328620905923 -0.45074641311975555 -0.20326989316767968 0.091382215223157842 -0.43893170284127497 0.01570016232073046 -0.0095475678383445412 -0.34680810406220564 -0.096768282494252969 0.034658689056385444;0.050110742499882836 0.15693638306622029 0.13124125210840312 0.17101459049088003 -0.13590629578780558 -0.29428497167837586 -0.27381909060598941 -0.077602448533213852 0.081110217379710567 0.22223954367449522 0.24210694073935204 -0.058372085493070061 -0.075632305772415184 0.09069264874990654 -0.1389496734861935 -0.19144085334377495 0.26001617977980734 0.14279204689018826 -0.1353773842826092 0.1946680860527493 -0.33512216719092813 0.11751618554376567 0.2605657739782164 -0.20767522936080934 -0.26827715170658339 0.0067961356902350341 0.057770939265489082 -0.17013646630035109 0.13777595404952325 -0.062427478820622086 -0.17171694679042346 0.2263597607445664 0.050737510489463282 -0.24082740853966211 -0.07416927657236648 0.229877450493913 0.051534567689791443 -0.13717575492544357 0.14236444740552162 0.33886570943199079 -0.016111141175798847 -0.17791383509631106 0.34779663910692726 0.020630633575600365 0.33176524896808313 0.22463561728488998 -0.12883569839386286 0.22674422047482395 -0.13764523418649763 -0.091025799069501881 0.21570268062334544 0.16513519281787625 -0.0033430551929463951 -0.077833872049015373 -0.21658095981105666 -0.088782522089729449 0.30843703022484587 -0.16131406030928108 0.027227802094236291 0.25404935731207118 -0.0034252578352865128 -0.074816213052846289 0.074429622374634768 -0.073735027112431614 -0.23888714242738932 0.15753856925486923 0.11765337267475615 0.13429358054912743 -0.062881286356593236 0.24167181896684814;-0.23559311989577411 0.0090984839469429382 0.13847709868857183 0.22533525992628481 -0.15997178941594667 -0.53773293832659685 0.24928029157439974 -0.2532009770555837 -0.088720467954049045 0.26076793284227662 -0.21223383323217582 0.21846155554505414 -0.068474550559802394 -0.21503125680347648 -0.56873259890743555 -0.019319152760703995 0.33194978483528387 -0.09105919644428169 -0.74215393297244869 0.2033810988940819 0.016340828013094361 -0.00057022025894691748 0.24133863103480252 -0.12651418704053347 -0.43528504963983844 0.30232451109660713 0.3085652711262295 0.1239155806136607 -0.47849096559824672 0.16656875994292714 -0.31823518729407368 -0.27865626762139739 0.31374083415048198 0.4612260521358631 0.11409324087468981 0.15869505094198841 -0.1717362960135666 -0.40167651100142854 -0.081692998689596369 0.18174780710334629 -1.0209473731809471 0.35847403466255739 0.042511505485808773 0.11665962375601967 0.02440131991236694 -0.3014042641175893 0.31416811905380249 0.042749005190028042 0.50016032855249537 0.0019536520150102753 -0.13541648726638272 -0.2896167648176991 0.29524076885692818 0.36722089834020794 0.31745985114482334 0.39060158365828501 -0.0006243388532930598 0.21370099919540364 0.29743599886385907 0.029302260078301973 -0.53163033997418008 0.11924838236806166 0.087715367303157238 0.528634082052438 0.0016693735433397101 0.37863977797970017 0.15054266282742551 0.27160637052962272 0.56306568173898808 0.083022518468768416;-0.16647711887405695 -0.20797234654739094 0.14679687054408738 0.37540478705462577 -0.022952378953602165 -0.083388445171528866 0.040243921905738285 -0.030592297951607179 0.15959794343394731 -0.17492954304630376 -0.061019286322137448 0.10461005099198389 -0.061744146542702903 -0.2495072363673575 -0.016935254218610103 0.03895959520264522 0.49966339389494163 0.08082806060284474 -0.62231469101478942 0.54439186087719182 -0.11139982714866656 -0.056232337622174916 0.017530429405282773 -0.077359218750986336 -0.49287511398641354 -0.59674369501206947 0.44709043206020893 0.05467536860299891 0.3104408336374847 -0.19987275402411678 0.34355105615120007 -0.071098903746291867 0.0038608626110809797 0.14248314083932578 -0.13341529991264547 0.25812501515907971 0.22524760007579239 -0.18533612107507577 0.081509403431630489 0.070050020533268906 -0.24413793202400166 -0.18835709962552472 -0.25494590253339022 -0.065612347209972388 0.12852612263907978 -0.018836590608811644 -0.23509665273137628 0.17506392218310599 -0.51044589013313679 -0.21397606241406408 -0.10922056141543883 -0.041030954488178659 -0.28658489686577437 0.17118348409066311 -0.044006569766900205 -0.22762259633774501 -0.36520173000844364 -0.31337619573213632 0.38454594892726041 -0.27073192859231726 0.14083363756937767 -0.050016606578401901 0.11185837593737599 -0.32412905093897892 0.03537418936100372 0.031443220635264939 -0.30588899923702123 0.44614728327312647 -0.085113183832373235 0.17924899930686328;0.44323486101177112 0.016734764027322005 0.087668922790500259 0.50044916686932828 0.11798652284943419 0.24914926042887434 0.12057962080320582 0.062132907912161042 0.026556031154413788 0.48560208234501762 -0.15605477931034542 -0.52135214228811488 0.28613520310521934 0.59170873409626912 0.15180627374889438 0.17089432199567617 -0.19247413500955476 -0.32138984076247551 0.10241168490748939 -0.19051437277216388 -0.36699679866197255 -0.041020589203114868 0.19515804389852859 -0.37383811906244535 -0.071569514044280594 0.37468229799521119 0.24923099893279338 -0.55277490902915971 0.26403784733009411 -0.20143335961325537 0.079487600757342125 -0.217106863806766 -0.34470326382583916 0.13230497784885886 -0.15802054554417394 0.38511981724553462 0.099233590779380945 -0.40502139354020922 -0.011071563766872877 -0.30363976894693662 -0.38419547611173788 0.26862939257204249 0.017700200155666965 0.23657830151109019 -0.073851553052822594 0.20037416386594892 0.12128767930732184 -0.25038098914259455 -0.0076387452389881641 -0.043627134487769191 -0.089094792275406259 0.15270663175271074 0.44073688627740665 -0.013878957925610395 0.18308298440765891 -0.45321108586370074 0.33837065833943153 0.30359663201536907 0.023898131492265669 -0.21205851221687572 0.29382468498638814 -0.16494048985360021 -0.20353554217108952 0.058018891179369106 0.39248838918798734 -0.09449295316304171 -0.037134110063744438 0.066944936029631377 -0.51088118322038267 0.063610979301297776;0.19883249700841146 0.32214499670817159 0.828053347115564 -0.78507882451075717 0.27679486057244929 0.041135294083865015 0.23758194561374041 0.05627717813260591 0.25682211929159898 0.7057642240958979 -0.67792538880951803 -0.3899326335757074 0.093595382088736245 -0.21247859659249532 -0.19438169670343466 0.12153316555594394 0.19483347015805735 -0.10654342470547302 0.25966389319321032 -0.0087940765419898814 -0.49736605146168472 0.18239144834589027 -0.049610068736987471 0.08732412889403017 0.16049640318965544 -0.395631012283719 0.0065676952173217961 0.45198084205345201 0.17486254491021949 0.15020725384846664 0.22079636762089694 0.28552532835820693 -0.038488291319897741 -0.084015721208987829 -0.28902503350959635 -0.29795261696791397 -0.084436345082402831 0.12676278412288888 -0.096999617173041813 -0.24106019702521528 0.3755684714263744 0.18521971948907523 -0.41402339324615872 0.34040978032463926 0.25557737608920655 -0.0036677515296732956 0.44508530824417514 -0.11558648241804173 -0.23549284234594858 -0.30633654871770633 -0.1205307411425737 -0.0056392389535778846 -0.0093239086010242379 0.060137121609212876 -0.13805781569703759 -0.39645574058489574 -0.16221098417752947 0.061293691584521977 -0.015203980594394387 -0.36127532378123944 -0.51206171683225687 -0.12698823157065736 0.068077481504962165 0.092220070599982551 -0.20500839444031441 -0.016077562094691911 -0.51218012495247378 0.062107785811486863 -0.14663488050544515 0.12889146495891396;0.21270205670762526 0.14876744502969569 -0.28178346846058105 0.30739995555562472 -0.11166848370180553 -0.20703939567664889 -0.38477021316521448 0.2143322104478462 -0.36483043068405291 -0.066400688929922264 0.18356794379424105 0.057066053933238846 -0.036894858422256802 0.20082927480483359 0.27428294350268539 -0.41806045040447709 -0.12058525298627451 -0.11060469022401699 0.5713531058506518 0.066371394866173425 -0.12082110978007526 0.01171910927842568 -0.41237616523156934 0.23737042602618363 0.20287797411740205 -0.050931185534461458 0.1352878100494338 0.23044020977580629 0.2586470116273108 0.1211426300405633 -0.15076977967936941 0.22124514506463755 0.50708219322139214 -0.32574620322036008 -0.41052987776489164 -0.094798436371414121 -0.35897499801388527 -0.050673269301839179 0.051136877164556033 0.057085938938530284 -0.17676572649861944 -0.2764613972568728 -2.9903052880917054e-05 -0.39442388856675431 0.31170303709242442 0.18157593716995304 -0.047784362225725345 -0.51633851968655919 0.30957452830197113 -0.096902331778682155 0.01096073126023684 0.22293377470587283 -0.035355823430925942 0.029418496366230604 0.15700275827092733 -0.33734546902220264 0.088751560127372814 -0.40475856223292722 -0.28312974203539326 -0.036472113318413789 -0.37809733347341007 -0.018620251909802453 -0.088085078129221395 -0.080580524524763858 0.052734084249999362 -0.15646679005219641 -0.058401215158032246 0.0021917948905262486 -0.16184552363805246 -0.0059689472992745839;-0.084638491382671946 -0.037592121372641486 0.010378724950440973 -0.19601215119449858 -0.1800658232949657 0.30492237422027602 0.35669828228207145 -0.51874865626140665 0.31571522526596885 0.0040564306076552306 0.19765849024794629 -0.82202556496843449 0.19636784106736374 0.22356330046357184 -0.32195290324435 -0.11855796394223704 -0.17871626424821241 0.10515253554829268 0.20191645568408864 -0.69433871055463248 0.25862055177899207 0.030496884020980695 -0.087818352880817172 -0.041901227980857367 0.12682203116738364 0.48652561625396268 0.37210393339451231 -0.59464963021998452 -0.046526129778857075 0.15334169852803642 0.17166103223250859 -0.2358832362330423 -0.022639646722723492 -0.36266856240841344 0.0028399141329113007 0.1506125980390853 0.31272347727325822 -0.049117864428308199 0.21242647025000955 -1.045213928049574 0.24218996475922266 0.60987974398346689 0.095933466972924653 -0.20971143430521727 0.056734482195868491 -0.16983606939231735 1.202610843090747 -0.32004377954116647 -0.047636219038113159 0.10404180301218047 -0.026969841804210037 -0.1096909151454416 -0.24932392001617593 0.88306802892320346 0.14930954710575767 -1.0085441872445975 -0.35807441667379042 0.043677511448387676 -0.0071177226963200909 0.12119466909622893 -1.274409115900629 0.68511765733332375 0.00084933304743775237 0.058403559030582433 -0.063852784288122827 0.10750167976873749 0.07338937420056818 0.32770979956996382 -0.46502872544132567 0.42386755428950945;-0.00036125716685135806 -0.040330280154408926 0.44805159409033379 -0.34779988471647366 0.17403455542496443 -0.22665454855369827 0.20767555607512028 0.054542016048561646 0.13690999482699553 0.11105715141992906 -0.35932493128639431 -0.3515661298607175 0.38524428596309351 -0.41083408411448841 0.22162172297944094 -0.17710042890029845 -0.13459770188214124 -0.31884530437394604 0.45240316166949246 -0.24594626173381356 -0.15810401113003439 0.09308756523035229 -0.13195928946535548 0.56060578242286341 -0.029580818458172523 0.20356821582838561 -0.5618130111657359 0.012945836468432153 0.15290786115878374 0.081794730161358006 0.086078283970799252 -0.49284670502177885 -0.033752137580324658 -0.57704839875483882 -0.35363289558081251 -0.090878899398813953 0.1771982478902849 0.19553087415571527 0.33305768963335236 0.0024610771053614512 -0.47694822436662659 0.0060142489809570446 0.22544108185716755 0.029489299799390922 -0.39442264738491517 0.081189071472894295 -0.10008414609734821 0.37178783202262949 0.2526587665912185 0.4235343652923958 -0.00034406977024549826 0.058807655327254578 -0.010000973242243798 0.1672849596887814 -0.02689078667782778 -0.16932776062052679 -0.048716518324567692 -0.12761525158650946 -0.044487986715836716 -0.52382780280724706 -0.053412830564038422 -0.062393560945190968 0.10918753556066846 0.33798885644858812 -0.034907326422821447 0.43315601906049928 0.043404621088308254 0.32285797667315502 -0.0030692760852670561 -0.17672088577662434;-0.31246883111195567 -0.2127600112077434 0.24770630725476439 0.27384421922932672 -0.064868188046197844 -0.15560419416331805 0.16178091141619705 0.03389545489508463 -0.30783498889864047 0.12260101231856539 -0.15094547776403319 -0.28963122923049356 -0.15785938602253052 0.054258092933050762 -0.19765785702139807 0.096007060788174586 0.16518546744828472 -0.27875874244365201 -0.21291995144482173 -0.27685336740552507 -0.19371569480910258 0.197191059300032 -0.1700801302521846 0.018576539220167099 -0.13740073191184593 0.1507069370744856 -0.25928495940323071 0.11712970967623669 0.0814302288888058 -0.209976153706431 0.21546685270545801 0.22931764000010607 -0.035334554995173136 -0.073363531045354619 -0.13630290584666044 0.03818491238750564 -0.17532467599732002 -0.14800648965747623 -0.13119037222225877 -0.29502845679297746 0.28414843938296735 -0.12960403116500718 0.04235865137068489 -0.14517694461313232 -0.023440608173330463 -0.088867454016244282 -0.069778902844645413 -0.13930413435492281 -0.063612800163705574 -0.11208808870087097 -0.24388862529274022 -0.17334871332754981 -0.33242480893998338 -0.26556483954600285 -0.12367755942926872 0.28668171807066817 0.14459302820392683 -0.09851457798738289 -0.1685448909095946 -0.05890628794658441 0.13027858805015613 -0.088963776879180334 -0.22542213541467815 -0.13723254026051165 -0.092089888875589235 -0.18612423362657551 -0.33281491726283391 0.17685225920708619 0.11028270587493405 -0.018946909606876661;0.35207104252310389 -0.19417411977181312 0.15588739202471397 0.0141433817805048 0.039606411460908222 -0.23198165670999621 0.26860264618332402 0.30471395236928567 0.14099166640644689 -0.13812703148055705 0.14395969202036904 -0.13234405354927195 -0.41570270063012493 -0.39690047000757162 -0.1695191603933105 0.053507663132665736 -0.31805819425059534 0.46006698784921213 -0.26564228604792361 -0.16875562279727233 -0.043018001764193591 -0.021731413498425497 0.12535205542299968 -0.17948914638027605 -0.17049751748510703 0.11613183379576779 -0.06469675765151453 0.23505447948168331 0.41819970603830448 0.14113342776429222 -0.071091371770641079 0.20860903021856148 -0.07552234790900654 -0.036368015554489749 -0.36096069931590469 -0.033949014105069772 0.26492516444270475 0.19215614205881773 -0.010049608238577859 -0.083966981505093269 -0.21497330521838559 -0.25891921059284329 0.11545647957281049 0.1148940792065654 -0.40117892710865211 0.26189556231027211 0.012120977373063805 0.1421111202931003 0.21943119125965801 0.12654915521522872 0.031303939163360141 -0.078462830603019756 0.26608870794662537 -0.1001979493034415 -0.070832830614344602 -0.18755975492880725 0.22638131935025091 -0.234832071261525 -0.24042593808913057 0.12028397284208764 -0.20799497913757106 0.060844069278397986 0.063504161332732609 0.13292113827135091 0.016715249656244487 -0.049580008346005837 0.34725352585077934 -0.34187016182271529 -0.28594915617997257 -0.2522511149240193;-0.30933980561210583 -0.10115887875944461 -0.10443351889038208 -0.094930843582281266 -0.34322333606225269 -0.0018427000326697199 -0.30661309942999249 -0.12063118000409916 -0.018221566225125999 -0.24401200190298278 0.14249304443350105 0.20456333022581619 0.62396962731385563 -0.013552484139185566 0.01464925996887248 0.31669697279502901 -0.29749034563199395 -0.18000684245862555 -0.33984102623150231 -0.082907423404171357 -0.30504490059139755 -0.37468885491927534 0.015607874606820714 0.061070612255123113 0.28651169621724176 0.54641069708670775 0.58450432938987296 -0.1071658854110086 -0.26263489401304851 0.15193716681074412 0.088237068328414645 0.12852468968816977 -0.079148786571254806 0.42834701083843973 -0.14943180549313584 -0.3821275005237566 0.10284957055416927 -0.23270941114258478 0.15539180753723339 -0.13198290371600771 -0.1408221915870814 -0.22325945183954818 0.12490345902011392 -0.082815361395796899 0.069566679685586122 0.013215538414258753 -0.1449094821196206 -0.09958542246477084 0.021598315095831981 -0.18216115757206089 0.43696893246066498 -0.22032633490941173 -0.29377212728685992 -0.39824565192848305 -0.20846759258878325 -0.24720318583041778 0.36899233425097083 0.20311807913128729 -0.34990875938488003 -0.068795382507560066 -0.51178091076915555 -0.079875380897433859 -0.29892930816245789 0.45191603763977189 0.19205748229364913 -0.26891456088728055 0.39784858847161486 0.23311395991895076 -0.12942818421244257 -0.037644158119333075;-0.39084995258128391 0.126257157408209 0.02909811215492002 0.37853639239659054 -0.2591384864456156 -0.37634879711106317 -0.040403886272189382 -0.20132468732583789 -0.081837278820048598 0.10432548084576256 0.054772883140331921 -0.13916969160283663 -0.16921422153847976 -0.058820990632733751 -0.23749709194024912 -0.013795426752674264 -0.2264582790233978 0.56761734394325902 -0.081354603835763872 -0.19607985197372318 0.10566753242824266 0.098600581577522342 0.13000017574235534 -0.13627054165137481 0.60874280680718762 0.035482023688267493 -0.086082035933995771 0.12084162157061959 0.35413329219904316 0.16441991858390981 0.19083335927886419 0.29082203981966726 0.27024997813420848 0.18342519838207466 0.091190624748963056 0.43572248653757567 -0.074706553374649556 0.044467273268711048 0.098157404244147345 0.39768528572372724 -0.18114459457016724 0.10192901878637807 0.40135309096346655 -0.14875519154796915 -0.10990351630894742 -0.016392215929823428 -0.10062334782910244 -0.0002122448263729205 0.066432496777383665 0.97958396549613969 -0.45109576609888585 0.42773094821748175 0.11876937476295805 -0.40459946822262421 0.35149358088011967 -0.040705506647959695 1.0156034860665966 -0.60921190972709294 -0.13378930595400862 0.088611658236215141 0.22589204856195386 0.41571635139387331 -0.12975486135060932 1.2254743817029279 -0.3821339015019638 -0.54283688236358751 0.031891914706241323 0.3882160351054777 0.26274166244334696 -0.098147738614409091;-0.011864317747202861 -0.0023475732523495496 0.28087408963418886 -0.45033882314017715 -0.52665405477663252 0.3282517713215945 -0.29645198448674542 0.17377302605268927 -0.49041004513296504 -0.27415511088009825 0.090900853303412452 -0.70618500408521168 0.28316783887580094 -0.20900194316036191 0.19504748367420152 -0.56823234106869458 -0.5282108617581126 0.32550139021789937 -0.93556552739907406 0.19597556415252218 -0.28274011014064321 0.010714181876931872 -0.13097768401651924 -0.32788024174246694 0.3603369752358011 -1.082014170832645 -0.12296327213254823 -0.071334568830062423 0.53746675393884868 -0.33463739687618832 0.210380461388886 0.16702925010038669 -0.77999407170729629 0.16972134624201668 -0.16325294290915474 0.068537313207265457 -0.46588702326033021 0.54256803212271643 0.068195445290686066 -0.65920748188477307 0.47569677768171292 -0.34351194081763836 -0.09164123859978196 -0.47396368748927159 0.65850976514613235 0.14230236208809177 -1.0227007121055636 0.13201422059730283 -0.31177554091272625 -0.067957311781572632 -0.41105617439723469 0.33686229283233765 -0.37782033068751342 -1.0389883780000222 0.0020751283283210768 -0.45978994019927616 -0.033006798625096367 -0.087456896684381183 0.062917739161858846 0.1113346659624007 -0.95732988639223515 -0.082020784348100229 -0.17660500220738395 0.035431643686956928 -0.090944187039282878 0.26207921203951534 0.19532314820010874 -0.69221588907274578 -0.2966321904007283 -0.17413258896026879;-0.12269352352100228 -0.28177030631011657 0.15220811946011698 -0.01278421831705669 0.20930684690404711 -0.10844387908805787 -0.09513671105903973 -0.3467548552966121 -0.24957411702493321 0.19894873432993437 0.081244305874781944 0.34556822480564037 0.21968867410757281 -0.36757129960984619 -0.31868665153956377 -0.26930906209957944 -0.16822619901495023 -0.30657562586131909 -0.40939027918864868 0.39295140975864201 -0.082301182820312582 -0.34664430905918547 -0.52478708739675894 0.16527791583442655 -0.010751584146734204 0.1387639582088025 0.085785132131758868 0.32484269844202857 -0.12860960302757884 0.18975574036303375 0.24583818845694003 0.15401740269174172 0.71059717922797938 -0.73260340095558374 -0.0030457270623604118 -0.02822401527069077 0.019876146048215654 0.033484873281065107 0.26720034664318465 0.36454035224457654 0.37835998284265543 -0.70120612471304822 -0.29736910465825211 -0.022221097521912224 0.218377011119885 -0.16948523926355236 -0.10089421631931283 -0.01361378857761422 -0.57671485262173727 0.08936667524890099 0.24892681467703018 0.10597921880330088 0.13368252348070758 0.24401636757126915 -0.20343524717501815 0.38946775108616533 0.15030134906982262 0.02068931470792126 -0.32809301440543626 0.13643550653242356 -0.66219568737550838 0.56568042320217138 -0.031572342882154859 0.36656782312527436 0.092913289737307919 -0.037620839861584238 -0.13313043883687647 -0.63971016365511491 -0.20574652683195521 0.21947454696959376;-0.22320951586746141 -0.24640179150593375 0.17271175617480256 0.76596895696127798 -0.44541840146293732 0.10121015926253164 -0.4057788606487287 0.056538703867901642 -0.14480509476616599 -0.051073352227167357 0.087176431614767499 -0.28669292097398463 0.041904992486093348 -0.24184562225739842 -0.076965087289410247 -0.027000203942855606 0.6187927317455405 0.053382035211510484 -0.64553802080088907 0.28540585244983541 -0.51435135629281115 0.0057598693068281462 -0.16310394796837965 -0.043249291935783911 0.36313653886575731 -0.078899454994727003 -0.013166504996274173 -0.33974437448867295 -0.10708258058607441 0.22430334508090546 -0.10314101690745733 -0.023146005942745636 -0.075534897526560688 -0.12666309834146747 -0.52446778447178721 0.1116388995628961 -0.20550646858387303 -0.057985281418038721 0.13561668985686184 -0.49939298795714809 0.076859367261508757 -0.21627022539855031 0.01490437326327477 -0.24963750816828911 0.23735227919332313 0.18847375329571439 -0.36544287531174702 -0.042786182191010692 -0.46599813900418052 -0.59231513813960857 0.049932780691805997 -0.11291882084245419 -0.24145256574573515 -0.5786379899640498 -0.066072470810943001 -0.41016020774970513 -0.080243542777975616 -0.21477870601738086 0.16295364505480628 0.22209473293921275 -0.83846081817971363 0.058329259072166934 -0.34910168699708399 0.36918222370099835 -0.068543987153426411 0.22748398068404274 0.516267934890556 -0.68520529697223631 -0.065658647173221313 -0.20701928198769756;-0.29761466677462678 0.034174071289774642 0.20644865270855792 -0.038116904628932594 -0.084211713374482924 0.11228227893485837 0.34845694109333647 -0.13799486033643135 -0.067966812434406707 0.15515316307021484 -0.18300442018264831 0.22312270316473642 -0.18583531033427306 -0.53893880292885676 -0.21600400875454004 -0.09076758054666742 -0.11000198573445948 -0.12578156936213902 0.28664236724646697 -0.49213863202383656 0.094469223753518822 -0.17924472160330301 0.2107187641627703 0.024039817723298645 -0.31189770687320828 -0.024627159901868836 -0.2951351435784576 0.35413112076145492 -0.088351319532124453 0.1618193123806142 -0.25112743381400482 -0.14172799296033819 -0.0063607886770868623 0.071491266247750096 -0.028041792099497666 -0.21372044273713375 0.16544425779093405 -0.025895406411624595 -0.39397794272632286 -0.053226223893280557 -0.22802646635521304 0.017374190640855328 -0.25437074010572158 0.10165586839286274 0.11509750280116 -0.10882985122447598 0.24099118638252215 -0.70326876146008521 0.08612315469337592 -0.30629895339494512 -0.12164890503979219 -0.0067570390772301878 -0.2216343891193536 -0.1854019247949471 -0.36944329786141006 0.38021126378030334 0.16973893233241846 0.22636911543532193 0.3168613245219869 0.19282667282441446 0.021351016460198283 -0.11781585950868186 -0.1546605708925404 0.15728946302805363 0.4147954107577303 -0.22024107745000046 -0.09160423564064607 0.63607777267232624 -0.47760678701145148 -0.21877909076594126;0.090278837432461054 -0.26215692869530738 -0.21156961228920865 0.94828101407032506 -0.0054927165326799574 -0.42714216781518877 0.11682156449704759 0.1643828872414646 0.15268976373370782 -0.19929671805887444 1.0839314992535418 -0.056762037029630709 -0.39312266069762702 -0.0019728808607743457 -0.051983160044358462 -0.10180839608257682 -0.96954271989515362 0.77450669529151528 0.38003126846071128 -0.34250909440287047 0.17037495405808628 0.15246157281313522 0.32422502914418067 -0.47668568640419307 0.41616655040328204 0.35914322934104637 -0.31523028657057162 0.12741384572079964 0.29769740946834483 0.10807640770539355 -0.5903668622575835 -0.091639925480892323 0.43957003426343305 -0.39241928672169968 0.12839010258041383 0.03545247703297514 0.0026247396547189033 -0.40840415685614617 -0.18612542038418009 0.67120729840370918 0.098221847115753991 -0.22170600721565578 0.15086001477671926 0.11126175484183042 -0.066809988543211518 0.26624440237934666 -0.02359394565911482 -0.20064691048149472 0.3818566343691594 0.23293018549638536 0.011602376076560748 -0.15343628192720724 0.29025871181458202 0.37327633259752446 -0.17527734604463499 -0.30431132100405911 0.37733385773853034 0.17985784697971552 -0.25551392154352831 0.17037392418728864 0.15480385765094157 -0.015589003886610161 0.11092208228943823 0.16926161675211351 -0.2454630379935101 -0.31605925161812015 0.50322528316527537 -0.10472938921471131 0.0035374918009418079 -0.20522344149696181;0.46136748034009689 0.22007354417248109 0.3357506072820296 0.34719584808009352 0.20959998760316415 -0.35226540971880754 -0.07863258692949425 0.31504067193354479 0.13870736101221898 0.27767405390663874 0.53427181826502135 -0.043364864904348682 -0.074004354134908745 -0.55874455784958166 0.34174697497204054 0.10702889971078414 -0.1167558164343151 0.33095373395629601 -0.17204583355442882 0.39795613876810187 -0.39992248223112103 0.35724360834729291 0.18204610780873137 0.043129723915089208 0.29744557021029439 -0.2748467052181936 -0.1714676220568794 -0.118679200167111 0.19908054275815332 -0.040335184746015253 0.043362004515585202 0.11645640610431958 -0.61777849801024731 0.34361968602840776 -0.057659636094219993 -0.014042550889802261 -0.19166654700331565 -0.033353156578868975 -0.018593559077685159 -0.47595838628138898 0.66331556447557216 -0.36086432428305648 -0.10161278960022667 0.1524921994804935 -0.053121741884796417 -0.080818574248402997 0.544414181737643 -0.49889307576647668 -0.044277902937257606 0.20640275836567332 0.12217938393489937 -0.090128426156164329 -0.48821512832756386 0.28085243091529172 0.17442499946222023 -0.25384713332927344 -0.11833047505365246 -0.20347357877129849 -0.42961374443344946 -0.54280104170788102 -0.56037320677657854 0.1055124247913843 -0.12395982216907467 0.22353533781190196 0.33389629452700104 -0.67872738055156823 -1.0584099460688583 -0.2580547949034831 -0.3210912056549633 -0.11659198786848188;0.13335376503060237 -0.17084375682759551 0.058382002753990393 0.0072721722948716535 0.095575988494066205 -0.47191401157376017 -0.238112447389068 0.22331776924446964 0.26326630056554401 -0.05418972097358532 -0.16751268695143653 0.4179311441447181 -0.15782650949840263 0.10379533758879753 -0.23095069299532592 -0.23850022371716109 0.19825352797332321 0.1923681498505386 -0.18608061275980936 0.33060574605541382 0.15574199397997526 0.12627545193249604 -0.11038722563267961 -0.11880146611409038 -0.10415985230692988 -0.069761984694308596 -0.13710599240929247 -0.1476771610718618 0.10350452283086843 0.047285729582835702 0.033425421290106366 -0.089371511306574516 -0.14384168983449597 -0.28371169777541211 -0.10193449609077622 0.014190098202010226 -0.30709901697434361 0.28822038404604566 0.10376990293087733 -0.048209375770749151 -0.43798840311968668 0.088337166704458583 -0.18430203670047754 -0.020101687314211594 -0.12314711688552463 -0.14645553875430889 -0.14337493098048787 -0.0069241930814041078 0.088811201068000764 -0.28408029033156301 -0.27437417619623394 0.050617114758752448 0.038045835987391842 -0.37480879046451199 -0.068827547834176564 -0.054986710536397594 0.16697874220275657 0.017966911780666873 0.21375885140753584 -0.089927387838473954 0.29661155943795187 0.061165318231043882 -0.14378197385648187 -0.092134757194112488 -0.33511611248220341 -0.095608890655254714 0.0030101687242728029 0.15569790802808287 -0.45789259678900573 0.1198101865451551;0.33329487195582924 0.073570625706068274 -0.40804286772613124 0.089433505723695073 0.24584313880236469 0.094966097200293434 0.26558280578514648 0.55663887022444569 -0.0900194939912453 0.075869571760080468 -0.10882059273441802 -0.11151134874329574 0.044722507528950323 0.17597711175429021 0.62260237532836571 0.30040375635267969 0.10598946276916696 -0.1062704581640333 0.14951751211270115 -0.41502212883097622 0.34313028795152106 0.26563308950549697 0.13627131908662701 -0.061164564207113171 0.13213885746317139 0.01226197630861204 0.052641859650583003 0.27226514226258042 0.40566533267025362 0.32203242466055504 -0.097974314663678536 -0.18791288629902675 0.043296954837383675 0.22795012158968025 0.2472293752802649 0.62091792658633693 -0.049365867354875692 -0.085863622812055701 0.28134780060455461 0.38433253904352233 -0.24622904991462563 0.064177656262182387 0.28051087375671913 0.20861334979556576 -0.22003168209625171 -0.26310662138846302 0.18339472126708192 0.10895219813417652 0.33306345055042302 0.34784626319759704 0.16541265613348446 -0.22565067250865639 -0.64768818616436419 0.1703408085359765 -0.11573910206682039 0.11206964683211793 0.68589812338568867 0.47533845217327331 0.015906596790477734 -0.31512971812425178 0.33668150931051694 -0.23889208087599473 0.27647073374374248 0.61148863604299908 0.36053171816849172 -0.21386074949700404 -0.30438669822313158 0.014240563646467743 0.093363155274092641 0.13237991056206297;0.206595300169054 0.031466010610836308 -0.12562439320974908 0.14274545852859952 0.34690990752318185 0.21262003350101902 0.14733040978246156 0.093686163738882111 0.38877495861924455 0.19629925552691743 -0.032810059925607253 -0.079695828765207463 0.68789525775578264 0.11438466190942208 0.2542131970434377 -0.17028579657785947 -0.13637234820883179 0.21573059161097616 -0.78272820345314953 -0.020256708768453972 -0.32207540406227386 -0.11036403866395757 -0.042194381812104637 -0.39560351591947507 -0.019092472223349356 0.12510082675265796 0.18653384925090927 0.17548081788314709 -0.12756076870236244 0.18752423863197626 0.025829195903471994 -0.028300117355169681 -0.031650250002389711 -0.2030021524822429 0.4768306006310673 -0.025842055686070047 -0.16128236004185084 -0.76674344177280629 -0.031828140761832692 -0.48477874936852738 0.15197077701739159 -0.17792070360758805 0.21123173476699111 0.25706714681113246 -0.0043050457764472576 -0.12038897959546654 -0.24203799921435531 0.36568442540139878 -0.22852140169575685 -0.13480961079991127 0.1253743584692015 0.12326868403804386 -0.16143021062796062 0.063672099757540915 -0.12555585307844594 0.20818337086395813 -0.096268588669638014 -0.00071671066394199791 0.26771138952013318 0.2637214613352154 0.035336503081744387 0.18883241269067372 0.22417369563593634 -0.019370136706326434 -0.44685501047750203 -0.077913727373177283 0.20568723379283599 -0.31408578665980597 0.46654368726205564 -0.12018887507427925;-0.84194179106902012 0.17986375057967383 0.60741386864114921 0.019213465694333388 -0.68269408385970487 -0.3462696180597139 0.21478868247650579 -0.69574543990188242 0.27823503192254095 0.21961258297342739 0.085489411780403562 -0.76616023380902554 -0.084145521637113974 -0.29447750814434792 -0.41114954971123152 0.38113340646965355 -0.13616420822233707 0.31437182320455503 -0.43774649244186681 -0.10390298630027754 0.19279972695346123 -0.48495840444781069 0.026661628545622717 -0.21319149372686963 0.058049239778364181 -0.57564694046402476 0.15910673895040309 0.045478303362378181 -0.18424651142944556 0.050306356458787289 -0.085082510982303919 0.011972966211626683 -0.38261315427299702 -0.087680233343454969 -0.29494802909544954 -0.48889517945216765 0.11848870670232217 -0.088728746615807152 0.088522068990650876 -0.51223579237672756 0.15133587954275468 -0.023089599341834712 -0.52591661885750096 -0.060093136653365561 -0.20604748291333222 0.25572792813278106 -0.11533338359991314 0.016444779151122271 0.091271720475959328 -0.065544211293694143 -0.064479104077106261 0.19214625263851745 0.086217717471459759 -0.032279171913421084 -0.40252186262241973 -0.22310281977581131 -0.34615302204086901 0.016300772199609286 -0.092651031908561249 -0.027971179548383074 -0.59323340432774174 0.62210378159047952 0.26646477975982419 -0.31248117350832383 -0.14910697411694884 0.38901443083936754 0.40928999599497895 -0.41994155292381147 0.14594618354091779 0.15360089297702298;0.3683389759198602 0.21082628620813776 -0.12634253314782429 0.19744502838809555 0.20127161686926934 -0.222389850168034 0.098298813803040688 0.15502796440850555 -0.014547703854588586 -0.29547980644060934 -0.15891491596998461 0.17916286814544768 -0.21305778349000506 0.50234112352875171 -0.19499077914304155 -0.21766487121677186 0.22175053664139499 -0.17965918443936923 0.3585475899754878 0.26892796508035766 -0.044018789893781059 0.041666658980742483 -0.17767037943647984 0.16658223827132762 -0.24442041719386623 -0.14455747329771462 -0.050173153558829814 0.3493308100511896 0.030393468175586993 0.17257842975723187 0.095017718831835796 -0.25038676123458986 0.18156691090087118 0.032153156524941301 -0.54259363631390289 0.072463225755740934 0.030428749752167323 -0.22643484169723996 -0.28754412302959997 -0.25278705895909453 -0.14069349171052237 0.31166217104518257 0.026860211678173079 0.2988895955413623 -0.26320833236216107 -0.30566779372031699 0.16781584283284565 0.36673974465412029 0.1487352984353674 -0.24055520095737101 -0.15147406042629194 -0.25953062596241078 0.020337975495898719 0.30762317343977752 0.17480454220564351 0.41507955272558011 0.06668091928870179 0.034214796157510212 0.043715762196422009 0.12977755001945007 0.5239538668160213 0.17614733990779818 0.23150727667468474 -0.46503360288734125 -0.10602512422347585 -0.084751995525780638 0.096657765428317569 0.55890839716100571 0.18257080541978526 -0.19134774558223916;0.18121768504300492 -0.0083570497600736499 0.36917567800682949 0.13053102991326881 -0.67478080982916 -0.40439902055117083 0.14923822369812936 -0.080787663879772542 0.096300121863324942 -0.19428441358831394 0.068372165967593421 -0.031295714612819429 0.010729774313290995 -0.091627409044011648 -0.067392426911888348 0.22256890677655239 0.043818204268716354 -0.064096592533224139 -0.38667642083345055 0.26701244712106315 -0.18350775156875931 0.1940535794587368 0.1845584173821527 0.067795854303478745 0.02627312263626521 -0.37308482714807262 0.27944442396636804 -0.30147345580188128 0.051211373586555788 0.15164506949654424 0.34559503979128792 0.0098784218152680493 -0.44831400369076868 0.075340861659157016 0.21583942197110445 0.15639586302462136 0.1464670100957805 0.23485716161041048 0.06819236350627772 0.050047857459016271 -0.35186096384941495 0.30650659752877035 -0.17204374555073729 -0.31755415722106684 0.25517990320431139 0.040344044651613988 0.32952141759072762 0.2559294659239848 0.10875928004392577 0.19645226399443846 -0.22227131812341014 0.044505218531858612 -0.10809977849388745 0.14534280908918087 0.49304680610666302 -0.040902900024523771 -0.64296180192573704 -0.40287573080612005 -0.018949821041064376 0.18222615195566402 -0.20362493760801503 0.47397029827111309 -0.088618487799501017 -0.64987128506273639 -0.3014759351106307 -0.54007736101172887 0.13612176807704615 0.17305809476638284 0.38613527533405101 0.12738359880918107;-1.0726260250984796 0.23721179426858041 0.41766244138950143 0.38447916352892497 -0.24547788634715259 -0.1465670792298101 -0.14987501852931465 -1.3159465816089724 0.46526447325767967 -0.13720083881833484 0.4890811418758173 -0.58202322807313978 -0.17597200824157716 -0.20075526967227147 -1.2762103038811523 0.040391585859362512 0.25646507631945309 -0.26713820704566121 -0.86140205501669098 -0.16585101340740011 -0.42507274871292189 -1.1784126276385583 -0.31418506154579928 -0.008461624494092464 0.047591723177119599 -0.53204603410889983 -0.051729223416521489 -0.41006964565642429 -0.96975860381801549 0.089594364272872373 -0.095452429516298384 0.1628908304795289 -0.4466228071378423 -0.056475093510301576 -0.30889267884002108 -0.87362392546574652 0.21691833325614659 0.25099274898514207 -0.2902744558511241 -0.35814401139824903 0.014642726641417851 -0.42374469804176995 -1.0144739788695079 -0.41892594576442849 0.16871108126751239 -0.25366800244564841 -0.17459184054942142 -0.11827915452905501 -0.29894376775204018 -1.1365594599733577 -0.20681661378909005 -0.11027951360495407 0.31548941481820952 -0.2896422193717535 0.041421995867928413 -0.089955227279130384 -1.0012854189176634 -0.14346350002175859 -0.044316801367172032 0.24365680730274034 0.10177148530950721 -0.2500951969696984 -0.049514635146366247 -1.411191366734452 -0.28995631574162073 0.32072039230642796 0.041868641559585855 -0.26160413337115984 0.30237165240005209 0.0079223805868652054;-0.14914099761974112 -0.11604566738301517 0.27125381808283716 -0.20848004527536093 0.62322350540880544 0.098315657485442381 -0.19371476181278544 -0.15488632470544675 0.023605970369266475 0.8779006291553656 -0.31729199696118876 0.86100492580801979 0.035269437739934982 0.025333984749285419 0.28175441568500453 -0.38282596092713245 0.19191976667061014 0.15130210416131562 0.96237277350971517 0.14148132135710687 -0.25137039620811841 0.15163016234904664 -0.056877845879073408 0.19844605556608091 0.040753051523688029 0.59675515716519612 -0.32272686818431845 -0.20153341177597756 -0.04312656032572975 -0.22796167094774972 -0.0040803949627824651 0.34264132454984303 0.12707047682688069 -0.18688839224655335 -0.17001717815401285 0.12167741246027676 0.068034970663421845 -0.0067675265531580726 -0.31528100664457837 0.14312443459212379 -0.083561785770933109 -0.28900106434301298 0.076015043300773855 -0.17595241478570323 -0.16995416295704271 0.41328977608390799 0.0002573242790141865 0.13998650688797154 -0.20191731789186687 0.051093679121599754 0.046918996217259229 -0.020592357158864268 -0.048031559976769736 -0.26535593169330485 -0.0070856516100182339 -0.15335523955824754 -0.018788461132529445 -0.17122847301291413 -0.31469990250021146 0.07414290828457476 -0.12211503121710533 -0.059031952255091877 -0.23886133710338953 -0.45711085286636177 -0.19619899181365638 -0.30968608867764041 -0.30830098513781645 -0.25421804746633703 -0.061615776578746541 -0.30819120102296649;-0.24914786444820014 -0.16816731425513765 -0.11123929700539492 0.19408527374910001 -0.32354949531739996 0.086545932442903137 -0.054233767737216554 -0.077789664173167281 -0.21814609304509219 0.18260613939651218 0.018049126732142661 -0.10312762381277667 0.43849839223681986 0.20983984243952628 -0.37933028266353541 -0.33387672663000267 0.051532162271218679 0.18025458267230487 0.13764026592964915 0.17573519162695872 -0.26480251436503283 0.031519286263612133 0.083896261191132332 -0.23781907038682995 0.065856325441903923 -0.069921139098708923 0.19371450699201193 0.27583302727839576 -0.083784794341253369 0.098123670385935419 0.022195672493850058 -0.27056971778061406 -0.48363674270666879 -0.16729465737915566 -0.06696942072256766 0.12809185234641057 -0.2162345267985617 0.11459362130767789 0.14896464337661816 0.10458318531996219 -0.11629968579860424 -0.064913175620223598 -0.19357764541725744 -0.10812630318935416 0.073617203944984472 0.22238355711787738 -0.33615401956673685 0.077444039445803789 -0.16002404478868129 -0.27700648693088231 -0.26829585649192966 -0.0048133467525131278 -0.31846112847288832 -0.1483433825286356 -0.069154929032894469 0.36752949439164079 -0.02145357448412159 -0.019718681172769526 -0.21218311992398517 0.092399300682704646 0.26580483602571492 -0.027510735295342793 -0.070958147864019966 0.32184580290985398 -0.077118508929855861 -0.12496430898332705 -0.11166288465889347 0.37941949010634529 -0.2985678698673469 0.066688925398991017;-0.14015011942280325 -0.027195203635678882 -0.19594965092016811 -0.29634428841032934 -0.094140919937732104 0.2520675418760745 -0.089884386467313795 0.063306415593842202 -0.037240164077880722 -0.31675791438046941 -0.28984625069956044 0.99956985342197568 0.016570641632777331 -0.014735195854690049 -0.1018182244601577 0.22233741519421937 0.25635130927516253 0.16364463440033211 0.13585565020945578 -0.48977463585304215 -0.27171981875553014 -0.22847552586820197 -0.028392688661858054 -0.38071233593300863 -0.49111853434141201 -0.65288575966495155 0.55238358143682753 -0.074235888363524946 0.18832912801337201 -0.13059667099131669 0.31442003531280632 -0.071129487200955008 1.1027601405354022 -0.19121336248006018 0.0011181820146026755 -0.16151282131232036 0.0021942261902877357 0.21868196931530992 -0.047556462384453747 -0.30531369517163398 -0.018582511876880897 -0.12056876050231048 0.038718228077941064 -0.1301991833283159 0.068037166598491586 0.24442902008044326 -0.58963490598247081 0.63000327346734764 0.12404967510026689 0.24808414525815495 0.16132005004050007 -0.24736557449552077 0.25481174108359561 0.4629451939356421 -0.23410839036333214 -0.24899914274357565 0.37309552475126107 -0.19812479745497932 0.020388835229700909 -0.10627728671990694 0.96270349738672145 -0.03086742268475496 -0.10464049359958907 0.1823490132261473 0.018016341391937675 -0.1110153997507846 0.18004758061263534 -0.8494270071577209 0.11468922373051933 -0.24064842002081857;-0.57342858555668708 0.0045272912411599073 0.093701765579558977 -0.23145753356414708 0.028082169296233365 -0.17849468967777166 -0.019185851718565034 -0.64343385801354491 0.037635167273330855 -0.1187785016496128 -0.20306674163252414 -0.48330830894153204 0.14046760729539534 0.22232334591562528 -0.18424252771702512 -0.16369417069635203 -0.22684316902110943 -0.061681865380257411 -0.17664301095833987 -0.0920756749840448 0.28412186304514742 -0.35901195712510109 0.19422978231222421 0.21847457862246861 -0.067993206251469471 0.49170024411722857 -0.69105875170724107 0.11720620287699277 -0.39951188048254505 0.041791984654972289 -0.11298462082431152 0.0038830456403061934 0.1811078551003498 0.27548306171872899 -0.58018645556138271 -0.21012193538268367 0.15657838333820065 0.21288536971433594 0.12143857942094273 -0.28633210893679573 0.11997244792734382 -0.37580582339949453 -0.16904473985136426 0.1588799902086209 -0.032156871189444818 0.15089848171879813 0.1487172861416089 0.084427545048407243 -0.086150052084191478 0.029179543968326734 -0.16163382883569657 -0.15245389149010743 0.18439235974782892 -0.25555015022693428 0.63762519085960478 -0.37652046536545897 -0.24329884128763185 0.16415551357921257 -0.16825580195297188 0.095853578020460392 0.058983495309191697 -0.4830868496532173 0.12674453748306011 -0.051512171530999684 0.18245337427703079 0.39271807720917284 -0.10048074883684895 -0.15192023227397233 0.31490164234272139 -0.30321727273400834;-0.71238106181155081 0.35632128387132539 -0.32820574348338466 0.0085147049084801155 0.97964456886236739 -0.0054382190768850064 0.20739211771324906 -0.84536116296013519 0.29697668689131101 0.0016584488155169108 -0.072577179967567365 0.22255739233242816 0.21216373930050933 -0.11942562522398852 -0.23039038525284003 0.12349463702207021 -0.15909787974834519 -0.32768921546757362 0.63526324457502303 0.026323163455556665 -0.06051112798533289 -0.43301300215225341 -0.1403522895994524 -0.052798781728287711 0.053387695406073694 0.33052854349445365 -0.00051279129025434992 0.035092282440280044 -0.47340475668339521 -0.21237299178077529 0.13625076883316078 -0.0089962065110615642 0.31579592026391307 0.17917099747090903 0.23670982421054271 -0.44021622134599997 -0.062793214950226023 0.31726000776850144 0.29636708075102219 0.39778079348389256 0.087932229402594639 0.030144367474353295 -0.34953884454229822 -0.14347705502307637 0.12825243232741451 0.44270667524560126 0.56144393735213316 0.085862812916724471 0.13759758566875127 -0.72876444757825209 -0.043884814947191285 0.31743384708910954 0.3021513224179726 0.54566793000769986 -0.20694270444437296 0.11812314281221596 -0.59194737301652367 -0.41420184584452363 0.05924470061253493 0.30440135355178033 0.47438190401488511 -0.13323166269001832 0.2992493167192789 -0.58494074493718518 -0.15840727911622154 -0.24327538623618455 0.5107135069917097 0.36246089434638262 0.099150098946934176 0.19771595229666825;-0.036953348108765417 0.1346416561034651 -0.12656601185412183 -0.23956026631900179 0.080853974884031232 -0.24666435591123292 -0.13882031887961291 -0.46842960126167688 -0.17806675269090383 0.30274844271801177 -0.35022266763421561 0.0088764758630875355 -0.25513442843194273 0.35739497374587409 -0.39453563784442325 -0.15655837765162775 0.26576222684483292 -0.34202860535500579 -1.1341942784347048 -0.10629410030810665 0.18991179104716785 -0.37917958703916099 0.27209068344776643 0.23006021007291494 0.22975836069810288 -0.61780617950788841 0.10123972492294749 -0.057908619410709239 -0.10507005263248712 -0.095758416307238928 -0.024801444049918037 0.21515294017537506 0.29053912836197604 0.2899079423148182 0.074808651019753328 -0.48722049211647284 0.32398582159989531 0.05366617491228734 0.095492558822751844 0.090037374870030745 -0.31325595877796819 -0.14490585812931178 -0.49077116610940863 -0.13987727419935256 -0.070291047167726425 0.33013301400856998 -0.51087219482502366 -0.31660976198313379 0.11205789009519672 -0.12491276113514861 -0.010407955604350858 0.1509365289702036 0.20776654942698866 -0.090307377297828006 -0.073897163028718654 0.19612131495005133 -0.23422021487128497 0.036505515190170534 -0.34702044727990072 0.22248396072355936 -0.0086593624143169335 -0.30326934092876295 0.11762910531100423 -0.6118337290353304 0.20815804367243385 -0.27525784332527092 0.060529799962350361 -0.18005742569778616 -0.26152066206485119 0.12082996016870678;-0.20550056389091167 -0.081130511654219015 -0.14011911001569055 -0.07556996188309649 0.24677367742338671 -0.22984636536509531 -0.077701125721046996 0.25333807149645959 0.18585296170673288 0.20234888622389433 0.22315838599169222 -0.17494126628020348 0.067173640363385814 -0.24222555641661472 0.29329234367130641 0.20336404544800468 -0.13968672357408829 -0.07296107568389805 0.14946595163115625 -0.27617804109105798 0.014572187605423708 -0.1311794634061669 -0.11151294848195514 -0.01675538248431048 0.002575353406688284 -0.096601538348823068 0.18756027029849659 -0.30821203737514258 -0.085209992403496207 -0.11221887832105829 -0.19561442231344167 0.21936272751135158 -0.057768311893901358 0.3229071949844971 0.27207384477005875 -0.0021553733751939821 0.032174640599897573 -0.25084924109832207 -0.078054954916152414 0.11514369542962381 -0.053377810314097329 0.37292656951306169 0.15375002882160599 0.088748317617088568 -0.096586977071133673 0.14998328240343869 0.5737400967868771 0.16141316160882052 -0.21490171583333376 -0.23523136376318918 -0.18267259161921406 0.10020664210348366 0.45880998135449508 -0.2364054454235483 -0.189040104107355 -0.32500306579487814 -0.0096691728833470172 0.036469306939950721 0.22567357170989702 0.1031754135666981 -0.099285654592181194 0.23228874245951886 0.44689192299994362 0.0059205622489468717 0.014805915915396635 0.28900676563864103 -0.0040558846362391144 0.33090563640334913 0.0086084457684932735 0.07924535029590947;0.02672131042217097 -0.060302055069018326 0.073087110890710266 0.15573941277185935 -0.14589139364854312 0.15411559437854114 -0.27362926047145558 -0.27588639173699681 0.047630125202487307 0.34534381615339727 0.18639183167390708 0.34934635886410909 0.15372675412074585 -0.37654920072337511 -0.19491304593940545 0.22037186214715274 -0.12621279926772908 -0.041858408621914332 0.084961271546003858 0.20875019564802205 -0.25339202849412323 0.060308465338790161 0.047062158772382283 -0.057400071729358501 0.36238812295219408 0.06743416116120346 0.050322037389811412 0.25082392844235091 0.045502779347922032 0.17316226478794414 0.17320982903360146 -0.11835460186769201 0.0047486393178087531 -0.2595793721014345 0.24079301877627632 -0.042042986547252845 0.25589786506865114 -0.19662787208800594 -0.017227875450881967 0.26483949333701523 0.25815807708726252 -0.20076006059329354 0.14057295645333087 0.013588393309904176 0.030414160191512402 0.057811554495452722 0.021389316016900028 -0.15824908266168838 -0.25081172617973102 0.23988218289353722 0.14384590579149448 0.36942206447475351 0.082966268900258711 0.2439121438370688 -0.2034506428909017 -0.082280541685731304 0.039455180991063508 -0.21632399635036864 0.27759903567522537 0.20938190396651313 0.038516393608012851 -0.074175580182970824 0.10802455889371966 0.1749287650346675 -0.1194523909191436 0.29833145925976451 -0.195567599212288 -0.082636618828363789 0.080410514745597059 -0.0049141495208767849;0.088580493321791492 0.31403834957793736 0.24899560723988293 0.10477676360650948 0.015391420047083357 0.28129271464083033 0.13590943566625086 0.24234316999863445 0.022520021933743313 -0.17026935225168241 0.22490099476941147 0.19720288039983996 0.15605092873923446 0.10685790588264887 0.15200801497217842 0.23965795770186091 -0.20435043456165397 0.060249986864557376 0.05041103908991787 0.23328116719139722 0.072491286110794445 -0.1581321020258806 -0.22462229568283154 -0.20487996094418248 0.17118184555685312 0.27821388176965978 0.17600201931074208 0.27550603857180583 -0.026564689551342689 -0.30113557267481239 -0.20084929869717383 -0.31253820002381372 0.11031036265428634 -0.07368037785027598 -0.10852826871172189 0.15930668849779236 -0.016574387382011928 0.14724935577934778 -0.31403419942104538 0.19158223114917725 -0.13884139080897115 -0.11556724669126875 0.015210050357304817 0.24692970692444469 0.092562012401929614 0.036773939411306106 -0.13165825874677881 -0.017854469290901016 -0.0027166683414991616 -0.30523602266176814 -0.038637190823018475 0.32063727872558551 -0.012322314994159728 0.17404717145406415 -0.15898789484991938 0.096956813761928551 -0.12139007853081302 0.13902642003850194 0.3066828184385712 -0.22628300495041953 0.34962499191163915 0.26283752236819063 0.36801995238321256 -0.11107850132655328 -0.22122545440614635 0.0013793570055953678 0.22080259461724477 -0.15841432022144847 0.13804191592516463 0.10410239264391881;-0.39127317855317451 -0.31214664337570458 -0.054122226148368563 0.36354354934170002 -0.033414524153463479 -0.10368604391733482 -0.051000367379250941 -0.13886088964518745 -0.078778694481173181 -0.13023364296865284 -0.2468807640966606 0.12919355128744564 0.2090729736342303 0.3837027204267674 0.014269665484814065 0.10440467462946403 0.34031579941285239 -0.10930543553772513 0.19861444230517702 -0.37774499574635301 -0.021830165642294931 -0.036324518081356907 0.11614577532778111 0.2396515219584977 0.11195772116661937 -0.26949922472700111 0.09961174890436332 0.21681051848686492 -0.10034005444662937 -0.12251254834985732 -0.072233957575065788 -0.3482635135990404 0.1123087934983637 -0.40802684024924418 0.55309279952510104 -0.21656753047502381 -0.22009395137996723 0.027070200502135253 0.10545484765794347 -0.011626588852459364 -0.43543331600309554 -0.11356557036766596 -0.37613395980431907 -0.37411537605363854 0.14617653956437751 0.27544637264642813 -0.12671078798638943 0.18635605931183455 0.17763583444092904 0.11179368377211323 -0.22748524186426849 0.20874891928814227 -0.050087924985513711 0.41344191217260218 -0.16417351519556478 -0.33725364560163518 0.084217951030364238 0.010291565272767299 0.32958202548151178 0.02883787638641153 -0.17744315267591074 -0.061176309308792864 -0.16007475021061601 -0.27652138037744028 0.056558884984649935 -0.13468623746554259 -0.019955431026042861 0.42431344798079468 0.18881483089328341 -0.13040468282014719;-0.41238891913861758 -0.44172311757580662 0.48893204489806646 0.48579205860993269 0.4274863813602604 -0.044568341723317119 -0.092007346151119287 -0.60694227624535158 -0.30943938967538076 0.5117970529655379 0.42985700230258417 0.34564256512951957 -0.041918259624536068 -0.077028180669820909 -0.56044647156103167 -0.22290350927759744 0.89862429555959988 0.80622342056409502 0.06709578256922008 -0.11658087875722747 -0.087760322985526232 -0.62319942379405113 -0.24913037056779155 0.10084579590655442 0.27346555805867645 0.45379174053326449 -0.032324383549485955 0.13615570089917275 -0.010666977263780044 -0.16638190338130857 0.37132771256469815 -0.0079255642505237055 0.13181227469371562 0.024610780455930931 0.11278303495706739 -0.043604445638794453 -0.020885657851767134 0.066196822161659272 0.050167764653027719 0.50555874296048486 -0.027767278982053382 0.044810569880173894 -0.36834649146146287 -0.21329335385898998 0.098930777783896848 0.42023612665610882 0.27666308088913449 -0.091737161303221085 0.034595036897321144 -0.15882978916472876 -0.30064518359173176 0.21407542068222152 0.073252068067347242 0.45426968588765138 0.096493422221160752 0.11474358355449756 -0.044519890223214384 -0.21840760304194709 0.20817214268393949 -0.14255954202788612 0.16169398205154656 -0.043087340015263702 0.29767206597648388 -0.3826844005271432 -0.29965128641507416 0.00028202790511558753 0.047207419359101853 0.36561167885041995 -0.055998388766282381 0.21735892287994441;0.40682582200096806 -2.2183085095548501e-05 -0.076620650049577771 -0.0073522267604980689 -0.18980474191215127 0.19627809606695579 -0.0032521710403823284 0.74806126807611517 -0.14068081560538739 -0.22396275196586066 -0.085457605885634169 -0.23918763625501613 0.18513475121131215 -0.075170773808065056 0.50077736798100037 -0.20943051981991184 0.21449851299720851 -0.34628356159108342 0.010136743547777714 0.25274801470982911 0.16123590875624627 0.31983174818277932 -0.29032500469272127 0.28751564719664985 -0.48043910523115407 -0.24886886548040998 0.089486253906432778 -0.010257709765199106 0.41431448110342062 -0.044720565804096488 0.14861387990265448 -0.075409087151349183 -0.036677085310377763 0.14717413006300731 0.14240173295233677 0.52807249286197622 -0.34302188768641922 0.10397720595504041 0.23090382225753853 -0.20286121789734882 0.27726401588924687 0.036725959459770703 0.38903281836976233 0.18225781719366096 0.48342261478250242 0.41437119383195087 -0.18229013039948289 0.055348468821449996 -0.18057296902183581 0.37721968289951652 -0.26701761913780986 0.43192665000774561 0.28208856310694613 -0.031759790721963208 0.042212012793867909 -0.02700156183840674 0.51960803937271538 0.2677143129984203 0.12117431034388212 0.14005679803140147 -0.18081992999426899 -0.096951078476019595 -0.03568300147979845 0.57955355155398469 0.006630542711580506 -0.30148646301368326 -0.015245635593826527 -0.089741852823429669 0.046641152022285255 0.11125781849472545;0.026161490973187367 0.45824761159487165 -0.44981801750125322 -0.82551807850744563 0.42270012701759696 -0.13894762335915678 -0.020238613374922419 0.049716279210502194 -0.34233086634119458 -0.15346161676741091 0.3250675335241956 0.13347590287961172 0.016346755955913977 0.23070359153678988 -0.058353295377919272 -0.053323875798204926 -0.0072788862015253017 0.36927484914924763 0.051663570394443394 -0.33374463449885983 -0.14118430903646981 0.20430185570577641 0.10298467549071647 0.33192000853293557 0.14568191354740617 0.17653112787622299 -0.014745993408811249 0.047015494015683668 0.078587395958367876 -0.12826734805218018 -0.095248579407577749 0.01920392776576622 -0.20123128387849137 -0.027031846587715791 0.036740163979695394 0.04480804167142656 -0.16631766690556396 -0.22130205419157881 0.067880839515402275 0.18674663286882529 0.026853028320840105 0.40729392379780721 -0.023209098855221762 0.27031101398718782 0.34446291840300436 -0.14179835989133288 -0.20399333048836982 -0.040302561456310927 0.69867708763436942 0.043714347435325512 -0.097105103090980499 0.32777039900798172 0.017093462921030936 0.26307967494705181 0.045878385681338417 -0.42216775321837535 0.0095946554259894561 0.17090378823049338 0.18050126990998311 -0.58670483764400494 0.17687057913666332 -0.0067407024141159962 0.096632885656733836 -0.071878377877122479 -0.14994829625353742 -0.13071671712547733 -0.21532515554879192 0.28388569747106646 0.1614632916307748 -0.42152336663799977;-0.19907288374988355 0.3714040313616811 -0.071158362100298259 -0.025205132982403514 0.08380893120577082 -0.26468867102398969 -0.18886702321915524 -0.019414316950196298 0.20912293070682839 0.031662934548493914 0.22929890570059347 0.10313919912968551 -0.14474937283328423 -0.1857784020090914 -0.0098036164386936988 0.36297853228406962 -0.10977290058719455 0.25438332102712063 0.13990621690672175 -0.088803546067204614 -0.03920321431109075 0.17818387243791495 -0.054406233240431652 -0.13274026813002313 0.0088381380039647111 -0.21651111642313567 -0.21242799796593168 -0.087432263561325108 -0.060303402612969396 -0.19439824934720468 0.14810357170679758 0.27270787360538801 0.054831339214582969 0.18065158619174015 0.030026700943902657 -0.1031891358786014 0.37459082715141517 0.15997141521362609 0.29202334134422492 0.080505806911230354 0.030834669953783488 -0.1224793889475484 0.024447152945883798 0.0069012283075428858 0.3681800235424536 0.12246987226338002 -0.18263050145132451 -0.24317084959808288 -0.30020771717727973 -0.1607381117224061 0.16543443732630145 -0.069016442852127421 0.30589558119750876 -0.22141903249483852 0.25472829931213037 0.16268274627770729 0.2833920440212821 0.3683968913357008 0.23629363553818283 0.017335152028062861 0.061646617460361472 0.1126315107908013 -0.25145580404522194 0.028305266852811022 0.051807975096546069 0.38938483974338134 -0.20298662861037173 0.29795541925385838 0.050116916322090574 0.092878590525628343;0.040351780498364992 -0.17545334499482407 -0.056764474650461839 -0.27004288674457666 -0.13419469998160033 -0.030138408809775023 -0.031058320562597282 0.25344518731975085 -0.015188762278149512 0.28357923862136042 0.13208135025930834 -0.48414103959113686 -0.13749091688936918 -0.052249646931172698 0.38886116686519645 -0.1821500491873804 0.20095136285240317 -0.37290293110347456 -0.41003588338030167 -0.12669561863859513 0.20550708371881873 -0.15011886113594325 -0.2248896873122819 0.046818867764023109 0.19427412429646959 0.22823676725204692 0.0017650753921273797 -0.5130253519444703 0.11987018280358586 -0.10488990174078845 -0.11881289632629258 -0.019704816865489971 -0.40287986547210919 -0.2613235462862602 -0.2081042676646358 -0.19524621401183365 -0.12207236500438125 -0.18650865846298012 -0.004554331758611075 -0.32914278510538569 -0.21768214047363502 0.63044142051058594 -0.026128573139805739 0.16243528623078016 0.19120640797391086 0.15591100772740479 -0.76872418834320744 -0.14726286152123849 -0.27344419294819067 0.14862758201290063 -0.11788163563625187 -0.323693923421423 0.32811704955990917 0.32759709339967702 0.53369845133387939 -0.34895099360467002 -0.097182596774694513 -0.2433967527772834 -0.30845013215860717 -0.00087973785686798109 -0.31174347873004921 0.53233337679980608 -0.22068490076434197 0.16340853295652735 -0.036452031912217804 -0.4760994857645317 0.2621162115636872 -0.27597037254927975 -0.042942522954411817 -0.21670736487730474;0.13658022582828583 -0.17061083341151428 -0.087229673052554066 -0.22136883313219718 -0.021284186706134092 0.031401236002727539 -0.023105270519929794 -0.11459609435174964 0.17752447036592012 0.12036983112611969 -0.31286063537004294 0.15716161106777313 0.068054922752454602 0.30589745470366442 -0.27337838423050898 0.19291427006345663 0.13660354687686543 0.32368731715249222 0.10987417837423344 -0.062983903432860616 0.27010926079421782 0.077793306215318728 -0.025407616993562369 -0.15621924725171002 -0.10618009912847304 0.021354122335664586 -0.013334320638381287 0.041858486077096024 -0.024726487532168374 0.040226671479536867 0.14400744886737069 -0.27921561694075919 -0.071917792409298284 -0.12158812625362322 0.15059895204695442 -0.19066314874272502 0.029938908379169273 -0.20449443282689145 -0.19490515275951079 0.010848601762443932 0.15273222972852676 0.063748602519593814 0.33998554959621002 0.099191629752911417 0.15996168702771155 -0.12110430391574316 0.33166627577103264 -0.18436160025290327 -0.20965451148414538 -0.21081739350601825 0.25181916037992158 -0.054738674784776203 -0.12589795739885135 0.2553083269149875 -0.14164959109816005 -0.30778367316984961 0.32220764125301221 0.2601203389152244 0.026759657859311416 -0.25569976808691819 0.12652746488416988 0.13430318290065429 -0.046232310372691085 -0.024921382077259201 0.1082596273863262 -0.14340945386254797 0.10121532547299034 -0.13954026746190784 0.026885841494915783 0.13211127506310255;-0.1992673317141615 -0.044028769111224178 0.04290092549953594 -0.011765314391659048 -0.17781984844347284 -0.14477612724793254 0.11950075334215034 -0.19126043800790729 -0.1047981753938015 0.36503390063455765 -0.10179565292240078 0.082070393480501297 -0.14771620975442007 0.43230681427277134 0.13265190519837367 -0.27966461569862799 0.18161160625121459 0.089314736234563305 0.715500695287696 0.032881537762506949 -0.20038901704888432 0.12616980457954052 0.054093966299411017 0.018580821771236541 0.4823960086998822 -0.24591067222925322 -0.010713058275922335 -0.20142889122468638 -0.057891608122285901 0.14801890631539208 -0.28974342477008447 0.32201019407829856 0.28468582946596527 0.3373261682736593 0.029599200436046996 -0.08008967736608491 -0.26286765950540708 -0.27660631797037932 -0.043465199651492842 -0.040406829802194337 -0.043738216764748226 -0.46955200792670626 -0.17570358768629507 -0.030762820921981862 -0.10130004745693429 0.30722387113991889 0.3184449807119078 0.076262618622388492 0.35845112724554679 0.28204354991091607 0.053344982907359555 -0.2615446435630398 0.26290119857568311 -0.38816357903022641 -0.11974297194629198 0.18619504057287051 -0.24436904277811758 -0.063411374278919463 -0.19605388444550656 0.23879940218374338 -0.67674684123787832 -0.31133768765288544 0.3934018470150567 0.27743186665874192 0.11376229541303179 -0.14768693656175028 0.18492769277853022 -0.16770440079945365 0.014423506125742962 0.28854300544147066;0.37481807546292301 0.58727116409284152 0.11038738098246204 0.040966337749739519 -0.26015946685385766 -0.47549894758117178 -0.036216634322121882 0.32676653741795264 0.48032079746403994 0.050071615287214336 0.026452430179505337 0.063730574567790729 0.045467647718726335 -0.062555381974351856 0.17519302197112377 0.50603036576740079 0.024217637547359366 -0.032225677586999464 0.072129782656828081 -0.12106561725268454 -0.19254389305435976 0.47554418585869135 0.44433815852253244 0.090449391521594077 -0.14855707524550371 -0.064434810433153952 -0.1394384344077397 -0.031872984191153336 0.46046101378280091 0.13444893820906145 0.17198156718577376 -0.078622793941400843 -0.024065968058707473 -0.4007995931494695 -0.042725275259979101 0.30039169384800185 0.40258312737895802 0.016371932208684683 -0.037716624491011513 0.099046809508048686 -0.18938315820320484 -0.17038654608107431 0.10615104494616262 0.20111126974492152 -0.12632720288925731 -0.012662747482121883 0.22610613298770879 -0.20525916500926536 -0.083474048427461436 -0.10081330104585101 0.30811464772814035 0.13683963946281272 -0.19198053531841483 -0.071888091878860777 -0.22683758235016638 -0.048669134839742362 -0.034488006377026474 0.12874162089575369 -0.23445464833289836 0.037358492720070802 0.20973877722410725 -0.10125496653839038 -0.11910311823763209 0.22854010996348334 0.33643210108138977 -0.013527431128172125 0.21176632628980957 0.036223542006083541 0.02717642930278924 0.010156128874510294;0.21567362428057901 -0.22140819856415817 -0.053196591053860175 0.21579814030340402 0.26693336169660609 0.11250665564024169 -0.16204649191874293 0.017614651719235295 -0.036133143667633205 0.12222981893019438 -0.035653609593758885 0.021172371037045532 0.1808071216306959 0.019168236594141845 -0.15876384997972395 -0.26571276337033667 0.18571509258076851 0.051333702704292418 0.081828261280744455 -0.26068743503200692 0.35997931131394972 -0.048500718607361396 0.25017394259178988 0.11889949562645807 -0.043914381482628891 0.0019198917151371257 -0.22985901595904751 -0.18426388167801405 0.3001031207494661 0.12419233747584375 -0.1063466714581242 0.097352829807299035 -0.16925604536966132 0.45366760868686828 0.14248366697418446 -0.15896726348610768 0.095239061434700484 -0.17394976120587635 -0.14710590083837094 0.086442375920978004 0.23924650155717991 -0.43447245616957142 0.11218880346882378 -0.086136361332049494 0.24239528375751038 0.0039058381714759589 -0.16315987607088775 -0.38461956223775323 0.13240632692247428 -0.17508194463280757 0.072967981681793151 0.16383651176751085 0.26844613193550038 0.1043658148582156 0.33873647695770293 -0.14731250963561515 -0.25987052600494331 -0.17767356984371396 -0.077857957885024906 0.033019339278501945 -0.0133208488082069 -0.13349518034116542 -0.26780481971887349 0.29901670649895756 0.19981557129525374 -0.038037931419311985 -0.044502452446950648 0.23199348232003722 -0.25578950560417729 -0.45267131860990928;-0.023373059436913129 0.35593057301819475 0.14415089640436246 0.22561732557569403 0.079633968062416766 -0.19163593953754943 0.1287666919312081 0.078068324921560739 0.089037280328206819 -0.41873837114447465 0.53194837765236003 0.124632732011993 0.078016715833839845 0.5913461520243608 0.035868454668511622 0.29369718181607529 0.32263277078614022 0.32647119106518824 0.10527885185635301 -0.22057560852348568 -0.0323431844990653 0.24037044579260575 -0.081100791156715035 -0.3112687057781266 -0.20358346133616576 0.39254652688858949 0.062101254312527207 -0.0079085118155570421 -0.3401798167631751 -0.1370694512367864 -0.033086545724754821 -0.18836560691917631 0.30970878346728137 -0.21100273458994015 0.10596147063824946 -0.29274640652643591 -0.073418466808412228 0.3860466063506745 -0.016162810442325298 0.11474827770198653 0.19242675513143004 0.043646289818062504 -0.0578958071314402 0.3446476374459827 0.34669409421777747 -0.32155924575917216 0.138162545200856 0.16510273516424764 0.013505035380731528 -0.35344631549494265 -0.14521226222172684 0.021013407926491073 0.030175190412380964 0.10450372416909133 -0.074388628888128042 0.31388805763955391 -0.069324070229478327 -0.085580614861085841 0.18427575728226886 -0.29446999235233801 -0.0010550927757379171 0.37037963955272912 0.34281280031796396 -0.35566708567405225 0.09565402619186833 -0.18898412151117258 -0.1981308351620133 -0.20866101224985442 0.36655223550366312 -0.12729780514922859;-0.38161110482592497 0.27843563747630451 -1.0081393993812473 -0.076591068194436882 -0.13506972127558922 0.30890618616135562 -0.013164956292256023 0.17178920365917502 0.43773364577915208 -0.7032364437342048 0.11509559824003097 -0.35928059884690405 0.33120759671936728 -0.11736037100664917 0.14317812369085567 0.062162124261051568 -0.15187053998891981 0.10209103428970984 -0.20612530865293391 0.36589737979213743 -0.2416312789010967 0.081330006124526247 0.54962001655911352 -0.43296280659239 0.074945357394011689 -0.2801257317230027 0.39821150687398604 -0.18093417684139801 0.27348749280324258 -0.058941447082345458 -0.33505650934973874 -0.19106098630149262 -0.29612638010262649 0.16994017180280827 -0.12586670036176231 0.46825108386108377 0.14606811352884655 -0.15018746923407306 0.17784251367690518 -0.055187771245431054 0.52260502237139361 -0.14068356107646746 0.14751684768351261 0.056933912307771797 -0.070747921734501354 -0.10335984695422105 -0.22317571772836955 0.33213200808906113 -0.38839653308201572 0.63501064129910323 0.26324866219473503 -0.35886324573965123 0.33615069427741129 0.1604615655243419 0.5898153319545697 -0.17224667403896429 0.22641388925575917 0.38633757848940159 0.069638644802648642 0.14519029659384025 -0.027513608781720711 0.38142974660421713 -0.1847896080846673 0.44768467899317854 0.22904724786517738 -0.15047720514664445 0.1334899713212791 -0.13665848187754781 0.4347445567535152 -0.019099561165280513;-0.42416434377538792 0.41869351857662485 0.045360197420084299 -0.057654817634266858 0.20971134886540474 -0.31228017827011151 -0.16229453193687021 -0.019712542703974503 0.41387459318994907 -0.019244939879810612 -0.015204895026284802 0.023204558504950214 -0.48619558442254035 0.037521613455093986 -0.10146041789602708 -0.084407722718023256 0.069315254067872076 0.013270670556281009 0.10328821191550476 -0.24598499693797138 -0.1724382026528298 0.025455180292566451 -0.065792969194290604 -0.082650966943224075 -0.19821901840612813 0.15937225071190131 0.19126704887271148 -0.26294913852409124 0.14902237339755245 -0.11617681203745796 -0.15805568955641022 0.0029530842569657832 0.59558414073709964 -0.054533035092418275 -0.19940041218485699 -0.32505708989010557 0.16180951873378796 -0.24679198382830736 0.072421870443782788 0.44262561560540842 -0.16168595505252689 -0.22677244443654129 -0.3046708116908326 0.30033904514552845 -0.45374864238480628 -0.12381230912459473 0.41067533630806624 -0.040526309720538375 0.24849928979298208 0.10375234853258335 0.20311502909131421 -0.50843913806488261 0.24640759431240661 -0.13821278114174965 -0.23629485033688691 -0.1773021392528184 -0.24716122448715994 -0.13512098534449249 -0.27046763739994617 -0.043134969935745872 0.63336203891999732 0.27343202964179125 0.19812711235121577 -0.076239197309237353 -0.17754768312459129 0.3846967562667607 0.318269932351607 -0.37757173168715957 0.18728256114454411 -0.43270611304584111;1.0322477548600042 -0.60208889874335447 0.099416368480985243 0.30926586157371611 0.4844438673682277 0.25331943223117831 0.0023074937571219952 1.0100602651325263 -0.30250019942851264 -0.092477999981465789 0.51639466553957836 0.57999568056030082 0.17670202276590236 0.18640736493051088 0.4553436414807549 -0.19019871298010296 0.24540744027645453 0.57136202700696015 0.53735433815900124 0.093828452829012463 0.093539959457472538 0.43491780225970295 0.11625238349732978 0.028777847247939435 -0.038708117190224892 0.45193703750142772 0.11080346511771125 0.25348831413774697 0.70178441098002398 0.16609558943875483 -0.12754526244296926 -0.19077598454412203 0.44997137385202202 0.12505851859337677 0.30295740419738282 0.7262176088848955 -0.099025415447337464 -0.22513122327664414 0.37852665746503145 0.52354004816200406 -0.048175141216291573 0.22658136691012373 0.62423933787970043 0.087000981058876367 -0.062901121371121471 -0.2128593274030337 0.25628568039094124 0.015387902570165153 0.1503361509302959 0.46204791024405378 0.11194691592163325 -0.06363120538719004 -0.19740483480661808 0.29992310297236063 -0.0041001565910662729 0.12087289730889869 -0.1119394262976007 0.11530163827826792 0.11758435607495889 0.17436819230255074 0.19207177670504147 -0.25556421115498834 -0.038650079453058046 -0.80354692214873435 0.30315961011761777 0.39378966905160151 0.19044142915209164 0.44135915962416811 -0.39854505033800719 0.023015708574705394;0.2418397654134192 0.1211702178044327 -0.28303189402034146 -0.19541588252199243 0.54874477896192164 -0.56599608906215182 -0.076550236944890382 0.41429390248060011 -0.11402875850218241 -0.45927897418863783 -0.13397904594380491 -0.084224148745692326 -0.44562871162120038 -0.029304802355825763 0.033515913116667365 -0.16443396467213478 0.026531600983626592 -0.029800301764540151 -0.34582088550546641 0.066182114723758206 0.31671004387251217 0.15330683757527494 -0.069451377178369522 -0.074898040629639756 -0.33497135011068824 0.73979127350107288 0.16111931802418647 -0.078082009328376015 0.26394944998572767 -0.087466409375695983 0.11561828938144722 0.083191963911785169 0.98243043792514317 0.0053480191032121531 -0.015471538399267015 0.26585703206302258 -0.42567936215811719 0.10137923744310702 -0.024364084609584422 -0.15561029831129983 0.22022270959310208 0.10383141833649935 0.12834586393766356 -0.18014675315441253 -0.069001508302892089 0.13509889656853963 0.21726457918246703 -0.23684562390237412 0.135950096760036 0.36086995407650568 -0.37459686394720515 0.21964228178813916 0.63481062246641218 0.061148788899416752 0.059457566928186822 0.034445935668043701 0.0726984522514042 -0.25427776499221222 0.28823276813403509 0.30570771740795361 0.036291424240536524 0.39913988999250799 -0.0054960337493932098 0.27781630029962773 -0.22468431902762412 0.53298418386935453 0.21856602070605982 0.64264566959472824 0.377569810902945 -0.36731110780535592;-0.3740209291133621 -0.10895158235574602 -0.20424290988312122 -0.23449376203747985 0.1295093290227157 -0.14433394607014335 -0.052633811620820065 -0.52803487653861358 -0.03964566791677937 0.1256366564398195 0.047564613439819596 0.9212616438226976 -0.38125854554619781 0.34811051739502757 -0.40409604066462501 -0.086662552369342921 -0.33687982998711369 0.21056927486953758 0.053007774834471513 -0.36341216736434279 -0.1340558790045949 0.10766282161830305 0.026432461862611976 -0.21609766903780969 -0.32593296070139821 0.70157622019539467 -0.12670072139474253 0.31489509593129611 -0.20977408730237673 -0.3897626485635266 -0.18436043013765488 0.09059641553174716 -0.095268988333278307 -0.17744476978650789 -0.026165030660661913 -0.16959208301717685 -0.25554680540992325 -0.049207084756571866 -0.31052482187396691 0.52249033928859046 -0.033238254306120006 0.051999365698411702 0.012507626690257893 -0.22946086816856065 0.46995662294584328 0.29524165286561604 0.23689442453063855 -0.18548811025437653 0.089474980888817737 -0.033822482591950753 -0.35456025988711304 0.20604428726803675 0.20365747603367285 0.41833653769385531 0.029334677004143269 0.10361485041104172 -0.19281194357080117 -0.30362820448727323 0.38768185754479934 0.72300398662845811 0.085533787065201941 0.041999790924681354 0.25593317452264858 -0.23568738942077538 0.060327076728611005 0.51819969384906039 0.51517832084030957 0.46575806261468805 -0.022821333332188234 0.111552299693993;0.25800397897118599 -0.11156487758757852 0.41594570442712675 -0.022624279917879624 -0.6272032954462462 0.3299107047627946 -0.14969124431979453 0.44513398720577818 0.12172962596001159 0.15940354327924564 -0.27829567376544229 -0.039826945229774861 0.027920316742824525 -0.28298871582591123 0.11288278186202413 -0.10342948262074067 0.24929355481709992 -0.047798091555130408 0.071686304736100756 -0.19394607603340488 -0.14228504423846686 0.16788554226031024 