function [y1] = myFF_Function_(x1)
%MYFF_FUNCTION_ neural network simulation function.
%
% Generated by Neural Network Toolbox function genFunction, 17-Dec-2017 11:34:37.
% 
% [y1] = myFF_Function_(x1) takes these arguments:
%   x = 12xQ matrix, input #1
% and returns:
%   y = 1xQ matrix, output #1
% where Q is the number of samples.

%#ok<*RPMT0>

% ===== NEURAL NETWORK CONSTANTS =====

% Input 1
x1_step1.xoffset = [-0.0881655505563656;-0.0481493929308761;0.878932310940736;1.44129332821596e-07;0.00108780530622757;0.00118256084828445;-0.0485341048969542;0.00725070564097842;0.916821019324484;-0.393832825712428;-0.130404184950908;0.82619494054649];
x1_step1.gain = [13.0262123173736;10.8154242402142;15.4173979852494;10.9981718523574;24.2520139974476;35.3358087022;4.33703688516818;9.29998498642262;7.45868037105539;4.96030850743451;8.70845174699481;12.5258145501603];
x1_step1.ymin = -1;

% Layer 1
b1 = [2.1973052425155939;2.4756495007997579;1.6895719751141787;2.9231931176499084;-2.1951349914099567;1.8707051229479259;1.6421372182751917;2.7750446790206516;-1.3543766097949093;2.173650329221438;-1.0616986609979775;-1.5972869818529849;1.443669790188854;-1.1850148379327496;1.790218848514346;1.157826172969648;1.8819053625332594;1.3002012390235298;0.87587830995285032;-1.1465666318215606;-1.290426267389583;-1.0261763488142268;1.8694862265040812;1.1724078802814322;1.1227643068578379;1.2932559597800566;-0.72638363783059878;0.98870984909181081;-1.3623390056570244;1.4837902527301587;0.54857088814165778;-1.094880017791501;0.70808931784650719;-2.0339809862314899;0.97207915568610759;-0.41312744668667606;0.086161035345641471;0.81069085771616844;-0.78769176766384952;0.73788870311469001;-0.13831306279901545;0.07904095736513829;0.13832261044249411;0.31913295059846081;-0.52899286574997451;0.56817174407916393;-0.18491368510221928;0.14320501962959728;-0.36811979537318856;0.074334142997709074;-0.033111174554570966;-0.07586864054373732;0.37788433076417122;0.31414790547689836;0.046463363050020232;0.025997897904679143;0.015403799427231855;0.0063417139185199881;-0.46160301993484104;-0.3051071052665375;-0.82159245540291492;0.80358435315328736;-0.11911413221368437;-0.7646796752858932;-0.76398850443908017;1.1122548813063355;1.0273585653163244;0.80432047853548605;-0.37105779289402441;-0.85761501381028105;1.0677252496381182;-1.7460980458359183;-0.97316889916825788;0.76084352747040263;-1.1939200490414794;1.1784227151560513;1.8379829700601944;-0.97480268318635133;1.4976969429279525;-1.4482485256763087;-1.6362015800408647;0.9803517305513274;1.8198732097292196;1.9430890363408884;-1.5116680985763569;-1.7987873146692623;1.3619876133714179;1.430653917860272;-1.7866945112253156;-1.8900537635044563;1.9567405812913563;-1.7645155720155692;1.6358853907140678;1.9118549419830848;1.734300702011911;2.189933925470807;2.1521695476678615;2.6716793103812821;1.9545774292251565;2.0599340781306341];
IW1_1 = [-1.1315947148242989 1.0659235092105095 -0.86102973145888595 0.11050462255529994 -0.9892179831357748 -0.36215633460295638 0.20384504695729647 0.019347667029467511 0.041069625989725404 0.01764493717643496 -0.58975766234856308 -0.55738648048298223;-0.087036644020431958 0.11491273567448439 -0.25704131190116219 -0.32104479794804475 -0.81723111692940098 -0.56231141279497054 -0.6091266268361103 0.34590829536562462 0.33802099592769619 0.98618481423586468 -0.0195993133289558 0.058227201157190898;0.91616095170765621 -0.68168030899392429 -0.20886670186772832 -0.3398182811380277 0.42462228401785107 -0.44879301816271683 0.93468338587564759 1.1573964275574549 -0.5495868644958225 1.0805043024347529 -0.38769203050743833 0.77159713779703754;-1.4778677605259567 -0.44188990934110878 -0.55974275808488061 -0.75612593332462885 0.48315862487739475 0.48102441478583852 1.9059919627189239 -0.11851773856292014 0.052283833809619623 0.65555368836146488 0.018566300269253336 -1.2805050315926074;0.31299494796684213 0.17335236912073981 -0.29783730668572833 0.93596436149178208 -0.01335515629858286 0.97185547658021632 0.9640695568067813 -0.20840235881939254 0.4400591161613473 0.24003992908909377 -0.21668993539051945 -1.3232883679200127;-0.11526345144006774 0.59983950037975808 0.3506276338463154 -0.29101047068969615 0.88718248029708657 -1.8559061174673781 -0.58117406069511679 -1.2676576331707801 1.3787458598404621 -0.80634872040826422 0.98335574669827308 0.13093899401544815;-1.0873149720202084 0.16442721113707054 -0.66744497069714048 0.5907329931297054 0.22565088806639907 0.15352400242439626 0.070208251174669001 -0.93675579859728153 0.77249044869170824 -0.12625238672866651 -0.3812750725464551 0.23663668458889922;-1.0178973884885223 -0.56843903914080429 2.3133020969904483 -0.70267654676924218 0.87837571679266357 0.56325801305006984 -0.17394437355039158 0.66979055651959618 0.13551441140566203 1.7697931529154789 0.75882475301590879 0.21194271600279985;0.18214174984539896 0.30981099618787156 0.81945759571287813 -0.59998167517864498 -0.89992344055402418 -0.19728590634836518 -1.0768603734540245 -0.4227793822350962 -0.61248082617026112 -0.8233287605011258 0.94321735129242879 -0.27622182646225174;-0.67570488204147094 0.37273805579001773 -0.89013500248988575 0.56010984379060003 0.15321411720531289 -0.2076913845178518 -0.45654584568864082 0.26124582474973856 -0.4900391753706187 0.43075898029570692 -0.31062528993020277 -0.39557625380166522;0.49368261285275838 -0.95406660513140273 -0.38061342674080645 0.49072998291214209 -0.46426734606526371 0.55410998365844544 -1.0068281946565836 0.30963867658508437 0.93331340989662204 -0.62853375962836433 0.42736000603434215 0.88077954527962199;0.85003766165692063 0.38115138057725162 -0.44946977700303353 0.25375175621216417 -0.36883758271082101 -0.65005920169218689 0.31432722539656033 -1.0356680152551458 0.59862540487275773 -0.29594458454505684 -0.60792782438045079 -0.57326871122599921;-0.35982595437165887 1.6673338563635334 -0.97469469808079678 0.14396545284492415 -0.38511726001229407 1.2601616014742036 0.65121999633407179 -0.38861849773396107 -0.039565237570999931 0.15704905678755643 1.9371530205732634 -2.3502736303348892;0.19198767193648092 1.4439553066762991 -0.39881358744187012 1.0013640614579042 -0.42418525896527531 0.29366629225028429 -0.30356707611927747 0.49755941926824321 0.4032281946292115 -0.11311480361158158 -0.14695377400547568 -0.40555109574625492;-1.9386929315001895 0.33627645319909533 0.39608805165394878 -0.37055819399438106 0.14371063780981647 -1.0197194880056517 -0.47290144038801601 -0.16810893477789199 0.59380710862079922 0.48728340946614263 0.84630400865240085 -0.3359300252608925;0.3395590201944671 0.91062445028400962 1.9060679538196017 -0.36311865364651436 -0.75684399738664743 0.014159328194822837 -0.27616391329804468 0.34978994728509721 0.84512596965691222 0.20419601281405628 0.05286049532067183 -0.54323487815005334;0.40974960975128577 0.66261774892432468 0.66653802467337453 0.015723660590096389 -1.8500889680741348 -0.080423684822220912 0.63613887509805378 1.5272047625776908 0.61241325711451577 0.12508629310463176 1.6089720039358155 0.27636609969079984;-0.31530472896214568 -0.85296333941722879 0.96918381036416024 -0.021138980779948885 -1.1324360324325087 0.29309210967684834 -0.37163243387248657 0.40336092264456419 -0.36753949275321551 0.29093121685255485 0.016427491492273676 1.2099777107304424;0.16554204380829632 -0.45889331865624694 0.33346220427889528 0.48272968552038203 -0.6890838334591074 -0.64044218440420475 -0.06422447644149612 -0.29381719077065427 0.40788405796223226 1.1855956599329354 -0.33269009669571442 -0.4460845298079486;0.22819228740867958 -0.33382545227952287 -0.72354240813384885 -0.34641281621088166 -0.90347697574862884 -0.51676206535900027 0.5653327374758943 -0.84719808930829554 0.6885128416657188 -0.19079694371372427 0.84207178589072773 -0.86162894250015631;1.4607086792764463 0.83759106045508558 0.62576845851702767 0.031007839837778502 0.22795719044331958 0.57267946484332399 1.7947126446220154 2.1170322356295777 -0.49666079977350502 0.52021746121255796 -0.55178587467955309 1.341625075240553;0.27819344523784489 0.7797595788710332 0.7657547023996123 -0.98659832112798984 0.5864145000489378 1.2781737852043376 -0.53558415263290626 1.1302880012034731 0.96401275054239488 0.20323480558236243 -0.07110203787058969 0.65144188017785976;-0.11193625497300697 1.4348294113040678 0.14730735361085537 -0.14418608960932403 -0.65640976644426241 -0.51922965036402646 -0.49202271284388532 0.093525926040180479 -0.44240202058396177 0.77890612277191351 0.49176843154305966 0.81844815918905001;-0.76738039389905566 -0.11999023221471472 -0.24524020040015351 0.17177995022713882 1.1469560238264138 -0.040863001574759035 -0.54653516419268033 0.17507680412594762 -1.1531028874984335 0.60433625935362334 -0.94302715821830896 -0.2233423127908114;-1.0320642547222147 0.62140056360732299 -0.59292075568825753 -0.18245629663970911 0.20818799931081505 -0.35555911470803647 -1.0331411242711148 0.80760229165394315 -1.3967254955979092 0.81383799888585895 0.85851114352529367 -1.081585518592004;-0.56815486317723241 1.1483447914614295 1.1507228426826266 -0.76289343415340272 -0.78325784287106648 0.067556160032091958 -0.52771186652368407 0.27565774073538263 -0.29461987614803115 -0.89574707619064542 -0.95670273672411588 1.3305286789087305;0.79862362675540233 0.37025262808192239 -0.54294689194026835 1.1151578149040666 -1.0276245291858503 0.01062480455580107 0.16038906721102258 -0.25851237735359595 0.95447666044415824 0.28452888059403725 -0.89714853009868323 -1.3371237240016298;-0.078838756797539766 0.87832182386506408 -0.61999607662195966 -0.36396635744085887 0.65478261999824794 0.25952103717075292 0.81515985618932629 0.038497241688545139 -0.93106676792805199 0.60679153774414984 -0.02993086676010925 0.59274406568286886;-0.45924800432199664 1.2360479797384114 -0.45751085309890893 0.93065663878569449 -1.0227765325220837 -0.53867517052428582 -0.00093954565431900866 0.11131203511373962 -0.97682561347202335 -0.82202162375849352 -0.068901501165919782 1.0556759857442559;0.29208669672380139 -1.3439992343588252 0.43260640926982552 -0.333885750530799 -1.4064709852528789 -0.41071078466076927 1.0923631436753882 -1.1285852296828809 -1.1126648265129779 1.7637948187515278 -1.3311062072765898 -0.6803181755764347;-0.095828516615158926 0.73563717203883305 1.261360796397158 -0.28516346623832134 1.1649985439893409 0.59840601865373377 -1.3421029697807456 1.544546487543454 0.19660000634454197 0.29078157747489575 -1.5090810525393006 -0.14132892748317127;0.60822289634370197 -0.48940969140403973 -0.1130907909909202 -0.79016604532214174 -0.59792818448783513 -0.25810406130015073 1.5586360077942827 1.1193375058747299 -0.42475741830232688 -0.66215577693120675 -0.42385014830754336 -0.71499353380905761;0.12685514457156066 -0.91664663375709954 0.52880154387549805 -0.7628578392451022 0.32599511204244125 -1.184516554616861 0.56502551055187622 0.27643769725876571 -0.17321363314570129 -0.25808302790363397 -0.56992557240995767 0.8505238375718075;0.69252852309877277 -1.3400675903006063 -0.063101735487822469 -0.1910447920557021 -0.59033481705158697 0.21210835041398743 0.99237411610901871 0.97522131832352743 0.21555864518625081 -1.1968988040491177 -1.0750428606181293 -1.6028531077433281;-0.50741935925121051 -0.22358697546021528 -0.77345792624431897 0.15705827605921746 0.78756159727178376 1.5148909217859012 -1.0485936208790276 0.15927088616881396 0.57353622882497424 0.86923966863056201 0.85309578713201706 1.3600368517980426;-1.1219145680846134 1.2261495667821316 0.058650628733957731 -0.031333386719700776 -1.0089043546951435 0.33359555956222892 -0.57499629907737859 1.225543501067492 -1.1483661604164925 0.51096959707059342 -0.14622320001490771 0.35167133562436509;-0.1440040288883799 0.98227192725035084 -0.15735788516557522 -0.78179212529337316 0.84997796327333486 -0.020825450271750597 0.28422895757139122 0.075788031497354233 0.45690782610749547 0.020122575511933041 -0.66479738406730438 0.85248064159862269;-0.94934005906148455 0.6710223569499123 -0.61634669976051715 -0.25713221329302061 0.79071128709955651 -1.1245709652615004 0.10141706388218728 -0.14961636607232914 0.10001549277357007 0.22920261879656434 0.31227042001859245 -0.62802604639922488;-0.20384909040034244 -1.055245184884982 0.64584175609470351 -0.96708582405284416 0.24674586974787127 1.1707607196073084 1.3005455553624785 0.91021852056066122 0.21032268288860098 1.4451393116639162 -0.14748169863337912 -1.0682248759439443;-1.089094575830057 -0.11920873130770573 1.1053546857920502 -0.95943747950322222 1.3540333146378269 1.1365531977801746 0.24587258729910663 0.39826308082132539 -0.27554822544212848 0.62533021750492168 0.16978002798456787 -0.1712522314285071;0.10703897408052049 -0.0048193753010501578 1.2229743907913309 0.25297282923407272 0.38046553680873907 0.82891478695689846 -0.56438351717074231 -0.41431295581572136 -0.6514069169290877 0.38261670093450184 -0.46898818540874654 0.2894804842760626;-0.44275891749762264 0.35931599819850385 0.097176877524854557 0.64163178610989746 -0.69880773950679254 -0.46774680306948596 0.2202033144308346 -1.0112621675614515 -0.62558049546576155 -0.57519885162699957 -0.21659933911858548 -0.8914671285834882;-0.047222708418456799 -0.59265644221966918 -0.83110392868467609 -0.60069091615674541 0.37449506490826229 1.3099756439470427 0.70064972925258995 0.19979386722355696 0.45760819841401318 0.90182474634490317 0.89310925449013312 -0.62352346966002792;-0.28270860183527763 0.69143075862286785 -1.2238429002645974 -0.17561381934877443 0.72263032982722386 0.99460269845828719 1.3690692024904443 -0.76590738732781938 -0.25631276299773426 0.26996724983831105 -0.27437590559926622 0.49421274789305208;-0.08562475318701826 -1.8011023899818637 -0.19629214555416311 -0.63641246720625666 -0.13137710498446084 -0.23128292720781146 0.24652426587625559 1.1300332399154196 -0.34695499936537377 1.4699847714821062 -0.12930840102177746 -0.99747369764890859;0.043952227698234064 0.02598443793301921 -1.2155918653752757 -0.13884221871663263 -0.99033903723131367 1.060277465998831 1.0547759108012165 -0.61066067951991942 -0.090904484832324009 -1.0843325619147701 -0.18571631404239669 0.57603717788755548;0.016242037144451597 0.11840823495050953 -0.36026480518343085 -0.53832845959496178 -0.63837671342199376 0.82432885703301195 -0.35723988063451595 -0.43183034870893666 -0.30177596139159651 -1.0853706631827418 0.070177032890174185 1.1990155968590519;-0.55759106586224094 1.10809966088088 0.1550580793968066 0.69291001158894039 0.26422795818580352 0.60123422053360787 -0.90228121461904987 -0.82838161445705538 -0.72448304426006682 -0.49203971074937414 -0.090589922252872115 0.91399736660424258;0.24033161535244493 -0.37176861310070186 -1.6559205541681425 -0.68109842068754745 -0.51809496259346888 -0.83003782061437115 -0.60556780526413689 -0.49646454190207212 0.58354463132325418 0.94107501591950726 -0.054153916296593441 1.4652143909038873;-2.4958143480980577 -0.072693674935580738 0.88752081187224741 0.73220804828156094 -0.13148509103563219 0.60614884567499261 0.045973378587916384 -0.90866807548085993 -0.092194704279800338 0.21303738536967973 0.99455367526611482 -0.21412032584197227;-0.87585900315066534 1.2440759907522632 -0.54322153330366629 0.56740963996538263 -2.0880131564552715 1.4409857899300964 0.090727810417554788 0.40094716686713228 -0.73078728591566144 0.070264203034396566 -1.2121439965017993 1.0525894580016681;-0.61637953851556337 0.40993301009790434 -0.48683122202233675 0.88508803365724531 0.39134364206358224 -1.2493975524178584 -0.49824554484637185 0.29316460301323599 -1.4694726982224342 -1.0032817472751019 -0.48403414658997346 -1.535111863366569;-0.67252801429692266 -0.86176701922922228 -0.1710329580823553 0.23257966020029988 -0.32478499742293626 -0.028272722836032271 0.19486671885167167 -1.0985039273654837 -0.7117144336913962 -0.49278636354068334 1.1024895873306753 1.1569872943321711;-0.1848147715281569 0.7832405634118188 1.0892488555324851 -0.29023722039018662 1.2213401312774728 0.93019228016938671 1.0459186224251869 -0.64327174373452911 0.0027370519751846144 1.4665753858259185 -0.13904163703823433 -1.038742866354154;-0.097871619713126579 -0.53307972105281032 -0.044696841373868069 0.84178326192202324 -0.40573216492958325 0.33481162462867198 -0.66946230058833178 -0.3745001925485843 -1.0393938194460759 0.79421753115407678 -0.15650378201159035 -0.49502532406580979;0.63649238244624762 -0.25972009695179299 0.88024618804018961 -0.14218149102762828 -0.11641601482483534 -1.5600993098433258 0.87033392362244588 -0.44135130210377854 -0.31885555157561996 -0.61882942796724438 -0.087089034390482115 0.31685776644161995;0.67380243579447818 0.08880357396062441 1.6729419933862206 0.61469778500059813 -0.67893160309684375 1.0481949124575625 0.076077806696906558 -0.2777052576253714 1.305962540631902 0.96965879345823824 0.61919894479199744 0.25327008258698175;-0.067942783339281193 -0.95255159224982744 -1.3607335295506573 -0.084378377942192259 -0.49774409983179685 -0.4360333928331438 -1.3249141773503068 -0.10974023928500003 -0.2245549606222034 -0.60579808433929294 0.15133020957321797 0.059782877347401675;-0.61514933059977062 -0.20363794764886023 -0.60698945163536511 -1.3990680243462388 -0.49713603806561241 -0.29007181139381633 -1.479564451053959 0.97254719096227549 2.3400652123643879 -0.46104440122816437 -0.85235922943060782 -0.9694558217157867;-1.2708896459567183 -0.27584789935041676 -0.63425219933035626 0.25181108651748196 0.34405285714275924 -0.9938344620053976 -0.96423525798775678 -0.10485912129692557 0.65671676822420855 0.055269317897493543 -0.65660050720225682 1.065439923173737;-0.71700395596283173 0.32368058661428489 -0.31380370370607003 -0.77688184812875782 1.0507366830275142 0.55759236315876115 0.28866163434550335 -0.19059233185818228 -1.1025213525298017 0.66397557819617603 0.4059300999675739 0.83101353802143396;0.76506871661884512 1.0599115063688624 -0.49133045160471178 1.3059423376905253 -1.1251852218487706 1.0609441480713246 -0.36837538331822123 0.24700022886134124 0.71348495933530043 0.15512926344205452 0.046515772916797066 0.59643064414758562;-1.010758378064009 0.2824872411866331 -0.18225022003975777 0.33496029467681399 -0.25146906514101092 -0.84972534422374757 1.1475066867632957 0.4678391017035417 0.2281551483329218 0.40676755431764922 -1.1468385022227394 0.069114599683972738;0.15977800435574413 1.0271688062680495 0.60167412509318352 -0.19047955169348757 -0.22805847700176171 -0.77467792481250641 -1.0129622528212074 -0.21707269988443462 0.94976428183398953 -0.38020537092778917 -0.8259024527881047 -1.7256464822887165;-0.71667803865304625 -1.2949926701265391 0.69526923229044468 0.33139598388647085 -0.47358271943458236 -0.23335610560704415 0.082233377264985683 -0.15012366235310212 0.92762380880019901 -0.067220200241529554 0.2477014853587253 -0.24454347468197607;1.5156169877316457 0.57055418584415474 -0.85124026304314104 -0.43562270086243521 -0.72778456503921773 -0.023262237879913064 -0.3246714770278733 0.39365946322038864 -0.57071278331641873 -1.4839629040310718 -0.51383124687461557 0.088954488623972025;0.30145999882946939 -1.5465798450145345 1.8324241942894171 1.1464521533347232 -0.71866557812043286 -0.68141837764497248 0.61783388266957562 -0.48100241097702567 1.0525994272229249 0.88842407644463528 -0.11458398509530705 -0.42587922940089473;0.21988131833840874 0.41620045524385318 0.67292503817790938 0.86100539299511214 0.11839926949406485 -0.36931001235327571 -0.35948161848608168 -1.0168377245254243 -0.53974983173677116 -0.69003295774938656 -0.28957940654731634 -0.67877289848000311;-0.53001744422776953 -0.19704137426981305 -0.8204656017625549 -0.39111900953462292 -0.78593875640586797 0.43632577504793146 -0.15886831151343503 -0.061969800159619365 0.86125932189370358 0.88114898666379082 -0.014016753603532821 0.30066230230447122;-0.6383456715136232 -0.40411170092462501 -0.78998257988942477 0.40842653920574251 -0.88710108578017954 0.7810225905202921 -0.54554570047242046 0.38504133070091184 0.16223836790386811 0.54072506761519767 0.052420126174525447 1.1069132409897384;1.38462855895675 -0.23691275182054744 0.29468994288684375 0.49538808291938052 0.6041952238762599 -1.0859184167746017 -0.15361200268737479 0.32377775837444572 0.20052813775996106 0.49672648656379181 -1.2998107251982041 0.49654544942355422;-0.30876687479430276 0.19994369991062902 0.18498705323526993 1.7316520261688928 1.5531701455554945 -0.016280676963558047 -0.62136873722428909 -0.11655127645453202 0.72962806823725079 -0.54407939648588055 -0.35661031651235231 -0.47430216126734681;-0.089561043377483787 -0.064629219796367959 -0.83833207540261512 -0.26749039432355159 0.35711970240718371 0.60042316993616784 0.38528254123086592 0.70507171529365953 0.78157449654029798 -0.94296332736496857 0.046513406105833724 1.0303275006762316;1.1762541742249915 -0.071885134336082207 -0.94685272571356216 -0.080951356281395742 -0.45140289433420538 1.3925946847049282 -0.086475989783776228 1.6982122857115827 -0.49044503322809396 -1.2424319248722773 1.0499585909283333 -0.73038008386175612;-0.1567934262065131 -0.2190082295239098 -0.49883235857488195 -1.9184423545995046 0.13236198264474269 -1.5067025723463485 -1.9588965850940565 -1.0288445123828798 -0.49084139028886564 0.37364051700501405 -0.10744735026616435 1.5020268850068315;0.10360407155120153 -0.31501097257284921 -0.22014848151556823 0.54642649240873808 0.39060885866206646 -0.53674806892743598 -0.45367530605620621 -0.59237404344570788 -0.050803763324016427 -0.66640048510990879 -1.0694587773833162 1.3598214824157238;1.1921761389189574 0.74212027459236107 -0.60707179268098255 0.85733854885277772 -0.86948071250120129 -0.20381273311977202 -0.73854937689176325 -0.15822525647178415 0.70961583766967173 0.73385458354756727 0.10699813250000471 -0.97721829956636219;-0.83084667915340471 1.4836586213257306 0.24266437861897019 0.78869826110199093 0.34077295884722913 1.2981569286448713 0.94017879240366165 -0.094179183670438468 0.33634668073114077 0.81004311861107214 0.87753144547119566 0.44231882615834539;-0.15459168301307225 -0.22982925173187463 0.76308714274561507 0.23472332253762654 -0.28706680702414472 -0.56631760416117072 0.80310096319011381 0.9444625111162217 0.63635457683159458 0.64101957200561466 -0.63872126313663335 0.90138193926335997;-1.1782429789187576 -0.081611703682577252 0.26398539456926134 -0.34813866793365866 1.4442152013563823 0.94733738953556412 -0.1453924623756665 -0.64267104556283317 -0.16128586323591598 0.60815899972686616 -1.2563404137373984 -0.16783738867698975;-1.4454741954380805 1.1688190069042852 0.19293345177491211 -0.80375656104730897 -0.24940745709558701 -0.41452144386253004 1.0621274798697611 -0.13671593071391408 0.67288596408029455 1.4096815314026871 0.47216734539315242 -0.088262825321296548;0.48713533957617028 -0.6225376884288738 -0.10535015447589396 -0.0033570464233224151 -0.90214233104166608 0.88884685795414398 -0.31957720549525109 0.53141378552150897 0.42538694198733479 0.27684654711315326 -0.97521507460055201 -1.3371178479843491;0.61401651840100513 -1.1470675047906704 0.96486390959956381 -0.58546532717354183 1.278573480036846 0.0340169262656769 -0.19564209824669779 0.31105256496453787 1.1898306985907514 0.28735531122695901 0.34435319852788704 0.7962764654304445;-0.36088416062907225 0.38275589605679078 0.19482506851752923 -0.34280664947682959 1.1694107119071799 1.1393542043094094 1.7687867332315914 0.86658009603788355 1.6754487827484215 1.0929436370771 0.89954440700043858 1.3675441774554213;0.34774309299289374 -0.75002923082109862 0.028941501435815507 0.095192308427717795 -0.86098841682766536 -0.59865109430269681 1.3122833791931658 0.2327524148765428 -0.89472817441791286 -0.069854334649594091 0.033067570753632126 0.064660800002822552;-0.34189270837847274 -0.56170225180525668 0.71859692474549841 -0.069164128084103285 -0.76639382541733003 -0.077342462876401605 0.21454730135303193 -0.37165829284640267 -0.25032307215814137 -0.34275170801517368 0.89568935798520755 0.3625676568718903;-0.32702081067864042 0.53198224765078839 1.4409714348644755 -0.10825527638821753 0.16281787726995822 -0.64604943805926507 0.75692786501536058 -0.2445698012095191 -0.26537281504724275 0.88438724646946776 -0.48670521476882106 -0.07624237909430745;0.48470476228927861 -0.9729302578130723 1.0888400153756117 -0.38508804519672785 0.87601888770081549 0.2841495828336838 -0.037355262499933657 0.48178373822014536 -1.1816729379566906 1.7982379672564959 0.88069854071092035 0.81793380820628536;-0.71217083398798031 -0.012798302190418255 0.18439341457737851 -0.22556637703766616 0.34717509947357378 -0.5258691076555162 1.4536619664976398 0.97717849334899387 0.91375687021288066 1.099583507632752 -0.40000577216722738 0.37154107461737007;0.40811389104421553 1.3448957554025258 -0.11285631439272763 -1.0996177000087586 -0.91517359319186342 1.3278224693055076 -2.5486841852235451 -1.460348265689871 0.09336751629113213 -0.25082304097730079 0.011399901490373482 0.39337280026246968;0.99340181641086434 -0.13220332700657381 -0.34165813145377055 0.70598180907074715 0.34776349710103333 -0.89408838171792659 0.46925405969955142 -0.66641665587865362 -0.82978597144930277 0.36954858763233661 -0.095643420132324214 -0.44870580138151089;0.15890181816014293 -0.044798419021231058 0.98426992044263395 0.24732976495995646 0.29298561399524758 0.32249280445330775 0.41927541599689855 -0.85395329526357922 0.7171163785620176 0.99782482973236863 0.32372663094039722 -0.71146435383336626;-0.25848538586715319 -0.2202288818139691 0.24346956759634472 1.4957756056138705 -1.1068704906919993 0.051121559235718851 0.004717398414603273 0.95300402930269512 -0.81825478131636209 -1.1484263816717286 -0.50675034610960301 -0.34027308760535452;-0.75350192721170683 0.7586953202179999 -0.27506267469896628 -0.41323289670241958 -1.147872546955977 0.8810921737461378 -0.59824593339788379 -1.2323274623139209 -0.8494172906430314 0.25081926100730517 0.39973536464279347 0.26197724931098249;0.035154290283465207 0.082179953777241965 -1.2032502443970363 -0.39241063101574331 0.7140516298120565 0.37450111462832419 -0.82619301954721291 0.72938714329304266 0.046036177434954598 -0.18172300566149086 -0.26363871624233814 1.137485485836665;0.58003623077040667 -0.63786539795467079 -0.2689818586409799 -0.10275691634570039 -0.52128591217638498 -1.1093831525382292 -0.11416806311401363 -0.46889852768955914 0.0036559923069180516 0.55617807955123699 0.51677450857264451 -0.56550214193082682;-0.11396003691585321 -0.49470458069096412 0.78931816617364425 -0.27918876210612137 0.82646323382249343 -1.9323146609144093 0.72704765745519595 -1.5561788082721535 1.4543837964842949 0.78591512344833547 0.7188556196082917 0.64250789560661781;0.33790597839655362 0.69875663818758849 -0.65607612690204165 0.95510138769019182 -0.058924336662146651 1.3519398008310723 -0.015208909501430265 -1.0843131170807114 1.260637021273193 0.27935124250131177 -0.076272015304620008 -1.2263710693014764;0.38166512306840722 -0.086368813851035189 0.17649556667265154 -0.089251863970859852 0.072205591748574161 -0.37259677263414243 0.8470165496481713 -0.48156843430859037 0.33477626861651388 1.5274213054543235 0.32077313316233108 1.4458506444634289;0.50263543286378298 0.31627825292080841 -0.32641186133391881 -0.8073089839613603 -1.0253652483175546 0.092352127106251403 -1.0420307781016136 0.84944426541728113 -0.031818304778063002 -0.60015884802091701 0.4797972526686245 -0.92066455925995816];

% Layer 2
b2 = -0.1420429466268589;
LW2_1 = [-0.61378632703410629 -0.37570119834395022 -0.72306712645228199 -1.5337056730394294 -0.56732682266449386 -0.94254564938406948 -0.48851452359454478 -0.95586605549090098 -0.69537526394708404 -0.32483617045474106 -0.75549611367921254 0.17612747046990723 0.40671805084850166 0.74025251786994262 0.59867925806561018 -0.34964741254973086 0.25857131513164711 -1.0529843613129752 -0.87787044445826601 0.49838808569018433 -0.29108496444026677 -0.38263115712931894 -0.37000128615428296 -0.22671884161768846 -0.36639957538020207 0.52108731211938908 0.76280781853267654 0.29688120840660392 0.76649266953600781 0.54226162402805678 -0.39385202585612328 -0.93207984954334011 -0.6186288659443635 0.090011846466526782 -0.66165468842722819 0.28936841666807789 0.28252916684240692 0.048045034974603079 -0.44671580191520832 0.86130445725576255 0.60162053668793303 -0.4714233027381069 0.48864707144113745 -0.80933518528936865 -0.27732139758862651 0.36389119651866181 -0.70390460130355637 -0.23990550476109465 0.5408944827858081 0.22045682979100173 0.56379734150340655 -0.49524837217149331 -0.24359469366231565 -0.71547040633154679 -0.10168836411722515 0.26264292727218413 -0.64085541310868577 -0.77834356931574877 0.64514387013682339 -0.024840343315316891 0.63459558928874349 -0.45772316557781745 -0.63694529853180026 -1.0485417501695082 -0.22290366927518515 -0.68514843703465378 0.34887674685281861 0.13776692796689924 -1.2444148323869204 -0.48478883859965505 -0.3897104086691191 -0.46897252597273653 0.97797275443424636 -0.47776541308469661 -0.26842556257460121 -0.36280304786788414 0.85051186578367566 -0.88291599994138215 0.35152325453848704 -0.33941051104137371 0.57567605710652447 0.47644469717338911 0.69421327171020375 -0.35443125335525527 -0.87054892155560626 -0.51193998080290393 0.70389685120335832 0.86903010077387666 0.94189937249668254 0.49109691211068079 0.40495316298129613 -0.57501272822399907 0.63803802727597647 -0.38277765862717134 0.84556827544637547 -0.40812269132874701 0.8169826359296497 0.76439519055789684 -0.36106025189013774 0.64981851050309369];

% Output 1
y1_step1.ymin = -1;
y1_step1.gain = 0.312154019573227;
y1_step1.xoffset = -0.554820940675715;

% ===== SIMULATION ========

% Dimensions
Q = size(x1,2); % samples

% Input 1
xp1 = mapminmax_apply(x1,x1_step1);

% Layer 1
a1 = tansig_apply(repmat(b1,1,Q) + IW1_1*xp1);

% Layer 2
a2 = repmat(b2,1,Q) + LW2_1*a1;

% Output 1
y1 = mapminmax_reverse(a2,y1_step1);
end

% ===== MODULE FUNCTIONS ========

% Map Minimum and Maximum Input Processing Function
function y = mapminmax_apply(x,settings)
  y = bsxfun(@minus,x,settings.xoffset);
  y = bsxfun(@times,y,settings.gain);
  y = bsxfun(@plus,y,settings.ymin);
end

% Sigmoid Symmetric Transfer Function
function a = tansig_apply(n,~)
  a = 2 ./ (1 + exp(-2*n)) - 1;
end

% Map Minimum and Maximum Output Reverse-Processing Function
function x = mapminmax_reverse(y,settings)
  x = bsxfun(@minus,y,settings.ymin);
  x = bsxfun(@rdivide,x,settings.gain);
  x = bsxfun(@plus,x,settings.xoffset);
end
